svm_type c_svc
kernel_type rbf
gamma 0.1
nr_class 11
total_sv 293
rho -0.458368 -0.253928 0.0145277 -0.411868 0.181437 -0.358663 0.108972 -0.279856 -0.0161878 -0.061657 0.110408 -0.118488 -0.270552 -0.0972998 -0.320445 -0.054994 -0.138233 0.0365896 0.0186042 -0.0174812 0.00657795 -0.0109789 -0.00982831 -0.0221314 0.0861483 0.0384416 0.0214862 -0.220183 -0.134555 0.0705045 -0.0183406 0.190844 0.0428987 0.0240063 0.218737 -0.114373 -0.0376137 -0.0481619 0.0378815 0.0184278 0.00523686 -0.0103217 0.146085 0.0410974 0.0223296 0.0288662 0.0629373 0.0258909 0.00241784 0.348247 0.0325154 0.00488896 -0.174418 0.0216182 0.366522
label 10 21 22 32 31 33 41 42 51 52 53
nr_sv 70 28 18 29 22 26 21 13 15 27 24
SV
10 0 0 0 0 0 0 0 0 0 0:0.004194364 1:-0.018426538 2:1.7540293 3:0 4:0.30000001 5:1.8 6:-0.0049725026 7:0.60639 8:1.8310421 9:-0.013016932 10:0.77494669 11:1.8408582 12:-0.18694481 13:0.46384001 14:1.8401158 15:-0.20615047 16:0.19612305 17:1.8034811 18:-0.20782034 19:-0.039833382 20:1.6960413 21:-0.1988309 22:-0.10382143 23:1.664526 24:0.16821352 25:0.47265303 26:1.8110075 27:0.20839 28:0.19622968 29:1.7839639 30:0.21932563 31:-0.016865641 32:1.6839345 33:0.20437589 34:-0.068506598 35:1.6538436 36:-0.074643083 37:-0.018581524 38:1.7220733 39:-0.091716662 40:-0.40273815 41:1.6915221 42:-0.078405522 43:-0.76926136 44:1.6968699 45:-0.098734133 46:-0.83702564 47:1.6027374 48:0.078165263 49:-0.01286912 50:1.7097225 51:0.10572134 52:-0.39863771 53:1.6807609 54:0.086643189 55:-0.76136053 56:1.7025206 57:0.086350411 58:-0.82856327 59:1.623261 60:-0.0035841763 61:0.53140068 62:1.8256757 63:-0.19400987 64:-0.18206944 65:1.6502256 66:-0.24742563 67:-0.10053973 68:1.6669569 69:0.20447049 70:-0.13757326 71:1.6250668 72:0.15532473 73:-0.042763501 74:1.6219366 
10 9.550764133560838 0 0 0 0 0 0 0 0 0:0.0042194873 1:-0.018459082 2:1.7540743 3:0 4:0.30000001 5:1.8 6:-0.0049851686 7:0.60638732 8:1.8311012 9:-0.012973778 10:0.77494842 11:1.8408735 12:-0.1868277 13:0.46397412 14:1.8400817 15:-0.20623699 16:0.19609882 17:1.8033938 18:-0.20786598 19:-0.03864342 20:1.6964602 21:-0.19819674 22:-0.10476145 23:1.6650743 24:0.16825895 25:0.47272414 26:1.8109288 27:0.20838575 28:0.19638555 29:1.7837796 30:0.2190835 31:-0.017059416 32:1.6837456 33:0.2043639 34:-0.068309009 35:1.6550732 36:-0.074605614 37:-0.018567219 38:1.7219625 39:-0.09196797 40:-0.40222585 41:1.6914904 42:-0.07718128 43:-0.77195805 44:1.6971512 45:-0.098800287 46:-0.83747846 47:1.6024728 48:0.078178719 49:-0.012928635 50:1.7098444 51:0.10570279 52:-0.39771241 53:1.6806514 54:0.087424815 55:-0.75985444 56:1.7028124 57:0.086189851 58:-0.82839423 59:1.6234798 60:-0.0035960376 61:0.53139931 62:1.8257196 63:-0.19569302 64:-0.18332388 65:1.6547053 66:-0.24884117 67:-0.12817506 68:1.6583281 69:0.20653389 70:-0.13878511 71:1.6294208 72:0.15526263 73:-0.045133069 74:1.621973 
10 0 0 0 0 0 0 0 0 0 0:0.0041415393 1:-0.01853402 2:1.7541702 3:0 4:0.30000001 5:1.8 6:-0.0049070716 7:0.60644257 8:1.8311596 9:-0.013008431 10:0.77493274 11:1.8410318 12:-0.18685292 13:0.46379879 14:1.8401024 15:-0.20636041 16:0.19693139 17:1.8033571 18:-0.20784083 19:-0.04094021 20:1.6953802 21:-0.19925565 22:-0.10375543 23:1.6643884 24:0.16828175 25:0.47262648 26:1.8111055 27:0.20819058 28:0.19632116 29:1.783927 30:0.21854065 31:-0.018290669 32:1.6831157 33:0.20356761 34:-0.069649473 35:1.6534901 36:-0.074693486 37:-0.01861091 38:1.7220204 39:-0.091948338 40:-0.40246299 41:1.6917703 42:-0.077286519 43:-0.77304089 44:1.6964314 45:-0.099063858 46:-0.83765054 47:1.6020398 48:0.078102231 49:-0.013034269 50:1.7099807 51:0.10556525 52:-0.39790145 53:1.6808672 54:0.087217003 55:-0.7600311 56:1.7031131 57:0.085649744 58:-0.82857442 59:1.624157 60:-0.0035403669 61:0.5314405 62:1.8257616 63:-0.19718248 64:-0.18311793 65:1.652271 66:-0.24833693 67:-0.10120067 68:1.6625891 69:0.20646988 70:-0.13815066 71:1.6262677 72:0.15411185 73:-0.040593624 74:1.621038 
10 0 0 0 0 0 0 0 0 0 0:0.0042387098 1:-0.018515855 2:1.754138 3:0 4:0.30000001 5:1.8 6:-0.0049537569 7:0.6064319 8:1.8312116 9:-0.013038501 10:0.77494055 11:1.8411024 12:-0.18690813 13:0.46378344 14:1.8400557 15:-0.20665851 16:0.19799685 17:1.8035946 18:-0.20790774 19:-0.039591849 20:1.6959195 21:-0.19900323 22:-0.10422549 23:1.6656013 24:0.16824555 25:0.47259313 26:1.8111141 27:0.20816129 28:0.1962955 29:1.7839134 30:0.21874791 31:-0.017904878 32:1.6831682 33:0.20388007 34:-0.069145128 35:1.6548772 36:-0.074613526 37:-0.018606871 38:1.7219715 39:-0.092006356 40:-0.40254349 41:1.6917667 42:-0.077357523 43:-0.77311218 44:1.6964719 45:-0.099287987 46:-0.8382954 47:1.6018922 48:0.078206629 49:-0.013009459 50:1.70997 51:0.10560241 52:-0.39793801 53:1.6807618 54:0.087109938 55:-0.76004064 56:1.7033024 57:0.085488871 58:-0.82848251 59:1.6245 60:-0.003579095 61:0.53142703 62:1.8257995 63:-0.19683704 64:-0.18293646 65:1.6505864 66:-0.24866682 67:-0.10383573 68:1.6674621 69:0.20522195 70:-0.13965985 71:1.6277573 72:0.15530616 73:-0.04383418 74:1.6224046 
10 0 0 0 0 0 0 0 0 0 0:0.0042251348 1:-0.018547133 2:1.7541702 3:0 4:0.30000001 5:1.8 6:-0.0049344599 7:0.60645032 8:1.8312368 9:-0.012993261 10:0.77497917 11:1.8411787 12:-0.18690252 13:0.46374679 14:1.8400772 15:-0.20667301 16:0.19733757 17:1.8033502 18:-0.20816463 19:-0.038616866 20:1.6960678 21:-0.19898608 22:-0.10471275 23:1.6650584 24:0.16820981 25:0.47266567 26:1.8110323 27:0.20819812 28:0.19637096 29:1.7837791 30:0.21908082 31:-0.016660213 32:1.6835966 33:0.20394717 34:-0.06857501 35:1.6552448 36:-0.0746224 37:-0.018633574 38:1.7220347 39:-0.092020296 40:-0.40254092 41:1.6918037 42:-0.076772943 43:-0.77421451 44:1.696486 45:-0.10017419 46:-0.83912838 47:1.6015954 48:0.078182667 49:-0.013057217 50:1.7099502 51:0.10562998 52:-0.39805281 53:1.6808281 54:0.086748615 55:-0.76101077 56:1.703033 57:0.085507154 58:-0.82861847 59:1.6245949 60:-0.0035655499 61:0.53144062 62:1.8258176 63:-0.19573763 64:-0.18282431 65:1.6508701 66:-0.24864063 67:-0.10994142 68:1.663583 69:0.20577098 70:-0.13723728 71:1.6250703 72:0.15493797 73:-0.044249833 74:1.6222801 
1.124407151945824 0 0 0 0 0 0 0 0 0 0:0.0043221265 1:-0.018555507 2:1.7541819 3:0 4:0.30000001 5:1.8 6:-0.0050001889 7:0.60644811 8:1.8312764 9:-0.013027966 10:0.77501231 11:1.8412175 12:-0.18699349 13:0.46373445 14:1.8401039 15:-0.20670126 16:0.19720745 17:1.803272 18:-0.20848173 19:-0.03703776 20:1.6965761 21:-0.19888443 22:-0.10462804 23:1.6651859 24:0.1681437 25:0.47270662 26:1.811095 27:0.2080953 28:0.19646707 29:1.7836747 30:0.21876316 31:-0.017629668 32:1.6832287 33:0.20380358 34:-0.069122583 35:1.6551809 36:-0.074554414 37:-0.01864925 38:1.7220345 39:-0.092168093 40:-0.40258867 41:1.6917741 42:-0.076901905 43:-0.77451408 44:1.6966136 45:-0.10123357 46:-0.84101665 47:1.6005998 48:0.078299612 49:-0.013060302 50:1.7099802 51:0.10561143 52:-0.39815128 53:1.6808431 54:0.086614162 55:-0.76127803 56:1.702852 57:0.085301608 58:-0.82878518 59:1.6246352 60:-0.0036191791 61:0.53143913 62:1.8258474 63:-0.19295898 64:-0.18680963 65:1.6544309 66:-0.24934468 67:-0.11318073 68:1.661972 69:0.2051243 70:-0.13802087 71:1.6269956 72:0.15449588 73:-0.044453651 74:1.622211 
8.974878199471316 0 0 0 0 0 0 0 0 0 0:0.0058031529 1:-0.018995807 2:1.7499938 3:0 4:0.30000001 5:1.8 6:-0.006550476 7:0.6066643 8:1.8366058 9:-0.017771438 10:0.775002 11:1.850425 12:-0.18830572 13:0.46127793 14:1.8446522 15:-0.20178933 16:0.19591916 17:1.8002408 18:-0.20461518 19:-0.026043668 20:1.69524 21:-0.19436771 22:-0.1003544 23:1.6581979 24:0.16840707 25:0.47122636 26:1.811378 27:0.20649658 28:0.20161995 29:1.7761314 30:0.21394886 31:-0.010173365 32:1.6731625 33:0.1950347 34:-0.063251778 35:1.6447399 36:-0.073398322 37:-0.019841656 38:1.7185471 39:-0.091786325 40:-0.40467402 41:1.6886601 42:-0.077268034 43:-0.77988386 44:1.6926985 45:-0.1035776 46:-0.84490788 47:1.5917335 48:0.079948127 49:-0.012821317 50:1.7052679 51:0.10687746 52:-0.39665386 53:1.6752458 54:0.086178556 55:-0.7595892 56:1.7014005 57:0.084089756 58:-0.82757592 59:1.6238675 60:-0.0047974586 61:0.53160453 62:1.8297908 63:-0.20280507 64:-0.16248932 65:1.6317694 66:-0.24483605 67:-0.1102909 68:1.6514804 69:0.19867493 70:-0.13277686 71:1.6143966 72:0.14374723 73:-0.059637606 74:1.6067772 
0 0 0 0 0 0.606615644638031 0 0 0 0 0:0.0066460818 1:-0.023849875 2:1.7601283 3:0 4:0.30000001 5:1.8 6:-0.007471554 7:0.61126316 8:1.8260138 9:-0.025407903 10:0.77860981 11:1.8438339 12:-0.18617532 13:0.46762222 14:1.8550298 15:-0.20576924 16:0.19251327 17:1.8212094 18:-0.23584542 19:-0.022760063 20:1.7298324 21:-0.23519564 22:-0.095877141 23:1.6995394 24:0.16703942 25:0.47732747 26:1.8115504 27:0.213893 28:0.19923989 29:1.7960637 30:0.24335596 31:-0.013890743 32:1.7008929 33:0.22569239 34:-0.077686235 35:1.6770594 36:-0.072681598 37:-0.024594292 38:1.729872 39:-0.091798931 40:-0.40901101 41:1.7128429 42:-0.076651052 43:-0.77700788 44:1.7242415 45:-0.097120978 46:-0.84690481 47:1.6269755 48:0.08097896 49:-0.017700717 50:1.7141275 51:0.10731518 52:-0.39880466 53:1.6963401 54:0.088484243 55:-0.76351732 56:1.7306039 57:0.086579978 58:-0.83249199 59:1.6576452 60:-0.0054637641 61:0.5350939 62:1.8218851 63:-0.24571845 64:-0.1779909 65:1.6765475 66:-0.27896562 67:-0.11480479 68:1.6745384 69:0.2267172 70:-0.1572444 71:1.648334 72:0.27002728 73:-0.08201018 74:1.6605539 
2.138283437680775 0 0 0 0 0 0 0 0 0 0:0.0043136813 1:-0.02378051 2:1.7553213 3:0 4:0.30000001 5:1.8 6:-0.0046365038 7:0.61143786 8:1.8309741 9:-0.019071501 10:0.77856636 11:1.8492012 12:-0.18477443 13:0.4677816 14:1.8454742 15:-0.1991601 16:0.19351982 17:1.8172355 18:-0.20558824 19:-0.048233688 20:1.7153764 21:-0.20363694 22:-0.10609868 23:1.6874373 24:0.17199007 25:0.47362798 26:1.8112295 27:0.21213952 28:0.19577108 29:1.7916882 30:0.22246528 31:-0.023736104 32:1.6887457 33:0.20414835 34:-0.081110507 35:1.6633494 36:-0.074254103 37:-0.025060579 38:1.7250326 39:-0.082164191 40:-0.40113527 41:1.7007062 42:-0.053348806 43:-0.76811802 44:1.7112112 45:-0.071966372 46:-0.84549105 47:1.6125026 48:0.080621034 49:-0.016943753 50:1.7092435 51:0.10460037 52:-0.40248531 53:1.6933665 54:0.094479352 55:-0.76693851 56:1.7314491 57:0.096592531 58:-0.83317733 59:1.6587629 60:-0.0034280084 61:0.53519398 62:1.8255897 63:-0.16890597 64:-0.2019677 65:1.6570992 66:-0.24336214 67:-0.12645544 68:1.6706874 69:0.20141435 70:-0.15715598 71:1.6420619 72:0.24836701 73:-0.075960517 74:1.6632705 
10 0 0 0 0 0 0 0 0 0 0:0.0042718351 1:-0.023737669 2:1.7553713 3:0 4:0.30000001 5:1.8 6:-0.0045426637 7:0.61141437 8:1.8309102 9:-0.018966183 10:0.77861136 11:1.8491271 12:-0.18483721 13:0.46799892 14:1.8457425 15:-0.19896838 16:0.19331747 17:1.8171828 18:-0.20521854 19:-0.047900036 20:1.7155192 21:-0.20350368 22:-0.10780087 23:1.6867065 24:0.17176636 25:0.47385323 26:1.8113074 27:0.21193048 28:0.19565898 29:1.7920768 30:0.22315747 31:-0.0237661 32:1.6889768 33:0.20319715 34:-0.080809996 35:1.6625609 36:-0.074285738 37:-0.024944574 38:1.7248328 39:-0.081596754 40:-0.40070373 41:1.6991372 42:-0.052200437 43:-0.76692116 44:1.710149 45:-0.070680715 46:-0.84499478 47:1.6097844 48:0.080592707 49:-0.01697734 50:1.7095642 51:0.10551785 52:-0.40192467 53:1.6921511 54:0.096170768 55:-0.76393723 56:1.7313578 57:0.097984597 58:-0.83188039 59:1.6588705 60:-0.0033618882 61:0.53517425 62:1.8255427 63:-0.17053971 64:-0.20880499 65:1.6608722 66:-0.24316011 67:-0.12620103 68:1.6709523 69:0.20052838 70:-0.15583101 71:1.6387932 72:0.2481586 73:-0.10299174 74:1.6550913 
10 0 0 0 0 0 0 0 0 0 0:0.0040327162 1:-0.023691192 2:1.7554989 3:0 4:0.30000001 5:1.8 6:-0.0043023899 7:0.61139387 8:1.83079 9:-0.019489855 10:0.77861404 11:1.8489299 12:-0.18595344 13:0.46809226 14:1.8460689 15:-0.19945182 16:0.19324215 17:1.817184 18:-0.20551282 19:-0.04778938 20:1.7156954 21:-0.2029205 22:-0.10888641 23:1.6857638 24:0.17057379 25:0.47389668 26:1.81144 27:0.21114662 28:0.19627608 29:1.7928786 30:0.22266638 31:-0.023989886 32:1.6894047 33:0.20297259 34:-0.081699893 35:1.6638253 36:-0.074667677 37:-0.024967626 38:1.7250969 39:-0.081373617 40:-0.39947605 41:1.6977289 42:-0.051174723 43:-0.76683265 44:1.709718 45:-0.069695264 46:-0.8448292 47:1.6115191 48:0.080550849 49:-0.016867042 50:1.7095554 51:0.1058345 52:-0.40084672 53:1.690567 54:0.097151026 55:-0.76484466 56:1.730834 57:0.099042147 58:-0.83178896 59:1.6582115 60:-0.0031810589 61:0.53515649 62:1.8254516 63:-0.17087489 64:-0.21151306 65:1.6609704 66:-0.24672082 67:-0.12976976 68:1.667341 69:0.20170122 70:-0.15621655 71:1.6419365 72:0.24468586 73:-0.077464625 74:1.6581929 
0 0 0 0 0 4.888451748070192 0 0 0 0 0:0.0039227307 1:-0.024628505 2:1.7648616 3:0 4:0.30000001 5:1.8 6:-0.0044114701 7:0.6122936 8:1.8212574 9:-0.022997946 10:0.77580702 11:1.8362134 12:-0.18286653 13:0.47611383 14:1.8388152 15:-0.20389722 16:0.19983956 17:1.8179188 18:-0.21894547 19:-0.020206735 20:1.7299078 21:-0.21397604 22:-0.077102959 23:1.6991422 24:0.16953067 25:0.48175058 26:1.8012547 27:0.21197459 28:0.21017066 29:1.7864799 30:0.22445354 31:-0.0034124851 32:1.6872005 33:0.20737907 34:-0.051678792 35:1.6625476 36:-0.074778408 37:-0.025804833 38:1.7340503 39:-0.074288085 40:-0.42422351 41:1.7183809 42:-0.047981143 43:-0.7847358 44:1.7178199 45:-0.064249396 46:-0.85755336 47:1.6225019 48:0.080427706 49:-0.018143684 50:1.7192779 51:0.09910287 52:-0.41246977 53:1.6963027 54:0.075310171 55:-0.77700055 56:1.7146263 57:0.076775521 58:-0.84485936 59:1.6361551 60:-0.0032526702 61:0.53585088 62:1.8183098 63:-0.22809905 64:-0.14339319 65:1.6690738 66:-0.26805311 67:-0.099710211 68:1.6865346 69:0.21125039 70:-0.11262074 71:1.6322579 72:0.15753871 73:-0.038996309 74:1.6466866 
0 0 0 0 0 10 0 0 0 0 0:0.0045426041 1:-0.024586216 2:1.7649112 3:0 4:0.30000001 5:1.8 6:-0.0050623007 7:0.61216545 8:1.8213236 9:-0.023346893 10:0.77603447 11:1.8361793 12:-0.18247968 13:0.47601518 14:1.8385322 15:-0.20406961 16:0.19908401 17:1.8180392 18:-0.21813889 19:-0.019666761 20:1.7300081 21:-0.21560401 22:-0.077159509 23:1.7022955 24:0.16941702 25:0.48220041 26:1.8017843 27:0.21254361 28:0.21002942 29:1.7864649 30:0.22480091 31:-0.0036582649 32:1.6874049 33:0.20613703 34:-0.051435843 35:1.6647027 36:-0.07415846 37:-0.025848582 38:1.7340009 39:-0.072974868 40:-0.42298195 41:1.7175472 42:-0.046498418 43:-0.78157592 44:1.7180555 45:-0.062019505 46:-0.85667324 47:1.6209073 48:0.081165016 49:-0.018016487 50:1.7194138 51:0.10105921 52:-0.41153178 53:1.6954503 54:0.078920066 55:-0.77387917 56:1.714745 57:0.07898891 58:-0.84420049 59:1.6377959 60:-0.0037383772 61:0.53576171 62:1.8183491 63:-0.23112001 64:-0.14365807 65:1.6718457 66:-0.26593378 67:-0.096101463 68:1.6829982 69:0.2104716 70:-0.11283593 71:1.6328027 72:0.15495297 73:-0.029738948 74:1.6473818 
5.52916534679487 0 0 0 0 0 0 0 0 0 0:0.0052356347 1:-0.024480909 2:1.7648106 3:0 4:0.30000001 5:1.8 6:-0.0058847964 7:0.61202067 8:1.821455 9:-0.023907583 10:0.77591592 11:1.835989 12:-0.18275332 13:0.47592002 14:1.8384314 15:-0.20413919 16:0.19890921 17:1.8180244 18:-0.21828187 19:-0.019904286 20:1.7295513 21:-0.21521804 22:-0.076904014 23:1.6985319 24:0.16922824 25:0.48239005 26:1.8019099 27:0.21181594 28:0.2100455 29:1.7865188 30:0.22399347 31:-0.0033963472 32:1.6868539 33:0.20568998 34:-0.050301239 35:1.6621785 36:-0.073446922 37:-0.02578105 38:1.7339146 39:-0.072571568 40:-0.42217839 41:1.716953 42:-0.046217654 43:-0.7806493 44:1.7173021 45:-0.060825415 46:-0.85631442 47:1.620559 48:0.081867605 49:-0.017872915 50:1.719295 51:0.10157365 52:-0.41059089 53:1.6949358 54:0.080806702 55:-0.77059644 56:1.7135029 57:0.080101952 58:-0.84279889 59:1.6355979 60:-0.0043485761 61:0.53565508 62:1.8184457 63:-0.23012675 64:-0.14564447 65:1.6675005 66:-0.2623111 67:-0.075628877 68:1.6837413 69:0.20909818 70:-0.11335219 71:1.6309357 72:0.15767853 73:-0.032935843 74:1.6445186 
10 0 0 0 0 0 0 0 0 0 0:0.0060546137 1:-0.024430111 2:1.7644923 3:0 4:0.30000001 5:1.8 6:-0.0066723488 7:0.61197734 8:1.8217914 9:-0.024522543 10:0.77581286 11:1.8359573 12:-0.1830643 13:0.47616506 14:1.8389511 15:-0.20333493 16:0.19926518 17:1.8179176 18:-0.21833844 19:-0.019778177 20:1.7300529 21:-0.21477735 22:-0.076650172 23:1.7014456 24:0.16874111 25:0.48194605 26:1.8017924 27:0.21086365 28:0.21029508 29:1.7873757 30:0.22450501 31:-0.0029308647 32:1.6874256 33:0.20525521 34:-0.051390737 35:1.6637959 36:-0.072537959 37:-0.025857508 38:1.7335742 39:-0.071390972 40:-0.42167896 41:1.7162542 42:-0.04452638 43:-0.78069985 44:1.7166166 45:-0.059265412 46:-0.85639107 47:1.6192663 48:0.08264032 49:-0.017690495 50:1.7189939 51:0.10288896 52:-0.41009629 53:1.6940374 54:0.081582204 55:-0.772273 56:1.7123711 57:0.081529215 58:-0.84205705 59:1.6357813 60:-0.0049468651 61:0.53562033 62:1.8186972 63:-0.23142894 64:-0.14320356 65:1.6697476 66:-0.25993663 67:-0.045439884 68:1.7055719 69:0.20985469 70:-0.11297727 71:1.6336339 72:0.15511507 73:-0.027334481 74:1.6472473 
10 0 0 0 0 0 0 0 0 0 0:0.0062852688 1:-0.024323151 2:1.7645199 3:0 4:0.30000001 5:1.8 6:-0.0067101605 7:0.61191058 8:1.8217301 9:-0.025503917 10:0.77550471 11:1.8357749 12:-0.18370149 13:0.47581437 14:1.8391552 15:-0.20331021 16:0.19907036 17:1.818254 18:-0.21816836 19:-0.019781604 20:1.7298186 21:-0.2163568 22:-0.077334851 23:1.6995928 24:0.16866618 25:0.48207083 26:1.8022847 27:0.21121131 28:0.2103982 29:1.7871377 30:0.22535799 31:-0.0028835237 32:1.6874061 33:0.20522113 34:-0.050216585 35:1.6625898 36:-0.072279029 37:-0.025847062 38:1.733629 39:-0.070218533 40:-0.42115816 41:1.7159646 42:-0.04266379 43:-0.78185689 44:1.7156277 45:-0.058839649 46:-0.85659647 47:1.6184216 48:0.082907572 49:-0.017484561 50:1.7189884 51:0.10424778 52:-0.40981337 53:1.6936836 54:0.083226502 55:-0.7719444 56:1.711906 57:0.082602069 58:-0.84158409 59:1.6355176 60:-0.0049901158 61:0.53556645 62:1.8186536 63:-0.23193291 64:-0.14713469 65:1.6670835 66:-0.26441506 67:-0.081983998 68:1.6811364 69:0.20970951 70:-0.11169073 71:1.6319611 72:0.15464568 73:-0.026447907 74:1.6457267 
10 0 0 0 0 0 0 0 0 0 0:0.0071943253 1:-0.024296552 2:1.7645903 3:0 4:0.30000001 5:1.8 6:-0.0078468658 7:0.6119085 8:1.8215446 9:-0.027330751 10:0.77556866 11:1.835938 12:-0.1854327 13:0.47512245 14:1.8397293 15:-0.20366353 16:0.19849569 17:1.8183782 18:-0.21900299 19:-0.020630524 20:1.7299321 21:-0.21649852 22:-0.076643258 23:1.7012227 24:0.16755939 25:0.48234695 26:1.8026404 27:0.21083751 28:0.21025437 29:1.7871907 30:0.22440705 31:-0.0032526851 32:1.6879001 33:0.20494232 34:-0.049494222 35:1.664387 36:-0.071389362 37:-0.025959134 38:1.733726 39:-0.069146484 40:-0.4208343 41:1.7152929 42:-0.040859312 43:-0.78218448 44:1.715162 45:-0.057137251 46:-0.85641724 47:1.6179643 48:0.083868809 49:-0.017326519 50:1.7190335 51:0.10521724 52:-0.40923798 53:1.6932421 54:0.085222952 55:-0.77175301 56:1.7112713 57:0.084182285 58:-0.84168482 59:1.6351304 60:-0.0058257133 61:0.53556228 62:1.8185277 63:-0.22973886 64:-0.14562282 65:1.6692159 66:-0.26260668 67:-0.08240065 68:1.6850388 69:0.20852479 70:-0.11250244 71:1.6330652 72:0.15712905 73:-0.029329151 74:1.6462617 
10 0 0 0 0 0 0 0 0 0 0:0.0085198954 1:-0.022564933 2:1.7656705 3:0 4:0.30000001 5:1.8 6:-0.0088554919 7:0.61052704 8:1.8204217 9:-0.022255763 10:0.77851135 11:1.8411827 12:-0.18691784 13:0.46944875 14:1.8402634 15:-0.20643607 16:0.20000966 17:1.8092084 18:-0.21173382 19:-0.021549299 20:1.7212102 21:-0.20477521 22:-0.081523746 23:1.6891232 24:0.16474363 25:0.47854906 26:1.808368 27:0.21120012 28:0.20169364 29:1.7845457 30:0.2206012 31:-0.016303599 32:1.6831667 33:0.20568967 34:-0.068504125 35:1.6554658 36:-0.070938982 37:-0.024662808 38:1.7346411 39:-0.081688114 40:-0.41273683 41:1.7166431 42:-0.055454869 43:-0.77488184 44:1.7138202 45:-0.07445547 46:-0.84827584 47:1.6084032 48:0.084755786 49:-0.015046 50:1.7201426 51:0.10901322 52:-0.39944094 53:1.6949971 54:0.09719158 55:-0.76116645 56:1.7192974 57:0.09545853 58:-0.83351249 59:1.6358871 60:-0.0065766573 61:0.53449017 62:1.8176906 63:-0.21076354 64:-0.15185149 65:1.6549172 66:-0.25588951 67:-0.091219276 68:1.6766629 69:0.20808789 70:-0.14056544 71:1.6277573 72:0.25465372 73:-0.081735268 74:1.6483054 
10 0 0 0 0 0 0 0 0 0 0:0.0085380822 1:-0.022628337 2:1.7657151 3:0 4:0.30000001 5:1.8 6:-0.0088658333 7:0.61061949 8:1.8203609 9:-0.022312813 10:0.77852666 11:1.8410888 12:-0.18697777 13:0.46938634 14:1.8402448 15:-0.20651764 16:0.20016544 17:1.8090911 18:-0.21179359 19:-0.021517232 20:1.7212083 21:-0.20471148 22:-0.081669435 23:1.6912048 24:0.16478245 25:0.47853595 26:1.808373 27:0.21122682 28:0.20160355 29:1.7846143 30:0.22068942 31:-0.016757578 32:1.6827686 33:0.20548773 34:-0.069793686 35:1.6567822 36:-0.070916176 37:-0.024710074 38:1.7346625 39:-0.081628494 40:-0.41284919 41:1.7166924 42:-0.055538841 43:-0.77511966 44:1.7138989 45:-0.074375853 46:-0.84905595 47:1.6088607 48:0.084770843 49:-0.015118822 50:1.7202046 51:0.1090693 52:-0.39954275 53:1.6949532 54:0.097160026 55:-0.76120239 56:1.7193861 57:0.095192194 58:-0.83321506 59:1.6383426 60:-0.006586045 61:0.5345574 62:1.8176463 63:-0.21202508 64:-0.14856119 65:1.6574676 66:-0.25689659 67:-0.094939724 68:1.678611 69:0.20991629 70:-0.13831054 71:1.6269102 72:0.25508577 73:-0.091849402 74:1.6492825 
10 0 0 0 0 0 0 0 0 0 0:0.0086294264 1:-0.022686109 2:1.7659152 3:0 4:0.30000001 5:1.8 6:-0.0089257583 7:0.61068225 8:1.8201618 9:-0.022280268 10:0.77827239 11:1.8408999 12:-0.18692032 13:0.46942809 14:1.8401961 15:-0.2063076 16:0.19895971 17:1.8088157 18:-0.21181817 19:-0.021360889 20:1.7213614 21:-0.20370871 22:-0.080755055 23:1.6907778 24:0.16492233 25:0.47857061 26:1.8085351 27:0.21144414 28:0.20144898 29:1.785017 30:0.22094908 31:-0.017091155 32:1.683054 33:0.20601979 34:-0.070311502 35:1.6564052 36:-0.070770241 37:-0.024731278 38:1.7348189 39:-0.08162681 40:-0.41219237 41:1.7159886 42:-0.054658949 43:-0.77531612 44:1.7148519 45:-0.072095826 46:-0.84799361 47:1.6123769 48:0.084817916 49:-0.015204474 50:1.7204432 51:0.10922162 52:-0.39976785 53:1.6952896 54:0.096879527 55:-0.76138747 56:1.7208781 57:0.095029593 58:-0.83313668 59:1.6404076 60:-0.0066366196 61:0.53460479 62:1.8174953 63:-0.20896339 64:-0.14978388 65:1.6563869 66:-0.25737354 67:-0.10113172 68:1.6731591 69:0.20886403 70:-0.14100116 71:1.6284313 72:0.25546095 73:-0.090510249 74:1.6504681 
10 10 0 0 0 0 0 0 0 0 0:0.019605435 1:-0.019487321 2:1.7756219 3:0 4:0.30000001 5:1.8 6:-0.02012945 7:0.60762817 8:1.8106878 9:-0.039077986 10:0.77496278 11:1.8253164 12:-0.19790073 13:0.46526498 14:1.8333387 15:-0.20137568 16:0.19591606 17:1.8061008 18:-0.20433669 19:-0.034684017 20:1.7190297 21:-0.19934134 22:-0.093921766 23:1.698082 24:0.15437539 25:0.48131424 26:1.8100355 27:0.21171464 28:0.21030134 29:1.7945416 30:0.24623276 31:0.0021622479 32:1.688978 33:0.23533411 34:-0.056465372 35:1.6540554 36:-0.059191637 37:-0.026046708 38:1.7407584 39:-0.063966349 40:-0.38994771 41:1.6843851 42:-0.018656306 43:-0.77633464 44:1.6902993 45:-0.034144286 46:-0.85353136 47:1.5877562 48:0.096317336 49:-0.0073582381 50:1.7345331 51:0.15566313 52:-0.35266766 53:1.5718246 54:0.14655656 55:-0.72847176 56:1.6453998 57:0.15551068 58:-0.80442917 59:1.5516036 60:-0.015059188 61:0.53231001 62:1.8104067 63:-0.20532717 64:-0.16109455 65:1.6690764 66:-0.25137895 67:-0.10828374 68:1.6798859 69:0.24273507 70:-0.12272534 71:1.6221552 72:0.27664948 73:-0.059526011 74:1.6494691 
10 10 0 0 0 0 0 0 0 0 0:0.020764131 1:-0.019378677 2:1.7763751 3:0 4:0.30000001 5:1.8 6:-0.020887449 7:0.60755968 8:1.8098416 9:-0.039163131 10:0.77444917 11:1.8235273 12:-0.19738275 13:0.46360415 14:1.830718 15:-0.19861265 16:0.19425613 17:1.804275 18:-0.20320633 19:-0.036844298 20:1.7182043 21:-0.19892511 22:-0.096937627 23:1.6990778 24:0.15601039 25:0.48140967 26:1.8106217 27:0.21491896 28:0.2101922 29:1.7952266 30:0.25100404 31:0.0033528507 32:1.6874509 33:0.24214958 34:-0.054657832 35:1.6504748 36:-0.057736073 37:-0.026651353 38:1.7402935 39:-0.058376066 40:-0.3897112 41:1.6827028 42:-0.01412374 43:-0.77702498 44:1.6884899 45:-0.028167432 46:-0.85470051 47:1.5848532 48:0.097374246 49:-0.0066361129 50:1.736475 51:0.16048644 52:-0.29324362 53:1.5463028 54:0.15103777 55:-0.68458205 56:1.646518 57:0.16668589 58:-0.75717831 59:1.5515831 60:-0.015671825 61:0.5322535 62:1.8097715 63:-0.20489906 64:-0.16350341 65:1.6715395 66:-0.25107339 67:-0.10459368 68:1.6856151 69:0.24421127 70:-0.12358002 71:1.6181214 72:0.28595415 73:-0.070062101 74:1.6437633 
10 10 0 0 0 0 0 0 0 0 0:0.021233585 1:-0.01904957 2:1.7771199 3:0 4:0.30000001 5:1.8 6:-0.021145241 7:0.60728192 8:1.8091331 9:-0.040278859 10:0.77420282 11:1.8227816 12:-0.19706964 13:0.46084914 14:1.8291278 15:-0.20091116 16:0.19628546 17:1.8044965 18:-0.20569813 19:-0.038915083 20:1.7196651 21:-0.20093656 22:-0.099667981 23:1.7005908 24:0.15559295 25:0.48107269 26:1.8110986 27:0.21687534 28:0.20985872 29:1.7962284 30:0.2551975 31:0.0036405921 32:1.6880145 33:0.24858356 34:-0.052817106 35:1.651027 36:-0.057432402 37:-0.027337685 38:1.7406015 39:-0.053137235 40:-0.3882111 41:1.6821296 42:-0.010388117 43:-0.77721214 44:1.6874583 45:-0.023769928 46:-0.85553217 47:1.5829883 48:0.098070897 49:-0.0053637475 50:1.737576 51:0.16497365 52:-0.28355691 53:1.5355814 54:0.15427178 55:-0.65400398 56:1.6497302 57:0.17336622 58:-0.72589993 59:1.5521648 60:-0.015885133 61:0.53204 62:1.8092322 63:-0.20435461 64:-0.16664165 65:1.671684 66:-0.24964365 67:-0.10233335 68:1.6851077 69:0.24790674 70:-0.12180978 71:1.6158679 72:0.28880164 73:-0.069600344 74:1.6430614 
10 10 0 0 0 0 0 0 0 0 0:0.022292251 1:-0.018557176 2:1.7777653 3:0 4:0.30000001 5:1.8 6:-0.022329863 7:0.6068092 8:1.8085177 9:-0.040782224 10:0.77390343 11:1.822593 12:-0.19581674 13:0.46027583 14:1.8271859 15:-0.20122086 16:0.19694375 17:1.8034093 18:-0.20679292 19:-0.039817289 20:1.7199652 21:-0.20304161 22:-0.10160573 23:1.7033007 24:0.15611941 25:0.48101217 26:1.8115866 27:0.21715645 28:0.21257548 29:1.7991912 30:0.25794202 31:0.0073132962 32:1.6899698 33:0.25396511 34:-0.049722508 35:1.6532662 36:-0.055607744 37:-0.027653754 38:1.7397385 39:-0.048102364 40:-0.38584524 41:1.6822548 42:-0.0087717082 43:-0.7750327 44:1.6871393 45:-0.019769341 46:-0.85585314 47:1.5796504 48:0.098396204 49:-0.0039111078 50:1.7401519 51:0.17943481 52:-0.25426847 53:1.503525 54:0.15608022 55:-0.60828608 56:1.6586406 57:0.17890498 58:-0.67868233 59:1.5613463 60:-0.01676394 61:0.53168714 62:1.8087733 63:-0.20386863 64:-0.16826458 65:1.6761725 66:-0.25052273 67:-0.10641746 68:1.6887863 69:0.2593106 70:-0.11631119 71:1.6171179 72:0.29842269 73:-0.065187782 74:1.6531949 
10 10 0 1.497366662885187 0 3.652815601245495 0 0 0 0 0:0.023511644 1:-0.018337056 2:1.7781565 3:0 4:0.30000001 5:1.8 6:-0.023807228 7:0.60660058 8:1.8080788 9:-0.043144792 10:0.77416283 11:1.8223038 12:-0.19641067 13:0.45921415 14:1.8254628 15:-0.20160311 16:0.19678397 17:1.8026631 18:-0.20865969 19:-0.040197372 20:1.721487 21:-0.20556468 22:-0.10461067 23:1.7033849 24:0.15535942 25:0.48127353 26:1.8126574 27:0.21818163 28:0.21295284 29:1.7998917 30:0.25994778 31:0.0066461563 32:1.6932876 33:0.26273626 34:-0.055878311 35:1.647805 36:-0.054410201 37:-0.028225765 38:1.7393491 39:-0.044514649 40:-0.38365686 41:1.6853671 42:-0.0063330606 43:-0.77618796 44:1.6860526 45:-0.017060434 46:-0.85690713 47:1.5781479 48:0.099784926 49:-0.0028291494 50:1.7413371 51:0.18170282 52:-0.24866571 53:1.4995031 54:0.15719201 55:-0.57876229 56:1.6607897 57:0.18064073 58:-0.66016263 59:1.5613003 60:-0.017855195 61:0.53153354 62:1.8084545 63:-0.20485684 64:-0.17122968 65:1.6777055 66:-0.25161633 67:-0.11217703 68:1.6875341 69:0.26020172 70:-0.11306542 71:1.6124074 72:0.30001593 73:-0.074334502 74:1.6431358 
0 0 0 3.490301921102705 0 0 0 0 0 0 0:-0.0070167184 1:-0.022222638 2:1.7603483 3:0 4:0.30000001 5:1.8 6:0.0063278675 7:0.60996902 8:1.8258367 9:-0.006696552 10:0.77714109 11:1.8432341 12:-0.17626952 13:0.46653265 14:1.8550582 15:-0.19427869 16:0.19765893 17:1.8134613 18:-0.21236143 19:-0.038364112 20:1.7013898 21:-0.20037603 22:-0.086821079 23:1.664768 24:0.17628646 25:0.47247088 26:1.7955403 27:0.20844966 28:0.20404506 29:1.7667146 30:0.20822603 31:-0.0092718601 32:1.6660912 33:0.18912798 34:-0.053436309 35:1.6469226 36:-0.085713357 37:-0.021605179 38:1.7378187 39:-0.12100893 40:-0.38592249 41:1.6374493 42:-0.095754378 43:-0.77668387 44:1.7178872 45:-0.12070806 46:-0.84478301 47:1.6283622 48:0.067138419 49:-0.017169088 50:1.7067037 51:0.081895441 52:-0.39034623 53:1.6829386 54:0.040905118 55:-0.7620948 56:1.7240162 57:0.033536315 58:-0.8344171 59:1.6518679 60:0.0048942119 61:0.53408325 62:1.821744 63:-0.18500932 64:-0.19105247 65:1.6314321 66:-0.24430168 67:-0.095652729 68:1.6488295 69:0.18367228 70:-0.12270382 71:1.6178417 72:0.13533673 73:-0.025087088 74:1.6198521 
0 0 0 10 0 0 0 0 0 0 0:-0.0079589039 1:-0.021813974 2:1.7609007 3:0 4:0.30000001 5:1.8 6:0.007364735 7:0.60953623 8:1.825197 9:-0.0054509342 10:0.77654731 11:1.842231 12:-0.1746438 13:0.46653908 14:1.8567903 15:-0.19314519 16:0.19401339 17:1.8139403 18:-0.21585855 19:-0.037693381 20:1.69959 21:-0.20519203 22:-0.084755823 23:1.6603858 24:0.17697437 25:0.4719584 26:1.7946172 27:0.20893587 28:0.20459294 29:1.7667046 30:0.20714284 31:-0.0083281249 32:1.6651499 33:0.18862121 34:-0.053452209 35:1.6474652 36:-0.086698264 37:-0.020737246 38:1.7389722 39:-0.13004887 40:-0.37025529 41:1.6090221 42:-0.10297681 43:-0.77268291 44:1.7022014 45:-0.12638865 46:-0.83763385 47:1.6075091 48:0.066148341 49:-0.01722087 50:1.7067025 51:0.080221877 52:-0.38685787 53:1.6802227 54:0.039055556 55:-0.75927413 56:1.7216694 57:0.030087814 58:-0.83286643 59:1.6504722 60:0.0056669712 61:0.53376085 62:1.8212771 63:-0.19247526 64:-0.1860626 65:1.6123669 66:-0.24819356 67:-0.09550716 68:1.643945 69:0.1852933 70:-0.12281975 71:1.6197083 72:0.13484348 73:-0.032849446 74:1.6204081 
0 0 10 10 0 0 0 0 0 0 0:-0.0078563243 1:-0.021602988 2:1.7615333 3:0 4:0.30000001 5:1.8 6:0.0070468336 7:0.60942817 8:1.8246453 9:-0.0047846884 10:0.77603209 11:1.8412139 12:-0.17320822 13:0.4655315 14:1.8605444 15:-0.19278157 16:0.1930694 17:1.8147016 18:-0.2194193 19:-0.037596509 20:1.6964741 21:-0.21010411 22:-0.083706155 23:1.6538794 24:0.17683244 25:0.47153661 26:1.7933486 27:0.20884472 28:0.20305261 29:1.7661054 30:0.20731321 31:-0.0098554492 32:1.6645555 33:0.18794268 34:-0.055236757 35:1.64905 36:-0.085924879 37:-0.02028434 38:1.7411537 39:-0.13659827 40:-0.35462865 41:1.5884314 42:-0.10861759 43:-0.75342596 44:1.6948202 45:-0.1309178 46:-0.82119405 47:1.6010287 48:0.065536231 49:-0.01722458 50:1.70609 51:0.07794027 52:-0.38739142 53:1.6789653 54:0.035556257 55:-0.75971925 56:1.7199974 57:0.025644362 58:-0.83330929 59:1.6461492 60:0.0054461956 61:0.53367078 62:1.8208549 63:-0.20291951 64:-0.18277952 65:1.5945065 66:-0.25455278 67:-0.09559384 68:1.6471789 69:0.18430668 70:-0.1269553 71:1.6231863 72:0.13408971 73:-0.032305896 74:1.6246746 
0 0 10 10 10 0 0 0 0 0 0:-0.0079378337 1:-0.021157146 2:1.7620571 3:0 4:0.30000001 5:1.8 6:0.007051304 7:0.60905385 8:1.8241842 9:-0.0045544505 10:0.77545935 11:1.8401265 12:-0.17192726 13:0.46645355 14:1.8623719 15:-0.19249059 16:0.19232637 17:1.8157201 18:-0.22259009 19:-0.037017986 20:1.6931686 21:-0.21474785 22:-0.079181448 23:1.6501648 24:0.17644984 25:0.47096276 26:1.7918341 27:0.20914158 28:0.20229369 29:1.7655983 30:0.20867789 31:-0.010810018 32:1.6645398 33:0.18983364 34:-0.057207063 35:1.649363 36:-0.086113267 37:-0.019467175 38:1.7426157 39:-0.14028993 40:-0.33148056 41:1.563849 42:-0.11161045 43:-0.71902931 44:1.6855047 45:-0.13564599 46:-0.78564948 47:1.5979455 48:0.065365478 49:-0.017154738 50:1.7056692 51:0.075038299 52:-0.3870194 53:1.6773252 54:0.032322437 55:-0.75926882 56:1.7184567 57:0.022366896 58:-0.83273935 59:1.644485 60:0.0054573566 61:0.53338397 62:1.8205047 63:-0.21087116 64:-0.18022901 65:1.5742245 66:-0.25434017 67:-0.10020906 68:1.6378744 69:0.1852634 70:-0.12563932 71:1.620749 72:0.13624594 73:-0.037542179 74:1.6259537 
0 0 10 10 10 0 0 0 0 0 0:-0.0091663748 1:-0.020736247 2:1.7626145 3:0 4:0.30000001 5:1.8 6:0.0086346716 7:0.60859966 8:1.8235781 9:-0.005825758 10:0.77470732 11:1.838629 12:-0.17282128 13:0.46638164 14:1.8638279 15:-0.19227332 16:0.19230193 17:1.8172503 18:-0.22618045 19:-0.037505716 20:1.6909533 21:-0.22062327 22:-0.076904282 23:1.6496985 24:0.17537561 25:0.47053096 26:1.7907715 27:0.20889241 28:0.20151743 29:1.7647455 30:0.20790955 31:-0.011869431 32:1.6643631 33:0.18743074 34:-0.057844833 35:1.6511478 36:-0.086993456 37:-0.018496484 38:1.7447245 39:-0.14785042 40:-0.29669943 41:1.5394406 42:-0.10442717 43:-0.6618017 44:1.6983168 45:-0.13410124 46:-0.73042119 47:1.611722 48:0.063677862 49:-0.01720117 50:1.7049839 51:0.07133472 52:-0.38757131 53:1.6758013 54:0.029376909 55:-0.75913584 56:1.7169466 57:0.018154234 58:-0.83049786 59:1.641232 60:0.0066153407 61:0.53305054 62:1.8200648 63:-0.21650273 64:-0.1532717 65:1.5717785 66:-0.26122165 67:-0.10166374 68:1.6423569 69:0.18378577 70:-0.12795138 71:1.6234655 72:0.13215944 73:-0.04277049 74:1.6238413 
0 0 10 10 10 0 0 0 0 0 0:-0.0093035102 1:-0.020081982 2:1.7632146 3:0 4:0.30000001 5:1.8 6:0.0085737258 7:0.60807598 8:1.8230796 9:-0.0056213588 10:0.77426368 11:1.8376892 12:-0.17199762 13:0.46678108 14:1.865514 15:-0.18962471 16:0.19546501 17:1.8203464 18:-0.2162711 19:-0.014214426 20:1.7153544 21:-0.22520615 22:-0.07420522 23:1.6554971 24:0.17645654 25:0.46984559 26:1.7898107 27:0.20892999 28:0.20154019 29:1.7642701 30:0.20832574 31:-0.012265012 32:1.6648941 33:0.18950322 34:-0.059822023 35:1.6545901 36:-0.087320432 37:-0.017260596 38:1.7460394 39:-0.15537368 40:-0.28375554 41:1.5253069 42:-0.097508453 43:-0.61262274 44:1.7103181 45:-0.13407961 46:-0.68254584 47:1.6292839 48:0.063492715 49:-0.017178193 50:1.7047215 51:0.068268463 52:-0.3880977 53:1.6744223 54:0.027166262 55:-0.75936168 56:1.7152588 57:0.015402943 58:-0.83019513 59:1.6396198 60:0.0065878928 61:0.53264529 62:1.8196807 63:-0.23051958 64:-0.13585405 65:1.6234453 66:-0.25618672 67:-0.10157795 68:1.6526134 69:0.1872693 70:-0.12713574 71:1.6277444 72:0.13592795 73:-0.039474055 74:1.6330776 
0 0 10 10 10 0 0 0 0 0 0:-0.0077661276 1:-0.019353792 2:1.7634451 3:0 4:0.30000001 5:1.8 6:0.0070996881 7:0.60754931 8:1.8228271 9:-0.0070212781 10:0.77404225 11:1.8368173 12:-0.17319423 13:0.46666616 14:1.8657413 15:-0.19046621 16:0.19725209 17:1.8222766 18:-0.21774849 19:-0.010478765 20:1.713237 21:-0.22906518 22:-0.066358283 23:1.6613998 24:0.17532316 25:0.46922606 26:1.7885959 27:0.20709214 28:0.20107704 29:1.7639143 30:0.20753953 31:-0.013568133 32:1.6666138 33:0.18627331 34:-0.059802756 35:1.6551449 36:-0.085866645 37:-0.016033038 38:1.7473292 39:-0.16744247 40:-0.25209126 41:1.493423 42:-0.098861285 43:-0.57693052 44:1.713654 45:-0.13621709 46:-0.65382576 47:1.6311955 48:0.064957976 49:-0.017038852 50:1.7037959 51:0.064114839 52:-0.38973385 53:1.6740172 54:0.023406222 55:-0.76005632 56:1.7132008 57:0.011642113 58:-0.83025372 59:1.6373045 60:0.0054676682 61:0.53222924 62:1.8194907 63:-0.23312125 64:-0.13353524 65:1.6089854 66:-0.25872889 67:-0.10997573 68:1.6368656 69:0.18302959 70:-0.12876403 71:1.6301725 72:0.13201043 73:-0.039587408 74:1.6325657 
0 0 0 10 0 0 0 0 0 0 0:-0.01059413 1:-0.02396521 2:1.7460337 3:0 4:0.30000001 5:1.8 6:0.0097799301 7:0.61273932 8:1.8384848 9:0.0053022057 10:0.77715689 11:1.8616991 12:-0.17812113 13:0.47432983 14:1.8488235 15:-0.20825943 16:0.20162486 17:1.80898 18:-0.23115076 19:-0.011214465 20:1.7106714 21:-0.22660339 22:-0.062485352 23:1.6736553 24:0.1849263 25:0.47089165 26:1.7998128 27:0.20816982 28:0.20571075 29:1.777236 30:0.21400928 31:-0.0102503 32:1.6742127 33:0.19538057 34:-0.060052946 35:1.6419497 36:-0.090071648 37:-0.020588428 38:1.7162087 39:-0.12270196 40:-0.40496844 41:1.6740589 42:-0.10716953 43:-0.76233733 44:1.6877742 45:-0.13006131 46:-0.83210665 47:1.5917313 48:0.063688174 49:-0.02135098 50:1.6994448 51:0.075671479 52:-0.38852972 53:1.6685307 54:0.040983692 55:-0.75272799 56:1.6958935 57:0.03463991 58:-0.82589835 59:1.6063247 60:0.0075100362 61:0.53603077 62:1.8313327 63:-0.23152918 64:-0.13154025 65:1.6386402 66:-0.27681243 67:-0.080674723 68:1.6585946 69:0.193957 70:-0.12535433 71:1.6124034 72:0.23763174 73:-0.064900339 74:1.6264124 
0 0 0 10 0 0 0 0 0 0 0:-0.01058279 1:-0.024153277 2:1.7465489 3:0 4:0.30000001 5:1.8 6:0.0097957551 7:0.61291432 8:1.8377998 9:0.0052011162 10:0.77728945 11:1.8608015 12:-0.178092 13:0.47428262 14:1.8486989 15:-0.20846803 16:0.2017331 17:1.8091338 18:-0.23146155 19:-0.010639742 20:1.7097213 21:-0.22588536 22:-0.06278789 23:1.6722517 24:0.18509261 25:0.47114491 26:1.799495 27:0.20811935 28:0.20593484 29:1.7766078 30:0.21347563 31:-0.0098662376 32:1.6743634 33:0.19537552 34:-0.059674904 35:1.6424563 36:-0.090056166 37:-0.020813718 38:1.7167578 39:-0.1225971 40:-0.40508217 41:1.6747084 42:-0.10713956 43:-0.76260918 44:1.6894391 45:-0.12998748 46:-0.83242589 47:1.5922239 48:0.063697085 49:-0.021496966 50:1.6999261 51:0.075728774 52:-0.38878101 53:1.6689086 54:0.04099609 55:-0.7531656 56:1.6962407 57:0.034387633 58:-0.82561797 59:1.6068406 60:0.007521078 61:0.53617036 62:1.8308203 63:-0.23172316 64:-0.13266267 65:1.637157 66:-0.27624282 67:-0.076925963 68:1.6580484 69:0.19297306 70:-0.12500538 71:1.610652 72:0.238335 73:-0.065054044 74:1.6288638 
0 0 0 10 0 0 0 0 0 0 0:-0.010582581 1:-0.024363279 2:1.7469807 3:0 4:0.30000001 5:1.8 6:0.0097613186 7:0.61309427 8:1.8373623 9:0.0049508065 10:0.77760774 11:1.860405 12:-0.1782538 13:0.47439802 14:1.8481464 15:-0.20837927 16:0.20218335 17:1.8088913 18:-0.23184298 19:-0.009433642 20:1.7078028 21:-0.224933 22:-0.062356099 23:1.67224 24:0.18520704 25:0.4714905 26:1.79881 27:0.20799068 28:0.20599861 29:1.7762504 30:0.21307871 31:-0.0098486245 32:1.6739316 33:0.19466367 34:-0.059520259 35:1.64059 36:-0.090045504 37:-0.021050766 38:1.7172394 39:-0.1225763 40:-0.40535647 41:1.6751575 42:-0.10729969 43:-0.76338881 44:1.6897399 45:-0.1300458 46:-0.83422863 47:1.5880754 48:0.063675776 49:-0.021642864 50:1.7002652 51:0.075661123 52:-0.38954252 53:1.6691008 54:0.040736109 55:-0.75430632 56:1.6963546 57:0.035419717 58:-0.82752585 59:1.6020305 60:0.0074996054 61:0.53631151 62:1.8304825 63:-0.23483051 64:-0.13095935 65:1.636492 66:-0.27943516 67:-0.08360076 68:1.6531837 69:0.19084787 70:-0.12619232 71:1.6105621 72:0.24173227 73:-0.081136674 74:1.6213226 
0 0 0 1.312115628087992 0 0 0 0 0 0 0:-0.010582373 1:-0.024531975 2:1.7475617 3:0 4:0.30000001 5:1.8 6:0.0097659081 7:0.61321253 8:1.8369191 9:0.0049452037 10:0.77774435 11:1.8600729 12:-0.17828226 13:0.47442621 14:1.8484719 15:-0.20834205 16:0.20175162 17:1.8082502 18:-0.23200691 19:-0.01002796 20:1.7075949 21:-0.22430703 22:-0.062590331 23:1.6713035 24:0.18511449 25:0.47160959 26:1.7975314 27:0.20796625 28:0.2066119 29:1.7756889 30:0.21244471 31:-0.0098558068 32:1.6727972 33:0.19357412 34:-0.058108911 35:1.6402891 36:-0.090005115 37:-0.021244496 38:1.7179127 39:-0.1224328 40:-0.40516192 41:1.6750088 42:-0.10711063 43:-0.76358753 44:1.6903613 45:-0.13004144 46:-0.83433145 47:1.5887473 48:0.063607812 49:-0.021799028 50:1.700696 51:0.075671688 52:-0.39045155 53:1.6695271 54:0.040601879 55:-0.75499523 56:1.6965775 57:0.035726696 58:-0.82815087 59:1.6021702 60:0.0075050443 61:0.53640586 62:1.8301361 63:-0.23301363 64:-0.13133541 65:1.6340854 66:-0.27531993 67:-0.075489953 68:1.6578388 69:0.19356264 70:-0.12298244 71:1.6089096 72:0.23963337 73:-0.072731107 74:1.6266522 
0 0 0 10 0 0 0 0 0 0 0:-0.010609686 1:-0.024719656 2:1.7482133 3:0 4:0.30000001 5:1.8 6:0.0096516609 7:0.61334425 8:1.8362761 9:0.0046938658 10:0.77798831 11:1.8597589 12:-0.17820945 13:0.47421676 14:1.8481193 15:-0.20806862 16:0.20205037 17:1.8079171 18:-0.2315312 19:-0.010070443 20:1.7080047 21:-0.22403926 22:-0.06444636 23:1.6721916 24:0.18510738 25:0.47166806 26:1.7975168 27:0.20801672 28:0.20657937 29:1.7756815 30:0.21225759 31:-0.0094158798 32:1.6722894 33:0.19376063 34:-0.057344705 35:1.639401 36:-0.090083912 37:-0.021483704 38:1.7186553 39:-0.12244666 40:-0.40505439 41:1.6751122 42:-0.10724264 43:-0.76396126 44:1.6910589 45:-0.13021867 46:-0.83462101 47:1.5894861 48:0.063670769 49:-0.021929637 50:1.7012 51:0.075668275 52:-0.3906548 53:1.6699564 54:0.040476963 55:-0.75521296 56:1.6972582 57:0.033794358 58:-0.82621825 59:1.6056316 60:0.0074292868 61:0.53650957 62:1.8296514 63:-0.23149288 64:-0.13440217 65:1.6363254 66:-0.27297467 67:-0.068091273 68:1.665854 69:0.19202405 70:-0.12278561 71:1.6081464 72:0.23868111 73:-0.064182445 74:1.628267 
0 0 0 10 0 0 0 0 0 0 0:-0.010593578 1:-0.02478449 2:1.7485123 3:0 4:0.30000001 5:1.8 6:0.0095315725 7:0.61333704 8:1.8362226 9:0.0044023693 10:0.77803004 11:1.8595085 12:-0.17834052 13:0.47402135 14:1.8481951 15:-0.20778532 16:0.20145431 17:1.8070884 18:-0.23119664 19:-0.010990262 20:1.7079356 21:-0.22235145 22:-0.065425232 23:1.6733756 24:0.18504602 25:0.47161868 26:1.7974033 27:0.20785847 28:0.20645031 29:1.7751241 30:0.21176332 31:-0.0093849748 32:1.6707289 33:0.19336632 34:-0.057308123 35:1.63907 36:-0.090132572 37:-0.021611392 38:1.7192266 39:-0.12253587 40:-0.40398923 41:1.6737971 42:-0.10744935 43:-0.76399422 44:1.6914635 45:-0.13015829 46:-0.83433378 47:1.5907574 48:0.063852206 49:-0.021867692 50:1.7010348 51:0.075949594 52:-0.39067933 53:1.6700015 54:0.040202931 55:-0.7556386 56:1.6974599 57:0.033550724 58:-0.82623065 59:1.6066623 60:0.0073418021 61:0.5365082 62:1.8295989 63:-0.23143488 64:-0.13465354 65:1.6367469 66:-0.27354634 67:-0.080063432 68:1.6602843 69:0.19180429 70:-0.12311339 71:1.6091163 72:0.23756656 73:-0.055801183 74:1.6262338 
0 0 0 10 0 0 0 0 0 0 0:-0.010468274 1:-0.024820074 2:1.7486155 3:0 4:0.30000001 5:1.8 6:0.009385556 7:0.61332631 8:1.8362877 9:0.0042170435 10:0.77805722 11:1.8593514 12:-0.17794281 13:0.47391689 14:1.8475716 15:-0.20744963 16:0.20076881 17:1.8067157 18:-0.23041242 19:-0.011505961 20:1.7070405 21:-0.22185083 22:-0.067369208 23:1.6745048 24:0.18506262 25:0.47143388 26:1.7971671 27:0.20811293 28:0.20615236 29:1.7744935 30:0.21175873 31:-0.0085881352 32:1.6706567 33:0.19302899 34:-0.056771636 35:1.6394873 36:-0.090113916 37:-0.021692663 38:1.7194319 39:-0.12232272 40:-0.40410548 41:1.6724625 42:-0.10775474 43:-0.76551932 44:1.6908088 45:-0.13093111 46:-0.83335042 47:1.5922606 48:0.064058959 49:-0.021880746 50:1.7010663 51:0.076189205 52:-0.39068764 53:1.6698895 54:0.039940119 55:-0.75587624 56:1.6977196 57:0.0333094 58:-0.82617241 59:1.6073501 60:0.0072289854 61:0.53650248 62:1.8296435 63:-0.22918616 64:-0.13655682 65:1.6391144 66:-0.26972526 67:-0.078098699 68:1.6628909 69:0.19195369 70:-0.12367754 71:1.610502 72:0.23780215 73:-0.063478127 74:1.6266184 
0 0 0 10 0 0 0 0 0 0 0:-0.010166392 1:-0.025019988 2:1.7490261 3:0 4:0.30000001 5:1.8 6:0.0090801716 7:0.61350155 8:1.8360999 9:0.003429845 10:0.77802563 11:1.8596137 12:-0.17858799 13:0.47358003 14:1.8480504 15:-0.20750761 16:0.20029235 17:1.8069289 18:-0.23073134 19:-0.012108803 20:1.7076244 21:-0.22064134 22:-0.067346707 23:1.6746261 24:0.18518208 25:0.47149697 26:1.7972772 27:0.20829411 28:0.20512402 29:1.7738202 30:0.21123506 31:-0.0068258941 32:1.6706297 33:0.19230996 34:-0.055747181 35:1.6381385 36:-0.089979731 37:-0.022021189 38:1.7200198 39:-0.12251013 40:-0.4038538 41:1.6697538 42:-0.10886119 43:-0.76583147 44:1.691586 45:-0.13191393 46:-0.83366692 47:1.5929039 48:0.064461946 49:-0.021962017 50:1.7013698 51:0.076113686 52:-0.39016482 53:1.6698687 54:0.038691059 55:-0.75600219 56:1.6985526 57:0.031126633 58:-0.82502317 59:1.6105471 60:0.0069989264 61:0.53663576 62:1.8294961 63:-0.22760209 64:-0.13835028 65:1.6402326 66:-0.26838398 67:-0.081418604 68:1.6597903 69:0.19317304 70:-0.12182078 71:1.6096406 72:0.23614417 73:-0.064746648 74:1.6236718 
0 0 0 10 0 0 0 0 0 0 0:-0.0097290426 1:-0.024836168 2:1.7493663 3:0 4:0.30000001 5:1.8 6:0.0087346137 7:0.61334991 8:1.8359666 9:0.00300771 10:0.77795368 11:1.8598061 12:-0.17897709 13:0.47316146 14:1.8482809 15:-0.20647913 16:0.19950342 17:1.806818 18:-0.22933719 19:-0.0131751 20:1.708087 21:-0.21842207 22:-0.069341749 23:1.6777759 24:0.18524367 25:0.47154617 26:1.7973156 27:0.20889446 28:0.20460668 29:1.7736664 30:0.21161017 31:-0.0068293065 32:1.6693029 33:0.19293725 34:-0.055736661 35:1.6396856 36:-0.089672506 37:-0.021879286 38:1.7203641 39:-0.12308741 40:-0.40422171 41:1.6684606 42:-0.10975358 43:-0.76630437 44:1.6921201 45:-0.13285239 46:-0.83390898 47:1.5934391 48:0.064954489 49:-0.021774098 50:1.701782 51:0.076220706 52:-0.39011878 53:1.6698081 54:0.037437111 55:-0.75668079 56:1.6987021 57:0.030403167 58:-0.82518381 59:1.6122174 60:0.0067322403 61:0.53652024 62:1.829391 63:-0.22451961 64:-0.1394082 65:1.6411033 66:-0.26829928 67:-0.089118317 68:1.6643085 69:0.1930424 70:-0.12238491 71:1.6101577 72:0.24230522 73:-0.048360884 74:1.6395812 
0 0 0 10 0 0 0 0 0 0 0:-0.0099498183 1:-0.024877802 2:1.7497871 3:0 4:0.30000001 5:1.8 6:0.0090092719 7:0.61337638 8:1.8356254 9:0.0025040954 10:0.77814758 11:1.8595345 12:-0.17919552 13:0.47325531 14:1.8483188 15:-0.20554745 16:0.19895151 17:1.8067987 18:-0.22893201 19:-0.013856605 20:1.7085297 21:-0.21786505 22:-0.071497545 23:1.67871 24:0.18496004 25:0.4719421 26:1.7966421 27:0.20927343 28:0.20491117 29:1.7731874 30:0.21245468 31:-0.0062569976 32:1.6682494 33:0.19322971 34:-0.055797234 35:1.6404397 36:-0.089863464 37:-0.022009447 38:1.7209396 39:-0.12439759 40:-0.40382627 41:1.6624997 42:-0.1109411 43:-0.76757836 44:1.6914785 45:-0.13503329 46:-0.83462656 47:1.5912278 48:0.0646891 49:-0.021747783 50:1.7021177 51:0.076298296 52:-0.38923004 53:1.66891 54:0.036286086 55:-0.75790215 56:1.6979129 57:0.028724849 58:-0.82587373 59:1.61098 60:0.0069396943 61:0.53654063 62:1.8291357 63:-0.22768068 64:-0.14134765 65:1.6440935 66:-0.26788795 67:-0.096559137 68:1.670244 69:0.19483531 70:-0.12130922 71:1.6095355 72:0.23923695 73:-0.058562726 74:1.6329658 
0 0 2.482933539881942 10 0 0 0 0 0 0 0:-0.0097037107 1:-0.024912417 2:1.7503908 3:0 4:0.30000001 5:1.8 6:0.0087936521 7:0.61339128 8:1.8352106 9:0.0017154813 10:0.77814126 11:1.8591669 12:-0.1794669 13:0.47321343 14:1.8489358 15:-0.20472303 16:0.19838053 17:1.8070323 18:-0.22881277 19:-0.014669567 20:1.7095547 21:-0.21754184 22:-0.071229443 23:1.6792154 24:0.18471789 25:0.4721539 26:1.7962115 27:0.2094011 28:0.20495313 29:1.7721107 30:0.21332526 31:-0.0061861277 32:1.6671519 33:0.19534737 34:-0.055710539 35:1.6398437 36:-0.089306809 37:-0.022178873 38:1.7223964 39:-0.12506033 40:-0.39660549 41:1.6505914 42:-0.11242662 43:-0.76768088 44:1.6906843 45:-0.13445167 46:-0.8325488 47:1.5952079 48:0.064781129 49:-0.021696463 50:1.7020726 51:0.077400535 52:-0.38784814 53:1.6669712 54:0.034352869 55:-0.75785524 56:1.6982503 57:0.027117997 58:-0.82605094 59:1.6099803 60:0.0067775548 61:0.53655374 62:1.8288176 63:-0.22690566 64:-0.14107361 65:1.6479285 66:-0.26239711 67:-0.087630957 68:1.6671543 69:0.19231519 70:-0.1238941 71:1.610806 72:0.24527192 73:-0.05870682 74:1.6383626 
3.362934497755315 0 0 0 0 0 0 0 0 0 0:0.0034335107 1:-0.024713069 2:1.7606137 3:0 4:0.30000001 5:1.8 6:-0.0038218722 7:0.61330122 8:1.8252676 9:-0.015423946 10:0.78049588 11:1.8407376 12:-0.18669635 13:0.47068393 14:1.8468297 15:-0.2048139 16:0.2004336 17:1.8058684 18:-0.21040469 19:-0.028833166 20:1.7104747 21:-0.20503473 22:-0.086749539 23:1.6817255 24:0.17069504 25:0.47989058 26:1.8093479 27:0.20771712 28:0.20344453 29:1.7811005 30:0.21481946 31:-0.014572442 32:1.6831534 33:0.19906858 34:-0.063123971 35:1.6553335 36:-0.076495051 37:-0.025724366 38:1.7305396 39:-0.080787137 40:-0.41444188 41:1.7102783 42:-0.054138817 43:-0.77386475 44:1.7126453 45:-0.070890486 46:-0.84214461 47:1.6285486 48:0.079045177 49:-0.017937586 50:1.7140822 51:0.099392414 52:-0.39996213 53:1.6782453 54:0.071467623 55:-0.76331133 56:1.6909127 57:0.069397092 58:-0.82772022 59:1.6066463 60:-0.0027667508 61:0.53648877 62:1.8213589 63:-0.21945328 64:-0.15412377 65:1.6521273 66:-0.25785577 67:-0.093568265 68:1.6709456 69:0.20453018 70:-0.13111691 71:1.6362531 72:0.14936301 73:-0.045444578 74:1.624661 
10 0 0 0 0 0 0 0 0 0 0:0.0034334958 1:-0.02464062 2:1.760545 3:0 4:0.30000001 5:1.8 6:-0.0038636848 7:0.61323267 8:1.8254082 9:-0.015060328 10:0.78044856 11:1.8401644 12:-0.18680272 13:0.47064286 14:1.8470719 15:-0.2047808 16:0.20035781 17:1.8058941 18:-0.21084149 19:-0.027710959 20:1.7114532 21:-0.20592363 22:-0.0865504 23:1.6832705 24:0.17102572 25:0.47950953 26:1.8094542 27:0.20743656 28:0.20351966 29:1.7812064 30:0.21650499 31:-0.010880172 32:1.6841574 33:0.20083895 34:-0.060870722 35:1.6572583 36:-0.076561399 37:-0.025583044 38:1.7303479 39:-0.081026062 40:-0.41354394 41:1.7101653 42:-0.054077037 43:-0.77387637 44:1.7129884 45:-0.068418734 46:-0.84325874 47:1.6301119 48:0.079072699 49:-0.01791279 50:1.7141201 51:0.099091023 52:-0.40003049 53:1.6786144 54:0.071293682 55:-0.76330835 56:1.6913331 57:0.068247497 58:-0.82782042 59:1.6086881 60:-0.0027967989 61:0.5364359 62:1.8214614 63:-0.21911454 64:-0.15344743 65:1.6536775 66:-0.25731939 67:-0.090606362 68:1.6723433 69:0.2022841 70:-0.13158242 71:1.6357124 72:0.15007386 73:-0.036785379 74:1.6248651 
10 0 0 0 0 0 0 0 0 0 0:0.0033461899 1:-0.024642467 2:1.7606995 3:0 4:0.30000001 5:1.8 6:-0.0037724227 7:0.61325169 8:1.825227 9:-0.014886104 10:0.78040397 11:1.8397567 12:-0.1869224 13:0.47069538 14:1.8470113 15:-0.20514628 16:0.200905 17:1.8058918 18:-0.21112061 19:-0.026922509 20:1.7121234 21:-0.20707285 22:-0.087266639 23:1.6831777 24:0.17116907 25:0.47926217 26:1.8095157 27:0.20730531 28:0.20354819 29:1.7813966 30:0.21635988 31:-0.010620341 32:1.6837747 33:0.20025474 34:-0.06098929 35:1.6569502 36:-0.076632768 37:-0.025563002 38:1.7303951 39:-0.0811968 40:-0.41338527 41:1.7101979 42:-0.054197811 43:-0.77423888 44:1.7127693 45:-0.070568666 46:-0.84487712 47:1.628767 48:0.078979105 49:-0.017935127 50:1.7143557 51:0.09888415 52:-0.40033793 53:1.6787646 54:0.071011022 55:-0.76330835 56:1.6914544 57:0.068079442 58:-0.82777756 59:1.6089768 60:-0.0027281567 61:0.53644925 62:1.8213265 63:-0.22133698 64:-0.15388834 65:1.6544492 66:-0.25835049 67:-0.08441548 68:1.6779072 69:0.20160523 70:-0.13281277 71:1.636091 72:0.14968044 73:-0.035338327 74:1.6246424 
0 0 0 0 0 10 0 0 0 0 0:0.003382504 1:-0.024508923 2:1.7644148 3:0 4:0.30000001 5:1.8 6:-0.0042102933 7:0.613047 8:1.8168678 9:-0.013761424 10:0.78047109 11:1.825511 12:-0.1859552 13:0.47280049 14:1.8432541 15:-0.20619494 16:0.20028614 17:1.8073807 18:-0.21293399 19:-0.023529887 20:1.7166741 21:-0.20827305 22:-0.087119892 23:1.6909177 24:0.17050391 25:0.48053563 26:1.8067389 27:0.20712256 28:0.20300387 29:1.782764 30:0.21736842 31:-0.01195322 32:1.6872718 33:0.19891945 34:-0.062985867 35:1.6664028 36:-0.076824389 37:-0.025259942 38:1.7346067 39:-0.081923991 40:-0.41440862 41:1.7132616 42:-0.054368548 43:-0.77492982 44:1.7160439 45:-0.07153134 46:-0.8453337 47:1.6256683 48:0.079214409 49:-0.017967701 50:1.71788 51:0.098884314 52:-0.40049368 53:1.6822362 54:0.070194229 55:-0.76391298 56:1.6948671 57:0.067081437 58:-0.82729435 59:1.6152196 60:-0.0029842257 61:0.53630471 62:1.8154244 63:-0.2223472 64:-0.15384926 65:1.6597862 66:-0.2621519 67:-0.10196261 68:1.678586 69:0.20202282 70:-0.13078479 71:1.6426034 72:0.14901352 73:-0.048562035 74:1.63325 
0 0 0 0 0 10 0 0 0 0 0:0.0034963191 1:-0.024420545 2:1.7678499 3:0 4:0.30000001 5:1.8 6:-0.0043997839 7:0.61281306 8:1.807981 9:-0.014562778 10:0.77967459 11:1.8103986 12:-0.18565917 13:0.47432256 14:1.8401151 15:-0.20656833 16:0.20032896 17:1.8089385 18:-0.21332189 19:-0.023005024 20:1.7193856 21:-0.208097 22:-0.086011589 23:1.6930814 24:0.17055595 25:0.48096234 26:1.8043199 27:0.20678881 28:0.20316817 29:1.7851548 30:0.21582043 31:-0.012276396 32:1.6907444 33:0.1975812 34:-0.062746748 35:1.6694355 36:-0.076868966 37:-0.025163621 38:1.7384367 39:-0.082397237 40:-0.41362727 41:1.715759 42:-0.054769449 43:-0.7747882 44:1.7185276 45:-0.071623236 46:-0.84242117 47:1.6298959 48:0.079450175 49:-0.017887935 50:1.7210276 51:0.098689094 52:-0.40026444 53:1.6847897 54:0.069817871 55:-0.76385731 56:1.6968668 57:0.066740021 58:-0.82713294 59:1.6173053 60:-0.0030904487 61:0.53613073 62:1.8090587 63:-0.22375061 64:-0.1526785 65:1.66239 66:-0.25897345 67:-0.080776855 68:1.682255 69:0.2037397 70:-0.13084881 71:1.6477301 72:0.14827153 73:-0.047214031 74:1.6371858 
0 0 0 0 0 10 0 0 0 0 0:0.0023895055 1:-0.024211839 2:1.7845221 3:0 4:0.30000001 5:1.8 6:-0.0036603436 7:0.61235672 8:1.7845817 9:-0.014948368 10:0.77979839 11:1.7832236 12:-0.18575196 13:0.48038852 14:1.8349805 15:-0.1990031 16:0.2051542 17:1.8122525 18:-0.20796755 19:-0.014084533 20:1.7262325 21:-0.19758254 22:-0.079746455 23:1.7067168 24:0.17091553 25:0.48080671 26:1.7857881 27:0.20620497 28:0.20353164 29:1.7852979 30:0.21224423 31:-0.012752578 32:1.6926472 33:0.19138755 34:-0.062913194 35:1.6785352 36:-0.077503443 37:-0.024476588 38:1.7573345 39:-0.083661698 40:-0.41441107 41:1.7393136 42:-0.055735096 43:-0.78010774 44:1.743679 45:-0.074109778 46:-0.84517783 47:1.6535513 48:0.077783555 49:-0.018320173 50:1.7354698 51:0.10129285 52:-0.40370476 53:1.712678 54:0.068926066 55:-0.76710755 56:1.724031 57:0.064472586 58:-0.83387434 59:1.6407588 60:-0.0026271641 61:0.53581995 62:1.7916036 63:-0.21257794 64:-0.14403506 65:1.6735613 66:-0.14498238 67:-0.070966527 68:1.6709521 69:0.19679169 70:-0.12960248 71:1.6558368 72:0.14216883 73:-0.050740212 74:1.6589878 
0 0 0 0 0 10 0 0 0 0 0:0.0023885071 1:-0.023845002 2:1.7932911 3:0 4:0.30000001 5:1.8 6:-0.0034319013 7:0.61048412 8:1.775876 9:-0.015872478 10:0.77725697 11:1.7645969 12:-0.18627705 13:0.48191532 14:1.8309011 15:-0.19882017 16:0.20674738 17:1.8158426 18:-0.20850915 19:-0.013025224 20:1.7332499 21:-0.19907939 22:-0.07804516 23:1.7152209 24:0.16994947 25:0.48200741 26:1.7799883 27:0.20596287 28:0.20559001 29:1.7878118 30:0.21198177 31:-0.011768207 32:1.6980407 33:0.19069684 34:-0.061460033 35:1.6830931 36:-0.077731095 37:-0.023996413 38:1.7667284 39:-0.083759949 40:-0.41146347 41:1.7453015 42:-0.055815436 43:-0.77818191 44:1.7472672 45:-0.073720455 46:-0.84465444 47:1.6577234 48:0.078022972 49:-0.018040732 50:1.743613 51:0.10229822 52:-0.40098479 53:1.7200494 54:0.069047704 55:-0.7658776 56:1.7277689 57:0.064298928 58:-0.83224225 59:1.6443086 60:-0.0024694949 61:0.53437853 62:1.7849083 63:-0.21318206 64:-0.14294893 65:1.6808114 66:-0.14516276 67:-0.06830591 68:1.680238 69:0.19535151 70:-0.12605467 71:1.6587973 72:0.14064887 73:-0.041223824 74:1.6690919 
0 0 0 0 0 10 4.362308818817533 0 0 0 0:0.0033747703 1:-0.023450062 2:1.8042865 3:0 4:0.30000001 5:1.8 6:-0.0052277297 7:0.60781515 8:1.7674417 9:-0.015620999 10:0.77406156 11:1.7451022 12:-0.18629424 13:0.48438773 14:1.8218145 15:-0.19809118 16:0.2084882 17:1.8188133 18:-0.20866042 19:-0.012215897 20:1.7392859 21:-0.19841425 22:-0.078549519 23:1.725491 24:0.17064936 25:0.48335811 26:1.7740159 27:0.20635046 28:0.20766762 29:1.7897635 30:0.21258684 31:-0.01056841 32:1.702467 33:0.1917835 34:-0.058123782 35:1.6922736 36:-0.076955982 37:-0.023039907 38:1.776402 39:-0.083640531 40:-0.40805575 41:1.7526486 42:-0.055503555 43:-0.77592599 44:1.7498055 45:-0.072652549 46:-0.84263432 47:1.6603737 48:0.079280064 49:-0.018285006 50:1.7559855 51:0.10378967 52:-0.39742944 53:1.7272944 54:0.069750547 55:-0.76472151 56:1.7302649 57:0.066232294 58:-0.83111179 59:1.6463892 60:-0.0037164465 61:0.53238988 62:1.7787604 63:-0.21793309 64:-0.14347771 65:1.6916852 66:-0.14519262 67:-0.078321531 68:1.6881967 69:0.19340263 70:-0.12604478 71:1.6629755 72:0.14410199 73:-0.036471769 74:1.6828759 
0 0 0 0 0 10 10 0 0 0 0:0.0033997595 1:-0.021355256 2:1.8171735 3:0 4:0.30000001 5:1.8 6:-0.0043312609 7:0.60262698 8:1.7492447 9:-0.016336918 10:0.76840985 11:1.7194731 12:-0.18568997 13:0.48656154 14:1.8109965 15:-0.19814792 16:0.21287186 17:1.8240037 18:-0.20953345 19:-0.0088890195 20:1.7481315 21:-0.19932306 22:-0.075769782 23:1.7348478 24:0.16979514 25:0.48592764 26:1.7637222 27:0.20624594 28:0.21240743 29:1.7946219 30:0.21217297 31:-0.0066271424 32:1.7096066 33:0.19194306 34:-0.053800747 35:1.6992526 36:-0.077205896 37:-0.020276502 38:1.7890997 39:-0.084973022 40:-0.40116006 41:1.7615767 42:-0.055853009 43:-0.76965916 44:1.7565401 45:-0.07279247 46:-0.8381806 47:1.6654656 48:0.079606071 49:-0.016798526 50:1.7689984 51:0.10480402 52:-0.39213449 53:1.7366498 54:0.070109814 55:-0.76014823 56:1.7360671 57:0.066079602 58:-0.82647192 59:1.6518638 60:-0.0031471327 61:0.52843922 62:1.7655311 63:-0.21520875 64:-0.13975884 65:1.6996012 66:-0.14525385 67:-0.089771926 68:1.6948276 69:0.19175045 70:-0.12223564 71:1.6678386 72:0.14315616 73:-0.028716385 74:1.6955981 
0 0 0 0 0 10 10 0 0 0 0:0.0033314377 1:-0.019163266 2:1.8305681 3:0 4:0.30000001 5:1.8 6:-0.0041508079 7:0.60061061 8:1.7396505 9:-0.016650654 10:0.764009 11:1.6982291 12:-0.18449114 13:0.4909606 14:1.8001931 15:-0.19817279 16:0.21759026 17:1.8286917 18:-0.20996201 19:-0.0058477521 20:1.7589934 21:-0.19920433 22:-0.071338832 23:1.7491381 24:0.17000476 25:0.48872221 26:1.7583635 27:0.20647082 28:0.21804692 29:1.7991412 30:0.21206102 31:-0.0019394159 32:1.71697 33:0.1926828 34:-0.051539361 35:1.7073834 36:-0.077723593 37:-0.017521694 38:1.8033545 39:-0.085827053 40:-0.39492083 41:1.7706482 42:-0.056611463 43:-0.76233244 44:1.7616177 45:-0.07301268 46:-0.83374631 47:1.6685667 48:0.079977244 49:-0.015025914 50:1.7815821 51:0.10550673 52:-0.38718021 53:1.7464876 54:0.07013008 55:-0.75510049 56:1.7414267 57:0.066063255 58:-0.82071674 59:1.6565812 60:-0.003000766 61:0.52668226 62:1.7578113 63:-0.21450254 64:-0.13806869 65:1.7178342 66:-0.14462215 67:-0.057788476 68:1.7147944 69:0.18952146 70:-0.11988105 71:1.6743245 72:0.14494404 73:-0.030392677 74:1.7092876 
0 0 0 0 0 10 10 0 0 0 0:0.0032130927 1:-0.017177269 2:1.8458314 3:0 4:0.30000001 5:1.8 6:-0.0036983937 7:0.59664923 8:1.7253425 9:-0.016037181 10:0.75321537 11:1.672657 12:-0.18428575 13:0.4932608 14:1.7902656 15:-0.19864032 16:0.22204851 17:1.8322821 18:-0.21089271 19:-0.002588287 20:1.7675378 21:-0.20111933 22:-0.069355085 23:1.7615364 24:0.16976772 25:0.48994374 26:1.748491 27:0.20713635 28:0.22296984 29:1.802721 30:0.21198432 31:0.0021388382 32:1.7231612 33:0.19261993 34:-0.048922673 35:1.7144656 36:-0.078312263 37:-0.014903814 38:1.8179922 39:-0.087127812 40:-0.38762432 41:1.7800241 42:-0.057273604 43:-0.75321907 44:1.7670147 45:-0.073175125 46:-0.82807821 47:1.6732371 48:0.08039023 49:-0.013581917 50:1.7974143 51:0.10645877 52:-0.38082159 53:1.7560921 54:0.069846123 55:-0.74915344 56:1.745749 57:0.065645337 58:-0.81449026 59:1.6605501 60:-0.0026649237 61:0.52382886 62:1.7475903 63:-0.21425879 64:-0.13947339 65:1.7322023 66:-0.14624922 67:-0.072261527 68:1.7250676 69:0.18802945 70:-0.11502047 71:1.6817093 72:0.15450852 73:-0.031890109 74:1.7280445 
0 0 0 0 0 10 10 0 0 0 0:0.0029400438 1:-0.013528988 2:1.8605888 3:0 4:0.30000001 5:1.8 6:-0.002913937 7:0.59244365 8:1.7126756 9:-0.016929179 10:0.74147421 11:1.651669 12:-0.18506421 13:0.49530154 14:1.7777226 15:-0.19988149 16:0.22817655 17:1.835201 18:-0.21245235 19:2.9161572e-05 20:1.7773702 21:-0.20281842 22:-0.066490084 23:1.7749591 24:0.16895694 25:0.49283677 26:1.7402411 27:0.20739833 28:0.22908454 29:1.8059762 30:0.21166086 31:0.0073558539 32:1.7293575 33:0.19507706 34:-0.046184227 35:1.7197962 36:-0.079111859 37:-0.011203393 38:1.8319676 39:-0.088815108 40:-0.38484812 41:1.7931631 42:-0.058208898 43:-0.74564809 44:1.7705019 45:-0.072346024 46:-0.82122469 47:1.6747265 48:0.080669612 49:-0.0098525435 50:1.8129656 51:0.1064297 52:-0.37412244 53:1.7655542 54:0.069213241 55:-0.74201626 56:1.7491088 57:0.064844996 58:-0.80658185 59:1.6642728 60:-0.0020575076 61:0.52060497 62:1.7379732 63:-0.21547608 64:-0.14113827 65:1.7491913 66:-0.14830998 67:-0.062483266 68:1.7436206 69:0.18602538 70:-0.11244531 71:1.6880605 72:0.15856162 73:-0.02092135 74:1.7444005 
0 0 3.417653047971053 2.405674560006619 0 10 10 0 0.07588052304733217 0.3466991381994409 0:0.0030140281 1:-0.0087260604 2:1.8740172 3:0 4:0.30000001 5:1.8 6:-0.0039461926 7:0.58752531 8:1.6999588 9:-0.016330145 10:0.7248072 11:1.6273813 12:-0.18469912 13:0.49872679 14:1.7656994 15:-0.20020127 16:0.231868 17:1.8382626 18:-0.21263424 19:0.00282152 20:1.7879772 21:-0.20054047 22:-0.064371645 23:1.7860298 24:0.16967791 25:0.49347544 26:1.7309291 27:0.20904443 28:0.2355462 29:1.8090296 30:0.21281868 31:0.012911499 32:1.7355578 33:0.20052794 34:-0.042610168 35:1.7226946 36:-0.079289943 37:-0.0058901012 38:1.8436813 39:-0.089177996 40:-0.37544215 41:1.8036985 42:-0.058053799 43:-0.73536772 44:1.7756963 45:-0.070986815 46:-0.81276405 47:1.6792786 48:0.081063211 49:-0.0054827929 50:1.8282409 51:0.10778685 52:-0.36617088 53:1.7760887 54:0.07025589 55:-0.73364615 56:1.7533243 57:0.065455809 58:-0.79802716 59:1.6677392 60:-0.0027778521 61:0.51696819 62:1.7284691 63:-0.21263918 64:-0.13738209 65:1.7597334 66:-0.14747116 67:-0.050202653 68:1.7563553 69:0.18654621 70:-0.10823673 71:1.6970935 72:0.16400152 73:-0.013573393 74:1.7559752 
0 0 0 0 0 10 0 0 0 0 0:0.0043007135 1:-0.025519311 2:1.7727382 3:0 4:0.30000001 5:1.8 6:-0.0035565495 7:0.61366427 8:1.8020809 9:-0.011386476 10:0.78319025 11:1.8149827 12:-0.18597633 13:0.47390035 14:1.8350208 15:-0.20229378 16:0.20517707 17:1.7948782 18:-0.21436928 19:-0.012265936 20:1.7058234 21:-0.2029933 22:-0.073945761 23:1.6863344 24:0.17487197 25:0.4785327 26:1.7971523 27:0.20742156 28:0.19963178 29:1.7910779 30:0.21011432 31:-0.015972257 32:1.6965234 33:0.18954037 34:-0.065524176 35:1.680223 36:-0.075164497 37:-0.026080742 38:1.7434309 39:-0.083664022 40:-0.41389826 41:1.7309213 42:-0.0562924 43:-0.78024638 44:1.7414989 45:-0.073542699 46:-0.85231173 47:1.6528208 48:0.079295039 49:-0.019406423 50:1.7258203 51:0.1004255 52:-0.40719989 53:1.7079639 54:0.068750858 55:-0.76951826 56:1.7222264 57:0.063993827 58:-0.83515584 59:1.6394277 60:-0.0025651753 61:0.53672743 62:1.804672 63:-0.21540129 64:-0.13988286 65:1.6459897 66:-0.25902623 67:-0.096221194 68:1.661833 69:0.19146417 70:-0.13404003 71:1.6605704 72:0.14109991 73:-0.042574003 74:1.6473086 
0 0 0 0 0 10 0 0 0 0 0:0.0035694987 1:-0.025824592 2:1.7787149 3:0 4:0.30000001 5:1.8 6:-0.0020553768 7:0.61397636 8:1.7931726 9:-0.010577895 10:0.78198266 11:1.8015611 12:-0.18487316 13:0.47697967 14:1.8298061 15:-0.20298058 16:0.205754 17:1.7973621 18:-0.21480009 19:-0.012136742 20:1.7095187 21:-0.2024606 22:-0.07610622 23:1.6910372 24:0.17470796 25:0.47929561 26:1.79268 27:0.20675336 28:0.20014079 29:1.7938092 30:0.2089719 31:-0.016555503 32:1.7020936 33:0.1875612 34:-0.065071672 35:1.6869004 36:-0.07613939 37:-0.026047528 38:1.7498899 39:-0.084636152 40:-0.41281474 41:1.7354717 42:-0.056924433 43:-0.78075469 44:1.7441483 45:-0.074543044 46:-0.85306299 47:1.654439 48:0.078774542 49:-0.019993052 50:1.7313466 51:0.10003158 52:-0.40757561 53:1.7122355 54:0.068180799 55:-0.76937759 56:1.7247989 57:0.063417569 58:-0.83495438 59:1.642101 60:-0.0014463365 61:0.53692746 62:1.7979839 63:-0.21644235 64:-0.14096572 65:1.6524622 66:-0.25894606 67:-0.095360711 68:1.6630661 69:0.19171192 70:-0.13409935 71:1.6665311 72:0.14058115 73:-0.04942134 74:1.6525109 
0 0 0 0 0 10 0 0 0 0 0:0.0035629719 1:-0.025813818 2:1.7864189 3:0 4:0.30000001 5:1.8 6:-0.0017989129 7:0.61319762 8:1.7865257 9:-0.0092059374 10:0.78058332 11:1.7874107 12:-0.18509439 13:0.47957939 14:1.8252058 15:-0.2030721 16:0.20758675 17:1.7987947 18:-0.21439973 19:-0.011830956 20:1.7153215 21:-0.20240456 22:-0.076864362 23:1.7003231 24:0.17466247 25:0.47981983 26:1.788064 27:0.20616192 28:0.20086776 29:1.795825 30:0.20815539 31:-0.017475858 32:1.7086527 33:0.1882925 34:-0.066699147 35:1.6948321 36:-0.076367378 37:-0.025529131 38:1.7566006 39:-0.085588127 40:-0.41352874 41:1.7408552 42:-0.05732093 43:-0.78054458 44:1.746196 45:-0.075533763 46:-0.8534686 47:1.6536806 48:0.07900767 49:-0.020583913 50:1.7400758 51:0.099203289 52:-0.40684742 53:1.717231 54:0.067500308 55:-0.76940846 56:1.7264025 57:0.062726349 58:-0.83431965 59:1.6440394 60:-0.0011752397 61:0.53637272 62:1.7930002 63:-0.21441191 64:-0.14177047 65:1.6603162 66:-0.25611401 67:-0.089235619 68:1.678179 69:0.19148296 70:-0.1342207 71:1.6724069 72:0.13983858 73:-0.056951314 74:1.6602881 
0 0 0 0 0 10 0 0 0 0 0:0.0032544881 1:-0.025415629 2:1.7941666 3:0 4:0.30000001 5:1.8 6:-0.0015583038 7:0.61167586 8:1.7762179 9:-0.0081975833 10:0.77973986 11:1.7701907 12:-0.18477325 13:0.48241487 14:1.8195252 15:-0.20352095 16:0.20941553 17:1.8015504 18:-0.21392243 19:-0.011330321 20:1.7220685 21:-0.20144878 22:-0.07698825 23:1.7095666 24:0.17506716 25:0.48099217 26:1.7850852 27:0.2050871 28:0.20276186 29:1.7994308 30:0.20719692 31:-0.016604498 32:1.7152486 33:0.18592677 34:-0.066105142 35:1.7018661 36:-0.0769687 37:-0.024794936 38:1.7635314 39:-0.08676023 40:-0.411809 41:1.7458997 42:-0.058123827 43:-0.77934408 44:1.7496209 45:-0.077784091 46:-0.84953797 47:1.6611829 48:0.079015017 49:-0.020525143 50:1.7486289 51:0.098518342 52:-0.40515009 53:1.7240036 54:0.066585332 55:-0.76833606 56:1.7296443 57:0.060768455 58:-0.83321321 59:1.6470613 60:-0.00093275309 61:0.53523493 62:1.7853317 63:-0.21348965 64:-0.14376524 65:1.6727591 66:-0.25552151 67:-0.08352752 68:1.6924784 69:0.19092646 70:-0.13203579 71:1.6787591 72:0.13670763 73:-0.043030053 74:1.6716266 
0 0 0 0 0 0 0 9.499163664445298 0 0 0:0.0036456883 1:-0.023327231 2:1.7571623 3:0 4:0.30000001 5:1.8 6:-0.003562361 7:0.6117506 8:1.8303654 9:-0.012795299 10:0.77798462 11:1.8506796 12:-0.18649204 13:0.47064444 14:1.846802 15:-0.21447259 16:0.22157842 17:1.7639754 18:-0.24770734 19:0.0030105263 20:1.6428394 21:-0.25549403 22:-0.069387376 23:1.5962546 24:0.16972394 25:0.47615716 26:1.7989066 27:0.20539011 28:0.22050732 29:1.7443449 30:0.21604683 31:-0.014562309 32:1.6030486 33:0.2074248 34:-0.075217217 35:1.5674496 36:-0.07558459 37:-0.024174258 38:1.727442 39:-0.081078693 40:-0.41414294 41:1.7087305 42:-0.058511451 43:-0.77049053 44:1.7109818 45:-0.072468996 46:-0.84030902 47:1.6247363 48:0.078458145 49:-0.016897663 50:1.7106113 51:0.096696869 52:-0.40079758 53:1.6848772 54:0.067174584 55:-0.76005721 56:1.7078631 57:0.060282499 58:-0.82561576 59:1.6301627 60:-0.0025930703 61:0.53531516 62:1.8250544 63:-0.25269642 64:-0.14776239 65:1.5783868 66:-0.28696954 67:-0.065923616 68:1.5907559 69:0.19287218 70:-0.15149936 71:1.5544078 72:0.2176192 73:-0.076783776 74:1.5283604 
0 0 0 0 0 0 0 10 0 0 0:0.0029996485 1:-0.023312539 2:1.7557702 3:0 4:0.30000001 5:1.8 6:-0.0028146654 7:0.6117413 8:1.8322597 9:-0.012580931 10:0.77731955 11:1.8513288 12:-0.18305868 13:0.47143146 14:1.8442354 15:-0.21810469 16:0.23824668 17:1.7436767 18:-0.26257238 19:0.018112421 20:1.5924447 21:-0.26770556 22:-0.047485918 23:1.5519404 24:0.16898705 25:0.47611746 26:1.7973218 27:0.20409389 28:0.23235551 29:1.7254996 30:0.21404974 31:0.0035243332 32:1.5530715 33:0.2047336 34:-0.057870403 35:1.5217595 36:-0.076312929 37:-0.024069324 38:1.7258892 39:-0.081878334 40:-0.4138771 41:1.7071433 42:-0.059395261 43:-0.77031076 44:1.7093625 45:-0.07305716 46:-0.84040415 47:1.6236899 48:0.077942252 49:-0.017045289 50:1.7095218 51:0.095993012 52:-0.40027544 53:1.682904 54:0.066643238 55:-0.7590661 56:1.7064354 57:0.060124367 58:-0.82579124 59:1.6290014 60:-0.0020321757 61:0.53530657 62:1.8264585 63:-0.26848978 64:-0.12357029 65:1.5270007 66:-0.29998499 67:-0.051863596 68:1.5411153 69:0.18871234 70:-0.13253698 71:1.5034518 72:0.24555905 73:-0.074240714 74:1.5199614 
0 0 0 0 0 0 0 10 0 0 0:0.0025382042 1:-0.023360714 2:1.7546642 3:0 4:0.30000001 5:1.8 6:-0.001950115 7:0.61186874 8:1.8337662 9:-0.011961117 10:0.77685678 11:1.8518918 12:-0.17809242 13:0.47248438 14:1.8401878 15:-0.21782276 16:0.26028541 17:1.7190964 18:-0.27091902 19:0.062140569 20:1.552166 21:-0.2827214 22:-0.018005237 23:1.4972069 24:0.16845493 25:0.47606865 26:1.7959135 27:0.20164753 28:0.24657401 29:1.6993237 30:0.20753266 31:0.052622616 32:1.5215983 33:0.19832651 34:-0.031079307 35:1.4686368 36:-0.076847181 37:-0.023991361 38:1.7247188 39:-0.082181856 40:-0.41227075 41:1.7053101 42:-0.060687147 43:-0.76850903 44:1.7082009 45:-0.072950885 46:-0.84042501 47:1.6221039 48:0.077522382 49:-0.017235458 50:1.708581 51:0.09553434 52:-0.39956698 53:1.6815889 54:0.066351935 55:-0.75829685 56:1.7051129 57:0.059585944 58:-0.82537735 59:1.6277032 60:-0.001404196 61:0.53539574 62:1.8275821 63:-0.2872155 64:-0.089484885 65:1.4698908 66:-0.31169713 67:-0.022395238 68:1.4889247 69:0.18446614 70:-0.10114075 71:1.4459686 72:0.23783733 73:-0.047583014 74:1.4590919 
0 1.053095518467929 0 0 0 0 0 0 0 0 0:0.0033028573 1:-0.01769729 2:1.7423694 3:0 4:0.30000001 5:1.8 6:-0.0042959303 7:0.60629314 8:1.8436625 9:-0.011978954 10:0.77349722 11:1.8659213 12:-0.18198024 13:0.46413642 14:1.8518121 15:-0.21263412 16:0.19439915 17:1.8043249 18:-0.22801226 19:-0.029519826 20:1.7003982 21:-0.2208858 22:-0.092289433 23:1.6650686 24:0.17220072 25:0.47035521 26:1.8179266 27:0.21238102 28:0.19739518 29:1.7904537 30:0.22327913 31:-0.027213454 32:1.6770742 33:0.20262878 34:-0.084743872 35:1.6442878 36:-0.076838613 37:-0.017626867 38:1.7121103 39:-0.10850953 40:-0.38403594 41:1.6749961 42:-0.099302791 43:-0.76413512 44:1.7147553 45:-0.12058981 46:-0.83557892 47:1.6242292 48:0.078305975 49:-0.011855826 50:1.6962516 51:0.1067497 52:-0.38461846 53:1.6664798 54:0.097590059 55:-0.74038583 56:1.7177057 57:0.096419856 58:-0.81524491 59:1.6353109 60:-0.0030700117 61:0.53120285 62:1.8351433 63:-0.23426864 64:-0.17401195 65:1.640543 66:-0.27076483 67:-0.10605615 68:1.6538804 69:0.19924127 70:-0.15697116 71:1.6198173 72:0.24604554 73:-0.091284841 74:1.6399972 
10 10 0 0 0 0 0 0 0 0 0:0.0031557679 1:-0.017655954 2:1.7424233 3:0 4:0.30000001 5:1.8 6:-0.0041398406 7:0.606296 8:1.8435824 9:-0.011894047 10:0.77347445 11:1.8655369 12:-0.18195082 13:0.46409422 14:1.8512552 15:-0.21221539 16:0.19486167 17:1.803242 18:-0.2266546 19:-0.019310281 20:1.7032371 21:-0.21847825 22:-0.092368051 23:1.6673648 24:0.17216951 25:0.47044641 26:1.8179028 27:0.21232942 28:0.19741304 29:1.7906334 30:0.22493911 31:-0.021526933 32:1.6811814 33:0.20269206 34:-0.085030839 35:1.6462533 36:-0.076903023 37:-0.017592832 38:1.712194 39:-0.10844796 40:-0.38346899 41:1.6751583 42:-0.099284075 43:-0.76402634 44:1.71471 45:-0.11866535 46:-0.83237147 47:1.6290791 48:0.078072444 49:-0.011817575 50:1.6962719 51:0.10670522 52:-0.3836382 53:1.6663885 54:0.097728759 55:-0.74072278 56:1.7179623 57:0.096665889 58:-0.81516415 59:1.636333 60:-0.0029652119 61:0.53120035 62:1.8350928 63:-0.23255277 64:-0.17620404 65:1.6472433 66:-0.27021766 67:-0.10834448 68:1.6540589 69:0.1983797 70:-0.15866657 71:1.6221516 72:0.24633878 73:-0.090995178 74:1.6419485 
0 0 0 1.633439832895103 0 0 0 0 0 0 0:0.0029290915 1:-0.017599195 2:1.7423916 3:0 4:0.30000001 5:1.8 6:-0.0038275123 7:0.60626715 8:1.8435793 9:-0.011627063 10:0.77355427 11:1.8652153 12:-0.18220975 13:0.46403778 14:1.8510885 15:-0.21104051 16:0.19471389 17:1.7992635 18:-0.22538671 19:-0.019682035 20:1.7031527 21:-0.21804416 22:-0.090400249 23:1.6674697 24:0.17235771 25:0.47057694 26:1.8178568 27:0.21220282 28:0.19730747 29:1.7902584 30:0.22383791 31:-0.024951696 32:1.6780176 33:0.20369375 34:-0.083434492 35:1.6442771 36:-0.077146858 37:-0.017481282 38:1.7119997 39:-0.10827417 40:-0.38372087 41:1.6755557 42:-0.099181354 43:-0.76399022 44:1.7149062 45:-0.11923047 46:-0.83182877 47:1.6274028 48:0.077881783 49:-0.011833116 50:1.6963809 51:0.10647714 52:-0.38307196 53:1.666755 54:0.098514274 55:-0.74257404 56:1.7175291 57:0.096649453 58:-0.81505382 59:1.6368289 60:-0.0027526617 61:0.53117889 62:1.8350954 63:-0.23142268 64:-0.17774925 65:1.6473 66:-0.26745749 67:-0.083747908 68:1.6710157 69:0.19485337 70:-0.16358048 71:1.6226659 72:0.24643743 73:-0.099614844 74:1.6389387 
0 0 0 0 0 0 0 10 0 0 0:0.0031611472 1:-0.017650127 2:1.7424726 3:0 4:0.30000001 5:1.8 6:-0.0038899481 7:0.60635722 8:1.8437667 9:-0.011674419 10:0.77374309 11:1.8655605 12:-0.1832535 13:0.46304858 14:1.8505363 15:-0.21764359 16:0.21368153 17:1.7614889 18:-0.25060755 19:0.0084986985 20:1.6458337 21:-0.26105639 22:-0.071210042 23:1.5951881 24:0.17264169 25:0.47063613 26:1.8174586 27:0.20919666 28:0.21720977 29:1.7582407 30:0.22330862 31:-0.0063164979 32:1.6111722 33:0.2133241 34:-0.065949604 35:1.5764558 36:-0.076824039 37:-0.017509073 38:1.7120719 39:-0.10852449 40:-0.38530546 41:1.6760499 42:-0.099096321 43:-0.76367331 44:1.7145891 45:-0.11834635 46:-0.832959 47:1.6301241 48:0.078177094 49:-0.012038708 50:1.6968153 51:0.10653764 52:-0.38491392 53:1.6669974 54:0.098642841 55:-0.74251336 56:1.7172616 57:0.095712289 58:-0.81558764 59:1.6372824 60:-0.0027910471 61:0.53123844 62:1.8352075 63:-0.25751939 64:-0.14906122 65:1.5711493 66:-0.29192331 67:-0.075618267 68:1.5904531 69:0.2026723 70:-0.14565764 71:1.547544 72:0.25616172 73:-0.10250993 74:1.5734529 
0 0 0 0 0 0 0 10 0 0 0:0.0018932223 1:-0.022357374 2:1.750169 3:0 4:0.30000001 5:1.8 6:-0.0023335218 7:0.61065066 8:1.8379853 9:-0.012816593 10:0.77527273 11:1.8527124 12:-0.17660183 13:0.47114581 14:1.8340724 15:-0.22754015 16:0.29097593 17:1.6783624 18:-0.28852782 19:0.11759271 20:1.5270517 21:-0.3101446 22:0.033766463 23:1.4595726 24:0.16676828 25:0.47519696 26:1.7919734 27:0.20734903 28:0.27338558 29:1.6651163 30:0.22215065 31:0.07080853 32:1.4519336 33:0.21425796 34:0.012960523 35:1.4067237 36:-0.077532336 37:-0.022651911 38:1.7199376 39:-0.088544913 40:-0.40872788 41:1.6977382 42:-0.063161708 43:-0.76941895 44:1.7046549 45:-0.079173014 46:-0.84176171 47:1.611069 48:0.076633483 49:-0.016433537 50:1.7042999 51:0.096522987 52:-0.39716083 53:1.6773846 54:0.069944397 55:-0.7519052 56:1.7035639 57:0.066020936 58:-0.82770282 59:1.6256223 60:-0.0016543567 61:0.53449792 62:1.8307588 63:-0.32086354 64:-0.043609306 65:1.4233649 66:-0.28179038 67:0.031559572 68:1.4159081 69:0.20766059 70:-0.06420216 71:1.3700593 72:0.25473732 73:-0.0046194345 74:1.4037263 
0 0 0 0 0 0 0 10 0 0 0:0.0013905615 1:-0.022085533 2:1.7481482 3:0 4:0.30000001 5:1.8 6:-0.0014798343 7:0.61029148 8:1.8398678 9:-0.012189552 10:0.774616 11:1.85341 12:-0.17167047 13:0.47320715 14:1.8289921 15:-0.22289038 16:0.31301925 17:1.6514981 18:-0.29625446 19:0.17935926 20:1.4671843 21:-0.31910634 22:0.11400396 23:1.3867223 24:0.16694285 25:0.47532204 26:1.7880733 27:0.20820282 28:0.28728393 29:1.6399627 30:0.21761863 31:0.13651451 32:1.3896563 33:0.21042769 34:0.079960674 35:1.3359213 36:-0.078162789 37:-0.02223438 38:1.7176569 39:-0.088057518 40:-0.40874693 41:1.694726 42:-0.062760949 43:-0.76899981 44:1.7015207 45:-0.079016574 46:-0.84223092 47:1.609031 48:0.076284096 49:-0.016328871 50:1.7025247 51:0.097042292 52:-0.39516529 53:1.6737909 54:0.070216447 55:-0.75198305 56:1.6998742 57:0.066092536 58:-0.82798457 59:1.6221187 60:-0.001033172 61:0.53423011 62:1.8321908 63:-0.33482331 64:0.044694543 65:1.3368888 66:-0.29683077 67:0.11382747 68:1.3401513 69:0.20367201 70:0.009432584 71:1.2954257 72:0.25108284 73:0.051870137 74:1.3285859 
1.994711832695002 2.352790572361128 0 0 0 0 0 10 2.118283642273422 1.423557122908654 0:0.001243934 1:-0.021400809 2:1.7460692 3:0 4:0.30000001 5:1.8 6:-0.0013653189 7:0.60928178 8:1.8418825 9:-0.011208043 10:0.77363318 11:1.8533266 12:-0.16638176 13:0.47728521 14:1.8262246 15:-0.2258832 16:0.35869336 17:1.6086128 18:-0.31736308 19:0.27197289 20:1.4046688 21:-0.3289876 22:0.19705413 23:1.3128266 24:0.16148679 25:0.47853172 26:1.7873466 27:0.20891608 28:0.31761074 29:1.6098826 30:0.21839879 31:0.25852358 32:1.3769879 33:0.20346989 34:0.17457272 35:1.2798541 36:-0.078544602 37:-0.021322578 38:1.7156842 39:-0.08732301 40:-0.40929472 41:1.6920819 42:-0.062633194 43:-0.76865411 44:1.6978762 45:-0.077523932 46:-0.84191197 47:1.6125646 48:0.076352626 49:-0.0158678 50:1.7003033 51:0.097063497 52:-0.38507873 53:1.670176 54:0.069768026 55:-0.75587523 56:1.695411 57:0.066591337 58:-0.82823557 59:1.6183147 60:-0.00093755126 61:0.53349125 62:1.83371 63:-0.35117346 64:0.13659205 65:1.2574308 66:-0.30266124 67:0.21229945 68:1.2814305 69:0.19198523 70:0.12662445 71:1.2044785 72:0.24923073 73:0.13152532 74:1.276897 
-10 0 2.234130671747316 10 10 10 0 0 0 0 0:0.0050103366 1:-0.023554176 2:1.755285 3:0 4:0.30000001 5:1.8 6:-0.0054589435 7:0.61120784 8:1.8310113 9:-0.019243345 10:0.77822334 11:1.8487353 12:-0.18614668 13:0.46777385 14:1.8458819 15:-0.19847344 16:0.19371547 17:1.8166974 18:-0.20463791 19:-0.048142463 20:1.7150366 21:-0.20288232 22:-0.11009417 23:1.6858637 24:0.17071944 25:0.47404832 26:1.8119676 27:0.21135838 28:0.19612567 29:1.7935479 30:0.2235591 31:-0.023847118 32:1.6896577 33:0.20388003 34:-0.081899107 35:1.6640143 36:-0.073654637 37:-0.024944246 38:1.7247891 39:-0.079568788 40:-0.40004814 41:1.696579 42:-0.048887488 43:-0.76704478 44:1.7086453 45:-0.067155175 46:-0.84595048 47:1.6106198 48:0.081556574 49:-0.016613781 50:1.709425 51:0.10710104 52:-0.39874721 53:1.6883054 54:0.099504128 55:-0.76533747 56:1.729949 57:0.10133326 58:-0.83165002 59:1.6571407 60:-0.0040362328 61:0.53502005 62:1.8256173 63:-0.17071021 64:-0.20869453 65:1.6598015 66:-0.24843857 67:-0.12394972 68:1.6707535 69:0.19921724 70:-0.15685894 71:1.6381316 72:0.24870659 73:-0.085364565 74:1.6557665 
-10 0 0 10 1.409578340737157 10 0 0 0 0 0:0.0062131546 1:-0.023394361 2:1.7552562 3:0 4:0.30000001 5:1.8 6:-0.0069424361 7:0.61100799 8:1.8309247 9:-0.019563789 10:0.77820045 11:1.8481712 12:-0.18751554 13:0.46797144 14:1.8455801 15:-0.19833654 16:0.19368318 17:1.8165932 18:-0.20408586 19:-0.048521236 20:1.7146981 21:-0.2037935 22:-0.10959169 23:1.6854074 24:0.16975398 25:0.47473872 26:1.8123205 27:0.21154201 28:0.19626194 29:1.7933323 30:0.22172847 31:-0.031644464 32:1.6865087 33:0.20171311 34:-0.083531618 35:1.6624858 36:-0.07241261 37:-0.024917379 38:1.7246616 39:-0.078244932 40:-0.39967942 41:1.6950238 42:-0.046962578 43:-0.76853675 44:1.7058008 45:-0.065678515 46:-0.84894174 47:1.6085842 48:0.082773954 49:-0.016315773 50:1.7094891 51:0.10893728 52:-0.39882165 53:1.6865833 54:0.10193436 55:-0.76542771 56:1.7288775 57:0.10392487 58:-0.83166718 59:1.6560366 60:-0.0051314868 61:0.53487229 62:1.8255651 63:-0.16967091 64:-0.20874429 65:1.65659 66:-0.24964689 67:-0.13081062 68:1.672195 69:0.20385379 70:-0.15227485 71:1.636651 72:0.24786162 73:-0.084267616 74:1.6583607 
-10 0 0 10 0 10 0 0 0 0 0:0.0064463876 1:-0.02331008 2:1.7555642 3:0 4:0.30000001 5:1.8 6:-0.0069270171 7:0.61096638 8:1.8306012 9:-0.020702448 10:0.77831578 11:1.848469 12:-0.18891585 13:0.4682138 14:1.8457797 15:-0.19903144 16:0.1933081 17:1.8170419 18:-0.2041952 19:-0.048305258 20:1.7148888 21:-0.20294403 22:-0.11126509 23:1.6851871 24:0.16818941 25:0.47428435 26:1.8131061 27:0.2101648 28:0.19657637 29:1.7937958 30:0.21963297 31:-0.037469923 32:1.6837945 33:0.20199499 34:-0.086822137 35:1.6629148 36:-0.072198577 37:-0.025028124 38:1.7246296 39:-0.076942973 40:-0.39940971 41:1.6936758 42:-0.044717088 43:-0.76856947 44:1.704963 45:-0.06355717 46:-0.84887356 47:1.6064203 48:0.083081812 49:-0.01602973 50:1.7101586 51:0.11062963 52:-0.39785725 53:1.6847312 54:0.10439953 55:-0.76515561 56:1.727896 57:0.10657783 58:-0.83156407 59:1.6550546 60:-0.0051425584 61:0.53483719 62:1.8253219 63:-0.17091456 64:-0.21147205 65:1.6545117 66:-0.24860604 67:-0.12541081 68:1.6700838 69:0.2041495 70:-0.15185319 71:1.6363642 72:0.24493529 73:-0.091004923 74:1.6576977 
-10 0.4810568474608652 0 0 0 0 0 0 0 0 0:0.020196525 1:-0.020039111 2:1.755806 3:0 4:0.30000001 5:1.8 6:-0.020042991 7:0.60787392 8:1.8302047 9:-0.038363293 10:0.77341461 11:1.8452146 12:-0.19782442 13:0.46061668 14:1.842757 15:-0.19781831 16:0.18387893 17:1.8140149 18:-0.20589627 19:-0.049954802 20:1.7206576 21:-0.20524903 22:-0.11154686 23:1.6930335 24:0.16093653 25:0.47600988 26:1.819833 27:0.20987269 28:0.20344177 29:1.8070214 30:0.24559461 31:0.0035330355 32:1.6855378 33:0.22781059 34:-0.054142505 35:1.6182683 36:-0.057477538 37:-0.026173115 38:1.7193952 39:-0.055080768 40:-0.39680192 41:1.6736953 42:-0.0062165763 43:-0.76991475 44:1.6859717 45:-0.018994743 46:-0.85127556 47:1.5804374 48:0.096862435 49:-0.0082465857 50:1.7160978 51:0.15054475 52:-0.32288417 53:1.5530422 54:0.1381088 55:-0.70211136 56:1.682333 57:0.16353983 58:-0.76379597 59:1.5961456 60:-0.015080981 61:0.53249061 62:1.8250377 63:-0.21211416 64:-0.19183058 65:1.6836526 66:-0.24652191 67:-0.10391311 68:1.6820359 69:0.21216166 70:-0.1577017 71:1.5607402 72:0.26580986 73:-0.074247032 74:1.5995491 
-10 10 0 0 0 0 0 0 0 0 0:0.020463664 1:-0.019009918 2:1.755657 3:0 4:0.30000001 5:1.8 6:-0.020363437 7:0.60694808 8:1.8305178 9:-0.039749376 10:0.77295685 11:1.8457894 12:-0.1984673 13:0.45962721 14:1.8429928 15:-0.19845863 16:0.18439014 17:1.8145909 18:-0.20668106 19:-0.046484575 20:1.7233362 21:-0.2038445 22:-0.11155501 23:1.6949391 24:0.16049625 25:0.4760434 26:1.8217878 27:0.2088291 28:0.20660456 29:1.8098769 30:0.24394053 31:0.010435894 32:1.6817272 33:0.22811387 34:-0.045743942 35:1.6119192 36:-0.056812972 37:-0.025896311 38:1.7185316 39:-0.052063823 40:-0.39801496 41:1.6727982 42:-0.0049448013 43:-0.76874757 44:1.6844978 45:-0.0159159 46:-0.85128039 47:1.5786681 48:0.096810013 49:-0.0064522624 50:1.7167642 51:0.16129079 52:-0.29580486 53:1.5342045 54:0.13705696 55:-0.67280006 56:1.6858323 57:0.16305976 58:-0.74245584 59:1.6001616 60:-0.0153148 61:0.53179759 62:1.8252578 63:-0.20718277 64:-0.19332026 65:1.6835785 66:-0.24776897 67:-0.12397777 68:1.6828868 69:0.213488 70:-0.14602233 71:1.5453267 72:0.26625597 73:-0.063887894 74:1.5895081 
-10 10 0 8.750116872359214 4.020121174800317 0 0 2.655451393112161 0 0 0:0.021015296 1:-0.018467531 2:1.7550237 3:0 4:0.30000001 5:1.8 6:-0.020820798 7:0.60635257 8:1.8313406 9:-0.041311223 10:0.77244031 11:1.8469179 12:-0.19805308 13:0.4572759 14:1.8422873 15:-0.19966906 16:0.18412635 17:1.8143482 18:-0.20565867 19:-0.047544226 20:1.7227361 21:-0.20387319 22:-0.11343503 23:1.696069 24:0.16069284 25:0.47588941 26:1.8229434 27:0.20937502 28:0.20882016 29:1.8121471 30:0.24713258 31:-0.01068987 32:1.6357427 33:0.22816543 34:-0.049329415 35:1.5975173 36:-0.055721208 37:-0.026259646 38:1.7170992 39:-0.048906144 40:-0.39911118 41:1.6708193 42:-0.0089203119 43:-0.75270665 44:1.6850421 45:-0.012195094 46:-0.83989978 47:1.5846813 48:0.096922815 49:-0.0049224347 50:1.7170486 51:0.16544731 52:-0.28923526 53:1.5264299 54:0.13480991 55:-0.63406897 56:1.6921895 57:0.16192995 58:-0.71227098 59:1.6055591 60:-0.015669411 61:0.53135419 62:1.8258588 63:-0.20789157 64:-0.19495988 65:1.6864781 66:-0.24623106 67:-0.12525892 68:1.6823149 69:0.22047904 70:-0.15558898 71:1.5241554 72:0.2691085 73:-0.056200102 74:1.5807707 
-10 10 0 0 0 0 0 0 0 0 0:0.021246986 1:-0.017665759 2:1.7548883 3:0 4:0.30000001 5:1.8 6:-0.020858971 7:0.60560298 8:1.8314826 9:-0.040800527 10:0.77204341 11:1.8471758 12:-0.19692908 13:0.45589375 14:1.8425772 15:-0.19716193 16:0.18229179 17:1.8144257 18:-0.20340507 19:-0.050337449 20:1.7207854 21:-0.2003088 22:-0.11469248 23:1.6932228 24:0.16187489 25:0.4760533 26:1.8237784 27:0.21180052 28:0.20968862 29:1.8123798 30:0.25173101 31:0.017770007 32:1.6789289 33:0.23555742 34:-0.030863106 35:1.600095 36:-0.054976366 37:-0.026009724 38:1.7162395 39:-0.044616383 40:-0.39945042 41:1.6696234 42:-0.00022658752 43:-0.7688427 44:1.6801627 45:-0.0073863589 46:-0.85096061 47:1.5762532 48:0.096850269 49:-0.0037486404 50:1.7175579 51:0.17148931 52:-0.27725154 53:1.5108039 54:0.13703389 55:-0.62241101 56:1.6924663 57:0.16426879 58:-0.69054359 59:1.6042216 60:-0.015715791 61:0.53078389 62:1.8259676 63:-0.20003967 64:-0.19879554 65:1.6833048 66:-0.24856432 67:-0.13252662 68:1.6922388 69:0.24909575 70:-0.085308775 71:1.5681486 72:0.27356163 73:-0.053829283 74:1.5732934 
-5.862387736302616 10 0 0 0 0 0 4.618324802910812 0 0 0:0.021139748 1:-0.017445266 2:1.7546225 3:0 4:0.30000001 5:1.8 6:-0.020623792 7:0.60541588 8:1.8317342 9:-0.041156016 10:0.77166176 11:1.8469043 12:-0.19688624 13:0.4546454 14:1.8421078 15:-0.19669859 16:0.18302241 17:1.8140321 18:-0.20190243 19:-0.051654637 20:1.7199304 21:-0.19860907 22:-0.11554778 23:1.6930978 24:0.16197938 25:0.47624099 26:1.8241768 27:0.21247832 28:0.21038806 29:1.8124781 30:0.23921514 31:0.024866983 32:1.6662962 33:0.23376599 34:-0.026992679 35:1.5928392 36:-0.054765161 37:-0.026072279 38:1.7152145 39:-0.043723516 40:-0.39105111 41:1.6653757 42:0.0020937542 43:-0.7693038 44:1.6787975 45:-0.0048258938 46:-0.85154581 47:1.5740118 48:0.096503422 49:-0.0033421516 50:1.7180824 51:0.17359324 52:-0.27026388 53:1.5021284 54:0.13585559 55:-0.59532362 56:1.6936853 57:0.16482306 58:-0.66930789 59:1.6027293 60:-0.01554926 61:0.53063834 62:1.8261585 63:-0.20079461 64:-0.19624016 65:1.678839 66:-0.23879303 67:-0.12889895 68:1.6749847 69:0.22880015 70:-0.13245925 71:1.5191627 72:0.27042016 73:-0.035490781 74:1.5641642 
-0 10 0 0 0 0 0 0 0 0 0:0.021573305 1:-0.017114222 2:1.7542779 3:0 4:0.30000001 5:1.8 6:-0.021055058 7:0.6050424 8:1.8321555 9:-0.042642988 10:0.77080041 11:1.8476584 12:-0.1977209 13:0.45376766 14:1.842581 15:-0.19531497 16:0.18125682 17:1.8142018 18:-0.20104067 19:-0.05271852 20:1.7190518 21:-0.19784597 22:-0.11628501 23:1.692956 24:0.16126764 25:0.4763751 26:1.8241665 27:0.21280304 28:0.21139203 29:1.8127341 30:0.23912907 31:0.024867788 32:1.6678305 33:0.23596518 34:-0.022502109 35:1.5888419 36:-0.054252435 37:-0.026096329 38:1.7144516 39:-0.040593494 40:-0.39398879 41:1.665235 42:0.0036282851 43:-0.77031654 44:1.6763237 45:-0.0034451224 46:-0.85180229 47:1.5686057 48:0.096962303 49:-0.002717182 50:1.718097 51:0.17485607 52:-0.26355195 53:1.4936793 54:0.13631247 55:-0.57033634 56:1.693058 57:0.16553983 58:-0.64705771 59:1.600682 60:-0.015875582 61:0.53036094 62:1.8264692 63:-0.19463038 64:-0.19980632 65:1.6788714 66:-0.23857974 67:-0.13236918 68:1.6760375 69:0.22577797 70:-0.10971661 71:1.5188105 72:0.27519324 73:-0.03639023 74:1.5623863 
-10 0 0 10 0 10 10 0 1.100498727790854 1.092017128439674 0:0.0083306618 1:-0.024377301 2:1.7646124 3:0 4:0.30000001 5:1.8 6:-0.0091066696 7:0.61207855 8:1.821429 9:-0.028725201 10:0.77532148 11:1.8363054 12:-0.18650414 13:0.47423494 14:1.8400922 15:-0.20424347 16:0.19738294 17:1.8185651 18:-0.21838085 19:-0.02068378 20:1.7298887 21:-0.21533987 22:-0.077217028 23:1.7005689 24:0.16628028 25:0.48235011 26:1.8029625 27:0.21092172 28:0.21002136 29:1.7872379 30:0.22452225 31:-0.0035577416 32:1.6881254 33:0.20477287 34:-0.048053339 35:1.6640682 36:-0.070226111 37:-0.026190132 38:1.7334726 39:-0.067609504 40:-0.42053562 41:1.7147827 42:-0.041164014 43:-0.7834149 44:1.7178993 45:-0.055355325 46:-0.85640943 47:1.6177886 48:0.084955856 49:-0.017239168 50:1.7193937 51:0.10667868 52:-0.40957463 53:1.6930325 54:0.087037414 55:-0.77150637 56:1.7107656 57:0.086584896 58:-0.84183848 59:1.6345522 60:-0.0067688636 61:0.53568244 62:1.8184478 63:-0.23096226 64:-0.14655377 65:1.6736517 66:-0.25984883 67:-0.031692147 68:1.7122297 69:0.21034478 70:-0.11157875 71:1.6345305 72:0.15413214 73:-0.030967817 74:1.64398 
-10 0 0 10 0 10 10 0 0 0 0:0.0091658644 1:-0.024451226 2:1.7644811 3:0 4:0.30000001 5:1.8 6:-0.009777626 7:0.61217856 8:1.8215463 9:-0.031148413 10:0.77541113 11:1.8368089 12:-0.18781532 13:0.47407675 14:1.8407273 15:-0.20471703 16:0.19723868 17:1.8189192 18:-0.2188455 19:-0.02131483 20:1.7302258 21:-0.21641022 22:-0.079467416 23:1.703223 24:0.16525109 25:0.48227143 26:1.8034959 27:0.21088983 28:0.20933476 29:1.7874901 30:0.22429077 31:-0.0040146708 32:1.6877995 33:0.20495905 34:-0.047741055 35:1.6667883 36:-0.06926915 37:-0.026431024 38:1.7329862 39:-0.066373967 40:-0.42064911 41:1.7138989 42:-0.040101621 43:-0.77704787 44:1.7182741 45:-0.053272985 46:-0.85651231 47:1.6165485 48:0.085713699 49:-0.017117441 50:1.7196748 51:0.10847391 52:-0.40972811 53:1.6921041 54:0.089130238 55:-0.77162218 56:1.7099264 57:0.088936821 58:-0.84161854 59:1.633126 60:-0.0072907656 61:0.53575599 62:1.8185356 63:-0.23262261 64:-0.14828342 65:1.672986 66:-0.26083565 67:-0.067326322 68:1.6917264 69:0.20894966 70:-0.11105636 71:1.635329 72:0.1549186 73:-0.02530846 74:1.6463711 
-10 0 0 10 0 10 5.848241097864213 0 0 0 0:0.010885574 1:-0.024376988 2:1.7639585 3:0 4:0.30000001 5:1.8 6:-0.011716824 7:0.6120919 8:1.8222392 9:-0.032223236 10:0.77529705 11:1.8370175 12:-0.18730968 13:0.47389609 14:1.840184 15:-0.20359629 16:0.19732159 17:1.8187141 18:-0.21796855 19:-0.021099746 20:1.7300496 21:-0.21488577 22:-0.079057753 23:1.7017288 24:0.1655325 25:0.48260385 26:1.8034577 27:0.2113888 28:0.20901585 29:1.7869503 30:0.22500435 31:-0.0042405427 32:1.6870744 33:0.20536774 34:-0.047444269 35:1.6654732 36:-0.067534178 37:-0.026476339 38:1.7323985 39:-0.063940778 40:-0.42052495 41:1.7126954 42:-0.03598297 43:-0.77977365 44:1.7162919 45:-0.050266538 46:-0.85650772 47:1.615351 48:0.087500811 49:-0.016929165 50:1.7191854 51:0.10964955 52:-0.41276413 53:1.6913555 54:0.092179872 55:-0.77533388 56:1.7085259 57:0.094346412 58:-0.84490633 59:1.6225355 60:-0.0087336302 61:0.5356918 62:1.8190382 63:-0.22805786 64:-0.14831215 65:1.6756356 66:-0.26030505 67:-0.052993894 68:1.7035823 69:0.21161923 70:-0.11027773 71:1.6337092 72:0.15470189 73:-0.033147871 74:1.6434419 
-10 0 0 10 0 10 0 0 0 0 0:0.011912562 1:-0.02433309 2:1.7636642 3:0 4:0.30000001 5:1.8 6:-0.012338599 7:0.6120916 8:1.8225484 9:-0.033725288 10:0.77520555 11:1.8372567 12:-0.18743846 13:0.47270626 14:1.8399506 15:-0.20338646 16:0.19689403 17:1.8188429 18:-0.21707118 19:-0.022045001 20:1.7300882 21:-0.21557096 22:-0.079400688 23:1.7022743 24:0.16569433 25:0.48291785 26:1.8035455 27:0.21175739 28:0.20895486 29:1.7876852 30:0.2260507 31:-0.0037138164 32:1.6865387 33:0.20652762 34:-0.046152115 35:1.6642327 36:-0.066528454 37:-0.026698992 38:1.7316654 39:-0.061924309 40:-0.42084742 41:1.7114594 42:-0.03278394 43:-0.78577137 44:1.7123208 45:-0.046882451 46:-0.85557288 47:1.6137156 48:0.088560678 49:-0.016625777 50:1.7193272 51:0.11221824 52:-0.41069698 53:1.689841 54:0.094668068 55:-0.77728248 56:1.7089686 57:0.097117759 58:-0.84369087 59:1.6224217 60:-0.0092360936 61:0.53568822 62:1.8192701 63:-0.22675073 64:-0.14796199 65:1.674021 66:-0.26193294 67:-0.073584393 68:1.69646 69:0.21232635 70:-0.10901219 71:1.6337218 72:0.15674636 73:-0.032640189 74:1.642467 
-10 0 0 0 0 0 0 0 0 0 0:0.023185348 1:-0.020925552 2:1.7626431 3:0 4:0.30000001 5:1.8 6:-0.022652233 7:0.60871226 8:1.8236711 9:-0.052325115 10:0.770661 11:1.8375258 12:-0.19736564 13:0.46061927 14:1.8433199 15:-0.19728892 16:0.19453417 17:1.819428 18:-0.20793468 19:-0.027337685 20:1.7291446 21:-0.2058835 22:-0.096625432 23:1.7003739 24:0.15892953 25:0.48487455 26:1.8097856 27:0.21545762 28:0.21792315 29:1.7954016 30:0.25098741 31:0.011480793 32:1.6862342 33:0.23680826 34:-0.035106897 35:1.6547077 36:-0.054222945 37:-0.028399259 38:1.7299633 39:-0.044150487 40:-0.40952069 41:1.6889718 42:-0.0011153296 43:-0.76270455 44:1.6953704 45:-0.0066868234 46:-0.85038656 47:1.5964093 48:0.099862084 49:-0.0079879165 50:1.719053 51:0.14602587 52:-0.3327052 53:1.5656891 54:0.13033819 55:-0.72327954 56:1.6752741 57:0.15099227 58:-0.78689718 59:1.5835476 60:-0.017075805 61:0.53314292 62:1.8201118 63:-0.2133314 64:-0.16203059 65:1.6727941 66:-0.24680294 67:-0.10289571 68:1.6836994 69:0.24506542 70:-0.095652193 71:1.6277044 72:0.18942565 73:-0.02486144 74:1.6204488 
-10 10 0 0 0 0 0 0 0 0 0:0.023593972 1:-0.020087779 2:1.7623327 3:0 4:0.30000001 5:1.8 6:-0.023090836 7:0.60786527 8:1.8240924 9:-0.05241498 10:0.76973444 11:1.8367825 12:-0.19660567 13:0.45942694 14:1.8424044 15:-0.19590349 16:0.19294037 17:1.8189366 18:-0.20846705 19:-0.027086571 20:1.7295825 21:-0.20622841 22:-0.095658138 23:1.7005095 24:0.15894739 25:0.48459232 26:1.8102937 27:0.21724704 28:0.21879493 29:1.7956455 30:0.25384903 31:0.013238251 32:1.6850362 33:0.24121214 34:-0.033585653 35:1.6502922 36:-0.053606208 37:-0.02823177 38:1.7290123 39:-0.041119754 40:-0.41023403 41:1.6873353 42:0.0019726669 43:-0.76443899 44:1.6932263 45:-0.003021975 46:-0.85139537 47:1.5931172 48:0.10020169 49:-0.006494984 50:1.7194417 51:0.14974265 52:-0.32437462 53:1.5555422 54:0.13217342 55:-0.69728518 56:1.6744692 57:0.14601599 58:-0.76163673 59:1.5852542 60:-0.017404359 61:0.53251088 62:1.8204184 63:-0.21429309 64:-0.16242741 65:1.6731141 66:-0.24289624 67:-0.098400056 68:1.682627 69:0.24734728 70:-0.092407957 71:1.6198297 72:0.19466861 73:-0.02283816 74:1.6154103 
-10 10 0 0 0 0 0 0 0 0 0:0.024994958 1:-0.018949732 2:1.7617991 3:0 4:0.30000001 5:1.8 6:-0.02496882 7:0.6064558 8:1.8249211 9:-0.052458495 10:0.76879597 11:1.8365934 12:-0.19577062 13:0.45866778 14:1.8411095 15:-0.19584513 16:0.1928094 17:1.8182993 18:-0.20848234 19:-0.025455549 20:1.7300298 21:-0.20781733 22:-0.097328961 23:1.7016487 24:0.15882577 25:0.48478022 26:1.8116755 27:0.21949299 28:0.219336 29:1.7957597 30:0.25714171 31:0.014811218 32:1.68345 33:0.24560474 34:-0.030962542 35:1.6478043 36:-0.051908895 37:-0.027788714 38:1.7274971 39:-0.039808355 40:-0.40259811 41:1.6844089 42:0.0018796874 43:-0.75870872 44:1.6925087 45:0.00027356483 46:-0.84838092 47:1.5963981 48:0.10144724 49:-0.0046731085 50:1.7200663 51:0.15949519 52:-0.29329622 53:1.5328946 54:0.13144352 55:-0.65109599 56:1.680089 57:0.14792028 58:-0.73628199 59:1.5849926 60:-0.018774806 61:0.53148949 62:1.8210204 63:-0.21222223 64:-0.1625334 65:1.6714218 66:-0.24790557 67:-0.12863132 68:1.6752131 69:0.25312859 70:-0.090370134 71:1.6190536 72:0.19941939 73:-0.0157976 74:1.6135671 
-10 10 0 0 0 0 0 0 0 0 0:0.025188137 1:-0.018423274 2:1.7620873 3:0 4:0.30000001 5:1.8 6:-0.02484275 7:0.60608041 8:1.8245318 9:-0.052916888 10:0.76834607 11:1.836735 12:-0.19558437 13:0.4581849 14:1.8402331 15:-0.19507284 16:0.19167711 17:1.817188 18:-0.20806552 19:-0.026091412 20:1.7291999 21:-0.20741776 22:-0.099118322 23:1.6983895 24:0.15890974 25:0.48442304 26:1.812341 27:0.22080986 28:0.21920361 29:1.795495 30:0.2586118 31:0.015773132 32:1.6810791 33:0.24876785 34:-0.026338086 35:1.6418114 36:-0.051518712 37:-0.027842835 38:1.7270091 39:-0.037291985 40:-0.40323925 41:1.6832113 42:0.0041488297 43:-0.76105374 44:1.6913855 45:0.0023758849 46:-0.84996772 47:1.59407 48:0.10152687 49:-0.0035526752 50:1.7212193 51:0.16392547 52:-0.28481019 53:1.5221303 54:0.13067384 55:-0.6211223 56:1.6806791 57:0.16121742 58:-0.68924075 59:1.5797513 60:-0.01870903 61:0.53118825 62:1.820735 63:-0.20741236 64:-0.1633919 65:1.6723526 66:-0.24322098 67:-0.11941941 68:1.6733694 69:0.25846967 70:-0.08543013 71:1.6116035 72:0.20441088 73:-0.015843064 74:1.6045196 
-7.261992730040485 10 0 0 0 0 0 0 0 0 0:0.025297416 1:-0.017765492 2:1.7621346 3:0 4:0.30000001 5:1.8 6:-0.024778415 7:0.60555601 8:1.8244307 9:-0.053777527 10:0.76763773 11:1.836854 12:-0.19512686 13:0.45716897 14:1.8396749 15:-0.19568966 16:0.19245654 17:1.8177342 18:-0.20754342 19:-0.027966604 20:1.727951 21:-0.20579445 22:-0.10073788 23:1.6982067 24:0.15865968 25:0.48424241 26:1.8131361 27:0.22170891 28:0.22011584 29:1.7971032 30:0.26028779 31:0.018048853 32:1.6803484 33:0.25262716 34:-0.024519533 35:1.6409147 36:-0.0512955 37:-0.02785112 38:1.7264633 39:-0.037097927 40:-0.36720118 41:1.6765931 42:0.0045144688 43:-0.75840855 44:1.6898084 45:0.0050411448 46:-0.84694541 47:1.5917559 48:0.10162681 49:-0.0022616386 50:1.7218349 51:0.17118427 52:-0.27096754 53:1.5052056 54:0.13270289 55:-0.59822035 56:1.681206 57:0.1622819 58:-0.67630482 59:1.5799925 60:-0.018677559 61:0.53077912 62:1.8206649 63:-0.20528075 64:-0.16473785 65:1.6729465 66:-0.24128735 67:-0.12045307 68:1.672437 69:0.26296622 70:-0.079725906 71:1.6124091 72:0.20756619 73:-0.0093877316 74:1.6046243 
-0 10 0 0 0 0 0 0 0.4637580534038943 0.2956133936597405 0:0.026418513 1:-0.01726386 2:1.7616148 3:0 4:0.30000001 5:1.8 6:-0.026181443 7:0.60487711 8:1.8250868 9:-0.054521188 10:0.7672891 11:1.8366888 12:-0.19564232 13:0.4557355 14:1.8391984 15:-0.19489741 16:0.19048725 17:1.8166599 18:-0.20683916 19:-0.030375257 20:1.7262628 21:-0.20473246 22:-0.10188818 23:1.6976032 24:0.15791884 25:0.48469245 26:1.815124 27:0.22240064 28:0.22082619 29:1.797251 30:0.26418504 31:0.019172415 32:1.6809442 33:0.25606516 34:-0.020594984 35:1.6423063 36:-0.050027616 37:-0.028012648 38:1.72524 39:-0.032362312 40:-0.38604164 41:1.6815193 42:0.0065403068 43:-0.75777423 44:1.6880002 45:0.0073033804 46:-0.84626836 47:1.5898509 48:0.10266539 49:-0.00092600286 50:1.7222238 51:0.17689992 52:-0.25940615 53:1.4928968 54:0.13532694 55:-0.57992429 56:1.6789019 57:0.16565542 58:-0.649396 59:1.5742424 60:-0.019713027 61:0.53028393 62:1.8211498 63:-0.20476058 64:-0.16535161 65:1.6736069 66:-0.2386979 67:-0.12099907 68:1.6712747 69:0.26557949 70:-0.079264432 71:1.6106067 72:0.21229228 73:-0.0090593398 74:1.6013741 
-10 0 10 10 5.618230574548489 10 0.6027156576020398 9.413185968484708 0 0 0:0.0036560223 1:-0.021774709 2:1.7657757 3:0 4:0.30000001 5:1.8 6:-0.0046457723 7:0.60975915 8:1.8205135 9:-0.015283629 10:0.77702701 11:1.8320541 12:-0.18766269 13:0.46860236 14:1.8366289 15:-0.20461923 16:0.20033193 17:1.7987313 18:-0.20640174 19:-0.019184768 20:1.7065485 21:-0.20206891 22:-0.078582853 23:1.6766484 24:0.16758728 25:0.4751541 26:1.8055639 27:0.20269546 28:0.20408231 29:1.7823837 30:0.20661223 31:-0.0090797096 32:1.6815197 33:0.18440828 34:-0.059424043 35:1.6561818 36:-0.076585591 37:-0.021871805 38:1.7357321 39:-0.094122589 40:-0.40622342 41:1.7125432 42:-0.071937859 43:-0.77397513 44:1.7142293 45:-0.092528872 46:-0.84737855 47:1.6049597 48:0.080212198 49:-0.016150698 50:1.7190425 51:0.10926258 52:-0.39270705 53:1.7046654 54:0.10225468 55:-0.75562906 56:1.7341328 57:0.1017919 58:-0.83153176 59:1.6533172 60:-0.0033643916 61:0.53391153 62:1.8177466 63:-0.1911536 64:-0.16101441 65:1.6476951 66:-0.25515684 67:-0.089991167 68:1.6688776 69:0.1845046 70:-0.12707025 71:1.6268325 72:0.13933098 73:-0.037009358 74:1.6365466 
-10 0 10 10 0 10 0 10 0 0 0:0.0040667281 1:-0.021907136 2:1.7656126 3:0 4:0.30000001 5:1.8 6:-0.0048717633 7:0.60990632 8:1.8207018 9:-0.016409598 10:0.77705944 11:1.8319886 12:-0.18819332 13:0.46800187 14:1.8359525 15:-0.20455329 16:0.20006207 17:1.7986007 18:-0.20727095 19:-0.019477576 20:1.7057776 21:-0.2016606 22:-0.085796893 23:1.6722848 24:0.16710164 25:0.475243 26:1.8056595 27:0.20251964 28:0.20390204 29:1.7827499 30:0.20745178 31:-0.009251371 32:1.6819305 33:0.18564259 34:-0.059355468 35:1.6582239 36:-0.0764063 37:-0.022157982 38:1.7354541 39:-0.093589284 40:-0.40483418 41:1.7109151 42:-0.069950454 43:-0.77387416 44:1.71415 45:-0.090477541 46:-0.84729469 47:1.6050665 48:0.080908537 49:-0.016160741 50:1.7190394 51:0.11076136 52:-0.39281914 53:1.7042909 54:0.10394435 55:-0.75635624 56:1.7341795 57:0.10397206 58:-0.83165503 59:1.6533241 60:-0.0035495386 61:0.53402102 62:1.8178868 63:-0.1990802 64:-0.15749806 65:1.6466174 66:-0.25608376 67:-0.10334505 68:1.6611319 69:0.18811961 70:-0.12644696 71:1.6280754 72:0.13744989 73:-0.035627842 74:1.6394727 
-10 0 9.032283382645362 10 0 10 0 0 0 0 0:0.0052899942 1:-0.021716863 2:1.7656157 3:0 4:0.30000001 5:1.8 6:-0.006338954 7:0.60962057 8:1.8205912 9:-0.017899968 10:0.77703595 11:1.8316348 12:-0.18936571 13:0.46829596 14:1.8360736 15:-0.20558956 16:0.20315441 17:1.7987108 18:-0.20679229 19:-0.019240558 20:1.7046092 21:-0.20248783 22:-0.08780691 23:1.6707439 24:0.16629457 25:0.47561595 26:1.8059232 27:0.20297635 28:0.20346782 29:1.7827139 30:0.20801389 31:-0.009758085 32:1.6820784 33:0.18649557 34:-0.059335411 35:1.6589437 36:-0.075097516 37:-0.022162616 38:1.7355013 39:-0.092507213 40:-0.40556112 41:1.7090743 42:-0.067956507 43:-0.77392983 44:1.7135377 45:-0.087659031 46:-0.8471911 47:1.6038258 48:0.082056932 49:-0.015767768 50:1.7190566 51:0.11106654 52:-0.39360693 53:1.7029171 54:0.10622551 55:-0.75588238 56:1.7340646 57:0.10631353 58:-0.83124018 59:1.6530249 60:-0.0046336129 61:0.53381431 62:1.8178141 63:-0.18931706 64:-0.16645584 65:1.6511719 66:-0.25591013 67:-0.10655621 68:1.6605186 69:0.19015181 70:-0.12388003 71:1.6267669 72:0.13801342 73:-0.034029692 74:1.6402225 
