svm_type c_svc
kernel_type rbf
gamma 0.5
nr_class 3
total_sv 12
rho 0.00931411 -0.0110672 -0.000242899
label 1 2 3
nr_sv 3 6 3
SV
1 0 0:0.01010865 1:0.024771184 2:1.7550559 3:0 4:0.30000001 5:1.8 6:-0.0091632307 7:0.56565785 8:1.83621 9:-0.001716271 10:0.70785391 11:1.8420708 12:-0.18988578 13:0.45593876 14:1.7995546 15:-0.25107306 16:0.18267193 17:1.7791772 18:-0.22158687 19:-0.022622794 20:1.6762483 21:-0.20223422 22:-0.085980088 23:1.6369421 24:0.18603858 25:0.44712055 26:1.8431115 27:0.23556991 28:0.16892707 29:1.8306191 30:0.24376306 31:-0.041139245 32:1.7348182 33:0.22595021 34:-0.10740265 35:1.6915474 36:-0.058355942 37:0.029005319 38:1.7138548 39:-0.072417274 40:-0.35199147 41:1.5914094 42:-0.07402651 43:-0.6779713 44:1.5962512 45:-0.071190044 46:-0.69585937 47:1.472295 48:0.085657626 49:0.027016759 50:1.7303813 51:0.11948366 52:-0.37492985 53:1.6309152 54:0.12784231 55:-0.70007467 56:1.6441829 57:0.14213887 58:-0.7652514 59:1.5548372 60:-0.0070909709 61:0.50041062 62:1.8290396 63:-0.18561737 64:-0.15367219 65:1.6165078 66:-0.24123447 67:-0.10334253 68:1.6305137 69:0.22415218 70:-0.17374256 71:1.6644673 72:0.19784038 73:-0.099244088 74:1.6623509 
0.5176879407456546 1 0:0.011009574 1:0.025272794 2:1.7516427 3:0 4:0.30000001 5:1.8 6:-0.0098775774 7:0.56440377 8:1.8396249 9:-0.0011402965 10:0.70627922 11:1.845134 12:-0.19065553 13:0.45575115 14:1.8021133 15:-0.25155953 16:0.18452567 17:1.7755611 18:-0.22104934 19:-0.021190159 20:1.6665139 21:-0.198805 22:-0.086752556 23:1.6267195 24:0.18392193 25:0.44395664 26:1.8461571 27:0.23498178 28:0.16785002 29:1.8273873 30:0.24674186 31:-0.041549854 32:1.7302048 33:0.22695723 34:-0.10553019 35:1.6860614 36:-0.057180047 37:0.030042253 38:1.7095926 39:-0.070831597 40:-0.3496531 41:1.5823593 42:-0.083946645 43:-0.67540705 44:1.6005251 45:-0.062420189 46:-0.68881238 47:1.4765949 48:0.086309195 49:0.02712021 50:1.7276566 51:0.12049548 52:-0.37403682 53:1.6263082 54:0.12678313 55:-0.70022976 56:1.6411798 57:0.14795151 58:-0.75980926 59:1.5468006 60:-0.0075946599 61:0.49945328 62:1.8315792 63:-0.18113253 64:-0.15774605 65:1.609375 66:-0.23726866 67:-0.1045021 68:1.6244564 69:0.22755456 70:-0.17220649 71:1.657321 72:0.19429663 73:-0.093405329 74:1.6694937 
0 0.7523326111957733 0:0.013127849 1:0.026562415 2:1.7473247 3:0 4:0.30000001 5:1.8 6:-0.011859357 7:0.56444502 8:1.8412788 9:0.00088207424 10:0.70515859 11:1.8451674 12:-0.19088857 13:0.45848644 14:1.8013895 15:-0.25004959 16:0.18980882 17:1.7636888 18:-0.21588807 19:-0.019081242 20:1.6550553 21:-0.19266818 22:-0.086483218 23:1.6299083 24:0.18191729 25:0.44378585 26:1.8492286 27:0.23502617 28:0.16643789 29:1.8209002 30:0.24744676 31:-0.043085076 32:1.7237864 33:0.22768472 34:-0.11113171 35:1.6893575 36:-0.054709926 37:0.031295113 38:1.7040014 39:-0.070086315 40:-0.34407377 41:1.5823507 42:-0.081779584 43:-0.67240065 44:1.5946364 45:-0.060263887 46:-0.68422627 47:1.4700589 48:0.087990642 49:0.028385989 50:1.7248123 51:0.12343726 52:-0.376333 53:1.6221385 54:0.12838939 55:-0.70503342 56:1.6296787 57:0.15269151 58:-0.76619369 59:1.5380597 60:-0.0091422945 61:0.49945134 62:1.8330238 63:-0.17571174 64:-0.15506589 65:1.6119401 66:-0.22941963 67:-0.11457021 68:1.6239326 69:0.22766326 70:-0.17849988 71:1.666605 72:0.20005649 73:-0.096872993 74:1.6653867 
-0.1143040606080321 0 0:-0.0025814027 1:0.024496838 2:1.7688663 3:0 4:0.30000001 5:1.8 6:0.00028125942 7:0.5671972 8:1.8223221 9:0.011766151 10:0.70829648 11:1.8219051 12:-0.20174669 13:0.46796775 14:1.8134451 15:-0.44909179 16:0.3598105 17:1.8166006 18:-0.66417855 19:0.3540504 20:1.7370937 21:-0.74818832 22:0.36830392 23:1.7393243 24:0.17645538 25:0.4430806 26:1.8419609 27:0.20781335 28:0.16797546 29:1.8497772 30:0.21605828 31:-0.053372025 32:1.7811687 33:0.20560254 34:-0.12847057 35:1.7506917 36:-0.072196886 37:0.031577423 38:1.7269433 39:-0.11279212 40:-0.33630627 41:1.6123407 42:-0.13812111 43:-0.67541122 44:1.6416173 45:-0.12260558 46:-0.69142002 47:1.4972191 48:0.073111489 49:0.023531482 50:1.744612 51:0.098043203 52:-0.36268944 53:1.6473525 54:0.10566524 55:-0.70249122 56:1.6775987 57:0.11736913 58:-0.71821737 59:1.5329306 60:2.5108457e-05 61:0.50171781 62:1.8184936 63:-0.81365567 64:0.35811195 65:1.722851 66:-0.7314232 67:0.42600322 68:1.726886 69:0.20708413 70:-0.19679955 71:1.736666 72:0.17562748 73:-0.11030313 74:1.7175348 
-0.3570852368345059 0.4265082494107833 0:0.0029720515 1:0.024655059 2:1.7630627 3:0 4:0.30000001 5:1.8 6:-0.0034172535 7:0.56610173 8:1.8274286 9:0.007756263 10:0.70754296 11:1.8281348 12:-0.2035085 13:0.46535021 14:1.8180349 15:-0.45147109 16:0.35930461 17:1.8213642 18:-0.66679317 19:0.35272455 20:1.7428303 21:-0.75099844 22:0.37075233 23:1.7404444 24:0.17720574 25:0.44338685 26:1.843935 27:0.2121883 28:0.16847445 29:1.8458009 30:0.22428092 31:-0.052286699 32:1.773675 33:0.21132287 34:-0.12599607 35:1.7472425 36:-0.066383183 37:0.031082347 38:1.7212024 39:-0.10395765 40:-0.33482444 41:1.605134 42:-0.10226217 43:-0.66954982 44:1.6667128 45:-0.10402054 46:-0.56362695 47:1.5784388 48:0.078599632 49:0.024301648 50:1.7387986 51:0.11013102 52:-0.36342078 53:1.6387711 54:0.12546495 55:-0.7056241 56:1.6433401 57:0.13623422 58:-0.7201519 59:1.4984365 60:-0.002768904 61:0.50084358 62:1.822505 63:-0.81556952 64:0.36142206 65:1.7256227 66:-0.73043036 67:0.42768848 68:1.7275577 69:0.21395265 70:-0.19597571 71:1.7281506 72:0.17952076 73:-0.10218163 74:1.7159081 
-0.2536061132937365 0 0:0.0074642152 1:0.025185347 2:1.7569129 3:0 4:0.30000001 5:1.8 6:-0.0063856542 7:0.56584477 8:1.8319616 9:0.0015644282 10:0.70714337 11:1.831883 12:-0.20506801 13:0.46154064 14:1.8210597 15:-0.45158577 16:0.35691053 17:1.8218191 18:-0.66588306 19:0.35249972 20:1.73999 21:-0.74943185 22:0.36895555 23:1.7335696 24:0.17719056 25:0.44657451 26:1.8444438 27:0.21625748 28:0.17105399 29:1.8410344 30:0.23029438 31:-0.05249019 32:1.768647 33:0.21753891 34:-0.12620364 35:1.7471349 36:-0.062233791 37:0.030298874 38:1.716109 39:-0.095326796 40:-0.33458924 41:1.5964918 42:-0.11737184 43:-0.67416525 44:1.6301305 45:-0.040763244 46:-0.70745844 47:1.5462909 48:0.083605483 49:0.026058003 50:1.7316921 51:0.12022989 52:-0.36090976 53:1.6295605 54:0.11966035 55:-0.69949168 56:1.6735504 57:0.12959157 58:-0.71344382 59:1.528209 60:-0.0050058365 61:0.50058669 62:1.8260236 63:-0.81541932 64:0.36142182 65:1.7134717 66:-0.72423434 67:0.42987514 68:1.7212985 69:0.22020078 70:-0.19564597 71:1.7312429 72:0.19009712 73:-0.11339666 74:1.7105098 
-0 0.1054500648328008 0:0.0081140995 1:0.02540759 2:1.7562242 3:0 4:0.30000001 5:1.8 6:-0.006900847 7:0.56561118 8:1.8321977 9:0.0002143085 10:0.7066173 11:1.8314428 12:-0.20503885 13:0.46135581 14:1.8207047 15:-0.44997334 16:0.35798904 17:1.820303 18:-0.66375899 19:0.35434514 20:1.7368727 21:-0.74797726 22:0.37106889 23:1.7288196 24:0.17688346 25:0.44840193 26:1.8440373 27:0.21668124 28:0.17219767 29:1.8402548 30:0.23062225 31:-0.052376188 32:1.7678916 33:0.2188341 34:-0.12592646 35:1.7484603 36:-0.061723977 37:0.029919513 38:1.7154484 39:-0.092736453 40:-0.33584803 41:1.5954857 42:-0.1131438 43:-0.67600387 44:1.626662 45:-0.040939629 46:-0.70131642 47:1.5320725 48:0.084454387 49:0.026951663 50:1.7309766 51:0.12086525 52:-0.35895836 53:1.6276927 54:0.12436233 55:-0.69770938 56:1.6715322 57:0.13411669 58:-0.71158898 59:1.5261092 60:-0.0053979754 61:0.5004068 62:1.8262219 63:-0.81416029 64:0.37041971 65:1.7084985 66:-0.72242647 67:0.43214685 68:1.7151704 69:0.22280388 70:-0.19704834 71:1.7327707 72:0.1849917 73:-0.097906657 74:1.7109466 
-0.7926925300093799 0.03027900425996655 0:0.0091564059 1:0.025000915 2:1.7563212 3:0 4:0.30000001 5:1.8 6:-0.0078726113 7:0.56590843 8:1.8318682 9:-0.0017357916 10:0.70645738 11:1.8301251 12:-0.20460093 13:0.46058932 14:1.8183713 15:-0.44986129 16:0.35910156 17:1.8166704 18:-0.66281766 19:0.35735399 20:1.7307591 21:-0.74750096 22:0.37352526 23:1.7236304 24:0.1773423 25:0.44872895 26:1.8445675 27:0.2162205 28:0.17335084 29:1.841053 30:0.23153904 31:-0.050731361 32:1.7704005 33:0.21909787 34:-0.1261535 35:1.7518008 36:-0.060494661 37:0.029446438 38:1.7151587 39:-0.087992489 40:-0.33531502 41:1.5980105 42:-0.097215146 43:-0.67434037 44:1.641413 45:-0.099540412 46:-0.7176038 47:1.528322 48:0.085360318 49:0.026793942 50:1.7314656 51:0.11801509 52:-0.36315235 53:1.6303561 54:0.12712459 55:-0.70229506 56:1.6721961 57:0.13509925 58:-0.78332293 59:1.6071608 60:-0.0061291605 61:0.50062919 62:1.8259826 63:-0.81198615 64:0.36973912 65:1.7039959 66:-0.7163443 67:0.43308994 68:1.7086935 69:0.222932 70:-0.19514295 71:1.7360141 72:0.18953876 73:-0.12193188 74:1.7106841 
-0 0.6040184544976573 0:0.0091310143 1:0.02502019 2:1.7595968 3:0 4:0.30000001 5:1.8 6:-0.0078388602 7:0.56601071 8:1.8287938 9:-0.0026204586 10:0.70621175 11:1.8263531 12:-0.20571707 13:0.45997047 14:1.816879 15:-0.44995302 16:0.36036426 17:1.8118129 18:-0.66195047 19:0.35978413 20:1.7231874 21:-0.74382699 22:0.37794927 23:1.7159779 24:0.17708829 25:0.45096231 26:1.8445945 27:0.2164174 28:0.17620513 29:1.8432643 30:0.23132052 31:-0.048972987 32:1.774508 33:0.22067551 34:-0.12734884 35:1.7577412 36:-0.060947046 37:0.028785877 38:1.7189546 39:-0.0851437 40:-0.34087473 41:1.607255 42:-0.10343204 43:-0.67941636 44:1.6518116 45:-0.085787699 46:-0.71973169 47:1.537426 48:0.085726514 49:0.0275703 50:1.7342288 51:0.11691239 52:-0.36386091 53:1.6334779 54:0.12915877 55:-0.70464373 56:1.6650681 57:0.12673011 58:-0.78094256 59:1.5890818 60:-0.0061050951 61:0.50069225 62:1.8236501 63:-0.80690461 64:0.3676253 65:1.6924248 66:-0.72394848 67:0.43683767 68:1.7032757 69:0.2240326 70:-0.19592246 71:1.7416553 72:0.19122729 73:-0.11934983 74:1.7097778 
-1 -0.9740157795517821 0:0.018841609 1:0.024414074 2:1.7576089 3:0 4:0.30000001 5:1.8 6:-0.017009482 7:0.56703198 8:1.830693 9:-0.0062786341 10:0.70595145 11:1.8293295 12:-0.1929815 13:0.46194085 14:1.7959843 15:-0.23671366 16:0.20388463 17:1.7319119 18:-0.19411977 19:-0.011960331 20:1.6255579 21:-0.16899361 22:-0.08054623 23:1.6027343 24:0.19133241 25:0.45222893 26:1.8660505 27:0.40088707 28:0.28200266 29:1.9054029 30:0.62337691 31:0.24476326 32:1.86344 33:0.70879531 34:0.23467347 35:1.871352 36:-0.051497623 37:0.028986733 38:1.7124338 39:-0.061642721 40:-0.34357944 41:1.5925391 42:-0.07437785 43:-0.69272172 44:1.6009934 45:-0.061825767 46:-0.6572727 47:1.4716475 48:0.096051723 49:0.026583266 50:1.7368343 51:0.12356844 52:-0.36444923 53:1.6356928 54:0.13173744 55:-0.71431959 56:1.6295974 57:0.14819571 58:-0.73800653 59:1.5058341 60:-0.013051108 61:0.50139469 62:1.8251021 63:-0.14316912 64:-0.15121368 65:1.5878689 66:-0.12630309 67:-0.061066065 68:1.5874324 69:0.77602226 70:0.21699601 71:1.8582456 72:0.69486004 73:0.27946481 74:1.838439 
-0.7523326111957733 -0 0:0.018619329 1:0.024175823 2:1.7570896 3:0 4:0.30000001 5:1.8 6:-0.016820967 7:0.5673039 8:1.8311341 9:-0.0057313144 10:0.70654678 11:1.8308036 12:-0.19293621 13:0.46229842 14:1.7949226 15:-0.23691538 16:0.20353848 17:1.7304235 18:-0.1941171 19:-0.011697203 20:1.6237049 21:-0.17049745 22:-0.081078678 23:1.59919 24:0.19081618 25:0.45172969 26:1.8681903 27:0.39902294 28:0.28584719 29:1.9083767 30:0.62288618 31:0.2617887 32:1.8635259 33:0.70686847 34:0.28291753 35:1.871923 36:-0.051701009 37:0.028938651 38:1.7115395 39:-0.062421709 40:-0.34290031 41:1.5910215 42:-0.060226291 43:-0.69285893 44:1.5928524 45:-0.084808618 46:-0.64485192 47:1.471086 48:0.095757037 49:0.026153699 50:1.7367806 51:0.12429945 52:-0.36358842 53:1.6351764 54:0.13335723 55:-0.7136656 56:1.6211243 57:0.14669909 58:-0.7513001 59:1.503746 60:-0.01290606 61:0.5015955 62:1.8254418 63:-0.14975089 64:-0.15298751 65:1.5892816 66:-0.12799168 67:-0.060348421 68:1.5869198 69:0.77642024 70:0.2769514 71:1.8639317 72:0.68422836 73:0.32475665 74:1.8329251 
-0 -0.1922399934494258 0:0.018438458 1:0.024156544 2:1.7564781 3:0 4:0.30000001 5:1.8 6:-0.016588509 7:0.56733286 8:1.8319533 9:-0.0046628565 10:0.70665741 11:1.8321652 12:-0.19223636 13:0.46246055 14:1.7947414 15:-0.23754582 16:0.20372343 17:1.7298009 18:-0.195039 19:-0.011531409 20:1.623055 21:-0.17229748 22:-0.080468982 23:1.5973282 24:0.19003204 25:0.45215443 26:1.8723454 27:0.39749938 28:0.30952525 29:1.9162726 30:0.62090778 31:0.33036652 32:1.8587177 33:0.69705093 34:0.37024018 35:1.8622832 36:-0.051761746 37:0.029228572 38:1.7105277 39:-0.062136143 40:-0.34213373 41:1.5894158 42:-0.072515368 43:-0.69233096 44:1.5842328 45:-0.067273557 46:-0.62227356 47:1.4687743 48:0.095463723 49:0.02576581 50:1.7366712 51:0.12469944 52:-0.36296263 53:1.63257 54:0.1301661 55:-0.7132985 56:1.6217175 57:0.15103573 58:-0.75480425 59:1.5079901 60:-0.012730673 61:0.50161582 62:1.8260422 63:-0.14919367 64:-0.15165198 65:1.5861723 66:-0.12878034 67:-0.058782872 68:1.5860548 69:0.7694844 70:0.38409796 71:1.8579476 72:0.66353714 73:0.40968111 74:1.8276856 
