svm_type c_svc
kernel_type rbf
gamma 0.1
nr_class 10
total_sv 221
rho -0.318811 0.0285554 -0.257914 -2.93873 -0.438007 -0.0580195 0.00170599 0.0746146 -0.358227 -0.108186 0.141687 0.0817502 0.83337 -0.048047 -0.00207008 0.0280518 0.0229788 0 0 0.208302 0 0.00104695 0 0 -0.779766 -0.191123 -0.0261586 -0.011796 0.0167549 -0.061203 -0.00707239 0 0.000306917 -0.0437408 -0.289915 0.0550263 0.111547 -0.0126877 -0.11313 -1.36245 0.0193301 0 0 0.013476 -0.0966275
label 10 21 22 32 31 41 42 43 52 51
nr_sv 57 25 13 18 19 29 24 13 9 14
SV
6.470829885311159 0 0 0 0 0 0 0 0 0:0.0047441423 1:-0.020185053 2:1.7875216 3:0 4:0.30000001 5:1.8 6:-0.0052416101 7:0.60810924 8:1.8004014 9:-0.019074708 10:0.76883101 11:1.7875841 12:-0.17892255 13:0.48120114 14:1.839009 15:-0.18931013 16:0.21093246 17:1.8496158 18:-0.20398051 19:-0.018543512 20:1.7790716 21:-0.19788587 22:-0.096476197 23:1.7539289 24:0.15796669 25:0.4782702 26:1.7674963 27:0.27714556 28:0.30460843 29:1.6728446 30:0.30021006 31:0.47349486 32:1.5215998 33:0.30472201 34:0.53495419 35:1.4847426 36:-0.074621454 37:-0.02526471 38:1.7648418 39:-0.087104321 40:-0.38562739 41:1.7656419 42:-0.082969666 43:-0.77484298 44:1.8327844 45:-0.109841 46:-0.8637234 47:1.7493875 48:0.079905018 49:-0.01772213 50:1.7338941 51:0.14251409 52:-0.36437112 53:1.7313859 54:0.15488882 55:-0.75891781 56:1.8035357 57:0.16251267 58:-0.85588646 59:1.7146327 60:-0.0038347319 61:0.53273213 62:1.8025143 63:-0.1860705 64:-0.18052889 65:1.7454937 66:-0.15557523 67:-0.080312401 68:1.7031744 69:0.30075622 70:0.59551859 71:1.4159157 72:0.25248766 73:0.56362021 74:1.490674 
10 0 0 0 0 0 0 0 0 0:0.004847154 1:-0.020141333 2:1.7875524 3:0 4:0.30000001 5:1.8 6:-0.0053461567 7:0.60806692 8:1.8003631 9:-0.018894225 10:0.76871443 11:1.7875447 12:-0.17880157 13:0.48125795 14:1.8390326 15:-0.18994655 16:0.21416619 17:1.8501735 18:-0.20364328 19:-0.018414795 20:1.7791667 21:-0.19852151 22:-0.097585738 23:1.7551332 24:0.15814112 25:0.47835883 26:1.7677007 27:0.27730602 28:0.30520496 29:1.6719556 30:0.30041945 31:0.47375104 32:1.5214679 33:0.30460173 34:0.53628457 35:1.4853148 36:-0.074474454 37:-0.025222301 38:1.7648687 39:-0.087040827 40:-0.38544139 41:1.7653899 42:-0.082808241 43:-0.77486277 44:1.8324742 45:-0.1093597 46:-0.86331868 47:1.7495856 48:0.079984009 49:-0.0176768 50:1.7338862 51:0.14262123 52:-0.36460593 53:1.7312903 54:0.15505691 55:-0.75915051 56:1.8029599 57:0.1626348 58:-0.85636461 59:1.7146249 60:-0.0039114207 61:0.53270149 62:1.802485 63:-0.17768124 64:-0.18723768 65:1.7411122 66:-0.15559593 67:-0.082742363 68:1.7017722 69:0.30059046 70:0.59656727 71:1.4184499 72:0.25312752 73:0.56467986 74:1.4955213 
10 0 0 0 0 0 0 0 0 0:0.0028995275 1:-0.012580067 2:1.7788703 3:0 4:0.30000001 5:1.8 6:-0.0028353482 7:0.60242659 8:1.8084362 9:-0.018166766 10:0.76349306 11:1.7811611 12:-0.17790699 13:0.47104806 14:1.8326862 15:-0.19569394 16:0.19955063 17:1.8335927 18:-0.20439193 19:-0.029626846 20:1.7748969 21:-0.20400485 22:-0.11974138 23:1.7474697 24:0.16439782 25:0.49593914 26:1.7849739 27:0.23227143 28:0.27509606 29:1.7422321 30:0.24698517 31:0.48046666 32:1.6351473 33:0.22872329 34:0.51465005 35:1.6454947 36:-0.076413065 37:-0.017128229 38:1.754916 39:-0.10183251 40:-0.36049563 41:1.7587554 42:-0.087275445 43:-0.74192828 44:1.8339441 45:-0.097163334 46:-0.84777242 47:1.7427223 48:0.079703376 49:-0.0096227229 50:1.726896 51:0.1356252 52:-0.35826248 53:1.7538669 54:0.13556094 55:-0.73720574 56:1.8485601 57:0.15177636 58:-0.83650547 59:1.7520111 60:-0.0020710155 61:0.52823102 62:1.8086536 63:-0.17809051 64:-0.22333595 65:1.7254465 66:-0.16929843 67:-0.098331183 68:1.6890152 69:0.21979648 70:0.57246763 71:1.6050031 72:0.1894311 73:0.5566203 74:1.6233962 
1.290086932961847 0 0 0 0 0 0 0 0 0:0.0028082207 1:-0.01252988 2:1.7791498 3:0 4:0.30000001 5:1.8 6:-0.0027484968 7:0.6023258 8:1.8080456 9:-0.018071465 10:0.76354748 11:1.7803996 12:-0.17780204 13:0.47120696 14:1.8314726 15:-0.19605684 16:0.19970304 17:1.833472 18:-0.20445445 19:-0.029387325 20:1.7746403 21:-0.20547384 22:-0.12009302 23:1.7480824 24:0.16452469 25:0.49574566 26:1.7844646 27:0.23110835 28:0.27421898 29:1.7441375 30:0.24697636 31:0.47882146 32:1.6355989 33:0.2297691 34:0.51448601 35:1.6445787 36:-0.076518297 37:-0.01698181 38:1.7548702 39:-0.10180737 40:-0.36142746 41:1.7595131 42:-0.08736562 43:-0.74284619 44:1.8345191 45:-0.096978426 46:-0.84786278 47:1.7429569 48:0.079648823 49:-0.0096150637 50:1.7273242 51:0.13586354 52:-0.35700428 53:1.7534378 54:0.13540708 55:-0.73759651 56:1.8488147 57:0.15143205 58:-0.83651096 59:1.7525375 60:-0.0020041317 61:0.52815861 62:1.8083589 63:-0.17714146 64:-0.21705946 65:1.7156227 66:-0.16565788 67:-0.075682938 68:1.6865709 69:0.21966498 70:0.5696975 71:1.6064765 72:0.19108479 73:0.55642962 74:1.6267297 
0 0 0 0 3.642806188323612 0 0 0 0 0:0.0026723668 1:-0.012573272 2:1.7792552 3:0 4:0.30000001 5:1.8 6:-0.0026966631 7:0.60242552 8:1.8078778 9:-0.018205211 10:0.76353675 11:1.780349 12:-0.17817906 13:0.47038364 14:1.8314278 15:-0.19630948 16:0.19957715 17:1.8334105 18:-0.20458844 19:-0.029273212 20:1.7747195 21:-0.20484039 22:-0.11875093 23:1.75054 24:0.16431317 25:0.49549782 26:1.7848856 27:0.23244533 28:0.27466065 29:1.742801 30:0.24685156 31:0.47972858 32:1.63501 33:0.22948706 34:0.51593488 35:1.6435931 36:-0.076670706 37:-0.016994715 38:1.754916 39:-0.10257287 40:-0.35859036 41:1.7592137 42:-0.087809473 43:-0.74226594 44:1.8351343 45:-0.096553415 46:-0.84769189 47:1.7439244 48:0.079523496 49:-0.0096821189 50:1.7274725 51:0.13571674 52:-0.3564837 53:1.7536328 54:0.13500518 55:-0.73838007 56:1.8496773 57:0.15119803 58:-0.83620429 59:1.7524893 60:-0.0019608438 61:0.52822655 62:1.8082321 63:-0.17680711 64:-0.21591143 65:1.7213843 66:-0.16832446 67:-0.10035762 68:1.6883585 69:0.21745118 70:0.57098383 71:1.6118968 72:0.18058845 73:0.4794786 74:1.7315629 
0 0 0 0 10 0 0 0 0 0:0.002631329 1:-0.012553424 2:1.7791827 3:0 4:0.30000001 5:1.8 6:-0.002684705 7:0.60241604 8:1.8079369 9:-0.018217191 10:0.76345789 11:1.7802765 12:-0.17810036 13:0.47040954 14:1.8313849 15:-0.19626117 16:0.19959816 17:1.8333724 18:-0.20447326 19:-0.029316396 20:1.7746069 21:-0.20706311 22:-0.11975095 23:1.7490518 24:0.1640503 25:0.49567631 26:1.784857 27:0.23257451 28:0.27499977 29:1.7424653 30:0.24687363 31:0.48015335 32:1.6348431 33:0.2266102 34:0.51330793 35:1.6496327 36:-0.076720171 37:-0.016913742 38:1.7546046 39:-0.10144871 40:-0.36075449 41:1.7588913 42:-0.087716065 43:-0.74280155 44:1.8348792 45:-0.096518986 46:-0.84722185 47:1.7425902 48:0.079492167 49:-0.0096835196 50:1.7275317 51:0.13569067 52:-0.35646221 53:1.7537138 54:0.13501106 55:-0.73834229 56:1.8497617 57:0.15115577 58:-0.8360095 59:1.7525017 60:-0.001951851 61:0.52821934 62:1.8082788 63:-0.17807215 64:-0.21561953 65:1.7166684 66:-0.17235881 67:-0.11054301 68:1.688493 69:0.21900783 70:0.5687716 71:1.6033714 72:0.17397095 73:0.49013588 74:1.7244661 
10 0 0 0 0 0 0 0 0 0:0.0026365742 1:-0.012589663 2:1.7793269 3:0 4:0.30000001 5:1.8 6:-0.0027348846 7:0.60248125 8:1.8077855 9:-0.01822301 10:0.76346833 11:1.7803168 12:-0.17801541 13:0.47040606 14:1.831398 15:-0.19617456 16:0.19962907 17:1.8329239 18:-0.20365831 19:-0.03084296 20:1.7728105 21:-0.20482731 22:-0.11754423 23:1.7470498 24:0.16429318 25:0.49550539 26:1.7849708 27:0.23038337 28:0.27386612 29:1.7442727 30:0.24690348 31:0.47836649 32:1.6356306 33:0.22903493 34:0.51460558 35:1.6437144 36:-0.076740116 37:-0.01692605 38:1.754703 39:-0.10298857 40:-0.35716599 41:1.757647 42:-0.087531552 43:-0.74347913 44:1.8350368 45:-0.096170798 46:-0.84780282 47:1.7445235 48:0.079512358 49:-0.0097442567 50:1.7277188 51:0.1357 52:-0.35637343 53:1.7538943 54:0.13505813 55:-0.73791671 56:1.8498812 57:0.15122576 58:-0.83619744 59:1.7530441 60:-0.001987122 61:0.52826554 62:1.8081603 63:-0.17676052 64:-0.20875795 65:1.7202706 66:-0.16914763 67:-0.10235974 68:1.6883073 69:0.21887964 70:0.57404774 71:1.6074033 72:0.19264063 73:0.55645204 74:1.6198158 
10 0 0 0 0 0 0 0 0 0:0.0027627647 1:-0.012604386 2:1.779597 3:0 4:0.30000001 5:1.8 6:-0.0030425787 7:0.6025005 8:1.8075583 9:-0.018010832 10:0.76331079 11:1.7798183 12:-0.17831585 13:0.47052097 14:1.831197 15:-0.19585565 16:0.20034361 17:1.831949 18:-0.20324391 19:-0.029841214 20:1.773102 21:-0.20434988 22:-0.12019303 23:1.7475498 24:0.16433412 25:0.49475688 26:1.7844651 27:0.2305871 28:0.27312195 29:1.7441971 30:0.24641329 31:0.47814733 32:1.6365397 33:0.22860387 34:0.51495093 35:1.647619 36:-0.076620579 37:-0.016883284 38:1.7550848 39:-0.10263254 40:-0.35763878 41:1.7578733 42:-0.087455645 43:-0.74329352 44:1.8358181 45:-0.09627708 46:-0.8471089 47:1.745075 48:0.079649463 49:-0.0098396838 50:1.7279346 51:0.13552585 52:-0.35596836 53:1.753546 54:0.13509588 55:-0.73836386 56:1.8504651 57:0.15108053 58:-0.835971 59:1.7541358 60:-0.002202183 61:0.52828294 62:1.8079746 63:-0.17745247 64:-0.22380966 65:1.7291934 66:-0.16662183 67:-0.089669913 68:1.6864059 69:0.21797928 70:0.57453877 71:1.6094143 72:0.19018507 73:0.55949533 74:1.6229007 
0 0 0 0 10 0 0 0 0 0:0.002644673 1:-0.012640774 2:1.7796481 3:0 4:0.30000001 5:1.8 6:-0.0029484928 7:0.60253602 8:1.8075449 9:-0.017977275 10:0.76325691 11:1.7792113 12:-0.17839888 13:0.47078216 14:1.8312285 15:-0.1957016 16:0.20104712 17:1.831857 18:-0.20351839 19:-0.030013114 20:1.7731402 21:-0.20588925 22:-0.12088344 23:1.7479632 24:0.16430491 25:0.49469662 26:1.7843812 27:0.23067033 28:0.27309704 29:1.7440989 30:0.24662662 31:0.47792709 32:1.6360476 33:0.2281819 34:0.51426864 35:1.6450617 36:-0.076780468 37:-0.016902745 38:1.7549536 39:-0.10243686 40:-0.35746616 41:1.7574551 42:-0.087274313 43:-0.74263775 44:1.8358872 45:-0.096439399 46:-0.84802705 47:1.7489808 48:0.079568185 49:-0.0099228323 50:1.7281201 51:0.13555905 52:-0.35448605 53:1.7531016 54:0.13524655 55:-0.73843855 56:1.8503563 57:0.15214983 58:-0.8362239 59:1.7523644 60:-0.0021339878 61:0.52830869 62:1.8079636 63:-0.17614943 64:-0.21558236 65:1.7151825 66:-0.16850215 67:-0.094658136 68:1.6877306 69:0.22091645 70:0.57374418 71:1.6069539 72:0.17280716 73:0.48704201 74:1.7276471 
0 0 0 0 0 0 0 0 1.020687961668876 0:0.0057036728 1:-0.013758332 2:1.783242 3:0 4:0.30000001 5:1.8 6:-0.0060059577 7:0.60370356 8:1.8042676 9:-0.022166267 10:0.76512921 11:1.7776921 12:-0.17818621 13:0.47863984 14:1.8341005 15:-0.19283709 16:0.19940925 17:1.8370464 18:-0.20068331 19:-0.029111058 20:1.7571247 21:-0.19606346 22:-0.10038295 23:1.73054 24:0.15307093 25:0.49076754 26:1.7707508 27:0.26307642 28:0.29686594 29:1.69052 30:0.31643787 31:0.3660953 32:1.4697874 33:0.3206605 34:0.40948749 35:1.4195821 36:-0.073327087 37:-0.018826813 38:1.760884 39:-0.091708317 40:-0.36743021 41:1.7596605 42:-0.07897377 43:-0.74300677 44:1.8296154 45:-0.088500805 46:-0.84908563 47:1.7400482 48:0.082343601 49:-0.010301709 50:1.7294624 51:0.13864681 52:-0.35999522 53:1.755265 54:0.1428141 55:-0.73815054 56:1.844393 57:0.15875879 58:-0.83886963 59:1.7478721 60:-0.0044427663 61:0.52917504 62:1.8054564 63:-0.17546678 64:-0.20291559 65:1.7204506 66:-0.15241435 67:-0.085243165 68:1.6827953 69:0.33724055 70:0.43492943 71:1.3254716 72:0.27717456 73:0.45345658 74:1.4078562 
0 0 0 5.155638055705992 0 0 0 0 0 0:0.013404466 1:-0.014064461 2:1.786557 3:0 4:0.30000001 5:1.8 6:-0.013319142 7:0.60393596 8:1.8012445 9:-0.0094810203 10:0.76414168 11:1.7717803 12:-0.1826658 13:0.47838637 14:1.8050659 15:-0.20798993 16:0.21250102 17:1.7995923 18:-0.19972804 19:-0.0092303753 20:1.727597 21:-0.19104111 22:-0.091291219 23:1.7092063 24:0.16525897 25:0.48817107 26:1.8042195 27:0.27231231 28:0.28301063 29:1.8016622 30:0.33025977 31:0.50163126 32:1.7925313 33:0.34246385 34:0.57856894 35:1.8034608 36:-0.066931576 37:-0.017457098 38:1.7497699 39:-0.089748926 40:-0.36570099 41:1.7599294 42:-0.074930221 43:-0.74471843 44:1.8328683 45:-0.084510721 46:-0.85246909 47:1.7436678 48:0.09124402 49:-0.012461156 50:1.7476833 51:0.14409536 52:-0.35723323 53:1.7663863 54:0.1467011 55:-0.74285519 56:1.8491156 57:0.16414997 58:-0.84074867 59:1.7541301 60:-0.0099867955 61:0.52936649 62:1.8031862 63:-0.19052573 64:-0.16913408 65:1.697686 66:-0.24520758 67:-0.09298411 68:1.7173631 69:0.34665266 70:0.66696298 71:1.801501 72:0.28191108 73:0.5863533 74:1.7990768 
10 0 0 0 0 0 0 0 0 0:0.010678016 1:-0.014748156 2:1.7963722 3:0 4:0.30000001 5:1.8 6:-0.010439057 7:0.60376245 8:1.789933 9:-0.023993287 10:0.76646942 11:1.7727578 12:-0.18112522 13:0.4774397 14:1.8322022 15:-0.19094935 16:0.21632499 17:1.8379691 18:-0.19196746 19:-0.030239642 20:1.7563341 21:-0.18362238 22:-0.086788386 23:1.7420104 24:0.15914474 25:0.48751116 26:1.7701566 27:0.26945692 28:0.30108291 29:1.6938808 30:0.28018177 31:0.47040969 32:1.5427263 33:0.27759933 34:0.52705634 35:1.5144241 36:-0.06779024 37:-0.019318938 38:1.7716095 39:-0.066666797 40:-0.37863946 41:1.7734468 42:-0.032880213 43:-0.75904346 44:1.8331163 45:-0.046940215 46:-0.85856998 47:1.7305243 48:0.086733043 49:-0.011988461 50:1.7440302 51:0.13949677 52:-0.36151314 53:1.7550781 54:0.1394465 55:-0.75374901 56:1.8307936 57:0.14481641 58:-0.84951448 59:1.7305667 60:-0.0078571737 61:0.52932811 62:1.7948229 63:-0.17535201 64:-0.16570374 65:1.7300584 66:-0.23070116 67:-0.10369629 68:1.7458107 69:0.27751139 70:0.58853686 71:1.4456928 72:0.23010108 73:0.54889375 74:1.5107715 
10 0 0 0 0 0 0 0 0 0:0.010801658 1:-0.014724612 2:1.796154 3:0 4:0.30000001 5:1.8 6:-0.010902714 7:0.60394359 8:1.7907543 9:-0.024298728 10:0.7663784 11:1.7734871 12:-0.18111619 13:0.477429 14:1.8327098 15:-0.19090369 16:0.21579322 17:1.8377967 18:-0.19171327 19:-0.034246325 20:1.7546549 21:-0.18283263 22:-0.089019299 23:1.740243 24:0.15895145 25:0.48896602 26:1.7701797 27:0.27436811 28:0.30857852 29:1.6860352 30:0.27435288 31:0.4844276 32:1.5427036 33:0.26343164 34:0.55801582 35:1.5058851 36:-0.067637205 37:-0.019394845 38:1.7714128 39:-0.066663682 40:-0.37903002 41:1.7731857 42:-0.0326869 43:-0.75903642 44:1.8329592 45:-0.046952225 46:-0.85882461 47:1.7310033 48:0.086823463 49:-0.011866659 50:1.7438226 51:0.13964063 52:-0.36165002 53:1.7549124 54:0.13982236 55:-0.75410795 56:1.8304935 57:0.14479615 58:-0.85007262 59:1.7315788 60:-0.0081578679 61:0.52944911 62:1.7953439 63:-0.16591892 64:-0.1778509 65:1.7374377 66:-0.2315561 67:-0.10822791 68:1.7482872 69:0.25845304 70:0.6175344 71:1.4404211 72:0.21644929 73:0.57782078 74:1.5088415 
10 10 0 0 0 0 0 0 0 0:0.010953277 1:-0.01471895 2:1.7960179 3:0 4:0.30000001 5:1.8 6:-0.011279169 7:0.60403723 8:1.7911146 9:-0.024786931 10:0.76626915 11:1.7744167 12:-0.18114275 13:0.47713083 14:1.8329237 15:-0.19087487 16:0.21506542 17:1.837713 18:-0.19231176 19:-0.025909394 20:1.7562568 21:-0.18205717 22:-0.084864855 23:1.7377613 24:0.15893725 25:0.4892596 26:1.7700145 27:0.2848343 28:0.32710242 29:1.6635134 30:0.26353064 31:0.51686484 32:1.5305512 33:0.24532869 34:0.59512961 35:1.497061 36:-0.067474037 37:-0.01946643 38:1.7712266 39:-0.066376843 40:-0.37932006 41:1.7730515 42:-0.03249786 43:-0.75972855 44:1.8330905 45:-0.046898164 46:-0.85914475 47:1.7307098 48:0.086961068 49:-0.011764765 50:1.7437599 51:0.13991916 52:-0.35910839 53:1.7542045 54:0.14000183 55:-0.75454432 56:1.8303006 57:0.14507326 58:-0.85045505 59:1.7317135 60:-0.0084167756 61:0.52951247 62:1.7955863 63:-0.16960141 64:-0.17418236 65:1.7242434 66:-0.22807345 67:-0.095126897 68:1.7402942 69:0.23566592 70:0.6579625 71:1.4394901 72:0.19315088 73:0.63107318 74:1.4756453 
10 10 0 0 4.946543831064973 0 0 0 0 0:0.011213548 1:-0.014695287 2:1.7955027 3:0 4:0.30000001 5:1.8 6:-0.011959627 7:0.6043309 8:1.7925959 9:-0.025303081 10:0.7659409 11:1.775938 12:-0.18133557 13:0.47664344 14:1.8331518 15:-0.19112687 16:0.21431059 17:1.8371358 18:-0.19230948 19:-0.023126185 20:1.756526 21:-0.18153895 22:-0.082013458 23:1.7375374 24:0.15879118 25:0.4919526 26:1.7694216 27:0.29630885 28:0.34269869 29:1.6584005 30:0.242125 31:0.57234567 32:1.5189338 33:0.22082961 34:0.6455549 35:1.4865594 36:-0.067196533 37:-0.019645363 38:1.7707753 39:-0.065935947 40:-0.37963668 41:1.7724504 42:-0.032493029 43:-0.7573027 44:1.8322067 45:-0.046771519 46:-0.85945451 47:1.7303581 48:0.087192677 49:-0.011518598 50:1.7432146 51:0.13987252 52:-0.35539177 53:1.7532721 54:0.14015952 55:-0.75491136 56:1.8299942 57:0.14487687 58:-0.85129857 59:1.7319198 60:-0.0088841207 61:0.52972859 62:1.7965851 63:-0.16820192 64:-0.17042422 65:1.7234974 66:-0.22968343 67:-0.098255336 68:1.7404099 69:0.19684604 70:0.71108615 71:1.4350295 72:0.17003772 73:0.65508807 74:1.493351 
0 0 0 0 10 0 0 0 0 0:0.011793509 1:-0.014609873 2:1.7958803 3:0 4:0.30000001 5:1.8 6:-0.011600912 7:0.60406876 8:1.7918711 9:-0.02057619 10:0.76580322 11:1.7759266 12:-0.18155801 13:0.47743562 14:1.8281031 15:-0.19213077 16:0.20977965 17:1.8326693 18:-0.19434825 19:-0.019309968 20:1.7595601 21:-0.18610241 22:-0.095665455 23:1.7379293 24:0.16020206 25:0.48737273 26:1.7743421 27:0.23632884 28:0.27592602 29:1.7671199 30:0.27044177 31:0.40640125 32:1.5824661 33:0.26641485 34:0.46112725 35:1.5441446 36:-0.067121029 37:-0.01964885 38:1.7683992 39:-0.072027229 40:-0.38207117 41:1.7691956 42:-0.040513884 43:-0.76208901 44:1.8258772 45:-0.056270141 46:-0.86210704 47:1.7199993 48:0.088202424 49:-0.011714458 50:1.7468538 51:0.13563091 52:-0.36375293 53:1.7522192 54:0.13208675 55:-0.76148856 56:1.8225708 57:0.13496575 58:-0.85273802 59:1.7240896 60:-0.0086791888 61:0.52951014 62:1.7961841 63:-0.17811152 64:-0.17918634 65:1.7345781 66:-0.14161333 67:-0.0955185 68:1.6934204 69:0.273191 70:0.50772929 71:1.4781609 72:0.21401924 73:0.48134997 74:1.5364494 
0 0 0 0 10 0 0 0 0 0:0.011747137 1:-0.01458621 2:1.7958605 3:0 4:0.30000001 5:1.8 6:-0.011494927 7:0.60400736 8:1.791899 9:-0.020674899 10:0.76581466 11:1.7759221 12:-0.18153235 13:0.4775497 14:1.8282211 15:-0.19211388 16:0.20923552 17:1.8325989 18:-0.19479463 19:-0.018184453 20:1.7605097 21:-0.184819 22:-0.095202893 23:1.7358987 24:0.15971088 25:0.48801747 26:1.7739575 27:0.23591775 28:0.27660343 29:1.7669051 30:0.26230696 31:0.41359124 32:1.585932 33:0.25363147 34:0.47617909 35:1.5449288 36:-0.067165971 37:-0.019616574 38:1.7684052 39:-0.07213603 40:-0.38212344 41:1.7692254 42:-0.040590856 43:-0.76204491 44:1.8259127 45:-0.056403644 46:-0.86182451 47:1.7198889 48:0.088153102 49:-0.011685878 50:1.746814 51:0.13566682 52:-0.36389157 53:1.7522213 54:0.13193923 55:-0.76224613 56:1.8226521 57:0.1348007 58:-0.85272574 59:1.7249238 60:-0.0086049139 61:0.5294677 62:1.7962048 63:-0.17419465 64:-0.19381408 65:1.7308533 66:-0.14034997 67:-0.086575329 68:1.6935475 69:0.25459346 70:0.52464473 71:1.4807293 72:0.20345867 73:0.49156353 74:1.5339406 
0 0 0 0 10 0 0 0 0 0:0.0098155215 1:-0.013668686 2:1.801399 3:0 4:0.30000001 5:1.8 6:-0.0099913925 7:0.60344565 8:1.785516 9:-0.020790718 10:0.76551807 11:1.7669556 12:-0.17961839 13:0.48036936 14:1.8265598 15:-0.19382127 16:0.21159032 17:1.8376968 18:-0.19562134 19:-0.014991432 20:1.7698309 21:-0.1895761 22:-0.089423537 23:1.7508605 24:0.16014096 25:0.49089381 26:1.7713253 27:0.23415112 28:0.27949676 29:1.7740338 30:0.27052692 31:0.41188923 32:1.5914509 33:0.26311186 34:0.45158449 35:1.54972 36:-0.069099449 37:-0.018344462 38:1.7749016 39:-0.07418023 40:-0.37854376 41:1.7726099 42:-0.042862941 43:-0.7639153 44:1.829325 45:-0.058954425 46:-0.85960996 47:1.7255347 48:0.085994892 49:-0.010928422 50:1.7510264 51:0.13349372 52:-0.3631584 53:1.7589591 54:0.12886369 55:-0.75852025 56:1.8281028 57:0.13115495 58:-0.85257983 59:1.7302797 60:-0.007475473 61:0.52902651 62:1.7914546 63:-0.18753523 64:-0.16581134 65:1.73965 66:-0.1452277 67:-0.090163618 68:1.703501 69:0.26899633 70:0.49492511 71:1.5024517 72:0.21861312 73:0.47282091 74:1.5467036 
0 0 0 0 10 0 0 0 0 0:0.0099192485 1:-0.013639361 2:1.8013222 3:0 4:0.30000001 5:1.8 6:-0.010033414 7:0.60344362 8:1.7855551 9:-0.020967063 10:0.76547217 11:1.7671201 12:-0.17962374 13:0.48034665 14:1.826616 15:-0.19376802 16:0.21178183 17:1.8377049 18:-0.196174 19:-0.0087705255 20:1.7718627 21:-0.18981409 22:-0.088792413 23:1.7484424 24:0.15990463 25:0.49139944 26:1.7710965 27:0.23281561 28:0.27960739 29:1.7738774 30:0.25990987 31:0.4130418 32:1.5903394 33:0.24714498 34:0.45943442 35:1.544246 36:-0.068991639 37:-0.018357188 38:1.7749197 39:-0.074290402 40:-0.37836751 41:1.7725761 42:-0.042912062 43:-0.76416552 44:1.8293087 45:-0.059272137 46:-0.86001945 47:1.7244399 48:0.086128756 49:-0.010829598 50:1.7507775 51:0.13338707 52:-0.36288816 53:1.7589052 54:0.12895511 55:-0.7587862 56:1.8280232 57:0.13096733 58:-0.8525691 59:1.7309735 60:-0.0074973255 61:0.52902329 62:1.7914765 63:-0.18506873 64:-0.16638643 65:1.7338727 66:-0.14570716 67:-0.075168282 68:1.7067707 69:0.24741797 70:0.50263405 71:1.499954 72:0.20735432 73:0.47719237 74:1.5460303 
0 0 0 0 10 0 0 0 0 0:0.0099633634 1:-0.013604462 2:1.8013036 3:0 4:0.30000001 5:1.8 6:-0.010046482 7:0.60343051 8:1.7855732 9:-0.021045148 10:0.76564729 11:1.7674925 12:-0.17956015 13:0.48023102 14:1.8268731 15:-0.19372945 16:0.21182808 17:1.8380115 18:-0.19616267 19:-0.0088912845 20:1.7717969 21:-0.18919522 22:-0.088795573 23:1.7496135 24:0.15836045 25:0.4927384 26:1.770705 27:0.23087144 28:0.28072843 29:1.772867 30:0.24340299 31:0.41865614 32:1.5911252 33:0.23000154 34:0.4715037 35:1.5434434 36:-0.068913974 37:-0.018351555 38:1.7749312 39:-0.074271731 40:-0.37827596 41:1.7725475 42:-0.042900972 43:-0.76421058 44:1.8292997 45:-0.059312917 46:-0.86003292 47:1.7244384 48:0.086156458 49:-0.010759324 50:1.7507322 51:0.13350317 52:-0.36302966 53:1.7589786 54:0.12898794 55:-0.75867176 56:1.827966 57:0.13169533 58:-0.8520714 59:1.7292945 60:-0.0075073987 61:0.52901411 62:1.791486 63:-0.18475491 64:-0.16578037 65:1.7345245 66:-0.14547972 67:-0.089439034 68:1.7045071 69:0.22617522 70:0.52044106 71:1.4974568 72:0.18879741 73:0.49547789 74:1.5458314 
10 0 0 0 10 0 0 0 0 0:0.009912774 1:-0.013621569 2:1.8012578 3:0 4:0.30000001 5:1.8 6:-0.0099356771 7:0.60347605 8:1.7857349 9:-0.021409549 10:0.76553297 11:1.7683694 12:-0.17955431 13:0.48013055 14:1.8268821 15:-0.19379438 16:0.21176326 17:1.8380272 18:-0.19582254 19:-0.012954831 20:1.7708299 21:-0.18924743 22:-0.088923156 23:1.7499788 24:0.15813211 25:0.49264479 26:1.7706792 27:0.2311081 28:0.28020227 29:1.7651985 30:0.22955006 31:0.42520547 32:1.5888693 33:0.21112022 34:0.48411649 35:1.5434568 36:-0.068938985 37:-0.018410236 38:1.7749717 39:-0.07427486 40:-0.37825018 41:1.7725532 42:-0.042953145 43:-0.76476985 44:1.8294194 45:-0.059609957 46:-0.8603881 47:1.723943 48:0.086115718 49:-0.010767251 50:1.750644 51:0.13355002 52:-0.36306378 53:1.7588856 54:0.12940553 55:-0.75500906 56:1.8276432 57:0.13162926 58:-0.85208851 59:1.7292197 60:-0.0074287951 61:0.52904552 62:1.7915952 63:-0.18523605 64:-0.16649294 65:1.7366655 66:-0.14468932 67:-0.10081229 68:1.7019689 69:0.20735478 70:0.53099269 71:1.4996264 72:0.17450762 73:0.49684095 74:1.5549285 
10 0 0 0 10 0 0 0 0 0:0.0098478273 1:-0.013679504 2:1.801084 3:0 4:0.30000001 5:1.8 6:-0.0097364187 7:0.60364366 8:1.7864952 9:-0.021723542 10:0.76558858 11:1.7691455 12:-0.17972717 13:0.48011988 14:1.8269401 15:-0.19393176 16:0.21142679 17:1.8379927 18:-0.19626594 19:-0.01167798 20:1.7712994 21:-0.18946171 22:-0.090468198 23:1.7485881 24:0.15739378 25:0.49188542 26:1.7704482 27:0.23780879 28:0.28217769 29:1.742208 30:0.2152459 31:0.44053113 32:1.5801454 33:0.19180876 34:0.50348514 35:1.538043 36:-0.069010153 37:-0.018473208 38:1.7748156 39:-0.07365638 40:-0.37776446 41:1.7720399 42:-0.043026697 43:-0.7647655 44:1.829246 45:-0.059640534 46:-0.86035371 47:1.7241611 48:0.086061411 49:-0.01082173 50:1.7504468 51:0.13355121 52:-0.36302522 53:1.7586904 54:0.12909979 55:-0.7566694 56:1.8276978 57:0.13141605 58:-0.85248417 59:1.730042 60:-0.0072885975 61:0.52916366 62:1.7921062 63:-0.18593556 64:-0.16696444 65:1.7351432 66:-0.14526919 67:-0.09069255 68:1.703424 69:0.18272269 70:0.55119365 71:1.4935956 72:0.14767882 73:0.53025192 74:1.5502105 
10 0 0 0 10 10 5.570617924036597 0 0 0:0.0099024028 1:-0.01359722 2:1.8009343 3:0 4:0.30000001 5:1.8 6:-0.0098238885 7:0.60362983 8:1.7867484 9:-0.021668684 10:0.76538914 11:1.7697968 12:-0.17972198 13:0.48008484 14:1.8270736 15:-0.19433439 16:0.21233219 17:1.8378839 18:-0.19647215 19:-0.012405545 20:1.770905 21:-0.18965258 22:-0.091206372 23:1.7471919 24:0.15609071 25:0.49086517 26:1.7699761 27:0.24233603 28:0.28870767 29:1.7063327 30:0.18766853 31:0.46675771 32:1.577971 33:0.16942406 34:0.52642477 35:1.5365639 36:-0.068977274 37:-0.018390775 38:1.7748675 39:-0.073526755 40:-0.37666902 41:1.770916 42:-0.043030389 43:-0.76501656 44:1.8291845 45:-0.059721451 46:-0.86062711 47:1.7237592 48:0.086201385 49:-0.010665298 50:1.7498126 51:0.13371262 52:-0.36246839 53:1.7583394 54:0.12907955 55:-0.75680661 56:1.8274779 57:0.13140632 58:-0.85255343 59:1.7300105 60:-0.0073422715 61:0.52916127 62:1.7922721 63:-0.18764101 64:-0.17003086 65:1.7385869 66:-0.1455394 67:-0.091522396 68:1.7026467 69:0.15641278 70:0.58192164 71:1.4931607 72:0.12838669 73:0.5403741 74:1.5600977 
0 0 5.062247420493629 0 0 0 0 0 0 0:0.010926686 1:-0.014045477 2:1.7850738 3:0 4:0.30000001 5:1.8 6:-0.010877553 7:0.60408169 8:1.8020225 9:-0.022173174 10:0.76543903 11:1.7854457 12:-0.18142191 13:0.47597241 14:1.8295865 15:-0.19477433 16:0.21006417 17:1.8217368 18:-0.19423011 19:-0.021233827 20:1.7456203 21:-0.18859738 22:-0.095546812 23:1.7235055 24:0.16110963 25:0.49174535 26:1.7832899 27:0.35113323 28:0.33373284 29:1.7371469 30:0.45894378 31:0.47522646 32:1.537828 33:0.47663546 34:0.52740228 35:1.4842386 36:-0.067614451 37:-0.019251466 38:1.7577796 39:-0.071269803 40:-0.38503525 41:1.7530422 42:-0.042519651 43:-0.75741637 44:1.8035703 45:-0.057940044 46:-0.85700977 47:1.6953588 48:0.087397583 49:-0.010550022 50:1.7353144 51:0.13831711 52:-0.35670456 53:1.737082 54:0.13366529 55:-0.75475878 56:1.8076825 57:0.14159623 58:-0.85334015 59:1.7110438 60:-0.0081439354 61:0.52947873 62:1.8038344 63:-0.19034705 64:-0.17001727 65:1.7118368 66:-0.14261451 67:-0.092576057 68:1.6820674 69:0.49758005 70:0.57658851 71:1.40377 72:0.41919842 73:0.53301448 74:1.4542565 
0 0 10 0 0 0 0 0 0 0:0.010895193 1:-0.013591349 2:1.7849832 3:0 4:0.30000001 5:1.8 6:-0.010846578 7:0.60377866 8:1.8020792 9:-0.021999318 10:0.76514339 11:1.7856121 12:-0.18165624 13:0.47545099 14:1.8296995 15:-0.19465606 16:0.20940793 17:1.8216867 18:-0.19510159 19:-0.031718552 20:1.7402096 21:-0.18798864 22:-0.098598689 23:1.7219 24:0.16217595 25:0.49564099 26:1.7852249 27:0.36528462 28:0.35653073 29:1.723536 30:0.47944379 31:0.48244452 32:1.5286965 33:0.51971364 34:0.53465199 35:1.4704404 36:-0.067606188 37:-0.019049078 38:1.7576852 39:-0.071434662 40:-0.3848924 41:1.7528496 42:-0.042463459 43:-0.75775617 44:1.8035307 45:-0.057939231 46:-0.85735959 47:1.6947794 48:0.087316126 49:-0.0099033713 50:1.7352829 51:0.13822685 52:-0.35731661 53:1.737277 54:0.13358553 55:-0.75523233 56:1.8078642 57:0.14182287 58:-0.85342324 59:1.710917 60:-0.0081199557 61:0.52923071 62:1.8038836 63:-0.16711825 64:-0.19151017 65:1.7149763 66:-0.13958263 67:-0.07605207 68:1.6788712 69:0.54210782 70:0.58275539 71:1.3922324 72:0.46133906 73:0.53744245 74:1.4294796 
0 0 10 10 0 0 0 0 0 0:0.010836802 1:-0.013290882 2:1.7848375 3:0 4:0.30000001 5:1.8 6:-0.010812074 7:0.60355073 8:1.8022969 9:-0.021915391 10:0.76469481 11:1.7855208 12:-0.18187383 13:0.47538513 14:1.82951 15:-0.19559193 16:0.20996165 17:1.8215754 18:-0.19555195 19:-0.030507743 20:1.7398865 21:-0.18939047 22:-0.095962346 23:1.7223103 24:0.16301817 25:0.49676567 26:1.7849939 27:0.37864166 28:0.38510752 29:1.7200849 30:0.52637231 31:0.4969545 32:1.5114052 33:0.5681051 34:0.54213476 35:1.4581616 36:-0.067644872 37:-0.018743008 38:1.7573841 39:-0.07119029 40:-0.38442779 41:1.7523167 42:-0.042431802 43:-0.75863343 44:1.8031285 45:-0.057509843 46:-0.85770971 47:1.6988323 48:0.087230176 49:-0.0096405447 50:1.7353346 51:0.13795801 52:-0.35758352 53:1.7374251 54:0.13352387 55:-0.75524807 56:1.8078043 57:0.1419369 58:-0.85393381 59:1.7105582 60:-0.0080928989 61:0.52905422 62:1.8040316 63:-0.18528306 64:-0.17410061 65:1.7127173 66:-0.14075953 67:-0.091091961 68:1.6785166 69:0.60016322 70:0.58444196 71:1.398041 72:0.51392698 73:0.55301833 74:1.4042675 
0 0 10 8.598168471311494 0 0 0 0 0 0:0.010031156 1:-0.011532456 2:1.7962716 3:0 4:0.30000001 5:1.8 6:-0.010384418 7:0.60145199 8:1.7913926 9:-0.01757475 10:0.7613368 11:1.7662947 12:-0.18026717 13:0.48095283 14:1.8228767 15:-0.1999048 16:0.21428809 17:1.8325517 18:-0.19304475 19:-0.043500185 20:1.7492363 21:-0.18767704 22:-0.098241359 23:1.7332175 24:0.16438435 25:0.49358371 26:1.7880585 27:0.34120831 28:0.33968183 29:1.7527373 30:0.4672409 31:0.46564445 32:1.5499017 33:0.5019089 34:0.51948321 35:1.4962952 36:-0.069085777 37:-0.016468883 38:1.7671669 39:-0.074714698 40:-0.38502243 41:1.7607472 42:-0.048819352 43:-0.76115859 44:1.813123 45:-0.064418852 46:-0.85838199 47:1.7062247 48:0.086741373 49:-0.0085232258 50:1.7483504 51:0.13389628 52:-0.35218096 53:1.7486846 54:0.12819852 55:-0.75434291 56:1.8188889 57:0.13622651 58:-0.85350192 59:1.7180007 60:-0.007741645 61:0.52754748 62:1.7957766 63:-0.1749042 64:-0.18191598 65:1.7255795 66:-0.14119396 67:-0.099693894 68:1.6846259 69:0.52665055 70:0.56518018 71:1.4374659 72:0.45779333 73:0.53259563 74:1.4488862 
0 0 10 10 0 0 0 0 0 0:0.0099165887 1:-0.010863513 2:1.7958374 3:0 4:0.30000001 5:1.8 6:-0.010428548 7:0.60113853 8:1.7918119 9:-0.017904062 10:0.76133263 11:1.767066 12:-0.18070817 13:0.4806788 14:1.8228903 15:-0.20085746 16:0.2170682 17:1.8322349 18:-0.19772404 19:-0.024841756 20:1.7540245 21:-0.18910855 22:-0.09489727 23:1.7335186 24:0.16465962 25:0.49488133 26:1.7884092 27:0.36135373 28:0.36356705 29:1.737577 30:0.50612158 31:0.47551537 32:1.5291548 33:0.5477978 34:0.52130342 35:1.4750428 36:-0.069156609 37:-0.015752137 38:1.7663379 39:-0.07460545 40:-0.38490349 41:1.7605543 42:-0.048582688 43:-0.76169467 44:1.8129911 45:-0.064202964 46:-0.85866684 47:1.706017 48:0.086581819 49:-0.0078733861 50:1.7482953 51:0.13388711 52:-0.35281122 53:1.7489281 54:0.12842301 55:-0.75448453 56:1.8186312 57:0.13650984 58:-0.85379106 59:1.7177954 60:-0.0077608079 61:0.52731484 62:1.7960587 63:-0.16274652 64:-0.18448026 65:1.7245655 66:-0.1416496 67:-0.085146129 68:1.6879673 69:0.57921445 70:0.56004333 71:1.4242997 72:0.50317693 73:0.53960794 74:1.4191952 
0 0 10 10 0 0 0 0 0 0:0.0099260211 1:-0.010632247 2:1.7955623 3:0 4:0.30000001 5:1.8 6:-0.010443084 7:0.60087013 8:1.7922511 9:-0.018652897 10:0.76123595 11:1.7697091 12:-0.18107603 13:0.48050201 14:1.8228526 15:-0.20223843 16:0.21902353 17:1.8312421 18:-0.19808212 19:-0.023219645 20:1.7537856 21:-0.19065428 22:-0.094437599 23:1.7333035 24:0.16509947 25:0.49579543 26:1.7880335 27:0.37285736 28:0.39779234 29:1.7187996 30:0.53252935 31:0.48585111 32:1.5187888 33:0.59224582 34:0.52180982 35:1.4634352 36:-0.069051936 37:-0.015650094 38:1.7658691 39:-0.074651651 40:-0.38496062 41:1.7601037 42:-0.048510961 43:-0.76259112 44:1.8126082 45:-0.064087205 46:-0.85886031 47:1.7055249 48:0.086465091 49:-0.0074823499 50:1.7483516 51:0.13398589 52:-0.35315832 53:1.7487683 54:0.12883091 55:-0.75398195 56:1.818027 57:0.13676883 58:-0.85397243 59:1.7173104 60:-0.0077763796 61:0.52712137 62:1.7963815 63:-0.17369908 64:-0.17857298 65:1.7293468 66:-0.14275791 67:-0.092137188 68:1.6870122 69:0.63604814 70:0.54984814 71:1.415925 72:0.55283213 73:0.53688639 74:1.4013219 
0 0 10 10 0 0 0 0 0 0:0.011547565 1:-0.011969209 2:1.7962873 3:0 4:0.30000001 5:1.8 6:-0.012380503 7:0.60160094 8:1.7923701 9:-0.0194568 10:0.76287222 11:1.7669504 12:-0.18210989 13:0.48059261 14:1.8196332 15:-0.20160425 16:0.21379739 17:1.8201015 18:-0.20224699 19:-0.018701315 20:1.7462275 21:-0.19476134 22:-0.091467559 23:1.7276313 24:0.16658303 25:0.4968127 26:1.7916534 27:0.35711011 28:0.35077035 29:1.7600181 30:0.46773699 31:0.4719907 32:1.5446193 33:0.50606859 34:0.5212602 35:1.4852574 36:-0.067627251 37:-0.016787887 38:1.7660487 39:-0.076769985 40:-0.38273457 41:1.7611997 42:-0.051911525 43:-0.7629993 44:1.8135426 45:-0.068164296 46:-0.85883433 47:1.7046239 48:0.08832138 49:-0.0091474056 50:1.749994 51:0.13497579 52:-0.35400262 53:1.7557237 54:0.12454192 55:-0.75870597 56:1.8204267 57:0.13291278 58:-0.85365593 59:1.7168014 60:-0.0091896877 61:0.52768552 62:1.7964637 63:-0.19024517 64:-0.17340921 65:1.7146065 66:-0.14472109 67:-0.090380251 68:1.6920154 69:0.53341013 70:0.55321598 71:1.4182231 72:0.45872644 73:0.53068191 74:1.4370296 
0 0 10 10 0 0 0 0 0 0:0.011882618 1:-0.012009293 2:1.7959309 3:0 4:0.30000001 5:1.8 6:-0.01272257 7:0.60159302 8:1.7926745 9:-0.019979376 10:0.76280767 11:1.7681808 12:-0.18270916 13:0.47981167 14:1.8194237 15:-0.20154722 16:0.21354121 17:1.8193507 18:-0.20272154 19:-0.015062451 20:1.7455463 21:-0.19580467 22:-0.092643261 23:1.7262659 24:0.16717584 25:0.49736768 26:1.7914805 27:0.36284226 28:0.37816948 29:1.7473865 30:0.49752462 31:0.47575039 32:1.5328326 33:0.54438162 34:0.51858747 35:1.4712119 36:-0.067286648 37:-0.016968966 38:1.7655144 39:-0.076391794 40:-0.38342035 41:1.7607164 42:-0.051497824 43:-0.7628721 44:1.8129559 45:-0.067499347 46:-0.85912651 47:1.7052612 48:0.088648945 49:-0.0089884996 50:1.7499161 51:0.13541587 52:-0.35429496 53:1.7552056 54:0.12518273 55:-0.75887638 56:1.8199229 57:0.13335498 58:-0.85415035 59:1.7162485 60:-0.0094569251 61:0.52767944 62:1.79671 63:-0.19242865 64:-0.17292041 65:1.7145996 66:-0.14407995 67:-0.091094613 68:1.6910715 69:0.57968611 70:0.55306417 71:1.4008675 72:0.50021118 73:0.53145754 74:1.4089241 
0 0 10 10 0 0 0 0 0 0:0.012254216 1:-0.011934906 2:1.7952979 3:0 4:0.30000001 5:1.8 6:-0.013149451 7:0.6014086 8:1.7934735 9:-0.020870499 10:0.76246345 11:1.7687056 12:-0.18317899 13:0.47937337 14:1.8191264 15:-0.2019922 16:0.21195862 17:1.8173096 18:-0.20235267 19:-0.021565408 20:1.7404139 21:-0.19561531 22:-0.090481162 23:1.7234299 24:0.16748503 25:0.49800053 26:1.7900517 27:0.37209976 28:0.43893501 29:1.7126801 30:0.53351486 31:0.48576626 32:1.5098355 33:0.58671963 34:0.51354146 35:1.4513853 36:-0.066875823 37:-0.016920537 38:1.7652671 39:-0.075930469 40:-0.38381243 41:1.7598841 42:-0.050998218 43:-0.76192641 44:1.8116839 45:-0.067078859 46:-0.85963881 47:1.7041581 48:0.088951543 49:-0.0087830722 50:1.748956 51:0.13587016 52:-0.35510722 53:1.7547791 54:0.12577766 55:-0.75853968 56:1.8190997 57:0.13386215 58:-0.85456014 59:1.7154396 60:-0.0097827613 61:0.527547 62:1.7973096 63:-0.19783923 64:-0.16666043 65:1.7104466 66:-0.14361829 67:-0.090630949 68:1.6900809 69:0.62606174 70:0.53566289 71:1.4018676 72:0.52925861 73:0.51891828 74:1.3749597 
0 0 10 10 0 0 0 0 3.208326099161365 0:0.012642153 1:-0.011615425 2:1.7948499 3:0 4:0.30000001 5:1.8 6:-0.013533901 7:0.60115433 8:1.7939258 9:-0.02175115 10:0.76198518 11:1.7697997 12:-0.18350103 13:0.47843796 14:1.8188548 15:-0.20265818 16:0.21015179 17:1.8164268 18:-0.20226589 19:-0.023654491 20:1.7387905 21:-0.19526194 22:-0.092208356 23:1.723134 24:0.16741666 25:0.49993581 26:1.7890677 27:0.37261868 28:0.4490599 29:1.7069173 30:0.53517592 31:0.48346984 32:1.513186 33:0.6125409 34:0.50373131 35:1.4462147 36:-0.066414118 37:-0.016888261 38:1.7649832 39:-0.075481206 40:-0.38440162 41:1.7592006 42:-0.050345898 43:-0.76292825 44:1.8111653 45:-0.066678189 46:-0.86029285 47:1.7034097 48:0.089244403 49:-0.0081458688 50:1.7482495 51:0.13625032 52:-0.35567486 53:1.7541337 54:0.12620938 55:-0.75757951 56:1.8184314 57:0.13427183 58:-0.85510933 59:1.7147794 60:-0.010071941 61:0.52735651 62:1.7976518 63:-0.1899768 64:-0.1767168 65:1.7056861 66:-0.14372522 67:-0.10886785 68:1.6861968 69:0.66441017 70:0.51250303 71:1.3877411 72:0.56855154 73:0.50940496 74:1.3847203 
0 0 0 7.582573883667656 0 0 0 0 0 0:0.013381857 1:-0.01275906 2:1.791388 3:0 4:0.30000001 5:1.8 6:-0.013055611 7:0.60231674 8:1.7960839 9:-0.017082166 10:0.76128614 11:1.7719827 12:-0.18302773 13:0.47364679 14:1.8204937 15:-0.20101696 16:0.20747456 17:1.821157 18:-0.21118622 19:-0.016632199 20:1.7599888 21:-0.19985604 22:-0.084311187 23:1.7371511 24:0.16289923 25:0.48140904 26:1.7827721 27:0.24994954 28:0.22664729 29:1.7808523 30:0.32694685 31:0.39159575 32:1.5955157 33:0.35416481 34:0.43845376 35:1.5463486 36:-0.065202139 37:-0.017517626 38:1.7635112 39:-0.086375453 40:-0.37129503 41:1.7661338 42:-0.097341768 43:-0.75708032 44:1.8313031 45:-0.11307632 46:-0.85588217 47:1.7289925 48:0.090340272 49:-0.0099579394 50:1.7432904 51:0.16236687 52:-0.36643401 53:1.7584834 54:0.19349663 55:-0.74630296 56:1.8433518 57:0.21122912 58:-0.8400147 59:1.7364144 60:-0.009808857 61:0.52819574 62:1.7993207 63:-0.18633412 64:-0.16575971 65:1.7229505 66:-0.15147273 67:-0.076912463 68:1.6904893 69:0.36227921 70:0.47800419 71:1.5008912 72:0.31656975 73:0.48608074 74:1.5305123 
0 0 0 10 0 0 0 0 0 0:0.0133604 1:-0.012716174 2:1.7913961 3:0 4:0.30000001 5:1.8 6:-0.013000198 7:0.60220027 8:1.7960429 9:-0.017006129 10:0.76113522 11:1.7720828 12:-0.18307561 13:0.47358611 14:1.8206501 15:-0.20104486 16:0.20766839 17:1.8211699 18:-0.21126503 19:-0.016443819 20:1.7600346 21:-0.19872403 22:-0.084426314 23:1.7368145 24:0.16295353 25:0.48174587 26:1.7828655 27:0.25269878 28:0.22945192 29:1.7812295 30:0.33863971 31:0.39205435 32:1.5924511 33:0.36601526 34:0.43535092 35:1.5438828 36:-0.06521596 37:-0.017479539 38:1.7634993 39:-0.086534753 40:-0.37155905 41:1.7663908 42:-0.097359657 43:-0.75697434 44:1.8314676 45:-0.11251321 46:-0.85552418 47:1.7300053 48:0.090309449 49:-0.0099030435 50:1.7433133 51:0.16238967 52:-0.36633185 53:1.7582455 54:0.19348228 55:-0.74626803 56:1.8430791 57:0.21124038 58:-0.83993518 59:1.7362509 60:-0.0097713992 61:0.52811956 62:1.7992921 63:-0.1878145 64:-0.16574967 65:1.7230763 66:-0.15060923 67:-0.060819477 68:1.6928716 69:0.3772442 70:0.47217003 71:1.4971156 72:0.32876372 73:0.47615531 74:1.5180297 
0 0 0 10 0 0 0 0 0 0:0.013349853 1:-0.012751043 2:1.7913384 3:0 4:0.30000001 5:1.8 6:-0.013000913 7:0.60224724 8:1.7961397 9:-0.017009651 10:0.76108301 11:1.7720809 12:-0.18297707 13:0.47356683 14:1.8205609 15:-0.2009965 16:0.20747364 17:1.8211632 18:-0.21136282 19:-0.016605467 20:1.7599139 21:-0.19928999 22:-0.083904654 23:1.7379274 24:0.16314292 25:0.48189056 26:1.782825 27:0.25921661 28:0.23368454 29:1.7830434 30:0.35820109 31:0.38941789 32:1.5878162 33:0.38286322 34:0.43095058 35:1.5420823 36:-0.065223619 37:-0.017510712 38:1.7635317 39:-0.086414643 40:-0.37137488 41:1.7661591 42:-0.097503707 43:-0.75689733 44:1.8313847 45:-0.1124948 46:-0.85560167 47:1.7299671 48:0.090304494 49:-0.009919852 50:1.743197 51:0.16255137 52:-0.36587709 53:1.7577519 54:0.19344479 55:-0.74634999 56:1.8430858 57:0.21123761 58:-0.83996165 59:1.7359672 60:-0.0097707659 61:0.52815342 62:1.7993617 63:-0.1930135 64:-0.16268678 65:1.7255735 66:-0.15127192 67:-0.072670758 68:1.691175 69:0.3972306 70:0.46620411 71:1.4884567 72:0.34486803 73:0.47058517 74:1.5194173 
0 0 0 10 0 0 0 0 0 0:0.013303589 1:-0.01271832 2:1.7912307 3:0 4:0.30000001 5:1.8 6:-0.012941658 7:0.60219622 8:1.7963328 9:-0.016918978 10:0.76097548 11:1.7721772 12:-0.18285567 13:0.47365248 14:1.8207226 15:-0.20104614 16:0.20793712 17:1.8216896 18:-0.21152787 19:-0.016022086 20:1.7599287 21:-0.20033225 22:-0.084707916 23:1.7387214 24:0.16337013 25:0.48239571 26:1.782908 27:0.26816326 28:0.23948961 29:1.7825885 30:0.37183383 31:0.38611376 32:1.588263 33:0.40377203 34:0.4277975 35:1.5396819 36:-0.065247506 37:-0.01752162 38:1.7633247 39:-0.086488619 40:-0.37154812 41:1.7659631 42:-0.097275034 43:-0.75622803 44:1.831449 45:-0.11216097 46:-0.85401946 47:1.7303824 48:0.090218171 49:-0.0098300576 50:1.7432828 51:0.16254041 52:-0.36606938 53:1.7575808 54:0.19327907 55:-0.74690515 56:1.8426795 57:0.21128078 58:-0.84022123 59:1.7356982 60:-0.0097281411 61:0.52811772 62:1.7995009 63:-0.19283247 64:-0.16051131 65:1.7227716 66:-0.15271728 67:-0.085026085 68:1.6909227 69:0.41664135 70:0.47230333 71:1.4771528 72:0.36163539 73:0.45853066 74:1.5228362 
0 0 0 10 0 0 0 0 0 0:0.010802437 1:-0.015135586 2:1.7998724 3:0 4:0.30000001 5:1.8 6:-0.010710508 7:0.60452026 8:1.7872357 9:-0.01909589 10:0.76247203 11:1.7646165 12:-0.18239999 13:0.47984743 14:1.8222566 15:-0.19662498 16:0.20690846 17:1.8226752 18:-0.19547386 19:-0.036002219 20:1.7387242 21:-0.18992877 22:-0.088766605 23:1.7250037 24:0.1629332 25:0.49068129 26:1.7819791 27:0.24674954 28:0.23757631 29:1.8222938 30:0.31589499 31:0.38962913 32:1.634234 33:0.34000644 34:0.43159163 35:1.5717297 36:-0.069361515 37:-0.019209236 38:1.7724681 39:-0.094607368 40:-0.36770871 41:1.7689662 42:-0.10787851 43:-0.7542963 44:1.8289018 45:-0.12334445 46:-0.85405427 47:1.7294993 48:0.089065507 49:-0.012883574 50:1.7510266 51:0.15848039 52:-0.361772 53:1.7624717 54:0.1845475 55:-0.74420613 56:1.8422413 57:0.20102008 58:-0.84001863 59:1.7339535 60:-0.0080104582 61:0.52987838 62:1.7927179 63:-0.19648117 64:-0.15497711 65:1.7076421 66:-0.14275856 67:-0.074979007 68:1.6867461 69:0.34273723 70:0.46698689 71:1.5171018 72:0.29910621 73:0.45951688 74:1.5510774 
0 0 0 0 7.462032493853341 0 0 0 0 0:0.013428248 1:-0.01668036 2:1.801497 3:0 4:0.30000001 5:1.8 6:-0.013136543 7:0.60640454 8:1.7856679 9:-0.02502637 10:0.76801515 11:1.7648797 12:-0.18276098 13:0.48409611 14:1.8225374 15:-0.20199032 16:0.2181673 17:1.8232908 18:-0.20242447 19:-0.011253148 20:1.7501445 21:-0.19353542 22:-0.081507087 23:1.7346516 24:0.15715379 25:0.49214745 26:1.774951 27:0.25281662 28:0.28229719 29:1.766602 30:0.30760011 31:0.40976441 32:1.5854435 33:0.31203303 34:0.45083481 35:1.5432005 36:-0.065714948 37:-0.021470129 38:1.7746124 39:-0.071151748 40:-0.38496482 41:1.7662678 42:-0.047580726 43:-0.76515478 44:1.8116193 45:-0.063447282 46:-0.85617906 47:1.70086 48:0.090233013 49:-0.013683051 50:1.7514191 51:0.13906485 52:-0.35818377 53:1.758316 54:0.12238678 55:-0.75887489 56:1.8137517 57:0.13188283 58:-0.85302943 59:1.7151818 60:-0.0098613165 61:0.53124774 62:1.7915549 63:-0.19364722 64:-0.1550597 65:1.7189255 66:-0.24621405 67:-0.094638348 68:1.7349148 69:0.31546852 70:0.50064969 71:1.4852543 72:0.26097536 73:0.46402568 74:1.520021 
0 0 0 0 10 0 0 0 0 0:0.013385504 1:-0.016690373 2:1.8015177 3:0 4:0.30000001 5:1.8 6:-0.013050567 7:0.60642642 8:1.7856405 9:-0.024966188 10:0.76791769 11:1.7649949 12:-0.18246314 13:0.48419333 14:1.8223584 15:-0.20160645 16:0.21745718 17:1.8234036 18:-0.20256452 19:-0.011590838 20:1.7502468 21:-0.19274974 22:-0.081637144 23:1.7343714 24:0.15716825 25:0.4918294 26:1.7748296 27:0.25308689 28:0.28328741 29:1.7646201 30:0.30362153 31:0.41121292 32:1.5824778 33:0.30075642 34:0.45271987 35:1.5386145 36:-0.065751925 37:-0.021477848 38:1.7746499 39:-0.071223974 40:-0.38535175 41:1.7664511 42:-0.047667257 43:-0.76509923 44:1.8115304 45:-0.063695282 46:-0.85633016 47:1.7001531 48:0.090177163 49:-0.013704985 50:1.7513988 51:0.13899527 52:-0.35810137 53:1.7583411 54:0.12241882 55:-0.75863707 56:1.8138902 57:0.1319052 58:-0.85293663 59:1.7150457 60:-0.0097999722 61:0.53126323 62:1.7915337 63:-0.18095136 64:-0.16149652 65:1.7204306 66:-0.24440163 67:-0.09016782 68:1.7308519 69:0.30815583 70:0.49653161 71:1.4807684 72:0.2507807 73:0.46614933 74:1.5176494 
0 0 0 0 10 0 0 0 0 0:0.0081929415 1:-0.014331341 2:1.8005548 3:0 4:0.30000001 5:1.8 6:-0.0079218298 7:0.60405815 8:1.7871022 9:-0.017528336 10:0.76363945 11:1.755343 12:-0.17810525 13:0.48567271 14:1.8318791 15:-0.19517508 16:0.21764266 17:1.8318672 18:-0.19519433 19:-0.0034024715 20:1.7633524 21:-0.1886456 22:-0.079502493 23:1.7472024 24:0.1607942 25:0.49424511 26:1.7771735 27:0.24118927 28:0.28049624 29:1.7745366 30:0.3003808 31:0.39380145 32:1.5850496 33:0.29996979 34:0.417207 35:1.5623126 36:-0.070330672 37:-0.018252939 38:1.7742229 39:-0.072827391 40:-0.37776494 41:1.7747693 42:-0.040219758 43:-0.75549245 44:1.8406196 45:-0.055564962 46:-0.85223961 47:1.7360497 48:0.084726147 49:-0.012311876 50:1.7507048 51:0.13371149 52:-0.35342607 53:1.7592254 54:0.12680113 55:-0.75252151 56:1.8458686 57:0.1377176 58:-0.84805095 59:1.7538829 60:-0.0059619583 61:0.52947849 62:1.7926378 63:-0.1846807 64:-0.15684298 65:1.734508 66:-0.24006018 67:-0.1061275 68:1.7454338 69:0.31101856 70:0.45839649 71:1.5014892 72:0.24895343 73:0.43118548 74:1.5330348 
0 0 0 0 10 0 0 0 0 0:0.0078940168 1:-0.014104068 2:1.8007045 3:0 4:0.30000001 5:1.8 6:-0.0075420775 7:0.60379803 8:1.7869916 9:-0.017947089 10:0.76362693 11:1.7549968 12:-0.17795697 13:0.48557571 14:1.8318119 15:-0.19516799 16:0.21770111 17:1.8325381 18:-0.19573477 19:-0.0038987994 20:1.7634282 21:-0.18854192 22:-0.07801947 23:1.7465706 24:0.16074154 25:0.49442968 26:1.7765861 27:0.24028915 28:0.27956876 29:1.775454 30:0.2895923 31:0.39548269 32:1.5846081 33:0.28238523 34:0.4207578 35:1.5573788 36:-0.070576757 37:-0.017998189 38:1.7750802 39:-0.073352173 40:-0.37780878 41:1.77425 42:-0.040772721 43:-0.75566161 44:1.8399415 45:-0.055998646 46:-0.85219598 47:1.7353721 48:0.084345527 49:-0.012147635 50:1.7503505 51:0.13300118 52:-0.35305318 53:1.7585568 54:0.1263772 55:-0.75239003 56:1.84549 57:0.13688958 58:-0.84779191 59:1.7540002 60:-0.0056869946 61:0.52929389 62:1.7925525 63:-0.18905762 64:-0.1552721 65:1.7348151 66:-0.23888415 67:-0.096076339 68:1.7464929 69:0.2866399 70:0.46119127 71:1.494452 72:0.23047072 73:0.43301073 74:1.5451126 
0 0 0 0 10 0 0 0 0 0:0.0076081902 1:-0.014007658 2:1.8008671 3:0 4:0.30000001 5:1.8 6:-0.0070631653 7:0.6037302 8:1.7868824 9:-0.01804588 10:0.76341605 11:1.755466 12:-0.17700326 13:0.48484388 14:1.833601 15:-0.19460447 16:0.21733353 17:1.8338742 18:-0.19562234 19:-0.0047769248 20:1.7638798 21:-0.18933842 22:-0.079599828 23:1.7487888 24:0.16042884 25:0.49491671 26:1.7754817 27:0.23918636 28:0.2785171 29:1.777 30:0.26754242 31:0.39771512 32:1.5837097 33:0.25659525 34:0.42588755 35:1.5511637 36:-0.070841387 37:-0.017859638 38:1.7758627 39:-0.073820703 40:-0.37700802 41:1.7736201 42:-0.041013379 43:-0.75571835 44:1.8397598 45:-0.056176197 46:-0.85235202 47:1.734849 48:0.084062532 49:-0.012093872 50:1.7501802 51:0.13272262 52:-0.35308397 53:1.7583227 54:0.12616253 55:-0.75238597 56:1.8453169 57:0.13672258 58:-0.84783006 59:1.7537727 60:-0.0053556748 61:0.52925014 62:1.7924805 63:-0.18393946 64:-0.15844716 65:1.7356782 66:-0.23914015 67:-0.092285573 68:1.751565 69:0.25028777 70:0.47048596 71:1.4924793 72:0.21100898 73:0.43469039 74:1.5383253 
0 0 0 0 10 1.267630504043085 0 0 0 0:0.0071827769 1:-0.013997793 2:1.8007286 3:0 4:0.30000001 5:1.8 6:-0.0065540634 7:0.60369003 8:1.7870014 9:-0.018519487 10:0.76318371 11:1.7553804 12:-0.17580377 13:0.48375186 14:1.8359149 15:-0.19378674 16:0.21754512 17:1.8351457 18:-0.19455472 19:-0.025053352 20:1.7606938 21:-0.190539 22:-0.079511344 23:1.7484519 24:0.1596453 25:0.49546447 26:1.7771375 27:0.23810501 28:0.27797446 29:1.7765024 30:0.23120241 31:0.40388188 32:1.5854776 33:0.22458564 34:0.42800519 35:1.5512693 36:-0.071244687 37:-0.017790109 38:1.7771733 39:-0.074519165 40:-0.37657881 41:1.7729518 42:-0.041636929 43:-0.75662851 44:1.8382766 45:-0.056850839 46:-0.8527236 47:1.7341411 48:0.083631948 49:-0.012086153 50:1.7494638 51:0.13196373 52:-0.35325351 53:1.7576587 54:0.12559095 55:-0.75286698 56:1.8445919 57:0.13619405 58:-0.84802449 59:1.7531621 60:-0.0049715526 61:0.52922308 62:1.7925684 63:-0.18772042 64:-0.15817291 65:1.7426741 66:-0.2395732 67:-0.092295736 68:1.7476566 69:0.21684267 70:0.47517899 71:1.4908087 72:0.1755472 73:0.44390383 74:1.5790536 
0 0 0 0 0 0 0 0 10 0:0.0097939447 1:-0.014276445 2:1.8031111 3:0 4:0.30000001 5:1.8 6:-0.0095261596 7:0.60391831 8:1.7845335 9:-0.017689656 10:0.76368463 11:1.7578964 12:-0.17956883 13:0.48506597 14:1.8210363 15:-0.19887178 16:0.21698627 17:1.8358355 18:-0.19806574 19:-0.012071639 20:1.7678289 21:-0.19150528 22:-0.090804964 23:1.7473311 24:0.16250198 25:0.48782972 26:1.7756109 27:0.25412428 28:0.28011355 29:1.7693501 30:0.36562133 31:0.34047946 32:1.5799952 33:0.39285201 34:0.36517814 35:1.5337257 36:-0.06897755 37:-0.018268317 38:1.7767892 39:-0.07347016 40:-0.38331622 41:1.7663589 42:-0.046454903 43:-0.76474524 44:1.8155751 45:-0.062009193 46:-0.85654271 47:1.7073865 48:0.086378887 49:-0.012289047 50:1.7529697 51:0.13704219 52:-0.35581654 53:1.7617216 54:0.12361746 55:-0.75791919 56:1.8199806 57:0.13367945 58:-0.85331142 59:1.7213955 60:-0.007157363 61:0.52938521 62:1.7906961 63:-0.17956758 64:-0.1674909 65:1.7365847 66:-0.14616764 67:-0.089138448 68:1.7051287 69:0.42350364 70:0.39696166 71:1.4740682 72:0.35292017 73:0.3872219 74:1.5146022 
0 0 0 0 0 0 0 0 10 0:0.0096728355 1:-0.014237493 2:1.8030877 3:0 4:0.30000001 5:1.8 6:-0.0092616007 7:0.60383326 8:1.7845511 9:-0.01708227 10:0.76386011 11:1.7581525 12:-0.17942344 13:0.48528928 14:1.820817 15:-0.19890288 16:0.2160964 17:1.8356152 18:-0.19804659 19:-0.012137771 20:1.7673912 21:-0.19083501 22:-0.092302054 23:1.7448344 24:0.16259412 25:0.48791194 26:1.7757177 27:0.2240279 28:0.24591029 29:1.7949624 30:0.36896765 31:0.28099489 32:1.5972333 33:0.41493073 34:0.30590224 35:1.524653 36:-0.069107346 37:-0.018229902 38:1.7767482 39:-0.073810704 40:-0.3837094 41:1.7663541 42:-0.046576247 43:-0.76475149 44:1.8154597 45:-0.062508404 46:-0.8567332 47:1.7065978 48:0.086267933 49:-0.012248665 50:1.752954 51:0.13689537 52:-0.35560113 53:1.7616129 54:0.12332547 55:-0.75843698 56:1.8197074 57:0.13355862 58:-0.85336185 59:1.7210093 60:-0.0069690868 61:0.52932537 62:1.7907128 63:-0.16968977 64:-0.17706719 65:1.7290416 66:-0.14626506 67:-0.080059052 68:1.7053809 69:0.44777542 70:0.33171707 71:1.4581718 72:0.37860322 73:0.32723343 74:1.5021462 
0 0 0 2.051930343753795 0 0 0 3.471856868903764 10 0:0.0095992461 1:-0.014250398 2:1.8030825 3:0 4:0.30000001 5:1.8 6:-0.0091366731 7:0.60387021 8:1.7845573 9:-0.016194586 10:0.76380366 11:1.7587376 12:-0.17930999 13:0.48534882 14:1.8206606 15:-0.19890468 16:0.21592587 17:1.8357844 18:-0.19809437 19:-0.012223572 20:1.7672567 21:-0.1911661 22:-0.090563178 23:1.7461653 24:0.16333458 25:0.4880535 26:1.7762575 27:0.22405609 28:0.24588877 29:1.7949476 30:0.38699377 31:0.23000878 32:1.5956974 33:0.43569252 34:0.23704308 35:1.5243368 36:-0.069187284 37:-0.018233687 38:1.7767 39:-0.0738713 40:-0.3836726 41:1.7662549 42:-0.046558142 43:-0.76467609 44:1.8155832 45:-0.062576197 46:-0.85675567 47:1.7065277 48:0.08620815 49:-0.012281656 50:1.7530355 51:0.13658023 52:-0.35565037 53:1.7618542 54:0.12303303 55:-0.75946957 56:1.8199925 57:0.13351335 58:-0.85342091 59:1.7210727 60:-0.0068782195 61:0.52935064 62:1.790719 63:-0.1703552 64:-0.17625448 65:1.7365475 66:-0.14607033 67:-0.071314901 68:1.7073164 69:0.47268572 70:0.23796237 71:1.4625816 72:0.40670082 73:0.25773162 74:1.4965334 
0 0 10 10 0 0 0 10 10 0:0.0094401538 1:-0.014193445 2:1.8031418 3:0 4:0.30000001 5:1.8 6:-0.0088893101 7:0.60382187 8:1.7845285 9:-0.015757762 10:0.76405907 11:1.7587087 12:-0.17937544 13:0.48569086 14:1.8207777 15:-0.19938716 16:0.2171984 17:1.8354886 18:-0.19854277 19:-0.0070301592 20:1.7688544 21:-0.19166613 22:-0.091489345 23:1.7477696 24:0.16395286 25:0.48821792 26:1.7766325 27:0.22938532 28:0.2457532 29:1.7881615 30:0.40036616 31:0.17035285 32:1.597337 33:0.45164743 34:0.15873817 35:1.5295861 36:-0.06933824 37:-0.018164545 38:1.7767279 39:-0.074073948 40:-0.38370812 41:1.7661831 42:-0.046683446 43:-0.7647053 44:1.8154938 45:-0.062720761 46:-0.85683846 47:1.7063935 48:0.086040013 49:-0.012242168 50:1.7531006 51:0.13647944 52:-0.3557736 53:1.7617123 54:0.12288892 55:-0.75970209 56:1.8197529 57:0.13331458 58:-0.85316563 59:1.7208312 60:-0.0067039654 61:0.52931798 62:1.7907012 63:-0.16504842 64:-0.17819014 65:1.7371142 66:-0.14716434 67:-0.073589951 68:1.7083933 69:0.48623958 70:0.14490816 71:1.4555199 72:0.47063717 73:0.18558827 74:1.4932663 
0 0 7.954738058645618 10 0 0 0 10 10 0:0.0091625154 1:-0.01418981 2:1.8030195 3:0 4:0.30000001 5:1.8 6:-0.0085039474 7:0.60377848 8:1.7846704 9:-0.01558581 10:0.76406884 11:1.7589083 12:-0.17946938 13:0.48612174 14:1.8208122 15:-0.19961771 16:0.21685401 17:1.8353639 18:-0.19865599 19:-0.0092281699 20:1.7679386 21:-0.19223577 22:-0.090992689 23:1.7473354 24:0.16375941 25:0.48813215 26:1.7764974 27:0.2376515 28:0.24285296 29:1.776495 30:0.40383229 31:0.11108157 32:1.6026821 33:0.45002642 34:0.084949791 35:1.5472498 36:-0.069606438 37:-0.018188506 38:1.7765808 39:-0.074377343 40:-0.38375908 41:1.7660017 42:-0.046698827 43:-0.76612735 44:1.815382 45:-0.063126847 46:-0.85700893 47:1.7067127 48:0.085742697 49:-0.012207329 50:1.7529902 51:0.13598202 52:-0.35572043 53:1.7614584 54:0.12227842 55:-0.76112092 56:1.8195715 57:0.13293819 58:-0.85321379 59:1.720643 60:-0.0064155757 61:0.52928841 62:1.7908058 63:-0.16666105 64:-0.17788166 65:1.7394476 66:-0.14621592 67:-0.076015711 68:1.7068167 69:0.48533097 70:0.060549945 71:1.4901557 72:0.42423597 73:0.10500732 74:1.5084 
0 0 0 0 0 0 0 0 10 0:0.011252455 1:-0.014121443 2:1.7957127 3:0 4:0.30000001 5:1.8 6:-0.011126786 7:0.6036334 8:1.7915113 9:-0.017849959 10:0.76410532 11:1.7688129 12:-0.18056527 13:0.4835147 14:1.8208339 15:-0.20221978 16:0.2109423 17:1.8197896 18:-0.20343822 19:-0.016862661 20:1.7456996 21:-0.19456255 22:-0.086021692 23:1.7294948 24:0.16052893 25:0.48877791 26:1.7793028 27:0.21802953 28:0.2331064 29:1.819783 30:0.34844059 31:0.31664351 32:1.6186535 33:0.39028832 34:0.34466431 35:1.5523307 36:-0.067615725 37:-0.018071741 38:1.7665441 39:-0.074062295 40:-0.38085848 41:1.7562816 42:-0.03903529 43:-0.76192808 44:1.8111489 45:-0.053789001 46:-0.85614169 47:1.7072246 48:0.088022701 49:-0.011965096 50:1.7476647 51:0.13633513 52:-0.35621414 53:1.751415 54:0.13009027 55:-0.75605667 56:1.8161914 57:0.14020193 58:-0.85168827 59:1.7196233 60:-0.008364033 61:0.52921045 62:1.7958777 63:-0.17349912 64:-0.17639694 65:1.7172601 66:-0.14403647 67:-0.069915801 68:1.6917207 69:0.42056039 70:0.37079373 71:1.4794281 72:0.34737682 73:0.35910401 74:1.5277145 
0 0 0 0 0 0 0 0 10 0:0.011290886 1:-0.014061481 2:1.7956755 3:0 4:0.30000001 5:1.8 6:-0.011172831 7:0.60357964 8:1.7915471 9:-0.017802563 10:0.76416749 11:1.7689545 12:-0.18059164 13:0.48347944 14:1.8211482 15:-0.20217225 16:0.21110326 17:1.819803 18:-0.20307565 19:-0.016927004 20:1.7455285 21:-0.19448388 22:-0.087228209 23:1.7271264 24:0.16062576 25:0.48896927 26:1.7793953 27:0.2180714 28:0.23560685 29:1.8159707 30:0.37128818 31:0.27011853 32:1.6090443 33:0.41445968 34:0.29227954 35:1.5414565 36:-0.067574009 37:-0.018006444 38:1.7666953 39:-0.07384374 40:-0.38075897 41:1.7563822 42:-0.03901523 43:-0.76173657 44:1.8111498 45:-0.054160096 46:-0.85618013 47:1.7063043 48:0.088011466 49:-0.011893392 50:1.7471521 51:0.13632354 52:-0.35616034 53:1.7514861 54:0.13002363 55:-0.75586301 56:1.816241 57:0.14008111 58:-0.85172558 59:1.7196429 60:-0.008395344 61:0.5291701 62:1.7959101 63:-0.18303713 64:-0.16525674 65:1.7115843 66:-0.14501321 67:-0.075968981 68:1.6914771 69:0.44650581 70:0.31291181 71:1.4774601 72:0.37694421 73:0.30432594 74:1.5148299 
0 0 0 10 0 0 0 10 10 0:0.011305656 1:-0.014112055 2:1.7957225 3:0 4:0.30000001 5:1.8 6:-0.01119744 7:0.60365283 8:1.7915072 9:-0.017754212 10:0.76421314 11:1.7690701 12:-0.18088402 13:0.48315006 14:1.8214245 15:-0.2021867 16:0.21086127 17:1.819859 18:-0.20282465 19:-0.01641804 20:1.7454276 21:-0.19402352 22:-0.085653573 23:1.726501 24:0.16098967 25:0.48882532 26:1.7797241 27:0.21839255 28:0.23689491 29:1.8094974 30:0.37142852 31:0.22247106 32:1.6291032 33:0.43638161 34:0.23033196 35:1.5410366 36:-0.067552224 37:-0.018077463 38:1.7668881 39:-0.073815495 40:-0.38015649 41:1.7567577 42:-0.039048232 43:-0.76141965 44:1.8111892 45:-0.053772371 46:-0.85581607 47:1.7063069 48:0.088008061 49:-0.011910796 50:1.7470288 51:0.13615568 52:-0.35593405 53:1.7515936 54:0.12974779 55:-0.75642401 56:1.8165126 57:0.1404448 58:-0.85138333 59:1.717977 60:-0.0084121414 61:0.52921987 62:1.7958894 63:-0.17597881 64:-0.17520222 65:1.7167888 66:-0.14511736 67:-0.075238824 68:1.6918273 69:0.47223932 70:0.2272858 71:1.4783034 72:0.40356061 73:0.23993534 74:1.507093 
0 0 0 10 0 0 0 10 10 0:0.011243604 1:-0.01408568 2:1.7957273 3:0 4:0.30000001 5:1.8 6:-0.011119638 7:0.60362881 8:1.7915115 9:-0.017801207 10:0.76424557 11:1.7691269 12:-0.18088639 13:0.48323685 14:1.8215313 15:-0.20219442 16:0.21031672 17:1.8197117 18:-0.20234257 19:-0.018016577 20:1.7441607 21:-0.19469875 22:-0.085836321 23:1.7280607 24:0.1610572 25:0.48894429 26:1.780014 27:0.226069 28:0.24026984 29:1.795455 30:0.39802304 31:0.17635036 32:1.6064072 33:0.45091501 34:0.16497737 35:1.5398426 36:-0.067612536 37:-0.018067747 38:1.7670221 39:-0.073894769 40:-0.37995386 41:1.7569084 42:-0.039067876 43:-0.76175737 44:1.8112659 45:-0.053939622 46:-0.85565865 47:1.7060871 48:0.087948605 49:-0.011897087 50:1.7467823 51:0.13613006 52:-0.35620725 53:1.7517157 54:0.12964177 55:-0.75648451 56:1.8166218 57:0.1403707 58:-0.85132599 59:1.7181625 60:-0.0083542354 61:0.52919978 62:1.7958946 63:-0.19422412 64:-0.1618852 65:1.7203836 66:-0.14797208 67:-0.10237429 68:1.6879997 69:0.48418573 70:0.15052688 71:1.4800262 72:0.42225286 73:0.1580953 74:1.4986372 
0 0 0 10 0 0 0 10 10 0:0.011213899 1:-0.014091969 2:1.7957208 3:0 4:0.30000001 5:1.8 6:-0.01109419 7:0.60364062 8:1.7915213 9:-0.01775055 10:0.76428515 11:1.7691853 12:-0.18092242 13:0.48325592 14:1.8217022 15:-0.20203958 16:0.21022254 17:1.8196428 18:-0.19887409 19:-0.033759564 20:1.736532 21:-0.19414757 22:-0.090347856 23:1.7276113 24:0.16107461 25:0.48897517 26:1.780093 27:0.22771409 28:0.24336547 29:1.7923958 30:0.36916441 31:0.14755833 32:1.6430404 33:0.45289576 34:0.10078585 35:1.5511835 36:-0.067633353 37:-0.01808989 38:1.7671115 39:-0.073921219 40:-0.37934822 41:1.7570865 42:-0.038956426 43:-0.75949806 44:1.8113039 45:-0.053999424 46:-0.8556481 47:1.7060869 48:0.087898254 49:-0.011888027 50:1.7465799 51:0.13618779 52:-0.35604817 53:1.7516744 54:0.12945463 55:-0.75817722 56:1.8159864 57:0.14046863 58:-0.85116696 59:1.7182238 60:-0.0083350725 61:0.52920729 62:1.7959049 63:-0.17898822 64:-0.17446288 65:1.7190382 66:-0.14652327 67:-0.090027153 68:1.6898758 69:0.48932809 70:0.074903488 71:1.4971139 72:0.42203185 73:0.12128454 74:1.5135286 
0 0 0 6.611689245561064 1.457925457529452 0 0 10 10 0:0.011097975 1:-0.013936311 2:1.7954721 3:0 4:0.30000001 5:1.8 6:-0.010762624 7:0.60327208 8:1.7923584 9:-0.017574996 10:0.76426512 11:1.7695513 12:-0.17903638 13:0.48379183 14:1.8207541 15:-0.20224991 16:0.21061069 17:1.8195939 18:-0.20160297 19:-0.023648769 20:1.7423253 21:-0.19365579 22:-0.087195069 23:1.7285638 24:0.1612671 25:0.48909587 26:1.7801232 27:0.23724543 28:0.25017208 29:1.7797523 30:0.37019318 31:0.12738347 32:1.6435251 33:0.43863851 34:0.04608193 35:1.5727115 36:-0.067776375 37:-0.017955393 38:1.7668481 39:-0.073966734 40:-0.37889826 41:1.7569518 42:-0.038913816 43:-0.75958139 44:1.8112569 45:-0.054419696 46:-0.85554492 47:1.7072921 48:0.087802425 49:-0.011715829 50:1.7463746 51:0.13609494 52:-0.35619026 53:1.7519383 54:0.12910713 55:-0.75844383 56:1.8164086 57:0.14028637 58:-0.85114163 59:1.7181597 60:-0.0081007779 61:0.52893656 62:1.7964811 63:-0.17518227 64:-0.18102828 65:1.7103333 66:-0.14387968 67:-0.078153521 68:1.6917529 69:0.47525918 70:-0.0049062073 71:1.5338712 72:0.4075402 73:0.052089602 74:1.5249152 
0 0 0 0 0 0 0 0 10 0:0.0078220367 1:-0.014919043 2:1.8008955 3:0 4:0.30000001 5:1.8 6:-0.0075659081 7:0.60452038 8:1.7865446 9:-0.019161779 10:0.76406312 11:1.7628362 12:-0.17984611 13:0.48682207 14:1.8231471 15:-0.19756958 16:0.21497977 17:1.8375719 18:-0.20156385 19:-0.0027467608 20:1.7718799 21:-0.19371238 22:-0.080380827 23:1.7509248 24:0.1626368 25:0.49111837 26:1.7698658 27:0.25347155 28:0.28171134 29:1.7623084 30:0.37547463 31:0.35966915 32:1.566201 33:0.3987053 34:0.38638973 35:1.5266769 36:-0.070948355 37:-0.018925816 38:1.7749422 39:-0.074714191 40:-0.38064995 41:1.7681611 42:-0.048750829 43:-0.7635473 44:1.8166807 45:-0.065414689 46:-0.8543244 47:1.7103879 48:0.084217608 49:-0.012838453 50:1.7502878 51:0.13260217 52:-0.35535064 53:1.756716 54:0.11983481 55:-0.75857079 56:1.82107 57:0.13079093 58:-0.85098308 59:1.7228181 60:-0.0056899935 61:0.52984577 62:1.7922199 63:-0.17482954 64:-0.16881455 65:1.7375219 66:-0.14851385 67:-0.076460809 68:1.7048061 69:0.42898268 70:0.42344826 71:1.4639757 72:0.35477972 73:0.41047323 74:1.5079949 
0 0 0 0 0 0 0 0 10 0:0.0078001693 1:-0.014896989 2:1.8008626 3:0 4:0.30000001 5:1.8 6:-0.0075619444 7:0.60449606 8:1.7865818 9:-0.018890627 10:0.76444727 11:1.7627518 12:-0.17966506 13:0.48663491 14:1.8230193 15:-0.1976382 16:0.21480978 17:1.8375165 18:-0.20156556 19:-0.0028299689 20:1.7716076 21:-0.19441313 22:-0.079440057 23:1.7500665 24:0.16296265 25:0.49120706 26:1.7699358 27:0.25303727 28:0.27938551 29:1.762903 30:0.38551623 31:0.34999949 32:1.5576861 33:0.40935174 34:0.36398447 35:1.5218027 36:-0.070927002 37:-0.018907994 38:1.7750041 39:-0.074967504 40:-0.38092759 41:1.7680957 42:-0.048903216 43:-0.76367772 44:1.8166502 45:-0.065752685 46:-0.85475355 47:1.7096231 48:0.084178366 49:-0.012810796 50:1.7502048 51:0.1325593 52:-0.35538557 53:1.7565401 54:0.11997875 55:-0.75720227 56:1.8207233 57:0.1307762 58:-0.85097086 59:1.7224104 60:-0.0056840926 61:0.52982748 62:1.7922471 63:-0.17617424 64:-0.16740435 65:1.7302616 66:-0.14949146 67:-0.078143209 68:1.7052457 69:0.44643131 70:0.38804263 71:1.4564893 72:0.37116614 73:0.3928898 74:1.5028722 
-10 0 0 0 0 0 0 0 0 0:0.011809908 1:-0.013678461 2:1.7948828 3:0 4:0.30000001 5:1.8 6:-0.012511149 7:0.60392237 8:1.7934351 9:-0.025715433 10:0.7646929 11:1.7783828 12:-0.18151921 13:0.47610632 14:1.8330503 15:-0.19100717 16:0.21424577 17:1.8364429 18:-0.19209 19:-0.020590246 20:1.7571578 21:-0.18137267 22:-0.081144989 23:1.7381625 24:0.15742362 25:0.49529311 26:1.7688975 27:0.31005496 28:0.42612353 29:1.606421 30:0.21781696 31:0.6424737 32:1.4969888 33:0.19591011 34:0.69647586 35:1.4784646 36:-0.066564716 37:-0.01912865 38:1.7702165 39:-0.065406151 40:-0.37944987 41:1.7710218 42:-0.032326963 43:-0.75721872 44:1.8319364 45:-0.045930281 46:-0.85936308 47:1.731307 48:0.087718517 49:-0.010001928 50:1.742588 51:0.13986777 52:-0.35382068 53:1.7526813 54:0.14034294 55:-0.7547015 56:1.8297439 57:0.14487697 58:-0.85199273 59:1.7323003 60:-0.0092567615 61:0.52945709 62:1.7971578 63:-0.16557467 64:-0.17157397 65:1.7198415 66:-0.22969131 67:-0.10163683 68:1.7445922 69:0.17359664 70:0.75362611 71:1.4241552 72:0.14055529 73:0.70449376 74:1.4826813 
-0 8.159665559144182 0 0 0 0 0 0 0 0:0.013352789 1:-0.012459159 2:1.7930181 3:0 4:0.30000001 5:1.8 6:-0.013463162 7:0.60334206 8:1.7961462 9:-0.026888665 10:0.76494646 11:1.7811878 12:-0.18223476 13:0.47454032 14:1.8323247 15:-0.19137824 16:0.21305892 17:1.8346994 18:-0.19228849 19:-0.019141644 20:1.754926 21:-0.18227416 22:-0.083210468 23:1.7346747 24:0.15461767 25:0.49727049 26:1.7659996 27:0.30512333 28:0.51823449 29:1.5836656 30:0.1877284 31:0.72924888 32:1.4813964 33:0.14563096 34:0.80240738 35:1.4667938 36:-0.065035842 37:-0.018261999 38:1.7682998 39:-0.065551504 40:-0.38035893 41:1.76878 42:-0.032257147 43:-0.76159096 44:1.8312471 45:-0.045975305 46:-0.85987008 47:1.7307093 48:0.089283891 49:-0.008540839 50:1.7407982 51:0.13934305 52:-0.35483128 53:1.7516901 54:0.13930786 55:-0.75816429 56:1.8284767 57:0.14432886 58:-0.85339224 59:1.7313488 60:-0.0099385753 61:0.52905118 62:1.7990963 63:-0.16780677 64:-0.17060898 65:1.7170236 66:-0.22991958 67:-0.098441333 68:1.7431929 69:0.10824855 70:0.86931896 71:1.4385307 72:0.090239964 73:0.79255819 74:1.4624116 
-0 10 0 0 0 0 0 0 0 0:0.014514014 1:-0.01154688 2:1.7922268 3:0 4:0.30000001 5:1.8 6:-0.014054254 7:0.60292184 8:1.7965984 9:-0.027024455 10:0.7635349 11:1.7828031 12:-0.18247506 13:0.47361204 14:1.8321152 15:-0.19136071 16:0.21272597 17:1.8337736 18:-0.19077532 19:-0.038617551 20:1.7443404 21:-0.18147613 22:-0.093065172 23:1.7290177 24:0.14793086 25:0.50663209 26:1.7591496 27:0.26444602 28:0.60288453 29:1.5818672 30:0.16236472 31:0.79094481 32:1.4735641 33:0.1188878 34:0.86440325 35:1.4573174 36:-0.064254232 37:-0.018007576 38:1.768321 39:-0.064925954 40:-0.38153818 41:1.7677002 42:-0.032539044 43:-0.76229441 44:1.8309116 45:-0.046293885 46:-0.86038125 47:1.7303495 48:0.091049336 49:-0.0066609383 50:1.7387466 51:0.13924351 52:-0.35505998 53:1.7514148 54:0.13915458 55:-0.75949526 56:1.8279572 57:0.14403418 58:-0.85425925 59:1.72999 60:-0.010384217 61:0.52870822 62:1.7994308 63:-0.16583371 64:-0.19365677 65:1.725379 66:-0.23148206 67:-0.11483756 68:1.7382665 69:0.074426435 70:0.93259406 71:1.4300938 72:0.059879206 73:0.84687507 74:1.4510889 
-0 10 0 0 0 0 0 0 0 0:0.016451314 1:-0.0098587275 2:1.7913542 3:0 4:0.30000001 5:1.8 6:-0.015136715 7:0.60156226 8:1.7968001 9:-0.02794132 10:0.76106358 11:1.7840209 12:-0.18328863 13:0.47138974 14:1.8321071 15:-0.19148824 16:0.21072689 17:1.8332114 18:-0.1912811 19:-0.044121027 20:1.7413907 21:-0.17994703 22:-0.095582396 23:1.7258992 24:0.14483085 25:0.51382411 26:1.756124 27:0.24758016 28:0.65003228 29:1.5814385 30:0.14023219 31:0.84587693 32:1.4630723 33:0.097440645 34:0.91649604 35:1.4500017 36:-0.062742472 37:-0.017579943 38:1.7692676 39:-0.065373786 40:-0.38384402 41:1.767036 42:-0.03325896 43:-0.7646867 44:1.8305273 45:-0.047272705 46:-0.86289859 47:1.7298684 48:0.093593225 49:-0.0033166707 50:1.7355742 51:0.13899107 52:-0.35588935 53:1.7512307 54:0.13861096 55:-0.76089334 56:1.8277636 57:0.14325082 58:-0.85654867 59:1.7296085 60:-0.011288527 61:0.52756751 62:1.7996373 63:-0.17459157 64:-0.17398496 65:1.7102828 66:-0.23077528 67:-0.12374875 68:1.7377119 69:0.047594555 70:0.98824763 71:1.422739 72:0.044074982 73:0.89259696 74:1.4431424 
-0 10 0 0 0 0 0 0 0 0:0.018061057 1:-0.0076136887 2:1.7908297 3:0 4:0.30000001 5:1.8 6:-0.016181603 7:0.59973764 8:1.7968335 9:-0.029053926 10:0.75864363 11:1.7847385 12:-0.18385601 13:0.46889058 14:1.8319888 15:-0.19115323 16:0.20794263 17:1.8315315 18:-0.19194531 19:-0.023846418 20:1.7468734 21:-0.18077412 22:-0.091746062 23:1.7264662 24:0.14187896 25:0.52432346 26:1.7556891 27:0.23042935 28:0.67633653 29:1.595655 30:0.11764415 31:0.89580059 32:1.4586091 33:0.075060494 34:0.97127008 35:1.4395628 36:-0.0610644 37:-0.016567141 38:1.7708712 39:-0.065113857 40:-0.3842586 41:1.7645273 42:-0.033966076 43:-0.76762164 44:1.8298464 45:-0.047583077 46:-0.86521232 47:1.7299442 48:0.095106922 49:0.0002976954 50:1.7329702 51:0.13874653 52:-0.35578912 53:1.7506618 54:0.13794318 55:-0.76361251 56:1.8271179 57:0.14243934 58:-0.85901523 59:1.7296462 60:-0.012161251 61:0.52607238 62:1.7997074 63:-0.17445451 64:-0.16991141 65:1.713881 66:-0.23038924 67:-0.11942339 68:1.7265663 69:0.02415181 70:1.04389 71:1.4173794 72:0.021290407 73:0.93797398 74:1.4245071 
-0 10 0 0 0 0 0 0 0 0:0.019090272 1:-0.0045513213 2:1.7904432 3:0 4:0.30000001 5:1.8 6:-0.017030202 7:0.5973115 8:1.7968452 9:-0.030911285 10:0.75539762 11:1.7863228 12:-0.18251824 13:0.46768069 14:1.8324082 15:-0.19138399 16:0.20596498 17:1.8309066 18:-0.19287348 19:-0.024553716 20:1.7468808 21:-0.1802153 22:-0.093695551 23:1.7231858 24:0.13758749 25:0.54008162 26:1.7567947 27:0.20916039 28:0.70461947 29:1.60449 30:0.09840183 31:0.9416607 32:1.4530103 33:0.064057991 34:1.0096457 35:1.4282424 36:-0.059769161 37:-0.015056223 38:1.7726743 39:-0.065373287 40:-0.3872771 41:1.7643802 42:-0.034822766 43:-0.77084804 44:1.8298328 45:-0.049042214 46:-0.86864364 47:1.7280023 48:0.095659047 49:0.0048419237 50:1.7303212 51:0.13840546 52:-0.3586278 53:1.7507265 54:0.13714036 55:-0.76648617 56:1.8269651 57:0.14171012 58:-0.86164224 59:1.7292588 60:-0.012893327 61:0.52406961 62:1.7997787 63:-0.1746248 64:-0.17442016 65:1.7107894 66:-0.22836016 67:-0.10383978 68:1.7299731 69:0.020871483 70:1.0754602 71:1.3897154 72:0.0083000883 73:0.97570163 74:1.4106133 
-0 10 0 0 0 0 0 0 0 0:0.019961864 1:-0.0022983551 2:1.7896287 3:0 4:0.30000001 5:1.8 6:-0.018275715 7:0.59440243 8:1.7974851 9:-0.033072758 10:0.75167328 11:1.7886899 12:-0.18283254 13:0.4643032 14:1.8347285 15:-0.19084838 16:0.20309454 17:1.8309968 18:-0.19444096 19:-0.028319567 20:1.7474387 21:-0.18030526 22:-0.097206771 23:1.7217314 24:0.13583475 25:0.53587919 26:1.7569535 27:0.17600137 28:0.76157492 29:1.5906575 30:0.083847649 31:0.97802848 32:1.4484637 33:0.056039698 34:1.0462189 35:1.4169438 36:-0.058983799 37:-0.014455587 38:1.7731307 39:-0.066594131 40:-0.39043164 41:1.7647917 42:-0.036382001 43:-0.77343613 44:1.830785 45:-0.050767429 46:-0.87298083 47:1.7281058 48:0.096207418 49:0.0077399909 50:1.7285726 51:0.13700634 52:-0.36210632 53:1.7514074 54:0.13565364 55:-0.77004087 56:1.8276861 57:0.14040136 58:-0.86564326 59:1.7302577 60:-0.013864689 61:0.52185649 62:1.8003352 63:-0.17242602 64:-0.18561865 65:1.7039635 66:-0.2278102 67:-0.12073481 68:1.7170637 69:0.021322101 70:1.105258 71:1.3714354 72:0.0049272627 73:1.0080507 74:1.4011724 
-0 10 0 0 0 0 0 0 0 0:0.022862025 1:0.0038944781 2:1.7890031 3:0 4:0.30000001 5:1.8 6:-0.021323055 7:0.58830535 8:1.7982996 9:-0.038010202 10:0.74234766 11:1.7912624 12:-0.18643719 13:0.4535557 14:1.8365719 15:-0.19433054 16:0.19446021 17:1.8324268 18:-0.19930565 19:-0.032749265 20:1.7511551 21:-0.18430936 22:-0.10836381 23:1.7232959 24:0.12614521 25:0.57682443 26:1.7517135 27:0.16724741 28:0.76643497 29:1.5851991 30:0.077125601 31:0.98048419 32:1.4495542 33:0.054683305 34:1.0567937 35:1.4192245 36:-0.054573286 37:-0.010439217 38:1.7728097 39:-0.071472324 40:-0.40034485 41:1.7663538 42:-0.041150965 43:-0.78284365 44:1.8316715 45:-0.055726647 46:-0.88293612 47:1.7293718 48:0.097244747 49:0.01523307 50:1.7281787 51:0.13237324 52:-0.37150478 53:1.7528527 54:0.13077202 55:-0.77993441 56:1.8292363 57:0.13542467 58:-0.87570065 59:1.7317679 60:-0.016181804 61:0.51724744 62:1.8009803 63:-0.17940845 64:-0.18315148 65:1.7027185 66:-0.23074889 67:-0.13662571 68:1.7224271 69:0.028632045 70:1.1179433 71:1.3733518 72:0.00048962235 73:1.0278089 74:1.39446 
-10 0 10 10 10 0 0 10 10 0:0.011799797 1:-0.014587492 2:1.7958031 3:0 4:0.30000001 5:1.8 6:-0.011662252 7:0.60405731 8:1.7920809 9:-0.020902213 10:0.7656548 11:1.7761097 12:-0.18113367 13:0.47614685 14:1.8260288 15:-0.19209394 16:0.20919761 17:1.8326283 18:-0.19510089 19:-0.018571317 20:1.7605529 21:-0.18496087 22:-0.095632285 23:1.734622 24:0.15895675 25:0.48861358 26:1.7735882 27:0.23992206 28:0.27881083 29:1.7603903 30:0.25083512 31:0.42578629 32:1.5861292 33:0.23773094 34:0.49279842 35:1.5451803 36:-0.067136854 37:-0.019640595 38:1.7683783 39:-0.072069705 40:-0.38192806 41:1.7691474 42:-0.040583283 43:-0.76257896 44:1.825841 45:-0.056551144 46:-0.86201203 47:1.7193317 48:0.088257089 49:-0.011623204 50:1.746665 51:0.13584059 52:-0.36425513 53:1.7520595 54:0.13176325 55:-0.76176798 56:1.8229246 57:0.13481389 58:-0.8528558 59:1.7248883 60:-0.0087110549 61:0.52950048 62:1.7963257 63:-0.1781729 64:-0.18443696 65:1.7248287 66:-0.14124109 67:-0.095388621 68:1.6923361 69:0.23556755 70:0.54406393 71:1.4771628 72:0.18293805 73:0.51225221 74:1.5376329 
-10 0 5.427560037418517 10 10 0 0 0 10 0:0.011824667 1:-0.014625192 2:1.7956591 3:0 4:0.30000001 5:1.8 6:-0.011762284 7:0.60412627 8:1.7923717 9:-0.021395233 10:0.76533246 11:1.7764964 12:-0.18161371 13:0.47608638 14:1.8273244 15:-0.19197474 16:0.20914626 17:1.832458 18:-0.19529988 19:-0.019220114 20:1.7607083 21:-0.18564701 22:-0.094356328 23:1.7361159 24:0.1575658 25:0.48948997 26:1.7719789 27:0.24959865 28:0.28488177 29:1.7408023 30:0.23280677 31:0.45103163 32:1.5865159 33:0.22245187 34:0.51785004 35:1.5440669 36:-0.067086674 37:-0.019695491 38:1.7682643 39:-0.071962729 40:-0.3819063 41:1.7690587 42:-0.040667381 43:-0.76169789 44:1.8259091 45:-0.056632593 46:-0.86191827 47:1.7202692 48:0.088263892 49:-0.011618555 50:1.7464929 51:0.13594577 52:-0.3644841 53:1.751946 54:0.13182995 55:-0.7616421 56:1.8229465 57:0.13498291 58:-0.85240239 59:1.7259998 60:-0.0087807775 61:0.52954936 62:1.7965331 63:-0.1785959 64:-0.1854201 65:1.7243443 66:-0.14133438 67:-0.093638092 68:1.6935015 69:0.21234116 70:0.57247204 71:1.4793296 72:0.17007598 73:0.53100115 74:1.5439773 
-10 0 0 10 10 0 0 0 5.300755070385437 0:0.011829406 1:-0.014635772 2:1.795543 3:0 4:0.30000001 5:1.8 6:-0.011758298 7:0.60415602 8:1.7926018 9:-0.021629311 10:0.76512003 11:1.7767608 12:-0.18157884 13:0.47592196 14:1.8274186 15:-0.19197518 16:0.20938668 17:1.8324606 18:-0.19533442 19:-0.019315481 20:1.7606108 21:-0.18484664 22:-0.093565762 23:1.7350447 24:0.15703279 25:0.48924175 26:1.7712815 27:0.27131769 28:0.30164364 29:1.7086499 30:0.22358045 31:0.48203817 32:1.580848 33:0.20636219 34:0.5482105 35:1.5418332 36:-0.06712997 37:-0.019719452 38:1.7683108 39:-0.071925521 40:-0.38193077 41:1.7689321 42:-0.040640991 43:-0.76191115 44:1.8257577 45:-0.05641067 46:-0.86176801 47:1.7209704 48:0.088210799 49:-0.011581212 50:1.7461693 51:0.13602549 52:-0.36441171 53:1.751858 54:0.13198814 55:-0.76229155 56:1.8228652 57:0.1348784 58:-0.85275865 59:1.7257602 60:-0.0087817684 61:0.52957034 62:1.7966988 63:-0.18408203 64:-0.16712561 65:1.7194493 66:-0.14180961 67:-0.07905075 68:1.6979153 69:0.18857294 70:0.60591853 71:1.4794905 72:0.16007408 73:0.55587316 74:1.5434039 
-10 0 0 8.163024533188892 10 0 0 0 0 0:0.011867434 1:-0.014616549 2:1.7950921 3:0 4:0.30000001 5:1.8 6:-0.011844315 7:0.60414016 8:1.7933407 9:-0.021775763 10:0.76463765 11:1.7771568 12:-0.18145379 13:0.47569823 14:1.8271036 15:-0.19167416 16:0.20946962 17:1.8319073 18:-0.19518366 19:-0.018946379 20:1.7603693 21:-0.18406725 22:-0.096238822 23:1.7339306 24:0.15716316 25:0.48900396 26:1.770648 27:0.27824807 28:0.31049269 29:1.6927924 30:0.21633394 31:0.50225633 32:1.5746441 33:0.19576751 34:0.57622594 35:1.5399179 36:-0.067173854 37:-0.019631803 38:1.7679396 39:-0.071406864 40:-0.38153633 41:1.7680845 42:-0.040374015 43:-0.7622242 44:1.8252306 45:-0.055130254 46:-0.86124754 47:1.7225103 48:0.088320792 49:-0.011628509 50:1.7456484 51:0.13608402 52:-0.3636305 53:1.7514277 54:0.13228963 55:-0.76287127 56:1.8223763 57:0.13524492 58:-0.85308897 59:1.7254105 60:-0.0088503212 61:0.52956432 62:1.7972298 63:-0.17930323 64:-0.17394577 65:1.7247257 66:-0.14269805 67:-0.10056305 68:1.6927357 69:0.17337708 70:0.63766605 71:1.4740219 72:0.14656298 73:0.58761919 74:1.5497932 
-10 0 0 0 10 0 0 0 0 0:0.011873208 1:-0.01461181 2:1.7947793 3:0 4:0.30000001 5:1.8 6:-0.011883408 7:0.60420954 8:1.7939706 9:-0.022379607 10:0.7643441 11:1.7779107 12:-0.18153059 13:0.47568032 14:1.8273129 15:-0.19149524 16:0.21068457 17:1.8319192 18:-0.19480306 19:-0.019545734 20:1.7593293 21:-0.18460947 22:-0.096222162 23:1.7320561 24:0.15645602 25:0.48917344 26:1.7698889 27:0.28770685 28:0.3242158 29:1.677772 30:0.2113515 31:0.52862847 32:1.5666184 33:0.18319757 34:0.61745179 35:1.53263 36:-0.067186207 37:-0.019655436 38:1.7676687 39:-0.071256489 40:-0.3816497 41:1.7677093 42:-0.04022108 43:-0.76226747 44:1.8252654 45:-0.055051073 46:-0.86143982 47:1.7223306 48:0.088349655 49:-0.011590809 50:1.7452717 51:0.13569951 52:-0.36285901 53:1.7515535 54:0.13237518 55:-0.76378548 56:1.8221745 57:0.13526444 58:-0.85338187 59:1.7253337 60:-0.0088809356 61:0.52962005 62:1.7976747 63:-0.18059558 64:-0.17135063 65:1.7117629 66:-0.14105831 67:-0.091466248 68:1.6927614 69:0.1574192 70:0.68214953 71:1.4844918 72:0.1293242 73:0.61342597 74:1.527369 
-10 0 0 0 0.5675185847596608 0 0 0 0 0:0.012170695 1:-0.01426205 2:1.7942319 3:0 4:0.30000001 5:1.8 6:-0.012350045 7:0.60392988 8:1.79462 9:-0.022454929 10:0.76339042 11:1.7786927 12:-0.18055698 13:0.47649726 14:1.827354 15:-0.19099477 16:0.20993569 17:1.8311734 18:-0.19462714 19:-0.02102074 20:1.7582068 21:-0.18404841 22:-0.096153855 23:1.7303605 24:0.155661 25:0.49204335 26:1.7693439 27:0.29381189 28:0.35357323 29:1.6449866 30:0.20387635 31:0.5845722 32:1.546515 33:0.17589438 34:0.65664542 35:1.5247355 36:-0.066855006 37:-0.019516975 38:1.7671876 39:-0.070687838 40:-0.38283694 41:1.7669711 42:-0.03987876 43:-0.76266336 44:1.8246446 45:-0.054713532 46:-0.86209011 47:1.721611 48:0.088610932 49:-0.011040628 50:1.7446256 51:0.13655102 52:-0.36426502 53:1.7514296 54:0.13273835 55:-0.76460111 56:1.8214822 57:0.1357493 58:-0.85418272 59:1.7239904 60:-0.0092142522 61:0.52942085 62:1.7981524 63:-0.18222582 64:-0.16832459 65:1.7135258 66:-0.14060318 67:-0.080731332 68:1.6937881 69:0.1441305 70:0.72585666 71:1.4788456 72:0.12132534 73:0.6644274 74:1.5231557 
-10 0 0 0 0 0 0 0 0 0:0.012619048 1:-0.013763547 2:1.7930806 3:0 4:0.30000001 5:1.8 6:-0.013150871 7:0.60344368 8:1.7964914 9:-0.022786111 10:0.76194566 11:1.7808068 12:-0.18024091 13:0.4753499 14:1.8271587 15:-0.19052181 16:0.20897788 17:1.8298857 18:-0.19429615 19:-0.021646619 20:1.756706 21:-0.18437549 22:-0.098225474 23:1.7305 24:0.15514851 25:0.49582148 26:1.7694294 27:0.29941168 28:0.39052826 29:1.6199739 30:0.18854818 31:0.643112 32:1.5304725 33:0.1666196 34:0.69937772 35:1.5150015 36:-0.066324331 37:-0.019638836 38:1.7659914 39:-0.070256256 40:-0.38496506 41:1.7659652 42:-0.039679147 43:-0.76214927 44:1.8239095 45:-0.05445791 46:-0.86290902 47:1.7203052 48:0.088932209 49:-0.009817332 50:1.7435138 51:0.13714594 52:-0.36457503 53:1.7505782 54:0.13330883 55:-0.76460683 56:1.8208244 57:0.13688082 58:-0.85481244 59:1.7223508 60:-0.0097822398 61:0.52909446 62:1.7994878 63:-0.17938423 64:-0.16989644 65:1.7120178 66:-0.14032747 67:-0.08352682 68:1.694988 69:0.1318689 70:0.75638646 71:1.4546516 72:0.11539952 73:0.70091885 74:1.5165637 
-0 10 0 0 0 0 0 0 0 0:0.014984667 1:-0.012519747 2:1.7913065 3:0 4:0.30000001 5:1.8 6:-0.01597866 7:0.60258245 8:1.7989054 9:-0.024289895 10:0.7613616 11:1.7834654 12:-0.18157625 13:0.47224209 14:1.8296838 15:-0.18896034 16:0.20734331 17:1.8268633 18:-0.19254458 19:-0.027924836 20:1.7479725 21:-0.18099976 22:-0.091496587 23:1.7218785 24:0.15047693 25:0.49993685 26:1.7668867 27:0.28808254 28:0.52471638 29:1.5679836 30:0.17618859 31:0.74193168 32:1.4972625 33:0.14162791 34:0.81959558 35:1.4818792 36:-0.064009123 37:-0.019073844 38:1.7653289 39:-0.069718681 40:-0.3853693 41:1.7640362 42:-0.038629945 43:-0.76526666 44:1.8221159 45:-0.054159679 46:-0.86305165 47:1.7193265 48:0.091718189 49:-0.0075020492 50:1.7399735 51:0.13718382 52:-0.36494103 53:1.7495737 54:0.13365901 55:-0.76683271 56:1.8181882 57:0.13698813 58:-0.85735023 59:1.71978 60:-0.01176504 61:0.52849793 62:1.8012714 63:-0.1790472 64:-0.17678924 65:1.7115545 66:-0.13629146 67:-0.090462357 68:1.6852374 69:0.10480266 70:0.88452673 71:1.4490871 72:0.089651398 73:0.80096173 74:1.4721847 
-0 10 0 0 0 0 0 0 0 0:0.01544679 1:-0.012468696 2:1.7907162 3:0 4:0.30000001 5:1.8 6:-0.01638785 7:0.60260683 8:1.7995033 9:-0.02489312 10:0.7607494 11:1.7847843 12:-0.18097475 13:0.4710834 14:1.8274975 15:-0.18889272 16:0.20695621 17:1.8263001 18:-0.19252503 19:-0.028416902 20:1.746551 21:-0.17920452 22:-0.08925581 23:1.7211385 24:0.14817142 25:0.50389713 26:1.7645965 27:0.26048058 28:0.59263593 29:1.5779204 30:0.17259385 31:0.7805528 32:1.4864411 33:0.13682656 34:0.85921377 35:1.4727845 36:-0.063541181 37:-0.019240916 38:1.7659602 39:-0.069774188 40:-0.38578445 41:1.7634368 42:-0.038650062 43:-0.76495308 44:1.8217244 45:-0.054235905 46:-0.86338162 47:1.7188473 48:0.09285365 49:-0.0067464113 50:1.7377429 51:0.1366576 52:-0.36414737 53:1.7488785 54:0.13363606 55:-0.76700169 56:1.8176122 57:0.13685296 58:-0.85766202 59:1.7196889 60:-0.012082033 61:0.52850699 62:1.8017354 63:-0.17938149 64:-0.17142564 65:1.7038913 66:-0.13634013 67:-0.093084186 68:1.6842256 69:0.10168348 70:0.92717439 71:1.4449039 72:0.080150202 73:0.83853132 74:1.4536605 
-10 0 0 0 10 5.017865727469528 1.54204278440696 0 0 0:0.0098699629 1:-0.012966186 2:1.8007324 3:0 4:0.30000001 5:1.8 6:-0.0098387599 7:0.60325718 8:1.7869737 9:-0.021939028 10:0.76465023 11:1.7718751 12:-0.17985152 13:0.48006412 14:1.8272808 15:-0.19422373 16:0.21189258 17:1.8375862 18:-0.19653405 19:-0.012659192 20:1.7705066 21:-0.18949968 22:-0.091589183 23:1.7475417 24:0.15426843 25:0.49032071 26:1.7694218 27:0.24936552 28:0.29234526 29:1.7056234 30:0.17534156 31:0.50025392 32:1.5639141 33:0.1436715 34:0.56448424 35:1.5338438 36:-0.069055535 37:-0.017664343 38:1.7752206 39:-0.073460333 40:-0.37713078 41:1.77053 42:-0.042928893 43:-0.76419914 44:1.8284366 45:-0.059701651 46:-0.86118186 47:1.7233198 48:0.086195156 49:-0.010038286 50:1.7492044 51:0.13418394 52:-0.35959965 53:1.7578709 54:0.12895329 55:-0.75862718 56:1.826987 57:0.13148592 58:-0.85314262 59:1.7296493 60:-0.0073498189 61:0.52887595 62:1.7924316 63:-0.18640976 64:-0.17125784 65:1.7393181 66:-0.1453643 67:-0.09003678 68:1.7040498 69:0.12309375 70:0.61972666 71:1.5023592 72:0.10697979 73:0.56057906 74:1.5572073 
-10 0 0 0 10 0 0 0 0 0:0.0095866919 1:-0.01293841 2:1.800102 3:0 4:0.30000001 5:1.8 6:-0.0095294118 7:0.60323822 8:1.7878683 9:-0.021938235 10:0.76387376 11:1.7728617 12:-0.17873895 13:0.47935355 14:1.8274329 15:-0.19378905 16:0.21129394 17:1.8364618 18:-0.19654113 19:-0.014411598 20:1.7690504 21:-0.18974724 22:-0.088795781 23:1.7470243 24:0.15390536 25:0.48891717 26:1.768698 27:0.26601034 28:0.29463977 29:1.7454054 30:0.17072698 31:0.50932413 32:1.5612762 33:0.12913255 34:0.58716899 35:1.5334909 36:-0.069475964 37:-0.017418742 38:1.7747643 39:-0.072824486 40:-0.37727416 41:1.7692149 42:-0.042911265 43:-0.76463395 44:1.8275774 45:-0.05949704 46:-0.86226571 47:1.7224691 48:0.086052418 49:-0.010305494 50:1.7484701 51:0.13453335 52:-0.36116543 53:1.7574198 54:0.12906198 55:-0.7593661 56:1.8264506 57:0.13166614 58:-0.85422027 59:1.7288711 60:-0.0071277842 61:0.5288685 62:1.7930896 63:-0.18895675 64:-0.16273466 65:1.7284682 66:-0.1446986 67:-0.080533266 68:1.7037385 69:0.10336941 70:0.64746922 71:1.4936149 72:0.091609851 73:0.58500022 74:1.5519397 
-10 0 0 0 10 7.361628950732086 4.230349744738595 0 0 0:0.009570837 1:-0.01282233 2:1.7995796 3:0 4:0.30000001 5:1.8 6:-0.0095415637 7:0.60301542 8:1.7889152 9:-0.022087798 10:0.76332694 11:1.7742019 12:-0.17483938 13:0.48085153 14:1.8272209 15:-0.19381335 16:0.21076423 17:1.8355451 18:-0.19682008 19:-0.01591906 20:1.7674913 21:-0.18955436 22:-0.09065038 23:1.7449408 24:0.15353459 25:0.48850417 26:1.7681689 27:0.25460976 28:0.35695523 29:1.6027079 30:0.14710447 31:0.56169409 32:1.557128 33:0.11034385 34:0.62862617 35:1.5276523 36:-0.069583133 37:-0.01722914 38:1.7742243 39:-0.072914138 40:-0.375651 41:1.7681594 42:-0.042636298 43:-0.76444614 44:1.8270416 45:-0.058771107 46:-0.86198437 47:1.7235079 48:0.086112492 49:-0.010304183 50:1.747982 51:0.13482019 52:-0.35758698 53:1.7566891 54:0.12912512 55:-0.75943458 56:1.8258467 57:0.13173488 58:-0.85450852 59:1.7283349 60:-0.0071346462 61:0.52872968 62:1.7938366 63:-0.18930395 64:-0.16608883 65:1.7313709 66:-0.14484695 67:-0.089772254 68:1.7020411 69:0.078964613 70:0.68603355 71:1.495225 72:0.069055416 73:0.6310572 74:1.5439353 
-7.760916818273004 0 0 0 10 0 0 0 0 0:0.0093742833 1:-0.013002902 2:1.7986619 3:0 4:0.30000001 5:1.8 6:-0.0091565102 7:0.60304254 8:1.7905328 9:-0.022389803 10:0.76166004 11:1.7761075 12:-0.16924721 13:0.48097694 14:1.8251607 15:-0.19415231 16:0.21127838 17:1.8345611 18:-0.19582248 19:-0.036156625 20:1.7596614 21:-0.18987015 22:-0.093054891 23:1.741679 24:0.14440718 25:0.49216408 26:1.7658718 27:0.25966063 28:0.3710531 29:1.6021001 30:0.13701722 31:0.59766215 32:1.5391853 33:0.10076841 34:0.66587454 35:1.5183303 36:-0.069800161 37:-0.017550886 38:1.7733805 39:-0.073274985 40:-0.37141138 41:1.7665164 42:-0.04272664 43:-0.76509589 44:1.826143 45:-0.058970548 46:-0.86257941 47:1.7224653 48:0.085945971 49:-0.010334909 50:1.7469895 51:0.13468733 52:-0.35820815 53:1.7562578 54:0.12900752 55:-0.75994426 56:1.8248889 57:0.13180155 58:-0.85492676 59:1.7269371 60:-0.0068582222 61:0.52876645 62:1.7950246 63:-0.18597695 64:-0.17074257 65:1.7278702 66:-0.14495844 67:-0.091008484 68:1.7011974 69:0.067268915 70:0.73012441 71:1.4904535 72:0.063292317 73:0.65865928 74:1.5326154 
-0 8.909170494996463 0 0 0 0 0 0 0 0:0.0095797703 1:-0.010610521 2:1.7966101 3:0 4:0.30000001 5:1.8 6:-0.010356233 7:0.60050219 8:1.7926619 9:-0.019698955 10:0.75998193 11:1.7779062 12:-0.16957292 13:0.47802562 14:1.8234293 15:-0.19320239 16:0.20989901 17:1.8321269 18:-0.19433166 19:-0.016780257 20:1.7570174 21:-0.18813398 22:-0.0902991 23:1.7355158 24:0.1526565 25:0.49045783 26:1.7656267 27:0.2308735 28:0.530671 29:1.5474188 30:0.11871714 31:0.71501726 32:1.4977353 33:0.083434127 34:0.78157216 35:1.4820068 36:-0.069771059 37:-0.015588939 38:1.7715728 39:-0.070920892 40:-0.38378742 41:1.7660811 42:-0.04172856 43:-0.76500565 44:1.8247015 45:-0.057377473 46:-0.86435461 47:1.7216089 48:0.086365215 49:-0.0077609718 50:1.7447636 51:0.13509038 52:-0.35886899 53:1.7548316 54:0.13001794 55:-0.76421148 56:1.8221247 57:0.13332835 58:-0.85741597 59:1.7225173 60:-0.0076575726 61:0.52704 62:1.7966244 63:-0.18982589 64:-0.16644621 65:1.717005 66:-0.14507565 67:-0.11441436 68:1.6970613 69:0.037741013 70:0.8449319 71:1.4459136 72:0.040911548 73:0.77472383 74:1.4907572 
-0 10 0 0 0 0 0 0 0 0:0.0097039342 1:-0.0091967881 2:1.795754 3:0 4:0.30000001 5:1.8 6:-0.010388635 7:0.59954941 8:1.7936091 9:-0.018126134 10:0.75820065 11:1.7787604 12:-0.16752376 13:0.48137817 14:1.8239608 15:-0.19239286 16:0.21338019 17:1.831696 18:-0.19486246 19:-0.015770912 20:1.7560115 21:-0.18944667 22:-0.091068506 23:1.7323012 24:0.14941208 25:0.49398783 26:1.7639575 27:0.21896024 28:0.56680453 29:1.5521264 30:0.11100174 31:0.76435268 32:1.4767256 33:0.075802609 34:0.82661402 35:1.4662957 36:-0.069805339 37:-0.014640659 38:1.7717371 39:-0.070397347 40:-0.38515502 41:1.7652564 42:-0.041325033 43:-0.76764345 44:1.8241467 45:-0.057487484 46:-0.86534476 47:1.7200446 48:0.086681202 49:-0.0054349005 50:1.7427707 51:0.1348107 52:-0.35794491 53:1.7537327 54:0.13016333 55:-0.7652092 56:1.8210669 57:0.13340718 58:-0.85862064 59:1.7218547 60:-0.0076930225 61:0.52630627 62:1.7973008 63:-0.18999535 64:-0.16592631 65:1.7134814 66:-0.14450575 67:-0.10153049 68:1.6965108 69:0.028206974 70:0.88634717 71:1.4302282 72:0.036630362 73:0.81886899 74:1.4726329 
-0 10 0 0 0 0 0 0 0 0:0.0096338317 1:-0.0090922415 2:1.795197 3:0 4:0.30000001 5:1.8 6:-0.0099969655 7:0.59937596 8:1.7946949 9:-0.017881997 10:0.75762987 11:1.7792568 12:-0.17004441 13:0.47751144 14:1.8211012 15:-0.19244608 16:0.21317461 17:1.8313532 18:-0.19522607 19:-0.015583366 20:1.7550149 21:-0.1900416 22:-0.088304132 23:1.7308922 24:0.14941067 25:0.49398139 26:1.7636919 27:0.21478254 28:0.58392155 29:1.555891 30:0.10770913 31:0.78578162 32:1.4690065 33:0.071487613 34:0.86098671 35:1.4524384 36:-0.070014544 37:-0.014766127 38:1.7714596 39:-0.070540063 40:-0.38557634 41:1.7649584 42:-0.041551895 43:-0.76793909 44:1.8237395 45:-0.057561979 46:-0.86568332 47:1.7193604 48:0.087049134 49:-0.0048440695 50:1.7413511 51:0.1342043 52:-0.35697183 53:1.7531185 54:0.12998241 55:-0.76492226 56:1.8208919 57:0.13325542 58:-0.85873604 59:1.7212343 60:-0.0074244887 61:0.52617228 62:1.7980847 63:-0.19069391 64:-0.16527453 65:1.709074 66:-0.14410785 67:-0.10473496 68:1.6951466 69:0.031476647 70:0.92159343 71:1.4048052 72:0.019254461 73:0.86295938 74:1.4501328 
-0 10 0 0 0 0 0 0 0 0:0.0099177808 1:-0.0087971985 2:1.7956533 3:0 4:0.30000001 5:1.8 6:-0.011023454 7:0.59822541 8:1.7919574 9:-0.017775096 10:0.75703394 11:1.7817216 12:-0.17121059 13:0.47599548 14:1.8214097 15:-0.19227961 16:0.21316952 17:1.8317699 18:-0.19508462 19:-0.01556018 20:1.7552876 21:-0.18840811 22:-0.086935729 23:1.7312255 24:0.15001845 25:0.4951995 26:1.7647452 27:0.20872867 28:0.6196208 29:1.5649047 30:0.10953904 31:0.79426801 32:1.4665236 33:0.070504792 34:0.89011157 35:1.4425511 36:-0.06972383 37:-0.014422327 38:1.7726207 39:-0.070455156 40:-0.3855139 41:1.7655025 42:-0.041537184 43:-0.76795304 44:1.8243241 45:-0.057479642 46:-0.86561906 47:1.7199006 48:0.087463595 49:-0.004426837 50:1.7412996 51:0.1342206 52:-0.35675484 53:1.753571 54:0.12994754 55:-0.76491135 56:1.821578 57:0.13346869 58:-0.85861826 59:1.7215743 60:-0.0080945492 61:0.525406 62:1.7963538 63:-0.1882441 64:-0.16815844 65:1.7037644 66:-0.1430108 67:-0.099458098 68:1.6963315 69:0.035574935 70:0.95548809 71:1.3979793 72:0.014237359 73:0.90235555 74:1.4362397 
-10 -10 7.298424140128633 8.038198799723647 10 0 0 3.408536611380835 6.296510523823 0:0.016007006 1:-0.012162238 2:1.7902694 3:0 4:0.30000001 5:1.8 6:-0.01680135 7:0.60232103 8:1.7996793 9:-0.025178935 10:0.7599597 11:1.7863541 12:-0.18047515 13:0.4702011 14:1.8255234 15:-0.18854688 16:0.20744529 17:1.826097 18:-0.19232087 19:-0.026195556 20:1.7463684 21:-0.17890283 22:-0.089835852 23:1.7220621 24:0.14579298 25:0.509642 26:1.7632513 27:0.25734848 28:0.61043179 29:1.5760131 30:0.17124198 31:0.79842031 32:1.4826188 33:0.13421299 34:0.89243436 35:1.4612503 36:-0.062877245 37:-0.01897189 38:1.76754 39:-0.069685429 40:-0.38621771 41:1.7628922 42:-0.038506784 43:-0.76481867 44:1.8209467 45:-0.054281443 46:-0.86396348 47:1.7181454 48:0.093601063 49:-0.0059077442 50:1.7359171 51:0.13635874 52:-0.36393768 53:1.7483382 54:0.133716 55:-0.76665831 56:1.8176837 57:0.13686246 58:-0.8580668 59:1.7189417 60:-0.012415729 61:0.52828109 62:1.8018923 63:-0.17901218 64:-0.17398667 65:1.7077484 66:-0.13278309 67:-0.08418715 68:1.6825781 69:0.097900048 70:0.9648385 71:1.4298449 72:0.073185951 73:0.88514483 74:1.4478397 
-10 -10 0 0 1.780839798648173 0 0 0 0 0:0.016516805 1:-0.011766553 2:1.7895958 3:0 4:0.30000001 5:1.8 6:-0.017279573 7:0.60213172 8:1.8001354 9:-0.025145993 10:0.75925493 11:1.7866132 12:-0.18002021 13:0.46939829 14:1.8245552 15:-0.1880517 16:0.20776692 17:1.8258464 18:-0.19112113 19:-0.022900969 20:1.7459142 21:-0.17708856 22:-0.090589762 23:1.717447 24:0.14506331 25:0.51426196 26:1.7611954 27:0.25150794 28:0.63492095 29:1.5778353 30:0.16811767 31:0.81530833 32:1.4749281 33:0.13446793 34:0.91373336 35:1.4508398 36:-0.062357802 37:-0.018980443 38:1.7681563 39:-0.068944387 40:-0.38685507 41:1.7625568 42:-0.038217064 43:-0.76601517 44:1.8205097 45:-0.05329144 46:-0.86398649 47:1.7186067 48:0.093929864 49:-0.0044512451 50:1.7329042 51:0.13637835 52:-0.36272106 53:1.7469509 54:0.13395327 55:-0.76654899 56:1.817126 57:0.13711578 58:-0.85856354 59:1.7179554 60:-0.012784183 61:0.52813089 62:1.8022401 63:-0.17600325 64:-0.16578001 65:1.6970451 66:-0.1332092 67:-0.092708468 68:1.6759326 69:0.11069546 70:0.98249948 71:1.4306056 72:0.073887922 73:0.91281569 74:1.4267867 
-0 -10 0 0 0 0 0 0 0 0:0.016304284 1:-0.011262029 2:1.7913747 3:0 4:0.30000001 5:1.8 6:-0.016176149 7:0.59984344 8:1.7937341 9:-0.025403515 10:0.75917912 11:1.7888131 12:-0.17987631 13:0.46941376 14:1.8285098 15:-0.18770906 16:0.20887554 17:1.8279305 18:-0.19085294 19:-0.021070242 20:1.747674 21:-0.17705272 22:-0.092353135 23:1.7182889 24:0.14553156 25:0.51378697 26:1.7627482 27:0.2457217 28:0.65234149 29:1.5826817 30:0.16469482 31:0.86380255 32:1.4644642 33:0.1299974 34:0.95275772 35:1.4391255 36:-0.062573746 37:-0.01864028 38:1.7704072 39:-0.068885736 40:-0.38673767 41:1.7645621 42:-0.038345736 43:-0.76593256 44:1.8224826 45:-0.053840891 46:-0.86451322 47:1.7193255 48:0.093544193 49:-0.0039454997 50:1.7341013 51:0.13610369 52:-0.3620345 53:1.7484384 54:0.13378885 55:-0.76642549 56:1.8191495 57:0.13697046 58:-0.85838425 59:1.7201657 60:-0.012120366 61:0.52661622 62:1.7979856 63:-0.17756648 64:-0.16581911 65:1.7014275 66:-0.13596682 67:-0.092687994 68:1.6842289 69:0.096640266 70:1.0190388 71:1.4006648 72:0.074699737 73:0.93565428 74:1.4200959 
-0 -10 0 0 0 0 0 0 0 0:0.016282395 1:-0.0099533498 2:1.7901912 3:0 4:0.30000001 5:1.8 6:-0.016412184 7:0.59988296 8:1.7955947 9:-0.025060877 10:0.75743318 11:1.7888255 12:-0.17914897 13:0.46927682 14:1.8306074 15:-0.18666464 16:0.20854154 17:1.8274055 18:-0.1899215 19:-0.022918552 20:1.7469621 21:-0.1753066 22:-0.098410249 23:1.7172589 24:0.1435468 25:0.52144217 26:1.762023 27:0.23702265 28:0.67446613 29:1.5823007 30:0.15627432 31:0.90285563 32:1.4522147 33:0.13144061 34:0.97685862 35:1.4276681 36:-0.062383264 37:-0.01818943 38:1.7705741 39:-0.068084553 40:-0.38694748 41:1.7635856 42:-0.037896238 43:-0.76767874 44:1.8221965 45:-0.053388324 46:-0.8663038 47:1.7190628 48:0.093007118 49:-0.0024645627 50:1.7316165 51:0.13639595 52:-0.35940304 53:1.7458711 54:0.13425155 55:-0.76789427 56:1.8187671 57:0.13733788 58:-0.86014998 59:1.7200723 60:-0.012244992 61:0.5264529 62:1.7991033 63:-0.17662671 64:-0.17275776 65:1.7051392 66:-0.13185021 67:-0.094328552 68:1.6807566 69:0.09824425 70:1.0437326 71:1.3848414 72:0.075237721 73:0.9614234 74:1.4117055 
-0 -10 0 0 0 0 0 0 0 0:0.01627174 1:-0.0083498359 2:1.7894104 3:0 4:0.30000001 5:1.8 6:-0.016421188 7:0.59928954 8:1.7968147 9:-0.025195755 10:0.75653946 11:1.7889135 12:-0.17936361 13:0.46919069 14:1.8315914 15:-0.18638107 16:0.20775405 17:1.8271377 18:-0.18953434 19:-0.022915751 20:1.7467 21:-0.17321667 22:-0.10121009 23:1.7185552 24:0.14204764 25:0.52563787 26:1.7615097 27:0.23024341 28:0.68423152 29:1.5839074 30:0.1569159 31:0.90869272 32:1.4505608 33:0.13252434 34:0.99016583 35:1.4238584 36:-0.062330995 37:-0.01734525 38:1.7705142 39:-0.067689657 40:-0.3869614 41:1.7631147 42:-0.038014553 43:-0.76712477 44:1.8217533 45:-0.053325564 46:-0.86712217 47:1.7187984 48:0.092767335 49:-0.00068119168 50:1.7303178 51:0.13623247 52:-0.35670006 53:1.7441776 54:0.13418707 55:-0.76848948 56:1.8181555 57:0.13743287 58:-0.86089289 59:1.7201688 60:-0.012253828 61:0.52599001 62:1.7998326 63:-0.17234261 64:-0.1744563 65:1.7047484 66:-0.129005 67:-0.10352603 68:1.6750305 69:0.099825002 70:1.0567476 71:1.3858716 72:0.07862585 73:0.96981084 74:1.4071319 
-0 -10 0 0 0 0 0 0 0 0:0.016370185 1:-0.0074996352 2:1.7886376 3:0 4:0.30000001 5:1.8 6:-0.016564876 7:0.59873962 8:1.7977982 9:-0.024985753 10:0.75515616 11:1.7889485 12:-0.17889297 13:0.46854177 14:1.8327589 15:-0.18529771 16:0.20552227 17:1.82724 18:-0.18897073 19:-0.024430126 20:1.7464237 21:-0.17272368 22:-0.10206196 23:1.719183 24:0.14178216 25:0.52883756 26:1.7604856 27:0.22368592 28:0.69441056 29:1.5835629 30:0.15930775 31:0.91130722 32:1.4488974 33:0.13438994 34:0.9981128 35:1.420207 36:-0.06200137 37:-0.016664356 38:1.7705059 39:-0.067150556 40:-0.38813069 41:1.7628803 42:-0.037360854 43:-0.76767015 44:1.821907 45:-0.051924117 46:-0.86767983 47:1.7199612 48:0.092516936 49:1.552701e-05 50:1.7290039 51:0.13619727 52:-0.35353437 53:1.7414665 54:0.13463718 55:-0.76962149 56:1.8177795 57:0.13785246 58:-0.86224926 59:1.7199631 60:-0.012346409 61:0.52552211 62:1.8005219 63:-0.17028424 64:-0.17569199 65:1.7017584 66:-0.13141589 67:-0.097149909 68:1.6799641 69:0.10537639 70:1.0595616 71:1.370183 72:0.076050334 73:0.98472154 74:1.4072485 
-0 -10 0 0 0 0 0 0 0 0:0.016035534 1:-0.0067740381 2:1.7882667 3:0 4:0.30000001 5:1.8 6:-0.016312722 7:0.59826791 8:1.7982993 9:-0.024908774 10:0.75452995 11:1.7893109 12:-0.17850164 13:0.46845546 14:1.8348432 15:-0.18493496 16:0.20486948 17:1.8274221 18:-0.18821305 19:-0.022938162 20:1.7476196 21:-0.17205706 22:-0.1033524 23:1.7207427 24:0.14026996 25:0.53089905 26:1.7603202 27:0.21938512 28:0.70558643 29:1.5822997 30:0.16045237 31:0.91645432 32:1.4482484 33:0.13548163 34:1.0063384 35:1.4162169 36:-0.062091861 37:-0.016092569 38:1.7704754 39:-0.066718042 40:-0.38821736 41:1.7625151 42:-0.037254013 43:-0.76834321 44:1.8216362 45:-0.051955923 46:-0.86843646 47:1.7196136 48:0.091866992 49:0.00068107247 50:1.7284465 51:0.13626194 52:-0.35421205 53:1.7412448 54:0.13476819 55:-0.770208 56:1.8175893 57:0.13781032 58:-0.8628726 59:1.7200694 60:-0.012174591 61:0.52514219 62:1.8008623 63:-0.17215945 64:-0.17521867 65:1.7079954 66:-0.12888223 67:-0.089957356 68:1.6811228 69:0.1098484 70:1.0669377 71:1.3717074 72:0.07776957 73:0.99098253 74:1.405231 
-0 -10 0 0 0 6.519054106247907 3.911310533147272 0 0 0:0.010126583 1:-0.0089822114 2:1.7952697 3:0 4:0.30000001 5:1.8 6:-0.011188127 7:0.59875107 8:1.7926815 9:-0.018027253 10:0.75610745 11:1.7821562 12:-0.17183381 13:0.47401443 14:1.8206685 15:-0.19216767 16:0.21237269 17:1.8314278 18:-0.19533136 19:-0.01603201 20:1.754916 21:-0.18960068 22:-0.088663816 23:1.73155 24:0.14989254 25:0.49594042 26:1.7646105 27:0.19664919 28:0.65591979 29:1.5691621 30:0.10281483 31:0.82247782 32:1.4513843 33:0.056955792 34:0.93520093 35:1.4233525 36:-0.069731526 37:-0.014714539 38:1.7726285 39:-0.070509568 40:-0.38531128 41:1.7652142 42:-0.041621294 43:-0.76879358 44:1.8241699 45:-0.057584926 46:-0.86628664 47:1.7196815 48:0.087989397 49:-0.0044793189 50:1.7404358 51:0.13382268 52:-0.35706052 53:1.7530887 54:0.12993661 55:-0.76560962 56:1.8212235 57:0.13343573 58:-0.85868526 59:1.7208421 60:-0.0082269609 61:0.52569747 62:1.7968132 63:-0.18735573 64:-0.16886264 65:1.7050121 66:-0.14323819 67:-0.09844631 68:1.6949499 69:0.019398861 70:1.0023909 71:1.3848822 72:0.0075708628 73:0.92342758 74:1.4185593 
-0 -10 0 0 0 0 0 0 0 0:0.010762565 1:-0.0086210072 2:1.7943354 3:0 4:0.30000001 5:1.8 6:-0.011433348 7:0.59882915 8:1.7936487 9:-0.018800192 10:0.75410879 11:1.782043 12:-0.17283887 13:0.47187808 14:1.820044 15:-0.19223534 16:0.21012458 17:1.8306279 18:-0.19638857 19:-0.016486883 20:1.7539639 21:-0.19210471 22:-0.090592653 23:1.7308173 24:0.14470793 25:0.50407517 26:1.762466 27:0.18981245 28:0.66773784 29:1.576942 30:0.086248815 31:0.89040625 32:1.4334216 33:0.050074503 34:0.96148765 35:1.4090462 36:-0.069016851 37:-0.014947832 38:1.7721872 39:-0.071228676 40:-0.38625249 41:1.7647252 42:-0.042174406 43:-0.77099252 44:1.8234859 45:-0.057701994 46:-0.86739099 47:1.7206197 48:0.088265896 49:-0.0039361417 50:1.739151 51:0.13289824 52:-0.35870495 53:1.7524586 54:0.12926309 55:-0.76739454 56:1.8206859 57:0.13258174 58:-0.86073327 59:1.7205858 60:-0.0084486604 61:0.52565718 62:1.7974777 63:-0.19127961 64:-0.16525662 65:1.7157178 66:-0.1443187 67:-0.0879004 68:1.6983333 69:0.016002864 70:1.0198687 71:1.3612523 72:-0.00062428415 73:0.95385444 74:1.403708 
-0 -10 0 0 0 0 0 0 0 0:0.01192335 1:-0.0045512915 2:1.7941744 3:0 4:0.30000001 5:1.8 6:-0.012014747 7:0.59676856 8:1.7935469 9:-0.019402459 10:0.75186867 11:1.782501 12:-0.17325865 13:0.47070426 14:1.8254797 15:-0.19278827 16:0.20777309 17:1.8304126 18:-0.19713393 19:-0.018826485 20:1.7534139 21:-0.19249758 22:-0.09529838 23:1.7316458 24:0.13673332 25:0.53535378 26:1.7569654 27:0.17758045 28:0.69323295 29:1.5797465 30:0.08130087 31:0.90567797 32:1.4294255 33:0.046396866 34:0.97983116 35:1.4020846 36:-0.067023225 37:-0.012405246 38:1.7730954 39:-0.072037891 40:-0.3879067 41:1.7643054 42:-0.043167159 43:-0.77234566 44:1.8233321 45:-0.058027536 46:-0.86933583 47:1.7213738 48:0.088282138 49:0.001489222 50:1.7379878 51:0.13196541 52:-0.36107931 53:1.75228 54:0.12824968 55:-0.77179629 56:1.8198988 57:0.13181514 58:-0.86355412 59:1.7192404 60:-0.0089396313 61:0.5238831 62:1.7974122 63:-0.19682524 64:-0.16674946 65:1.7111313 66:-0.14545701 67:-0.084342122 68:1.7003591 69:0.0053659454 70:1.0454357 71:1.3597806 72:-0.0055935681 73:0.96221036 74:1.392617 
-0 -10 0 0 0 0 0 0 0 0:0.011144795 1:-0.0042181611 2:1.7934325 3:0 4:0.30000001 5:1.8 6:-0.011334144 7:0.59590685 8:1.7941878 9:-0.020111211 10:0.74916273 11:1.7826426 12:-0.1743487 13:0.4679684 14:1.8247278 15:-0.1934689 16:0.20494181 17:1.8304722 18:-0.19888839 19:-0.020705044 20:1.7540228 21:-0.19338305 22:-0.099191099 23:1.7329571 24:0.13739246 25:0.53041673 26:1.7581694 27:0.17178449 28:0.71355659 29:1.5651028 30:0.075276203 31:0.91548997 32:1.42646 33:0.043133236 34:0.9898203 35:1.3941967 36:-0.067617036 37:-0.012662292 38:1.7728217 39:-0.072767928 40:-0.39098594 41:1.7644498 42:-0.044010755 43:-0.77523506 44:1.8232796 45:-0.058933623 46:-0.87206608 47:1.7211721 48:0.087260418 49:0.0019951761 50:1.736892 51:0.13098863 52:-0.36369419 53:1.7521222 54:0.12733042 55:-0.77511221 56:1.8198001 57:0.13102636 58:-0.8665691 59:1.719312 60:-0.0084459707 61:0.52322716 62:1.7979004 63:-0.19802901 64:-0.17528841 65:1.7070558 66:-0.14609893 67:-0.099372089 68:1.6976616 69:0.0044968054 70:1.0531642 71:1.346699 72:-0.010036193 73:0.97146684 74:1.3781798 
