svm_type c_svc
kernel_type rbf
gamma 0.1
nr_class 14
total_sv 446
rho 2.07004 0.0500355 -0.0153264 0 0.270968 -0.021255 0 -0.102738 -0.0983722 0 -0.0455934 0 -0.0258583 -0.413973 -0.0321133 -0.0142851 -0.0622445 -0.121265 -0.110907 -0.272905 -0.132158 0.0247404 0.0846756 0.0677392 -0.461694 -0.343149 0.0521705 -0.170695 -0.282404 -0.204378 -0.0238416 -0.10232 -0.241283 -0.0614104 0.00853929 -0.0844699 -0.0358227 0.075476 0 -0.106511 0.0898455 -0.0175771 -0.00539305 0 -0.077536 -0.00137359 0.101648 0.0174977 0 0.0663385 0.107954 0.0458187 0.0330164 -0.000689094 0.042622 0.308926 -0.192565 0.0234739 -0.0330713 -0.00233978 -0.296693 -0.131286 -0.272905 -0.0979858 0.00779897 0 0 0.0177631 0.014483 0.242124 0 0 0 0.0730508 0.000953078 0.192087 0.135265 -0.081048 -0.17474 -0.0890042 -0.00480443 0.348942 -0.0120905 -0.0867026 0.0872739 0 0.00721476 0.165786 0.30514 -0.0177941 -0.0371251
label 10 30 21 22 23 31 32 33 41 42 43 52 53 51
nr_sv 21 73 40 36 14 28 39 26 29 31 27 29 25 28
SV
10 0 0 0 0 0 0 0 0 0 0 0 0 0:0.0065883659 1:-0.012303658 2:1.7392318 3:0 4:0.30000001 5:1.8 6:-0.0066591613 7:0.60264158 8:1.8467886 9:-0.016408309 10:0.75860226 11:1.8549783 12:-0.17847995 13:0.4673093 14:1.8516943 15:-0.19968027 16:0.19697371 17:1.8231809 18:-0.2065832 19:-0.011481829 20:1.7170584 21:-0.19946499 22:-0.087848581 23:1.673281 24:0.13322023 25:0.48430535 26:1.8023307 27:0.19642945 28:0.52625906 29:1.5700123 30:0.12734441 31:0.55640161 32:1.3300853 33:0.099376708 34:0.56903476 35:1.2290444 36:-0.073969051 37:-0.014786251 38:1.7131398 39:-0.088063903 40:-0.37199709 41:1.6405089 42:-0.080814973 43:-0.74549788 44:1.6575143 45:-0.082217053 46:-0.82234401 47:1.5830271 48:0.085751653 49:-0.00098729879 50:1.6906464 51:0.12865193 52:-0.35586217 53:1.642978 54:0.12176703 55:-0.73181027 56:1.655616 57:0.12092954 58:-0.80441326 59:1.5723808 60:-0.004936073 61:0.52833188 62:1.8374741 63:-0.18998082 64:-0.16357338 65:1.6503346 66:-0.1599119 67:-0.078106709 68:1.6325085 69:0.083149776 70:0.57651055 71:1.1457555 72:0.061625589 73:0.53157103 74:1.2054539 
10 10 1.188457988222277 0 10 0 0 10 0 0 0 0 0 0:0.0066664964 1:-0.012245158 2:1.7392037 3:0 4:0.30000001 5:1.8 6:-0.006742809 7:0.60251302 8:1.8468673 9:-0.016139459 10:0.75847703 11:1.8550079 12:-0.17852296 13:0.46721372 14:1.8518479 15:-0.19969603 16:0.19698115 17:1.8232052 18:-0.20638661 19:-0.01151667 20:1.7171586 21:-0.19906768 22:-0.086838104 23:1.6714289 24:0.13310292 25:0.48443368 26:1.8023255 27:0.19279605 28:0.52610326 29:1.5689642 30:0.12666087 31:0.55639833 32:1.3260522 33:0.10037258 34:0.56855518 35:1.2294166 36:-0.073867634 37:-0.014763514 38:1.7131903 39:-0.08792913 40:-0.37259117 41:1.6408503 42:-0.080801427 43:-0.74543941 44:1.6575024 45:-0.082231686 46:-0.82228744 47:1.5830204 48:0.085860468 49:-0.00087318756 50:1.6905029 51:0.12879109 52:-0.35591444 53:1.6429951 54:0.12183066 55:-0.73221421 56:1.6555879 57:0.12092485 58:-0.80480242 59:1.5723364 60:-0.0049923733 61:0.52823216 62:1.8375299 63:-0.19823505 64:-0.15686826 65:1.6531641 66:-0.15890974 67:-0.081200756 68:1.6295836 69:0.089627326 70:0.5756256 71:1.1453707 72:0.061879411 73:0.53057164 74:1.2003205 
10 10 0 0 0 0 0 10 0 0 0 0 10 0:0.0066090673 1:-0.012080707 2:1.7391033 3:0 4:0.30000001 5:1.8 6:-0.0066329129 7:0.60216337 8:1.8471475 9:-0.016185047 10:0.75853544 11:1.8549337 12:-0.17865136 13:0.46743008 14:1.8518758 15:-0.19966933 16:0.19711915 17:1.8233366 18:-0.20651236 19:-0.011388727 20:1.7173243 21:-0.199386 22:-0.086272545 23:1.6741619 24:0.13297349 25:0.48458967 26:1.8022299 27:0.19188756 28:0.52603662 29:1.5686159 30:0.12603197 31:0.55642575 32:1.3244996 33:0.10051539 34:0.56892389 35:1.2288632 36:-0.073938951 37:-0.014616884 38:1.7130766 39:-0.088004254 40:-0.37277082 41:1.6408048 42:-0.080911651 43:-0.7455529 44:1.6577611 45:-0.082354739 46:-0.82218957 47:1.5828142 48:0.085824408 49:-0.00069332868 50:1.6904206 51:0.12870261 52:-0.35575047 53:1.6430192 54:0.12168431 55:-0.73209488 56:1.6554871 57:0.12086714 58:-0.80469322 59:1.5722566 60:-0.0049132146 61:0.52796453 62:1.8377323 63:-0.19298336 64:-0.16234589 65:1.6532316 66:-0.15955487 67:-0.078663923 68:1.6316862 69:0.083549902 70:0.57582992 71:1.1442361 72:0.061682247 73:0.53282231 74:1.2028494 
10 10 0 0 0 0 0 10 10 0 0 0 0 0:0.0066392906 1:-0.012061948 2:1.7390647 3:0 4:0.30000001 5:1.8 6:-0.0066610519 7:0.60220748 8:1.8472285 9:-0.016040791 10:0.75854367 11:1.8548422 12:-0.17864202 13:0.46732229 14:1.8518682 15:-0.1995201 16:0.19720656 17:1.8232837 18:-0.2064492 19:-0.01093095 20:1.7164683 21:-0.1994542 22:-0.086604558 23:1.6725054 24:0.13294286 25:0.48451066 26:1.8021145 27:0.19708574 28:0.52546722 29:1.5698771 30:0.12834077 31:0.55537319 32:1.3325424 33:0.1009932 34:0.56863195 35:1.2274718 36:-0.073842928 37:-0.014574224 38:1.7133112 39:-0.087939635 40:-0.3734585 41:1.6409793 42:-0.080927446 43:-0.74565625 44:1.6576934 45:-0.082349733 46:-0.82224679 47:1.582643 48:0.085839197 49:-0.00066211261 50:1.6902528 51:0.12870128 52:-0.35585684 53:1.6429119 54:0.12155505 55:-0.73242116 56:1.6555066 57:0.1208407 58:-0.80491328 59:1.5720983 60:-0.0049365573 61:0.52798527 62:1.8377905 63:-0.20054372 64:-0.1560877 65:1.6470513 66:-0.15832819 67:-0.081142597 68:1.6275449 69:0.086518541 70:0.57424343 71:1.1407676 72:0.059982825 73:0.53014594 74:1.1997874 
10 0 0 0 0 0 0 0 0 0 0 0 0 0:0.0066228285 1:-0.012040362 2:1.7390192 3:0 4:0.30000001 5:1.8 6:-0.0066150241 7:0.60223138 8:1.8472807 9:-0.015982609 10:0.75833702 11:1.8547275 12:-0.17878982 13:0.4672789 14:1.8518751 15:-0.19959034 16:0.1970434 17:1.8233335 18:-0.20616449 19:-0.011265442 20:1.7168653 21:-0.19962685 22:-0.087384656 23:1.6726921 24:0.13287939 25:0.4844445 26:1.8021204 27:0.19242731 28:0.5252977 29:1.5685651 30:0.12899934 31:0.55496943 32:1.3348975 33:0.10066657 34:0.56830895 35:1.2295663 36:-0.073862717 37:-0.014567629 38:1.7132285 39:-0.088111654 40:-0.37406367 41:1.641227 42:-0.081089765 43:-0.74571592 44:1.6577404 45:-0.082507193 46:-0.82228738 47:1.582648 48:0.085821599 49:-0.00063867867 50:1.6902354 51:0.12871723 52:-0.35622001 53:1.6429393 54:0.12158287 55:-0.73259503 56:1.6554887 57:0.12052868 58:-0.80520624 59:1.5722835 60:-0.0049112216 61:0.52799255 62:1.8378303 63:-0.19979972 64:-0.15688263 65:1.6513369 66:-0.15844457 67:-0.087562874 68:1.6268141 69:0.084543586 70:0.57685506 71:1.1463909 72:0.061596062 73:0.53063446 74:1.2030222 
10 2.39908941801321 0 0 10 0 0 0 0 0 0 0 0 0:0.00659113 1:-0.011922725 2:1.7388668 3:0 4:0.30000001 5:1.8 6:-0.0065771453 7:0.60202843 8:1.8476286 9:-0.015818551 10:0.75843042 11:1.8544559 12:-0.17832397 13:0.46744752 14:1.8515186 15:-0.19965738 16:0.19733739 17:1.8233757 18:-0.20650154 19:-0.010908581 20:1.7167897 21:-0.19956969 22:-0.085966296 23:1.671741 24:0.13274109 25:0.48450077 26:1.8019972 27:0.19219886 28:0.52575928 29:1.5684938 30:0.12651859 31:0.55529124 32:1.3277538 33:0.099760547 34:0.56825775 35:1.2282434 36:-0.073906399 37:-0.014455743 38:1.7130532 39:-0.088145889 40:-0.37432218 41:1.6412458 42:-0.081207268 43:-0.74561536 44:1.6575699 45:-0.082600206 46:-0.8221699 47:1.5824394 48:0.085801423 49:-0.00052333623 50:1.6901054 51:0.12875915 52:-0.35619777 53:1.6427941 54:0.12190591 55:-0.73165596 56:1.6552925 57:0.12052301 58:-0.80457175 59:1.5725965 60:-0.0048823357 61:0.52783328 62:1.8380823 63:-0.19855171 64:-0.1544489 65:1.6493626 66:-0.16066469 67:-0.079233266 68:1.6311159 69:0.084444672 70:0.57282597 71:1.1393137 72:0.064149424 73:0.53942853 74:1.2183082 
10 0 0 0 3.75854908648448 0 0 0 0 0 0 0 10 0:0.0066508055 1:-0.011867808 2:1.738843 3:0 4:0.30000001 5:1.8 6:-0.0066196546 7:0.60199851 8:1.8476834 9:-0.015802108 10:0.75840992 11:1.8544016 12:-0.17824401 13:0.46773145 14:1.8516688 15:-0.19963135 16:0.19746675 17:1.8234968 18:-0.20576958 19:-0.011145519 20:1.717658 21:-0.20033592 22:-0.086743966 23:1.6735163 24:0.13277088 25:0.48436981 26:1.8019004 27:0.19134979 28:0.52571863 29:1.5681777 30:0.12752268 31:0.55477077 32:1.3313985 33:0.09978883 34:0.56880409 35:1.2282996 36:-0.073835328 37:-0.014395135 38:1.7129927 39:-0.088088989 40:-0.3746236 41:1.6413517 42:-0.081217021 43:-0.74537992 44:1.6574883 45:-0.082601726 46:-0.82205069 47:1.5826073 48:0.085851207 49:-0.00048046 50:1.6901112 51:0.1287864 52:-0.35634881 53:1.6428967 54:0.12181373 55:-0.73173976 56:1.6553411 57:0.12046711 58:-0.80452681 59:1.5724187 60:-0.0049130134 61:0.52780694 62:1.8381252 63:-0.19997154 64:-0.15684567 65:1.6515613 66:-0.15910012 67:-0.078943536 68:1.6301374 69:0.081206337 70:0.57505649 71:1.14394 72:0.062318441 73:0.53523213 74:1.2101753 
10 0 0 0 0 0 0 10 0 0 0 0 0 0:0.0066598728 1:-0.011834525 2:1.7388048 3:0 4:0.30000001 5:1.8 6:-0.0066270344 7:0.60197651 8:1.8477383 9:-0.015688607 10:0.75836509 11:1.854341 12:-0.17823887 13:0.46780747 14:1.8523583 15:-0.19940495 16:0.19693172 17:1.8237286 18:-0.20528945 19:-0.011465423 20:1.7174063 21:-0.19964242 22:-0.086933069 23:1.6730409 24:0.13274194 25:0.48435068 26:1.8018608 27:0.18913011 28:0.52557552 29:1.5675416 30:0.12879416 31:0.5548228 32:1.335644 33:0.098829076 34:0.56837428 35:1.2295694 36:-0.073803738 37:-0.014359377 38:1.7128887 39:-0.087994531 40:-0.3749423 41:1.6414566 42:-0.081427276 43:-0.74636692 44:1.6579504 45:-0.082650892 46:-0.8226046 47:1.5821419 48:0.085870087 49:-0.0004511103 50:1.6901321 51:0.1288055 52:-0.35636055 53:1.6429577 54:0.12153059 55:-0.73263496 56:1.6549721 57:0.12052239 58:-0.80516642 59:1.5716362 60:-0.0049186908 61:0.52778471 62:1.8381681 63:-0.19688609 64:-0.15695572 65:1.650569 66:-0.16061459 67:-0.081811003 68:1.6297455 69:0.085409731 70:0.57853484 71:1.152535 72:0.05971561 73:0.52822369 74:1.1916859 
10 0 0 0 0 0 0 0 0 0 0 0 0 0:0.006656196 1:-0.01180606 2:1.7387731 3:0 4:0.30000001 5:1.8 6:-0.0066162311 7:0.60198855 8:1.8477781 9:-0.015689304 10:0.75828665 11:1.8543041 12:-0.17815059 13:0.46769896 14:1.8525541 15:-0.19929968 16:0.19749279 17:1.8239143 18:-0.20520781 19:-0.010896225 20:1.7175701 21:-0.20013745 22:-0.087129548 23:1.6724956 24:0.132763 25:0.4843168 26:1.8018072 27:0.18874727 28:0.52548379 29:1.567374 30:0.12704557 31:0.55495244 32:1.3300357 33:0.10019591 34:0.56887299 35:1.2303693 36:-0.073797956 37:-0.014349271 38:1.7128408 39:-0.08786194 40:-0.37529424 41:1.6415279 42:-0.081502296 43:-0.7463094 44:1.6579411 45:-0.082514197 46:-0.82252669 47:1.5820763 48:0.085849702 49:-0.00041695312 50:1.6901147 51:0.12884879 52:-0.35595915 53:1.642905 54:0.12166566 55:-0.73294818 56:1.6547506 57:0.12041074 58:-0.80555332 59:1.5715468 60:-0.0049132779 61:0.52778763 62:1.8381984 63:-0.19882332 64:-0.15677215 65:1.6494739 66:-0.16047822 67:-0.088395551 68:1.6255014 69:0.083222121 70:0.5742715 71:1.1442506 72:0.061127644 73:0.53159326 74:1.2007222 
10 0 0 0 10 0 0 0 0 0 0 0 0 0:0.0068923272 1:-0.01173248 2:1.7389078 3:0 4:0.30000001 5:1.8 6:-0.0075040832 7:0.60182208 8:1.84727 9:-0.015453335 10:0.75824231 11:1.8544688 12:-0.17785944 13:0.46774575 14:1.852736 15:-0.19913466 16:0.1974016 17:1.8240423 18:-0.20592616 19:-0.010988047 20:1.7177658 21:-0.19806933 22:-0.086874358 23:1.6709232 24:0.13303705 25:0.48429504 26:1.8018966 27:0.1869913 28:0.52520615 29:1.5669088 30:0.12516594 31:0.55564523 32:1.3213301 33:0.10009286 34:0.56934226 35:1.227247 36:-0.073562801 37:-0.014277091 38:1.7129669 39:-0.087571301 40:-0.375195 41:1.6416388 42:-0.081214391 43:-0.74581283 44:1.6579742 45:-0.08239428 46:-0.82200474 47:1.5820498 48:0.086086258 49:-0.00034507178 50:1.6902552 51:0.12908126 52:-0.35606018 53:1.6431656 54:0.12258676 55:-0.73120743 56:1.654151 57:0.12059367 58:-0.80443877 59:1.5720153 60:-0.005526457 61:0.52765536 62:1.8378582 63:-0.18985152 64:-0.16086535 65:1.6448641 66:-0.15908413 67:-0.082022272 68:1.6281281 69:0.080977708 70:0.57379812 71:1.1418834 72:0.067941561 73:0.53887677 74:1.2240672 
10 10 10 0 10 4.396497981055889 0 0 0 0 0 0 0 0:0.0070258118 1:-0.011614732 2:1.7387919 3:0 4:0.30000001 5:1.8 6:-0.0075460616 7:0.6016767 8:1.8475733 9:-0.015429173 10:0.75827336 11:1.8546081 12:-0.17800401 13:0.46744433 14:1.8526993 15:-0.19922951 16:0.19795665 17:1.8243499 18:-0.20611055 19:-0.010668688 20:1.7185941 21:-0.19961219 22:-0.087562166 23:1.6740623 24:0.13302197 25:0.48436081 26:1.8018117 27:0.18778406 28:0.52547789 29:1.5670619 30:0.1249644 31:0.5557242 32:1.3207002 33:0.10035503 34:0.56910098 35:1.2293983 36:-0.073425621 37:-0.01415994 38:1.7128396 39:-0.08760754 40:-0.37523222 41:1.6415792 42:-0.081297815 43:-0.74561375 44:1.6578994 45:-0.08250156 46:-0.82179743 47:1.5819526 48:0.086196974 49:-0.00024222583 50:1.6901426 51:0.12901857 52:-0.35621375 53:1.6431623 54:0.12226367 55:-0.73216456 56:1.653862 57:0.12062769 58:-0.80501038 59:1.5710683 60:-0.0055589415 61:0.52754664 62:1.838068 63:-0.18755402 64:-0.16655007 65:1.6430268 66:-0.15781963 67:-0.071634255 68:1.6334577 69:0.08876276 70:0.57522225 71:1.1439228 72:0.066006616 73:0.54038477 74:1.2231221 
10 10 0 0 10 0 0 10 0 0 0 0 10 0:0.0070970543 1:-0.011439973 2:1.7385581 3:0 4:0.30000001 5:1.8 6:-0.0076322015 7:0.60141689 8:1.8479874 9:-0.015317401 10:0.75831771 11:1.8547909 12:-0.17804404 13:0.46773198 14:1.8528359 15:-0.19884251 16:0.19963005 17:1.8250134 18:-0.20613441 19:-0.008689845 20:1.7186081 21:-0.19958313 22:-0.085560702 23:1.6751769 24:0.1331273 25:0.48443273 26:1.8015492 27:0.18894063 28:0.52583081 29:1.567117 30:0.12499015 31:0.55586493 32:1.3203785 33:0.10108367 34:0.5699954 35:1.2295516 36:-0.07338731 37:-0.014019186 38:1.7125494 39:-0.087490812 40:-0.37574998 41:1.6416056 42:-0.081248745 43:-0.74543899 44:1.6575634 45:-0.082536489 46:-0.82168621 47:1.5817549 48:0.08630079 49:-3.9542094e-05 50:1.6899655 51:0.12904938 52:-0.35566553 53:1.6427681 54:0.12225179 55:-0.73224515 56:1.6535542 57:0.12062044 58:-0.80523044 59:1.5710137 60:-0.0056310073 61:0.52734816 62:1.8383744 63:-0.19748965 64:-0.15605232 65:1.6527879 66:-0.15968151 67:-0.08222606 68:1.6305115 69:0.085256308 70:0.57211381 71:1.1384318 72:0.064821392 73:0.53750914 74:1.2175267 
10 10 0 0 10 0 0 10 0 0 0 0 10 0:0.007078927 1:-0.011430366 2:1.7385707 3:0 4:0.30000001 5:1.8 6:-0.0075175166 7:0.60149449 8:1.8479462 9:-0.015401836 10:0.75826442 11:1.8547535 12:-0.17809533 13:0.46772319 14:1.8528738 15:-0.19872992 16:0.19880395 17:1.8248277 18:-0.206275 19:-0.010240508 20:1.7176571 21:-0.19983633 22:-0.086516753 23:1.6734481 24:0.13304009 25:0.48433959 26:1.8015604 27:0.18871439 28:0.52573949 29:1.5670929 30:0.12429829 31:0.55594391 32:1.3182247 33:0.098885715 34:0.56901401 35:1.2257462 36:-0.073415011 37:-0.01402591 38:1.7125368 39:-0.087602675 40:-0.375898 41:1.6415768 42:-0.081366718 43:-0.74549568 44:1.6573877 45:-0.08271502 46:-0.82176924 47:1.5816402 48:0.086281538 49:-2.6835129e-05 50:1.6899986 51:0.12891555 52:-0.35595143 53:1.642766 54:0.12209274 55:-0.73262978 56:1.6534891 57:0.12037809 58:-0.80540538 59:1.5705838 60:-0.0055621564 61:0.52739233 62:1.8383484 63:-0.19999161 64:-0.15374438 65:1.6493416 66:-0.16001943 67:-0.080237344 68:1.63027 69:0.085872471 70:0.57617158 71:1.145309 72:0.063386321 73:0.5343529 74:1.2079306 
10 10 0 0 10 0 0 0 0 0 0 0 10 0:0.0070791394 1:-0.011361752 2:1.7386181 3:0 4:0.30000001 5:1.8 6:-0.0074923374 7:0.60147971 8:1.8478873 9:-0.015369078 10:0.75829893 11:1.8547127 12:-0.17825356 13:0.46783605 14:1.8531392 15:-0.19870551 16:0.19919889 17:1.8249056 18:-0.20649622 19:-0.0097287633 20:1.7198861 21:-0.19936475 22:-0.086227179 23:1.6742923 24:0.13302262 25:0.48437411 26:1.8014243 27:0.18915765 28:0.52601981 29:1.5671203 30:0.12389044 31:0.55608559 32:1.3178737 33:0.099326968 34:0.56951481 35:1.2299659 36:-0.073412806 37:-0.013942514 38:1.7125418 39:-0.087303907 40:-0.37649775 41:1.6421483 42:-0.081397593 43:-0.74536693 44:1.6572783 45:-0.082860455 46:-0.82168102 47:1.5816233 48:0.086272694 49:1.6149133e-05 50:1.6900856 51:0.12887412 52:-0.35593724 53:1.6427228 54:0.12193274 55:-0.73292267 56:1.653662 57:0.12045568 58:-0.8056078 59:1.5706074 60:-0.0055466443 61:0.52737516 62:1.8383057 63:-0.19864619 64:-0.15736377 65:1.6531785 66:-0.16071369 67:-0.085862905 68:1.6287258 69:0.088334203 70:0.57469463 71:1.1445119 72:0.062756099 73:0.53750604 74:1.2155032 
10 0 0 0 0 0 0 10 10 9.627592507365355 0 0 10 0:0.006952554 1:-0.01110273 2:1.7384613 3:0 4:0.30000001 5:1.8 6:-0.0072166305 7:0.60103858 8:1.8481133 9:-0.015361959 10:0.75836986 11:1.8548334 12:-0.17807555 13:0.46800706 14:1.8533404 15:-0.1985808 16:0.19907549 17:1.8249347 18:-0.20623398 19:-0.0098359827 20:1.7198713 21:-0.19978186 22:-0.085497968 23:1.6749218 24:0.13288653 25:0.48463979 26:1.8012888 27:0.18854341 28:0.5261699 29:1.5668418 30:0.12744519 31:0.55520272 32:1.3321781 33:0.098386191 34:0.56932813 35:1.2320647 36:-0.073546603 37:-0.013678068 38:1.712374 39:-0.087414742 40:-0.37637541 41:1.642081 42:-0.081585184 43:-0.7450462 44:1.6571076 45:-0.083151884 46:-0.821428 47:1.5816028 48:0.08615002 49:0.00026408397 50:1.689935 51:0.12872359 52:-0.35568342 53:1.6425693 54:0.1217998 55:-0.73286384 56:1.6533692 57:0.12035101 58:-0.80558044 59:1.5703771 60:-0.0053581558 61:0.52704966 62:1.8384731 63:-0.19981191 64:-0.15409601 65:1.6498802 66:-0.16052717 67:-0.08094313 68:1.6303418 69:0.083673984 70:0.5735696 71:1.1421502 72:0.061044455 73:0.5303598 74:1.2054677 
10 5.619839683129491 0 3.988197919707439 10 0 0 0 0 0 0 0 10 0:0.0068819299 1:-0.011112135 2:1.7383816 3:0 4:0.30000001 5:1.8 6:-0.0070419069 7:0.60112625 8:1.8482373 9:-0.015392954 10:0.75825763 11:1.8547938 12:-0.17811197 13:0.46784601 14:1.8533289 15:-0.19867806 16:0.1991549 17:1.8249414 18:-0.20616452 19:-0.0096910112 20:1.7197173 21:-0.19948353 22:-0.085623607 23:1.6737807 24:0.13269755 25:0.48453361 26:1.8012278 27:0.19003269 28:0.52691346 29:1.5673754 30:0.12785459 31:0.55496687 32:1.335355 33:0.098398581 34:0.56907696 35:1.2314003 36:-0.073623598 37:-0.013713878 38:1.7124236 39:-0.087487668 40:-0.37644279 41:1.6419775 42:-0.081658192 43:-0.74526477 44:1.6567729 45:-0.083277658 46:-0.82177544 47:1.5815609 48:0.086082384 49:0.00026320294 50:1.6898167 51:0.12864199 52:-0.35565615 53:1.6425235 54:0.12158154 55:-0.73236144 56:1.6533501 57:0.12029238 58:-0.80522203 59:1.5706012 60:-0.0052422062 61:0.52710253 62:1.8385623 63:-0.19786106 64:-0.1567596 65:1.6503479 66:-0.16074792 67:-0.079503372 68:1.6318381 69:0.086342424 70:0.57581657 71:1.144151 72:0.062975153 73:0.53523129 74:1.2117946 
10 0 0 0 10 0 0 0 0 0 0 0 0.8104631375897678 0:0.0068888813 1:-0.011043271 2:1.7382481 3:0 4:0.30000001 5:1.8 6:-0.00707536 7:0.60103267 8:1.8485272 9:-0.015314417 10:0.75819343 11:1.8549073 12:-0.17795841 13:0.46747822 14:1.8535702 15:-0.19871546 16:0.19967476 17:1.8249991 18:-0.20562379 19:-0.0090894308 20:1.7195418 21:-0.19975834 22:-0.08539959 23:1.6745641 24:0.13269432 25:0.48448962 26:1.8011291 27:0.18927129 28:0.52685326 29:1.5670769 30:0.12803915 31:0.55503273 32:1.3366525 33:0.09847486 34:0.57001144 35:1.2325392 36:-0.073563404 37:-0.013664922 38:1.7123682 39:-0.087450445 40:-0.37655687 41:1.6419814 42:-0.081687123 43:-0.74530017 44:1.6568558 45:-0.083202191 46:-0.82186031 47:1.5817468 48:0.086082548 49:0.00034899451 50:1.6896217 51:0.12855341 52:-0.35578895 53:1.6424878 54:0.12157965 55:-0.73641157 56:1.6539681 57:0.12032957 58:-0.80774117 59:1.5686905 60:-0.0052653514 61:0.5270285 62:1.8387702 63:-0.19888881 64:-0.15664627 65:1.6511881 66:-0.1601778 67:-0.074602298 68:1.6328065 69:0.086649522 70:0.5774793 71:1.1473086 72:0.058909852 73:0.5309518 74:1.2023141 
10 0 0 0 0 0 0 0 0 0 10 0 10 0:0.0068894774 1:-0.010942291 2:1.7381964 3:0 4:0.30000001 5:1.8 6:-0.0070570894 7:0.60093617 8:1.8485537 9:-0.015246799 10:0.75827348 11:1.8548269 12:-0.17824283 13:0.46708873 14:1.8541164 15:-0.19876261 16:0.19993334 17:1.8249989 18:-0.20526731 19:-0.0088150911 20:1.7194738 21:-0.20055975 22:-0.085007861 23:1.6747513 24:0.1327299 25:0.48457351 26:1.8010755 27:0.1928297 28:0.52781385 29:1.5681334 30:0.12655057 31:0.55589604 32:1.3324232 33:0.098145127 34:0.57034236 35:1.2331679 36:-0.073557556 37:-0.013583105 38:1.7123642 39:-0.087361619 40:-0.37659755 41:1.6418633 42:-0.081620306 43:-0.74523181 44:1.6569214 45:-0.083393514 46:-0.82182366 47:1.5818939 48:0.08607921 49:0.000456471 50:1.6895313 51:0.1286401 52:-0.35598406 53:1.6423297 54:0.12157974 55:-0.73629302 56:1.6538506 57:0.1202689 58:-0.8076753 59:1.5686588 60:-0.0052547827 61:0.52695143 62:1.8387952 63:-0.19709365 64:-0.1558293 65:1.6484585 66:-0.15962052 67:-0.074739054 68:1.6318908 69:0.077050447 70:0.57461739 71:1.1442666 72:0.057008307 73:0.53062797 74:1.2001066 
10 0 0 0 0 0 0 0 0 0 10 0 10 0:0.0068748854 1:-0.010871651 2:1.7381482 3:0 4:0.30000001 5:1.8 6:-0.0070428066 7:0.60095125 8:1.8485436 9:-0.015209874 10:0.75840741 11:1.8547959 12:-0.17824024 13:0.46719819 14:1.8540015 15:-0.19886829 16:0.19976476 17:1.8250055 18:-0.20526114 19:-0.0090592224 20:1.7196422 21:-0.1988977 22:-0.084838301 23:1.6736469 24:0.13269001 25:0.48473305 26:1.8010831 27:0.19118544 28:0.52762455 29:1.567637 30:0.12760623 31:0.55586475 32:1.3370104 33:0.097603902 34:0.57073885 35:1.2335486 36:-0.073577359 37:-0.013506861 38:1.7122922 39:-0.087235257 40:-0.37685537 41:1.6421618 42:-0.081657849 43:-0.74518967 44:1.6567307 45:-0.083300963 46:-0.82171261 47:1.5815492 48:0.086063117 49:0.00052165799 50:1.6894984 51:0.12859413 52:-0.35583258 53:1.64219 54:0.12149493 55:-0.73609889 56:1.6537166 57:0.12004732 58:-0.80747771 59:1.5685163 60:-0.0052448027 61:0.52695578 62:1.8387923 63:-0.19966337 64:-0.15443799 65:1.6503425 66:-0.16025978 67:-0.078923106 68:1.6299911 69:0.079871938 70:0.5770238 71:1.1441364 72:0.059865776 73:0.53296107 74:1.204674 
10 0 0 0 10 0 7.013836440125633 0 0 0 0 0 0 0:0.0071524493 1:-0.010824125 2:1.7382746 3:0 4:0.30000001 5:1.8 6:-0.0078531317 7:0.60098875 8:1.8480301 9:-0.014932852 10:0.7584039 11:1.8549991 12:-0.17793925 13:0.46719551 14:1.854248 15:-0.19852738 16:0.19899508 17:1.8250675 18:-0.20476933 19:-0.0097578578 20:1.7195439 21:-0.20028497 22:-0.086558208 23:1.6747265 24:0.13294552 25:0.48478034 26:1.8012528 27:0.18886298 28:0.52706289 29:1.5670161 30:0.12779012 31:0.55617237 32:1.3376296 33:0.098207608 34:0.57071042 35:1.2338915 36:-0.073298953 37:-0.013461363 38:1.7124128 39:-0.086964443 40:-0.37674347 41:1.6422644 42:-0.081381351 43:-0.74511403 44:1.6568694 45:-0.0828318 46:-0.82157665 47:1.5815449 48:0.086338133 49:0.00056957081 50:1.6896286 51:0.12887813 52:-0.35578963 53:1.642354 54:0.12164752 55:-0.73579878 56:1.6539869 57:0.12036854 58:-0.80723554 59:1.5688772 60:-0.0058084205 61:0.52696705 62:1.838449 63:-0.18788771 64:-0.16064216 65:1.6468077 66:-0.1587709 67:-0.068054453 68:1.634901 69:0.084322289 70:0.57885152 71:1.1457977 72:0.061111748 73:0.53417778 74:1.2074919 
10 0 0 0 10 10 0 0 0 0 0 9.130214214695771 10 0:0.0070056021 1:-0.010884972 2:1.7383571 3:0 4:0.30000001 5:1.8 6:-0.0074340459 7:0.60116899 8:1.8480344 9:-0.014880845 10:0.7583881 11:1.8552456 12:-0.17797881 13:0.46716481 14:1.8543096 15:-0.19849017 16:0.19858027 17:1.8249869 18:-0.20479256 19:-0.010147633 20:1.7194166 21:-0.19975391 22:-0.087993205 23:1.6743517 24:0.13289532 25:0.48481983 26:1.8012638 27:0.19143814 28:0.52784365 29:1.5678563 30:0.12627894 31:0.55678952 32:1.33289 33:0.098915808 34:0.57216185 35:1.2308402 36:-0.073450565 37:-0.013492616 38:1.7124815 39:-0.087008595 40:-0.37675476 41:1.6422119 42:-0.081498794 43:-0.74465752 44:1.6567192 45:-0.082731098 46:-0.8211937 47:1.581532 48:0.0861938 49:0.00047150068 50:1.6897163 51:0.12884858 52:-0.35580742 53:1.6423512 54:0.12160192 55:-0.73576558 56:1.6539364 57:0.12034511 58:-0.80720949 59:1.5688381 60:-0.0055581145 61:0.52707231 62:1.8384585 63:-0.19597048 64:-0.16128522 65:1.6588869 66:-0.1591638 67:-0.077650905 68:1.6305337 69:0.079964876 70:0.5812521 71:1.1471729 72:0.061116941 73:0.53388923 74:1.2070127 
-8.178281298676161 0 0 0 0 0 0 0 0 0 0 0 0 0:0.0063791387 1:-0.015905425 2:1.7331502 3:0 4:0.30000001 5:1.8 6:-0.0057137124 7:0.60725039 8:1.8538616 9:-0.013922393 10:0.77001745 11:1.8613832 12:-0.17168744 13:0.46873063 14:1.8619463 15:-0.19253263 16:0.19382168 17:1.8444269 18:-0.20338596 19:-0.020231709 20:1.7542932 21:-0.20450191 22:-0.10421552 23:1.7154129 24:0.12971061 25:0.46813023 26:1.7522867 27:0.2384529 28:0.53824788 29:1.5472047 30:0.12980148 31:0.47380501 32:1.3449872 33:0.099744126 34:0.52260458 35:1.1780581 36:-0.070043989 37:-0.018698469 38:1.7187274 39:-0.079292513 40:-0.36422646 41:1.641412 42:-0.065124035 43:-0.71872413 44:1.6374328 45:-0.064876981 46:-0.79171598 47:1.5536153 48:0.080979899 49:-0.003460601 50:1.6729734 51:0.14305764 52:-0.34413344 53:1.6337764 54:0.15061632 55:-0.70943213 56:1.6523616 57:0.15257226 58:-0.78219008 59:1.5680072 60:-0.0043251961 61:0.53153318 62:1.8428066 63:-0.19564745 64:-0.17561699 65:1.6794555 66:-0.17399506 67:-0.071896717 68:1.6701949 69:0.089101836 70:0.53148019 71:1.1057832 72:0.058927495 73:0.49450105 74:1.1740413 
-0 0 0 0 0 0 0 0 0 0 0 0 10 0:-0.0044438392 1:-0.016618488 2:1.7351074 3:0 4:0.30000001 5:1.8 6:0.003053166 7:0.60901219 8:1.8502216 9:-0.013963722 10:0.75986952 11:1.863512 12:-0.15535681 13:0.4649297 14:1.8825703 15:-0.18457648 16:0.18336205 17:1.8693409 18:-0.2076557 19:-0.02198541 20:1.7861252 21:-0.21602109 22:-0.099814713 23:1.7468138 24:0.12115572 25:0.47276613 26:1.7499838 27:0.1815595 28:0.49641213 29:1.5075727 30:0.10713067 31:0.52209336 32:1.2709258 33:0.066399865 34:0.53237849 35:1.1806798 36:-0.071242481 37:-0.021940051 38:1.7285767 39:-0.081614532 40:-0.38078728 41:1.6533961 42:-0.062017087 43:-0.73304868 44:1.6479893 45:-0.060726438 46:-0.79817104 47:1.5743818 48:0.059425987 49:-0.0021926737 50:1.6677856 51:0.12035149 52:-0.3574706 53:1.6271982 54:0.1284211 55:-0.72142804 56:1.6545534 57:0.12613234 58:-0.79394877 59:1.5740595 60:0.0024249703 61:0.53280669 62:1.840148 63:-0.21948636 64:-0.16396061 65:1.7251773 66:-0.24615932 67:-0.11618683 68:1.7367764 69:0.032608829 70:0.53292805 71:1.1099968 72:0.023602791 73:0.49636462 74:1.1791365 
-0 0 0 0 0 0 0 0 0 0 0 0 10 0:-0.0043483675 1:-0.01702573 2:1.7353494 3:0 4:0.30000001 5:1.8 6:0.0031450242 7:0.6092912 8:1.8502491 9:-0.014092676 10:0.75952435 11:1.8636806 12:-0.15672716 13:0.46074426 14:1.8883617 15:-0.18460393 16:0.18364678 17:1.8692915 18:-0.20917311 19:-0.020296654 20:1.7826803 21:-0.21696824 22:-0.098073624 23:1.7415512 24:0.12103544 25:0.47251919 26:1.7500646 27:0.17901261 28:0.49691093 29:1.5083044 30:0.10752548 31:0.52258718 32:1.2688923 33:0.067178652 34:0.53265524 35:1.1796 36:-0.070943668 37:-0.022380402 38:1.7287843 39:-0.081608757 40:-0.38105077 41:1.6533101 42:-0.062238056 43:-0.73344034 44:1.6480138 45:-0.06060965 46:-0.79827529 47:1.5753534 48:0.059384376 49:-0.0025659702 50:1.6679919 51:0.12002081 52:-0.3585459 53:1.6276286 54:0.12834071 55:-0.7218706 56:1.6548517 57:0.12597898 58:-0.79398578 59:1.5744722 60:0.002486527 61:0.53302181 62:1.8401535 63:-0.21797705 64:-0.16465561 65:1.7148321 66:-0.2464539 67:-0.098309956 68:1.738919 69:0.034812927 70:0.5323422 71:1.1074045 72:0.025399968 73:0.49710214 74:1.1804171 
-0 0 0 0 0 0 0 0 0 0 0 0 1.758230583936461 0:-0.0044743717 1:-0.016926862 2:1.7355893 3:0 4:0.30000001 5:1.8 6:0.0035565794 7:0.60888022 8:1.8498137 9:-0.014263876 10:0.75950688 11:1.8638847 12:-0.15542892 13:0.46298864 14:1.8894131 15:-0.18482539 16:0.18314865 17:1.8692153 18:-0.20968798 19:-0.020636447 20:1.7823293 21:-0.2176557 22:-0.097811587 23:1.7426322 24:0.12092336 25:0.47247824 26:1.7503846 27:0.1768958 28:0.49690214 29:1.512563 30:0.10644779 31:0.52218509 32:1.271313 33:0.069525607 34:0.53445739 35:1.1785779 36:-0.071012788 37:-0.022282816 38:1.729027 39:-0.081918895 40:-0.38104686 41:1.6534908 42:-0.062394246 43:-0.73353958 44:1.6482756 45:-0.061067514 46:-0.79586434 47:1.576319 48:0.059184916 49:-0.0023693214 50:1.6682303 51:0.11985936 52:-0.35907426 53:1.6279652 54:0.12823346 55:-0.7218374 56:1.6549857 57:0.12581187 58:-0.79421937 59:1.5746644 60:0.0027613938 61:0.53275955 62:1.8398411 63:-0.22067979 64:-0.16316187 65:1.7209551 66:-0.2517966 67:-0.10234318 68:1.7424109 69:0.034204476 70:0.53535157 71:1.10971 72:0.02732525 73:0.49829021 74:1.1803155 
-10 0 0 0 0 0 0 0 0 0 0 0 0 0:0.0036439728 1:-0.018647876 2:1.743701 3:0 4:0.30000001 5:1.8 6:-0.0030360427 7:0.60950053 8:1.8424067 9:-0.0099282693 10:0.7703824 11:1.8552661 12:-0.16879505 13:0.46893045 14:1.8595662 15:-0.20004401 16:0.20050482 17:1.826385 18:-0.22043633 19:-0.0026338361 20:1.7392383 21:-0.21530427 22:-0.076788485 23:1.7028337 24:0.12982909 25:0.47161576 26:1.7708206 27:0.20400268 28:0.54317778 29:1.5487456 30:0.12624726 31:0.5080117 32:1.2564366 33:0.10819173 34:0.5126034 35:1.156168 36:-0.065294348 37:-0.021480646 38:1.7241688 39:-0.071397938 40:-0.39060423 41:1.6586351 42:-0.043587931 43:-0.74022418 44:1.6510549 45:-0.037859306 46:-0.80135745 47:1.5778437 48:0.07321059 49:-0.0066072606 50:1.6869502 51:0.12499648 52:-0.36987379 53:1.6380305 54:0.12010126 55:-0.72975892 56:1.637466 57:0.11785825 58:-0.79433805 59:1.5586457 60:-0.0023748409 61:0.53336638 62:1.8342052 63:-0.21511747 64:-0.13461414 65:1.6776228 66:-0.16815531 67:-0.058077272 68:1.6725054 69:0.077787302 70:0.50618517 71:1.1297407 72:0.061930247 73:0.48150292 74:1.1504273 
-10 0 0 0 0 0 0 0 0 0 0 0 0 0:0.00360821 1:-0.018690096 2:1.7436697 3:0 4:0.30000001 5:1.8 6:-0.0029973798 7:0.60953081 8:1.8424547 9:-0.0099753682 10:0.77033329 11:1.8552563 12:-0.16850339 13:0.46927759 14:1.8593214 15:-0.20013337 16:0.20037173 17:1.8263075 18:-0.2205126 19:-0.0027538408 20:1.7391908 21:-0.21441089 22:-0.076430395 23:1.7008173 24:0.12986422 25:0.47159198 26:1.7707865 27:0.18828055 28:0.49182603 29:1.5439398 30:0.12167947 31:0.50381434 32:1.2470937 33:0.10759225 34:0.51247787 35:1.1555979 36:-0.065335244 37:-0.021507995 38:1.7241423 39:-0.071500316 40:-0.39049235 41:1.6584427 42:-0.043653227 43:-0.74058932 44:1.6513398 45:-0.037212096 46:-0.80173725 47:1.5774748 48:0.073178962 49:-0.0066616703 50:1.6869156 51:0.12497095 52:-0.36993816 53:1.6379721 54:0.12007077 55:-0.72984582 56:1.6374228 57:0.1176936 58:-0.79452831 59:1.5588315 60:-0.0023423377 61:0.53339094 62:1.834244 63:-0.21216054 64:-0.13475607 65:1.6736419 66:-0.16867046 67:-0.055897936 68:1.6732428 69:0.074067086 70:0.50545299 71:1.1270273 72:0.06193471 73:0.48166129 74:1.1523945 
-8.741239779977967 0 0 0 0 0 0 0 0 0 0 0 0 0:0.0035931692 1:-0.0186706 2:1.7436657 3:0 4:0.30000001 5:1.8 6:-0.0029799677 7:0.60950452 8:1.8424454 9:-0.0099382252 10:0.77031559 11:1.8551607 12:-0.16860475 13:0.46949911 14:1.8594847 15:-0.20014121 16:0.20036821 17:1.826292 18:-0.21920903 19:-0.0028577857 20:1.739151 21:-0.21378064 22:-0.074377134 23:1.7012587 24:0.12986183 25:0.47159451 26:1.7707663 27:0.18420602 28:0.48990554 29:1.54214 30:0.12746458 31:0.50439912 32:1.2433791 33:0.10842999 34:0.51311988 35:1.1545424 36:-0.065337501 37:-0.02149735 38:1.7241898 39:-0.07154765 40:-0.39016068 41:1.6582613 42:-0.043594144 43:-0.74040282 44:1.6511321 45:-0.037258379 46:-0.80167055 47:1.5774641 48:0.073132306 49:-0.0065823309 50:1.6867857 51:0.12493724 52:-0.36997229 53:1.6379404 54:0.12004411 55:-0.72970009 56:1.6375093 57:0.11768333 58:-0.79452634 59:1.5588465 60:-0.0023298543 61:0.53337425 62:1.83424 63:-0.21185884 64:-0.13360818 65:1.6742935 66:-0.16697279 67:-0.05356745 68:1.6723351 69:0.076370612 70:0.50836259 71:1.1274815 72:0.063752443 73:0.48145652 74:1.1471221 
-10 0 0 0 0 0 0 0 0 0 0 0 0 0:0.0023869351 1:-0.011713538 2:1.7364323 3:0 4:0.30000001 5:1.8 6:-0.0027129054 7:0.60261858 8:1.850158 9:-0.0056603402 10:0.76597583 11:1.8586538 12:-0.17254004 13:0.47297111 14:1.859062 15:-0.19877659 16:0.2069671 17:1.8289568 18:-0.21648581 19:0.0020251237 20:1.7362955 21:-0.21714959 22:-0.080853701 23:1.6995142 24:0.13626172 25:0.47902915 26:1.7743609 27:0.19235097 28:0.50884527 29:1.5550873 30:0.12675835 31:0.51957351 32:1.290673 33:0.098053187 34:0.52819037 35:1.1875675 36:-0.073736392 37:-0.013288204 38:1.7159221 39:-0.098401845 40:-0.37098071 41:1.6327341 42:-0.10184217 43:-0.72934335 44:1.6261394 45:-0.1048888 46:-0.79399174 47:1.548177 48:0.076341495 49:-0.00070849434 50:1.6806886 51:0.13520497 52:-0.35211059 53:1.6353443 54:0.14806296 55:-0.72170728 56:1.6637771 57:0.14938258 58:-0.78939873 59:1.5835941 60:-0.0019767731 61:0.52806431 62:1.8400724 63:-0.21930405 64:-0.1507121 65:1.6703098 66:-0.17711964 67:-0.07257849 68:1.6536272 69:0.069986016 70:0.51759452 71:1.1351373 72:0.070151463 73:0.48351547 74:1.197731 
-10 0 0 0 0 0 0 0 0 0 0 0 0 0:0.0024124831 1:-0.011674156 2:1.736459 3:0 4:0.30000001 5:1.8 6:-0.002735503 7:0.60262072 8:1.850045 9:-0.0057610199 10:0.76597267 11:1.8586676 12:-0.17271209 13:0.47266692 14:1.8603876 15:-0.19876862 16:0.20648707 17:1.8287909 18:-0.2165693 19:0.001684377 20:1.7366831 21:-0.21744114 22:-0.080438398 23:1.6986926 24:0.13629642 25:0.47901276 26:1.7744009 27:0.19219026 28:0.50888079 29:1.5537255 30:0.12674969 31:0.51955348 32:1.29071 33:0.096944503 34:0.52832711 35:1.1897929 36:-0.073672473 37:-0.013269922 38:1.7160161 39:-0.098558225 40:-0.37070984 41:1.6325877 42:-0.10188647 43:-0.72945333 44:1.6262076 45:-0.10479031 46:-0.79476655 47:1.5478585 48:0.076340802 49:-0.00059395097 50:1.680618 51:0.13516062 52:-0.3519479 53:1.6353276 54:0.14803815 55:-0.72168601 56:1.6638234 57:0.14951411 58:-0.78940248 59:1.5834138 60:-0.0019917116 61:0.52806741 62:1.8399985 63:-0.21805674 64:-0.15049942 65:1.6666062 66:-0.176826 67:-0.074327938 68:1.6465328 69:0.0711888 70:0.51724762 71:1.1345634 72:0.07023216 73:0.48759645 74:1.206059 
-9.472831374100529 0 0 0 0 0 0 0 0 0 0 0 0 0:0.0024484769 1:-0.011671352 2:1.7364252 3:0 4:0.30000001 5:1.8 6:-0.0027795359 7:0.60263443 8:1.8500688 9:-0.0058911666 10:0.76568055 11:1.8586023 12:-0.17279285 13:0.47215006 14:1.8606856 15:-0.19871047 16:0.20651215 17:1.8287113 18:-0.21645278 19:0.0019074203 20:1.7366178 21:-0.21764714 22:-0.079380825 23:1.6983135 24:0.13636661 25:0.47910523 26:1.7745197 27:0.19543254 28:0.51075083 29:1.5496013 30:0.12701315 31:0.51977998 32:1.2906954 33:0.096742637 34:0.53049886 35:1.1918149 36:-0.07366278 37:-0.013272363 38:1.7159359 39:-0.098508075 40:-0.37039453 41:1.6325357 42:-0.10161443 43:-0.72911483 44:1.6262157 45:-0.10475653 46:-0.79517025 47:1.5478041 48:0.076387174 49:-0.000581461 50:1.6805875 51:0.13514218 52:-0.35179853 53:1.6353157 54:0.14804837 55:-0.72174078 56:1.6637418 57:0.14955223 58:-0.7893905 59:1.5835865 60:-0.0020215809 61:0.5280776 62:1.8400142 63:-0.21728972 64:-0.15014984 65:1.670645 66:-0.18025842 67:-0.068673894 68:1.657099 69:0.075862356 70:0.51999283 71:1.1361439 72:0.069980882 73:0.48612258 74:1.2050636 
-10 0 0 0 0 0 0 0 0 0 0 0 0 0:0.0024673268 1:-0.011641746 2:1.7364104 3:0 4:0.30000001 5:1.8 6:-0.0027980953 7:0.60261023 8:1.850064 9:-0.005890429 10:0.76556343 11:1.8585789 12:-0.17266536 13:0.4719314 14:1.8609521 15:-0.19860169 16:0.20648327 17:1.828685 18:-0.21545488 19:-0.013167715 20:1.7280915 21:-0.21663687 22:-0.088958867 23:1.6926615 24:0.13652399 25:0.47909731 26:1.7744234 27:0.19623569 28:0.51104808 29:1.549156 30:0.12714916 31:0.52001208 32:1.2909143 33:0.095169745 34:0.53038555 35:1.1890023 36:-0.073628671 37:-0.013279414 38:1.716078 39:-0.098459855 40:-0.37037003 41:1.6326001 42:-0.10179713 43:-0.73157209 44:1.6253893 45:-0.1048336 46:-0.79547912 47:1.5488236 48:0.076418571 49:-0.00049520098 50:1.6804774 51:0.13514981 52:-0.35185516 53:1.6353056 54:0.14827618 55:-0.72103328 56:1.6640599 57:0.14955452 58:-0.78938657 59:1.5835884 60:-0.0020356774 61:0.52806139 62:1.8400128 63:-0.21283135 64:-0.16072962 65:1.6581929 66:-0.17993671 67:-0.078959025 68:1.652632 69:0.071555026 70:0.51998025 71:1.1358626 72:0.072711684 73:0.49388933 74:1.2147279 
-10 0 0 0 0 0 0 0 0 0 0 0 0 0:0.0025267676 1:-0.011527555 2:1.7364745 3:0 4:0.30000001 5:1.8 6:-0.0028474033 7:0.60250425 8:1.8500276 9:-0.0059537888 10:0.76561654 11:1.8586955 12:-0.17243433 13:0.4717699 14:1.8616204 15:-0.19860482 16:0.20660038 17:1.8286753 18:-0.21447021 19:-0.00679891 20:1.7309251 21:-0.21552682 22:-0.086148515 23:1.6956849 24:0.13652915 25:0.47916678 26:1.7743087 27:0.19690177 28:0.51131499 29:1.5501232 30:0.12741634 31:0.52047473 32:1.2917109 33:0.092594661 34:0.52993739 35:1.1891494 36:-0.073587559 37:-0.013172107 38:1.7162156 39:-0.098377928 40:-0.37027267 41:1.632587 42:-0.10184245 43:-0.73142165 44:1.6255183 45:-0.10480627 46:-0.79547316 47:1.5487275 48:0.076494582 49:-0.00038086064 50:1.6804967 51:0.13518369 52:-0.35184738 53:1.6352334 54:0.14831445 55:-0.72070533 56:1.6643019 57:0.14955437 58:-0.78932744 59:1.5834928 60:-0.0020704344 61:0.527991 62:1.8399839 63:-0.21688098 64:-0.15717982 65:1.6700282 66:-0.17701319 67:-0.078383073 68:1.6512218 69:0.072047465 70:0.52026767 71:1.1355596 72:0.067647897 73:0.48762318 74:1.2053499 
-10 0 0 0 0 0 0 0 0 0 0 0 0 0:0.0025423467 1:-0.011515783 2:1.7364688 3:0 4:0.30000001 5:1.8 6:-0.0028574839 7:0.60251182 8:1.8500161 9:-0.0060000867 10:0.7656278 11:1.858706 12:-0.17240304 13:0.47176278 14:1.86167 15:-0.19862708 16:0.20643876 17:1.8286815 18:-0.21480733 19:-0.0047297645 20:1.731998 21:-0.21596205 22:-0.085217252 23:1.6950183 24:0.1365985 25:0.47923714 26:1.7743077 27:0.19648066 28:0.51138157 29:1.5510659 30:0.12754604 31:0.52065694 32:1.2919967 33:0.09350384 34:0.53007597 35:1.1926179 36:-0.073575221 37:-0.013171153 38:1.7161984 39:-0.098399349 40:-0.37031394 41:1.632587 42:-0.10174928 43:-0.73088205 44:1.6254382 45:-0.10496628 46:-0.79516423 47:1.54807 48:0.076517589 49:-0.00035499223 50:1.6805053 51:0.1351977 52:-0.35195798 53:1.6352868 54:0.14830545 55:-0.72094941 56:1.6644073 57:0.14975172 58:-0.78956449 59:1.5837455 60:-0.0020774603 61:0.52799606 62:1.8399763 63:-0.21524861 64:-0.15620489 65:1.6622405 66:-0.17471001 67:-0.048483744 68:1.6567678 69:0.067809321 70:0.5191918 71:1.1376157 72:0.066509001 73:0.48693374 74:1.1999636 
-10 0 0 0 0 0 0 0 0 0 0 0 0 0:0.0025888085 1:-0.011524959 2:1.7364898 3:0 4:0.30000001 5:1.8 6:-0.0028790832 7:0.60256261 8:1.8499789 9:-0.0061962157 10:0.76552612 11:1.8587718 12:-0.17223954 13:0.47199011 14:1.8617702 15:-0.19862962 16:0.20643297 17:1.8286767 18:-0.21486183 19:-0.0017708084 20:1.7315059 21:-0.2164378 22:-0.085118845 23:1.694828 24:0.13660562 25:0.47929722 26:1.7742972 27:0.19687787 28:0.51187879 29:1.5499129 30:0.12705092 31:0.52067578 32:1.291393 33:0.093163595 34:0.53034091 35:1.1922679 36:-0.073474482 37:-0.013192429 38:1.7162447 39:-0.098417565 40:-0.37037051 41:1.6326499 42:-0.10177317 43:-0.73095882 44:1.6254745 45:-0.10505546 46:-0.79547107 47:1.5481505 48:0.076526806 49:-0.00036205258 50:1.680512 51:0.13521396 52:-0.35189998 53:1.6352363 54:0.14827229 55:-0.72098315 56:1.6643929 57:0.1497381 58:-0.78963947 59:1.5837588 60:-0.0020929798 61:0.52802902 62:1.8399525 63:-0.21702816 64:-0.1567535 65:1.6643615 66:-0.18008049 67:-0.086788163 68:1.6514425 69:0.065519452 70:0.51821238 71:1.1347303 72:0.067089051 73:0.48753881 74:1.2050998 
-10 0 0 0 0 0 0 0 0 0 0 0 0 0:0.0027308837 1:-0.011452093 2:1.7364314 3:0 4:0.30000001 5:1.8 6:-0.002967611 7:0.60257089 8:1.8499691 9:-0.0062143281 10:0.7654295 11:1.8587978 12:-0.17219597 13:0.47196895 14:1.8617661 15:-0.19862856 16:0.20638822 17:1.8286989 18:-0.21521842 19:-0.0014492711 20:1.7315714 21:-0.2167661 22:-0.085344657 23:1.6954982 24:0.1366369 25:0.47936088 26:1.774267 27:0.19687882 28:0.51219255 29:1.5488765 30:0.12681097 31:0.52092481 32:1.2909534 33:0.092897549 34:0.5297823 35:1.1923707 36:-0.073335201 37:-0.013134195 38:1.7161543 39:-0.09839952 40:-0.37025088 41:1.6325309 42:-0.10178243 43:-0.73126036 44:1.6252649 45:-0.10510647 46:-0.79552501 47:1.5479991 48:0.076667354 49:-0.00028280821 50:1.6804883 51:0.13525875 52:-0.35195428 53:1.6352251 54:0.14825904 55:-0.72094101 56:1.6643903 57:0.14975519 58:-0.78969425 59:1.5835564 60:-0.0021492094 61:0.52803296 62:1.8399479 63:-0.21731409 64:-0.15552919 65:1.6693933 66:-0.17602916 67:-0.06291844 68:1.6537416 69:0.068739831 70:0.52097303 71:1.1380506 72:0.06801492 73:0.49087209 74:1.2153251 
-10 10 10 1.870597062379802 10 0 0 0 0 0 0 0 0 0:0.0032706559 1:-0.010711962 2:1.7364805 3:0 4:0.30000001 5:1.8 6:-0.0032653064 7:0.60209614 8:1.8498743 9:-0.0085958466 10:0.76552629 11:1.8589547 12:-0.17378359 13:0.47134024 14:1.8642762 15:-0.20044085 16:0.20360227 17:1.8284605 18:-0.21646 19:0.0022015329 20:1.7361581 21:-0.21698543 22:-0.080049418 23:1.6978061 24:0.1411877 25:0.49112189 26:1.7761858 27:0.2406013 28:0.55142605 29:1.5826828 30:0.25198629 31:0.55126458 32:1.2865973 33:0.25101888 34:0.55903631 35:1.1889977 36:-0.072686478 37:-0.012545938 38:1.7157743 39:-0.098874159 40:-0.37154424 41:1.6322391 42:-0.1019403 43:-0.73201907 44:1.6246345 45:-0.10548402 46:-0.7961719 47:1.5470855 48:0.07722123 49:0.00064838491 50:1.6810791 51:0.13483723 52:-0.35322601 53:1.6354105 54:0.14722389 55:-0.724033 56:1.6641328 57:0.14919819 58:-0.78994906 59:1.5836909 60:-0.0023826286 61:0.52768719 62:1.8398778 63:-0.21921547 64:-0.14984888 65:1.6675031 66:-0.17414278 67:-0.071430854 68:1.6480596 69:0.23949349 70:0.56033802 71:1.1370261 72:0.21817002 73:0.52144569 74:1.1964407 
-0 10 0 0 0 0 0 0 0 0 0 0 0 0:0.0024303123 1:-0.01818835 2:1.7353592 3:0 4:0.30000001 5:1.8 6:-0.0025973283 7:0.60969287 8:1.850687 9:-0.012847666 10:0.77044153 11:1.8553343 12:-0.16707993 13:0.47760841 14:1.8687978 15:-0.19457941 16:0.20962933 17:1.8484263 18:-0.21824394 19:0.010891594 20:1.7614727 21:-0.22237544 22:-0.071572207 23:1.7184114 24:0.1224037 25:0.49713445 26:1.7706447 27:0.14636278 28:0.49776778 29:1.5034485 30:0.13600375 31:0.46180388 32:1.2817328 33:0.18355611 34:0.50705332 35:1.1755822 36:-0.074424759 37:-0.020298861 38:1.7180052 39:-0.11177962 40:-0.35576817 41:1.6503 42:-0.12560341 43:-0.70860648 44:1.650569 45:-0.12837268 46:-0.78579628 47:1.5692739 48:0.077406675 49:-0.0058299527 50:1.6766152 51:0.14713435 52:-0.33315155 53:1.6368566 54:0.20217191 55:-0.70008075 56:1.6775141 57:0.21010269 58:-0.78133178 59:1.6059074 60:-0.0018871278 61:0.53339076 62:1.8404918 63:-0.22566013 64:-0.14020169 65:1.6882172 66:-0.1882174 67:-0.058733784 68:1.6745386 69:0.17971197 70:0.49797884 71:1.136425 72:0.15310249 73:0.46798256 74:1.1801445 
-0 10 0 0 0 0 0 0 0 0 0 0 0 0:0.0024454147 1:-0.018126521 2:1.7353997 3:0 4:0.30000001 5:1.8 6:-0.0026017576 7:0.60965782 8:1.8506684 9:-0.012818504 10:0.77040297 11:1.8554654 12:-0.16695288 13:0.477487 14:1.8689027 15:-0.19439647 16:0.21055479 17:1.8486462 18:-0.21835202 19:0.011745181 20:1.7619667 21:-0.22321483 22:-0.071570307 23:1.7205448 24:0.12325142 25:0.49738267 26:1.7708049 27:0.15026397 28:0.49831867 29:1.5039229 30:0.1392886 31:0.46210083 32:1.2822785 33:0.1906983 34:0.50527579 35:1.1795275 36:-0.074415803 37:-0.020233516 38:1.7180285 39:-0.11181159 40:-0.35537437 41:1.6502481 42:-0.12567948 43:-0.70595402 44:1.6509314 45:-0.12840483 46:-0.7857793 47:1.5692248 48:0.077429242 49:-0.0057842769 50:1.6766744 51:0.14753148 52:-0.33470997 53:1.6370764 54:0.202032 55:-0.69904023 56:1.6772032 57:0.21006981 58:-0.78133589 59:1.6058707 60:-0.0018929876 61:0.53336436 62:1.8404756 63:-0.22474295 64:-0.14129373 65:1.6894021 66:-0.18774357 67:-0.066351891 68:1.672308 69:0.1851621 70:0.49881336 71:1.1380613 72:0.15894246 73:0.47006729 74:1.1778309 
-0 10 0 0 0 0 0 0 0 0 0 0 0 0:0.0023879856 1:-0.018086655 2:1.7354996 3:0 4:0.30000001 5:1.8 6:-0.0024952404 7:0.60964054 8:1.8505476 9:-0.01297719 10:0.77025175 11:1.8554413 12:-0.16643727 13:0.47764328 14:1.8679931 15:-0.19447708 16:0.21154024 17:1.8488648 18:-0.2183896 19:0.012772011 20:1.7620237 21:-0.22391799 22:-0.072554603 23:1.7187221 24:0.12412852 25:0.49772969 26:1.7709758 27:0.14654395 28:0.36624798 29:1.5850279 30:0.13669378 31:0.43604299 32:1.3313105 33:0.20190637 34:0.50419056 35:1.1775804 36:-0.074500918 37:-0.020127995 38:1.718118 39:-0.1119514 40:-0.35524175 41:1.6502192 42:-0.12600203 43:-0.70630902 44:1.6510108 45:-0.12854737 46:-0.78581542 47:1.5691864 48:0.077402249 49:-0.0058119129 50:1.6767919 51:0.14853673 52:-0.33859423 53:1.6385152 54:0.20181288 55:-0.6992777 56:1.6773245 57:0.20956866 58:-0.77964061 59:1.6062319 60:-0.0018228292 61:0.53334856 62:1.8403924 63:-0.2248186 64:-0.1404825 65:1.6909497 66:-0.18798052 67:-0.046907052 68:1.6768906 69:0.20031671 70:0.50235224 71:1.1398623 72:0.16991065 73:0.48029718 74:1.1488073 
-0 10 0 0 0 0 0 0 0 0 0 0 0 0:0.0023938566 1:-0.018064376 2:1.735522 3:0 4:0.30000001 5:1.8 6:-0.002501186 7:0.60962659 8:1.8505318 9:-0.01302629 10:0.77022487 11:1.855479 12:-0.16650426 13:0.47720408 14:1.868046 15:-0.19441232 16:0.21151748 17:1.8488948 18:-0.21830449 19:0.012778495 20:1.7619851 21:-0.2237843 22:-0.072334617 23:1.7204759 24:0.12513238 25:0.49801916 26:1.7709591 27:0.15312454 28:0.3731496 29:1.581033 30:0.19191512 31:0.46450937 32:1.3042543 33:0.21155018 34:0.50149637 35:1.1830699 36:-0.074501209 37:-0.020117458 38:1.7180979 39:-0.11188595 40:-0.35533488 41:1.6502883 42:-0.12575874 43:-0.70603514 44:1.651088 45:-0.12852594 46:-0.78601038 47:1.5692565 48:0.077416904 49:-0.0057854913 50:1.6768959 51:0.14856473 52:-0.33863628 53:1.6385572 54:0.20180392 55:-0.69928181 56:1.6772974 57:0.20928454 58:-0.77930295 59:1.6069086 60:-0.001827836 61:0.53333706 62:1.84038 63:-0.22496822 64:-0.140789 65:1.6905358 66:-0.18635759 67:-0.038363334 68:1.6765044 69:0.2120508 70:0.49740791 71:1.1376817 72:0.18243459 73:0.45652196 74:1.1958618 
-0 10 0 0 0 0 0 0 0 0 0 0 0 0:0.0048262402 1:-0.014082044 2:1.7265999 3:0 4:0.30000001 5:1.8 6:-0.0048380941 7:0.6054275 8:1.8589613 9:-0.010372387 10:0.76872224 11:1.8621137 12:-0.17499554 13:0.46776468 14:1.8634913 15:-0.19684471 16:0.2056202 17:1.8296831 18:-0.21311656 19:0.0051630437 20:1.7449515 21:-0.21478711 22:-0.076121271 23:1.7036068 24:0.12514597 25:0.48161548 26:1.7714374 27:0.23955372 28:0.5072915 29:1.5750768 30:0.1708445 31:0.51842594 32:1.2833316 33:0.16384412 34:0.53271294 35:1.195267 36:-0.071127594 37:-0.017469168 38:1.709388 39:-0.093956307 40:-0.35348827 41:1.6408255 42:-0.098205887 43:-0.71965343 44:1.6482375 45:-0.10489762 46:-0.78761047 47:1.5714414 48:0.079783276 49:-0.00085553527 50:1.6677611 51:0.14810055 52:-0.34233201 53:1.6224129 54:0.17793541 55:-0.71011645 56:1.6463711 57:0.18340813 58:-0.77802736 59:1.5672042 60:-0.0035768077 61:0.53014517 62:1.8467429 63:-0.21742827 64:-0.14430991 65:1.6708329 66:-0.24909064 67:-0.085722834 68:1.708638 69:0.15570648 70:0.55081582 71:1.0910034 72:0.11662659 73:0.50560004 74:1.1721377 
-0 10 0 0 0 0 0 0 0 0 0 0 0 0:0.0048412085 1:-0.014055494 2:1.7267053 3:0 4:0.30000001 5:1.8 6:-0.0048605595 7:0.60541064 8:1.8588212 9:-0.010373563 10:0.76864308 11:1.8619421 12:-0.17496933 13:0.4677853 14:1.8634837 15:-0.19685605 16:0.20556259 17:1.8297932 18:-0.21307494 19:0.0050945841 20:1.7450783 21:-0.21454144 22:-0.075570434 23:1.7028983 24:0.12547815 25:0.48258209 26:1.7714727 27:0.24089862 28:0.5217489 29:1.5782316 30:0.17201146 31:0.51860219 32:1.2863114 33:0.17544879 34:0.5354107 35:1.1969941 36:-0.071100429 37:-0.017469201 38:1.7095168 39:-0.093735591 40:-0.35392356 41:1.6407368 42:-0.098224863 43:-0.71979725 44:1.6483796 45:-0.10482308 46:-0.78777134 47:1.5716455 48:0.079775199 49:-0.00078356639 50:1.667834 51:0.1481185 52:-0.34242916 53:1.6224959 54:0.17783839 55:-0.71070933 56:1.6465056 57:0.18341176 58:-0.77830577 59:1.5673277 60:-0.0035956167 61:0.53013587 62:1.8466394 63:-0.21770221 64:-0.14507669 65:1.6721346 66:-0.24579746 67:-0.10295036 68:1.6918328 69:0.17657852 70:0.55192119 71:1.1038795 72:0.13072039 73:0.50834668 74:1.1770272 
-0 10 0 0 0 0 0 0 0 0 0 0 0 0:0.004868269 1:-0.014000606 2:1.7267997 3:0 4:0.30000001 5:1.8 6:-0.0048871618 7:0.60536426 8:1.8587773 9:-0.010299219 10:0.7685203 11:1.8613327 12:-0.17445123 13:0.46876216 14:1.8630254 15:-0.19692194 16:0.20527275 17:1.8300478 18:-0.21317555 19:0.0048700459 20:1.7451603 21:-0.21480832 22:-0.077065632 23:1.6988909 24:0.12602395 25:0.48378402 26:1.7718508 27:0.24013549 28:0.53793371 29:1.5817578 30:0.17362013 31:0.51988769 32:1.2898118 33:0.18858698 34:0.53533792 35:1.1978199 36:-0.071103394 37:-0.017488372 38:1.7097418 39:-0.09384989 40:-0.35459018 41:1.6408827 42:-0.098111227 43:-0.72016656 44:1.6485765 45:-0.10482705 46:-0.78727651 47:1.5715768 48:0.079827517 49:-0.00062362477 50:1.6677582 51:0.14811048 52:-0.34295535 53:1.6225493 54:0.17788483 55:-0.71123219 56:1.6468127 57:0.18345937 58:-0.77877021 59:1.5676281 60:-0.0036197864 61:0.5301047 62:1.8466008 63:-0.21463019 64:-0.14416449 65:1.6697147 66:-0.24565402 67:-0.088673368 68:1.698983 69:0.18703589 70:0.55199438 71:1.1033382 72:0.14206003 73:0.50148845 74:1.1666851 
-0 10 0 0 0 0 0 0 0 0 0 0 0 0:0.0001937449 1:-0.013412636 2:1.7354536 3:0 4:0.30000001 5:1.8 6:-0.00095651299 7:0.60466498 8:1.8511267 9:-0.0056000054 10:0.76617897 11:1.8558145 12:-0.17174375 13:0.46792883 14:1.8626442 15:-0.19786592 16:0.20179512 17:1.8329272 18:-0.2148582 19:0.0053983219 20:1.7383475 21:-0.21664792 22:-0.076412305 23:1.6994414 24:0.13221359 25:0.49449807 26:1.776114 27:0.2098766 28:0.48762619 29:1.5599198 30:0.19922405 31:0.50597757 32:1.2701871 33:0.17180696 34:0.50261301 35:1.1628399 36:-0.076099686 37:-0.016817849 38:1.7162957 39:-0.094494641 40:-0.37344706 41:1.6503406 42:-0.088788591 43:-0.73238343 44:1.6644912 45:-0.095168673 46:-0.7969566 47:1.5893102 48:0.074475519 49:-0.0004494898 50:1.6785741 51:0.12561342 52:-0.34193695 53:1.6307654 54:0.12411516 55:-0.71435422 56:1.651154 57:0.12302128 58:-0.7877 59:1.5690351 60:-0.00062569976 61:0.52960622 62:1.8408103 63:-0.21860796 64:-0.14565535 65:1.6635156 66:-0.25977281 67:-0.10022028 68:1.70152 69:0.1648815 70:0.49531743 71:1.113574 72:0.13885301 73:0.46222213 74:1.1816866 
-0 10 0 0 0 0 0 10 0 0 0 0 0 0:0.00034108758 1:-0.013277549 2:1.7353432 3:0 4:0.30000001 5:1.8 6:-0.00091162324 7:0.60441828 8:1.851042 9:-0.0055436566 10:0.76627249 11:1.855871 12:-0.17236796 13:0.46789461 14:1.8624346 15:-0.19813749 16:0.20138241 17:1.8324797 18:-0.21488425 19:0.0048796348 20:1.7381041 21:-0.21654341 22:-0.075872794 23:1.6969864 24:0.13211164 25:0.4946577 26:1.7763116 27:0.24981812 28:0.54379147 29:1.5875161 30:0.22843069 31:0.54691988 32:1.2900906 33:0.17126691 34:0.50326049 35:1.1600845 36:-0.075979494 37:-0.016695935 38:1.7160771 39:-0.094318099 40:-0.37354219 41:1.6501725 42:-0.089046933 43:-0.73219126 44:1.6643465 45:-0.095218092 46:-0.79724199 47:1.5894864 48:0.074638672 49:-0.00028957799 50:1.678529 51:0.12549892 52:-0.34181815 53:1.6304386 54:0.12432838 55:-0.7163381 56:1.650182 57:0.1230725 58:-0.78769439 59:1.5691559 60:-0.00060278922 61:0.52943361 62:1.8407571 63:-0.220139 64:-0.14596455 65:1.6637385 66:-0.25554359 67:-0.080702469 68:1.6992047 69:0.15972713 70:0.4892745 71:1.1045861 72:0.14038071 73:0.46373817 74:1.183594 
-10 0 0 0 10 0 0 0 0 0 0 0 0 0:-0.00034236163 1:-0.012900691 2:1.7352629 3:0 4:0.30000001 5:1.8 6:0.000214912 7:0.60427183 8:1.8507447 9:-0.005499512 10:0.76581788 11:1.856566 12:-0.17191803 13:0.46875295 14:1.8625011 15:-0.19851522 16:0.20128779 17:1.8316164 18:-0.21461171 19:0.0052280612 20:1.7358742 21:-0.21794561 22:-0.076819733 23:1.6945982 24:0.13211673 25:0.49441653 26:1.7767391 27:0.19250476 28:0.55080998 29:1.5475731 30:0.18147099 31:0.59762567 32:1.3282919 33:0.15846938 34:0.62026173 35:1.213372 36:-0.076819763 37:-0.016386073 38:1.7163439 39:-0.094788104 40:-0.37201062 41:1.6499395 42:-0.089918345 43:-0.73165536 44:1.6648312 45:-0.094832435 46:-0.79629946 47:1.5902557 48:0.074007727 49:0.00041102245 50:1.6777439 51:0.12477223 52:-0.34071836 53:1.6299162 54:0.12363238 55:-0.71362221 56:1.651217 57:0.12359121 58:-0.7871052 59:1.5701256 60:0.00021117926 61:0.52930707 62:1.8405418 63:-0.21880469 64:-0.14420693 65:1.6620913 66:-0.25525406 67:-0.093819335 68:1.6912308 69:0.13721764 70:0.62821817 71:1.1257093 72:0.1218105 73:0.58940333 74:1.1873615 
-10 0 0 0 10 0 0 0 0 0 0 0 0 0:-0.00027111918 1:-0.012853093 2:1.7351222 3:0 4:0.30000001 5:1.8 6:-6.1839819e-06 7:0.6043008 8:1.8510847 9:-0.0054459795 10:0.76574582 11:1.8568211 12:-0.17180526 13:0.46870241 14:1.8625307 15:-0.19824256 16:0.20157748 17:1.8318052 18:-0.21451004 19:0.0051568672 20:1.7357898 21:-0.21697575 22:-0.075335599 23:1.695653 24:0.13230421 25:0.49452075 26:1.7766933 27:0.19270985 28:0.56070173 29:1.5588531 30:0.17483516 31:0.62892646 32:1.3460355 33:0.15745816 34:0.65144891 35:1.210973 36:-0.076759234 37:-0.016424425 38:1.7162657 39:-0.094232164 40:-0.37014881 41:1.6494274 42:-0.089808218 43:-0.73162913 44:1.6649275 45:-0.094733931 46:-0.79663599 47:1.5902963 48:0.074098885 49:0.00055464357 50:1.6775227 51:0.1239246 52:-0.33892718 53:1.6302972 54:0.12392749 55:-0.71185708 56:1.6516442 57:0.12359092 58:-0.78696764 59:1.569922 60:6.4663589e-05 61:0.52933127 62:1.840766 63:-0.22078329 64:-0.14561462 65:1.6634836 66:-0.25781113 67:-0.097469218 68:1.6921687 69:0.14157428 70:0.66401201 71:1.131283 72:0.11934547 73:0.61722386 74:1.1980522 
-10 0 0 0 10 8.467014128958262 0 0 0 0 0 0 0 0:-0.00022919476 1:-0.012787173 2:1.7350969 3:0 4:0.30000001 5:1.8 6:-7.3902309e-05 7:0.60425586 8:1.8510933 9:-0.005287677 10:0.76565176 11:1.8570323 12:-0.17160235 13:0.4685052 14:1.8626451 15:-0.19748704 16:0.20319636 17:1.8322954 18:-0.21472588 19:0.0043612029 20:1.7352352 21:-0.2178414 22:-0.075157322 23:1.6950407 24:0.13264886 25:0.49462789 26:1.7766752 27:0.18674923 28:0.58144367 29:1.5495329 30:0.16770442 31:0.6557762 32:1.3042011 33:0.15713491 34:0.68043977 35:1.2206039 36:-0.076699741 37:-0.016358921 38:1.7162638 39:-0.094466142 40:-0.36747354 41:1.6485567 42:-0.089589708 43:-0.73203099 44:1.6649861 45:-0.094396494 46:-0.79708242 47:1.5901241 48:0.074134782 49:0.0005879309 50:1.6775031 51:0.12395436 52:-0.33894306 53:1.6304607 54:0.12380041 55:-0.71412098 56:1.6516781 57:0.1237811 58:-0.7872082 59:1.5698805 60:1.5348196e-05 61:0.52929622 62:1.840775 63:-0.22054344 64:-0.1461259 65:1.6676922 66:-0.2547493 67:-0.086591341 68:1.6906958 69:0.14070901 70:0.69535571 71:1.1372149 72:0.11963546 73:0.63992321 74:1.1839974 
-10 1.200751294523607 0 0 10 10 6.306032717697496 0 0 0 0 0 3.002694630625719 0:-0.00025755912 1:-0.012593627 2:1.7350495 3:0 4:0.30000001 5:1.8 6:-6.5751374e-05 7:0.60417992 8:1.8511183 9:-0.0054437518 10:0.76545858 11:1.8574436 12:-0.17212383 13:0.46828854 14:1.8621342 15:-0.19703642 16:0.20436424 17:1.8325698 18:-0.215069 19:0.0044490695 20:1.7352216 21:-0.21754497 22:-0.076295316 23:1.6953304 24:0.13286841 25:0.4950138 26:1.7766826 27:0.18449351 28:0.60163867 29:1.5464313 30:0.16884476 31:0.6712122 32:1.301975 33:0.15535477 34:0.71048707 35:1.2268007 36:-0.076762997 37:-0.016224682 38:1.7162359 39:-0.094254635 40:-0.36738473 41:1.6484592 42:-0.089510135 43:-0.7321524 44:1.6649663 45:-0.094458461 46:-0.79762429 47:1.590059 48:0.074147247 49:0.0008212626 50:1.6774557 51:0.12389579 52:-0.3390187 53:1.6304982 54:0.12375986 55:-0.71404022 56:1.6516454 57:0.12379844 58:-0.7874822 59:1.5697429 60:2.2679567e-05 61:0.52923441 62:1.8407915 63:-0.21754628 64:-0.14451009 65:1.6645486 66:-0.25693265 67:-0.086533844 68:1.6974132 69:0.13625479 70:0.72779626 71:1.1369879 72:0.11680644 73:0.66710329 74:1.1876829 
-0 7.577707350887207 0 0 0 0 0 0 0 0 0 0 0 0:0.0056943148 1:-0.0088718813 2:1.7383461 3:0 4:0.30000001 5:1.8 6:-0.0055421293 7:0.60052359 8:1.8478956 9:-0.0076378323 10:0.7600702 11:1.8430891 12:-0.18201247 13:0.4643254 14:1.8490291 15:-0.22601415 16:0.20283711 17:1.8196964 18:-0.25793692 19:-0.0043765586 20:1.7278805 21:-0.27688116 22:-0.081259549 23:1.6878819 24:0.13478847 25:0.50054234 26:1.7893414 27:0.17533168 28:0.50267524 29:1.5240865 30:0.13303173 31:0.4091799 32:1.2993803 33:0.20907867 34:0.50705612 35:1.190748 36:-0.073756725 37:-0.0096806567 38:1.7098608 39:-0.090732411 40:-0.33751181 41:1.6250834 42:-0.060064454 43:-0.72897524 44:1.646584 45:-0.05073623 46:-0.79893571 47:1.5735197 48:0.086266235 49:0.0014345963 50:1.6903005 51:0.16249079 52:-0.33251473 53:1.5925083 54:0.20266229 55:-0.71740514 56:1.6203575 57:0.21240814 58:-0.78383094 59:1.5414982 60:-0.0042020865 61:0.52647054 62:1.8383865 63:-0.27612817 64:-0.13835329 65:1.6604757 66:-0.2446046 67:-0.074422091 68:1.6636429 69:0.22807057 70:0.50851691 71:1.1344357 72:0.1737864 73:0.47398546 74:1.1955581 
-0 0 0 0 2.150731800564241 0 0 0 0 0 0 0 0 0:0.01042974 1:-0.0070330054 2:1.7279651 3:0 4:0.30000001 5:1.8 6:-0.0097899586 7:0.59903663 8:1.8551881 9:-0.01119709 10:0.75752741 11:1.8522747 12:-0.18305257 13:0.46528071 14:1.8515399 15:-0.22772786 16:0.20688446 17:1.8187521 18:-0.25549796 19:-0.0012606531 20:1.7206409 21:-0.25355592 22:-0.0814953 23:1.6771381 24:0.13306659 25:0.50058818 26:1.7943823 27:0.17468248 28:0.50872451 29:1.529454 30:0.1429531 31:0.43706363 32:1.3143365 33:0.21347851 34:0.53169507 35:1.2037625 36:-0.067942791 37:-0.009184733 38:1.6982019 39:-0.085737027 40:-0.33851033 41:1.6181152 42:-0.055422187 43:-0.73011184 44:1.6545932 45:-0.045501359 46:-0.79763091 47:1.5893734 48:0.090149969 49:0.0047654063 50:1.6813409 51:0.14849919 52:-0.33859676 53:1.5990493 54:0.16671556 55:-0.71759403 56:1.6282494 57:0.16848835 58:-0.77996457 59:1.5521514 60:-0.0074649006 61:0.52529621 62:1.8443472 63:-0.2539055 64:-0.14243896 65:1.651962 66:-0.22333103 67:-0.067477182 68:1.642801 69:0.23080432 70:0.54066938 71:1.147995 72:0.18316481 73:0.50179923 74:1.2040927 
-0 10 0 0 10 0 0 0 0 0 0 0 0 0:0.010728937 1:-0.0069712568 2:1.7270663 3:0 4:0.30000001 5:1.8 6:-0.010174695 7:0.59890479 8:1.8562171 9:-0.011593256 10:0.75723976 11:1.8533013 12:-0.18272039 13:0.46382201 14:1.8511446 15:-0.22291417 16:0.20408235 17:1.8174903 18:-0.24824108 19:-0.002699839 20:1.7188003 21:-0.2419153 22:-0.08217214 23:1.6759942 24:0.13286653 25:0.50043571 26:1.7944691 27:0.17466933 28:0.51421094 29:1.5298316 30:0.14177193 31:0.44298834 32:1.3145053 33:0.21527441 34:0.54269028 35:1.2175848 36:-0.067519873 37:-0.0094675291 38:1.6975715 39:-0.085224643 40:-0.33982426 41:1.6184442 42:-0.055916782 43:-0.73064971 44:1.655318 45:-0.04619934 46:-0.79812109 47:1.5904939 48:0.090284288 49:0.0051680934 50:1.6801918 51:0.14797895 52:-0.33770841 53:1.5997841 54:0.16543871 55:-0.71770096 56:1.6294858 57:0.16731749 58:-0.78006554 59:1.5531466 60:-0.0077672713 61:0.52519685 62:1.8451288 63:-0.24122407 64:-0.14262356 65:1.6503642 66:-0.21104683 67:-0.066649631 68:1.6452444 69:0.23666449 70:0.54980761 71:1.1435773 72:0.18212707 73:0.51013941 74:1.20086 
-10 10 0 0 10 0 0 0 0 0 0 0 0 0:0.010000244 1:-0.0068591218 2:1.7272639 3:0 4:0.30000001 5:1.8 6:-0.0093021356 7:0.59866464 8:1.8566566 9:-0.012177575 10:0.75700837 11:1.8545556 12:-0.18208508 13:0.46301717 14:1.8513894 15:-0.21827595 16:0.20246822 17:1.8170199 18:-0.23383363 19:-0.0079613309 20:1.7126656 21:-0.227742 22:-0.082199842 23:1.6729002 24:0.13234551 25:0.50075972 26:1.7949843 27:0.17348202 28:0.52178419 29:1.5307555 30:0.21650547 31:0.54448521 32:1.3006985 33:0.21386802 34:0.56033283 35:1.2270491 36:-0.068221286 37:-0.0095159691 38:1.6982045 39:-0.083982125 40:-0.34149557 41:1.6186423 42:-0.056538519 43:-0.73160917 44:1.6558461 45:-0.047175992 46:-0.7986024 47:1.5912619 48:0.089511231 49:0.0055057723 50:1.6797357 51:0.14716206 52:-0.33603853 53:1.6011181 54:0.16380443 55:-0.71764106 56:1.6305909 57:0.16596383 58:-0.77985603 59:1.5540061 60:-0.0071071088 61:0.52503383 62:1.8453403 63:-0.22793059 64:-0.14140812 65:1.6445117 66:-0.17487015 67:-0.064308614 68:1.6626091 69:0.21987185 70:0.56961966 71:1.145473 72:0.18159726 73:0.53090745 74:1.2037399 
-10 5.221691067775789 2.986887019950664 3.048819128356991 10 0 0 0 0 0 0 0 0 0:0.0092324577 1:-0.0069305189 2:1.7271676 3:0 4:0.30000001 5:1.8 6:-0.0082341358 7:0.59868813 8:1.8573546 9:-0.012201231 10:0.75683516 11:1.8559489 12:-0.18022735 13:0.46253657 14:1.8514562 15:-0.21483845 16:0.20369226 17:1.816443 18:-0.22926068 19:-0.0085707195 20:1.7126322 21:-0.21752355 22:-0.081512436 23:1.673286 24:0.13231115 25:0.50073159 26:1.7954268 27:0.14205033 28:0.31675753 29:1.6648951 30:0.20315395 31:0.48605761 32:1.4267974 33:0.21407364 34:0.58490729 35:1.2322488 36:-0.068879992 37:-0.0096443482 38:1.6985145 39:-0.083722398 40:-0.34174901 41:1.6188436 42:-0.05771995 43:-0.73212349 44:1.6562476 45:-0.048684839 46:-0.79871023 47:1.5916991 48:0.088727139 49:0.0055121891 50:1.6791563 51:0.14663783 52:-0.33580244 53:1.6023126 54:0.16227946 55:-0.71779573 56:1.6314592 57:0.1641583 58:-0.78031254 59:1.5547571 60:-0.0063368604 61:0.52506077 62:1.8457503 63:-0.22147125 64:-0.14064772 65:1.6432543 66:-0.1786769 67:-0.084117875 68:1.6423759 69:0.22440492 70:0.5986653 71:1.161438 72:0.17968358 73:0.55165416 74:1.2010863 
-0 0 0.5213020522137956 0 0 0 0 0 0 0 0 0 0 0:0.0056980494 1:-0.010802189 2:1.7399116 3:0 4:0.30000001 5:1.8 6:-0.0051048975 7:0.60240608 8:1.8456941 9:-0.009171091 10:0.76251501 11:1.8420172 12:-0.17670335 13:0.46883461 14:1.851603 15:-0.20499516 16:0.20306365 17:1.8261485 18:-0.21922772 19:0.0046593752 20:1.7354941 21:-0.21598673 22:-0.074667014 23:1.6978569 24:0.1323432 25:0.51301885 26:1.7869945 27:0.14683913 28:0.35555962 29:1.6038995 30:0.17410883 31:0.33117855 32:1.3819995 33:0.20124023 34:0.47612125 35:1.1939127 36:-0.070541382 37:-0.014157871 38:1.7151852 39:-0.088810831 40:-0.36223757 41:1.6566586 42:-0.079570591 43:-0.73041582 44:1.6735368 45:-0.077486664 46:-0.79841197 47:1.5991921 48:0.082486533 49:0.0019818153 50:1.6882224 51:0.13480717 52:-0.33803487 53:1.6334429 54:0.13591754 55:-0.71683049 56:1.6411428 57:0.13464683 58:-0.78644633 59:1.5569158 60:-0.0038716514 61:0.52789211 62:1.8367858 63:-0.21396592 64:-0.13965641 65:1.6715064 66:-0.1728168 67:-0.064619727 68:1.6665711 69:0.23040053 70:0.46831173 71:1.1294415 72:0.24060847 73:0.50172842 74:1.1891015 
-0 10 0 0 0 0 0 0 0 0 0 0 0 0:0.0056641921 1:-0.010763254 2:1.7398767 3:0 4:0.30000001 5:1.8 6:-0.0051065795 7:0.60236412 8:1.8457623 9:-0.0092160441 10:0.76238507 11:1.8417401 12:-0.17666407 13:0.46880665 14:1.8515301 15:-0.2050045 16:0.20272768 17:1.8261919 18:-0.21991964 19:0.0043045618 20:1.7357397 21:-0.21616694 22:-0.074635416 23:1.6964588 24:0.13224734 25:0.51310742 26:1.7870445 27:0.16398329 28:0.49551347 29:1.5210428 30:0.18811761 31:0.34587559 32:1.3573351 33:0.20267211 34:0.47241542 35:1.1929245 36:-0.07061395 37:-0.014167424 38:1.7151632 39:-0.088950977 40:-0.36227033 41:1.6566982 42:-0.079545259 43:-0.73108846 44:1.6735334 45:-0.077649802 46:-0.79847425 47:1.59938 48:0.082493171 49:0.0021278299 50:1.6880627 51:0.13475363 52:-0.33799228 53:1.6334562 54:0.13577193 55:-0.71689266 56:1.641192 57:0.13430233 58:-0.78644925 59:1.5571485 60:-0.0038737096 61:0.52785897 62:1.8368363 63:-0.21196571 64:-0.14045107 65:1.6691718 66:-0.17271368 67:-0.05512723 68:1.6686554 69:0.22724925 70:0.46099493 71:1.1177716 72:0.23900585 73:0.50117153 74:1.1903389 
-0 0 0 0 0 0 0 10 0 0 0 0 0 0:0.0056947991 1:-0.010802737 2:1.7399669 3:0 4:0.30000001 5:1.8 6:-0.0051651895 7:0.60240471 8:1.845695 9:-0.0093839224 10:0.76251554 11:1.8418088 12:-0.17635316 13:0.4686408 14:1.8509812 15:-0.20510697 16:0.20280345 17:1.8264461 18:-0.21992558 19:0.0044422243 20:1.7358289 21:-0.21687593 22:-0.074156009 23:1.6973977 24:0.13212287 25:0.5132097 26:1.7872534 27:0.16398188 28:0.49553907 29:1.5212765 30:0.18869172 31:0.3460809 32:1.3574939 33:0.20407186 34:0.47392932 35:1.1937253 36:-0.070598081 37:-0.014222672 38:1.7151713 39:-0.089087576 40:-0.36226577 41:1.6567974 42:-0.079685897 43:-0.73130554 44:1.6736493 45:-0.07776171 46:-0.79839939 47:1.5994468 48:0.082533836 49:0.0020964835 50:1.6882429 51:0.13462238 52:-0.33790326 53:1.6335711 54:0.13567959 55:-0.71681207 56:1.6413131 57:0.13417082 58:-0.78640419 59:1.5571203 60:-0.0039167851 61:0.52788985 62:1.8367844 63:-0.2156691 64:-0.13825352 65:1.6709418 66:-0.17453805 67:-0.056914739 68:1.6694045 69:0.21096416 70:0.45857716 71:1.1208379 72:0.24213545 73:0.49677604 74:1.1841242 
-0 10 5.578556457249279 0 0 0 0 0 0 0 0 0 0 0:0.0057321955 1:-0.010767122 2:1.7398925 3:0 4:0.30000001 5:1.8 6:-0.0052777715 7:0.60229772 8:1.8458734 9:-0.0092161577 10:0.76259142 11:1.8416247 12:-0.17600602 13:0.46873704 14:1.8506994 15:-0.2050233 16:0.20281319 17:1.8263698 18:-0.21999884 19:0.0044567687 20:1.7357836 21:-0.21703222 22:-0.073781572 23:1.6980848 24:0.13233975 25:0.51317173 26:1.7860665 27:0.16420545 28:0.49547538 29:1.5200973 30:0.18934217 31:0.34573629 32:1.3566604 33:0.20480099 34:0.47516909 35:1.1934688 36:-0.070559129 37:-0.014149179 38:1.7151103 39:-0.088966981 40:-0.36206374 41:1.656765 42:-0.079587467 43:-0.73095453 44:1.6736746 45:-0.077756137 46:-0.79823923 47:1.5996442 48:0.082570672 49:0.0020846529 50:1.6881728 51:0.13474225 52:-0.3377085 53:1.633534 54:0.13564742 55:-0.71683133 56:1.6412792 57:0.13371973 58:-0.78756034 59:1.5583577 60:-0.0039932877 61:0.52781624 62:1.8369021 63:-0.21474309 64:-0.13697426 65:1.6712084 66:-0.17453891 67:-0.057820667 68:1.6695266 69:0.2195873 70:0.46382448 71:1.1356928 72:0.23896083 73:0.49982792 74:1.1853118 
-0 10 0 0 0 0 0 10 0 0 0 0 0 0:0.0057357959 1:-0.010709361 2:1.7399998 3:0 4:0.30000001 5:1.8 6:-0.0053113215 7:0.60222417 8:1.8457584 9:-0.0091654994 10:0.76264745 11:1.8415689 12:-0.17601605 13:0.46878782 14:1.8508596 15:-0.20509166 16:0.20284705 17:1.8265181 18:-0.22049536 19:0.0044850549 20:1.7360435 21:-0.21671815 22:-0.074058518 23:1.699213 24:0.1323625 25:0.51330543 26:1.7862663 27:0.16421303 28:0.49552688 29:1.5203042 30:0.18931048 31:0.34578416 32:1.3568697 33:0.20348428 34:0.4732627 35:1.1915295 36:-0.07056503 37:-0.014114306 38:1.7152195 39:-0.088927016 40:-0.36178109 41:1.656806 42:-0.079521075 43:-0.73139298 44:1.6741533 45:-0.077742189 46:-0.79809022 47:1.5997934 48:0.082577258 49:0.00216405 50:1.6882973 51:0.13467494 52:-0.33751968 53:1.6337075 54:0.13561808 55:-0.71675229 56:1.6413789 57:0.1338089 58:-0.78771925 59:1.5580721 60:-0.004017083 61:0.52776271 62:1.8368168 63:-0.21218424 64:-0.14037104 65:1.6709228 66:-0.17310934 67:-0.069586203 68:1.6647944 69:0.22152941 70:0.46152276 71:1.1304021 72:0.23974825 73:0.49946868 74:1.1854184 
-0 7.588196056873207 0 0 0 0 0 9.759735625901316 0 0 0 0 0 0:0.0057413969 1:-0.010735189 2:1.7400212 3:0 4:0.30000001 5:1.8 6:-0.005328998 7:0.60228062 8:1.8457265 9:-0.0091845971 10:0.76262987 11:1.8414998 12:-0.17598255 13:0.46877068 14:1.8508773 15:-0.20510235 16:0.20286968 17:1.8265185 18:-0.22055082 19:0.0044791056 20:1.7361336 21:-0.21688801 22:-0.073798694 23:1.6991839 24:0.13249816 25:0.51332682 26:1.7864428 27:0.16442569 28:0.49543992 29:1.5205016 30:0.1911213 31:0.34523249 32:1.3577971 33:0.20459786 34:0.4732675 35:1.1947556 36:-0.070568606 37:-0.014135425 38:1.7152648 39:-0.08891394 40:-0.36187446 41:1.6568379 42:-0.079480551 43:-0.73142284 44:1.6741347 45:-0.077724941 46:-0.79809922 47:1.5998521 48:0.082580611 49:0.0021266295 50:1.6882939 51:0.13473912 52:-0.33760774 53:1.633822 54:0.13501514 55:-0.72039384 56:1.6403184 57:0.13375935 58:-0.78787059 59:1.5582156 60:-0.0040301848 61:0.52780181 62:1.8367934 63:-0.21536203 64:-0.13718173 65:1.6707807 66:-0.17348917 67:-0.053672615 68:1.6700292 69:0.21336032 70:0.4643203 71:1.131062 72:0.23997521 73:0.50014883 74:1.1884449 
-0 0 0 0 0 0 0 9.924481678867084 0 0 0 0 0 0:0.0021593384 1:-0.014978553 2:1.736444 3:0 4:0.30000001 5:1.8 6:-0.0021593161 7:0.60622746 8:1.8498702 9:-0.01136471 10:0.76879919 11:1.8511043 12:-0.16164063 13:0.47132286 14:1.8668475 15:-0.18670197 16:0.20240667 17:1.8628411 18:-0.20122832 19:0.00090203155 20:1.78017 21:-0.21047664 22:-0.07789918 23:1.7449374 24:0.1299932 25:0.47809333 26:1.7654443 27:0.25946793 28:0.47088018 29:1.5340753 30:0.17623045 31:0.49610317 32:1.3062837 33:0.13643233 34:0.51082748 35:1.2095654 36:-0.073388182 37:-0.017056074 38:1.7193117 39:-0.087651722 40:-0.35510209 41:1.6535897 42:-0.08580555 43:-0.72966594 44:1.669064 45:-0.084519468 46:-0.78896421 47:1.597003 48:0.077161834 49:-0.0032328023 50:1.6778588 51:0.13509117 52:-0.33365425 53:1.6288939 54:0.14499356 55:-0.71518487 56:1.6574845 57:0.14187254 58:-0.7792142 59:1.5829682 60:-0.0016015116 61:0.53080386 62:1.8398767 63:-0.20700978 64:-0.14365986 65:1.7149506 66:-0.18129362 67:-0.06551715 68:1.6961198 69:0.10446249 70:0.50781393 71:1.1485212 72:0.17731056 73:0.52102286 74:1.1744554 
-0 0 0 0 0 0 0 10 0 0 0 0 0 0:0.0021049529 1:-0.014804385 2:1.736454 3:0 4:0.30000001 5:1.8 6:-0.002093669 7:0.60593402 8:1.8496633 9:-0.0118642 10:0.7678504 11:1.8517613 12:-0.16256204 13:0.46877939 14:1.8692989 15:-0.18689236 16:0.20191832 17:1.8625197 18:-0.2017388 19:0.00057751779 20:1.7795291 21:-0.21011299 22:-0.077605836 23:1.7446914 24:0.12965086 25:0.47856039 26:1.765789 27:0.24268636 28:0.46673653 29:1.5560255 30:0.19048359 31:0.49631256 32:1.2954125 33:0.13682699 34:0.50313479 35:1.2038116 36:-0.073488712 37:-0.016724281 38:1.7190599 39:-0.087608717 40:-0.35595638 41:1.6531553 42:-0.085631981 43:-0.7295174 44:1.6683092 45:-0.085838117 46:-0.78560656 47:1.5978332 48:0.076991051 49:-0.0031975722 50:1.6780753 51:0.13509095 52:-0.33385998 53:1.6286621 54:0.14532834 55:-0.71597546 56:1.6571579 57:0.14101352 58:-0.77374583 59:1.5849485 60:-0.0015588142 61:0.53059626 62:1.839736 63:-0.2071649 64:-0.14382564 65:1.7156239 66:-0.18170357 67:-0.063552879 68:1.6946974 69:0.11199467 70:0.50127375 71:1.1485581 72:0.1757378 73:0.51944929 74:1.173568 
-0 0 0 0 0 0 0 3.956681564829539 0 0 0 0 0 0:0.0032182075 1:-0.010755511 2:1.7350664 3:0 4:0.30000001 5:1.8 6:-0.0030358117 7:0.60225695 8:1.8504686 9:-0.012720944 10:0.76284224 11:1.8533707 12:-0.16965507 13:0.46480629 14:1.8723793 15:-0.19337487 16:0.19368494 17:1.8497419 18:-0.21461321 19:-0.0055676717 20:1.7630911 21:-0.21594188 22:-0.081972748 23:1.7259893 24:0.14106634 25:0.49093363 26:1.7659492 27:0.13766247 28:0.3507666 29:1.5851111 30:0.1243176 31:0.4249483 32:1.2949986 33:0.14296831 34:0.47637171 35:1.1654487 36:-0.07125289 37:-0.014279665 38:1.717207 39:-0.088518307 40:-0.36044142 41:1.6461897 42:-0.086029068 43:-0.73080122 44:1.6572146 45:-0.085572369 46:-0.79215562 47:1.5845304 48:0.07665436 49:0.002252249 50:1.6766615 51:0.13484755 52:-0.33761343 53:1.6242008 54:0.1445013 55:-0.7190975 56:1.6463127 57:0.14162281 58:-0.78218651 59:1.5721231 60:-0.0022760443 61:0.52780205 62:1.8403606 63:-0.21605679 64:-0.14138579 65:1.6987062 66:-0.18100414 67:-0.065882951 68:1.6829882 69:0.12950008 70:0.46825746 71:1.1303365 72:0.10764767 73:0.43822178 74:1.1782293 
-0 0 0 0 0 0 0 10 0 0 0 0 0 0:0.0031304788 1:-0.010722173 2:1.7351267 3:0 4:0.30000001 5:1.8 6:-0.0028321762 7:0.60213935 8:1.8503296 9:-0.012936827 10:0.76290709 11:1.8533361 12:-0.16963725 13:0.46478397 14:1.8724015 15:-0.19329505 16:0.19412328 17:1.8499062 18:-0.21440727 19:-0.0052226018 20:1.7634633 21:-0.21506092 22:-0.080834553 23:1.7245581 24:0.14019971 25:0.49231952 26:1.7653801 27:0.13777958 28:0.34749129 29:1.587806 30:0.12443059 31:0.41771224 32:1.2966869 33:0.14054495 34:0.4559617 35:1.1678619 36:-0.07130155 37:-0.01428376 38:1.7173455 39:-0.088383116 40:-0.36080593 41:1.6459076 42:-0.086058386 43:-0.73063642 44:1.657131 45:-0.085471176 46:-0.7925666 47:1.5844491 48:0.076449454 49:0.002305584 50:1.676614 51:0.13483471 52:-0.33769435 53:1.6243279 54:0.14454514 55:-0.7193827 56:1.6462605 57:0.14181155 58:-0.7827993 59:1.5715449 60:-0.0021382719 61:0.52771938 62:1.8402617 63:-0.21088472 64:-0.14550485 65:1.6961668 66:-0.18107656 67:-0.064997569 68:1.6819556 69:0.13477927 70:0.44809884 71:1.1321108 72:0.10702284 73:0.41568261 74:1.1894212 
-0 0 0 0 0 0 0 10 0 0 0 0 0 0:0.00305322 1:-0.010637568 2:1.7352207 3:0 4:0.30000001 5:1.8 6:-0.0027894937 7:0.60211784 8:1.8502414 9:-0.013162034 10:0.7629053 11:1.8533227 12:-0.17054127 13:0.46504083 14:1.8721602 15:-0.19311111 16:0.19387057 17:1.850003 18:-0.21421669 19:-0.0055182148 20:1.763675 21:-0.21535027 22:-0.081384078 23:1.7267187 24:0.13980308 25:0.49678791 26:1.764241 27:0.13765775 28:0.33738548 29:1.5860517 30:0.12425992 31:0.4053002 32:1.2943699 33:0.14164215 34:0.4326483 35:1.1742229 36:-0.071303971 37:-0.014239328 38:1.7174804 39:-0.088469848 40:-0.36103976 41:1.6459939 42:-0.08606299 43:-0.73080802 44:1.6570008 45:-0.085377738 46:-0.79344714 47:1.5840156 48:0.076267898 49:0.0024628174 50:1.6766775 51:0.13482969 52:-0.33765781 53:1.6243885 54:0.14455727 55:-0.71942317 56:1.6462944 57:0.14051819 58:-0.77455413 59:1.5738313 60:-0.0021100938 61:0.52770633 62:1.8402045 63:-0.21355861 64:-0.14586894 65:1.7007167 66:-0.18259922 67:-0.067481354 68:1.6836412 69:0.13337077 70:0.42077601 71:1.1358671 72:0.10700303 73:0.3925291 74:1.1863437 
-0 0 0 0 0 0 0 10 7.486292964273335 0 0 0 0 0:0.0030025281 1:-0.010600991 2:1.7353101 3:0 4:0.30000001 5:1.8 6:-0.0027772356 7:0.60210413 8:1.8502188 9:-0.013350375 10:0.76292461 11:1.8532085 12:-0.17057189 13:0.46471384 14:1.8727479 15:-0.19296482 16:0.19366664 17:1.8500457 18:-0.2130304 19:-0.005858398 20:1.7637877 21:-0.21404931 22:-0.080997206 23:1.7262154 24:0.14050734 25:0.49864885 26:1.76368 27:0.14359242 28:0.45748347 29:1.4983916 30:0.12118607 31:0.40971193 32:1.2153571 33:0.14153633 34:0.40171981 35:1.1738002 36:-0.071237102 37:-0.014244503 38:1.7181315 39:-0.08847069 40:-0.361251 41:1.6461892 42:-0.085834563 43:-0.7314322 44:1.6567321 45:-0.085728638 46:-0.79267466 47:1.5865102 48:0.076075055 49:0.0026051337 50:1.6765323 51:0.13486174 52:-0.33769476 53:1.624351 54:0.14459994 55:-0.71944404 56:1.646421 57:0.14123118 58:-0.77731311 59:1.5728292 60:-0.0020990483 61:0.52769393 62:1.8401847 63:-0.21030462 64:-0.14724463 65:1.6973882 66:-0.18134162 67:-0.066199906 68:1.6823201 69:0.14089137 70:0.37106159 71:1.0959558 72:0.10576112 73:0.36583525 74:1.1828909 
-0 0 0 0 0 0 0 10 10 0 0 0 0 0:0.0029075406 1:-0.010515098 2:1.7355304 3:0 4:0.30000001 5:1.8 6:-0.0026013441 7:0.60211551 8:1.8498731 9:-0.013509171 10:0.76285803 11:1.8531666 12:-0.17054565 13:0.46434838 14:1.8736968 15:-0.1927112 16:0.19371957 17:1.8505988 18:-0.21226315 19:-0.0059669353 20:1.7646327 21:-0.21400887 22:-0.082859665 23:1.7280869 24:0.14146031 25:0.49942636 26:1.7636809 27:0.14432968 28:0.44363022 29:1.5011435 30:0.15696451 31:0.40052551 32:1.2644384 33:0.14447406 34:0.36971885 35:1.1768894 36:-0.071226344 37:-0.014131162 38:1.7185345 39:-0.088616721 40:-0.36072433 41:1.6462998 42:-0.085876241 43:-0.73171705 44:1.656764 45:-0.085231513 46:-0.79390365 47:1.5859771 48:0.075923488 49:0.0026676022 50:1.6766334 51:0.13489898 52:-0.33773327 53:1.6243482 54:0.14453752 55:-0.71946841 56:1.646584 57:0.14159842 58:-0.77978462 59:1.5721011 60:-0.0019817948 61:0.52770841 62:1.8399606 63:-0.21376392 64:-0.14767656 65:1.7042594 66:-0.18116322 67:-0.069324493 68:1.6819572 69:0.13822204 70:0.3334024 71:1.0859923 72:0.10503185 73:0.33180052 74:1.1892703 
-0 0 0 0 0 0 0 10 10 10 0 0 0 0:0.0028008204 1:-0.010350294 2:1.7357104 3:0 4:0.30000001 5:1.8 6:-0.0025261063 7:0.60201174 8:1.8496163 9:-0.014226044 10:0.76275975 11:1.8527958 12:-0.17182887 13:0.46470189 14:1.8733737 15:-0.19237992 16:0.19365153 17:1.8508351 18:-0.21187878 19:-0.006081827 20:1.7649806 21:-0.21455441 22:-0.082351364 23:1.7293737 24:0.14077958 25:0.50150043 26:1.7646344 27:0.2264076 28:0.44190562 29:1.5601733 30:0.18218368 31:0.38685751 32:1.3197854 33:0.14616159 34:0.33674765 35:1.1905208 36:-0.071304768 37:-0.013942666 38:1.7188318 39:-0.088813245 40:-0.36017972 41:1.6464074 42:-0.085849665 43:-0.73178148 44:1.6567986 45:-0.085353471 46:-0.79418361 47:1.5857699 48:0.075814098 49:0.0027953312 50:1.6767061 51:0.13482438 52:-0.33785915 53:1.6243379 54:0.14443956 55:-0.71993852 56:1.6466572 57:0.14119376 58:-0.77668953 59:1.5729706 60:-0.0019323844 61:0.52764732 62:1.8397896 63:-0.21420825 64:-0.14688069 65:1.7065022 66:-0.18134081 67:-0.069204934 68:1.6820853 69:0.1385265 70:0.29851642 71:1.1212776 72:0.10808183 73:0.29666892 74:1.1930532 
-0 0 0 0 0 0 0 10 10 10 0 0 0 0:0.0027313493 1:-0.010339105 2:1.7357676 3:0 4:0.30000001 5:1.8 6:-0.0024385117 7:0.60201967 8:1.8495643 9:-0.014555429 10:0.76276076 11:1.8525813 12:-0.1718476 13:0.46424302 14:1.873843 15:-0.19235143 16:0.19359955 17:1.8509667 18:-0.21165387 19:-0.0062520141 20:1.7653792 21:-0.21395226 22:-0.08138942 23:1.7278988 24:0.14229792 25:0.50163305 26:1.7644751 27:0.23327902 28:0.43932587 29:1.5633876 30:0.18286234 31:0.36630923 32:1.3377893 33:0.149665 34:0.30084157 35:1.2038319 36:-0.071354546 37:-0.013884895 38:1.7189105 39:-0.088868678 40:-0.36003193 41:1.6463439 42:-0.085868865 43:-0.73188072 44:1.6568291 45:-0.085151903 46:-0.7948727 47:1.5851977 48:0.075742438 49:0.0027635461 50:1.676738 51:0.13487692 52:-0.33830968 53:1.6242955 54:0.14439812 55:-0.72000986 56:1.6466935 57:0.14128627 58:-0.77920312 59:1.5717394 60:-0.0018675085 61:0.52765316 62:1.8397477 63:-0.21120968 64:-0.14645046 65:1.7004573 66:-0.18084355 67:-0.063576899 68:1.6839173 69:0.14523031 70:0.26197961 71:1.149051 72:0.11167391 73:0.29192004 74:1.1826985 
-0 0 0 0 10 0 0 0 0 0 0 0 0 0:0.0035179816 1:-0.0093597081 2:1.7344112 3:0 4:0.30000001 5:1.8 6:-0.0033644214 7:0.60087913 8:1.851409 9:-0.016615741 10:0.76011139 11:1.8541393 12:-0.17198701 13:0.46479732 14:1.8718529 15:-0.19037677 16:0.19618469 17:1.8475161 18:-0.21698129 19:-0.0024695303 20:1.760983 21:-0.21801913 22:-0.078638963 23:1.7170324 24:0.14451672 25:0.48869485 26:1.7658215 27:0.23569733 28:0.49423254 29:1.555191 30:0.20170121 31:0.5177688 32:1.3341737 33:0.14355086 34:0.53384793 35:1.2012856 36:-0.071304731 37:-0.01385962 38:1.7178011 39:-0.088631094 40:-0.36167258 41:1.6479692 42:-0.08681266 43:-0.73431176 44:1.6580076 45:-0.086770631 46:-0.79643601 47:1.5867825 48:0.077311493 49:0.0045040045 50:1.6746836 51:0.13317117 52:-0.33553696 53:1.6197042 54:0.14267065 55:-0.71848756 56:1.6474819 57:0.13925499 58:-0.78366047 59:1.5741959 60:-0.00250067 61:0.526752 62:1.8410521 63:-0.21576928 64:-0.14007072 65:1.6953201 66:-0.18185081 67:-0.067501627 68:1.680851 69:0.115211 70:0.53247529 71:1.1346426 72:0.17544052 73:0.55006766 74:1.1611025 
-0 0 0 0 10 0 0 0 0 0 0 0 0 0:0.0035229288 1:-0.0093650958 2:1.734417 3:0 4:0.30000001 5:1.8 6:-0.0033742487 7:0.60088122 8:1.8514075 9:-0.016528144 10:0.76016045 11:1.854126 12:-0.1716994 13:0.46445277 14:1.8718915 15:-0.19050288 16:0.19623758 17:1.8474231 18:-0.21699536 19:-0.002377226 20:1.7607555 21:-0.2188333 22:-0.078554139 23:1.7173352 24:0.14453171 25:0.48869681 26:1.7658439 27:0.22546564 28:0.49803945 29:1.5417442 30:0.18257785 31:0.52061754 32:1.3109682 33:0.14399144 34:0.53406924 35:1.1959417 36:-0.07128939 37:-0.013844534 38:1.7177405 39:-0.088617109 40:-0.36164394 41:1.6479788 42:-0.086832985 43:-0.73423785 44:1.6580019 45:-0.08626987 46:-0.79707772 47:1.5866556 48:0.077311635 49:0.0044283131 50:1.6747537 51:0.13317643 52:-0.33546856 53:1.6197352 54:0.14261213 55:-0.71905547 56:1.6475048 57:0.1393425 58:-0.7846635 59:1.5741787 60:-0.0025081467 61:0.5267539 62:1.8410506 63:-0.21201563 64:-0.13989435 65:1.6895838 66:-0.1818669 67:-0.065748557 68:1.6814547 69:0.12111697 70:0.53436673 71:1.1351016 72:0.17856805 73:0.54999757 74:1.1584895 
-0 5.335618713917981 0 0 10 0 0 0 0 0 0 0 0 0:0.0034603998 1:-0.0094117094 2:1.734375 3:0 4:0.30000001 5:1.8 6:-0.0033361819 7:0.60093915 8:1.8514247 9:-0.016179111 10:0.76025534 11:1.8541455 12:-0.17223153 13:0.46453536 14:1.8715391 15:-0.19149512 16:0.19563527 17:1.8465052 18:-0.21734476 19:-0.0027581621 20:1.7590332 21:-0.21733934 22:-0.076987997 23:1.7158256 24:0.1445277 25:0.48896086 26:1.7659273 27:0.24072516 28:0.49723721 29:1.5578232 30:0.1994575 31:0.52415621 32:1.33848 33:0.1476576 34:0.53432429 35:1.1912084 36:-0.07133241 37:-0.013831483 38:1.7174473 39:-0.088682823 40:-0.36166137 41:1.6480861 42:-0.087120831 43:-0.73316586 44:1.658556 45:-0.086546652 46:-0.7959826 47:1.5866747 48:0.077258199 49:0.0043508839 50:1.6748691 51:0.13312334 52:-0.33542627 53:1.6198549 54:0.14263591 55:-0.72146261 56:1.6475143 57:0.13864338 58:-0.78522491 59:1.5737085 60:-0.0024843123 61:0.52679533 62:1.8410616 63:-0.21279791 64:-0.14077143 65:1.6920977 66:-0.17936146 67:-0.053649411 68:1.6829395 69:0.13243163 70:0.53666818 71:1.1311111 72:0.18449399 73:0.55029851 74:1.1536384 
-0 0 0 0 6.515819276740767 0 0 0 0 0 0 0 0 0:0.0033979714 1:-0.0094082076 2:1.7343721 3:0 4:0.30000001 5:1.8 6:-0.0032571852 7:0.60096836 8:1.8514676 9:-0.01613567 10:0.76009262 11:1.8542056 12:-0.17243856 13:0.46509063 14:1.8714871 15:-0.19190603 16:0.19521354 17:1.8464093 18:-0.21737386 19:-0.0030998308 20:1.7585998 21:-0.21879108 22:-0.078353405 23:1.7167668 24:0.14446126 25:0.48907071 26:1.7658677 27:0.23788914 28:0.49581951 29:1.5563455 30:0.2001363 31:0.52472818 32:1.3366284 33:0.14692089 34:0.53520143 35:1.1840794 36:-0.07137882 37:-0.01382065 38:1.7174211 39:-0.08868999 40:-0.36169749 41:1.6480608 42:-0.087112367 43:-0.73318475 44:1.6585574 45:-0.086916432 46:-0.79499012 47:1.5874839 48:0.07716465 49:0.004348306 50:1.6749148 51:0.13311848 52:-0.33563775 53:1.6198616 54:0.14264767 55:-0.72187799 56:1.6475101 57:0.13833082 58:-0.78014463 59:1.5764952 60:-0.0024332646 61:0.52681589 62:1.8410897 63:-0.21543092 64:-0.14070717 65:1.6955175 66:-0.18179154 67:-0.062534362 68:1.6826096 69:0.12638983 70:0.53305387 71:1.1230526 72:0.18335335 73:0.5500809 74:1.1527123 
-0 0 0 0 10 0 0 0 0 0 0 0 0 0:0.0033525266 1:-0.0094058802 2:1.7343802 3:0 4:0.30000001 5:1.8 6:-0.0032202657 7:0.60095191 8:1.8514495 9:-0.016067903 10:0.75997764 11:1.854351 12:-0.17285636 13:0.46515372 14:1.8715558 15:-0.19213106 16:0.19556846 17:1.8465338 18:-0.21728791 19:-0.0027083149 20:1.7585206 21:-0.21801847 22:-0.077443659 23:1.7176523 24:0.14445753 25:0.48912796 26:1.7658811 27:0.23717725 28:0.4982456 29:1.5561271 30:0.20034763 31:0.52291209 32:1.3357067 33:0.14757685 34:0.5350737 35:1.1879549 36:-0.071420014 37:-0.013819843 38:1.7174125 39:-0.088723987 40:-0.36180091 41:1.6481419 42:-0.087100118 43:-0.73377836 44:1.6591864 45:-0.086760581 46:-0.79613519 47:1.5875297 48:0.077108458 49:0.0043519447 50:1.674952 51:0.13311592 52:-0.33563995 53:1.6198702 54:0.1426049 55:-0.72188354 56:1.6472301 57:0.13901669 58:-0.78284752 59:1.5748973 60:-0.0024111494 61:0.52680588 62:1.8410783 63:-0.21515705 64:-0.13967022 65:1.6923051 66:-0.17900695 67:-0.058180064 68:1.6818347 69:0.12764414 70:0.53507155 71:1.1279864 72:0.18753028 73:0.54755872 74:1.1472976 
-0 0 0 0 10 0 0 0 0 0 0 0 0 0:0.0033851415 1:-0.0093492856 2:1.7342575 3:0 4:0.30000001 5:1.8 6:-0.0032612365 7:0.60086828 8:1.8515089 9:-0.015941603 10:0.76005226 11:1.8545282 12:-0.17281045 13:0.46515512 14:1.8717964 15:-0.19252686 16:0.19560874 17:1.8463204 18:-0.21731859 19:-0.0028764298 20:1.7587283 21:-0.21753693 22:-0.07915011 23:1.7185194 24:0.1447459 25:0.48922372 26:1.7658441 27:0.2376993 28:0.49851936 29:1.5562112 30:0.20197627 31:0.52123475 32:1.3353841 33:0.14729396 34:0.53509504 35:1.1903138 36:-0.071396723 37:-0.013760834 38:1.7172544 39:-0.088781789 40:-0.36158878 41:1.6480858 42:-0.087025225 43:-0.73451871 44:1.6592281 45:-0.087552488 46:-0.79414839 47:1.5881631 48:0.077156574 49:0.0044142017 50:1.6748903 51:0.13299723 52:-0.33546913 53:1.619849 54:0.14261319 55:-0.72182399 56:1.6473548 57:0.13931523 58:-0.78497976 59:1.5742319 60:-0.0024369657 61:0.52675426 62:1.8411272 63:-0.21315549 64:-0.14159468 65:1.6970851 66:-0.18140754 67:-0.063530564 68:1.681071 69:0.1254054 70:0.53269458 71:1.1284368 72:0.18394908 73:0.54905659 74:1.1513124 
-0 0 0 0 0 0 0 10 0 0 0 0 0 0:0.0023142248 1:-0.010128928 2:1.7348619 3:0 4:0.30000001 5:1.8 6:-0.002481414 7:0.60099357 8:1.8509717 9:-0.0156154 10:0.7606315 11:1.8547878 12:-0.17231221 13:0.46507549 14:1.8726463 15:-0.19288288 16:0.19205233 17:1.8474264 18:-0.21819162 19:-0.0062841307 20:1.7596664 21:-0.21855021 22:-0.079755649 23:1.723186 24:0.13610785 25:0.49585354 26:1.7662315 27:0.14294887 28:0.3533586 29:1.5875001 30:0.14036211 31:0.35602668 32:1.3625641 33:0.16341516 34:0.46168196 35:1.1724522 36:-0.072188526 37:-0.01420684 38:1.717783 39:-0.089516282 40:-0.3623569 41:1.6484928 42:-0.086991712 43:-0.73533249 44:1.6592188 45:-0.087895848 46:-0.79409492 47:1.5884538 48:0.075729027 49:0.0031567384 50:1.6758194 51:0.13252631 52:-0.33772075 53:1.6206951 54:0.14238197 55:-0.71959782 56:1.6480904 57:0.13924161 58:-0.78245747 59:1.5754118 60:-0.001903303 61:0.5268482 62:1.8407636 63:-0.21421488 64:-0.14173849 65:1.698122 66:-0.1818435 67:-0.06440331 68:1.6824331 69:0.15474507 70:0.45574981 71:1.1353002 72:0.20105612 73:0.48451662 74:1.1768751 
-0 0 0 0 0 0 0 10 0 0 0 0 0 0:0.0022423863 1:-0.010095815 2:1.734875 3:0 4:0.30000001 5:1.8 6:-0.0023943298 7:0.60099679 8:1.851023 9:-0.01562502 10:0.76062399 11:1.8547375 12:-0.17281239 13:0.46523267 14:1.8727782 15:-0.19281507 16:0.19209681 17:1.8475201 18:-0.21815854 19:-0.0062169833 20:1.7597125 21:-0.2166864 22:-0.078125723 23:1.7224743 24:0.13807981 25:0.49786249 26:1.7655165 27:0.14483429 28:0.35313812 29:1.5887082 30:0.14209239 31:0.35277212 32:1.3637555 33:0.16504289 34:0.44392395 35:1.1742165 36:-0.072213285 37:-0.014180283 38:1.7178504 39:-0.089604869 40:-0.36216825 41:1.6484005 42:-0.087088063 43:-0.73534501 44:1.6589115 45:-0.087576196 46:-0.79494095 47:1.5880711 48:0.075592235 49:0.0032187896 50:1.6757929 51:0.1325237 52:-0.33773506 53:1.6206434 54:0.14198406 55:-0.71827245 56:1.6483471 57:0.13944224 58:-0.78328562 59:1.5749457 60:-0.0018433072 61:0.5268504 62:1.8407948 63:-0.21309148 64:-0.1411687 65:1.6968243 66:-0.18063892 67:-0.061958384 68:1.6834185 69:0.16264156 70:0.43832305 71:1.1334198 72:0.20565455 73:0.45905653 74:1.1793244 
-0 0 0 0 0 0 0 10 0 0 0 0 0 0:0.0021685138 1:-0.010090385 2:1.7349284 3:0 4:0.30000001 5:1.8 6:-0.0022262782 7:0.60102391 8:1.8509266 9:-0.015724648 10:0.7606647 11:1.8546183 12:-0.17256719 13:0.46474075 14:1.8735926 15:-0.19273619 16:0.19220088 17:1.8477423 18:-0.21804009 19:-0.0061469711 20:1.7600091 21:-0.21675709 22:-0.079488933 23:1.7220256 24:0.13910112 25:0.49853843 26:1.7652323 27:0.15218396 28:0.46838945 29:1.4987924 30:0.14178854 31:0.31325981 32:1.3389795 33:0.16555458 34:0.42251593 35:1.1736541 36:-0.072247215 37:-0.01418132 38:1.717931 39:-0.089735433 40:-0.36199433 41:1.6484244 42:-0.087089851 43:-0.73409539 44:1.6590855 45:-0.087571695 46:-0.7942763 47:1.5878832 48:0.075492762 49:0.0032353364 50:1.6757867 51:0.13244677 52:-0.337551 53:1.620558 54:0.14191639 55:-0.71831697 56:1.6484654 57:0.13945282 58:-0.78363925 59:1.5744898 60:-0.0017167926 61:0.52686876 62:1.8407209 63:-0.20880559 64:-0.14613754 65:1.6992037 66:-0.18358678 67:-0.077863097 68:1.6776173 69:0.16410261 70:0.39265943 71:1.1108258 72:0.20212597 73:0.44541553 74:1.1807024 
-0 0 0 0 0 0 0 10 10 0.1982730730049118 0 0 0 0:0.0022260472 1:-0.010010494 2:1.7349443 3:0 4:0.30000001 5:1.8 6:-0.0022602845 7:0.60098422 8:1.8509593 9:-0.015918655 10:0.76058048 11:1.8545146 12:-0.17228423 13:0.46449006 14:1.8740816 15:-0.19269679 16:0.19220972 17:1.848033 18:-0.21800098 19:-0.0061524939 20:1.7603378 21:-0.21724725 22:-0.080237374 23:1.7233272 24:0.14081536 25:0.49940506 26:1.7650194 27:0.1522112 28:0.35363895 29:1.5894136 30:0.1489538 31:0.352817 32:1.3644705 33:0.17082022 34:0.4005602 35:1.1764627 36:-0.072090775 37:-0.014070941 38:1.7180624 39:-0.089807153 40:-0.36195856 41:1.6483488 42:-0.087181792 43:-0.73403281 44:1.6594458 45:-0.087413058 46:-0.79526788 47:1.5875654 48:0.075502902 49:0.0033027101 50:1.6757412 51:0.13246177 52:-0.33744621 53:1.620389 54:0.14198045 55:-0.71868521 56:1.6483641 57:0.13949552 58:-0.78446025 59:1.5738621 60:-0.0017381851 61:0.52684182 62:1.8407378 63:-0.21168509 64:-0.14130397 65:1.6954889 66:-0.18233185 67:-0.068776563 68:1.680954 69:0.1745581 70:0.3696174 71:1.0977685 72:0.20860241 73:0.42408317 74:1.1850924 
-0 0 0 0 0 0 0 0 0 0 0 0 10 0:0.0030657724 1:-0.012249954 2:1.7299275 3:0 4:0.30000001 5:1.8 6:-0.0039442703 7:0.60254675 8:1.8566232 9:-0.0091418177 10:0.76620406 11:1.8630667 12:-0.17668432 13:0.46086684 14:1.8711805 15:-0.20816639 16:0.19754496 17:1.838902 18:-0.23834705 19:-0.013115771 20:1.7494025 21:-0.24488665 22:-0.086017735 23:1.7179112 24:0.12324178 25:0.47853279 26:1.775291 27:0.088512614 28:0.47868133 29:1.5088344 30:0.064402223 31:0.44854668 32:1.2542992 33:0.05100584 34:0.48515734 35:1.2207897 36:-0.072666332 37:-0.01746387 38:1.7129273 39:-0.093399741 40:-0.35271999 41:1.6348572 42:-0.077408038 43:-0.72294617 44:1.6561236 45:-0.077460647 46:-0.79050457 47:1.588902 48:0.076498538 49:0.0025588796 50:1.6713114 51:0.11834908 52:-0.31892827 53:1.6349978 54:0.11386554 55:-0.71068943 56:1.6577411 57:0.10692364 58:-0.78398049 59:1.579145 60:-0.0028377473 61:0.52806103 62:1.8448672 63:-0.24634436 64:-0.14093152 65:1.6926198 66:-0.20747262 67:-0.085273065 68:1.6774158 69:0.037083328 70:0.49175745 71:1.1559911 72:0.0050289109 73:0.45213243 74:1.2120843 
-0 0 0 0 0 0 0 0 0 0 0 0 10 0:0.0024054125 1:-0.015027925 2:1.7301166 3:0 4:0.30000001 5:1.8 6:-0.0032596141 7:0.60443252 8:1.856313 9:-0.0077733696 10:0.76789814 11:1.8628495 12:-0.17524442 13:0.46269238 14:1.8703368 15:-0.20710629 16:0.19925672 17:1.8396761 18:-0.23706952 19:-0.010755882 20:1.751056 21:-0.24231461 22:-0.085273787 23:1.7230074 24:0.12317631 25:0.47653991 26:1.7732575 27:0.09632691 28:0.34458375 29:1.5878384 30:0.064474963 31:0.42854315 32:1.301677 33:0.03470289 34:0.49225861 35:1.2358952 36:-0.074539222 37:-0.021474436 38:1.7165487 39:-0.091825351 40:-0.35117155 41:1.6355536 42:-0.075443961 43:-0.72097778 44:1.6554186 45:-0.076313779 46:-0.78668034 47:1.5884821 48:0.076532476 49:0.00025258958 50:1.6689136 51:0.11999937 52:-0.31631005 53:1.6343777 54:0.1150985 55:-0.70979357 56:1.6574147 57:0.10884055 58:-0.78186119 59:1.5782197 60:-0.0022897944 61:0.52958167 62:1.844629 63:-0.24242255 64:-0.13943009 65:1.6968262 66:-0.20768586 67:-0.078165725 68:1.6915171 69:0.012607574 70:0.5015862 71:1.1668506 72:-0.01752555 73:0.45601743 74:1.2220833 
-0 0 0 0 0 0 0 0 0 0 0 0 10 0:0.0027240217 1:-0.017207827 2:1.7302682 3:0 4:0.30000001 5:1.8 6:-0.0045146421 7:0.60721278 8:1.8565919 9:-0.005835548 10:0.76834583 11:1.8621137 12:-0.17362338 13:0.46365291 14:1.8694694 15:-0.20523414 16:0.20002005 17:1.8400996 18:-0.23428428 19:-0.0093798302 20:1.753073 21:-0.23768981 22:-0.085969478 23:1.7248547 24:0.12340353 25:0.47784537 26:1.7710431 27:0.072611213 28:0.48549303 29:1.5073698 30:0.040120915 31:0.49022651 32:1.3371212 33:0.01334399 34:0.49834046 35:1.2502115 36:-0.074401006 37:-0.023707028 38:1.7187555 39:-0.089595482 40:-0.35085219 41:1.6359789 42:-0.073136471 43:-0.72047949 44:1.6551487 45:-0.074413449 46:-0.78493261 47:1.5879343 48:0.077113107 49:-0.001712855 50:1.6672294 51:0.12107009 52:-0.3200115 53:1.6365497 54:0.11735895 55:-0.70945501 56:1.6564181 57:0.11121526 58:-0.78129375 59:1.5770042 60:-0.0031141415 61:0.53144175 62:1.8448117 63:-0.2408314 64:-0.1398567 65:1.69959 66:-0.19483455 67:-0.08287102 68:1.6855118 69:-0.018534869 70:0.50218421 71:1.1777406 72:-0.036901005 73:0.46269011 74:1.244422 
-0 0 0 0 0 0 0 0 0 0 0 0 10 0:0.0019898787 1:-0.020173404 2:1.7308803 3:0 4:0.30000001 5:1.8 6:-0.0050738826 7:0.61155164 8:1.8553534 9:-0.0057075024 10:0.76817209 11:1.8623424 12:-0.17392962 13:0.46353552 14:1.8695779 15:-0.20483944 16:0.1998942 17:1.8403916 18:-0.23207894 19:-0.010408673 20:1.7530189 21:-0.23301673 22:-0.084764183 23:1.7224655 24:0.11696025 25:0.4735986 26:1.7691989 27:0.14865756 28:0.48704278 29:1.4937673 30:0.024721429 31:0.50008112 32:1.3075213 33:-0.0087597072 34:0.50473785 35:1.2624602 36:-0.074770994 37:-0.025751624 38:1.7193923 39:-0.089214087 40:-0.35182768 41:1.6373472 42:-0.072884999 43:-0.72033513 44:1.6553731 45:-0.073817946 46:-0.78527439 47:1.5871205 48:0.07631471 49:-0.0050931908 50:1.6673503 51:0.12119334 52:-0.32194334 53:1.6375976 54:0.11704592 55:-0.71019113 56:1.6568694 57:0.11160465 58:-0.78141344 59:1.5772119 60:-0.0036001503 61:0.53404582 62:1.8440986 63:-0.23673055 64:-0.1391528 65:1.697269 66:-0.19435298 67:-0.078723878 68:1.6869812 69:-0.051434308 70:0.50609475 71:1.1843691 72:-0.046338275 73:0.47450289 74:1.265008 
-0 0 0 0 0 0 0 0 0 0 8.11664565254198 0 10 0:0.0014517531 1:-0.022651065 2:1.7321281 3:0 4:0.30000001 5:1.8 6:-0.0024043843 7:0.61983389 8:1.8508072 9:-0.0057765618 10:0.76757306 11:1.8629904 12:-0.17382088 13:0.46242684 14:1.8708358 15:-0.20458269 16:0.2012592 17:1.8423376 18:-0.22890657 19:-0.016688187 20:1.7528739 21:-0.22876528 22:-0.086920694 23:1.7249742 24:0.11668489 25:0.47300833 26:1.7698364 27:0.18865734 28:0.48984909 29:1.5380282 30:0.02668868 31:0.49968815 32:1.3427391 33:-0.035505086 34:0.50924927 35:1.2821226 36:-0.075211875 37:-0.02745058 38:1.7197208 39:-0.089699492 40:-0.35416353 41:1.6394925 42:-0.072920062 43:-0.72134483 44:1.6561332 45:-0.074723259 46:-0.78457975 47:1.5882778 48:0.075829379 49:-0.0083899386 50:1.6697898 51:0.12029355 52:-0.32522798 53:1.6399841 54:0.11682611 55:-0.71081281 56:1.6576266 57:0.11148038 58:-0.78192985 59:1.5775957 60:-0.0019523501 61:0.53982955 62:1.8410435 63:-0.23364341 64:-0.14268659 65:1.7023363 66:-0.18762904 67:-0.073196247 68:1.6773977 69:-0.081544444 70:0.51042181 71:1.2053044 72:-0.067967892 73:0.47928977 74:1.2926884 
-0 0 0 0 0 0 0 0 0 0 10 0 10 0:0.001412116 1:-0.022816114 2:1.7323389 3:0 4:0.30000001 5:1.8 6:-0.0023436919 7:0.61873847 8:1.8513041 9:-0.0057144538 10:0.76778877 11:1.8628736 12:-0.17346182 13:0.46254489 14:1.8707895 15:-0.20398338 16:0.2015008 17:1.8429031 18:-0.22730257 19:-0.017832629 20:1.7531219 21:-0.22838333 22:-0.086891048 23:1.7287951 24:0.12551731 25:0.48225233 26:1.774199 27:0.18613648 28:0.49111256 29:1.5407438 30:-0.030993838 31:0.49949083 32:1.3545389 33:-0.061751906 34:0.51181138 35:1.3066249 36:-0.07533019 37:-0.0273562 38:1.7193303 39:-0.089335285 40:-0.35230073 41:1.6397653 42:-0.073446237 43:-0.72017401 44:1.6568899 45:-0.074789688 46:-0.78405243 47:1.5882392 48:0.076032847 49:-0.0092192516 50:1.6714668 51:0.1203053 52:-0.32538185 53:1.6399789 54:0.11669759 55:-0.71084338 56:1.6576166 57:0.11161828 58:-0.78150672 59:1.5773201 60:-0.0018927902 61:0.53939366 62:1.8412457 63:-0.23278505 64:-0.14274999 65:1.7036743 66:-0.19160621 67:-0.076542579 68:1.6891079 69:-0.11400893 70:0.51440597 71:1.2308054 72:-0.094101973 73:0.48129919 74:1.3148451 
-10 0 0 0 0 0 0 0 0 0 10 1.498295876657109 10 0:0.001152344 1:-0.02443625 2:1.733336 3:0 4:0.30000001 5:1.8 6:-0.0012670532 7:0.62035114 8:1.8503704 9:-0.0057658553 10:0.76769179 11:1.8630104 12:-0.17335078 13:0.45961684 14:1.8709397 15:-0.20294714 16:0.20443831 17:1.8447871 18:-0.22571556 19:-0.019971624 20:1.7535505 21:-0.22564116 22:-0.087758616 23:1.7267718 24:0.12616964 25:0.48142314 26:1.7747602 27:0.18192029 28:0.49067807 29:1.5433817 30:-0.027166504 31:0.50173163 32:1.3702159 33:-0.085600056 34:0.51604545 35:1.3282881 36:-0.07587602 37:-0.028379217 38:1.7194233 39:-0.089602396 40:-0.35296315 41:1.6406174 42:-0.073700555 43:-0.72088218 44:1.6570053 45:-0.075991318 46:-0.7808274 47:1.589756 48:0.076315135 49:-0.011252776 50:1.6733065 51:0.12010497 52:-0.32585579 53:1.6403866 54:0.11640076 55:-0.71059418 56:1.6578474 57:0.1110892 58:-0.78168166 59:1.5776148 60:-0.0010692775 61:0.54069942 62:1.8405409 63:-0.22531012 64:-0.14366893 65:1.7022748 66:-0.18729123 67:-0.074487939 68:1.6817646 69:-0.15019068 70:0.51507211 71:1.2533569 72:-0.11639719 73:0.48237181 74:1.3442245 
-3.607647547245341 0 0 0 0 0 0 0 0 0 10 10 10 0:0.0012948513 1:-0.024863455 2:1.7338479 3:0 4:0.30000001 5:1.8 6:-0.0012981519 7:0.62051773 8:1.8498271 9:-0.0055135339 10:0.76737779 11:1.863477 12:-0.17291912 13:0.45797715 14:1.8704026 15:-0.20294935 16:0.20442483 17:1.8458474 18:-0.22060183 19:-0.00053570047 20:1.7683518 21:-0.22488049 22:-0.081658155 23:1.7343962 24:0.12858078 25:0.48292735 26:1.776089 27:0.17416871 28:0.48904753 29:1.5479276 30:-0.039629102 31:0.5030579 32:1.3934481 33:-0.11000706 34:0.51654887 35:1.3550661 36:-0.075965315 37:-0.028538797 38:1.7194936 39:-0.089662082 40:-0.35326648 41:1.6412728 42:-0.07390213 43:-0.72093052 44:1.6572921 45:-0.075921364 46:-0.78109413 47:1.5900142 48:0.076991804 49:-0.012103293 50:1.6746981 51:0.12006012 52:-0.32632923 53:1.6411383 54:0.11587886 55:-0.71199459 56:1.6589749 57:0.11101302 58:-0.78181762 59:1.5778468 60:-0.0010547861 61:0.54092282 62:1.8400948 63:-0.22236255 64:-0.1423806 65:1.7056034 66:-0.18823946 67:-0.067703933 68:1.6886251 69:-0.1756832 70:0.51533341 71:1.2800357 72:-0.1429624 73:0.48306769 74:1.3719499 
-10 0 0 0 0 1.532985871041738 2.504139334881472 0 0 0 10 10 10 0:0.0015945882 1:-0.024490844 2:1.7337925 3:0 4:0.30000001 5:1.8 6:-0.0022132099 7:0.61814505 8:1.8508503 9:-0.0045783445 10:0.76789337 11:1.8628075 12:-0.17195648 13:0.45687297 14:1.8688118 15:-0.20270576 16:0.20584108 17:1.8457835 18:-0.21964701 19:0.0019552894 20:1.7690928 21:-0.22329421 22:-0.078492567 23:1.7333109 24:0.1303408 25:0.48579106 26:1.7754433 27:0.16395299 28:0.49480823 29:1.5471509 30:-0.073824123 31:0.50330251 32:1.4161723 33:-0.14086588 34:0.51494396 35:1.3842027 36:-0.075821973 37:-0.027976852 38:1.7190764 39:-0.089319304 40:-0.35251749 41:1.6411107 42:-0.073642023 43:-0.72020358 44:1.6567318 45:-0.075470582 46:-0.7806173 47:1.5898058 48:0.077477977 49:-0.011699479 50:1.6746533 51:0.12017663 52:-0.32427526 53:1.6410172 54:0.11666183 55:-0.70915753 56:1.6581337 57:0.11108817 58:-0.78114587 59:1.5771558 60:-0.0016044825 61:0.53954846 62:1.8406961 63:-0.21981375 64:-0.14049362 65:1.7035306 66:-0.18498009 67:-0.054214638 68:1.6826537 69:-0.21193844 70:0.51576203 71:1.3194835 72:-0.17559437 73:0.48137689 74:1.3925636 
-0 0 0 0 0 0 0 0 0 0 0 0 10 0:0.001001358 1:-0.011087146 2:1.7380383 3:0 4:0.30000001 5:1.8 6:-0.0019495338 7:0.60298884 8:1.847666 9:-0.00017356873 10:0.76772439 11:1.8504126 12:-0.17548975 13:0.47523534 14:1.8674986 15:-0.1970796 16:0.20265315 17:1.8412535 18:-0.21843825 19:0.0017796196 20:1.7550843 21:-0.21961834 22:-0.071838111 23:1.7146184 24:0.13414644 25:0.47236034 26:1.7677996 27:0.22696006 28:0.49332565 29:1.5039866 30:0.14504667 31:0.51471978 32:1.2955949 33:0.10629532 34:0.52603233 35:1.2141306 36:-0.075474225 37:-0.013475265 38:1.7197111 39:-0.097317979 40:-0.34536552 41:1.5865653 42:-0.087029085 43:-0.71492559 44:1.6303093 45:-0.080873199 46:-0.78126055 47:1.5689175 48:0.074945033 49:0.0014736988 50:1.6800148 51:0.10529615 52:-0.31228268 53:1.6357415 54:0.053883269 55:-0.70151693 56:1.6279423 57:0.033002101 58:-0.7663427 59:1.551492 60:-0.0013428926 61:0.52825475 62:1.8382676 63:-0.21927308 64:-0.13046876 65:1.6854784 66:-0.18417573 67:-0.062821597 68:1.6829617 69:0.067397282 70:0.51085216 71:1.1722841 72:0.070968002 73:0.48315969 74:1.2217541 
-0 0 0 0 0 0 0 0 0 0 0 0 7.645463261011887 0:0.00097882003 1:-0.011150468 2:1.7381213 3:0 4:0.30000001 5:1.8 6:-0.001867786 7:0.60306764 8:1.8475897 9:-0.00022633374 10:0.76771289 11:1.8504865 12:-0.17588878 13:0.47501999 14:1.8681734 15:-0.19724369 16:0.20259891 17:1.8414543 18:-0.21848683 19:0.0016205721 20:1.7548668 21:-0.22137603 22:-0.073725864 23:1.7166941 24:0.13418236 25:0.47216499 26:1.767998 27:0.22706459 28:0.49335298 29:1.5047495 30:0.14528666 31:0.51452947 32:1.2962797 33:0.10796691 34:0.52613157 35:1.217346 36:-0.075471684 37:-0.013568599 38:1.7197959 39:-0.097255602 40:-0.34543747 41:1.586755 42:-0.087191597 43:-0.71406156 44:1.6301353 45:-0.080859326 46:-0.78116745 47:1.5690277 48:0.074899256 49:0.0014376752 50:1.6801188 51:0.10576788 52:-0.3081761 53:1.6353152 54:0.053973287 55:-0.70105332 56:1.6283438 57:0.031986125 58:-0.76584786 59:1.5534413 60:-0.0012881309 61:0.52831477 62:1.8382094 63:-0.22127201 64:-0.13212667 65:1.693989 66:-0.1838145 67:-0.062781379 68:1.6815703 69:0.072641388 70:0.51517195 71:1.1774535 72:0.07135269 73:0.4829964 74:1.221643 
-0 0 0 0 0 0 0 0 0 0 0 0 10 0:0.00095852464 1:-0.011510313 2:1.7377923 3:0 4:0.30000001 5:1.8 6:-0.0016543716 7:0.60359371 8:1.8479793 9:-0.00084332377 10:0.76791501 11:1.8502462 12:-0.17502838 13:0.47399184 14:1.867801 15:-0.19971451 16:0.20064093 17:1.8409803 18:-0.22028333 19:-0.0039816499 20:1.7559369 21:-0.22372121 22:-0.077186882 23:1.7185915 24:0.13499302 25:0.47203264 26:1.7691824 27:0.19105302 28:0.46264935 29:1.5169075 30:0.1106891 31:0.50549388 32:1.2581904 33:0.10322724 34:0.53022444 35:1.2181032 36:-0.075377889 37:-0.013968229 38:1.7192118 39:-0.096797772 40:-0.34632164 41:1.5866659 42:-0.086102813 43:-0.71522856 44:1.631088 45:-0.080784261 46:-0.78142917 47:1.5689194 48:0.074897245 49:0.0011406541 50:1.6799629 51:0.10546866 52:-0.31079608 53:1.6350582 54:0.053792492 55:-0.70362103 56:1.6290739 57:0.032927215 58:-0.76586759 59:1.5579426 60:-0.001142472 61:0.5287025 62:1.838484 63:-0.22103272 64:-0.13288298 65:1.6921642 66:-0.18443406 67:-0.063734651 68:1.6831453 69:0.072452053 70:0.52309179 71:1.1775134 72:0.064187303 73:0.48833579 74:1.2194998 
