svm_type c_svc
kernel_type rbf
gamma 0.1
nr_class 8
total_sv 196
rho 0.0356152 0.082272 5.50854e-05 0.0252386 0.380417 0.121602 0 -0.0593457 0.0220346 0.0187519 0.0292348 -0.170938 -0.760827 0.0860935 0.102312 1.12794 0.182115 0.119046 0.670277 -0.0275097 -0.00209093 -0.012619 -0.101963 -0.00929356 0 0.0563142 0.0555954 0.217384
label 10 20 21 22 30 31 32 33
nr_sv 6 31 23 25 37 29 30 15
SV
0 4.497916828246844 5.859802303656974 4.80255184218384 4.510008227899227 0 0 0:-0.00071180612 1:-0.023824871 2:1.7278004 3:0 4:0.30000001 5:1.8 6:0.0011065304 7:0.61116958 8:1.8576527 9:0.028703481 10:0.76280713 11:1.8457503 12:-0.16708352 13:0.48944959 14:1.8166275 15:-0.22053011 16:0.2355791 17:1.7712135 18:-0.24197005 19:0.028867975 20:1.6530242 21:-0.23356895 22:-0.022561774 23:1.6281307 24:0.17690775 25:0.47893903 26:1.8333559 27:0.22030157 28:0.21409357 29:1.7861977 30:0.25495201 31:0.0038776398 32:1.6723108 33:0.25018507 34:-0.046720326 35:1.6493368 36:-0.07769917 37:-0.018581688 38:1.6811697 39:-0.12079506 40:-0.4489499 41:1.6172779 42:-0.13090003 43:-0.76626706 44:1.5640478 45:-0.14711185 46:-0.82313478 47:1.4539566 48:0.07964047 49:-0.023870155 50:1.6942699 51:0.10543613 52:-0.44361362 53:1.6335638 54:0.11114038 55:-0.75102806 56:1.5951002 57:0.1458877 58:-0.81229806 59:1.4949489 60:0.00073896348 61:0.53498268 62:1.8457403 63:-0.23399304 64:-0.076496229 65:1.6099663 66:-0.27268595 67:-0.038930401 68:1.627562 69:0.25071841 70:-0.11145192 71:1.6257913 72:0.20510928 73:-0.030104801 74:1.6417184 
10 0 0 0 0 0 9.782815772655812 0:0.00077114999 1:-0.023844272 2:1.7265296 3:0 4:0.30000001 5:1.8 6:-0.0005536899 7:0.61118662 8:1.8592386 9:0.029321577 10:0.76166624 11:1.844316 12:-0.16647694 13:0.48907256 14:1.8165989 15:-0.22028348 16:0.23551074 17:1.7728534 18:-0.24736804 19:0.035182893 20:1.6543882 21:-0.23851374 22:-0.018415555 23:1.6274817 24:0.17771327 25:0.47857213 26:1.8309522 27:0.22163239 28:0.21467996 29:1.7830577 30:0.25695035 31:0.006378442 32:1.6684437 33:0.25501463 34:-0.037200525 35:1.6469729 36:-0.076599814 37:-0.018771246 38:1.6802316 39:-0.11986413 40:-0.44908261 41:1.613605 42:-0.13164517 43:-0.76509041 44:1.5570865 45:-0.14735961 46:-0.82237566 47:1.4472008 48:0.081420414 49:-0.023709744 50:1.6927638 51:0.10563021 52:-0.44382006 53:1.629781 54:0.11051139 55:-0.74958879 56:1.5892744 57:0.14387597 58:-0.81200796 59:1.4896858 60:-0.00049590319 61:0.53502047 62:1.8469262 63:-0.24014986 64:-0.07809265 65:1.6117425 66:-0.1967884 67:-0.015710726 68:1.627605 69:0.25971276 70:-0.11521217 71:1.6443896 72:0.2201587 73:-0.041555971 74:1.6588953 
0 0 0 0 0 2.406219870985927 0 0:0.00083833188 1:-0.023844302 2:1.726609 3:0 4:0.30000001 5:1.8 6:-0.00066173822 7:0.61121786 8:1.8590868 9:0.029320542 10:0.76157784 11:1.8440917 12:-0.16648215 13:0.48907515 14:1.8167145 15:-0.22020555 16:0.23542079 17:1.7728937 18:-0.24735308 19:0.035695344 20:1.6545463 21:-0.2382561 22:-0.017439425 23:1.6265757 24:0.17760269 25:0.47892246 26:1.8309639 27:0.2217505 28:0.21416268 29:1.7827518 30:0.25710416 31:0.004957512 32:1.6675589 33:0.25304419 34:-0.04569824 35:1.6426029 36:-0.076551564 37:-0.018792003 38:1.6803484 39:-0.11975192 40:-0.44887099 41:1.6135499 42:-0.13148326 43:-0.76510096 44:1.5568199 45:-0.14849353 46:-0.82318723 47:1.4480908 48:0.081503712 49:-0.023676693 50:1.6927707 51:0.10578145 52:-0.44329342 53:1.6297753 54:0.11038806 55:-0.74951434 56:1.5891635 57:0.14397866 58:-0.81208527 59:1.4898796 60:-0.0005704388 61:0.53503764 62:1.8468044 63:-0.23640144 64:-0.077769458 65:1.6084225 66:-0.19449902 67:-0.017460465 68:1.6232336 69:0.25041017 70:-0.11163709 71:1.6186738 72:0.22416648 73:-0.044047624 74:1.629555 
0.1126369289779181 10 10 10 10 10 0 0:0.00083293766 1:-0.023854032 2:1.7266214 3:0 4:0.30000001 5:1.8 6:-0.00063342601 7:0.61123133 8:1.8590801 9:0.029291965 10:0.76159251 11:1.8439968 12:-0.16650362 13:0.48907217 14:1.8166897 15:-0.22020613 16:0.23540485 17:1.7729027 18:-0.2474779 19:0.035819262 20:1.6544392 21:-0.2387013 22:-0.019005552 23:1.6270726 24:0.17765355 25:0.47893986 26:1.8309901 27:0.22179867 28:0.21417546 29:1.7825477 30:0.25725383 31:0.0045028329 32:1.6672692 33:0.25279444 34:-0.045366928 35:1.6426563 36:-0.076542214 37:-0.018817201 38:1.6803775 39:-0.11974393 40:-0.44889322 41:1.6135325 42:-0.13140859 43:-0.76519585 44:1.5566845 45:-0.14835764 46:-0.82319224 47:1.44785 48:0.081491664 49:-0.023679078 50:1.6927741 51:0.10571025 52:-0.44389501 53:1.6296694 54:0.11058794 55:-0.74992704 56:1.5889635 57:0.14381613 58:-0.81229568 59:1.4892533 60:-0.00055320561 61:0.53504515 62:1.8468001 63:-0.24180578 64:-0.078030691 65:1.6112275 66:-0.19706391 67:-0.020037368 68:1.627517 69:0.25145179 70:-0.10894442 71:1.6217129 72:0.20376517 73:-0.023105651 74:1.6337309 
3.324933419459863 0 0 0 0 0 0 0:0.00082916766 1:-0.023846492 2:1.7266438 3:0 4:0.30000001 5:1.8 6:-0.00061539561 7:0.61122632 8:1.8590539 9:0.029260185 10:0.76158023 11:1.844064 12:-0.16655637 13:0.48906755 14:1.8167965 15:-0.22015022 16:0.23523018 17:1.772887 18:-0.24744983 19:0.035619885 20:1.6544099 21:-0.23920484 22:-0.01771614 23:1.626462 24:0.17764555 25:0.47900182 26:1.8310049 27:0.22193305 28:0.21394932 29:1.7823765 30:0.25749731 31:0.0034875274 32:1.6666524 33:0.25619608 34:-0.041834116 35:1.6443768 36:-0.076551735 37:-0.018822208 38:1.6804175 39:-0.11971773 40:-0.44915336 41:1.6135595 42:-0.13140324 43:-0.76521158 44:1.5567708 45:-0.14824338 46:-0.82308364 47:1.4477799 48:0.081498064 49:-0.023655787 50:1.6927698 51:0.10584661 52:-0.44363481 53:1.6296751 54:0.1105819 55:-0.74994099 56:1.5890355 57:0.14442402 58:-0.81243259 59:1.4898031 60:-0.00054067373 61:0.5350408 62:1.8467805 63:-0.23515354 64:-0.07812953 65:1.6020718 66:-0.2137668 67:-0.033919945 68:1.5917332 69:0.27001417 70:-0.11238723 71:1.6373422 72:0.22033627 73:-0.055604607 74:1.6516998 
0 3.473492672427358 0 0 2.073529026742908 0 0 0:0.00085907429 1:-0.023858026 2:1.7266529 3:0 4:0.30000001 5:1.8 6:-0.00065709651 7:0.6112777 8:1.8590477 9:0.0292884 10:0.76158845 11:1.8440301 12:-0.1665307 13:0.48906034 14:1.8168209 15:-0.22016123 16:0.2351663 17:1.7728345 18:-0.24738035 19:0.035452232 20:1.6544363 21:-0.23883021 22:-0.019150153 23:1.6274886 24:0.17771569 25:0.47889417 26:1.831043 27:0.22194126 28:0.2138456 29:1.7823427 30:0.25751412 31:0.0035679787 32:1.6666591 33:0.25207856 34:-0.046749026 35:1.6426249 36:-0.076529391 37:-0.018831655 38:1.680428 39:-0.11972012 40:-0.44918156 41:1.6135471 42:-0.13140851 43:-0.76520658 44:1.5567656 45:-0.14823562 46:-0.82309073 47:1.4477837 48:0.081537053 49:-0.02367036 50:1.6927752 51:0.10589736 52:-0.44359493 53:1.6297238 54:0.11062904 55:-0.74964273 56:1.5892172 57:0.14429957 58:-0.81224835 59:1.4900246 60:-0.00056796521 61:0.53507465 62:1.8467767 63:-0.23758283 64:-0.0816641 65:1.606518 66:-0.21776849 67:-0.0061708391 68:1.593086 69:0.25095639 70:-0.11085102 71:1.621016 72:0.20998552 73:-0.031031772 74:1.6420643 
-0 0 0 0 0 0 0.8675033727157682 0:0.005438149 1:-0.026528299 2:1.7261138 3:0 4:0.30000001 5:1.8 6:-0.0045353249 7:0.61322486 8:1.8592341 9:0.02758576 10:0.76498687 11:1.8459842 12:-0.16849351 13:0.49146575 14:1.8104913 15:-0.2205019 16:0.23589608 17:1.7768319 18:-0.23113427 19:0.026610851 20:1.657979 21:-0.21978888 22:-0.021319211 23:1.6322467 24:0.18164238 25:0.47965872 26:1.8399417 27:0.29451227 28:0.25389341 29:1.8066738 30:0.50964963 31:0.26490071 32:1.7414889 33:0.57486606 34:0.27153492 35:1.7293386 36:-0.070963711 37:-0.023270786 38:1.6809704 39:-0.099036634 40:-0.46412069 41:1.6070464 42:-0.11229153 43:-0.7750932 44:1.5558517 45:-0.12331888 46:-0.833893 47:1.4469531 48:0.085737146 49:-0.02507998 50:1.6910164 51:0.098855838 52:-0.45093083 53:1.6138043 54:0.10424895 55:-0.75306028 56:1.5654776 57:0.13874297 58:-0.81464392 59:1.4659455 60:-0.0035258979 61:0.53660995 62:1.8469012 63:-0.22155187 64:-0.084156662 65:1.6207929 66:-0.25898468 67:-0.016161323 68:1.6385219 69:0.64234912 70:0.27898586 71:1.7171621 72:0.5885644 73:0.23315126 74:1.6910448 
-0 0 0 0 0 10 0 0:0.0054319128 1:-0.026685297 2:1.7259991 3:0 4:0.30000001 5:1.8 6:-0.0045780614 7:0.61353052 8:1.8596339 9:0.028177552 10:0.76482439 11:1.8457294 12:-0.1685077 13:0.49132708 14:1.810348 15:-0.22055718 16:0.23570818 17:1.7761919 18:-0.23105541 19:0.026148587 20:1.6575575 21:-0.21995258 22:-0.019723892 23:1.632185 24:0.18177235 25:0.47949824 26:1.8402886 27:0.29525894 28:0.25533918 29:1.8015842 30:0.50663263 31:0.26971051 32:1.7235167 33:0.57724506 34:0.28451487 35:1.6980593 36:-0.070995092 37:-0.023357973 38:1.6807203 39:-0.099167436 40:-0.46294579 41:1.607353 42:-0.1121479 43:-0.7751683 44:1.5558844 45:-0.12391065 46:-0.83435977 47:1.4475389 48:0.08575692 49:-0.025287747 50:1.6910481 51:0.098540567 52:-0.45285192 53:1.6135695 54:0.10422141 55:-0.7540102 56:1.5653272 57:0.1389242 58:-0.81506252 59:1.4652891 60:-0.0035565048 61:0.53682554 62:1.8471713 63:-0.22188124 64:-0.078690812 65:1.619215 66:-0.25670466 67:-0.029755756 68:1.6346858 69:0.64344418 70:0.29155371 71:1.6779373 72:0.56990862 73:0.24407217 74:1.6666274 
-0 0 0 0 0 10 0 0:0.0054067299 1:-0.026673168 2:1.7259753 3:0 4:0.30000001 5:1.8 6:-0.0045405626 7:0.61349976 8:1.8596847 9:0.028193898 10:0.76480889 11:1.8456972 12:-0.16854131 13:0.49134818 14:1.8103061 15:-0.22063828 16:0.23574516 17:1.7762384 18:-0.23104528 19:0.026226625 20:1.6574218 21:-0.21900868 22:-0.020817325 23:1.6319666 24:0.18173932 25:0.47949097 26:1.8402431 27:0.29465729 28:0.25671557 29:1.800004 30:0.50351918 31:0.27235034 32:1.7145741 33:0.57460237 34:0.28764418 35:1.6866932 36:-0.071021147 37:-0.02334033 38:1.6806939 39:-0.099275969 40:-0.46276566 41:1.607343 42:-0.11232439 43:-0.77495837 44:1.5560319 45:-0.12382904 46:-0.83414233 47:1.4476173 48:0.085732408 49:-0.025283068 50:1.69103 51:0.0985201 52:-0.45338932 53:1.6135767 54:0.10434847 55:-0.75456607 56:1.5651934 57:0.13903242 58:-0.81544077 59:1.4649498 60:-0.0035299212 61:0.53680491 62:1.8472078 63:-0.21894091 64:-0.081923142 65:1.6196373 66:-0.25407356 67:-0.050825045 68:1.6276448 69:0.63916719 70:0.29389265 71:1.6625695 72:0.5558145 73:0.24451581 74:1.6553211 
-0 3.117916772701623 0 0 0 10 0 0:0.0054224581 1:-0.026713818 2:1.7259531 3:0 4:0.30000001 5:1.8 6:-0.0046093389 7:0.61359918 8:1.8597701 9:0.028444365 10:0.76476073 11:1.8455675 12:-0.16846065 13:0.49132863 14:1.8102133 15:-0.22057666 16:0.23577473 17:1.7761252 18:-0.23084714 19:0.026284367 20:1.6570926 21:-0.21938516 22:-0.021676481 23:1.6303408 24:0.1818015 25:0.47928056 26:1.8402278 27:0.29373765 28:0.25876677 29:1.7974174 30:0.49928111 31:0.27501762 32:1.7032113 33:0.5670557 34:0.28968349 35:1.6702983 36:-0.07100229 37:-0.023381218 38:1.6806922 39:-0.099308223 40:-0.46255329 41:1.6072214 42:-0.11239745 43:-0.77526689 44:1.5556591 45:-0.12377387 46:-0.83450997 47:1.4472888 48:0.085738793 49:-0.025335342 50:1.6909873 51:0.098546498 52:-0.45362398 53:1.6134508 54:0.10441489 55:-0.75461638 56:1.5650213 57:0.13887244 58:-0.81503677 59:1.4641244 60:-0.0035782531 61:0.53687191 62:1.8472655 63:-0.21944995 64:-0.085539371 65:1.6192212 66:-0.25575322 67:-0.024838865 68:1.6331859 69:0.62930673 70:0.29843649 71:1.6446173 72:0.56716353 73:0.25149912 74:1.6364992 
-0 10 0 0 0 10 0 0:0.0053526536 1:-0.026620507 2:1.726088 3:0 4:0.30000001 5:1.8 6:-0.0043777153 7:0.61327279 8:1.8593428 9:0.028441176 10:0.76486701 11:1.8457115 12:-0.1685992 13:0.49138552 14:1.8102946 15:-0.22062774 16:0.23613419 17:1.7763553 18:-0.2310719 19:0.026420847 20:1.6571925 21:-0.21868031 22:-0.020441785 23:1.6323295 24:0.18189406 25:0.47925991 26:1.8406746 27:0.29108196 28:0.26102644 29:1.796066 30:0.49187094 31:0.2783013 32:1.6909773 33:0.56287527 34:0.29434717 35:1.6529536 36:-0.071088374 37:-0.02329044 38:1.6807775 39:-0.099362522 40:-0.46372193 41:1.6073868 42:-0.11250815 43:-0.77520907 44:1.5557477 45:-0.12384331 46:-0.83438814 47:1.4473035 48:0.085687064 49:-0.025237426 50:1.6912169 51:0.098476604 52:-0.45301181 53:1.6136873 54:0.10427677 55:-0.75420392 56:1.5654132 57:0.13907421 58:-0.81550074 59:1.4657278 60:-0.0034182817 61:0.53665358 62:1.8469846 63:-0.21976669 64:-0.078818873 65:1.6176546 66:-0.25618595 67:-0.019765079 68:1.6346192 69:0.62394547 70:0.30293936 71:1.6242599 72:0.55752271 73:0.25510603 74:1.6191905 
-0 10 0 0 10 10 0 0:0.0053701401 1:-0.02664265 2:1.7260697 3:0 4:0.30000001 5:1.8 6:-0.0043964759 7:0.61331546 8:1.8594129 9:0.028669864 10:0.76475531 11:1.8455575 12:-0.16836891 13:0.49157941 14:1.8099046 15:-0.22060907 16:0.23608257 17:1.7762165 18:-0.2316516 19:0.025988728 20:1.6574574 21:-0.2195988 22:-0.020160362 23:1.6326897 24:0.18195139 25:0.47922683 26:1.8407195 27:0.28095648 28:0.25827771 29:1.7922671 30:0.49312508 31:0.2836951 32:1.6620631 33:0.54871094 34:0.29856247 35:1.6271951 36:-0.071074635 37:-0.023316994 38:1.6807528 39:-0.099372491 40:-0.46394873 41:1.6073177 42:-0.11252354 43:-0.77517843 44:1.5556583 45:-0.12392072 46:-0.83431745 47:1.4471853 48:0.085705981 49:-0.025256261 50:1.691206 51:0.098423764 52:-0.45262975 53:1.6136882 54:0.10419261 55:-0.75403261 56:1.5653813 57:0.13902214 58:-0.81534618 59:1.4657285 60:-0.0034305155 61:0.53668189 62:1.8470299 63:-0.21992341 64:-0.077763826 65:1.6189883 66:-0.25585365 67:-0.018673494 68:1.6341016 69:0.61004543 70:0.30491126 71:1.5910165 72:0.53650689 73:0.25576103 74:1.5984356 
-0 10 0 0 10 10 0 0:0.0054434165 1:-0.026746199 2:1.7258732 3:0 4:0.30000001 5:1.8 6:-0.0046163723 7:0.61356896 8:1.8599317 9:0.02898249 10:0.76467144 11:1.8453219 12:-0.16829365 13:0.49144739 14:1.8093941 15:-0.22063521 16:0.23600782 17:1.7759352 18:-0.23181778 19:0.025942892 20:1.657315 21:-0.21950614 22:-0.019377187 23:1.6336091 24:0.18199763 25:0.47880876 26:1.8407867 27:0.27780676 28:0.25698334 29:1.7916067 30:0.48522493 31:0.28738594 32:1.6475065 33:0.53163338 34:0.30298078 35:1.6018016 36:-0.071020484 37:-0.02338019 38:1.680419 39:-0.099307641 40:-0.46582574 41:1.6069503 42:-0.11263612 43:-0.7752341 44:1.5554593 45:-0.12384732 46:-0.834234 47:1.4468029 48:0.085885145 49:-0.025466323 50:1.6913879 51:0.098365419 52:-0.45267808 53:1.6134596 54:0.10402296 55:-0.75377208 56:1.5652916 57:0.13870873 58:-0.81507492 59:1.4655349 60:-0.0035753772 61:0.53685492 62:1.8473852 63:-0.22224313 64:-0.078366414 65:1.6201372 66:-0.25630236 67:-0.044056371 68:1.6337256 69:0.59128338 70:0.31112689 71:1.557493 72:0.5341714 73:0.26561916 74:1.5703685 
-3.437570348437781 0 0 0 0 0 10 0:0.0035906956 1:-0.027624175 2:1.7276125 3:0 4:0.30000001 5:1.8 6:-0.0026070923 7:0.61391741 8:1.8578312 9:0.033179715 10:0.76439893 11:1.8430612 12:-0.16793765 13:0.49262106 14:1.8103645 15:-0.22328366 16:0.2405218 17:1.7784152 18:-0.2311949 19:0.031331733 20:1.6573453 21:-0.2203777 22:-0.013945758 23:1.6338539 24:0.18023482 25:0.47382206 26:1.8411853 27:0.29017597 28:0.25144333 29:1.8213532 30:0.50849766 31:0.25666744 32:1.7703831 33:0.58191836 34:0.26765579 35:1.7682321 36:-0.073104322 37:-0.023313478 38:1.6797225 39:-0.1022619 40:-0.46897835 41:1.6156178 42:-0.1156271 43:-0.77666926 44:1.5662177 45:-0.12747736 46:-0.83688301 47:1.4589331 48:0.084176719 49:-0.027169064 50:1.6952252 51:0.095274366 52:-0.45642585 53:1.6218112 54:0.099917747 55:-0.75666475 56:1.5759509 57:0.13498951 58:-0.81793898 59:1.476378 60:-0.0020759404 61:0.53715211 62:1.8458107 63:-0.21779485 64:-0.075583816 65:1.6176555 66:-0.25697738 67:-0.022595525 68:1.6356034 69:0.64703113 70:0.27204221 71:1.7619469 72:0.57109153 73:0.22604157 74:1.736568 
-0 0 0 0 0 0 10 0:0.0035825744 1:-0.027589172 2:1.727586 3:0 4:0.30000001 5:1.8 6:-0.0025930107 7:0.61385095 8:1.8579631 9:0.033171177 10:0.76443839 11:1.8430691 12:-0.16779117 13:0.49261782 14:1.8101506 15:-0.22331105 16:0.24035254 17:1.7783175 18:-0.23120247 19:0.031323433 20:1.6573122 21:-0.21986468 22:-0.01510115 23:1.6326647 24:0.18025637 25:0.47379449 26:1.841258 27:0.28967732 28:0.25143561 29:1.8210232 30:0.50797272 31:0.25694415 32:1.7699299 33:0.57982451 34:0.26811829 35:1.7619896 36:-0.073130488 37:-0.023234695 38:1.6796322 39:-0.10221541 40:-0.46893218 41:1.6155977 42:-0.11572793 43:-0.77652252 44:1.5661294 45:-0.12749077 46:-0.83700871 47:1.4591136 48:0.084176019 49:-0.027145833 50:1.6952384 51:0.095330596 52:-0.45607957 53:1.6217132 54:0.099839859 55:-0.75640857 56:1.5761054 57:0.13505995 58:-0.81774807 59:1.4766841 60:-0.0020654351 61:0.53710914 62:1.8458982 63:-0.21588124 64:-0.076285049 65:1.6181285 66:-0.25401562 67:-0.046378434 68:1.6296041 69:0.64674634 70:0.27296925 71:1.7562137 72:0.57465619 73:0.22716793 74:1.7279983 
-0 0 0 0 0 0 10 0:0.0035831779 1:-0.027591497 2:1.7275803 3:0 4:0.30000001 5:1.8 6:-0.0025996566 7:0.61385828 8:1.8579729 9:0.033204608 10:0.76446748 11:1.8430688 12:-0.16773704 13:0.4926421 14:1.8101313 15:-0.22330999 16:0.24029472 17:1.7783492 18:-0.23119941 19:0.031341374 20:1.6573043 21:-0.22037399 22:-0.014544353 23:1.6323338 24:0.18027155 25:0.47382849 26:1.8413393 27:0.28948906 28:0.25141168 29:1.8208342 30:0.50754309 31:0.25735849 32:1.7684405 33:0.57803357 34:0.270603 35:1.7569335 36:-0.073135138 37:-0.023235545 38:1.6796386 39:-0.1022062 40:-0.46891171 41:1.6155984 42:-0.1157162 43:-0.77641314 44:1.5662272 45:-0.12736173 46:-0.83674896 47:1.4590223 48:0.084180214 49:-0.02716285 50:1.6952171 51:0.095314935 52:-0.45570433 53:1.6217256 54:0.099934384 55:-0.75624889 56:1.5761111 57:0.13505384 58:-0.8176322 59:1.4766843 60:-0.0020699874 61:0.53711504 62:1.845906 63:-0.21403423 64:-0.078472123 65:1.6199229 66:-0.25967088 67:-0.034992531 68:1.6392009 69:0.64389515 70:0.27682677 71:1.7496495 72:0.5682348 73:0.2281149 74:1.7258554 
-0 0 0 0 0 0 10 0:0.0035750195 1:-0.027573422 2:1.7275741 3:0 4:0.30000001 5:1.8 6:-0.0025972277 7:0.61384892 8:1.8579814 9:0.033212312 10:0.76441538 11:1.8430688 12:-0.16770993 13:0.49258158 14:1.8099892 15:-0.22334929 16:0.24025974 17:1.7783046 18:-0.23120435 19:0.031334192 20:1.657294 21:-0.22026117 22:-0.014580354 23:1.6317706 24:0.18049422 25:0.47393033 26:1.8416975 27:0.28915584 28:0.25158477 29:1.820358 30:0.50649291 31:0.25869939 32:1.7643549 33:0.57771599 34:0.27297887 35:1.7484972 36:-0.073158443 37:-0.023177177 38:1.6795824 39:-0.10226856 40:-0.46839008 41:1.6156054 42:-0.11571416 43:-0.77678859 44:1.5661247 45:-0.12743096 46:-0.83696735 47:1.4587781 48:0.084173933 49:-0.027159259 50:1.6952343 51:0.09531261 52:-0.4557896 53:1.6217294 54:0.099951409 55:-0.75638795 56:1.5761137 57:0.13492203 58:-0.81758201 59:1.4763806 60:-0.0020684227 61:0.53710938 62:1.8459108 63:-0.21626998 64:-0.073718041 65:1.6165688 66:-0.25745332 67:-0.021003366 68:1.6352448 69:0.64162296 70:0.2803885 71:1.7380097 72:0.56891042 73:0.23117951 74:1.7168834 
-0 0 0 0 0 0 10 0:0.0035827681 1:-0.027568549 2:1.7275486 3:0 4:0.30000001 5:1.8 6:-0.0026174113 7:0.61385942 8:1.8580468 9:0.033214442 10:0.76442403 11:1.8430932 12:-0.16778316 13:0.49259347 14:1.8099167 15:-0.22338854 16:0.24025579 17:1.7782602 18:-0.23123603 19:0.031321898 20:1.657227 21:-0.22015257 22:-0.013759091 23:1.6329286 24:0.18043457 25:0.47403461 26:1.8419058 27:0.28850287 28:0.25183517 29:1.8198037 30:0.50477785 31:0.26069981 32:1.7590356 33:0.5757913 34:0.27555221 35:1.7402904 36:-0.073151276 37:-0.023180589 38:1.6795197 39:-0.10239369 40:-0.46811938 41:1.6156261 42:-0.1157039 43:-0.77735907 44:1.5657203 45:-0.12779106 46:-0.83742642 47:1.458354 48:0.084189989 49:-0.02714555 50:1.6952934 51:0.0953357 52:-0.45586014 53:1.6216748 54:0.099839211 55:-0.75650358 56:1.5760067 57:0.13542062 58:-0.81800079 59:1.4769824 60:-0.0020818561 61:0.53711623 62:1.845958 63:-0.21864589 64:-0.073692203 65:1.6164682 66:-0.25861371 67:-0.028487131 68:1.6371114 69:0.64169443 70:0.28382874 71:1.7339928 72:0.57397485 73:0.23627116 74:1.7111013 
-0 0 0 0 0 10 0 0:0.0037169755 1:-0.027656138 2:1.7274053 3:0 4:0.30000001 5:1.8 6:-0.0028936788 7:0.6141293 8:1.8584661 9:0.033472173 10:0.7642206 11:1.8431072 12:-0.16772941 13:0.49246454 14:1.809427 15:-0.22334778 16:0.24006142 17:1.7775939 18:-0.23106712 19:0.031757191 20:1.6565015 21:-0.22039202 22:-0.013896048 23:1.6302426 24:0.18051073 25:0.47419137 26:1.841876 27:0.28846374 28:0.25301993 29:1.8163006 30:0.49565044 31:0.27129334 32:1.7268224 33:0.56620777 34:0.28714132 35:1.6944501 36:-0.073056988 37:-0.023268536 38:1.6791959 39:-0.10199688 40:-0.47241062 41:1.6151948 42:-0.11590742 43:-0.77820003 44:1.5654619 45:-0.12793595 46:-0.83781391 47:1.4576221 48:0.084365711 49:-0.027273268 50:1.6955409 51:0.095388554 52:-0.45596492 53:1.6213644 54:0.10020002 55:-0.75821894 56:1.5751903 57:0.13587636 58:-0.81885457 59:1.4752293 60:-0.0022719279 61:0.53730398 62:1.8462582 63:-0.21620485 64:-0.075518742 65:1.6147561 66:-0.26249209 67:-0.013985351 68:1.6455543 69:0.62897122 70:0.29445225 71:1.6700766 72:0.55891728 73:0.24726839 74:1.6618202 
-0 10 0 0 0 10 0 0:0.0037921667 1:-0.027674183 2:1.7273557 3:0 4:0.30000001 5:1.8 6:-0.0030022711 7:0.61415619 8:1.858572 9:0.033555523 10:0.76424778 11:1.8430228 12:-0.16763873 13:0.49253803 14:1.8092561 15:-0.22339459 16:0.24001913 17:1.7774017 18:-0.23105691 19:0.031764016 20:1.6562443 21:-0.21992926 22:-0.013668999 23:1.6310089 24:0.18056062 25:0.47427386 26:1.8419042 27:0.2878221 28:0.25446391 29:1.8153818 30:0.48841673 31:0.2743004 32:1.7104268 33:0.56041658 34:0.29151404 35:1.6701627 36:-0.072996408 37:-0.023269072 38:1.6791339 39:-0.10215463 40:-0.47094554 41:1.6152124 42:-0.11586684 43:-0.77816015 44:1.5652769 45:-0.12799735 46:-0.83779097 47:1.4574771 48:0.084445804 49:-0.027317181 50:1.6954961 51:0.095299274 52:-0.45618975 53:1.6212816 54:0.100137 55:-0.75812191 56:1.5751801 57:0.13580781 58:-0.8187086 59:1.4751539 60:-0.0023494214 61:0.5373227 62:1.8463368 63:-0.21675758 64:-0.074081525 65:1.6166847 66:-0.25681078 67:-0.047031894 68:1.6302612 69:0.62177444 70:0.29914618 71:1.642874 72:0.55432624 73:0.25271332 74:1.6375241 
-0 10 0 0 10 10 0 0:0.0038272068 1:-0.027702883 2:1.7272861 3:0 4:0.30000001 5:1.8 6:-0.0030860901 7:0.61423349 8:1.8587108 9:0.033712655 10:0.76418793 11:1.8427582 12:-0.16753554 13:0.49268377 14:1.8090067 15:-0.22322991 16:0.23973207 17:1.7767758 18:-0.23084286 19:0.031670257 20:1.6557689 21:-0.21976432 22:-0.013940722 23:1.6297541 24:0.18063967 25:0.47423673 26:1.8419604 27:0.28246495 28:0.25369126 29:1.8134329 30:0.49124596 31:0.28153688 32:1.67875 33:0.54432064 34:0.2953223 35:1.6420465 36:-0.072973482 37:-0.023287818 38:1.6790543 39:-0.10216976 40:-0.47073883 41:1.6150353 42:-0.1158553 43:-0.77811331 44:1.5651488 45:-0.12801546 46:-0.83779824 47:1.4574118 48:0.084494859 49:-0.027364731 50:1.6954372 51:0.095314875 52:-0.45551872 53:1.6212931 54:0.1002553 55:-0.7576772 56:1.5752144 57:0.13546148 58:-0.81830198 59:1.474966 60:-0.0024097636 61:0.53737581 62:1.8464389 63:-0.21259841 64:-0.077190503 65:1.6172261 66:-0.25690338 67:-0.038072035 68:1.6317263 69:0.60586929 70:0.30374235 71:1.6006327 72:0.5307802 73:0.25497979 74:1.612844 
-0 10 1.822112754493003 2.680549994344335 10 10 0 0:0.00391417 1:-0.027719751 2:1.727464 3:0 4:0.30000001 5:1.8 6:-0.0031365976 7:0.61424631 8:1.8585987 9:0.033844352 10:0.76416045 11:1.8425999 12:-0.16757381 13:0.49269867 14:1.8088679 15:-0.22330353 16:0.23968573 17:1.7766292 18:-0.23085064 19:0.0317031 20:1.6556411 21:-0.21907768 22:-0.01402168 23:1.631258 24:0.18097273 25:0.47440434 26:1.842742 27:0.28082108 28:0.25338078 29:1.8136065 30:0.48038033 31:0.28398502 32:1.6609635 33:0.52632171 34:0.29955816 35:1.6133423 36:-0.072833307 37:-0.023346975 38:1.6793942 39:-0.10224972 40:-0.46989149 41:1.6151485 42:-0.11585189 43:-0.77808845 44:1.565021 45:-0.12811387 46:-0.83786196 47:1.4573994 48:0.084522903 49:-0.02736035 50:1.6954746 51:0.095238358 52:-0.45555413 53:1.6213219 54:0.10016064 55:-0.75750506 56:1.5751545 57:0.13553077 58:-0.81832796 59:1.4752264 60:-0.0024523214 61:0.53738678 62:1.8463478 63:-0.21446845 64:-0.076005906 65:1.6165209 66:-0.25616896 67:-0.02404885 68:1.6338754 69:0.58501744 70:0.30527699 71:1.5626941 72:0.51032323 73:0.25716507 74:1.5889816 
-10 10 10 10 10 10 0 0:0.0040032938 1:-0.027870193 2:1.7273386 3:0 4:0.30000001 5:1.8 6:-0.0032919347 7:0.61449683 8:1.8588355 9:0.034071527 10:0.76407301 11:1.842108 12:-0.16738881 13:0.49269298 14:1.8084085 15:-0.22322111 16:0.23990104 17:1.7762835 18:-0.23078452 19:0.031710953 20:1.6552429 21:-0.21892767 22:-0.0140661 23:1.6313615 24:0.18114726 25:0.47464487 26:1.8430912 27:0.2806215 28:0.25330457 29:1.8129587 30:0.46049792 31:0.28781751 32:1.6339846 33:0.50016791 34:0.30354002 35:1.5830495 36:-0.072743431 37:-0.023575127 38:1.6793849 39:-0.10206206 40:-0.47101191 41:1.614768 42:-0.11580862 43:-0.77803576 44:1.5647485 45:-0.12832527 46:-0.8383013 47:1.4577031 48:0.084597677 49:-0.027453512 50:1.6952522 51:0.095241457 52:-0.45562258 53:1.6211433 54:0.10022006 55:-0.75779617 56:1.5746932 57:0.13582228 58:-0.81854248 59:1.4748108 60:-0.0025628507 61:0.53756237 62:1.8465226 63:-0.21436535 64:-0.07494624 65:1.6140273 66:-0.25552738 67:-0.026022196 68:1.6332073 69:0.55883288 70:0.3069503 71:1.5173185 72:0.48992991 73:0.26263222 74:1.5602839 
-0 0 0 0 0 10 9.132496627284231 0:0.0024592951 1:-0.027471364 2:1.7287586 3:0 4:0.30000001 5:1.8 6:-0.0033138692 7:0.6146301 8:1.8563221 9:0.025775276 10:0.7653268 11:1.8416283 12:-0.1752736 13:0.4935357 14:1.8110542 15:-0.22524929 16:0.24027336 17:1.7781873 18:-0.23047566 19:0.031104043 20:1.6597776 21:-0.21773925 22:-0.017501205 23:1.6329014 24:0.18459436 25:0.47000039 26:1.813133 27:0.35091814 28:0.28401268 29:1.7978559 30:0.57726175 31:0.26151371 32:1.7146409 33:0.65213192 34:0.25733155 35:1.7014666 36:-0.074120082 37:-0.024263322 38:1.6843543 39:-0.096295111 40:-0.46141523 41:1.6209769 42:-0.10811044 43:-0.77186149 44:1.5724905 45:-0.11856843 46:-0.8308664 47:1.4636214 48:0.083044007 49:-0.026310951 50:1.6920612 51:0.10003174 52:-0.44745177 53:1.624563 54:0.10790406 55:-0.75388467 56:1.5807192 57:0.14288183 58:-0.81493914 59:1.4808476 60:-0.0025087222 61:0.53760689 62:1.8446672 63:-0.20734817 64:-0.081413671 65:1.6172905 66:-0.25513017 67:-0.035846606 68:1.6391416 69:0.71416759 70:0.25813097 71:1.6731615 72:0.62840289 73:0.21698743 74:1.6738489 
-0 0 0 0 0 10 10 0:0.0026885569 1:-0.027551875 2:1.7288134 3:0 4:0.30000001 5:1.8 6:-0.0034766942 7:0.61468059 8:1.8562975 9:0.025488473 10:0.76532215 11:1.8414669 12:-0.17533852 13:0.49347359 14:1.8108017 15:-0.22511207 16:0.24033323 17:1.7783144 18:-0.23026367 19:0.031540394 20:1.6595173 21:-0.21675758 22:-0.017140761 23:1.631561 24:0.18480292 25:0.46964425 26:1.813513 27:0.35120851 28:0.28465703 29:1.7988839 30:0.57820028 31:0.25867182 32:1.7173057 33:0.64943874 34:0.25288534 35:1.7052863 36:-0.073906884 37:-0.024279416 38:1.6841896 39:-0.096119195 40:-0.46175939 41:1.6210718 42:-0.10806413 43:-0.77127582 44:1.572753 45:-0.11818939 46:-0.83035481 47:1.4638822 48:0.083289593 49:-0.026405483 50:1.6922956 51:0.10014061 52:-0.4471308 53:1.6248832 54:0.10797589 55:-0.75375569 56:1.5809171 57:0.14330646 58:-0.81502295 59:1.4814925 60:-0.0026371256 61:0.53765047 62:1.8446493 63:-0.21006514 64:-0.080865338 65:1.6206756 66:-0.25498211 67:-0.031377494 68:1.6356022 69:0.71100157 70:0.25038725 71:1.6808224 72:0.63498235 73:0.21310517 74:1.6739502 
-0 0 0 0 0 10 10 0:0.0029747412 1:-0.027656406 2:1.7288868 3:0 4:0.30000001 5:1.8 6:-0.0037319958 7:0.61477774 8:1.8562696 9:0.02543363 10:0.7654599 11:1.8414147 12:-0.17522967 13:0.49344772 14:1.8102732 15:-0.22489759 16:0.24079408 17:1.7781205 18:-0.22992796 19:0.031492189 20:1.6590958 21:-0.21681064 22:-0.016205296 23:1.6312568 24:0.18503696 25:0.46931648 26:1.8139083 27:0.35138801 28:0.28487194 29:1.7993619 30:0.57916737 31:0.25557852 32:1.7192886 33:0.64940131 34:0.24758174 35:1.7064602 36:-0.073618136 37:-0.024395332 38:1.6840665 39:-0.09588816 40:-0.4617601 41:1.6212776 42:-0.10781207 43:-0.77121246 44:1.5729554 45:-0.11792649 46:-0.83030927 47:1.4641011 48:0.083576627 49:-0.026448503 50:1.6925526 51:0.10038445 52:-0.44682187 53:1.6251473 54:0.10812013 55:-0.75353241 56:1.5811327 57:0.14369996 58:-0.81457895 59:1.4815753 60:-0.0028344691 61:0.53772753 62:1.8446271 63:-0.20870563 64:-0.080347925 65:1.6179104 66:-0.2557486 67:-0.028401092 68:1.6389599 69:0.71162087 70:0.24496041 71:1.681525 72:0.63420361 73:0.20689203 74:1.6798484 
-0 0 0 0 0 10 10 0:0.0032140315 1:-0.027756765 2:1.7287469 3:0 4:0.30000001 5:1.8 6:-0.0038569048 7:0.6148231 8:1.8563347 9:0.025304884 10:0.76547062 11:1.8414421 12:-0.17528608 13:0.49334022 14:1.8100932 15:-0.22478232 16:0.24060187 17:1.7775435 18:-0.22982991 19:0.031506702 20:1.6589804 21:-0.21686181 22:-0.017145634 23:1.6316078 24:0.18521896 25:0.46894535 26:1.8143222 27:0.35153937 28:0.28508708 29:1.7999165 30:0.57965636 31:0.25281879 32:1.7216759 33:0.65046167 34:0.24483851 35:1.7086954 36:-0.073396422 37:-0.024451464 38:1.6837697 39:-0.095907666 40:-0.46175161 41:1.6213078 42:-0.10778951 43:-0.77137113 44:1.5728559 45:-0.11788411 46:-0.8305409 47:1.4640779 48:0.083829075 49:-0.026554883 50:1.6925988 51:0.10039935 52:-0.44681779 53:1.6252675 54:0.10817521 55:-0.75353932 56:1.5812545 57:0.14368707 58:-0.81455898 59:1.481627 60:-0.002923727 61:0.53776217 62:1.8446751 63:-0.20753178 64:-0.080249071 65:1.617053 66:-0.25426251 67:-0.03385441 68:1.6376812 69:0.71229702 70:0.24138963 71:1.6837635 72:0.63579041 73:0.20494166 74:1.6782794 
-0 0 0 0 0 10 10 0:0.003404662 1:-0.027733728 2:1.7287927 3:0 4:0.30000001 5:1.8 6:-0.0040108785 7:0.61475092 8:1.8563256 9:0.025175259 10:0.76531988 11:1.8415565 12:-0.1752958 13:0.49338037 14:1.8103216 15:-0.22474095 16:0.24057598 17:1.7775347 18:-0.22963533 19:0.031589523 20:1.6586692 21:-0.21702334 22:-0.015867054 23:1.6320319 24:0.1853722 25:0.46860796 26:1.8147748 27:0.35157645 28:0.28499079 29:1.8008375 30:0.57988334 31:0.25069964 32:1.7232733 33:0.65015465 34:0.24352188 35:1.7099242 36:-0.073230691 37:-0.024319962 38:1.6836517 39:-0.095841609 40:-0.46163446 41:1.6214175 42:-0.10762871 43:-0.77153045 44:1.5731239 45:-0.11784511 46:-0.83057386 47:1.4642427 48:0.084027372 49:-0.026577547 50:1.6927762 51:0.10051484 52:-0.44676626 53:1.6254539 54:0.10832942 55:-0.75351393 56:1.5813658 57:0.14407259 58:-0.81462783 59:1.4819813 60:-0.0030424967 61:0.53771609 62:1.8446698 63:-0.20702252 64:-0.077999055 65:1.6141062 66:-0.25457945 67:-0.030169532 68:1.6378922 69:0.71240878 70:0.23877095 71:1.6830792 72:0.63310152 73:0.20434158 74:1.6810467 
-0 0 0 0 0 1.724522572874116 10 0:0.0035160407 1:-0.027740777 2:1.7287982 3:0 4:0.30000001 5:1.8 6:-0.0041332841 7:0.6147337 8:1.8563554 9:0.025125712 10:0.76529694 11:1.8416045 12:-0.17528549 13:0.49344844 14:1.8103099 15:-0.22485939 16:0.24049388 17:1.7770767 18:-0.22954151 19:0.031657666 20:1.6583192 21:-0.21609062 22:-0.015890583 23:1.6313648 24:0.1854478 25:0.46833223 26:1.8150475 27:0.35165775 28:0.28499252 29:1.8009267 30:0.57951641 31:0.24902715 32:1.7238786 33:0.64954138 34:0.24082379 35:1.708061 36:-0.073118471 37:-0.024345666 38:1.6835821 39:-0.095500566 40:-0.4639225 41:1.6211565 42:-0.10780144 43:-0.77142614 44:1.5731208 45:-0.11766955 46:-0.83059931 47:1.4643052 48:0.084150292 49:-0.026572615 50:1.6928513 51:0.10063066 52:-0.44584173 53:1.6254847 54:0.10830414 55:-0.75289607 56:1.5815458 57:0.14382321 58:-0.81401527 59:1.4820247 60:-0.0031372756 61:0.53770679 62:1.8446896 63:-0.20163417 64:-0.084161848 65:1.6197581 66:-0.25482473 67:-0.031625211 68:1.6376669 69:0.71126068 70:0.23646547 71:1.6797287 72:0.62931782 73:0.20022102 74:1.6796925 
-0 0 0 0 0 10 10 0:0.0037467182 1:-0.027842507 2:1.7286828 3:0 4:0.30000001 5:1.8 6:-0.0043792278 7:0.61493337 8:1.8566418 9:0.025310598 10:0.7652548 11:1.8414559 12:-0.17505872 13:0.49337602 14:1.8101072 15:-0.2245484 16:0.24033122 17:1.7767797 18:-0.22924089 19:0.031768605 20:1.6580431 21:-0.21530601 22:-0.014787987 23:1.6309786 24:0.18553919 25:0.46812946 26:1.8150921 27:0.35199702 28:0.284917 29:1.8008335 30:0.57989693 31:0.24784835 32:1.7240956 33:0.65020692 34:0.24097024 35:1.7077703 36:-0.07285659 37:-0.024403259 38:1.6834328 39:-0.09530355 40:-0.46323675 41:1.6210003 42:-0.10742719 43:-0.77170092 44:1.5729241 45:-0.11803952 46:-0.83158064 47:1.4649916 48:0.084333643 49:-0.026745901 50:1.6928856 51:0.10092623 52:-0.44585389 53:1.6254034 54:0.10859482 55:-0.75294936 56:1.581399 57:0.14394581 58:-0.8141734 59:1.4819114 60:-0.003332153 61:0.53785366 62:1.8448973 63:-0.20762187 64:-0.075024351 65:1.6152101 66:-0.25090322 67:-0.044224739 68:1.6288133 69:0.71252054 70:0.23873155 71:1.6820662 72:0.64241511 73:0.2024682 74:1.6759052 
-0 0 0 0 0 10 10 0:0.0038576275 1:-0.027815506 2:1.7286198 3:0 4:0.30000001 5:1.8 6:-0.0045370758 7:0.61484736 8:1.8567445 9:0.025222205 10:0.76517087 11:1.8414729 12:-0.17516899 13:0.49333727 14:1.8100517 15:-0.2245062 16:0.24032648 17:1.776792 18:-0.22930241 19:0.031478807 20:1.6576672 21:-0.2165972 22:-0.015016451 23:1.6318586 24:0.18535472 25:0.46843332 26:1.815309 27:0.35202304 28:0.28491116 29:1.8008888 30:0.57988077 31:0.24700303 32:1.7238579 33:0.64944679 34:0.24030499 35:1.7051563 36:-0.072789527 37:-0.024394795 38:1.6834378 39:-0.095463328 40:-0.46289074 41:1.6209228 42:-0.10744383 43:-0.77180606 44:1.5729587 45:-0.11803862 46:-0.83158058 47:1.4649155 48:0.084503934 49:-0.026677698 50:1.6927779 51:0.10100387 52:-0.44583923 53:1.6254146 54:0.10876431 55:-0.75310934 56:1.5811911 57:0.1440817 58:-0.81441337 59:1.4817898 60:-0.0034443662 61:0.53780115 62:1.8449638 63:-0.20652568 64:-0.078494072 65:1.6182683 66:-0.2583217 67:-0.01739502 68:1.6407349 69:0.71216065 70:0.23703794 71:1.6805968 72:0.62563318 73:0.20197101 74:1.677505 
-0 0 0 0 0 10 10 0:0.0039103329 1:-0.027826309 2:1.7286007 3:0 4:0.30000001 5:1.8 6:-0.0045897961 7:0.61484116 8:1.8567953 9:0.025077023 10:0.76512933 11:1.8415322 12:-0.17529967 13:0.49331486 14:1.8100989 15:-0.22451505 16:0.24036098 17:1.7767844 18:-0.22941497 19:0.031401992 20:1.6576889 21:-0.21639073 22:-0.015375823 23:1.6324587 24:0.1853191 25:0.4683134 26:1.8154299 27:0.35205308 28:0.28491533 29:1.8008785 30:0.57974654 31:0.24671316 32:1.7237175 33:0.64859623 34:0.24186248 35:1.7042391 36:-0.072750129 37:-0.024395764 38:1.683424 39:-0.095530339 40:-0.46206611 41:1.6209288 42:-0.10740713 43:-0.77185571 44:1.5729375 45:-0.11806572 46:-0.83165133 47:1.4649305 48:0.084576003 49:-0.026693329 50:1.6927814 51:0.10096338 52:-0.44610214 53:1.6253977 54:0.10870203 55:-0.75308263 56:1.5811605 57:0.14399092 58:-0.81439477 59:1.4817522 60:-0.0034870729 61:0.53779835 62:1.8449998 63:-0.20689881 64:-0.077409312 65:1.6164894 66:-0.25505257 67:-0.029318467 68:1.6375442 69:0.71140611 70:0.24031645 71:1.6779287 72:0.63312638 73:0.20543322 74:1.6763206 
-0 0 0 0 0 10 10 0:0.0041086823 1:-0.027899638 2:1.7284369 3:0 4:0.30000001 5:1.8 6:-0.005004324 7:0.61501187 8:1.8573165 9:0.025005974 10:0.7650196 11:1.8416071 12:-0.17520367 13:0.4932375 14:1.8099689 15:-0.22457002 16:0.24056651 17:1.776994 18:-0.22901656 19:0.030883566 20:1.6571264 21:-0.21621321 22:-0.015786782 23:1.6331422 24:0.18539108 25:0.46817458 26:1.8153763 27:0.3522141 28:0.2848677 29:1.800694 30:0.57983696 31:0.24647595 32:1.7234533 33:0.64939362 34:0.24349327 35:1.7034719 36:-0.07255967 37:-0.024465755 38:1.6832602 39:-0.095341995 40:-0.46230423 41:1.6208215 42:-0.10724805 43:-0.7722463 44:1.5727229 45:-0.1181024 46:-0.83165127 47:1.4643579 48:0.084802784 49:-0.026769117 50:1.6926432 51:0.10112727 52:-0.44618493 53:1.6253009 54:0.10887218 55:-0.75324535 56:1.5810571 57:0.14426467 58:-0.81466889 59:1.481843 60:-0.0037961602 61:0.5379256 62:1.8453703 63:-0.20673253 64:-0.079997078 65:1.6191258 66:-0.25484616 67:-0.028899401 68:1.637145 69:0.71042567 70:0.24162446 71:1.6746695 72:0.63014984 73:0.20550166 74:1.6747949 
-0 0 0 0 0 10 0 0:0.004339993 1:-0.027863517 2:1.7284231 3:0 4:0.30000001 5:1.8 6:-0.0050982013 7:0.61496186 8:1.8573439 9:0.025139049 10:0.76510602 11:1.841634 12:-0.17496628 13:0.49329454 14:1.8099847 15:-0.22455791 16:0.24133328 17:1.7774098 18:-0.22871324 19:0.031070799 20:1.6568956 21:-0.21611589 22:-0.014855504 23:1.6327984 24:0.18557677 25:0.46820861 26:1.8154619 27:0.35265568 28:0.28489146 29:1.8006434 30:0.5800451 31:0.24651012 32:1.7231984 33:0.64895874 34:0.24495053 35:1.7004395 36:-0.072303392 37:-0.024403811 38:1.6832511 39:-0.095076732 40:-0.46176147 41:1.6209025 42:-0.10692617 43:-0.77205831 44:1.5727332 45:-0.11774523 46:-0.83155364 47:1.4644516 48:0.085016154 49:-0.026753023 50:1.6926599 51:0.10139418 52:-0.44608819 53:1.625284 54:0.10917173 55:-0.75311011 56:1.5811546 57:0.14442794 58:-0.81449687 59:1.4818175 60:-0.0038805157 61:0.53789091 62:1.8453963 63:-0.20621315 64:-0.078292757 65:1.6167884 66:-0.25229603 67:-0.04080072 68:1.6320007 69:0.7104274 70:0.23996592 71:1.6727536 72:0.62078512 73:0.20532665 74:1.6739724 
-0 0 0 0 0 10 0 0:0.0044275671 1:-0.027845591 2:1.7283998 3:0 4:0.30000001 5:1.8 6:-0.0051405579 7:0.61490625 8:1.8573933 9:0.025076836 10:0.76503187 11:1.8417654 12:-0.17488456 13:0.49331021 14:1.8100266 15:-0.22454149 16:0.24148777 17:1.7773769 18:-0.22869226 19:0.030955702 20:1.6568673 21:-0.21553633 22:-0.016860247 23:1.6328669 24:0.18556798 25:0.46822393 26:1.8155754 27:0.35268381 28:0.28493628 29:1.8006454 30:0.58000267 31:0.24659616 32:1.7226882 33:0.64854681 34:0.24663228 35:1.6998341 36:-0.07222458 37:-0.024391204 38:1.6832848 39:-0.095076017 40:-0.46218783 41:1.6208198 42:-0.10695254 43:-0.77250874 44:1.572701 45:-0.11726177 46:-0.83106154 47:1.4633653 48:0.085140787 49:-0.02670759 50:1.6925375 51:0.10144088 52:-0.44606501 53:1.6253347 54:0.10931809 55:-0.7531507 56:1.5811472 57:0.14462422 58:-0.81450289 59:1.4817984 60:-0.0039160326 61:0.5378533 62:1.8454342 63:-0.20794541 64:-0.081408173 65:1.6186793 66:-0.25407541 67:-0.030978113 68:1.6366236 69:0.71003324 70:0.24199793 71:1.6711137 72:0.62018621 73:0.20843464 74:1.6733034 
-0 0 0 0 0 10 0 0:0.0046011657 1:-0.027885988 2:1.7283268 3:0 4:0.30000001 5:1.8 6:-0.0051287711 7:0.61494148 8:1.8574479 9:0.025189415 10:0.76508123 11:1.8419192 12:-0.1747943 13:0.49329376 14:1.8101006 15:-0.22439061 16:0.24175011 17:1.7774701 18:-0.22862194 19:0.031863287 20:1.6574523 21:-0.2157165 22:-0.015461221 23:1.6348822 24:0.18580571 25:0.46815145 26:1.8155308 27:0.35314417 28:0.28505063 29:1.8003349 30:0.58026743 31:0.24684845 32:1.7223475 33:0.64887387 34:0.24862693 35:1.7006247 36:-0.072052538 37:-0.024443373 38:1.6832943 39:-0.094857901 40:-0.46072125 41:1.6208277 42:-0.10631409 43:-0.77192092 44:1.5725975 45:-0.11729275 46:-0.83081174 47:1.463726 48:0.085318387 49:-0.026728407 50:1.6924541 51:0.10164078 52:-0.44604886 53:1.6252892 54:0.1097085 55:-0.7531516 56:1.5811129 57:0.14482319 58:-0.81446666 59:1.4816148 60:-0.00392057 61:0.53788191 62:1.845484 63:-0.20999129 64:-0.078207359 65:1.6215398 66:-0.25379384 67:-0.031476811 68:1.6365011 69:0.7107662 70:0.24561994 71:1.6722426 72:0.63043326 73:0.20824803 74:1.6724279 
-0 0 0 0 0 10 0 0:0.0043990016 1:-0.027894512 2:1.72855 3:0 4:0.30000001 5:1.8 6:-0.0048637092 7:0.61494446 8:1.8573089 9:0.025220007 10:0.76518446 11:1.8421998 12:-0.17468137 13:0.49321908 14:1.8104036 15:-0.22430044 16:0.24180271 17:1.7778115 18:-0.22842008 19:0.032061905 20:1.6574693 21:-0.21488848 22:-0.015478522 23:1.6349249 24:0.1860894 25:0.46812451 26:1.8154614 27:0.35351819 28:0.28510243 29:1.8001797 30:0.58065116 31:0.24698599 32:1.7220654 33:0.64986932 34:0.24861462 35:1.7002287 36:-0.072300464 37:-0.024423569 38:1.6838467 39:-0.094618306 40:-0.46023327 41:1.6208544 42:-0.10595517 43:-0.7718606 44:1.572444 45:-0.11716834 46:-0.83125055 47:1.4641337 48:0.085137591 49:-0.026743516 50:1.6925313 51:0.1019842 52:-0.4459551 53:1.62516 54:0.10998613 55:-0.7528705 56:1.5812135 57:0.14513066 58:-0.81427652 59:1.481833 60:-0.0037078932 61:0.53788263 62:1.8453703 63:-0.20656413 64:-0.078226522 65:1.6197948 66:-0.25298339 67:-0.031891122 68:1.6358283 69:0.70989144 70:0.24537857 71:1.6678581 72:0.62897825 73:0.20758604 74:1.6744268 
-0 -10 0 0 0 10 10 0:0.0054325685 1:-0.026812822 2:1.7257988 3:0 4:0.30000001 5:1.8 6:-0.004611589 7:0.61366475 8:1.8600409 9:0.02928298 10:0.76455379 11:1.8452165 12:-0.16817147 13:0.49147889 14:1.8090136 15:-0.22060543 16:0.23599979 17:1.7756829 18:-0.23171493 19:0.025983065 20:1.6570439 21:-0.21912125 22:-0.020585418 23:1.6325157 24:0.18220215 25:0.47877923 26:1.8412187 27:0.27722707 28:0.2565603 29:1.7908034 30:0.46839675 31:0.29206413 32:1.6202428 33:0.51067477 34:0.30773208 35:1.5712793 36:-0.071042292 37:-0.023442686 38:1.6802499 39:-0.099198155 40:-0.4661006 41:1.606847 42:-0.11260252 43:-0.77545583 44:1.5554059 45:-0.12400738 46:-0.83430576 47:1.4466388 48:0.085896648 49:-0.025547162 50:1.691607 51:0.098327078 52:-0.45272473 53:1.6133564 54:0.10391576 55:-0.75371218 56:1.5651958 57:0.1391398 58:-0.81451356 59:1.4651272 60:-0.0035722777 61:0.53692555 62:1.8474658 63:-0.21939993 64:-0.083219051 65:1.6216564 66:-0.25433609 67:-0.053147316 68:1.6277199 69:0.56935179 70:0.3138639 71:1.5146518 72:0.51007682 73:0.27004591 74:1.5391676 
-0 -10 0 0 0 10 10 0:0.0054322779 1:-0.026848286 2:1.7257953 3:0 4:0.30000001 5:1.8 6:-0.0046138316 7:0.61368972 8:1.8600485 9:0.029486641 10:0.76446611 11:1.8450696 12:-0.16807075 13:0.49156338 14:1.8086228 15:-0.2207626 16:0.23615462 17:1.7753844 18:-0.23155843 19:0.026172817 20:1.6565096 21:-0.21949677 22:-0.020004511 23:1.63203 24:0.18220851 25:0.47869611 26:1.8412082 27:0.27675068 28:0.25645876 29:1.7895529 30:0.4492197 31:0.2943553 32:1.6005294 33:0.4830026 34:0.31195134 35:1.5441997 36:-0.071076527 37:-0.023448035 38:1.6801033 39:-0.099263862 40:-0.46543878 41:1.6069679 42:-0.11296374 43:-0.77507573 44:1.5552709 45:-0.12389848 46:-0.83428043 47:1.4467626 48:0.085906923 49:-0.025612041 50:1.6917889 51:0.098189712 52:-0.45236677 53:1.6134813 54:0.10393903 55:-0.75353438 56:1.5651333 57:0.13858235 58:-0.81434703 59:1.4647591 60:-0.0035747588 61:0.5369454 62:1.8474724 63:-0.21916167 64:-0.078682452 65:1.6174731 66:-0.25723588 67:-0.039874122 68:1.632829 69:0.53767711 70:0.31913573 71:1.4821985 72:0.47643793 73:0.27086133 74:1.5185931 
-0 -10 0 0 10 10 0 0:0.0052774176 1:-0.026800945 2:1.7258749 3:0 4:0.30000001 5:1.8 6:-0.0041492358 7:0.61349785 8:1.8597467 9:0.029729046 10:0.76441056 11:1.8452709 12:-0.1679242 13:0.49167335 14:1.8084731 15:-0.22073868 16:0.23617449 17:1.7747991 18:-0.23127335 19:0.026300281 20:1.6559122 21:-0.21929222 22:-0.020128071 23:1.6297321 24:0.18204075 25:0.47854072 26:1.8414576 27:0.27588174 28:0.25695997 29:1.7876596 30:0.41600505 31:0.29550627 32:1.5808313 33:0.44906917 34:0.31490827 35:1.5186732 36:-0.071238361 37:-0.023392826 38:1.6801717 39:-0.099412717 40:-0.46511585 41:1.6070633 42:-0.11328826 43:-0.77513587 44:1.5552423 45:-0.12417059 46:-0.83455372 47:1.4469473 48:0.085759036 49:-0.02557072 50:1.6918774 51:0.098043852 52:-0.45228827 53:1.6135821 54:0.10381144 55:-0.75350672 56:1.5651023 57:0.13851431 58:-0.81434691 59:1.4647944 60:-0.0032574758 61:0.53681815 62:1.8472712 63:-0.21937177 64:-0.079079986 65:1.6154594 66:-0.25658482 67:-0.04033716 68:1.6315792 69:0.50009239 70:0.32733059 71:1.4385059 72:0.44772795 73:0.27479589 74:1.4904623 
-0 -10 0 0 10 10 0 0:0.0052312687 1:-0.026863292 2:1.7258391 3:0 4:0.30000001 5:1.8 6:-0.0041147694 7:0.61356974 8:1.8598192 9:0.029884748 10:0.76431471 11:1.8449523 12:-0.16791832 13:0.49166834 14:1.8081331 15:-0.22082132 16:0.23632495 17:1.7744062 18:-0.23115855 19:0.026542887 20:1.6554906 21:-0.21949795 22:-0.021328613 23:1.6296136 24:0.17983967 25:0.47819352 26:1.8403146 27:0.27393013 28:0.25824952 29:1.7835841 30:0.39223006 31:0.29828423 32:1.5718005 33:0.41193435 34:0.31618291 35:1.5028069 36:-0.071337 37:-0.023408964 38:1.6799767 39:-0.099287301 40:-0.46667224 41:1.6069233 42:-0.11345898 43:-0.77510881 44:1.555074 45:-0.12436113 46:-0.83452028 47:1.4467769 48:0.085785702 49:-0.025702402 50:1.6921325 51:0.097915009 52:-0.45241308 53:1.6136158 54:0.10376307 55:-0.75386786 56:1.5647159 57:0.13843936 58:-0.81464583 59:1.4643335 60:-0.0032312572 61:0.53687036 62:1.8473222 63:-0.2203353 64:-0.08322081 65:1.6195359 66:-0.25628337 67:-0.023084924 68:1.6321998 69:0.45403954 70:0.33528006 71:1.419224 72:0.41301501 73:0.27807254 74:1.476424 
-0 -0 0 0 10 10 0 0:0.0051047951 1:-0.026921287 2:1.7257416 3:0 4:0.30000001 5:1.8 6:-0.0039799586 7:0.61364973 8:1.8599825 9:0.030329041 10:0.76416087 11:1.8445129 12:-0.16782719 13:0.49172276 14:1.8073425 15:-0.22081432 16:0.23654582 17:1.7735174 18:-0.23090795 19:0.026668414 20:1.6546035 21:-0.21916217 22:-0.02007021 23:1.6286891 24:0.18021524 25:0.47791785 26:1.8400793 27:0.27119854 28:0.2579295 29:1.7828765 30:0.36031827 31:0.29500806 32:1.5671017 33:0.37379304 34:0.31695926 35:1.4942431 36:-0.07149639 37:-0.023360059 38:1.6796021 39:-0.099356569 40:-0.46681494 41:1.6064882 42:-0.11370818 43:-0.77421719 44:1.5546401 45:-0.12451006 46:-0.83426625 47:1.44697 48:0.085628808 49:-0.025998041 50:1.6925907 51:0.097698264 52:-0.45225662 53:1.6135185 54:0.10350855 55:-0.75378639 56:1.5642385 57:0.13836366 58:-0.81462485 59:1.4640238 60:-0.0031313077 61:0.53692752 62:1.8474393 63:-0.21724236 64:-0.079362795 65:1.6155994 66:-0.25931838 67:-0.02477853 68:1.6401281 69:0.40925786 70:0.3353973 71:1.4137559 72:0.38075003 73:0.27986616 74:1.4666595 
-0 -0 0 0 10 10 0 0:0.0049923435 1:-0.026978254 2:1.7257586 3:0 4:0.30000001 5:1.8 6:-0.0038649738 7:0.61370581 8:1.8599913 9:0.030451514 10:0.76412725 11:1.8446505 12:-0.16775255 13:0.49178338 14:1.8070123 15:-0.22086583 16:0.23747231 17:1.7732766 18:-0.23067264 19:0.026937023 20:1.6539724 21:-0.21921964 22:-0.020489886 23:1.6275899 24:0.17853457 25:0.47764444 26:1.8390105 27:0.26821691 28:0.25851792 29:1.7820921 30:0.33249411 31:0.29835469 32:1.5620787 33:0.33512312 34:0.3171311 35:1.4903579 36:-0.071640059 37:-0.023324713 38:1.6794386 39:-0.099518985 40:-0.46618491 41:1.6063263 42:-0.11392578 43:-0.77409327 44:1.5543938 45:-0.12476714 46:-0.83417451 47:1.4467654 48:0.085510641 49:-0.026148036 50:1.6927977 51:0.097453013 52:-0.45189685 53:1.6137707 54:0.10333936 55:-0.75408351 56:1.5640538 57:0.13837411 58:-0.81489956 59:1.4639194 60:-0.0030459538 61:0.53696871 62:1.8474448 63:-0.21487735 64:-0.082448304 65:1.615397 66:-0.25688463 67:-0.030597001 68:1.6324701 69:0.36399728 70:0.33319205 71:1.4110439 72:0.34351712 73:0.27990258 74:1.4588227 
-0 -0 0 0 10 0 0 0:0.0052430406 1:-0.027202427 2:1.7257378 3:0 4:0.30000001 5:1.8 6:-0.0040386692 7:0.61386585 8:1.8601334 9:0.030635305 10:0.76407397 11:1.8445332 12:-0.16757146 13:0.49171057 14:1.8066609 15:-0.2207616 16:0.23802099 17:1.7728162 18:-0.2301566 19:0.026946038 20:1.6529992 21:-0.21870512 22:-0.021299928 23:1.6271517 24:0.17935666 25:0.47727659 26:1.8388069 27:0.26082659 28:0.26180968 29:1.7853861 30:0.29154268 31:0.30526015 32:1.5453162 33:0.29522613 34:0.31216416 35:1.4928117 36:-0.071456961 37:-0.023464769 38:1.6791492 39:-0.099638321 40:-0.46559337 41:1.6061413 42:-0.11396403 43:-0.77414143 44:1.5539353 45:-0.12492115 46:-0.83429301 47:1.4464095 48:0.08585535 49:-0.026472703 50:1.6930659 51:0.09732876 52:-0.45216694 53:1.6138206 54:0.10328554 55:-0.75413501 56:1.5636494 57:0.13800123 58:-0.81516755 59:1.4636056 60:-0.0031690374 61:0.53708076 62:1.8475316 63:-0.21768227 64:-0.083652303 65:1.6143672 66:-0.25773829 67:-0.030356169 68:1.6344132 69:0.30828843 70:0.31521955 71:1.4092827 72:0.30776346 73:0.28008622 74:1.4414456 
-0 -0 0 0 10 0 0 0:0.0051175654 1:-0.027146548 2:1.7257588 3:0 4:0.30000001 5:1.8 6:-0.0039593056 7:0.61381626 8:1.8600912 9:0.030456834 10:0.76419032 11:1.8443713 12:-0.16764265 13:0.49177527 14:1.806469 15:-0.220934 16:0.23879138 17:1.7725799 18:-0.22986904 19:0.027587891 20:1.652422 21:-0.21826482 22:-0.020166278 23:1.6275477 24:0.17950082 25:0.4767704 26:1.8383284 27:0.24820057 28:0.26215684 29:1.7932465 30:0.27661297 31:0.28855643 32:1.5634074 33:0.26107961 34:0.30427539 35:1.477807 36:-0.071692608 37:-0.023323059 38:1.6789806 39:-0.09973716 40:-0.46582508 41:1.6059318 42:-0.11423092 43:-0.77399093 44:1.5535936 45:-0.12532285 46:-0.83416086 47:1.4461172 48:0.08580865 49:-0.026489779 50:1.6932383 51:0.097121738 52:-0.45237249 53:1.613977 54:0.10293115 55:-0.75392753 56:1.563457 57:0.1373376 58:-0.81493783 59:1.4632201 60:-0.0031080693 61:0.537045 62:1.8475027 63:-0.21569452 64:-0.078354791 65:1.6122994 66:-0.25411531 67:-0.048709959 68:1.6302633 69:0.26647803 70:0.30815428 71:1.3979237 72:0.27089307 73:0.27668399 74:1.4468999 
-9.198085725817275 -0 2.537004976475964 10 10 0 0 0:0.005156979 1:-0.027302012 2:1.7257264 3:0 4:0.30000001 5:1.8 6:-0.004002817 7:0.61394143 8:1.8601556 9:0.030798838 10:0.76365626 11:1.8436399 12:-0.16734576 13:0.49187636 14:1.8058901 15:-0.22058564 16:0.23884447 17:1.7719152 18:-0.22917974 19:0.027332067 20:1.6511869 21:-0.2177074 22:-0.020038322 23:1.6261342 24:0.17732047 25:0.47677511 26:1.8366733 27:0.23957238 28:0.25979388 29:1.7945304 30:0.25782835 31:0.28468937 32:1.5634265 33:0.24397969 34:0.28226119 35:1.4800589 36:-0.071686797 37:-0.023471951 38:1.6788805 39:-0.099681176 40:-0.46606731 41:1.6057386 42:-0.11435119 43:-0.77393687 44:1.5532098 45:-0.12549627 46:-0.83418232 47:1.445827 48:0.085845828 49:-0.026593432 50:1.6931827 51:0.097317971 52:-0.4531337 53:1.6139381 54:0.10268111 55:-0.75408411 56:1.5631948 57:0.13720831 58:-0.81492144 59:1.4628227 60:-0.0031412616 61:0.53713912 62:1.8475471 63:-0.21365923 64:-0.077916756 65:1.6091354 66:-0.25344038 67:-0.049971193 68:1.6282358 69:0.23403659 70:0.29150671 71:1.4155855 72:0.22438371 73:0.27899766 74:1.4108906 
-0 -0 10 10 10 0 0 0:0.0050600991 1:-0.027298898 2:1.7259018 3:0 4:0.30000001 5:1.8 6:-0.0039675087 7:0.61394763 8:1.8600092 9:0.030764692 10:0.76350272 11:1.8430796 12:-0.16716751 13:0.49194452 14:1.8055151 15:-0.22068134 16:0.23897108 17:1.7714884 18:-0.2289533 19:0.027615786 20:1.6508055 21:-0.21794519 22:-0.01992622 23:1.627593 24:0.17684162 25:0.4790515 26:1.8365817 27:0.27886415 28:0.30075678 29:1.7243166 30:0.21094963 31:0.29539129 32:1.4915037 33:0.19311914 34:0.29925916 35:1.4378257 36:-0.071611173 37:-0.02351287 38:1.6795559 39:-0.099856935 40:-0.46587613 41:1.6054239 42:-0.11446313 43:-0.77343881 44:1.5529776 45:-0.12570208 46:-0.833799 47:1.445724 48:0.085620604 49:-0.026541412 50:1.6929011 51:0.09704861 52:-0.4537411 53:1.6138625 54:0.10232744 55:-0.75405037 56:1.5628076 57:0.13683593 58:-0.81485116 59:1.4623811 60:-0.0031120777 61:0.53714478 62:1.8474364 63:-0.21671486 64:-0.077807143 65:1.6138253 66:-0.25587946 67:-0.026773274 68:1.6355724 69:0.17203243 70:0.31618193 71:1.3869758 72:0.19137801 73:0.27356997 74:1.4129763 
-0 -0 10 10 10 0 0 0:0.0050206333 1:-0.027390674 2:1.7257721 3:0 4:0.30000001 5:1.8 6:-0.0039431676 7:0.61407441 8:1.860204 9:0.030874707 10:0.76321012 11:1.8426497 12:-0.16694431 13:0.49199146 14:1.8050997 15:-0.22076936 16:0.23907013 17:1.7711823 18:-0.22864623 19:0.027917877 20:1.650358 21:-0.21786548 22:-0.019676015 23:1.6271305 24:0.17547607 25:0.47936565 26:1.8350728 27:0.27712461 28:0.30243182 29:1.7199831 30:0.19984466 31:0.2772162 32:1.5015032 33:0.1588954 34:0.29584652 35:1.4390864 36:-0.071644619 37:-0.02372849 38:1.6795599 39:-0.099898323 40:-0.4657554 41:1.6051519 42:-0.11462541 43:-0.77368957 44:1.5525782 45:-0.12590715 46:-0.83392096 47:1.4452055 48:0.085550956 49:-0.026512519 50:1.6926219 51:0.096997082 52:-0.45640332 53:1.6139312 54:0.10223287 55:-0.75401634 56:1.5628471 57:0.13666676 58:-0.81462806 59:1.4621556 60:-0.0030928552 61:0.53723568 62:1.8475778 63:-0.21698914 64:-0.077952787 65:1.613256 66:-0.25553656 67:-0.027032956 68:1.635561 69:0.12743491 70:0.31309295 71:1.3850322 72:0.15606236 73:0.27157205 74:1.4143727 
-0 -0 10 10 10 0 0 0:0.0049185604 1:-0.027473852 2:1.7259998 3:0 4:0.30000001 5:1.8 6:-0.0039044544 7:0.61411661 8:1.8600404 9:0.0312737 10:0.76314527 11:1.8426077 12:-0.16648309 13:0.49199271 14:1.8050807 15:-0.2206028 16:0.23924731 17:1.7710595 18:-0.22834052 19:0.027887985 20:1.6501162 21:-0.21722721 22:-0.019680038 23:1.6274695 24:0.17475696 25:0.47928822 26:1.8340118 27:0.27778104 28:0.30270326 29:1.7197239 30:0.18576561 31:0.2770763 32:1.5072362 33:0.1156369 34:0.29909873 35:1.4340918 36:-0.071608335 37:-0.023751453 38:1.6795902 39:-0.099810347 40:-0.4658246 41:1.6048567 42:-0.11440986 43:-0.77370971 44:1.5521622 45:-0.12594353 46:-0.83401823 47:1.4449265 48:0.085276037 49:-0.026645198 50:1.6929336 51:0.097211227 52:-0.45672745 53:1.613842 54:0.10226928 55:-0.7540217 56:1.5625508 57:0.13670444 58:-0.81457496 59:1.4617913 60:-0.003060922 61:0.53727204 62:1.8474505 63:-0.21511869 64:-0.077672407 65:1.6125977 66:-0.25474 67:-0.024403647 68:1.636518 69:0.081853166 70:0.31391233 71:1.3943775 72:0.11483595 73:0.27185386 74:1.4115603 
-3.857176362811193 -10 0 0 0 10 10 0:0.0041149408 1:-0.027878508 2:1.7273185 3:0 4:0.30000001 5:1.8 6:-0.0033978447 7:0.6145035 8:1.8588223 9:0.03403262 10:0.76404715 11:1.8417935 12:-0.16733947 13:0.49274549 14:1.8080096 15:-0.22327092 16:0.23980668 17:1.7757456 18:-0.23084423 19:0.03163074 20:1.6548584 21:-0.2186335 22:-0.014519319 23:1.6316733 24:0.18125945 25:0.47499785 26:1.8436847 27:0.28044438 28:0.25342855 29:1.8121939 30:0.44084835 31:0.28928909 32:1.6183765 33:0.46889606 34:0.30648246 35:1.5581956 36:-0.072629325 37:-0.023553759 38:1.6793284 39:-0.10211661 40:-0.47191593 41:1.6145935 42:-0.11595436 43:-0.77805245 44:1.5643992 45:-0.1283564 46:-0.83821595 47:1.4572198 48:0.084685884 49:-0.027499288 50:1.6952469 51:0.095050447 52:-0.45560172 53:1.6210041 54:0.10011292 55:-0.75790262 56:1.5743115 57:0.13589296 58:-0.81877387 59:1.4746811 60:-0.0026453882 61:0.53756881 62:1.846519 63:-0.21516252 64:-0.076046318 65:1.6149125 66:-0.25613147 67:-0.031278893 68:1.6325665 69:0.52023679 70:0.31225857 71:1.4845634 72:0.45409697 73:0.26465634 74:1.5363605 
-0 -10 0 0 7.604880843854278 10 0 0:0.004149422 1:-0.027938828 2:1.7273664 3:0 4:0.30000001 5:1.8 6:-0.0034205392 7:0.61454576 8:1.858762 9:0.034111738 10:0.76406771 11:1.8415897 12:-0.16721678 13:0.49275655 14:1.8077471 15:-0.22325182 16:0.23974504 17:1.7754781 18:-0.23075175 19:0.031481668 20:1.6545939 21:-0.21977156 22:-0.013751075 23:1.6305642 24:0.18134937 25:0.47511607 26:1.8436477 27:0.28176931 28:0.25472331 29:1.8082058 30:0.41124827 31:0.29166758 32:1.5899923 33:0.43597212 34:0.30919224 35:1.5323808 36:-0.072626643 37:-0.023575768 38:1.679266 39:-0.10198692 40:-0.47140783 41:1.6145933 42:-0.11595594 43:-0.77799302 44:1.5642552 45:-0.12844419 46:-0.83826631 47:1.4572124 48:0.084759071 49:-0.027603254 50:1.6954396 51:0.09500315 52:-0.45547926 53:1.6209767 54:0.10016575 55:-0.75725394 56:1.5743134 57:0.13522191 58:-0.81795609 59:1.4740655 60:-0.0026648492 61:0.53760308 62:1.8464749 63:-0.21387044 64:-0.078316793 65:1.6163149 66:-0.25736037 67:-0.030349284 68:1.6330447 69:0.47880083 70:0.32248318 71:1.4483893 72:0.43425894 73:0.27074432 74:1.5057678 
-0 -10 0 0 10 10 0 0:0.0041644573 1:-0.027965352 2:1.7274146 3:0 4:0.30000001 5:1.8 6:-0.0034330189 7:0.61456013 8:1.8587315 9:0.034326471 10:0.76401353 11:1.8413951 12:-0.16716617 13:0.492778 14:1.8076286 15:-0.22312233 16:0.23962675 17:1.7750933 18:-0.23068592 19:0.031463802 20:1.6544867 21:-0.21991044 22:-0.014089391 23:1.6303263 24:0.17897683 25:0.47493213 26:1.843169 27:0.28151083 28:0.25486666 29:1.8075292 30:0.38257474 31:0.29114485 32:1.5901701 33:0.39555472 34:0.30854923 35:1.5231588 36:-0.072639614 37:-0.023593381 38:1.6792853 39:-0.10194865 40:-0.47138351 41:1.6145742 42:-0.11632563 43:-0.77671975 44:1.5645702 45:-0.12791468 46:-0.83729863 47:1.4576211 48:0.084804751 49:-0.027639434 50:1.695513 51:0.095046371 52:-0.45502585 53:1.6212683 54:0.10012519 55:-0.75678104 56:1.5743032 57:0.13537714 58:-0.81805527 59:1.4748363 60:-0.0026761293 61:0.53761566 62:1.8464496 63:-0.21575025 64:-0.075679138 65:1.6128688 66:-0.25643715 67:-0.042184651 68:1.630955 69:0.43256927 70:0.3181724 71:1.4306538 72:0.39514124 73:0.26948828 74:1.5005345 
-0 -3.117916772701623 0 0 10 10 0 0:0.0042640269 1:-0.028077736 2:1.7274139 3:0 4:0.30000001 5:1.8 6:-0.0035163537 7:0.61465269 8:1.8587201 9:0.034290746 10:0.76402295 11:1.8410761 12:-0.16697372 13:0.49275953 14:1.8071713 15:-0.22320078 16:0.23968734 17:1.77472 18:-0.23041348 19:0.031184003 20:1.653784 21:-0.21854825 22:-0.014178649 23:1.6298487 24:0.17933655 25:0.4748916 26:1.8428819 27:0.27914053 28:0.25566041 29:1.8075294 30:0.34875974 31:0.28110528 32:1.5803792 33:0.35921049 34:0.30956298 35:1.5136251 36:-0.072555527 37:-0.023676232 38:1.6792564 39:-0.1017437 40:-0.47240144 41:1.6142962 42:-0.11632018 43:-0.77677161 44:1.5641096 45:-0.12796944 46:-0.83746445 47:1.4573002 48:0.084900141 49:-0.027777746 50:1.6955194 51:0.094991669 52:-0.45518512 53:1.6210806 54:0.10005298 55:-0.75669551 56:1.5739882 57:0.13518597 58:-0.8180539 59:1.4745576 60:-0.0027410686 61:0.53768724 62:1.8464444 63:-0.21455981 64:-0.074923918 65:1.6132073 66:-0.25656468 67:-0.022662893 68:1.6338921 69:0.38978899 70:0.32232875 71:1.4347723 72:0.36405152 73:0.27389413 74:1.4883423 
-0 -0 0 0 10 5.037636014960321 0 0:0.0043214634 1:-0.028112203 2:1.727428 3:0 4:0.30000001 5:1.8 6:-0.00357759 7:0.6146872 8:1.8586655 9:0.034296662 10:0.76378715 11:1.8407459 12:-0.16701446 13:0.49283865 14:1.8068576 15:-0.22331943 16:0.2397055 17:1.7743232 18:-0.23026632 19:0.031137139 20:1.653172 21:-0.2185107 22:-0.013446733 23:1.6292827 24:0.17979899 25:0.47479472 26:1.84236 27:0.27409059 28:0.25797501 29:1.8080716 30:0.3250646 31:0.28623644 32:1.582612 33:0.32149372 34:0.30998865 35:1.5131462 36:-0.07250677 37:-0.023715585 38:1.6793764 39:-0.1018379 40:-0.47099838 41:1.614177 42:-0.11644876 43:-0.77656567 44:1.5638299 45:-0.12823831 46:-0.8372817 47:1.457072 48:0.084944688 49:-0.027808309 50:1.6954274 51:0.094793901 52:-0.45469734 53:1.6211379 54:0.099575512 55:-0.75650549 56:1.5739498 57:0.13503534 58:-0.81765211 59:1.4744344 60:-0.0027885064 61:0.53771448 62:1.8464084 63:-0.21322806 64:-0.075096399 65:1.6126957 66:-0.25762177 67:-0.025496691 68:1.636209 69:0.34317344 70:0.32032177 71:1.434196 72:0.33073157 73:0.27883074 74:1.4594963 
-0 -0 0 0 10 0 0 0:0.0043170452 1:-0.028101504 2:1.7274785 3:0 4:0.30000001 5:1.8 6:-0.0035784394 7:0.61468303 8:1.8585987 9:0.034486294 10:0.76385152 11:1.8405004 12:-0.16692118 13:0.49309319 14:1.8065784 15:-0.22343849 16:0.23989683 17:1.7741652 18:-0.2299359 19:0.03113845 20:1.6527138 21:-0.21810849 22:-0.013541177 23:1.6277614 24:0.18076533 25:0.4741258 26:1.8412123 27:0.27004296 28:0.26011574 29:1.8050048 30:0.29796875 31:0.28959811 32:1.5755153 33:0.28553045 34:0.3068555 35:1.4984212 36:-0.072541475 37:-0.023745477 38:1.6796012 39:-0.10182106 40:-0.46972185 41:1.6138854 42:-0.11678854 43:-0.77684641 44:1.5634418 45:-0.12841184 46:-0.83735317 47:1.4564371 48:0.084955573 49:-0.027770996 50:1.6953521 51:0.094689935 52:-0.45450264 53:1.6210113 54:0.09945409 55:-0.75617939 56:1.5736599 57:0.13491879 58:-0.81741196 59:1.4742489 60:-0.0027906224 61:0.53771269 62:1.8463597 63:-0.21378247 64:-0.074622571 65:1.6121216 66:-0.25612634 67:-0.027846754 68:1.6319823 69:0.29489288 70:0.30677611 71:1.4189744 72:0.29269212 73:0.27224258 74:1.4593534 
-0 -0 0 0 10 0 0 0:0.004279837 1:-0.028067246 2:1.727643 3:0 4:0.30000001 5:1.8 6:-0.0035312995 7:0.61464649 8:1.8584638 9:0.034363672 10:0.76394194 11:1.8402643 12:-0.166976 13:0.49326217 14:1.8065023 15:-0.22358626 16:0.24000369 17:1.7740586 18:-0.23009109 19:0.031217471 20:1.6525409 21:-0.21799165 22:-0.014191911 23:1.629715 24:0.17850351 25:0.47426569 26:1.8402719 27:0.24781451 28:0.25819385 29:1.8166978 30:0.27232271 31:0.29476428 32:1.5736027 33:0.26106215 34:0.29415584 35:1.459456 36:-0.072658606 37:-0.023676634 38:1.6796441 39:-0.10179319 40:-0.47076988 41:1.6136696 42:-0.11699695 43:-0.77678829 44:1.5631125 45:-0.12860963 46:-0.83727902 47:1.4560914 48:0.084997684 49:-0.027776361 50:1.6956251 51:0.09454418 52:-0.4547655 53:1.6210921 54:0.099235475 55:-0.75604671 56:1.5734208 57:0.13470525 58:-0.81726938 59:1.4740009 60:-0.0027604699 61:0.53768849 62:1.8462582 63:-0.21166202 64:-0.078445137 65:1.613832 66:-0.25599945 67:-0.026454106 68:1.6333885 69:0.25520751 70:0.31182992 71:1.4184828 72:0.25521091 73:0.27641469 74:1.4313817 
-4.916147412045738 -0 10 10 10 0 0 0:0.0042367429 1:-0.028071404 2:1.7278941 3:0 4:0.30000001 5:1.8 6:-0.0035128817 7:0.61465389 8:1.8583031 9:0.034381822 10:0.76395613 11:1.8400393 12:-0.16699551 13:0.4934386 14:1.806644 15:-0.22341485 16:0.24063583 17:1.7743676 18:-0.23002394 19:0.031605825 20:1.6526368 21:-0.21775754 22:-0.013203844 23:1.6308463 24:0.17876905 25:0.4746775 26:1.8392878 27:0.29167444 28:0.28810346 29:1.7313952 30:0.27733681 31:0.27627575 32:1.4987991 33:0.24060684 34:0.28464097 35:1.4935577 36:-0.072732672 37:-0.023683965 38:1.6800208 39:-0.1018635 40:-0.46925974 41:1.6136429 42:-0.11701979 43:-0.77671909 44:1.562892 45:-0.12890269 46:-0.83735514 47:1.4560862 48:0.08496809 49:-0.02777411 50:1.6957407 51:0.094566129 52:-0.45486027 53:1.6212132 54:0.099208198 55:-0.755867 56:1.5733051 57:0.13452978 58:-0.81714022 59:1.4738612 60:-0.002748996 61:0.53769654 62:1.8461304 63:-0.21334682 64:-0.073492885 65:1.6135707 66:-0.25465858 67:-0.030247495 68:1.6311297 69:0.22267967 70:0.29359812 71:1.4223027 72:0.22018123 73:0.27102119 74:1.4309413 
-0 -0 10 10 10 0 0 0:0.0041326433 1:-0.028154761 2:1.7280512 3:0 4:0.30000001 5:1.8 6:-0.0034521073 7:0.61471355 8:1.858151 9:0.03440363 10:0.76392049 11:1.8396378 12:-0.16695896 13:0.49360633 14:1.8066025 15:-0.22334144 16:0.2406971 17:1.7743001 18:-0.22985214 19:0.031592295 20:1.6525209 21:-0.21803272 22:-0.013195381 23:1.6309543 24:0.17813604 25:0.47743779 26:1.8365626 27:0.28846672 28:0.29570687 29:1.7294469 30:0.18823326 31:0.28285277 32:1.4474673 33:0.17093384 34:0.3129667 35:1.4120312 36:-0.072988212 37:-0.0240798 38:1.6814928 39:-0.10183254 40:-0.46905923 41:1.6133406 42:-0.11740197 43:-0.77727872 44:1.5621855 45:-0.12890436 46:-0.83777183 47:1.455162 48:0.084928267 49:-0.027726784 50:1.6953859 51:0.094586663 52:-0.45539522 53:1.6210198 54:0.099182956 55:-0.75577366 56:1.5730243 57:0.1343095 58:-0.8169778 59:1.4733872 60:-0.0027003363 61:0.53774393 62:1.8460145 63:-0.21499541 64:-0.069720343 65:1.6119342 66:-0.25563452 67:-0.020515308 68:1.6383915 69:0.16418585 70:0.31819087 71:1.3876824 72:0.17384838 73:0.29208618 74:1.3918571 
-0 -0 10 10 10 0 0 0:0.0039024055 1:-0.028098598 2:1.728503 3:0 4:0.30000001 5:1.8 6:-0.0029952899 7:0.61431152 8:1.857641 9:0.03442736 10:0.76397192 11:1.8394802 12:-0.16683695 13:0.49379325 14:1.8068271 15:-0.22346938 16:0.24094449 17:1.7747796 18:-0.22978118 19:0.032246724 20:1.6533992 21:-0.21761811 22:-0.013139412 23:1.6323361 24:0.17878421 25:0.47866869 26:1.8347423 27:0.28653166 28:0.30184203 29:1.7260847 30:0.20475399 31:0.27899081 32:1.5090146 33:0.16276751 34:0.29714978 35:1.4498451 36:-0.073288321 37:-0.02440612 38:1.6831295 39:-0.10172664 40:-0.46750325 41:1.6135581 42:-0.11703591 43:-0.77510965 44:1.5623996 45:-0.12935129 46:-0.8370896 47:1.4571345 48:0.084777832 49:-0.027465716 50:1.695292 51:0.094531603 52:-0.45566809 53:1.6213055 54:0.099035971 55:-0.75552714 56:1.5729501 57:0.13392785 58:-0.81672412 59:1.4731762 60:-0.0024057776 61:0.53748155 62:1.8456972 63:-0.21394306 64:-0.071434096 65:1.6133921 66:-0.25625405 67:-0.027260944 68:1.6344192 69:0.13104284 70:0.31325138 71:1.3969576 72:0.1533103 73:0.27240604 74:1.429322 
-0 -0 10 10 10 0 0 0:0.0037835017 1:-0.028129607 2:1.7287822 3:0 4:0.30000001 5:1.8 6:-0.0029304177 7:0.61431748 8:1.8575065 9:0.034620941 10:0.76374936 11:1.83899 12:-0.16657296 13:0.49381256 14:1.8073158 15:-0.22338921 16:0.24083295 17:1.7756107 18:-0.22961465 19:0.03221561 20:1.653636 21:-0.2185683 22:-0.013266593 23:1.634774 24:0.17691575 25:0.47865266 26:1.8341053 27:0.28664565 28:0.30437744 29:1.7230537 30:0.19566227 31:0.27674562 32:1.5103457 33:0.12629393 34:0.3020404 35:1.4451628 36:-0.073422894 37:-0.024535328 38:1.6835492 39:-0.10105056 40:-0.46908021 41:1.6135581 42:-0.11706965 43:-0.77498698 44:1.5623024 45:-0.12909958 46:-0.83705616 47:1.4570699 48:0.084707662 49:-0.027386069 50:1.6952751 51:0.094569802 52:-0.45647353 53:1.6217656 54:0.0991235 55:-0.75597781 56:1.5726068 57:0.13397136 58:-0.81707448 59:1.4727061 60:-0.0023629069 61:0.53749323 62:1.8455942 63:-0.21378163 64:-0.070607856 65:1.6128085 66:-0.25690722 67:-0.02371645 68:1.6396596 69:0.088200927 70:0.31868488 71:1.4025333 72:0.12556243 73:0.27309602 74:1.4273996 
-2.023582740786508 -10 -10 10 10 10 4.186189601646327 0:0.0050491169 1:-0.027402431 2:1.7264321 3:0 4:0.30000001 5:1.8 6:-0.004489921 7:0.61405706 8:1.8594289 9:0.031577811 10:0.76296616 11:1.8424969 12:-0.16612954 13:0.49198908 14:1.8051109 15:-0.22032748 16:0.23939943 17:1.7712119 18:-0.22796191 19:0.028041542 20:1.6503391 21:-0.21697481 22:-0.021678016 23:1.6275306 24:0.1739164 25:0.47870934 26:1.8326182 27:0.27888629 28:0.30283576 29:1.7191298 30:0.13750277 31:0.28346187 32:1.5015953 33:0.087457329 34:0.2969709 35:1.4483867 36:-0.071442738 37:-0.023736879 38:1.6797392 39:-0.099140033 40:-0.46977574 41:1.6045532 42:-0.11419253 43:-0.77419204 44:1.5517306 45:-0.12558334 46:-0.83394003 47:1.4438877 48:0.085315838 49:-0.026482016 50:1.6936421 51:0.09747386 52:-0.45704782 53:1.6139245 54:0.10237029 55:-0.75393766 56:1.563014 57:0.13659088 58:-0.8142103 59:1.4618058 60:-0.0034373254 61:0.5372386 62:1.8470855 63:-0.21987484 64:-0.081471041 65:1.6149466 66:-0.2553044 67:-0.032681316 68:1.6330204 69:0.043439094 70:0.30904198 71:1.406729 72:0.095753804 73:0.2677556 74:1.4295964 
-0 -0 -10 10 10 7.788988726632272 0 0:0.0049694553 1:-0.027031302 2:1.7266877 3:0 4:0.30000001 5:1.8 6:-0.0043841898 7:0.61383998 8:1.8593206 9:0.031520352 10:0.76260102 11:1.8421001 12:-0.16601272 13:0.49183241 14:1.8047762 15:-0.22032218 16:0.23897654 17:1.7708397 18:-0.22803076 19:0.027932882 20:1.6501186 21:-0.21693464 22:-0.019752011 23:1.6288943 24:0.17599042 25:0.47639206 26:1.8289909 27:0.28103605 28:0.30063727 29:1.7153981 30:0.12825584 31:0.28367817 32:1.5050988 33:0.058564007 34:0.29409471 35:1.461709 36:-0.071407482 37:-0.023367077 38:1.6795278 39:-0.09886682 40:-0.47201708 41:1.6040218 42:-0.1143872 43:-0.77433765 44:1.551367 45:-0.1250716 46:-0.8338784 47:1.443161 48:0.085061729 49:-0.026079655 50:1.6945505 51:0.097347088 52:-0.45715055 53:1.6136544 54:0.10210889 55:-0.75413394 56:1.5627663 57:0.13652815 58:-0.81441152 59:1.4616675 60:-0.0033760369 61:0.53707278 62:1.846982 63:-0.21619095 64:-0.075679526 65:1.6118996 66:-0.25539088 67:-0.033833116 68:1.6334863 69:0.0059121326 70:0.30664888 71:1.4265285 72:0.058206704 73:0.26768389 74:1.433866 
-0 -0 -10 10 10 0 0 0:0.0046079829 1:-0.026936516 2:1.7270043 3:0 4:0.30000001 5:1.8 6:-0.0037965775 7:0.61353499 8:1.8591654 9:0.031517752 10:0.7627756 11:1.8419406 12:-0.16592914 13:0.49189401 14:1.804719 15:-0.22034714 16:0.23890917 17:1.7709725 18:-0.22812617 19:0.027945161 20:1.6502542 21:-0.21754596 22:-0.01999706 23:1.629751 24:0.1771751 25:0.47500575 26:1.8255689 27:0.28391919 28:0.30064303 29:1.711385 30:0.12055097 31:0.28482199 32:1.5250652 33:0.035445012 34:0.29140937 35:1.476573 36:-0.071614064 37:-0.023234442 38:1.679774 39:-0.098726369 40:-0.47313142 41:1.6036649 42:-0.11451422 43:-0.77421594 44:1.5510452 45:-0.12545854 46:-0.83373213 47:1.4428689 48:0.084569581 49:-0.026003972 50:1.6947861 51:0.096466146 52:-0.4668504 53:1.6128714 54:0.10205416 55:-0.75473702 56:1.5621545 57:0.13657162 58:-0.814803 59:1.460886 60:-0.0029971525 61:0.53687489 62:1.846875 63:-0.22026095 64:-0.08400932 65:1.6182637 66:-0.2560958 67:-0.022912934 68:1.6371107 69:-0.022874139 70:0.29994601 71:1.444169 72:0.047276333 73:0.26249105 74:1.4537485 
-0 -0 -10 10 10 0 0 0:0.0043545738 1:-0.026752651 2:1.7272627 3:0 4:0.30000001 5:1.8 6:-0.0031923428 7:0.61311424 8:1.8589149 9:0.031576842 10:0.76274121 11:1.8419628 12:-0.16589701 13:0.49198398 14:1.8046517 15:-0.22043139 16:0.23884505 17:1.7709844 18:-0.22812825 19:0.028011531 20:1.6504791 21:-0.21749747 22:-0.020046562 23:1.6296165 24:0.17796725 25:0.4741815 26:1.8222528 27:0.28591856 28:0.30176833 29:1.7060418 30:0.11867817 31:0.28174701 32:1.5401506 33:0.017273724 34:0.28668687 35:1.4928131 36:-0.071716689 37:-0.023039341 38:1.680537 39:-0.098613761 40:-0.47272292 41:1.6035442 42:-0.11464109 43:-0.77402651 44:1.5509953 45:-0.12568456 46:-0.83379686 47:1.4431005 48:0.084238678 49:-0.025820896 50:1.6947477 51:0.096845396 52:-0.4639298 53:1.6131344 54:0.1018594 55:-0.75461197 56:1.5618427 57:0.13665177 58:-0.81481242 59:1.460876 60:-0.0025991872 61:0.53659618 62:1.8467221 63:-0.2178683 64:-0.0790921 65:1.6160953 66:-0.25356394 67:-0.03685379 68:1.6308904 69:-0.044472344 70:0.29583487 71:1.4635608 72:0.018058322 73:0.25887191 74:1.4682226 
-0 -0 -10 10 10 0 0 0:0.0041401088 1:-0.026580989 2:1.727494 3:0 4:0.30000001 5:1.8 6:-0.0030410737 7:0.61297834 8:1.8588297 9:0.031675808 10:0.76270181 11:1.8418443 12:-0.1658408 13:0.49199986 14:1.8046284 15:-0.22036615 16:0.23860997 17:1.7709599 18:-0.22821006 19:0.028137833 20:1.6509347 21:-0.21730497 22:-0.020695508 23:1.6305537 24:0.17818187 25:0.47427082 26:1.8204529 27:0.29048851 28:0.30861241 29:1.6980712 30:0.11545645 31:0.28235906 32:1.5496194 33:0.007284224 34:0.28231514 35:1.5122478 36:-0.071826078 37:-0.022877097 38:1.6817074 39:-0.098481797 40:-0.47381979 41:1.6034753 42:-0.11494248 43:-0.77433109 44:1.5508144 45:-0.12575373 46:-0.83401084 47:1.4427869 48:0.083946183 49:-0.025623381 50:1.6945333 51:0.096948467 52:-0.46222007 53:1.6133697 54:0.10197454 55:-0.75461203 56:1.5616918 57:0.13683504 58:-0.81481123 59:1.4607625 60:-0.0024937987 61:0.53650272 62:1.8466532 63:-0.21808118 64:-0.078331068 65:1.6147559 66:-0.25502416 67:-0.032282844 68:1.6326411 69:-0.05568742 70:0.28820008 71:1.4874036 72:0.019408472 73:0.25239885 74:1.4903417 
-0 -0 -10 10 10 0 0 0:0.0039608851 1:-0.026611567 2:1.7275019 3:0 4:0.30000001 5:1.8 6:-0.0028733611 7:0.61303353 8:1.8588641 9:0.031862721 10:0.76253319 11:1.8413637 12:-0.16577689 13:0.49191806 14:1.8048077 15:-0.22026832 16:0.23851097 17:1.7707603 18:-0.22822301 19:0.027970567 20:1.6512647 21:-0.21756826 22:-0.02097863 23:1.6309865 24:0.17835331 25:0.47406957 26:1.8167593 27:0.28383359 28:0.30903873 29:1.6867504 30:0.10096872 31:0.2818099 32:1.5489259 33:0.016625904 34:0.27849969 35:1.5296466 36:-0.071993038 37:-0.022979662 38:1.6822057 39:-0.098174512 40:-0.47389111 41:1.6034291 42:-0.11496432 43:-0.774194 44:1.5506318 45:-0.12627317 46:-0.83404064 47:1.4428797 48:0.083679289 49:-0.025627509 50:1.6942213 51:0.097032122 52:-0.46136913 53:1.6134238 54:0.10193962 55:-0.75464904 56:1.5614865 57:0.13650969 58:-0.81529129 59:1.460923 60:-0.0023732111 61:0.53653538 62:1.8466666 63:-0.21682651 64:-0.079976305 65:1.6160886 66:-0.25617176 67:-0.025808096 68:1.6377816 69:-0.038197815 70:0.27693108 71:1.5091989 72:0.023040265 73:0.24986282 74:1.5045624 
-0 -0 -2.537004976475964 10 10 0 0 0:0.0038746893 1:-0.026493564 2:1.7275047 3:0 4:0.30000001 5:1.8 6:-0.0028009564 7:0.61293191 8:1.8588486 9:0.031757191 10:0.76245314 11:1.8410416 12:-0.16585058 13:0.49197912 14:1.8048837 15:-0.22026518 16:0.2382303 17:1.7711921 18:-0.2282671 19:0.027833804 20:1.6518743 21:-0.21743622 22:-0.021163553 23:1.6317992 24:0.17691194 25:0.4743796 26:1.816565 27:0.28186762 28:0.31008941 29:1.6850348 30:0.097296372 31:0.27862054 32:1.5506339 33:0.013303116 34:0.27688551 35:1.541034 36:-0.072017066 37:-0.022930518 38:1.6828296 39:-0.098079108 40:-0.46898949 41:1.6042862 42:-0.11475231 43:-0.77399045 44:1.5501208 45:-0.12655592 46:-0.83416545 47:1.4428201 48:0.083565973 49:-0.025432557 50:1.6938975 51:0.096973374 52:-0.45837337 53:1.6140766 54:0.10175264 55:-0.75445461 56:1.5613465 57:0.13654068 58:-0.81514293 59:1.4609485 60:-0.0023143142 61:0.53645653 62:1.8466482 63:-0.21716592 64:-0.080794156 65:1.6171322 66:-0.25513989 67:-0.042529091 68:1.6368184 69:-0.042216368 70:0.2737934 71:1.5245929 72:0.016761683 73:0.24739714 74:1.5189126 
-0 -0 -0 10 0 0 0 0:0.0038244873 1:-0.026434705 2:1.7275591 3:0 4:0.30000001 5:1.8 6:-0.0026796386 7:0.61288083 8:1.8587501 9:0.031791121 10:0.76238871 11:1.8408372 12:-0.165941 13:0.49202833 14:1.8051262 15:-0.22011665 16:0.23791179 17:1.7714453 18:-0.22825828 19:0.027845651 20:1.6521242 21:-0.2178894 22:-0.022470728 23:1.6309102 24:0.17778078 25:0.47448751 26:1.8127391 27:0.28120303 28:0.3086454 29:1.6819866 30:0.026311055 31:0.26664904 32:1.5452909 33:-0.023574091 34:0.27703384 35:1.5479531 36:-0.072041057 37:-0.0228488 38:1.6833575 39:-0.097969659 40:-0.46990135 41:1.6041861 42:-0.11440336 43:-0.77426851 44:1.5499213 45:-0.12677398 46:-0.83441985 47:1.4427292 48:0.083438449 49:-0.02522397 50:1.6934912 51:0.097004265 52:-0.4582319 53:1.6140525 54:0.10179333 55:-0.75433886 56:1.5614517 57:0.13640952 58:-0.81494844 59:1.4608648 60:-0.0022251084 61:0.53642058 62:1.8465822 63:-0.22009945 64:-0.080988988 65:1.6177378 66:-0.25598717 67:-0.041260451 68:1.6363873 69:-0.091950409 70:0.27996799 71:1.535372 72:-0.027879529 73:0.23806661 74:1.5791357 
-0 -0 -0 10 0 0 0 0:0.0035609454 1:-0.026344061 2:1.7278454 3:0 4:0.30000001 5:1.8 6:-0.0020573661 7:0.61244118 8:1.8579676 9:0.031727485 10:0.76241922 11:1.8407958 12:-0.16610754 13:0.49206215 14:1.8057094 15:-0.21992195 16:0.23717892 17:1.7721391 18:-0.22842273 19:0.027934447 20:1.653208 21:-0.21730828 22:-0.020624757 23:1.6334856 24:0.17817581 25:0.47458917 26:1.8108041 27:0.28006017 28:0.30852735 29:1.6789966 30:0.039422914 31:0.27344042 32:1.5525777 33:-0.020556904 34:0.27659613 35:1.5544899 36:-0.072323091 37:-0.022991911 38:1.6847911 39:-0.09784355 40:-0.47022694 41:1.6043596 42:-0.11436752 43:-0.77466935 44:1.5498841 45:-0.12708676 46:-0.83439046 47:1.4423296 48:0.082978733 49:-0.025000989 50:1.693104 51:0.096971534 52:-0.45795959 53:1.6141346 54:0.10175987 55:-0.75412858 56:1.5614851 57:0.13637719 58:-0.81475157 59:1.460912 60:-0.0018025637 61:0.53610617 62:1.8460691 63:-0.21973166 64:-0.077100143 65:1.6170614 66:-0.25371239 67:-0.034536347 68:1.6322987 69:-0.08959379 70:0.28061229 71:1.5479729 72:-0.013058648 73:0.23543006 74:1.594629 
-10 -1.822112754493003 -10 10 10 0 2.426124957893853 0:0.0034006983 1:-0.026214078 2:1.7279911 3:0 4:0.30000001 5:1.8 6:-0.0016553476 7:0.61210501 8:1.8574953 9:0.031601243 10:0.76229584 11:1.8404589 12:-0.16647351 13:0.49208179 14:1.8067284 15:-0.22009194 16:0.23713541 17:1.7729418 18:-0.22855335 19:0.027896821 20:1.6537073 21:-0.2174224 22:-0.021043703 23:1.6328747 24:0.17792079 25:0.47485092 26:1.8090038 27:0.27959666 28:0.30842003 29:1.6775208 30:0.078586094 31:0.28238097 32:1.5702209 33:0.042648993 34:0.2759724 35:1.5600681 36:-0.072433405 37:-0.022859752 38:1.6852901 39:-0.097836234 40:-0.47174129 41:1.6043587 42:-0.11449809 43:-0.77460325 44:1.5500059 45:-0.12748963 46:-0.83498144 47:1.4432125 48:0.082692966 49:-0.0245547 50:1.692426 51:0.096843958 52:-0.45767346 53:1.6141756 54:0.10160492 55:-0.75404859 56:1.5615842 57:0.13598308 58:-0.81418633 59:1.4603171 60:-0.0014917403 61:0.53585947 62:1.8457131 63:-0.21719202 64:-0.079394519 65:1.6182857 66:-0.25550285 67:-0.038465843 68:1.6371891 69:-0.012017727 70:0.26894557 71:1.5330691 72:0.031291679 73:0.23982564 74:1.6070645 
-0 -0 -0 10 0 0 0 0:0.0031682178 1:-0.026211411 2:1.7281353 3:0 4:0.30000001 5:1.8 6:-0.0014160797 7:0.61210322 8:1.8571696 9:0.031576067 10:0.76224864 11:1.8401399 12:-0.16660145 13:0.49202725 14:1.8070784 15:-0.22009924 16:0.23714671 17:1.7735047 18:-0.22870666 19:0.028304219 20:1.6550133 21:-0.21792835 22:-0.021301791 23:1.6339891 24:0.17816851 25:0.4748092 26:1.8077869 27:0.27913821 28:0.30816564 29:1.6759856 30:0.034586653 31:0.27670547 32:1.5582063 33:-0.031589001 34:0.27339199 35:1.5585246 36:-0.072695851 37:-0.022991344 38:1.6859133 39:-0.097814932 40:-0.47025672 41:1.604481 42:-0.1143802 43:-0.77610981 44:1.549386 45:-0.12792063 46:-0.8358742 47:1.4421141 48:0.082265332 49:-0.024487391 50:1.6920204 51:0.096806854 52:-0.45766237 53:1.614182 54:0.10154621 55:-0.75410223 56:1.5615778 57:0.13628037 58:-0.81419277 59:1.4604459 60:-0.0013213977 61:0.53584397 62:1.8454766 63:-0.2190223 64:-0.079708815 65:1.6188788 66:-0.25621185 67:-0.033243388 68:1.6383073 69:-0.079144567 70:0.26868618 71:1.5544777 72:-0.027366608 73:0.23587853 74:1.5647449 
-0 -0 -0 10 0 0 0 0:0.0030076653 1:-0.026127174 2:1.7282491 3:0 4:0.30000001 5:1.8 6:-0.001392059 7:0.61210167 8:1.8571596 9:0.031627156 10:0.76211786 11:1.8399248 12:-0.16677716 13:0.49211672 14:1.8076658 15:-0.22002277 16:0.23699617 17:1.7739305 18:-0.22877344 19:0.028222203 20:1.6554189 21:-0.21847227 22:-0.021846518 23:1.6352103 24:0.17619142 25:0.475041 26:1.809092 27:0.27796 28:0.30991271 29:1.675874 30:0.07515794 31:0.28080764 32:1.5732555 33:0.0031752884 34:0.2721051 35:1.5576599 36:-0.072792687 37:-0.022949219 38:1.6862512 39:-0.097719498 40:-0.47010061 41:1.604485 42:-0.11433242 43:-0.77561045 44:1.549469 45:-0.12751135 46:-0.83584964 47:1.4426007 48:0.082025275 49:-0.024347588 50:1.6918457 51:0.096855797 52:-0.457414 53:1.6141489 54:0.10151599 55:-0.75398934 56:1.561605 57:0.13625062 58:-0.81394589 59:1.4603145 60:-0.0013026744 61:0.53584075 62:1.8454657 63:-0.21872488 64:-0.080136091 65:1.6190817 66:-0.25630063 67:-0.035013676 68:1.6391699 69:-0.056018867 70:0.26843771 71:1.5492401 72:0.0083793402 73:0.23223457 74:1.6020949 
-0 -0 -0 10 0 0 0 0:0.0028310865 1:-0.026141003 2:1.7283716 3:0 4:0.30000001 5:1.8 6:-0.0013341457 7:0.61211377 8:1.8571427 9:0.031621017 10:0.76212627 11:1.8398821 12:-0.16674584 13:0.4921394 14:1.8077977 15:-0.22009477 16:0.23681729 17:1.7746668 18:-0.22889599 19:0.02795516 20:1.6561797 21:-0.21867758 22:-0.021419033 23:1.6364343 24:0.1765931 25:0.47504878 26:1.8077519 27:0.27815568 28:0.30953562 29:1.6748824 30:0.075482555 31:0.27991372 32:1.5721347 33:0.0053693354 34:0.27126557 35:1.5596626 36:-0.072965667 37:-0.023108765 38:1.686801 39:-0.097682342 40:-0.47010142 41:1.6045666 42:-0.11451471 43:-0.77562547 44:1.5497687 45:-0.12704961 46:-0.83595139 47:1.4428389 48:0.081807107 49:-0.024305239 50:1.6916375 51:0.096880548 52:-0.45717406 53:1.6141064 54:0.10154115 55:-0.75403076 56:1.5614693 57:0.13628177 58:-0.81403065 59:1.4602351 60:-0.0012591928 61:0.53584731 62:1.8454492 63:-0.22003108 64:-0.080299497 65:1.6201217 66:-0.25752527 67:-0.021574005 68:1.6439414 69:-0.05692786 70:0.26865941 71:1.550523 72:0.0084692091 73:0.23230191 74:1.6023109 
-3.836219562870466 -0 -0 10 0 0 0 0:0.0026648045 1:-0.025973439 2:1.728426 3:0 4:0.30000001 5:1.8 6:-0.0010382384 7:0.61186159 8:1.8570051 9:0.03144142 10:0.76221538 11:1.839766 12:-0.16690001 13:0.49227878 14:1.8078623 15:-0.22016186 16:0.23740944 17:1.7753782 18:-0.22921133 19:0.028181538 20:1.6572802 21:-0.21895039 22:-0.021924824 23:1.6362154 24:0.17679358 25:0.47539183 26:1.8068495 27:0.2777006 28:0.30968961 29:1.6736755 30:0.074570335 31:0.2802031 32:1.5718908 33:0.0051633194 34:0.27174947 35:1.558742 36:-0.073120259 37:-0.022975594 38:1.6869564 39:-0.0979596 40:-0.46813092 41:1.6048431 42:-0.11467143 43:-0.77544928 44:1.5497723 45:-0.1272043 46:-0.83576596 47:1.4428322 48:0.081648827 49:-0.0241431 50:1.6915121 51:0.096684687 52:-0.45708784 53:1.6140952 54:0.101464 55:-0.75421858 56:1.5614214 57:0.13626176 58:-0.81449938 59:1.4605551 60:-0.0010212287 61:0.5356468 62:1.8453341 63:-0.22052532 64:-0.080289289 65:1.622411 66:-0.25377706 67:-0.045512021 68:1.6311944 69:-0.055393748 70:0.26735649 71:1.5516891 72:0.015905134 73:0.23491892 74:1.6027868 
-0 -0 -0 10 0 0 0 0:0.0024927184 1:-0.025841445 2:1.728621 3:0 4:0.30000001 5:1.8 6:-0.00077562779 7:0.61167252 8:1.8565893 9:0.031444706 10:0.76211154 11:1.8393965 12:-0.16694325 13:0.49222264 14:1.8080416 15:-0.22018105 16:0.23767215 17:1.7758217 18:-0.22942057 19:0.028388381 20:1.6579344 21:-0.21947896 22:-0.022841215 23:1.6352859 24:0.1771844 25:0.47541609 26:1.8058767 27:0.27732527 28:0.31003562 29:1.6716135 30:0.048247911 31:0.27464911 32:1.5574927 33:-0.017394111 34:0.27290979 35:1.5593052 36:-0.073206484 37:-0.022859931 38:1.6871989 39:-0.098032326 40:-0.46652481 41:1.6052711 42:-0.11458786 43:-0.77436912 44:1.5499768 45:-0.12717557 46:-0.83505046 47:1.4434185 48:0.081368625 49:-0.023994818 50:1.6914396 51:0.096711099 52:-0.45700708 53:1.6141498 54:0.10142236 55:-0.75406182 56:1.5616777 57:0.13621596 58:-0.81436586 59:1.4608345 60:-0.00082065165 61:0.53549981 62:1.8450108 63:-0.22653005 64:-0.089813396 65:1.6267557 66:-0.258138 67:-0.014878362 68:1.6407406 69:-0.061566263 70:0.26885465 71:1.5551429 72:-0.014441043 73:0.23300934 74:1.58708 
-0 -0 -0 10 0 0 0 0:0.0023987666 1:-0.025781438 2:1.7286956 3:0 4:0.30000001 5:1.8 6:-0.00065167248 7:0.61162728 8:1.8564632 9:0.031450748 10:0.762016 11:1.8392851 12:-0.16701418 13:0.49223238 14:1.8081357 15:-0.22018903 16:0.23769079 17:1.7763014 18:-0.22956544 19:0.028459355 20:1.6583214 21:-0.22007364 22:-0.02126573 23:1.6356692 24:0.17721871 25:0.47593808 26:1.805017 27:0.2768499 28:0.310489 29:1.6704144 30:0.048981734 31:0.27467644 32:1.5579603 33:-0.016337 34:0.27595472 35:1.5590689 36:-0.073291369 37:-0.022793725 38:1.6874032 39:-0.098194949 40:-0.46605074 41:1.6055305 42:-0.11487138 43:-0.77405125 44:1.5502021 45:-0.12730971 46:-0.83521646 47:1.4441259 48:0.081263579 49:-0.023814574 50:1.691139 51:0.096632339 52:-0.45714784 53:1.614114 54:0.10149005 55:-0.75495702 56:1.5610125 57:0.13674107 58:-0.81532031 59:1.4605162 60:-0.00071617216 61:0.53546375 62:1.8449051 63:-0.22324452 64:-0.080145106 65:1.6239057 66:-0.25747126 67:-0.032002702 68:1.6359425 69:-0.061765708 70:0.27255744 71:1.5569227 72:-0.0067514107 73:0.23379393 74:1.5929515 
-0 -0 -0 10 10 0 0 0:0.00222563 1:-0.025701538 2:1.7288225 3:0 4:0.30000001 5:1.8 6:-0.00062253326 7:0.61163473 8:1.8564515 9:0.031475976 10:0.76196676 11:1.8392639 12:-0.16712937 13:0.49222404 14:1.808527 15:-0.22020167 16:0.23748474 17:1.7766099 18:-0.22974992 19:0.028813586 20:1.6589625 21:-0.21899319 22:-0.022227854 23:1.6365042 24:0.17724468 25:0.47630221 26:1.8045995 27:0.27683318 28:0.31070703 29:1.6701553 30:0.074076064 31:0.27947032 32:1.5680985 33:0.0071301535 34:0.27739096 35:1.5587654 36:-0.073403239 37:-0.022731125 38:1.6876965 39:-0.098159015 40:-0.46617836 41:1.6054997 42:-0.11484523 43:-0.77415329 44:1.550209 45:-0.12709911 46:-0.83508885 47:1.443841 48:0.081103943 49:-0.023748055 50:1.6910574 51:0.096501514 52:-0.45591545 53:1.6144011 54:0.10123716 55:-0.75449848 56:1.561738 57:0.1363335 58:-0.81455094 59:1.4607713 60:-0.00068994612 61:0.53546476 62:1.8448882 63:-0.22138831 64:-0.083022684 65:1.6223764 66:-0.25348172 67:-0.024714261 68:1.6306453 69:-0.049075469 70:0.27140784 71:1.5504127 72:0.010679908 73:0.23887716 74:1.6028862 
-0 -0 -0 10 10 0 0 0:0.0021515489 1:-0.025651172 2:1.728878 3:0 4:0.30000001 5:1.8 6:-0.00054328889 7:0.61159658 8:1.8563645 9:0.031525694 10:0.76192802 11:1.8392541 12:-0.16724956 13:0.49217296 14:1.8087327 15:-0.22048646 16:0.238028 17:1.7771313 18:-0.22980568 19:0.02886419 20:1.6592031 21:-0.22078282 22:-0.020917431 23:1.6353495 24:0.17741507 25:0.47672904 26:1.8043411 27:0.27659345 28:0.31098747 29:1.6697521 30:0.054048862 31:0.27438629 32:1.5546622 33:-0.01235678 34:0.27858341 35:1.5563662 36:-0.073464997 37:-0.022708893 38:1.6877947 39:-0.098135345 40:-0.4671641 41:1.6055145 42:-0.11478706 43:-0.77434289 44:1.5500934 45:-0.12722087 46:-0.83525467 47:1.4437473 48:0.081019975 49:-0.023620501 50:1.6908927 51:0.096452907 52:-0.45603174 53:1.6144152 54:0.10115628 55:-0.75452262 56:1.5621243 57:0.13626878 58:-0.81438607 59:1.4609439 60:-0.00062321126 61:0.53543305 62:1.8448131 63:-0.22123632 64:-0.081622452 65:1.6232903 66:-0.25707147 67:-0.027623236 68:1.637424 69:-0.056164853 70:0.27409768 71:1.5528934 72:-0.032547019 73:0.24153091 74:1.5737405 
-0 -0 -0 10 0 0 0 0:0.0021402761 1:-0.025672168 2:1.7287285 3:0 4:0.30000001 5:1.8 6:-0.00062948465 7:0.61171657 8:1.8567882 9:0.031499296 10:0.76187313 11:1.8390584 12:-0.16725233 13:0.49212676 14:1.8085518 15:-0.2205199 16:0.23796746 17:1.7769866 18:-0.22988841 19:0.028855264 20:1.6591754 21:-0.21954599 22:-0.021358237 23:1.636111 24:0.17497852 25:0.47717249 26:1.8068008 27:0.27551553 28:0.31349856 29:1.6705599 30:0.053090032 31:0.27437434 32:1.5547509 33:-0.0148912 34:0.27933869 35:1.5584273 36:-0.073471166 37:-0.022750556 38:1.6876493 39:-0.098352648 40:-0.47058916 41:1.6054726 42:-0.11507746 43:-0.7747615 44:1.5502958 45:-0.12731129 46:-0.8352685 47:1.4434726 48:0.081020012 49:-0.023633927 50:1.6907067 51:0.096480101 52:-0.45487797 53:1.6145236 54:0.10110685 55:-0.75450754 56:1.5620914 57:0.13674264 58:-0.81455314 59:1.4614034 60:-0.00066819787 61:0.5355081 62:1.845088 63:-0.21864498 64:-0.082358316 65:1.6238878 66:-0.25691816 67:-0.027618438 68:1.637429 69:-0.05898834 70:0.27395147 71:1.5561295 72:-0.031923912 73:0.24198756 74:1.5728555 
-0 -0 -0 10 10 0 0 0:0.0021099597 1:-0.025663525 2:1.7287552 3:0 4:0.30000001 5:1.8 6:-0.00062198937 7:0.61175054 8:1.8567617 9:0.031486996 10:0.76181364 11:1.8390658 12:-0.16736472 13:0.49202168 14:1.8086889 15:-0.22112218 16:0.24144977 17:1.7784233 18:-0.22989732 19:0.028886095 20:1.6593404 21:-0.21968377 22:-0.021951571 23:1.6348257 24:0.17551014 25:0.47744381 26:1.8060513 27:0.27562824 28:0.31343561 29:1.6699045 30:0.074226007 31:0.28183699 32:1.5650418 33:0.0070693269 34:0.27836102 35:1.5574248 36:-0.073482178 37:-0.022741079 38:1.6876588 39:-0.098625503 40:-0.4690668 41:1.6059406 42:-0.1149468 43:-0.77431607 44:1.5503438 45:-0.12696591 46:-0.83465195 47:1.4432766 48:0.080991432 49:-0.023640215 50:1.6907156 51:0.096433625 52:-0.45487875 53:1.6145332 54:0.10112233 55:-0.75424188 56:1.5620778 57:0.13688749 58:-0.8145892 59:1.4618084 60:-0.00065819919 61:0.53553224 62:1.8450668 63:-0.22137082 64:-0.082923904 65:1.623503 66:-0.25656056 67:-0.038919136 68:1.6356478 69:-0.048594825 70:0.27173239 71:1.5466182 72:0.0017322078 73:0.24232829 74:1.5799067 
-0 -0 -0 10 0 0 0 0:0.0020194277 1:-0.025576591 2:1.7287529 3:0 4:0.30000001 5:1.8 6:-0.00059331208 7:0.61173952 8:1.8567531 9:0.031485781 10:0.7617954 11:1.8390906 12:-0.1673663 13:0.49202445 14:1.8087108 15:-0.22112757 16:0.24130353 17:1.7783179 18:-0.22992387 19:0.028838277 20:1.6593044 21:-0.22009882 22:-0.021787584 23:1.634141 24:0.17595929 25:0.47775951 26:1.8050668 27:0.27579561 28:0.31307897 29:1.6695793 30:0.036244757 31:0.27402633 32:1.5525625 33:-0.032937691 34:0.27756131 35:1.5602844 36:-0.073555261 37:-0.02266705 38:1.6876764 39:-0.098574415 40:-0.46925798 41:1.6059039 42:-0.11505653 43:-0.77497661 44:1.5501568 45:-0.12701531 46:-0.83505058 47:1.4428158 48:0.080916315 49:-0.023557216 50:1.6906304 51:0.096406206 52:-0.45491514 53:1.6145098 54:0.10104878 55:-0.75398827 56:1.5620687 57:0.13683581 58:-0.8144455 59:1.4619348 60:-0.00063505769 61:0.53552365 62:1.8450587 63:-0.22101995 64:-0.085414067 65:1.6233714 66:-0.25749871 67:-0.027927697 68:1.6383467 69:-0.081976265 70:0.27302298 71:1.5590241 72:-0.01979237 73:0.23839054 74:1.5862777 
-0 -0 -0 10 0 0 0 0:0.0019653216 1:-0.025549933 2:1.7287664 3:0 4:0.30000001 5:1.8 6:-0.00055809319 7:0.61174417 8:1.8567293 9:0.031564519 10:0.76188064 11:1.8388197 12:-0.16737671 13:0.49199164 14:1.8086398 15:-0.22106205 16:0.24125397 17:1.7783241 18:-0.22995479 19:0.028906524 20:1.6592443 21:-0.21923779 22:-0.021389902 23:1.6323309 24:0.17613177 25:0.47803956 26:1.8047094 27:0.27558666 28:0.31336433 29:1.6688981 30:0.03831283 31:0.27417576 32:1.5531769 33:-0.030218452 34:0.27772957 35:1.559696 36:-0.073572963 37:-0.022658139 38:1.6877363 39:-0.098633796 40:-0.46833181 41:1.6060631 42:-0.11505757 43:-0.77497929 44:1.5501685 45:-0.12701623 46:-0.8350032 47:1.4427745 48:0.080790013 49:-0.023490787 50:1.6905026 51:0.096385367 52:-0.45500261 53:1.6143899 54:0.10105947 55:-0.7541247 56:1.5620546 57:0.13720712 58:-0.81463534 59:1.4621904 60:-0.00060795248 61:0.53552645 62:1.8450396 63:-0.21892564 64:-0.083148494 65:1.6200709 66:-0.25664163 67:-0.031876817 68:1.6367235 69:-0.07851629 70:0.27285963 71:1.556751 72:-0.0086604729 73:0.23666534 74:1.5938308 
-0 -0 -0 10 0 0 0 0:0.0019476339 1:-0.025550246 2:1.7288196 3:0 4:0.30000001 5:1.8 6:-0.00055329502 7:0.61177915 8:1.8566048 9:0.031569146 10:0.76187688 11:1.838866 12:-0.16737241 13:0.49197429 14:1.8086221 15:-0.22092161 16:0.24094969 17:1.7782054 18:-0.22988632 19:0.028990835 20:1.6590426 21:-0.22086748 22:-0.021188587 23:1.633251 24:0.17636353 25:0.47830659 26:1.8044341 27:0.27559078 28:0.3135621 29:1.6685264 30:0.041446 31:0.27462217 32:1.5530767 33:-0.025910586 34:0.2783342 35:1.5570436 36:-0.07357192 37:-0.022668034 38:1.6877842 39:-0.098684013 40:-0.4673683 41:1.6058366 42:-0.11503103 43:-0.77497572 44:1.5502291 45:-0.12731293 46:-0.83503807 47:1.4429481 48:0.080755681 49:-0.023483992 50:1.6905465 51:0.096378542 52:-0.45499784 53:1.614408 54:0.1010548 55:-0.75413483 56:1.5621006 57:0.1372551 58:-0.81468195 59:1.4623096 60:-0.00060033798 61:0.53554928 62:1.844949 63:-0.21943292 64:-0.082911193 65:1.6187298 66:-0.25870538 67:-0.024166226 68:1.6390357 69:-0.073877126 70:0.27108395 71:1.5566633 72:-0.035010234 73:0.24212897 74:1.5673811 
-0 -0 -0 10 0 0 0 0:0.0019373596 1:-0.025499254 2:1.7288158 3:0 4:0.30000001 5:1.8 6:-0.00056854635 7:0.61176181 8:1.8566215 9:0.031610318 10:0.76178455 11:1.8386638 12:-0.16742285 13:0.49197555 14:1.8085835 15:-0.220755 16:0.24028713 17:1.777755 18:-0.22992061 19:0.029021889 20:1.6588709 21:-0.22039948 22:-0.02252388 23:1.6322813 24:0.17651275 25:0.47836709 26:1.804234 27:0.27529776 28:0.31369698 29:1.667866 30:0.040865451 31:0.27462849 32:1.5529554 33:-0.027193919 34:0.27778065 35:1.5579016 36:-0.073572889 37:-0.022650093 38:1.6878242 39:-0.098656893 40:-0.46779883 41:1.6058865 42:-0.11521871 43:-0.77502954 44:1.5505211 45:-0.12713844 46:-0.83505732 47:1.443121 48:0.080768764 49:-0.023364693 50:1.6903691 51:0.096271485 52:-0.45508653 53:1.614476 54:0.10101203 55:-0.75417137 56:1.5621865 57:0.13719496 58:-0.81473488 59:1.4624047 60:-0.00060994923 61:0.53553492 62:1.8449605 63:-0.22132649 64:-0.083974794 65:1.6208498 66:-0.25952071 67:-0.020660877 68:1.6414912 69:-0.075748295 70:0.27237678 71:1.5587151 72:-0.018321708 73:0.2392388 74:1.5849125 
-0 -0 -0 10 0 0 0 0:0.0019068047 1:-0.025490671 2:1.7288103 3:0 4:0.30000001 5:1.8 6:-0.00056833774 7:0.6117754 8:1.8566298 9:0.031636499 10:0.76176453 11:1.8386922 12:-0.16745739 13:0.49195659 14:1.8085456 15:-0.22094445 16:0.23963562 17:1.7770503 18:-0.22987075 19:0.029072762 20:1.6587143 21:-0.22121589 22:-0.02142781 23:1.631377 24:0.17676499 25:0.47853541 26:1.8037498 27:0.27524763 28:0.31357312 29:1.6675231 30:0.040117517 31:0.27445069 32:1.5528262 33:-0.027671367 34:0.27777514 35:1.5574973 36:-0.073584422 37:-0.022641212 38:1.687794 39:-0.098763123 40:-0.46592045 41:1.6059704 42:-0.1150851 43:-0.77419418 44:1.550446 45:-0.12706253 46:-0.83485579 47:1.4437156 48:0.080738738 49:-0.023366794 50:1.6903582 51:0.096290611 52:-0.45517886 53:1.6143942 54:0.10096303 55:-0.75436229 56:1.5620499 57:0.13728149 58:-0.81474745 59:1.4621377 60:-0.00060741603 61:0.53554356 62:1.8449655 63:-0.21777926 64:-0.084243029 65:1.6195841 66:-0.25825852 67:-0.028517857 68:1.6384473 69:-0.075729907 70:0.27437204 71:1.557713 72:-0.038972408 73:0.24128142 74:1.5744767 
-7.321490422744665 -10 -10 -0 10 10 6.88271192670788 0:0.0037460849 1:-0.028030783 2:1.7288268 3:0 4:0.30000001 5:1.8 6:-0.0029022917 7:0.61424375 8:1.8574324 9:0.034611434 10:0.7637741 11:1.8387423 12:-0.16727147 13:0.49330235 14:1.8071003 15:-0.22342998 16:0.24103515 17:1.7761149 18:-0.22947562 19:0.032197818 20:1.6540873 21:-0.21866065 22:-0.014695421 23:1.6341994 24:0.17534658 25:0.478333 26:1.8329487 27:0.29018256 28:0.30771422 29:1.7214167 30:0.17693698 31:0.28008187 32:1.5200098 33:0.10077502 34:0.30050313 35:1.4523363 36:-0.073374666 37:-0.024475247 38:1.6837039 39:-0.10096212 40:-0.46836203 41:1.6134424 42:-0.11707019 43:-0.77491903 44:1.56214 45:-0.12908712 46:-0.83677137 47:1.4566641 48:0.084630109 49:-0.027240902 50:1.6951332 51:0.094494939 52:-0.4563638 53:1.6216059 54:0.099159129 55:-0.75595355 56:1.5723133 57:0.13402954 58:-0.81711906 59:1.4725127 60:-0.002338931 61:0.53743577 62:1.8455377 63:-0.2121866 64:-0.076441586 65:1.6176441 66:-0.25625104 67:-0.031637609 68:1.6361217 69:0.054072849 70:0.31647974 71:1.4081306 72:0.10097969 73:0.27269435 74:1.4335804 
-0 -2.680549994344335 -10 -0 10 9.615000342309823 0 0:0.0042693019 1:-0.027816117 2:1.7289076 3:0 4:0.30000001 5:1.8 6:-0.0038631037 7:0.61400735 8:1.8574016 9:0.035358146 10:0.76335096 11:1.8376367 12:-0.16648415 13:0.49324128 14:1.8066692 15:-0.22271964 16:0.24079433 17:1.7760749 18:-0.22901165 19:0.032835513 20:1.6550753 21:-0.21736321 22:-0.01327689 23:1.6362908 24:0.17494971 25:0.47787586 26:1.8314674 27:0.29013264 28:0.31214175 29:1.7122545 30:0.16552767 31:0.28199652 32:1.5182793 33:0.077193081 34:0.30009779 35:1.4611766 36:-0.072711639 37:-0.024255499 38:1.6832833 39:-0.099942528 40:-0.4690778 41:1.6127498 42:-0.11644544 43:-0.77505124 44:1.5613301 45:-0.12848154 46:-0.83667874 47:1.455615 48:0.084912345 49:-0.027098417 50:1.695703 51:0.095263027 52:-0.45701262 53:1.6209168 54:0.099972486 55:-0.75649595 56:1.5710731 57:0.1345773 58:-0.81746221 59:1.4709132 60:-0.0029908344 61:0.53726518 62:1.8455136 63:-0.21496239 64:-0.073112145 65:1.6195183 66:-0.2514793 67:-0.04456459 68:1.6283684 69:0.022578672 70:0.31139192 71:1.4242446 72:0.08192879 73:0.26848117 74:1.448056 
-0 -0 -10 -0 10 0 0 0:0.0038647428 1:-0.027475506 2:1.729254 3:0 4:0.30000001 5:1.8 6:-0.0034211874 7:0.61374402 8:1.8573067 9:0.035303324 10:0.7629807 11:1.8369639 12:-0.16632628 13:0.49327782 14:1.8067117 15:-0.22307536 16:0.24013343 17:1.7767105 18:-0.22960699 19:0.033210322 20:1.6571383 21:-0.21863717 22:-0.015250772 23:1.6384695 24:0.1785249 25:0.47458401 26:1.8205369 27:0.29943088 28:0.31142572 29:1.7038803 30:0.1551877 31:0.28397915 32:1.5241234 33:0.060857687 34:0.29668948 35:1.4753418 36:-0.07292337 37:-0.023886502 38:1.6831629 39:-0.099897392 40:-0.46776292 41:1.612592 42:-0.11653764 43:-0.77503037 44:1.5609367 45:-0.12856731 46:-0.83658504 47:1.4551401 48:0.084288746 49:-0.026843026 50:1.6964238 51:0.095246643 52:-0.45713422 53:1.6206062 54:0.099886283 55:-0.75666034 56:1.5706556 57:0.13454829 58:-0.81753981 59:1.4704287 60:-0.0027020872 61:0.53708482 62:1.8454287 63:-0.21815318 64:-0.074291542 65:1.6231217 66:-0.25470638 67:-0.0107795 68:1.6392467 69:0.0049543008 70:0.30693272 71:1.4396214 72:0.061663833 73:0.26417109 74:1.4783773 
-0 -0 -10 -10 10 0 0 0:0.0040527582 1:-0.027168721 2:1.7297668 3:0 4:0.30000001 5:1.8 6:-0.003682442 7:0.6135146 8:1.8569705 9:0.03564173 10:0.76275873 11:1.836375 12:-0.16571833 13:0.49350393 14:1.80761 15:-0.22297435 16:0.23975319 17:1.7775245 18:-0.22972091 19:0.03324829 20:1.6582568 21:-0.21808575 22:-0.01516512 23:1.6397872 24:0.18033493 25:0.47399259 26:1.8172314 27:0.3022511 28:0.31331134 29:1.6979403 30:0.14654908 31:0.28487602 32:1.5286105 33:0.044249654 34:0.29541242 35:1.4885232 36:-0.072600171 37:-0.023457408 38:1.6835938 39:-0.099617511 40:-0.46770424 41:1.6124222 42:-0.11623208 43:-0.7749784 44:1.5605674 45:-0.12825972 46:-0.83649844 47:1.4547327 48:0.0843869 49:-0.026637241 50:1.6967418 51:0.095562957 52:-0.45708567 53:1.6204493 54:0.10010098 55:-0.75643623 56:1.5703251 57:0.13493741 58:-0.81756258 59:1.4704823 60:-0.0028631091 61:0.53692305 62:1.8451779 63:-0.21810053 64:-0.075280517 65:1.6246624 66:-0.25361168 67:-0.016377941 68:1.6359036 69:-0.015009783 70:0.302499 71:1.4611545 72:0.02902139 73:0.262501 74:1.490463 
-0 -0 -10 -10 10 0 0 0:0.0033914223 1:-0.026796222 2:1.7305005 3:0 4:0.30000001 5:1.8 6:-0.0032190979 7:0.61331666 8:1.8567004 9:0.035665132 10:0.76262558 11:1.8359962 12:-0.16557419 13:0.49364939 14:1.8081992 15:-0.22298053 16:0.23937646 17:1.7786064 18:-0.23060712 19:0.033213839 20:1.6604576 21:-0.2188839 22:-0.01620464 23:1.640682 24:0.17823371 25:0.47392872 26:1.8176131 27:0.3048799 28:0.3209888 29:1.6926732 30:0.14193207 31:0.28280917 32:1.5327029 33:0.031380489 34:0.29287776 35:1.5020769 36:-0.073168926 37:-0.023050189 38:1.6853132 39:-0.099327512 40:-0.47066763 41:1.612349 42:-0.11630373 43:-0.77477348 44:1.5603535 45:-0.12813619 46:-0.83627188 47:1.4544454 48:0.083718799 49:-0.026261985 50:1.6967294 51:0.095556125 52:-0.45702633 53:1.6202462 54:0.10006492 55:-0.7564187 56:1.5700808 57:0.13489051 58:-0.81756282 59:1.470252 60:-0.0025875419 61:0.53679717 62:1.8449731 63:-0.2179755 64:-0.07560423 65:1.626451 66:-0.25425112 67:-0.021462619 68:1.6350396 69:-0.031869523 70:0.29880193 71:1.4778333 72:0.037530355 73:0.26303497 74:1.4866076 
-0 -0 -0 -10 10 0 0 0:0.0030111223 1:-0.026557088 2:1.7306137 3:0 4:0.30000001 5:1.8 6:-0.0025238469 7:0.6130209 8:1.8566155 9:0.035483882 10:0.76251012 11:1.8355193 12:-0.16558369 13:0.49372911 14:1.8084755 15:-0.22361584 16:0.2388161 17:1.7798634 18:-0.23123883 19:0.033674285 20:1.6622612 21:-0.22070275 22:-0.016740814 23:1.6424859 24:0.17861928 25:0.47461277 26:1.8137195 27:0.30697349 28:0.33017015 29:1.6798446 30:0.047866546 31:0.28379714 32:1.5188422 33:0.018979087 34:0.2922371 35:1.5131278 36:-0.073437467 37:-0.022830769 38:1.6862688 39:-0.0994699 40:-0.46907848 41:1.6124427 42:-0.11648594 43:-0.77494657 44:1.5599008 45:-0.12832591 46:-0.83640826 47:1.453959 48:0.083301209 49:-0.026005611 50:1.6963439 51:0.095348284 52:-0.45606899 53:1.6202681 54:0.09977632 55:-0.75575918 56:1.5702796 57:0.13454136 58:-0.81658304 59:1.4700127 60:-0.0021146387 61:0.53658462 62:1.8449149 63:-0.21855645 64:-0.076464593 65:1.6307468 66:-0.25481248 67:-0.023964331 68:1.6353576 69:-0.046623006 70:0.29802054 71:1.492826 72:0.040520906 73:0.26254565 74:1.4923413 
-0 -0 -0 -10 0 0 0 0:0.0025047585 1:-0.026161551 2:1.7306561 3:0 4:0.30000001 5:1.8 6:-0.0017081052 7:0.61250389 8:1.8566284 9:0.035170645 10:0.76251018 11:1.8347559 12:-0.16566539 13:0.49395809 14:1.8083823 15:-0.22413284 16:0.23844776 17:1.7809322 18:-0.23221427 19:0.034229219 20:1.6637917 21:-0.2210975 22:-0.017568588 23:1.643106 24:0.17888764 25:0.47571817 26:1.8102493 27:0.30920887 28:0.33123526 29:1.676194 30:0.11024386 31:0.29204726 32:1.5518005 33:0.016504422 34:0.2918902 35:1.523788 36:-0.073827513 37:-0.022426471 38:1.6872971 39:-0.099623598 40:-0.46913919 41:1.6119668 42:-0.11674235 43:-0.7747525 44:1.5592759 45:-0.12870693 46:-0.83619523 47:1.4533396 48:0.082760982 49:-0.025618076 50:1.6957412 51:0.094885319 52:-0.45578948 53:1.6198342 54:0.099529408 55:-0.75562716 56:1.5696745 57:0.13411105 58:-0.81570196 59:1.4684305 60:-0.0015375838 61:0.53621066 62:1.8449249 63:-0.22049695 64:-0.076969683 65:1.6287868 66:-0.25484386 67:-0.021854296 68:1.6338539 69:-0.04963889 70:0.29429999 71:1.5087857 72:-0.0071196109 73:0.25853157 74:1.5308623 
-0 -0 -0 -10 0 0 0 0:0.0022710338 1:-0.026015177 2:1.7308168 3:0 4:0.30000001 5:1.8 6:-0.0013985485 7:0.61228901 8:1.8564785 9:0.035170041 10:0.76227021 11:1.8345053 12:-0.16554406 13:0.49395758 14:1.8087208 15:-0.22405133 16:0.23880391 17:1.7814882 18:-0.23296073 19:0.03418304 20:1.6651032 21:-0.22232491 22:-0.017524302 23:1.6432796 24:0.17917722 25:0.47615939 26:1.807858 27:0.3119027 28:0.33268464 29:1.6740501 30:0.11235788 31:0.29202437 32:1.553282 33:0.017169707 34:0.29168695 35:1.5304067 36:-0.074104145 37:-0.022356838 38:1.688097 39:-0.09972851 40:-0.46813518 41:1.6121747 42:-0.11659922 43:-0.77550083 44:1.5588343 45:-0.12898842 46:-0.83661491 47:1.4526572 48:0.082443058 49:-0.025344148 50:1.6954517 51:0.094788723 52:-0.45646155 53:1.6196723 54:0.099648774 55:-0.75633895 56:1.5692005 57:0.13421066 58:-0.81619114 59:1.4677136 60:-0.0013255477 61:0.53605908 62:1.844835 63:-0.22316337 64:-0.077690721 65:1.6322117 66:-0.25909066 67:-0.02681233 68:1.6417725 69:-0.045317113 70:0.29228503 71:1.5218122 72:0.031700186 73:0.26306248 74:1.5073769 
