svm_type c_svc
kernel_type rbf
gamma 0.1
nr_class 14
total_sv 369
rho -0.0629821 0.269271 -0.0184599 1.70116 -0.0923537 0.337582 0.0230031 1.14227 0.00273164 0.0312465 -0.00781457 0.0228151 0.17171 0.00360191 0.126265 0.211031 -0.0179081 0.296109 0.116786 0.322182 -0.00283778 0.0736707 -0.0322658 -0.321709 -0.18881 -0.0100933 -0.27942 -0.240641 1.38003e-05 -0.134307 -0.189548 -0.161212 -0.279886 -0.316395 -0.316811 -0.309993 0.0601718 -0.00875663 0.198348 -0.0046607 0.232684 -0.0380124 -0.0411939 -0.158404 -0.3144 -0.0645875 -0.322418 0.247458 -0.397987 0.000472736 -0.0837886 -0.245388 -0.248566 -0.111844 -0.107949 -0.16122 0.347886 0.00627406 -0.520674 0.0483838 0.0492537 0.0340912 0.143882 0.00219107 -0.285596 -1.70264 -0.315694 -0.288462 -0.26633 -0.204509 0.105773 -1.74442 -0.0646139 -0.0195178 -0.00477145 0.149457 -0.0969153 -0.523308 -0.307148 -0.0925678 0.0941621 0.00466042 -0.00244749 -0.00219305 0.0519044 0.0209249 0.246857 0.963611 0.0219655 1.81895 1.60716
label 1 11 12 13 14 21 22 23 24 31 41 42 43 44
nr_sv 32 18 17 18 37 16 18 17 27 9 40 40 41 39
SV
0 0 10 10 0 0 10 0 0 10 10 10 10 0:0.0098343715 1:-0.021331042 2:1.7685193 3:0 4:0.30000001 5:1.8 6:-0.0084857866 7:0.60428131 8:1.8184582 9:-0.0042031407 10:0.75988436 11:1.8081013 12:-0.18669939 13:0.48372093 14:1.8029567 15:-0.23685169 16:0.22461346 17:1.7631441 18:-0.22414604 19:0.0076952577 20:1.6558808 21:-0.21598846 22:-0.055126101 23:1.6096128 24:0.17694561 25:0.48413625 26:1.8282307 27:0.23585138 28:0.1905683 29:1.7833985 30:0.24554694 31:-0.031046599 32:1.6874517 33:0.24536002 34:-0.092166513 35:1.6532983 36:-0.071517743 37:-0.02247867 38:1.7263657 39:-0.080619581 40:-0.43618843 41:1.6667262 42:-0.080853082 43:-0.74348235 44:1.670314 45:-0.069967873 46:-0.76559937 47:1.5253288 48:0.093312852 49:-0.020033598 50:1.7357439 51:0.099951342 52:-0.40796825 53:1.6795744 54:0.090275466 55:-0.71581364 56:1.6765221 57:0.097440124 58:-0.73842883 59:1.5311798 60:-0.0064941086 61:0.53038704 62:1.8159488 63:-0.22130269 64:-0.11196426 65:1.564896 66:-0.19026589 67:-0.090022758 68:1.6220638 69:0.23953304 70:-0.17347285 71:1.6425918 72:0.21035931 73:-0.087087512 74:1.6107301 
0 0 10 10 0 0 10 10 0 10 10 4.007160218480796 0.2135422274623901 0:0.0098480769 1:-0.021350384 2:1.7686377 3:0 4:0.30000001 5:1.8 6:-0.0084986649 7:0.60429275 8:1.8183665 9:-0.0041788891 10:0.75983602 11:1.8079071 12:-0.18643889 13:0.48377419 14:1.8026705 15:-0.23681924 16:0.22490346 17:1.7630799 18:-0.22440475 19:0.0079061389 20:1.655961 21:-0.21678573 22:-0.057151079 23:1.6097026 24:0.17692591 25:0.48415357 26:1.8280926 27:0.23594074 28:0.19086838 29:1.7834764 30:0.24550059 31:-0.030868173 32:1.6878281 33:0.2445848 34:-0.092120185 35:1.6544619 36:-0.071494922 37:-0.022511035 38:1.7264926 39:-0.080965623 40:-0.43324116 41:1.6670232 42:-0.081134245 43:-0.74068683 44:1.6687527 45:-0.070189148 46:-0.76285219 47:1.5237536 48:0.093305513 49:-0.02003935 50:1.7358489 51:0.099969625 52:-0.4076077 53:1.6797171 54:0.090246037 55:-0.71542954 56:1.6772387 57:0.09746071 58:-0.73806959 59:1.5318933 60:-0.0065039732 61:0.53039604 62:1.8158793 63:-0.22245467 64:-0.11507235 65:1.5680616 66:-0.18999912 67:-0.090028048 68:1.620791 69:0.23906438 70:-0.17376982 71:1.64079 72:0.20977591 73:-0.08770293 74:1.6110349 
0 0 3.531056481342069 10 0 0 0 0 0 10 0.6560338522135158 0 10 0:0.0098882951 1:-0.021380633 2:1.7687724 3:0 4:0.30000001 5:1.8 6:-0.0085640438 7:0.60433531 8:1.8181889 9:-0.0041175522 10:0.75985992 11:1.807776 12:-0.18637189 13:0.48390773 14:1.8024459 15:-0.2367084 16:0.22471282 17:1.7628286 18:-0.22444013 19:0.0075667202 20:1.6560249 21:-0.21489385 22:-0.055902839 23:1.6093905 24:0.17706211 25:0.4841902 26:1.8279181 27:0.23594026 28:0.19074467 29:1.7834492 30:0.2454097 31:-0.031050563 32:1.6879473 33:0.24358991 34:-0.092279941 35:1.6547642 36:-0.071482033 37:-0.022525638 38:1.7266285 39:-0.080900162 40:-0.43414131 41:1.667249 42:-0.081048504 43:-0.74160814 44:1.6684642 45:-0.070088938 46:-0.76377213 47:1.5234761 48:0.093365155 49:-0.020087987 50:1.7359784 51:0.099920154 52:-0.40722802 53:1.6797762 54:0.090594314 55:-0.71508086 56:1.6769798 57:0.097817421 58:-0.73774278 59:1.5316348 60:-0.0065482892 61:0.5304271 62:1.8157504 63:-0.21943602 64:-0.11360025 65:1.5654957 66:-0.18711208 67:-0.086130217 68:1.6240015 69:0.23931563 70:-0.17284092 71:1.6413808 72:0.20986414 73:-0.094305873 74:1.6088765 
0 0 0 10 0 0 0 0 0 0 0 0 0 0:0.0099683926 1:-0.021378011 2:1.7689884 3:0 4:0.30000001 5:1.8 6:-0.0085969158 7:0.60433984 8:1.8179758 9:-0.0041889884 10:0.75985646 11:1.8076899 12:-0.18657222 13:0.48389342 14:1.8024733 15:-0.23680378 16:0.22470829 17:1.7627399 18:-0.22466244 19:0.007499218 20:1.6560655 21:-0.21685298 22:-0.056516439 23:1.6097553 24:0.17702514 25:0.48419061 26:1.8278549 27:0.23586546 28:0.19072899 29:1.7834566 30:0.24531054 31:-0.031172574 32:1.6882315 33:0.24388821 34:-0.09180671 35:1.6563346 36:-0.07142204 37:-0.022585005 38:1.7268407 39:-0.080994397 40:-0.4344717 41:1.6673815 42:-0.081394747 43:-0.74194646 44:1.66838 45:-0.070463881 46:-0.76412749 47:1.5233963 48:0.093454666 49:-0.02001974 50:1.7361963 51:0.099752724 52:-0.40698257 53:1.6799543 54:0.089512929 55:-0.71479928 56:1.6774209 57:0.096723482 58:-0.7374934 59:1.5320723 60:-0.0065737031 61:0.53043079 62:1.8155971 63:-0.21920772 64:-0.11457342 65:1.566962 66:-0.17994909 67:-0.078556716 68:1.6273258 69:0.2391845 70:-0.17174296 71:1.6410587 72:0.20996447 73:-0.088104606 74:1.6109941 
0 0 0 10 0 0 0 0 0 0 0 0 0 0:0.0099075139 1:-0.021432668 2:1.7690827 3:0 4:0.30000001 5:1.8 6:-0.0085791275 7:0.60440123 8:1.8178872 9:-0.0042285882 10:0.75978827 11:1.8075758 12:-0.1864382 13:0.48376721 14:1.8022341 15:-0.23677325 16:0.22486061 17:1.7628628 18:-0.22476068 19:0.0076341033 20:1.6562175 21:-0.21563169 22:-0.055860579 23:1.6108712 24:0.17711747 25:0.48414326 26:1.8277816 27:0.23589212 28:0.19053191 29:1.7834512 30:0.24520791 31:-0.031414062 32:1.6883339 33:0.24432972 34:-0.091478676 35:1.6554872 36:-0.071517535 37:-0.022639662 38:1.7269157 39:-0.081139334 40:-0.43462187 41:1.6676229 42:-0.080829613 43:-0.74207729 44:1.6689914 45:-0.069869503 46:-0.76427287 47:1.5240074 48:0.093424916 49:-0.02007404 50:1.7363116 51:0.099671312 52:-0.40716189 53:1.6801032 54:0.090122104 55:-0.71500683 56:1.6773781 57:0.097361632 58:-0.73770928 59:1.5320343 60:-0.0065578893 61:0.53047711 62:1.8155268 63:-0.22133031 64:-0.11314163 65:1.567449 66:-0.18607613 67:-0.082925752 68:1.6259073 69:0.23876876 70:-0.17283833 71:1.6405936 72:0.20955065 73:-0.088781744 74:1.6113127 
0 0 0 10 0 0 0 0 0 0 0 0 0 0:0.0099278986 1:-0.021505207 2:1.7692659 3:0 4:0.30000001 5:1.8 6:-0.00860174 7:0.60447538 8:1.8177118 9:-0.0043813214 10:0.75972217 11:1.8074996 12:-0.18665498 13:0.48373169 14:1.8022237 15:-0.23692939 16:0.22475529 17:1.7626922 18:-0.22477737 19:0.007466197 20:1.6562049 21:-0.21426994 22:-0.056259215 23:1.6087167 24:0.17710117 25:0.48415673 26:1.8277376 27:0.23571107 28:0.19046932 29:1.7834289 30:0.24494818 31:-0.031526178 32:1.6884363 33:0.24306566 34:-0.092413872 35:1.6555262 36:-0.071510591 37:-0.022694856 38:1.7271049 39:-0.08143612 40:-0.43468827 41:1.6677673 42:-0.081736706 43:-0.74215293 44:1.6689255 45:-0.07078018 46:-0.76436853 47:1.5239451 48:0.093437463 49:-0.020162761 50:1.7364829 51:0.099423662 52:-0.40716031 53:1.6803079 54:0.090725407 55:-0.71503437 56:1.67747 57:0.097928256 58:-0.73775882 59:1.5321276 60:-0.0065748617 61:0.53053182 62:1.8153954 63:-0.22141767 64:-0.11595318 65:1.5677218 66:-0.1891115 67:-0.09144938 68:1.6221092 69:0.23818102 70:-0.17394969 71:1.6410606 72:0.20927608 73:-0.088822514 74:1.6115024 
0 0 0 10 0 0 0 0 0 0 0 0 0 0:0.0099214837 1:-0.021510929 2:1.7693442 3:0 4:0.30000001 5:1.8 6:-0.0086424202 7:0.60446411 8:1.8176705 9:-0.0044135973 10:0.75960505 11:1.8074111 12:-0.18672574 13:0.48373586 14:1.8021749 15:-0.23684081 16:0.22444141 17:1.7624615 18:-0.22459987 19:0.0070848763 20:1.6561385 21:-0.21466762 22:-0.056812376 23:1.6087397 24:0.17710388 25:0.48416996 26:1.8276943 27:0.23564541 28:0.19042724 29:1.783497 30:0.2448484 31:-0.031611741 32:1.688619 33:0.2430324 34:-0.091996282 35:1.6565975 36:-0.07151451 37:-0.022720754 38:1.727187 39:-0.08162678 40:-0.43409917 41:1.6680032 42:-0.081341691 43:-0.74159932 44:1.6687294 45:-0.07039652 46:-0.76383114 47:1.5237414 48:0.093419112 49:-0.020151675 50:1.7365543 51:0.099343814 52:-0.4069961 53:1.6803766 54:0.090334676 55:-0.71486789 56:1.6774696 57:0.097542219 58:-0.73760378 59:1.5321232 60:-0.0066041127 61:0.53052473 62:1.8153595 63:-0.22212762 64:-0.11358476 65:1.5678207 66:-0.18558675 67:-0.089807793 68:1.6229776 69:0.23708406 70:-0.17326683 71:1.6391958 72:0.20938665 73:-0.088193759 74:1.6118625 
0 0 0 10 0 0 0 0 0 0 0 0 0 0:0.0098734982 1:-0.021541566 2:1.7694192 3:0 4:0.30000001 5:1.8 6:-0.0086259469 7:0.60448813 8:1.817626 9:-0.0045477562 10:0.75955498 11:1.8073545 12:-0.1868118 13:0.48364812 14:1.8020642 15:-0.23697306 16:0.2244038 17:1.7623534 18:-0.22480534 19:0.0070169568 20:1.6560941 21:-0.2149467 22:-0.056831837 23:1.6095774 24:0.17712516 25:0.48425925 26:1.8276622 27:0.2355375 28:0.1903913 29:1.7834859 30:0.24469854 31:-0.031677932 32:1.6886871 33:0.24325261 34:-0.092470527 35:1.6570377 36:-0.07155104 37:-0.022728056 38:1.7272835 39:-0.081778914 40:-0.4342953 41:1.6683056 42:-0.081858322 43:-0.74182183 44:1.6685123 45:-0.070895046 46:-0.76405871 47:1.5235252 48:0.093347922 49:-0.02020663 50:1.7366056 51:0.099028274 52:-0.40717813 53:1.6806355 54:0.090008974 55:-0.71505153 56:1.6776574 57:0.097230494 58:-0.73779631 59:1.5323098 60:-0.0065916292 61:0.53054309 62:1.8153222 63:-0.21788274 64:-0.11473167 65:1.5680966 66:-0.18672375 67:-0.086982638 68:1.6239998 69:0.23723277 70:-0.17368266 71:1.6421978 72:0.2073281 73:-0.092508867 74:1.614357 
0 0 0 10 0 0 10 10 0 0 0 0 0 0:0.0098515339 1:-0.02156204 2:1.7695235 3:0 4:0.30000001 5:1.8 6:-0.0086505823 7:0.6045 8:1.8175443 9:-0.0044820607 10:0.75945693 11:1.8071173 12:-0.18689097 13:0.48370373 14:1.8019851 15:-0.23696935 16:0.22445995 17:1.7623385 18:-0.2248823 19:0.0070783496 20:1.6560625 21:-0.2149604 22:-0.056360871 23:1.6080636 24:0.17707022 25:0.48420745 26:1.8276051 27:0.23539911 28:0.19039345 29:1.7835602 30:0.24452183 31:-0.031707466 32:1.688845 33:0.24315922 34:-0.091826901 35:1.655279 36:-0.071592867 37:-0.022727877 38:1.7273885 39:-0.081976727 40:-0.43435904 41:1.6684242 42:-0.081937134 43:-0.74189717 44:1.6684262 45:-0.070964649 46:-0.76414275 47:1.5234402 48:0.093335658 49:-0.020249695 50:1.7367057 51:0.098800749 52:-0.40755799 53:1.6807278 54:0.090252787 55:-0.7154364 56:1.6778301 57:0.097476229 58:-0.73818672 59:1.5324858 60:-0.0066081472 61:0.5305531 62:1.8152567 63:-0.22035927 64:-0.11440712 65:1.5668143 66:-0.18941584 67:-0.088941723 68:1.6208748 69:0.23690934 70:-0.17327562 71:1.6376857 72:0.20832744 73:-0.089255795 74:1.6116782 
0 0 0 10 0 0 1.354034865170118 0 0 0 0 0 0 0:0.0098034628 1:-0.021565318 2:1.769609 3:0 4:0.30000001 5:1.8 6:-0.0086353458 7:0.60449582 8:1.8174624 9:-0.0044467002 10:0.75947821 11:1.8070357 12:-0.18694407 13:0.48385078 14:1.8019729 15:-0.23692425 16:0.22477341 17:1.7624528 18:-0.22499748 19:0.0073651969 20:1.6562216 21:-0.21490647 22:-0.056830257 23:1.6092808 24:0.1770097 25:0.48418605 26:1.8275583 27:0.2353529 28:0.19035214 29:1.7836018 30:0.24434923 31:-0.031762958 32:1.6889155 33:0.24345273 34:-0.092619494 35:1.6559918 36:-0.071645811 37:-0.02271685 38:1.7274725 39:-0.082034588 40:-0.43294576 41:1.6685095 42:-0.082195237 43:-0.74049747 44:1.6685362 45:-0.071220234 46:-0.76277858 47:1.5235374 48:0.09328641 49:-0.020267576 50:1.7367902 51:0.098629102 52:-0.4075816 53:1.6809585 54:0.09035854 55:-0.71546805 56:1.6780312 57:0.097575605 58:-0.73822922 59:1.5326855 60:-0.0065949 61:0.5305509 62:1.8151927 63:-0.22156791 64:-0.11578009 65:1.5652936 66:-0.18741322 67:-0.086686283 68:1.6243846 69:0.2372677 70:-0.17372349 71:1.6419642 72:0.2084156 73:-0.088956162 74:1.6114538 
0 0 0 10 0 0 0 0 0 0 0 0 0 0:0.0098028556 1:-0.021573424 2:1.7697393 3:0 4:0.30000001 5:1.8 6:-0.0086571462 7:0.60449785 8:1.8173298 9:-0.0044270121 10:0.7594465 11:1.8068999 12:-0.18700406 13:0.48387593 14:1.801937 15:-0.23691648 16:0.22455496 17:1.7622417 18:-0.22511572 19:0.0070685148 20:1.656175 21:-0.21486875 22:-0.057003021 23:1.6091343 24:0.17703038 25:0.48416156 26:1.8276051 27:0.23526812 28:0.19022101 29:1.7836169 30:0.24415103 31:-0.031918764 32:1.6889881 33:0.2429668 34:-0.092459142 35:1.6550115 36:-0.071647547 37:-0.022736758 38:1.7276043 39:-0.082163014 40:-0.43303087 41:1.6686872 42:-0.082277812 43:-0.74059623 44:1.6684595 45:-0.071279593 46:-0.76288944 47:1.5234641 48:0.093273818 49:-0.020265728 50:1.7369164 51:0.098407507 52:-0.40750572 53:1.681121 54:0.088288911 55:-0.7152977 56:1.6791457 57:0.095572621 58:-0.73808545 59:1.5337957 60:-0.0066100508 61:0.53055346 62:1.8150924 63:-0.22123617 64:-0.11408639 65:1.5667895 66:-0.17482471 67:-0.066317081 68:1.6309122 69:0.23737234 70:-0.17325898 71:1.6413535 72:0.20765927 73:-0.088063598 74:1.6141509 
0 0 0 10 0 0 0 0 0 0 0 0 0 0:0.011937849 1:-0.024062306 2:1.7707105 3:0 4:0.30000001 5:1.8 6:-0.011311851 7:0.60626626 8:1.8165538 9:-0.011229061 10:0.76127291 11:1.8130007 12:-0.19551638 13:0.4791384 14:1.7987313 15:-0.24598667 16:0.23297015 17:1.7728295 18:-0.23199669 19:0.015130192 20:1.6676495 21:-0.2204102 22:-0.047488123 23:1.6251061 24:0.17643461 25:0.48127952 26:1.8210268 27:0.23485106 28:0.18806788 29:1.7926943 30:0.24274567 31:-0.031599134 32:1.6917 33:0.24746114 34:-0.092915654 35:1.664875 36:-0.06950327 37:-0.025854766 38:1.727818 39:-0.077729307 40:-0.42999652 41:1.6758857 42:-0.073415987 43:-0.73676968 44:1.6873055 45:-0.063563339 46:-0.75933039 47:1.5418291 48:0.095966138 49:-0.022125542 50:1.7385032 51:0.10618293 52:-0.40839231 53:1.6899495 54:0.10226269 55:-0.71574426 56:1.697355 57:0.10825832 58:-0.73871779 59:1.5515532 60:-0.0086003542 61:0.53195274 62:1.814455 63:-0.21873084 64:-0.10917696 65:1.5897284 66:-0.17077419 67:-0.038591623 68:1.6446009 69:0.25135979 70:-0.17391032 71:1.6552105 72:0.21024233 73:-0.089408964 74:1.6281302 
0 0 0 10 0 0 0 0 0 10 0 0 0 0:0.012029175 1:-0.024031669 2:1.770763 3:0 4:0.30000001 5:1.8 6:-0.011395946 7:0.60623223 8:1.8165172 9:-0.01123935 10:0.76118982 11:1.8130575 12:-0.1955047 13:0.47918564 14:1.7986275 15:-0.24599692 16:0.23301446 17:1.7729188 18:-0.23192486 19:0.015110493 20:1.6678916 21:-0.22012842 22:-0.049164832 23:1.6242982 24:0.17649168 25:0.48127586 26:1.8210317 27:0.23520947 28:0.18812841 29:1.7931725 30:0.24317214 31:-0.031528115 32:1.6921612 33:0.24781793 34:-0.093754664 35:1.6668898 36:-0.069412075 37:-0.025817096 38:1.7278425 39:-0.077630065 40:-0.43002248 41:1.6759881 42:-0.073377497 43:-0.73679459 44:1.6874205 45:-0.063489757 46:-0.75935847 47:1.5419441 48:0.096055433 49:-0.022101671 50:1.7385913 51:0.10628295 52:-0.40839034 53:1.6901647 54:0.10242157 55:-0.71574163 56:1.6975862 57:0.10844955 58:-0.7387197 59:1.5517837 60:-0.0086648911 61:0.53192717 62:1.8144261 63:-0.21770135 64:-0.10861583 65:1.5880982 66:-0.17115659 67:-0.03382194 68:1.640051 69:0.25134596 70:-0.17500316 71:1.6597725 72:0.21194968 73:-0.091827244 74:1.6269618 
10 4.814861592518149 0 10 0 0 0 10 0 6.403041559845829 0 0 0 0:0.012062691 1:-0.024032354 2:1.7708229 3:0 4:0.30000001 5:1.8 6:-0.011439517 7:0.60622835 8:1.8164023 9:-0.011252061 10:0.76114941 11:1.8130475 12:-0.19546749 13:0.47921392 14:1.7984394 15:-0.24610792 16:0.23316053 17:1.7729834 18:-0.23217 19:0.015172005 20:1.6681277 21:-0.2216516 22:-0.050050467 23:1.6259638 24:0.17653511 25:0.48132828 26:1.8210584 27:0.23553509 28:0.18814072 29:1.7936095 30:0.2436064 31:-0.031494886 32:1.6925625 33:0.24475101 34:-0.081882268 35:1.6717139 36:-0.069379523 37:-0.025817275 38:1.7279004 39:-0.077597603 40:-0.43007028 41:1.6759559 42:-0.074842423 43:-0.73647845 44:1.6911389 45:-0.064866036 46:-0.75908983 47:1.5456499 48:0.096089125 49:-0.022102356 50:1.7386533 51:0.10629757 52:-0.40913934 53:1.6901938 54:0.10326396 55:-0.71651793 56:1.6972605 57:0.10933596 58:-0.73948848 59:1.5514694 60:-0.0086983666 61:0.53192413 62:1.8143438 63:-0.21879734 64:-0.10845786 65:1.5908049 66:-0.1931649 67:-0.075510219 68:1.6431528 69:0.25177786 70:-0.16932505 71:1.6555525 72:0.21093531 73:-0.088722646 74:1.6334344 
10 0 0 10 0 0 0 0 0 10 10 0 0 0:0.012060825 1:-0.024003386 2:1.7708611 3:0 4:0.30000001 5:1.8 6:-0.01141464 7:0.60619938 8:1.8163793 9:-0.011258669 10:0.76112628 11:1.8131347 12:-0.19551043 13:0.47926632 14:1.7981849 15:-0.24616198 16:0.23325005 17:1.7730532 18:-0.23231502 19:0.015209973 20:1.6683002 21:-0.22135605 22:-0.048036903 23:1.6266036 24:0.17656484 25:0.48142967 26:1.8211293 27:0.23566847 28:0.18820003 29:1.7938175 30:0.24444479 31:-0.03165713 32:1.6933703 33:0.24831903 34:-0.09455514 35:1.6674752 36:-0.069370165 37:-0.025794953 38:1.7279332 39:-0.077565238 40:-0.43008211 41:1.6760755 42:-0.069326341 43:-0.73648548 44:1.6906657 45:-0.059377015 46:-0.75909102 47:1.5451727 48:0.096075132 49:-0.022069156 50:1.7387023 51:0.10638301 52:-0.4077884 53:1.6901302 54:0.10233139 55:-0.71513772 56:1.6976435 57:0.1085157 58:-0.73813891 59:1.5518417 60:-0.0086814761 61:0.53190231 62:1.8143263 63:-0.21951242 64:-0.10907015 65:1.5900476 66:-0.18674602 67:-0.066131473 68:1.6438756 69:0.25173238 70:-0.17508256 71:1.6621838 72:0.20989296 73:-0.09066245 74:1.6302912 
10 0 0 10 0 0 0 0 0 10 0 0 0 0:0.012114864 1:-0.02401492 2:1.7709011 3:0 4:0.30000001 5:1.8 6:-0.011499763 7:0.60622513 8:1.8163058 9:-0.011224128 10:0.76108992 11:1.8131529 12:-0.19549687 13:0.47932109 14:1.7978903 15:-0.24629469 16:0.23345587 17:1.7730812 18:-0.23257475 19:0.015311211 20:1.6685458 21:-0.22193791 22:-0.048951685 23:1.6271325 24:0.176667 25:0.4815329 26:1.8211547 27:0.23595594 28:0.18818167 29:1.7941278 30:0.24467966 31:-0.03166759 32:1.6936585 33:0.24942125 34:-0.094067186 35:1.6683575 36:-0.069306791 37:-0.025812298 38:1.7279826 39:-0.077479944 40:-0.4301194 41:1.6760961 42:-0.07010591 43:-0.7365514 44:1.6905733 45:-0.060048237 46:-0.75916231 47:1.545086 48:0.096114345 49:-0.022069246 50:1.7387382 51:0.10648614 52:-0.4074626 53:1.6900707 54:0.1032867 55:-0.71480393 56:1.697842 57:0.10954124 58:-0.73781967 59:1.5520405 60:-0.0087445453 61:0.53192091 62:1.814274 63:-0.22278507 64:-0.10964656 65:1.5914797 66:-0.18521808 67:-0.071573406 68:1.6436306 69:0.25183609 70:-0.17509274 71:1.6626841 72:0.20953365 73:-0.092312694 74:1.6283485 
2.710629571098584 0 0 10 0 4.926018108871874 0 0 6.578886356742871 0 0 0 0 0:0.012191303 1:-0.0240255 2:1.7709445 3:0 4:0.30000001 5:1.8 6:-0.011579849 7:0.606278 8:1.8162092 9:-0.011229061 10:0.7610656 11:1.8132111 12:-0.19552898 13:0.479361 14:1.7976781 15:-0.24642959 16:0.23361814 17:1.7732078 18:-0.23263007 19:0.015423864 20:1.6687928 21:-0.21967542 22:-0.048059762 23:1.6272565 24:0.17662585 25:0.48174489 26:1.821143 27:0.23595756 28:0.18815577 29:1.794165 30:0.24492884 31:-0.031740814 32:1.6938351 33:0.25047943 34:-0.093108878 35:1.6674646 36:-0.069209166 37:-0.025833458 38:1.7280403 39:-0.077494182 40:-0.43013239 41:1.676123 42:-0.068979599 43:-0.73670638 44:1.6889607 45:-0.05889409 46:-0.75930834 47:1.5434815 48:0.096169159 49:-0.02207154 50:1.7387732 51:0.10648675 52:-0.40707994 53:1.6901337 54:0.10186306 55:-0.71428347 56:1.6994272 57:0.10819925 58:-0.73733008 59:1.5536166 60:-0.0087995082 61:0.53195751 62:1.8142062 63:-0.21959046 64:-0.10926619 65:1.5894819 66:-0.17467976 67:-0.039035887 68:1.6497184 69:0.25192434 70:-0.17464405 71:1.6598626 72:0.21091294 73:-0.092609763 74:1.6296555 
0 0 0 10 0 0 0 1.118030069079096 0 0 0 0 0 0:0.012251452 1:-0.024013549 2:1.7709383 3:0 4:0.30000001 5:1.8 6:-0.01161129 7:0.60627097 8:1.8162116 9:-0.011232726 10:0.76104397 11:1.8132018 12:-0.19553934 13:0.47946447 14:1.7973424 15:-0.24656926 16:0.23376322 17:1.7731174 18:-0.23267464 19:0.015494227 20:1.6688818 21:-0.21955548 22:-0.048271775 23:1.6266259 24:0.17662959 25:0.48178345 26:1.8211135 27:0.23608036 28:0.18849403 29:1.7942246 30:0.24504486 31:-0.031481713 32:1.6940802 33:0.24916142 34:-0.092885315 35:1.6660451 36:-0.069128245 37:-0.025810272 38:1.7280167 39:-0.077487111 40:-0.43024245 41:1.6760598 42:-0.069235966 43:-0.73675185 44:1.6895968 45:-0.059052937 46:-0.75935751 47:1.5441178 48:0.096205413 49:-0.02206859 50:1.7387861 51:0.10642192 52:-0.40654114 53:1.6900877 54:0.10159375 55:-0.71376657 56:1.6991669 57:0.10802855 58:-0.73681933 59:1.5533546 60:-0.0088235885 61:0.5319522 62:1.8142079 63:-0.21553184 64:-0.10810694 65:1.5872856 66:-0.19262914 67:-0.075760394 68:1.6473893 69:0.2508508 70:-0.1742003 71:1.6581529 72:0.2121454 73:-0.090526283 74:1.6263365 
10 0 0 10 0 0 0 0 0 10 3.857802470656438 3.971423613520859 0 0:0.012273889 1:-0.02401647 2:1.7709546 3:0 4:0.30000001 5:1.8 6:-0.011629149 7:0.60627961 8:1.8161967 9:-0.0112487 10:0.76102906 11:1.8132169 12:-0.1955415 13:0.47947997 14:1.797195 15:-0.24666628 16:0.23378545 17:1.7731047 18:-0.23276469 19:0.015462428 20:1.6689918 21:-0.219625 22:-0.048141807 23:1.6275883 24:0.17664844 25:0.48190957 26:1.8210373 27:0.23635355 28:0.18855143 29:1.7944224 30:0.24523959 31:-0.0314551 32:1.6943445 33:0.24958867 34:-0.09385635 35:1.6675322 36:-0.069106631 37:-0.02581948 38:1.7280302 39:-0.077494524 40:-0.43022776 41:1.6760616 42:-0.070732467 43:-0.73663187 44:1.6909046 45:-0.060503937 46:-0.75925475 47:1.5454192 48:0.096226901 49:-0.022065073 50:1.7388077 51:0.10645972 52:-0.40661848 53:1.6901195 54:0.10206383 55:-0.71389538 56:1.6986475 57:0.10850297 58:-0.73694438 59:1.5528364 60:-0.0088375211 61:0.53195864 62:1.8141961 63:-0.21824199 64:-0.10874936 65:1.5897932 66:-0.17266431 67:-0.04350248 68:1.642416 69:0.25160137 70:-0.17501722 71:1.6592116 72:0.21159312 73:-0.090423927 74:1.6294255 
3.118241148948053 0 0 10 0 0 0 10 0 10 10 5.883886728285368 0 0:0.012295 1:-0.023973107 2:1.7709942 3:0 4:0.30000001 5:1.8 6:-0.011639349 7:0.60625684 8:1.8161719 9:-0.011226147 10:0.7609849 11:1.8132601 12:-0.19547695 13:0.4795441 14:1.7970359 15:-0.24687123 16:0.23426187 17:1.7730401 18:-0.23300287 19:0.015749633 20:1.6693478 21:-0.21952981 22:-0.048593849 23:1.6264765 24:0.1766952 25:0.48217744 26:1.8210828 27:0.23662861 28:0.18851614 29:1.7945898 30:0.24535464 31:-0.03148526 32:1.6944835 33:0.24893385 34:-0.093215346 35:1.6665707 36:-0.069069266 37:-0.025796354 38:1.7280648 39:-0.077614456 40:-0.42845741 41:1.6761248 42:-0.072547898 43:-0.73488945 44:1.6911225 45:-0.062228233 46:-0.75755095 47:1.5456245 48:0.096225403 49:-0.021999747 50:1.7388577 51:0.10648406 52:-0.40665153 53:1.6901731 54:0.10204794 55:-0.71394038 56:1.6985543 57:0.1085379 58:-0.73699194 59:1.5527437 60:-0.0088461265 61:0.53194118 62:1.814177 63:-0.21600404 64:-0.11161259 65:1.5895045 66:-0.1929909 67:-0.076465756 68:1.63673 69:0.25112247 70:-0.1705592 71:1.6539457 72:0.21167825 73:-0.089949042 74:1.6275165 
0 0 0 10 0 0 0 0 0 0 0 0 0 0:0.012310907 1:-0.023972899 2:1.771032 3:0 4:0.30000001 5:1.8 6:-0.011652902 7:0.606251 8:1.8161179 9:-0.011214226 10:0.76095843 11:1.8133212 12:-0.19549763 13:0.47950754 14:1.7969424 15:-0.24691805 16:0.23444518 17:1.7728812 18:-0.23301274 19:0.015800208 20:1.6694933 21:-0.21797472 22:-0.048623711 23:1.6271197 24:0.17673224 25:0.48228529 26:1.8210903 27:0.23679748 28:0.18853924 29:1.7946807 30:0.24545981 31:-0.031448334 32:1.6945347 33:0.24941196 34:-0.092817083 35:1.6658787 36:-0.069048032 37:-0.025788009 38:1.7281114 39:-0.077361077 40:-0.42901361 41:1.6762828 42:-0.071940392 43:-0.73543978 44:1.6912371 45:-0.061613083 46:-0.75809765 47:1.5457417 48:0.096236803 49:-0.022004217 50:1.7388893 51:0.10657736 52:-0.40647924 53:1.6901623 54:0.10183978 55:-0.71376789 56:1.698526 57:0.10835567 58:-0.73682809 59:1.552713 60:-0.0088573992 61:0.5319376 62:1.8141371 63:-0.2140184 64:-0.10743017 65:1.5881535 66:-0.17171143 67:-0.042669624 68:1.6429225 69:0.2527346 70:-0.17237762 71:1.6576821 72:0.21265636 73:-0.090820044 74:1.6261472 
0 0 0 10 5.061703920150139 0 0 10 0 0 0 0 0 0:0.012340486 1:-0.023966849 2:1.7710547 3:0 4:0.30000001 5:1.8 6:-0.011668883 7:0.60623848 8:1.8161023 9:-0.011182852 10:0.7609508 11:1.8133876 12:-0.1954211 13:0.47959113 14:1.79672 15:-0.246986 16:0.23465234 17:1.7727156 18:-0.23295233 19:0.01589936 20:1.669589 21:-0.21931282 22:-0.048315883 23:1.6273379 24:0.17684418 25:0.48236471 26:1.8210325 27:0.23705503 28:0.18864363 29:1.7947607 30:0.24569866 31:-0.031392276 32:1.6947281 33:0.25052345 34:-0.092355669 35:1.6655934 36:-0.069011346 37:-0.025782108 38:1.7281404 39:-0.077297434 40:-0.4290826 41:1.6762695 42:-0.072452798 43:-0.73566502 44:1.6897507 45:-0.062063158 46:-0.75830895 47:1.5442643 48:0.096253686 49:-0.02199769 50:1.738904 51:0.10662152 52:-0.40669045 53:1.6901979 54:0.10166802 55:-0.7139622 56:1.698699 57:0.10823669 58:-0.73702246 59:1.5528872 60:-0.008871451 61:0.53192824 62:1.8141241 63:-0.2185902 64:-0.11005783 65:1.5959363 66:-0.1856682 67:-0.077454314 68:1.6411059 69:0.25312066 70:-0.1712015 71:1.656512 72:0.21188354 73:-0.090434298 74:1.6258576 
0 0 0 0 0 0 0 10 0 0 0 0 0 0:0.0081796311 1:-0.02365008 2:1.7739531 3:0 4:0.30000001 5:1.8 6:-0.006984584 7:0.60581827 8:1.8135492 9:-0.0030846745 10:0.75858378 11:1.8107389 12:-0.18832904 13:0.48386785 14:1.798679 15:-0.23982546 16:0.23179969 17:1.7701942 18:-0.23065802 19:0.011318862 20:1.670519 21:-0.21293816 22:-0.050644487 23:1.6313502 24:0.17846958 25:0.47904101 26:1.8209387 27:0.2287771 28:0.18721762 29:1.7944428 30:0.22965068 31:-0.034664065 32:1.6984102 33:0.22757448 34:-0.099268556 35:1.6663512 36:-0.073686883 37:-0.024120331 38:1.7310773 39:-0.085710913 40:-0.42578831 41:1.6810366 42:-0.079801127 43:-0.73200357 44:1.6982185 45:-0.06952706 46:-0.75510633 47:1.5525085 48:0.092344061 49:-0.023079365 50:1.7417432 51:0.099818446 52:-0.40438706 53:1.6960448 54:0.09076196 55:-0.71163082 56:1.7041918 57:0.097282574 58:-0.73510337 59:1.5581814 60:-0.0053788275 61:0.53162634 62:1.8121811 63:-0.21513194 64:-0.11291441 65:1.594987 66:-0.17153816 67:-0.045500666 68:1.6517946 69:0.22466777 70:-0.18362749 71:1.6522599 72:0.19235161 73:-0.096646115 74:1.6304027 
0 0 0 0 0 0 0 10 0 0 0 0 0 0:0.0080142878 1:-0.023694873 2:1.773999 3:0 4:0.30000001 5:1.8 6:-0.0068782344 7:0.60586596 8:1.8135204 9:-0.0031036548 10:0.75843787 11:1.8106642 12:-0.18850422 13:0.48391822 14:1.799047 15:-0.24008971 16:0.23175302 17:1.7704201 18:-0.23073685 19:0.011229128 20:1.6708608 21:-0.21435177 22:-0.049775511 23:1.6288059 24:0.17837146 25:0.47896168 26:1.8207927 27:0.22876039 28:0.18702397 29:1.7941709 30:0.22930184 31:-0.034988284 32:1.6984606 33:0.22668162 34:-0.099006355 35:1.6658204 36:-0.073892422 37:-0.024147093 38:1.731241 39:-0.086102881 40:-0.42598757 41:1.6813869 42:-0.08043731 43:-0.73205841 44:1.6998434 45:-0.070310391 46:-0.75517714 47:1.5541201 48:0.092196643 49:-0.023139358 50:1.7416732 51:0.09941265 52:-0.40376589 53:1.6962738 54:0.091272056 55:-0.71106112 56:1.7041786 57:0.0976215 58:-0.73454738 59:1.5581565 60:-0.0052939579 61:0.53166246 62:1.8121588 63:-0.21264535 64:-0.11407053 65:1.5908518 66:-0.17093495 67:-0.045231253 68:1.6479716 69:0.22423998 70:-0.18473788 71:1.6507311 72:0.1883145 73:-0.096904099 74:1.6348662 
0 0 0 0 0 0 0 4.648834270989238 0 0 0 0 0 0:0.0078874156 1:-0.023715258 2:1.7740128 3:0 4:0.30000001 5:1.8 6:-0.0067814514 7:0.60588688 8:1.8135073 9:-0.0029665343 10:0.75831085 11:1.8103874 12:-0.18849526 13:0.48391277 14:1.7991784 15:-0.24004954 16:0.23177332 17:1.7706194 18:-0.2307477 19:0.01132229 20:1.6708777 21:-0.21461958 22:-0.05130133 23:1.6286955 24:0.1785455 25:0.47878474 26:1.8204103 27:0.22882664 28:0.18699342 29:1.7939723 30:0.2293615 31:-0.035102099 32:1.6984704 33:0.22700334 34:-0.098574281 35:1.6667416 36:-0.074053571 37:-0.024161011 38:1.7314131 39:-0.086257711 40:-0.42614004 41:1.6816046 42:-0.080360323 43:-0.73238742 44:1.6984732 45:-0.070385203 46:-0.75548965 47:1.5527489 48:0.09209609 49:-0.0231677 50:1.741504 51:0.099271894 52:-0.40134981 53:1.6956542 54:0.091801837 55:-0.70862538 56:1.7043417 57:0.097986087 58:-0.73215902 59:1.55829 60:-0.005218789 61:0.53167832 62:1.8121493 63:-0.21257484 64:-0.11202288 65:1.5942295 66:-0.17159548 67:-0.041181535 68:1.6503007 69:0.22477037 70:-0.18414156 71:1.6507919 72:0.19349411 73:-0.09525758 74:1.628063 
0 0 0 0 0 0 0 10 0 0 0 0 0 0:0.0078592263 1:-0.02372694 2:1.7741007 3:0 4:0.30000001 5:1.8 6:-0.0067986585 7:0.60589743 8:1.8134207 9:-0.0028755851 10:0.75825602 11:1.8103179 12:-0.18848015 13:0.48402882 14:1.7994088 15:-0.23987451 16:0.23142093 17:1.7704965 18:-0.23080814 19:0.010863066 20:1.6709918 21:-0.21559855 22:-0.050346822 23:1.6293033 24:0.17861457 25:0.47872669 26:1.820208 27:0.22884838 28:0.18701899 29:1.7936887 30:0.22936942 31:-0.035140276 32:1.6983446 33:0.22634722 34:-0.098754436 35:1.6653727 36:-0.074101418 37:-0.024115384 38:1.7315456 39:-0.086544618 40:-0.42637891 41:1.6818961 42:-0.081533134 43:-0.73272693 44:1.6979245 45:-0.071658507 46:-0.7558279 47:1.5522021 48:0.092076331 49:-0.023239374 50:1.7415525 51:0.09917523 52:-0.40086237 53:1.6957701 54:0.092384182 55:-0.70817679 56:1.7042438 57:0.098427713 58:-0.73172688 59:1.558184 60:-0.0052285641 61:0.53168666 62:1.812085 63:-0.21353495 64:-0.1113607 65:1.5938267 66:-0.17367922 67:-0.052892864 68:1.6512817 69:0.22428103 70:-0.18399245 71:1.6494936 72:0.19036685 73:-0.096624091 74:1.6316074 
0 0 0 5.264769794063293 10 0 0 10 0 0 0 0 0 0:0.0077306405 1:-0.023771256 2:1.7742001 3:0 4:0.30000001 5:1.8 6:-0.0066721626 7:0.60595536 8:1.8133074 9:-0.0028179176 10:0.75820196 11:1.810203 12:-0.18829302 13:0.48394939 14:1.7993373 15:-0.23983343 16:0.23136905 17:1.7705935 18:-0.23089273 19:0.010771722 20:1.6711715 21:-0.21455975 22:-0.051585168 23:1.6288947 24:0.17869239 25:0.47860798 26:1.8198735 27:0.2288375 28:0.18688044 29:1.7932938 30:0.22923851 31:-0.035342723 32:1.6981076 33:0.22691444 34:-0.098980099 35:1.6664985 36:-0.074243933 37:-0.024143845 38:1.7316908 39:-0.086592615 40:-0.4255484 41:1.6820301 42:-0.081709072 43:-0.73189366 44:1.6981906 45:-0.071909651 46:-0.75502479 47:1.5524589 48:0.091954038 49:-0.023299068 50:1.7416135 51:0.098990783 52:-0.40091047 53:1.6959847 54:0.092343815 55:-0.70821977 56:1.704553 57:0.09830831 58:-0.7317847 59:1.5584916 60:-0.0051329136 61:0.53172922 62:1.8120013 63:-0.21257268 64:-0.11259034 65:1.5934833 66:-0.18351582 67:-0.080880135 68:1.6460942 69:0.22426096 70:-0.18424807 71:1.6517259 72:0.19111249 73:-0.094770133 74:1.6308945 
0 0 0 0 0 1.3472422991273 0 10 0 0 0 0 0 0:0.0077557415 1:-0.023753852 2:1.7742369 3:0 4:0.30000001 5:1.8 6:-0.006732583 7:0.6059376 8:1.8132741 9:-0.0026519783 10:0.75819695 11:1.8100748 12:-0.18819526 13:0.48395213 14:1.7994609 15:-0.23972172 16:0.23132572 17:1.7708037 18:-0.23087478 19:0.010775894 20:1.6712594 21:-0.21493858 22:-0.05064854 23:1.630604 24:0.17881581 25:0.47862908 26:1.8195758 27:0.22885555 28:0.18704519 29:1.7929592 30:0.22912052 31:-0.035272181 32:1.6980076 33:0.22739372 34:-0.098658875 35:1.6650867 36:-0.074210308 37:-0.024091005 38:1.731781 39:-0.086527027 40:-0.42585397 41:1.682337 42:-0.0820904 43:-0.73216343 44:1.6988151 45:-0.072414629 46:-0.75529337 47:1.5530782 48:0.091954395 49:-0.023306817 50:1.7416077 51:0.098787516 52:-0.40073571 53:1.6963959 54:0.091970332 55:-0.70803177 56:1.7050853 57:0.097811699 58:-0.73160279 59:1.5590148 60:-0.0051761121 61:0.53171647 62:1.8119769 63:-0.21438694 64:-0.11191168 65:1.5930324 66:-0.17366359 67:-0.048312962 68:1.6525149 69:0.22378844 70:-0.18386292 71:1.6500742 72:0.19290718 73:-0.094368294 74:1.6271107 
0 0 0 0 0 0 0 10 0 0 0 0 0 0:0.0075953417 1:-0.023779541 2:1.7744094 3:0 4:0.30000001 5:1.8 6:-0.0065506808 7:0.60596883 8:1.8130606 9:-0.0025024265 10:0.75790459 11:1.8097311 12:-0.1882787 13:0.48404211 14:1.7995211 15:-0.23966095 16:0.23114413 17:1.7707816 18:-0.23077345 19:0.010596067 20:1.6712343 21:-0.2144706 22:-0.051547557 23:1.6285239 24:0.1788083 25:0.47860473 26:1.8194476 27:0.22883511 28:0.18696064 29:1.7927762 30:0.22906491 31:-0.035403937 32:1.6979424 33:0.22670549 34:-0.098138243 35:1.6651164 36:-0.074383311 37:-0.024096966 38:1.7320403 39:-0.086652778 40:-0.42527407 41:1.6825196 42:-0.082323126 43:-0.73159117 44:1.6990029 45:-0.072699718 46:-0.75475436 47:1.5532643 48:0.091800921 49:-0.023358047 50:1.7416831 51:0.098610051 52:-0.40076324 53:1.6967121 54:0.08992441 55:-0.70807832 56:1.7046508 57:0.095752291 58:-0.73166591 59:1.5585855 60:-0.0050406009 61:0.53174007 62:1.8118199 63:-0.2168487 64:-0.11282136 65:1.5939528 66:-0.1689983 67:-0.055523425 68:1.6393331 69:0.22344646 70:-0.1844784 71:1.6522299 72:0.19278949 73:-0.094843373 74:1.6277517 
0 0 0 0 4.793675512718628 0 0 10 0 0 0 0 0 0:0.0074982531 1:-0.023811519 2:1.7744583 3:0 4:0.30000001 5:1.8 6:-0.00646732 7:0.60600442 8:1.8130149 9:-0.0024881437 10:0.75788498 11:1.8095671 12:-0.1882529 13:0.48417771 14:1.7995845 15:-0.23949999 16:0.23098254 17:1.7706667 18:-0.23083454 19:0.010388821 20:1.6712102 21:-0.21440285 22:-0.051395088 23:1.630628 24:0.17883028 25:0.47858214 26:1.8192819 27:0.22879598 28:0.18708736 29:1.7923783 30:0.2290692 31:-0.03534919 32:1.6977245 33:0.22655129 34:-0.098402351 35:1.6651982 36:-0.074434109 37:-0.024127841 38:1.7320381 39:-0.086858265 40:-0.42531466 41:1.6827205 42:-0.082795136 43:-0.73144329 44:1.7008911 45:-0.073228396 46:-0.75463074 47:1.5551418 48:0.091660351 49:-0.023385912 50:1.7417873 51:0.098433524 52:-0.40096763 53:1.6969241 54:0.089570463 55:-0.70826483 56:1.7049965 57:0.095341697 58:-0.7318573 59:1.5589291 60:-0.0049764775 61:0.53176671 62:1.8117851 63:-0.21676412 64:-0.11339763 65:1.5946349 66:-0.17181996 67:-0.053546518 68:1.6495055 69:0.22325763 70:-0.18382566 71:1.6500319 72:0.19186294 73:-0.094999447 74:1.6280075 
0 0 0 0 0 0 0 10 0 0 0 0 0 0:0.0074489377 1:-0.023825318 2:1.7744555 3:0 4:0.30000001 5:1.8 6:-0.0064538568 7:0.60601234 8:1.81303 9:-0.0023530014 10:0.75757146 11:1.8091574 12:-0.18821473 13:0.48429283 14:1.7996943 15:-0.23870662 16:0.2305927 17:1.769979 18:-0.23042443 19:0.009691745 20:1.6712334 21:-0.21335331 22:-0.052451938 23:1.6310525 24:0.17882383 25:0.47852823 26:1.8191564 27:0.22869702 28:0.18719241 29:1.7922721 30:0.22903106 31:-0.035270929 32:1.6976833 33:0.2261366 34:-0.098746479 35:1.665545 36:-0.074503779 37:-0.024148971 38:1.7321391 39:-0.08703889 40:-0.42545688 41:1.6830239 42:-0.083476588 43:-0.73162377 44:1.7008762 45:-0.07395944 46:-0.75480485 47:1.5551248 48:0.091620877 49:-0.023383379 50:1.7416816 51:0.098490424 52:-0.4003979 53:1.6971231 54:0.089369416 55:-0.70763969 56:1.7058597 57:0.095080078 58:-0.73124754 59:1.5597792 60:-0.0049636588 61:0.53177333 62:1.8117952 63:-0.21482536 64:-0.11398974 65:1.592957 66:-0.17141375 67:-0.05142206 68:1.6493268 69:0.22280304 70:-0.18424991 71:1.6509824 72:0.19160575 73:-0.093899727 74:1.6290953 
0 0 0 0 10 0 0 10 0 0 0 0 0 0:0.0073816292 1:-0.023892432 2:1.774469 3:0 4:0.30000001 5:1.8 6:-0.0064086393 7:0.60608178 8:1.8130199 9:-0.002433721 10:0.75748605 11:1.8090788 12:-0.18819427 13:0.48427832 14:1.7996622 15:-0.23895422 16:0.23063743 17:1.7701713 18:-0.23052087 19:0.0098182261 20:1.6712371 21:-0.21411234 22:-0.051625192 23:1.6308221 24:0.17871416 25:0.47843367 26:1.8189672 27:0.22856319 28:0.18712008 29:1.7920882 30:0.22879997 31:-0.035349131 32:1.6975113 33:0.22615764 34:-0.098469347 35:1.6643182 36:-0.074581258 37:-0.024214298 38:1.7322117 39:-0.087344266 40:-0.42649099 41:1.6830159 42:-0.085398637 43:-0.73268217 44:1.7005981 45:-0.075885989 46:-0.75584537 47:1.5548574 48:0.091551647 49:-0.023446172 50:1.7416373 51:0.097979531 52:-0.40148005 53:1.6971041 54:0.089173041 55:-0.70868361 56:1.7062467 57:0.094841719 58:-0.73227781 59:1.5601712 60:-0.004927922 61:0.53182548 62:1.8117872 63:-0.21508184 64:-0.11297473 65:1.5964345 66:-0.17629665 67:-0.081961036 68:1.64298 69:0.22334167 70:-0.18364038 71:1.6529661 72:0.19126558 73:-0.092500865 74:1.6302968 
-10 0 2.415134047682508 10 4.108157855011549 0 10 10 2.821355325371995 10 10 10 5.414556650652679 0:0.014454998 1:-0.021677643 2:1.7768538 3:0 4:0.30000001 5:1.8 6:-0.012850881 7:0.60389924 8:1.8099298 9:-0.0026544556 10:0.75048786 11:1.8021362 12:-0.18602364 13:0.48056859 14:1.776017 15:-0.23424493 16:0.22007847 17:1.7244303 18:-0.22019483 19:0.012695134 20:1.6211767 21:-0.20561622 22:-0.044493914 23:1.5633972 24:0.17819995 25:0.47794974 26:1.83671 27:0.22944108 28:0.19911945 29:1.8825753 30:0.25185704 31:-0.024061561 32:1.835479 33:0.27535433 34:-0.093076676 35:1.8260181 36:-0.065693781 37:-0.02236408 38:1.7266383 39:-0.075310528 40:-0.41707096 41:1.6723437 42:-0.072586954 43:-0.76633018 44:1.6789467 45:-0.064995959 46:-0.85049564 47:1.5765111 48:0.098834567 49:-0.020734191 50:1.7519534 51:0.10432804 52:-0.41161996 53:1.6997492 54:0.097138494 55:-0.76065713 56:1.7090123 57:0.1410422 58:-0.85204816 59:1.6373594 60:-0.0098070353 61:0.53020555 62:1.809567 63:-0.19702618 64:-0.10161637 65:1.5205605 66:-0.22307239 67:-0.039117098 68:1.5289524 69:0.29658985 70:-0.18234205 71:1.8171728 72:0.25534391 73:-0.11671513 74:1.763119 
-10 0 0 10 0 0 2.498766509498228 6.560667987921669 0 10 10 0 0 0:0.014477536 1:-0.021657109 2:1.7771027 3:0 4:0.30000001 5:1.8 6:-0.012923829 7:0.6038385 8:1.8095067 9:-0.0023391619 10:0.75020087 11:1.8017411 12:-0.18562195 13:0.48048729 14:1.7728107 15:-0.23473012 16:0.22069252 17:1.7232034 18:-0.22011891 19:0.013551652 20:1.6194825 21:-0.20535353 22:-0.044221729 23:1.5615702 24:0.17765528 25:0.47880846 26:1.838882 27:0.22834134 28:0.19993567 29:1.8974879 30:0.25589395 31:-0.024961114 32:1.8709431 33:0.28427696 34:-0.10052417 35:1.8668365 36:-0.065487877 37:-0.022173464 38:1.7263973 39:-0.075369984 40:-0.41718274 41:1.6725245 42:-0.072924241 43:-0.76644111 44:1.679213 45:-0.045002848 46:-0.79713023 47:1.5124359 48:0.098763019 49:-0.020715505 50:1.7524641 51:0.10439137 52:-0.41090316 53:1.7000525 54:0.097203352 55:-0.75998569 56:1.7089279 57:0.13045543 58:-0.85632879 59:1.6408448 60:-0.0098578855 61:0.53016979 62:1.8092558 63:-0.19866142 64:-0.10253166 65:1.5219884 66:-0.24046534 67:-0.055395633 68:1.5376337 69:0.300403 70:-0.19031084 71:1.8675709 72:0.27827978 73:-0.12968074 74:1.8233447 
-0 0 0 10 0 0 0 0 0 10 10 10 10 0:0.014599077 1:-0.02171427 2:1.7774198 3:0 4:0.30000001 5:1.8 6:-0.013187632 7:0.60387421 8:1.809056 9:-0.0019465312 10:0.74995267 11:1.8014183 12:-0.18546087 13:0.48057398 14:1.7704818 15:-0.23529375 16:0.22110876 17:1.7219431 18:-0.2194432 19:0.013780415 20:1.6187873 21:-0.20499569 22:-0.046293408 23:1.5618351 24:0.17688508 25:0.47946861 26:1.8412287 27:0.22820988 28:0.20088938 29:1.9158456 30:0.25951385 31:-0.023821771 32:1.896775 33:0.29179111 34:-0.098046005 35:1.9066281 36:-0.065123759 37:-0.021985769 38:1.7258935 39:-0.075467072 40:-0.41668144 41:1.6725402 42:-0.073073186 43:-0.76593506 44:1.6794913 45:-0.043501593 46:-0.79668677 47:1.5130343 48:0.09876094 49:-0.020778716 50:1.7531521 51:0.10462154 52:-0.40853769 53:1.700063 54:0.097196937 55:-0.75768363 56:1.7085345 57:0.12296329 58:-0.78876054 59:1.5417149 60:-0.010048054 61:0.53020287 62:1.8089168 63:-0.20091364 64:-0.10751867 65:1.5216696 66:-0.24311629 67:-0.053923309 68:1.5472281 69:0.31250665 70:-0.18229176 71:1.9088852 72:0.23524719 73:-0.067625493 74:1.9008591 
-0 3.019780211786664 0 0 0 0 0 0 0 0 0 0 0 0:0.03203091 1:-0.020313084 2:1.7978027 3:0 4:0.30000001 5:1.8 6:-0.0326083 7:0.6006633 8:1.7855451 9:-0.0048588663 10:0.73549795 11:1.7792935 12:-0.17856894 13:0.47253999 14:1.730063 15:-0.22814064 16:0.21112844 17:1.7060909 18:-0.1965964 19:-0.0016216338 20:1.6198678 21:-0.18435033 22:-0.075342149 23:1.5724998 24:0.13562429 25:0.52249861 26:1.873672 27:0.24108504 28:0.35601631 29:2.0923247 30:0.39197421 31:0.27766642 32:2.2262754 33:0.47314519 34:0.26592276 35:2.291801 36:-0.043518007 37:-0.022404581 38:1.7369828 39:-0.052843988 40:-0.42631823 41:1.6923561 42:-0.058894157 43:-0.77519155 44:1.7019839 45:-0.02596271 46:-0.85680342 47:1.6021736 48:0.11009118 49:-0.016666949 50:1.7830043 51:0.12173483 52:-0.39846802 53:1.7279038 54:0.11979958 55:-0.74834168 56:1.7285938 57:0.1726595 58:-0.78188097 59:1.5708561 60:-0.024734333 61:0.52788651 62:1.7913249 63:-0.17410479 64:-0.1456027 65:1.5248194 66:-0.2260551 67:-0.094310388 68:1.566834 69:0.52917534 70:0.23441568 71:2.3525867 72:0.40703905 73:0.25268099 74:2.2719417 
-0 10 0 0 0 0 0 0 0 0 0 0 0 0:0.033927873 1:-0.019837826 2:1.7995322 3:0 4:0.30000001 5:1.8 6:-0.033679485 7:0.60031366 8:1.7841296 9:-0.0060053989 10:0.73442417 11:1.7769835 12:-0.17823547 13:0.47214037 14:1.7285781 15:-0.22647184 16:0.20958632 17:1.7061076 18:-0.19461048 19:-0.0033098757 20:1.6204188 21:-0.18319985 22:-0.077928603 23:1.5727625 24:0.13886434 25:0.52200305 26:1.8751845 27:0.25262827 28:0.3716203 29:2.0999265 30:0.41367379 31:0.3089934 32:2.2302237 33:0.49555057 34:0.30592102 35:2.2879655 36:-0.04131642 37:-0.022101283 38:1.7383471 39:-0.049825758 40:-0.4268482 41:1.6944962 42:-0.056550607 43:-0.77571011 44:1.7039349 45:-0.017473549 46:-0.86899632 47:1.6302958 48:0.11173564 49:-0.016237289 50:1.7852592 51:0.12410013 52:-0.39824393 53:1.7300735 54:0.12208109 55:-0.74811786 56:1.7307305 57:0.17552987 58:-0.78178394 59:1.5732894 60:-0.025583997 61:0.5276131 62:1.7902298 63:-0.17294076 64:-0.1478588 65:1.5284362 66:-0.22288254 67:-0.095671713 68:1.5602899 69:0.56133008 70:0.28084153 71:2.3520019 72:0.42760476 73:0.28931415 74:2.2651567 
-0 10 0 0 0 0 0 0 0 0 0 0 0 0:0.035013996 1:-0.019038856 2:1.8013148 3:0 4:0.30000001 5:1.8 6:-0.034505129 7:0.59956956 8:1.7824693 9:-0.0071594566 10:0.73298824 11:1.7751431 12:-0.17826925 13:0.47098544 14:1.7270288 15:-0.22507323 16:0.20768723 17:1.7058797 18:-0.19311549 19:-0.00552091 20:1.6211076 21:-0.18209295 22:-0.079926431 23:1.5757337 24:0.13708717 25:0.52619064 26:1.8769226 27:0.26441646 28:0.39184937 29:2.1037688 30:0.43196362 31:0.33787271 32:2.2298899 33:0.51962203 34:0.34611043 35:2.2835188 36:-0.039330378 37:-0.021861821 38:1.7396193 39:-0.046963334 40:-0.42690486 41:1.6960208 42:-0.054102719 43:-0.77578807 44:1.7050519 45:-0.01294817 46:-0.86574543 47:1.6249714 48:0.11210071 49:-0.015176207 50:1.7877667 51:0.12634152 52:-0.39805683 53:1.7321696 54:0.12524657 55:-0.74795067 56:1.7325544 57:0.17977123 58:-0.781793 59:1.5756524 60:-0.026215613 61:0.52706981 62:1.7890024 63:-0.17064072 64:-0.14790446 65:1.5287118 66:-0.22031654 67:-0.091640174 68:1.5637443 69:0.57970995 70:0.32479057 71:2.3461192 72:0.4325338 73:0.32526097 74:2.2428403 
-10 0 10 10 10 5.332572745374501 10 10 2.911383493250303 10 10 0.8627692182725171 0 0:0.01392588 1:-0.022456169 2:1.777107 3:0 4:0.30000001 5:1.8 6:-0.01193396 7:0.60441363 8:1.8096163 9:-0.002074033 10:0.74910599 11:1.8047576 12:-0.18837951 13:0.48242199 14:1.7790878 15:-0.23413639 16:0.22095823 17:1.7352519 18:-0.22095267 19:0.0096684694 20:1.6408472 21:-0.20612548 22:-0.056611389 23:1.5942137 24:0.17784201 25:0.47472245 26:1.8288252 27:0.24276306 28:0.19726741 29:1.8708715 30:0.27151799 31:-0.024580032 32:1.8202012 33:0.30331361 34:-0.097074226 35:1.8047223 36:-0.066325754 37:-0.02336359 38:1.7285955 39:-0.076555371 40:-0.4167971 41:1.6744401 42:-0.078346983 43:-0.76624095 44:1.6877301 45:-0.059919804 46:-0.85988045 47:1.599107 48:0.098203823 49:-0.021641582 50:1.7512801 51:0.10378184 52:-0.41078699 53:1.7024903 54:0.094740674 55:-0.76013219 56:1.7164671 57:0.13730419 58:-0.85709041 59:1.6544688 60:-0.0090920925 61:0.53061569 62:1.809423 63:-0.20084108 64:-0.11830416 65:1.5562727 66:-0.24373148 67:-0.062474489 68:1.5781856 69:0.32710367 70:-0.18143414 71:1.7931907 72:0.25659543 73:-0.066069484 74:1.8380759 
-10 0 0 10 3.163782204870543 0 0 6.95623383516708 0 10 1.226773244805691 0 0 0:0.014052927 1:-0.02243036 2:1.7773926 3:0 4:0.30000001 5:1.8 6:-0.012135588 7:0.60450351 8:1.8089974 9:-0.0016635433 10:0.74889123 11:1.8040681 12:-0.18793717 13:0.48269251 14:1.7764401 15:-0.23469916 16:0.22103456 17:1.7331545 18:-0.22056919 19:0.0095615983 20:1.6393147 21:-0.20470181 22:-0.055234909 23:1.5934389 24:0.17771144 25:0.47500286 26:1.8313105 27:0.24334165 28:0.19727728 29:1.8874116 30:0.27706867 31:-0.026223809 32:1.8542433 33:0.31406119 34:-0.098303169 35:1.8388181 36:-0.066184014 37:-0.023292691 38:1.7285433 39:-0.076543152 40:-0.41675416 41:1.6745121 42:-0.078376785 43:-0.76621425 44:1.6876633 45:-0.046119466 46:-0.86401653 47:1.6150494 48:0.098335914 49:-0.021642059 50:1.7521145 51:0.10380302 52:-0.41073656 53:1.7027104 54:0.093283743 55:-0.76002824 56:1.7168796 57:0.13799888 58:-0.85617542 59:1.6549037 60:-0.0092208236 61:0.53068674 62:1.808985 63:-0.19797933 64:-0.12144378 65:1.553005 66:-0.24006715 67:-0.061825931 68:1.5695798 69:0.33739746 70:-0.18164089 71:1.8258989 72:0.34524241 73:-0.088760227 74:1.8263118 
-0 0 0 10 0 0 0 0 0 0.4205062205062205 0 0 0 0:0.014140718 1:-0.022471726 2:1.777711 3:0 4:0.30000001 5:1.8 6:-0.012369387 7:0.60461903 8:1.8081623 9:-0.0014402345 10:0.74875081 11:1.8033718 12:-0.18724528 13:0.48236319 14:1.7737592 15:-0.23548639 16:0.22108743 17:1.7303661 18:-0.22022477 19:0.0090526044 20:1.6380776 21:-0.20445403 22:-0.055962116 23:1.5908023 24:0.17710176 25:0.47547594 26:1.8342112 27:0.24385607 28:0.19707772 29:1.9065679 30:0.28412724 31:-0.026059031 32:1.8849453 33:0.32588685 34:-0.1064118 35:1.8831128 36:-0.06596823 37:-0.023290932 38:1.7285239 39:-0.07667689 40:-0.41569161 41:1.6743525 42:-0.078397036 43:-0.76521313 44:1.6870204 45:-0.047766656 46:-0.86249316 47:1.6118256 48:0.098355047 49:-0.021739215 50:1.7528485 51:0.1037365 52:-0.41079214 53:1.7029885 54:0.090828814 55:-0.75990188 56:1.7182893 57:0.13822961 58:-0.85480726 59:1.6556643 60:-0.0093770996 61:0.53077209 62:1.808374 63:-0.19544089 64:-0.12300213 65:1.5525726 66:-0.2371884 67:-0.059143752 68:1.5668672 69:0.34402111 70:-0.18939607 71:1.8810693 72:0.35719854 73:-0.10221806 74:1.858436 
-0 0 0 10 0 0 0 0 0 0 0 0 0 0:0.014276884 1:-0.022564352 2:1.7780561 3:0 4:0.30000001 5:1.8 6:-0.012909293 7:0.60484016 8:1.8073153 9:-0.00089942664 10:0.74843729 11:1.802429 12:-0.18669155 13:0.48236349 14:1.7712138 15:-0.23606604 16:0.22159359 17:1.7284954 18:-0.2194981 19:0.0097182095 20:1.6360021 21:-0.20245004 22:-0.054788798 23:1.5916984 24:0.17678669 25:0.47558734 26:1.8372591 27:0.24380535 28:0.19484112 29:1.9266527 30:0.29367331 31:-0.026073456 32:1.9266202 33:0.33549815 34:-0.10430703 35:1.9279001 36:-0.065616645 37:-0.023354292 38:1.7284691 39:-0.076389603 40:-0.4179886 41:1.674618 42:-0.078452326 43:-0.76745689 44:1.6875579 45:-0.051818572 46:-0.86538124 47:1.611866 48:0.098400548 49:-0.021849811 50:1.7535203 51:0.10372923 52:-0.40966657 53:1.7036006 54:0.091843091 55:-0.75893795 56:1.7177532 57:0.13634317 58:-0.85565197 59:1.6575468 60:-0.0097644329 61:0.53093648 62:1.8077309 63:-0.19563255 64:-0.12036164 65:1.5510056 66:-0.23943031 67:-0.054801106 68:1.569432 69:0.353396 70:-0.18172178 71:1.923816 72:0.36834851 73:-0.099318698 74:1.9087844 
-0 10 0 0 0 0 0 0 0 0 0 0 0 0:0.025585495 1:-0.021322757 2:1.7921953 3:0 4:0.30000001 5:1.8 6:-0.026202172 7:0.60185075 8:1.7921638 9:-0.0018791184 10:0.73813981 11:1.7879791 12:-0.17953582 13:0.47641474 14:1.7406752 15:-0.23783247 16:0.21717471 17:1.7139106 18:-0.2055807 19:0.0028340518 20:1.6324029 21:-0.19370611 22:-0.070765197 23:1.5923519 24:0.15218009 25:0.50445735 26:1.8836002 27:0.27826434 28:0.35317427 29:2.1013618 30:0.43589538 31:0.29683489 32:2.2373176 33:0.51509792 34:0.27744281 35:2.3062658 36:-0.050757736 37:-0.022352308 38:1.7313976 39:-0.062867612 40:-0.41986364 41:1.6888742 42:-0.066418082 43:-0.7690717 44:1.7042913 45:-0.034532323 46:-0.86653483 47:1.6305556 48:0.10427984 49:-0.019216508 50:1.7762206 51:0.11492829 52:-0.39877376 53:1.723362 54:0.10875033 55:-0.74886614 56:1.7311306 57:0.16077551 58:-0.78264725 59:1.5705895 60:-0.019870326 61:0.52879226 62:1.7962608 63:-0.18202029 64:-0.13900197 65:1.5537786 66:-0.20781086 67:-0.07229811 68:1.5516942 69:0.57366377 70:0.24605042 71:2.3592792 72:0.52970266 73:0.29075265 74:2.2521904 
-0 10 0 0 0 0 0 0 0 0 0 0 0 0:0.027180277 1:-0.021087199 2:1.7936651 3:0 4:0.30000001 5:1.8 6:-0.027622782 7:0.60148013 8:1.7904681 9:-0.0036276057 10:0.7369566 11:1.7859095 12:-0.17975625 13:0.47550228 14:1.7383627 15:-0.23695704 16:0.21556905 17:1.7132763 18:-0.20431554 19:0.00092428923 20:1.6328362 21:-0.19118637 22:-0.073651701 23:1.5926071 24:0.1521371 25:0.50668156 26:1.8867961 27:0.2914682 28:0.37027028 29:2.1056232 30:0.45570987 31:0.32127216 32:2.2367892 33:0.54014587 34:0.31843653 35:2.299417 36:-0.048713125 37:-0.022399455 38:1.7326845 39:-0.059857108 40:-0.42146286 41:1.6907288 42:-0.06471733 43:-0.77066576 44:1.7057728 45:-0.02796901 46:-0.86772585 47:1.6347026 48:0.10529992 49:-0.018821001 50:1.7782739 51:0.11699124 52:-0.39796016 53:1.7253398 54:0.11127632 55:-0.74811912 56:1.7324709 57:0.16485751 58:-0.78205824 59:1.5726303 60:-0.020956881 61:0.52851892 62:1.7949933 63:-0.18083575 64:-0.14459249 65:1.5525316 66:-0.22784498 67:-0.078567356 68:1.574514 69:0.60783404 70:0.29192176 71:2.3546906 72:0.55528247 73:0.33054522 74:2.2438965 
-5.828870720046638 0 0 10 0 0 0 0 0 10 0 0 0 0:0.015759431 1:-0.021540791 2:1.7788943 3:0 4:0.30000001 5:1.8 6:-0.014527947 7:0.60348618 8:1.807125 9:-0.0032168254 10:0.74928105 11:1.8008724 12:-0.19669423 13:0.47966534 14:1.7714165 15:-0.23795211 16:0.2263515 17:1.7404777 18:-0.22653309 19:0.013379067 20:1.6492449 21:-0.21282902 22:-0.056031853 23:1.604122 24:0.17718619 25:0.47750759 26:1.8303226 27:0.24409664 28:0.18687463 29:1.904786 30:0.2799589 31:-0.036993951 32:1.8775481 33:0.31788346 34:-0.10500598 35:1.880896 36:-0.064024307 37:-0.023189217 38:1.7291549 39:-0.069020398 40:-0.42536539 41:1.6755322 42:-0.068107851 43:-0.77570653 44:1.6805278 45:-0.046865933 46:-0.86956096 47:1.5839425 48:0.099728793 49:-0.020317823 50:1.7537068 51:0.10795407 52:-0.41300544 53:1.7003957 54:0.10833408 55:-0.76324922 56:1.7086817 57:0.13847703 58:-0.86498421 59:1.6336921 60:-0.01107882 61:0.52989572 62:1.8074912 63:-0.20985425 64:-0.12322944 65:1.5649923 66:-0.24956065 67:-0.053913802 68:1.5845817 69:0.33371231 70:-0.18694985 71:1.8909754 72:0.30161619 73:-0.12175076 74:1.8154825 
-0 0 0 10 0 0 0 0 0 0 0 0 0 0:0.015924744 1:-0.021466196 2:1.7795229 3:0 4:0.30000001 5:1.8 6:-0.014692739 7:0.6034143 8:1.8064618 9:-0.0025126189 10:0.74894893 11:1.8002706 12:-0.19430636 13:0.48049137 14:1.7702494 15:-0.23799916 16:0.22677067 17:1.738462 18:-0.22592799 19:0.013399839 20:1.648313 21:-0.21152849 22:-0.055713534 23:1.6022913 24:0.17735255 25:0.47730324 26:1.8295259 27:0.24294807 28:0.19064054 29:1.9178181 30:0.28762898 31:-0.032087892 32:1.907958 33:0.32565922 34:-0.10435136 35:1.9184403 36:-0.063952953 37:-0.023027241 38:1.7287664 39:-0.068894222 40:-0.42505804 41:1.6761541 42:-0.068000227 43:-0.77540231 44:1.6811376 45:-0.047202379 46:-0.8668561 47:1.580451 48:0.099867046 49:-0.02029562 50:1.7545695 51:0.10800864 52:-0.41177288 53:1.7014947 54:0.10733758 55:-0.762061 56:1.7093678 57:0.13567525 58:-0.86458361 59:1.6352599 60:-0.011208363 61:0.52984416 62:1.8069758 63:-0.20986269 64:-0.12412924 65:1.566323 66:-0.24713548 67:-0.056162745 68:1.5810022 69:0.34092969 70:-0.18447718 71:1.9259019 72:0.35207212 73:-0.08227405 74:1.8945408 
-0 0 0 6.559377986555439 0 0 0 0 0 0 0 0 0 0:0.016194716 1:-0.02148667 2:1.7803301 3:0 4:0.30000001 5:1.8 6:-0.015201323 7:0.60363859 8:1.8053585 9:-0.001614213 10:0.74848038 11:1.7994484 12:-0.19198981 13:0.48051882 14:1.7683018 15:-0.23806807 16:0.22688138 17:1.7373973 18:-0.22514749 19:0.013461411 20:1.6474713 21:-0.20964265 22:-0.055303395 23:1.6019393 24:0.17741361 25:0.47703218 26:1.8293644 27:0.24182695 28:0.19599253 29:1.9318238 30:0.29024413 31:-0.025307983 32:1.9361249 33:0.32998303 34:-0.096530348 35:1.9512564 36:-0.063605845 37:-0.023061454 38:1.7284817 39:-0.068720117 40:-0.42634121 41:1.676488 42:-0.067195728 43:-0.77665567 44:1.6816882 45:-0.047148287 46:-0.86596692 47:1.5775887 48:0.10010973 49:-0.020466059 50:1.7558044 51:0.10820159 52:-0.41202727 53:1.7023317 54:0.10735361 55:-0.7623207 56:1.7100698 57:0.13878664 58:-0.86380875 59:1.6352817 60:-0.01157824 61:0.53000194 62:1.8061539 63:-0.2032876 64:-0.12248024 65:1.5611497 66:-0.24424586 67:-0.072826058 68:1.5776254 69:0.34678879 70:-0.17600368 71:1.9581474 72:0.3549147 73:-0.074600369 74:1.9243389 
-0 10 0 0 0 0 0 0 0 0 0 0 0 0:0.026634045 1:-0.020690501 2:1.7950375 3:0 4:0.30000001 5:1.8 6:-0.027051881 7:0.60197508 8:1.7903037 9:-0.0010533184 10:0.7376256 11:1.7845893 12:-0.17727852 13:0.47614726 14:1.7388623 15:-0.23633516 16:0.21344653 17:1.7175884 18:-0.20918554 19:-0.0029528439 20:1.6394298 21:-0.19546711 22:-0.074085057 23:1.5967391 24:0.14764889 25:0.50984299 26:1.8791101 27:0.26454073 28:0.36564007 29:2.106117 30:0.41541517 31:0.31126592 32:2.2501779 33:0.49179429 34:0.29490158 35:2.3256204 36:-0.049961954 37:-0.022064805 38:1.733536 39:-0.05458644 40:-0.42183635 41:1.6906071 42:-0.058554441 43:-0.77172923 44:1.7011569 45:-0.029250324 46:-0.85906935 47:1.5963843 48:0.10696939 49:-0.01898092 50:1.7781568 51:0.12044234 52:-0.39844525 53:1.7225459 54:0.1197157 55:-0.74914372 56:1.7263124 57:0.17343222 58:-0.78508615 59:1.5611093 60:-0.020503521 61:0.52884245 62:1.7948186 63:-0.18558034 64:-0.14136073 65:1.559293 66:-0.23340711 67:-0.083607242 68:1.5839698 69:0.5471859 70:0.26507351 71:2.385519 72:0.50812936 73:0.31069162 74:2.2707469 
-0 10 0 0 0 0 0 0 0 0 0 0 0 0:0.028122045 1:-0.020479649 2:1.7963794 3:0 4:0.30000001 5:1.8 6:-0.028479092 7:0.60139197 8:1.7887224 9:-0.0021606907 10:0.73660189 11:1.7836164 12:-0.17701724 13:0.47547102 14:1.7367946 15:-0.23503307 16:0.21225274 17:1.7166384 18:-0.20734757 19:-0.0042910874 20:1.6391233 21:-0.19326729 22:-0.074555933 23:1.5959643 24:0.14499177 25:0.51336801 26:1.8847097 27:0.27526665 28:0.38555282 29:2.1134758 30:0.4350628 31:0.34635228 32:2.2528434 33:0.51484334 34:0.34557146 35:2.321084 36:-0.048045777 37:-0.022008479 38:1.7346617 39:-0.052261584 40:-0.4225947 41:1.6923178 42:-0.056952529 43:-0.77251124 44:1.7023209 45:-0.025378831 46:-0.85886979 47:1.5970088 48:0.10742193 49:-0.018336117 50:1.7802895 51:0.12214189 52:-0.39847994 53:1.724209 54:0.12186909 55:-0.74918443 56:1.7279052 57:0.17833734 58:-0.78526193 59:1.5639161 60:-0.021589853 61:0.52842796 62:1.7936455 63:-0.18493727 64:-0.14713874 65:1.5584453 66:-0.2289305 67:-0.083795369 68:1.575188 69:0.57752997 70:0.32356089 71:2.3826451 72:0.52168202 73:0.36443037 74:2.2576313 
-0 10 0 0 0 0 0 0 0 0 0 1.671441688302156 0.9366441646401362 0:0.02926749 1:-0.020232648 2:1.7974594 3:0 4:0.30000001 5:1.8 6:-0.029578954 7:0.600878 8:1.7874351 9:-0.0032302067 10:0.73577905 11:1.782599 12:-0.1776177 13:0.47483581 14:1.7345171 15:-0.23416412 16:0.21031719 17:1.7148929 18:-0.20565897 19:-0.006264627 20:1.6378121 21:-0.1931971 22:-0.076543331 23:1.5947919 24:0.14334485 25:0.51692498 26:1.8895605 27:0.29042271 28:0.41237962 29:2.1190417 30:0.46225077 31:0.39412069 32:2.2484732 33:0.54217643 34:0.39719254 35:2.3148708 36:-0.046420991 37:-0.021755397 38:1.7352669 39:-0.050409079 40:-0.4247452 41:1.6939535 42:-0.055904463 43:-0.77465725 44:1.7034845 45:-0.019491866 46:-0.87200534 47:1.6199312 48:0.10764836 49:-0.01776737 50:1.7824073 51:0.1233925 52:-0.39809948 53:1.7258701 54:0.12380972 55:-0.74884188 56:1.7290311 57:0.18253836 58:-0.78503364 59:1.5660911 60:-0.022431925 61:0.52805686 62:1.7926853 63:-0.18602169 64:-0.14859262 65:1.5589569 66:-0.22812405 67:-0.081805855 68:1.5825224 69:0.60449392 70:0.38114631 71:2.3771362 72:0.57641518 73:0.40730584 74:2.2956021 
-0 -10 0 0 0 0 0 0 0 0 0 0 0 0:0.036098279 1:-0.018268228 2:1.8030158 3:0 4:0.30000001 5:1.8 6:-0.03528481 7:0.59882438 8:1.7808512 9:-0.0088246837 10:0.73158443 11:1.7728566 12:-0.17845783 13:0.47015378 14:1.7254442 15:-0.22393882 16:0.20579192 17:1.7057439 18:-0.19168112 19:-0.0077102482 20:1.6219364 21:-0.18212384 22:-0.081880882 23:1.5765189 24:0.13850793 25:0.52692127 26:1.8785127 27:0.27837467 28:0.40836498 29:2.1060963 30:0.46027362 31:0.38111499 32:2.2208629 33:0.54183358 34:0.38889506 35:2.2695851 36:-0.037680455 37:-0.021436036 38:1.740898 39:-0.044441409 40:-0.42450437 41:1.6974982 42:-0.051444538 43:-0.77346098 44:1.7059876 45:-0.013141505 46:-0.86625123 47:1.6303037 48:0.11290938 49:-0.014329612 50:1.7899314 51:0.12831923 52:-0.3972846 53:1.7344526 54:0.12837642 55:-0.74719274 56:1.7347041 57:0.18362108 58:-0.781214 59:1.5781862 60:-0.026819564 61:0.52651763 62:1.7877947 63:-0.1695489 64:-0.15166077 65:1.5299162 66:-0.19315442 67:-0.088454634 68:1.5300988 69:0.60561067 70:0.37189856 71:2.332849 72:0.53297728 73:0.36940929 74:2.3009777 
-0 -10 0 0 0 0 0 0 0 0 0 0 0 0:0.036922142 1:-0.017529219 2:1.8044955 3:0 4:0.30000001 5:1.8 6:-0.036154673 7:0.59820938 8:1.7795109 9:-0.0098523945 10:0.73074341 11:1.7710401 12:-0.17852759 13:0.46930966 14:1.7241868 15:-0.22289231 16:0.20484325 17:1.7058998 18:-0.19137102 19:-0.0089958012 20:1.6227661 21:-0.18207759 22:-0.083984062 23:1.5771409 24:0.13971166 25:0.52820408 26:1.8811656 27:0.29242137 28:0.42418572 29:2.1072159 30:0.48314181 31:0.42133519 32:2.2108173 33:0.56418729 34:0.43244895 35:2.2556257 36:-0.036146745 37:-0.021157652 38:1.7418045 39:-0.042059526 40:-0.42466572 41:1.698505 42:-0.05001615 43:-0.77360368 44:1.7068797 45:-0.0058596581 46:-0.8595835 47:1.6207668 48:0.11314357 49:-0.013335019 50:1.7921289 51:0.12981932 52:-0.39667168 53:1.7360512 54:0.13058949 55:-0.74661422 56:1.7357439 57:0.18679185 58:-0.78077722 59:1.5797089 60:-0.027475372 61:0.52606261 62:1.7867986 63:-0.16901532 64:-0.15268789 65:1.530521 66:-0.21975103 67:-0.10954542 68:1.561546 69:0.63607991 70:0.42212752 71:2.3153725 72:0.48204497 73:0.39631495 74:2.2339149 
-0 -10 0 0 0 0 0 0 0 0 0 0 0 0:0.037651762 1:-0.016770601 2:1.8058046 3:0 4:0.30000001 5:1.8 6:-0.036781669 7:0.59758067 8:1.7784795 9:-0.011646062 10:0.7296741 11:1.7687567 12:-0.17923117 13:0.46875688 14:1.7229911 15:-0.22272775 16:0.20321134 17:1.7054118 18:-0.19058567 19:-0.010950118 20:1.6234773 21:-0.18149436 22:-0.08647576 23:1.5772053 24:0.14201564 25:0.52848756 26:1.8849667 27:0.30780286 28:0.44747058 29:2.1012297 30:0.5019269 31:0.45283064 32:2.1986365 33:0.58459747 34:0.47291097 35:2.2371254 36:-0.034855142 37:-0.020686746 38:1.7426475 39:-0.040287808 40:-0.42316261 41:1.6994196 42:-0.047561973 43:-0.77214241 44:1.7077316 45:-0.00096774101 46:-0.85985518 47:1.6270932 48:0.11351544 49:-0.012552828 50:1.7938861 51:0.13119633 52:-0.39660767 53:1.7376984 54:0.13158287 55:-0.74659014 56:1.7365845 57:0.18886596 58:-0.78085649 59:1.5810822 60:-0.027956009 61:0.52559149 62:1.7860178 63:-0.16636807 64:-0.15269434 65:1.5335237 66:-0.22042692 67:-0.097505435 68:1.5654582 69:0.65245044 70:0.46495339 71:2.2911353 72:0.50766361 73:0.43253252 74:2.2222915 
-0 -0 8.36350986675809 0 0 0 0 0 0 0 0 0 0 0:0.042566836 1:-0.0077136159 2:1.8086431 3:0 4:0.30000001 5:1.8 6:-0.04001905 7:0.59054041 8:1.7800734 9:-0.025777474 10:0.72400081 11:1.7690744 12:-0.19630173 13:0.45851898 14:1.7376375 15:-0.2281729 16:0.19520283 17:1.7178001 18:-0.21053049 19:-0.017707884 20:1.6282802 21:-0.20423779 22:-0.091297731 23:1.5829921 24:0.18280956 25:0.54685682 26:1.8579135 27:0.410734 28:0.62865704 29:1.8313062 30:0.573089 31:0.74517143 32:1.7243781 33:0.58734214 34:0.74945557 35:1.7037799 36:-0.032658458 37:-0.013279319 38:1.7464423 39:-0.031687617 40:-0.41637468 41:1.6985972 42:-0.032940581 43:-0.76594704 44:1.702498 45:0.0081564784 46:-0.80002624 47:1.5398498 48:0.12157851 49:-0.0027727783 50:1.796088 51:0.13844225 52:-0.39569554 53:1.7376978 54:0.14438148 55:-0.74594402 56:1.7311118 57:0.18151318 58:-0.780554 59:1.5679986 60:-0.030411929 61:0.5202257 62:1.7869658 63:-0.20406178 64:-0.1567347 65:1.5435677 66:-0.2362653 67:-0.094041973 68:1.5684917 69:0.63606644 70:0.7702471 71:1.6849885 72:0.59236413 73:0.71228993 74:1.730083 
-0 -0 10 0 0 0 0 0 0 0 0 0 0 0:0.042232528 1:-0.007673502 2:1.8076872 3:0 4:0.30000001 5:1.8 6:-0.039283961 7:0.59036154 8:1.7815818 9:-0.026084483 10:0.72460997 11:1.7709254 12:-0.19738123 13:0.4586041 14:1.7419318 15:-0.2287195 16:0.19589466 17:1.7194504 18:-0.21172607 19:-0.016594142 20:1.6287183 21:-0.20477173 22:-0.091151386 23:1.5832981 24:0.182381 25:0.54611892 26:1.8568045 27:0.40444303 28:0.62329489 29:1.8111643 30:0.56122434 31:0.73931837 32:1.6945854 33:0.57321942 34:0.73541439 35:1.6730174 36:-0.033311933 37:-0.013056874 38:1.746282 39:-0.032481387 40:-0.41651583 41:1.6979336 42:-0.033099771 43:-0.76613945 44:1.7011789 45:0.006257683 46:-0.80010355 47:1.5379919 48:0.12149496 49:-0.0027909875 50:1.7945775 51:0.13800701 52:-0.39534789 53:1.7365781 54:0.14510901 55:-0.74557883 56:1.730225 57:0.18048084 58:-0.78008783 59:1.5665668 60:-0.029899031 61:0.52009964 62:1.7880625 63:-0.20654693 64:-0.15614399 65:1.5445532 66:-0.22325963 67:-0.093712851 68:1.5403711 69:0.61569494 70:0.74773371 71:1.6452311 72:0.58633053 73:0.70902336 74:1.6992723 
-0 -0 10 0 0 0 0 0 0 0 0 0 0 0:0.041620173 1:-0.0080500543 2:1.8059379 3:0 4:0.30000001 5:1.8 6:-0.038167909 7:0.59067142 8:1.7839447 9:-0.02636385 10:0.72516072 11:1.772267 12:-0.19841377 13:0.45905629 14:1.7449087 15:-0.2293344 16:0.19664982 17:1.7206854 18:-0.21297647 19:-0.015277207 20:1.6284143 21:-0.20574875 22:-0.0909172 23:1.5833956 24:0.18154347 25:0.54494357 26:1.854591 27:0.39607036 28:0.61628199 29:1.7907549 30:0.54787272 31:0.72694719 32:1.6614615 33:0.55891341 34:0.7201072 35:1.6420256 36:-0.034252793 37:-0.013325632 38:1.745524 39:-0.033309668 40:-0.41715568 41:1.6960968 42:-0.034466565 43:-0.76680326 44:1.6989168 45:0.0032306761 46:-0.80053008 47:1.5351893 48:0.12110523 49:-0.0032664537 50:1.792245 51:0.1373691 52:-0.39603296 53:1.734408 54:0.14417028 55:-0.74626088 56:1.7284027 57:0.17787218 58:-0.78053534 59:1.564201 60:-0.029091433 61:0.52031827 62:1.789816 63:-0.20616896 64:-0.15546679 65:1.542029 66:-0.22622697 67:-0.089865491 68:1.5461708 69:0.59771085 70:0.73092616 71:1.6148161 72:0.58205116 73:0.70605695 74:1.6685256 
-2.534344352030575 -10 0 3.450204186707915 2.098135418433982 1.426854216253076 2.02912396853977 2.188589089970975 1.396580513675231 3.312563215424152 3.608132482286575 3.758128616938787 3.781980335552837 0:0.028401129 1:-0.020490408 2:1.7950802 3:0 4:0.30000001 5:1.8 6:-0.028946728 7:0.60083228 8:1.7888441 9:-0.0057030171 10:0.73564452 11:1.783571 12:-0.18026531 13:0.47506845 14:1.7370644 15:-0.2359255 16:0.21489793 17:1.7133043 18:-0.20305857 19:4.0113926e-05 20:1.6335995 21:-0.19137135 22:-0.075203896 23:1.594866 24:0.15134388 25:0.51045853 26:1.8906853 27:0.30685681 28:0.39532214 29:2.1077864 30:0.48253921 31:0.36357719 32:2.2295883 33:0.56669223 34:0.3620953 35:2.2899549 36:-0.046878561 37:-0.022319883 38:1.733736 39:-0.057415992 40:-0.42218217 41:1.6920722 42:-0.06312418 43:-0.77139878 44:1.7067251 45:-0.023140281 46:-0.86733627 47:1.6352909 48:0.10586131 49:-0.017899334 50:1.7803855 51:0.11896008 52:-0.39804164 53:1.7270863 54:0.11243611 55:-0.74826139 56:1.7331898 57:0.16749087 58:-0.7823354 59:1.5740318 60:-0.021955788 61:0.52805269 62:1.7937992 63:-0.18011969 64:-0.146908 65:1.5542319 66:-0.22715029 67:-0.078876048 68:1.5746801 69:0.62761259 70:0.33889264 71:2.3435071 72:0.57737064 73:0.37584835 74:2.2348993 
-0 -10 0 0 0 0 0 0 0 0 0 0 0 0:0.029485524 1:-0.01992926 2:1.7964272 3:0 4:0.30000001 5:1.8 6:-0.029858597 7:0.60045922 8:1.7877197 9:-0.0075494349 10:0.73441708 11:1.7818859 12:-0.18060032 13:0.47437295 14:1.7354465 15:-0.23521125 16:0.21297529 17:1.7123289 18:-0.20147434 19:-0.0021800101 20:1.6339326 21:-0.18940392 22:-0.079503283 23:1.5948043 24:0.15228337 25:0.51308513 26:1.8940442 27:0.31160086 28:0.41352984 29:2.100563 30:0.49386704 31:0.39811614 32:2.2159615 33:0.58085179 34:0.40880731 35:2.2683163 36:-0.045045786 37:-0.022207916 38:1.7345047 39:-0.054502107 40:-0.42393216 41:1.6935339 42:-0.061393432 43:-0.77320588 44:1.7070606 45:-0.015224122 46:-0.86999238 47:1.6458087 48:0.10626747 49:-0.017126948 50:1.7826338 51:0.12083659 52:-0.39809465 53:1.7287695 54:0.11486453 55:-0.74831414 56:1.7350316 57:0.17110761 58:-0.7825129 59:1.5764418 60:-0.022661172 61:0.52776682 62:1.7929502 63:-0.17413029 64:-0.14903748 65:1.5574355 66:-0.22879541 67:-0.087859496 68:1.577601 69:0.65189976 70:0.39290872 71:2.3247516 72:0.58597028 73:0.42468956 74:2.2164092 
-0 -10 0 0 0 0 0 0 0 0 0 0 0 0:0.030942269 1:-0.01943782 2:1.7978215 3:0 4:0.30000001 5:1.8 6:-0.031303734 7:0.59999275 8:1.7861986 9:-0.0099645108 10:0.73344791 11:1.7799587 12:-0.18115097 13:0.47346503 14:1.7339373 15:-0.23404852 16:0.21104801 17:1.7119498 18:-0.20036075 19:-0.0043849945 20:1.6343851 21:-0.18824357 22:-0.081016585 23:1.5960093 24:0.15397149 25:0.51400745 26:1.8958697 27:0.3205418 28:0.44100165 29:2.0884836 30:0.51387024 31:0.44097453 32:2.1967278 33:0.60202551 34:0.45287776 35:2.2487133 36:-0.043027773 37:-0.021991789 38:1.735424 39:-0.051386476 40:-0.4273499 41:1.6955447 42:-0.059443101 43:-0.7766521 44:1.7079916 45:-0.010965861 46:-0.87294054 47:1.6485941 48:0.10735195 49:-0.016567051 50:1.7846775 51:0.1228857 52:-0.39557263 53:1.7310629 54:0.11758605 55:-0.74595249 56:1.735642 57:0.17444026 58:-0.78029978 59:1.5773542 60:-0.023755357 61:0.52741575 62:1.7918208 63:-0.17412609 64:-0.15097301 65:1.5589299 66:-0.2264156 67:-0.097298652 68:1.5805156 69:0.67677253 70:0.44181216 71:2.2964058 72:0.60387242 73:0.47412395 74:2.1995244 
-0 -0 10 0 0 0 0 0 0 0 0 0 0 0:0.042670272 1:-0.010715723 2:1.8034726 3:0 4:0.30000001 5:1.8 6:-0.040967435 7:0.59283006 8:1.7852739 9:-0.030821368 10:0.7281065 11:1.7788404 12:-0.19196014 13:0.46222606 14:1.7460283 15:-0.23172267 16:0.20056584 17:1.7249805 18:-0.20804869 19:-0.014975816 20:1.6440622 21:-0.19854559 22:-0.091966629 23:1.6021873 24:0.18035798 25:0.54155314 26:1.8683068 27:0.39059842 28:0.62752366 29:1.8202535 30:0.54056376 31:0.75750029 32:1.7106322 33:0.55121899 34:0.74645233 35:1.6915985 36:-0.03256467 37:-0.015864611 38:1.7411038 39:-0.032405302 40:-0.42254835 41:1.6983458 42:-0.039503068 43:-0.77261579 44:1.7030035 45:0.0033785552 46:-0.8064245 47:1.5384361 48:0.12137741 49:-0.0060994029 50:1.7908603 51:0.13901758 52:-0.39485884 53:1.7346078 54:0.14294191 55:-0.74560285 56:1.7345606 57:0.1817396 58:-0.78009439 59:1.56945 60:-0.031098783 61:0.52198374 62:1.7908665 63:-0.18802215 64:-0.16065629 65:1.5665532 66:-0.23309322 67:-0.10916179 68:1.5874735 69:0.58708251 70:0.75435174 71:1.663582 72:0.5168547 73:0.75284278 74:1.6722952 
-0 -0 10 0 0 0 0 0 0 0 0 0 0 0:0.042590432 1:-0.010757029 2:1.8024589 3:0 4:0.30000001 5:1.8 6:-0.040415049 7:0.5928371 8:1.7869798 9:-0.030558035 10:0.72892547 11:1.7809354 12:-0.19434237 13:0.46141732 14:1.7483073 15:-0.23187754 16:0.20069677 17:1.7255474 18:-0.20916086 19:-0.014526755 20:1.6434189 21:-0.2001127 22:-0.091043666 23:1.6015261 24:0.17947045 25:0.54019469 26:1.8624302 27:0.3828347 28:0.62326705 29:1.7993113 30:0.52161074 31:0.74850643 32:1.668811 33:0.53328502 34:0.73163295 35:1.6578671 36:-0.033138022 37:-0.015947282 38:1.7406408 39:-0.032466576 40:-0.42166883 41:1.6972471 42:-0.039246291 43:-0.77177918 44:1.7016343 45:0.00090105832 46:-0.80549043 47:1.5362288 48:0.12164819 49:-0.0059911907 50:1.7894493 51:0.13916789 52:-0.39444244 53:1.7332784 54:0.14301507 55:-0.74518281 56:1.7335407 57:0.17908086 58:-0.77957284 59:1.5675946 60:-0.03073062 61:0.52198249 62:1.7920967 63:-0.19375411 64:-0.16148895 65:1.5661188 66:-0.23140904 67:-0.10225698 68:1.5844399 69:0.56017947 70:0.74466527 71:1.645146 72:0.49966159 73:0.73857605 74:1.6414798 
-0 -10 0 0 0 0 0 0 0 0 0 0 0 0:0.030384213 1:-0.019741446 2:1.7984301 3:0 4:0.30000001 5:1.8 6:-0.031157359 7:0.60050374 8:1.7862931 9:-0.0045921132 10:0.73491901 11:1.7813812 12:-0.17756653 13:0.47392714 14:1.7329627 15:-0.23311162 16:0.20881635 17:1.7136213 18:-0.20440662 19:-0.0077293515 20:1.6365074 21:-0.19170484 22:-0.079601631 23:1.5947429 24:0.14224719 25:0.52128094 26:1.8938807 27:0.30110273 28:0.42823881 29:2.1203804 30:0.48121646 31:0.43475205 32:2.2396235 33:0.56540632 34:0.45141691 35:2.2973952 36:-0.044743612 37:-0.021738172 38:1.7357091 39:-0.048737302 40:-0.42329308 41:1.6947163 42:-0.054047287 43:-0.7732445 44:1.7040831 45:-0.024377555 46:-0.86094499 47:1.5999974 48:0.10765084 49:-0.016625732 50:1.7850114 51:0.12450746 52:-0.39777705 53:1.7271105 54:0.1256825 55:-0.7485767 56:1.7293926 57:0.18620014 58:-0.78484225 59:1.5673057 60:-0.023595721 61:0.52779281 62:1.7918631 63:-0.18201587 64:-0.14980331 65:1.5585154 66:-0.23155487 67:-0.100256 68:1.5842599 69:0.63551879 70:0.44205004 71:2.359098 72:0.56448483 73:0.46783274 74:2.2300782 
-0 -3.019780211786664 0 0 0 0 0 0 0 0 0 0 0 0:0.031287484 1:-0.019393325 2:1.7992339 3:0 4:0.30000001 5:1.8 6:-0.031971179 7:0.60012245 8:1.7854125 9:-0.006462492 10:0.73403788 11:1.7801185 12:-0.17827755 13:0.4732441 14:1.7313685 15:-0.23242471 16:0.20695397 17:1.7124908 18:-0.20330405 19:-0.0095580816 20:1.6354473 21:-0.19031593 22:-0.081841677 23:1.5926816 24:0.14316493 25:0.52155268 26:1.8952255 27:0.30992413 28:0.45647356 29:2.1100383 30:0.49728036 31:0.48077974 32:2.2160609 33:0.57986438 34:0.50330126 35:2.2664933 36:-0.043452673 37:-0.021579683 38:1.7361174 39:-0.047048323 40:-0.42164356 41:1.6953604 42:-0.053232409 43:-0.77162707 44:1.7043636 45:-0.021877564 46:-0.87035155 47:1.6207395 48:0.1080061 49:-0.016163886 50:1.7867887 51:0.12548676 52:-0.39786142 53:1.7283404 54:0.12709476 55:-0.74869621 56:1.7299716 57:0.18824282 58:-0.78502142 59:1.5682099 60:-0.024235167 61:0.52750945 62:1.7911992 63:-0.17934963 64:-0.15203889 65:1.5576525 66:-0.19912696 67:-0.085481137 68:1.5488052 69:0.65229243 70:0.50255859 71:2.3213232 72:0.57955575 73:0.51888359 74:2.2095804 
-0 -0 10 0 0 0 0 0 0 0 0 0 0 0:0.041635439 1:-0.010213017 2:1.8001133 3:0 4:0.30000001 5:1.8 6:-0.040119603 7:0.59255564 8:1.789184 9:-0.024772272 10:0.73137206 11:1.7841822 12:-0.18890825 13:0.46182543 14:1.7459656 15:-0.23033938 16:0.19841677 17:1.7137247 18:-0.20729724 19:-0.015680283 20:1.6276459 21:-0.19897217 22:-0.090181768 23:1.5846502 24:0.18004416 25:0.54184318 26:1.8810998 27:0.38940176 28:0.6212213 29:1.8403662 30:0.53144032 31:0.75179976 32:1.7195288 33:0.54157174 34:0.75131232 35:1.6998717 36:-0.032201529 37:-0.014217526 38:1.7360471 39:-0.034717351 40:-0.42866367 41:1.6907717 42:-0.041215107 43:-0.77903003 44:1.6943341 45:-0.010096163 46:-0.87837934 47:1.6119815 48:0.11870575 49:-0.0066716671 50:1.7897645 51:0.13561133 52:-0.39946467 53:1.7273675 54:0.13816765 55:-0.75054616 56:1.7253875 57:0.18258502 58:-0.78620571 59:1.556496 60:-0.030418485 61:0.52178979 62:1.7937902 63:-0.19276166 64:-0.15630965 65:1.5495256 66:-0.15773624 67:-0.088692442 68:1.5456425 69:0.58374417 70:0.76267785 71:1.6730095 72:0.50347781 73:0.75765914 74:1.6712457 
-0 -0 10 0 0 0 0 0 0 0 0 0 0 0:0.04185468 1:-0.010244101 2:1.798872 3:0 4:0.30000001 5:1.8 6:-0.040090114 7:0.59243703 8:1.7906439 9:-0.025449187 10:0.73209059 11:1.7854912 12:-0.18482119 13:0.46282479 14:1.7461536 15:-0.23119107 16:0.19922993 17:1.71681 18:-0.20889759 19:-0.014158964 20:1.6286371 21:-0.19977134 22:-0.089925617 23:1.5863745 24:0.18009032 25:0.53996956 26:1.8737743 27:0.38767377 28:0.61752558 29:1.818979 30:0.52281678 31:0.74205422 32:1.6830685 33:0.53251815 34:0.73688805 35:1.6676838 36:-0.032494515 37:-0.014416635 38:1.7360384 39:-0.034914389 40:-0.42662117 41:1.6900086 42:-0.039694756 43:-0.7771194 44:1.6924915 45:0.0067762807 46:-0.81193852 47:1.5234454 48:0.11930843 49:-0.0064365566 50:1.7878382 51:0.13587636 52:-0.39791459 53:1.7259314 54:0.138399 55:-0.74903309 56:1.7236598 57:0.18089308 58:-0.78455055 59:1.5540667 60:-0.030422941 61:0.52168489 62:1.7948837 63:-0.19491029 64:-0.15654299 65:1.5510395 66:-0.15980297 67:-0.086517692 68:1.5499594 69:0.56695879 70:0.7457428 71:1.6391466 72:0.51379681 73:0.72418106 74:1.6360884 
-0 -0 10 0 0 0 0 0 0 0 0 0 0 0:0.041978896 1:-0.010354996 2:1.7974899 3:0 4:0.30000001 5:1.8 6:-0.039849833 7:0.59249127 8:1.7925828 9:-0.025802553 10:0.73263729 11:1.786732 12:-0.19061641 13:0.46254781 14:1.7529318 15:-0.23166727 16:0.19981149 17:1.7193677 18:-0.21001692 19:-0.012895674 20:1.6292613 21:-0.20009468 22:-0.088724971 23:1.5866451 24:0.1797954 25:0.53752196 26:1.8655722 27:0.38554782 28:0.60982239 29:1.7930539 30:0.515194 31:0.72604656 32:1.6436722 33:0.52345014 34:0.71932018 35:1.6313839 36:-0.033092022 37:-0.014703065 38:1.7357099 39:-0.034784675 40:-0.42657286 41:1.6888387 42:-0.040490136 43:-0.77700853 44:1.6921186 45:-0.011349857 46:-0.87733376 47:1.6108534 48:0.11988311 49:-0.0062573552 50:1.7857835 51:0.13602327 52:-0.3981995 53:1.724354 54:0.13833189 55:-0.74934018 56:1.7216146 57:0.17541778 58:-0.78472972 59:1.5503948 60:-0.030275896 61:0.52170432 62:1.7963097 63:-0.19364537 64:-0.15441392 65:1.5530756 66:-0.15932254 67:-0.086647302 68:1.5510545 69:0.556454 70:0.73409343 71:1.6155007 72:0.50099778 73:0.71308279 74:1.6005971 
-2.280517240487574 -0 10 2.031636869052858 2.19178476104824 1.509925031658914 2.362705554961635 2.539873705280418 1.478420526951534 2.223923149846688 2.354812272995024 2.387039688200435 2.177570438877582 0:0.041708596 1:-0.010424793 2:1.7961843 3:0 4:0.30000001 5:1.8 6:-0.03884764 7:0.59270978 8:1.7943256 9:-0.026020378 10:0.73363298 11:1.7880819 12:-0.19434386 13:0.46256465 14:1.7574046 15:-0.2320551 16:0.20195109 17:1.7226911 18:-0.21108702 19:-0.010183871 20:1.6309645 21:-0.20158142 22:-0.085899174 23:1.589359 24:0.17397842 25:0.52992058 26:1.8635039 27:0.37576377 28:0.59698528 29:1.7720687 30:0.50308204 31:0.70313615 32:1.6124022 33:0.51170844 34:0.69915479 35:1.5985413 36:-0.034311175 37:-0.01511848 38:1.7357843 39:-0.03461048 40:-0.43047845 41:1.6887648 42:-0.040378824 43:-0.78097558 44:1.6901338 45:-0.013743311 46:-0.87995005 47:1.6047695 48:0.11996549 49:-0.0062140524 50:1.7837093 51:0.13613421 52:-0.39795092 53:1.7228525 54:0.13853012 55:-0.7491011 56:1.7199905 57:0.17389214 58:-0.78433168 59:1.5482509 60:-0.029586777 61:0.52183747 62:1.7975938 63:-0.19686875 64:-0.15589328 65:1.5536883 66:-0.16146424 67:-0.086891294 68:1.5498335 69:0.54392147 70:0.71440631 71:1.5802724 72:0.47560915 73:0.71008915 74:1.5832493 
-0 -0 -10 0 0 0 0 0 0 0 0 0 0 0:0.040797882 1:-0.0083328485 2:1.8041621 3:0 4:0.30000001 5:1.8 6:-0.036834091 7:0.59088033 8:1.7860645 9:-0.026470006 10:0.72572035 11:1.7730974 12:-0.19917092 13:0.45889956 14:1.7470011 15:-0.22999004 16:0.19638407 17:1.7205564 18:-0.2138108 19:-0.01530388 20:1.6276659 21:-0.20595971 22:-0.090564817 23:1.5824016 24:0.18041566 25:0.54383028 26:1.8520964 27:0.38904288 28:0.60736859 29:1.76535 30:0.53582644 31:0.71312302 32:1.6253728 33:0.54627591 34:0.70356244 35:1.6091977 36:-0.035385817 37:-0.013696313 38:1.7446898 39:-0.034306794 40:-0.41660804 41:1.6950773 42:-0.035062 43:-0.76633531 44:1.6968058 45:0.0011571348 46:-0.79985696 47:1.5326093 48:0.12049877 49:-0.0035107732 50:1.7899374 51:0.13651152 52:-0.39471185 53:1.7326001 54:0.14328431 55:-0.74498069 56:1.7260526 57:0.17551348 58:-0.77906305 59:1.5613765 60:-0.028108492 61:0.52046299 62:1.7914146 63:-0.20752177 64:-0.15345433 65:1.5430921 66:-0.22591802 67:-0.087204695 68:1.5443062 69:0.58398247 70:0.71723574 71:1.5888506 72:0.56908435 73:0.68771523 74:1.6385838 
-0 -0 -10 0 0 0 0 0 0 0 0 0 0 0:0.040067799 1:-0.0085349381 2:1.8028314 3:0 4:0.30000001 5:1.8 6:-0.035827056 7:0.59103692 8:1.7876811 9:-0.025417596 10:0.72698355 11:1.775414 12:-0.19881813 13:0.45973423 14:1.7498653 15:-0.23014067 16:0.19686523 17:1.7216773 18:-0.21465541 19:-0.014528185 20:1.6279497 21:-0.20634271 22:-0.08828181 23:1.5819557 24:0.18054502 25:0.53693306 26:1.8339922 27:0.38395518 28:0.59926403 29:1.7435262 30:0.5235514 31:0.69566548 32:1.5886979 33:0.53395271 34:0.68538642 35:1.5746293 36:-0.036467165 37:-0.013967454 38:1.7439778 39:-0.035394281 40:-0.41596034 41:1.6943076 42:-0.035804704 43:-0.76573658 44:1.6954019 45:-0.0059888512 46:-0.79929221 47:1.529783 48:0.12026466 49:-0.0034914315 50:1.7880373 51:0.13575114 52:-0.39503518 53:1.731174 54:0.14252037 55:-0.74530303 56:1.724653 57:0.1683459 58:-0.77940285 59:1.5585625 60:-0.02734898 61:0.52057028 62:1.7926378 63:-0.2081389 64:-0.15233672 65:1.5383737 66:-0.22453968 67:-0.085599601 68:1.5407574 69:0.56795341 70:0.69551778 71:1.5494211 72:0.55864364 73:0.67274559 74:1.5928144 
-0 -0 -10 0 0 0 0 0 0 0 0 0 0 0:0.038716406 1:-0.0088067353 2:1.8010384 3:0 4:0.30000001 5:1.8 6:-0.033726111 7:0.59168458 8:1.7894813 9:-0.024991915 10:0.72822213 11:1.7772404 12:-0.19865784 13:0.46043095 14:1.7529022 15:-0.23072195 16:0.19724807 17:1.7226173 18:-0.21568641 19:-0.013480365 20:1.6272103 21:-0.20695275 22:-0.088029012 23:1.5799495 24:0.17944321 25:0.53394103 26:1.8271848 27:0.37910482 28:0.58822906 29:1.7211562 30:0.51278967 31:0.67641854 32:1.5555557 33:0.52383417 34:0.66732991 35:1.5433336 36:-0.038452268 37:-0.014393032 38:1.7430917 39:-0.036826 40:-0.41605166 41:1.692566 42:-0.037329137 43:-0.76586282 44:1.6930221 45:-0.010587052 46:-0.79929376 47:1.5267884 48:0.11918209 49:-0.0037679076 50:1.7857906 51:0.13444352 52:-0.39537135 53:1.7291089 54:0.14126043 55:-0.74564254 56:1.7224129 57:0.16400586 58:-0.77961481 59:1.5557083 60:-0.025805593 61:0.52101696 62:1.7940053 63:-0.20639145 64:-0.15003459 65:1.5409943 66:-0.23647675 67:-0.095224708 68:1.5527576 69:0.55911148 70:0.68281794 71:1.5220071 72:0.55557108 73:0.66069984 74:1.5718077 
-0 -0 -2.736440382519897 0 0 0 0 0 0 0 0 0 0 0:0.037648343 1:-0.0089157224 2:1.7998075 3:0 4:0.30000001 5:1.8 6:-0.032765687 7:0.59199941 8:1.7903702 9:-0.024535984 10:0.72894061 11:1.7787237 12:-0.19820167 13:0.46057454 14:1.7544661 15:-0.23071609 16:0.19748369 17:1.7238545 18:-0.21625148 19:-0.012557238 20:1.6267371 21:-0.20712249 22:-0.086797655 23:1.5797014 24:0.17815219 25:0.53185618 26:1.8217194 27:0.3717258 28:0.57121634 29:1.6958661 30:0.50125515 31:0.65229964 32:1.5227489 33:0.51411384 34:0.64829075 35:1.5110912 36:-0.039842442 37:-0.01481846 38:1.7427835 39:-0.038103372 40:-0.41592798 41:1.6913667 42:-0.038505703 43:-0.76574159 44:1.6918192 45:-0.013959736 46:-0.7991128 47:1.5251987 48:0.11859599 49:-0.0038681328 50:1.7839291 51:0.13356495 52:-0.39464164 53:1.7275844 54:0.14030857 55:-0.74492037 56:1.7209835 57:0.16085319 58:-0.77884185 59:1.5538881 60:-0.025050402 61:0.52124166 62:1.7947087 63:-0.20776527 64:-0.15055934 65:1.5358586 66:-0.22403903 67:-0.086618334 68:1.5399282 69:0.55126876 70:0.65837455 71:1.4780293 72:0.53918207 73:0.63181305 74:1.5304241 
-0 -0 -0 10 0 0 0 0 0 0 0 0 0 0:0.017121188 1:-0.018162668 2:1.7904258 3:0 4:0.30000001 5:1.8 6:-0.012204573 7:0.60219669 8:1.7979288 9:-0.0047026277 10:0.74699736 11:1.7912333 12:-0.1951277 13:0.47477242 14:1.7717423 15:-0.23426858 16:0.21994719 17:1.7376504 18:-0.22219783 19:0.0092746317 20:1.6417243 21:-0.21328306 22:-0.066161454 23:1.5957258 24:0.15859482 25:0.48427454 26:1.7653894 27:0.27705568 28:0.28744271 29:1.6067762 30:0.33213553 31:0.14431301 32:1.4298596 33:0.35755792 34:0.085723966 35:1.3289814 36:-0.065380819 37:-0.022635311 38:1.7447836 39:-0.062692679 40:-0.40883732 41:1.6798441 42:-0.061516516 43:-0.7587682 44:1.677659 45:-0.060286187 46:-0.79191041 47:1.5093689 48:0.10397754 49:-0.015506953 50:1.7606778 51:0.1139248 52:-0.38758358 53:1.7128012 54:0.11652723 55:-0.7378701 56:1.7071476 57:0.11377875 58:-0.77156758 59:1.538384 60:-0.0094958916 61:0.5287838 62:1.8004761 63:-0.21457338 64:-0.13068801 65:1.5529819 66:-0.2346026 67:-0.061670333 68:1.5582595 69:0.37620723 70:0.028479636 71:1.2690568 72:0.36251196 73:0.11244065 74:1.297281 
-0 -0 -0 10 0 0 0 0 0 0 0 0 0 0:0.015745133 1:-0.018376619 2:1.79015 3:0 4:0.30000001 5:1.8 6:-0.010547467 7:0.60246801 8:1.798263 9:-0.0027646422 10:0.74731147 11:1.7915581 12:-0.19544581 13:0.47547498 14:1.771978 15:-0.23450315 16:0.22043851 17:1.7379462 18:-0.22256073 19:0.009534806 20:1.6425923 21:-0.21302167 22:-0.064382225 23:1.5948547 24:0.15759763 25:0.48405734 26:1.7653054 27:0.27281332 28:0.27111289 29:1.6137182 30:0.32761544 31:0.11792448 32:1.4456006 33:0.34913209 34:0.045582592 35:1.3557938 36:-0.066806853 37:-0.022591174 38:1.7447084 39:-0.064122662 40:-0.40902671 41:1.6797584 42:-0.063073441 43:-0.75893557 44:1.677687 45:-0.061927363 46:-0.79202378 47:1.509385 48:0.10263401 49:-0.015881985 50:1.7600464 51:0.11283641 52:-0.387445 53:1.7125038 54:0.1128263 55:-0.73772597 56:1.7069601 57:0.1100423 58:-0.77137291 59:1.5381826 60:-0.0082507879 61:0.52899718 62:1.8007177 63:-0.20963141 64:-0.12858468 65:1.5518016 66:-0.23059684 67:-0.063509583 68:1.5539573 69:0.37072545 70:-0.013996929 71:1.3048834 72:0.3873015 73:-0.0011588633 74:1.3274196 
-10 -1.695947246056447 -0 10 0.8370352508761355 1.20296524645113 9.512471070110006 7.451637537088275 3.456950117126606 7.386720147572765 4.603679128554953 0.9547695212479652 0 0:0.014384009 1:-0.018820554 2:1.7898695 3:0 4:0.30000001 5:1.8 6:-0.0095890984 7:0.60292339 8:1.7984807 9:-0.00096466392 10:0.74808109 11:1.7920582 12:-0.19621369 13:0.47612891 14:1.7721636 15:-0.23516357 16:0.22152123 17:1.7382133 18:-0.22290573 19:0.010394633 20:1.6434214 21:-0.2138907 22:-0.062529027 23:1.5958436 24:0.15664482 25:0.48362932 26:1.7654381 27:0.26740891 28:0.24866691 29:1.6285965 30:0.32036152 31:0.081984043 32:1.4736717 33:0.34030876 34:0.015093893 35:1.3854086 36:-0.068307236 37:-0.02258268 38:1.7445786 39:-0.065827683 40:-0.40912014 41:1.6797028 42:-0.064444929 43:-0.75902736 44:1.6773598 45:-0.049423501 46:-0.85259581 47:1.5914147 48:0.10130966 49:-0.016592175 50:1.7595303 51:0.11139021 52:-0.38723576 53:1.7121723 54:0.11100955 55:-0.73750448 56:1.7066824 57:0.10825342 58:-0.77111137 59:1.5378931 60:-0.0074934065 61:0.52935171 62:1.8008802 63:-0.20965254 64:-0.12824452 65:1.5519271 66:-0.23202893 67:-0.061397821 68:1.5560529 69:0.36055887 70:-0.049292117 71:1.3334928 72:0.37626451 73:-0.020440251 74:1.3604484 
-0 -0.7191868016260604 -10 0 0 0.348961524690694 0 0 0.1396804101451765 0.2711096237941703 0.838013621088649 1.734821824583882 0.8217411016580664 0:0.040710442 1:-0.010759681 2:1.8018763 3:0 4:0.30000001 5:1.8 6:-0.034199521 7:0.59267819 8:1.7878234 9:-0.031865269 10:0.72968817 11:1.7829874 12:-0.1972409 13:0.46116492 14:1.7507527 15:-0.23383765 16:0.20151809 17:1.727082 18:-0.21198724 19:-0.013537109 20:1.6442311 21:-0.20276837 22:-0.090583712 23:1.6015635 24:0.17652766 25:0.53762949 26:1.8558934 27:0.37638146 28:0.61939263 29:1.7771387 30:0.50565511 31:0.74070406 32:1.6324728 33:0.52021545 34:0.71948671 35:1.6270053 36:-0.035646185 37:-0.015777856 38:1.7410505 39:-0.034281045 40:-0.42108575 41:1.6965115 42:-0.040974498 43:-0.77118742 44:1.701237 45:-0.0035424829 46:-0.80506122 47:1.5351593 48:0.12007025 49:-0.0060272217 50:1.7884071 51:0.1373392 52:-0.39482263 53:1.7324204 54:0.14140873 55:-0.74556112 56:1.7326534 57:0.17475639 58:-0.780092 59:1.5660465 60:-0.026487485 61:0.5218811 62:1.7927787 63:-0.19409983 64:-0.15831752 65:1.5635269 66:-0.23894121 67:-0.095097095 68:1.5927846 69:0.541206 70:0.73022079 71:1.6193447 72:0.51175714 73:0.70404923 74:1.586993 
-0 -0 -10 0 0 0 0 0 0 0 0 0 0 0:0.040755875 1:-0.01087302 2:1.800554 3:0 4:0.30000001 5:1.8 6:-0.035133868 7:0.59306556 8:1.7901406 9:-0.031006783 10:0.73050743 11:1.7837653 12:-0.197706 13:0.46074384 14:1.7528584 15:-0.23412986 16:0.20298994 17:1.7293267 18:-0.21283846 19:-0.011253595 20:1.6440344 21:-0.20365514 22:-0.088327885 23:1.6013162 24:0.17554551 25:0.53531092 26:1.8504064 27:0.36978269 28:0.61286592 29:1.7511733 30:0.49259657 31:0.7330063 32:1.5993867 33:0.5068078 34:0.70624095 35:1.5951147 36:-0.036030233 37:-0.016095042 38:1.7404113 39:-0.034217626 40:-0.42126971 41:1.6952884 42:-0.041395158 43:-0.77133828 44:1.7003179 45:-0.0064128786 46:-0.80497581 47:1.5335519 48:0.12043666 49:-0.0060377121 50:1.7865803 51:0.13735244 52:-0.39495274 53:1.7310731 54:0.14132905 55:-0.74570119 56:1.7311313 57:0.17222033 58:-0.77999014 59:1.5638373 60:-0.027008951 61:0.52212125 62:1.7944217 63:-0.19600137 64:-0.15785313 65:1.5651524 66:-0.23980089 67:-0.094782293 68:1.5885756 69:0.51517451 70:0.70549351 71:1.5742629 72:0.49064392 73:0.68697673 74:1.5594628 
-0 -0 -10 0 0 0 0 0 0 0 0 0 0 0:0.040442273 1:-0.011014581 2:1.7990642 3:0 4:0.30000001 5:1.8 6:-0.035211712 7:0.59314322 8:1.7916772 9:-0.029955328 10:0.73170799 11:1.7854261 12:-0.19818863 13:0.46075124 14:1.7554476 15:-0.23438653 16:0.20434314 17:1.7309752 18:-0.21368822 19:-0.0093051195 20:1.6439049 21:-0.20405978 22:-0.085674241 23:1.6014488 24:0.17413284 25:0.53314602 26:1.8448322 27:0.36302286 28:0.60428482 29:1.7287295 30:0.47674295 31:0.71474391 32:1.5618184 33:0.49344903 34:0.69213384 35:1.564616 36:-0.036833659 37:-0.016310334 38:1.7399533 39:-0.034667224 40:-0.42109364 41:1.6937931 42:-0.041464284 43:-0.77117425 44:1.6988647 45:-0.0057100803 46:-0.86794633 47:1.6255329 48:0.12053232 49:-0.0059962273 50:1.7844718 51:0.13694772 52:-0.39532629 53:1.729521 54:0.1404779 55:-0.74609369 56:1.7292702 57:0.16876811 58:-0.78021973 59:1.5613368 60:-0.026988536 61:0.5221709 62:1.7956169 63:-0.19800064 64:-0.1532912 65:1.5612004 66:-0.23835307 67:-0.083698809 68:1.5921981 69:0.50116181 70:0.69272953 71:1.5503986 72:0.47211343 73:0.67628938 74:1.5276186 
-0 -0 -5.627069484238193 0 0 0 0 0 0 0 0 0 0 0:0.040030062 1:-0.011196762 2:1.7977399 3:0 4:0.30000001 5:1.8 6:-0.034699544 7:0.59345233 8:1.7933666 9:-0.028495923 10:0.73234451 11:1.7866639 12:-0.19848938 13:0.46074808 14:1.7580484 15:-0.23433886 16:0.20557308 17:1.7322181 18:-0.21439274 19:-0.0076619387 20:1.6438636 21:-0.2040415 22:-0.083677411 23:1.5999886 24:0.17290927 25:0.52988881 26:1.8381313 27:0.35511786 28:0.59178382 29:1.7045842 30:0.4606849 31:0.69980359 32:1.5302256 33:0.47674459 34:0.67399263 35:1.5317646 36:-0.038046122 37:-0.01660797 38:1.7395114 39:-0.035034209 40:-0.42037255 41:1.6926743 42:-0.040670052 43:-0.77045578 44:1.6982998 45:-0.0097414851 46:-0.86797267 47:1.6234854 48:0.12045992 49:-0.0060916245 50:1.7825202 51:0.13673018 52:-0.39529198 53:1.7280902 54:0.14008808 55:-0.74606889 56:1.72777 57:0.16539556 58:-0.78007352 59:1.5591859 60:-0.026576862 61:0.52238798 62:1.7968925 63:-0.19695438 64:-0.15378264 65:1.559069 66:-0.23253082 67:-0.10116702 68:1.574133 69:0.47426987 70:0.66741538 71:1.5044757 72:0.45554662 73:0.65426248 74:1.4948395 
-0 -0 -0 10 0 0 0 0 0 0 0 0 0 0:0.02426891 1:-0.018376738 2:1.7869233 3:0 4:0.30000001 5:1.8 6:-0.01748953 7:0.6017487 8:1.8027376 9:-0.012760751 10:0.74720836 11:1.8040913 12:-0.19466165 13:0.47383493 14:1.7818576 15:-0.23340404 16:0.21657479 17:1.7430664 18:-0.21755934 19:0.0057145357 20:1.6479901 21:-0.20513198 22:-0.067913949 23:1.6030327 24:0.15562882 25:0.48585963 26:1.7729987 27:0.24411339 28:0.29568607 29:1.5753549 30:0.25968421 31:0.12654275 32:1.4141315 33:0.26364011 34:0.070374548 35:1.3251599 36:-0.057705231 37:-0.024714291 38:1.7426275 39:-0.05137106 40:-0.41697556 41:1.6819128 42:-0.050883748 43:-0.76727253 44:1.6856016 45:-0.032665066 46:-0.8634752 47:1.6017951 48:0.10947969 49:-0.014820337 50:1.7564009 51:0.12436165 52:-0.3952052 53:1.7125453 54:0.1265254 55:-0.74591345 56:1.7132119 57:0.12255971 58:-0.77964789 59:1.5422007 60:-0.013597436 61:0.52838981 62:1.8040465 63:-0.20125109 64:-0.13390169 65:1.56555 66:-0.23843512 67:-0.072020262 68:1.5800308 69:0.26533401 70:0.015184134 71:1.255421 72:0.22066253 73:0.071629107 74:1.3085045 
-3.531056481342069 -0 -0 10 4.356926186903636 1.72608498270638 9.125516510613416 10 1.777755840848525 0 0 0 7.02008086296208 0:0.022786878 1:-0.01906696 2:1.7865856 3:0 4:0.30000001 5:1.8 6:-0.015289351 7:0.60245389 8:1.8029613 9:-0.011513576 10:0.74787617 11:1.8045745 12:-0.19316848 13:0.47514188 14:1.7836328 15:-0.23333724 16:0.21714926 17:1.7438838 18:-0.21814851 19:0.0063284636 20:1.6485825 21:-0.20626144 22:-0.066388965 23:1.6032591 24:0.15815313 25:0.48254782 26:1.7708378 27:0.24203824 28:0.26453543 29:1.5846753 30:0.25870472 31:0.093344003 32:1.4258862 33:0.25873759 34:0.026583076 35:1.3548212 36:-0.059008166 37:-0.024950475 38:1.7428777 39:-0.052407503 40:-0.41671622 41:1.6818044 42:-0.051438183 43:-0.76699454 44:1.6857738 45:-0.034264311 46:-0.86247593 47:1.6001143 48:0.10786904 49:-0.01592809 50:1.7548728 51:0.12340303 52:-0.39788875 53:1.7116094 54:0.12551752 55:-0.74849498 56:1.7134433 57:0.12030064 58:-0.78218883 59:1.5424953 60:-0.01197914 61:0.52889955 62:1.8042161 63:-0.19771288 64:-0.12983423 65:1.5617223 66:-0.21987762 67:-0.06594941 68:1.5656452 69:0.25878853 70:-0.026730597 71:1.2976303 72:0.21737659 73:0.035739273 74:1.3400984 
-0 -0 -10 0 0 0 0 0 0 0 0 0 0 0:0.041450784 1:-0.010533959 2:1.7946249 3:0 4:0.30000001 5:1.8 6:-0.038070858 7:0.59284824 8:1.7960602 9:-0.026119247 10:0.73387414 11:1.7885576 12:-0.19616123 13:0.46245384 14:1.7608434 15:-0.2322589 16:0.20325851 17:1.7254869 18:-0.21202494 19:-0.0082890987 20:1.6321388 21:-0.20245127 22:-0.084917486 23:1.5910934 24:0.17503363 25:0.52786487 26:1.8523556 27:0.37376124 28:0.58525383 29:1.7455612 30:0.49790668 31:0.6852271 32:1.5788797 33:0.50380176 34:0.68047267 35:1.5632285 36:-0.035429746 37:-0.015409976 38:1.7355648 39:-0.034946948 40:-0.42953333 41:1.6875595 42:-0.039617673 43:-0.78008872 44:1.6885389 45:-0.015780821 46:-0.87922984 47:1.6023461 48:0.12014049 49:-0.0062085688 50:1.7813524 51:0.13618784 52:-0.39821902 53:1.720982 54:0.1385732 55:-0.74935675 56:1.7184125 57:0.16876251 58:-0.78449839 59:1.5454084 60:-0.029025257 61:0.52192563 62:1.7989093 63:-0.19925879 64:-0.15213221 65:1.5539576 66:-0.15880673 67:-0.086362779 68:1.5531851 69:0.53503579 70:0.69350308 71:1.5422789 72:0.47742498 73:0.67689139 74:1.5379602 
-0 -0 -10 0 0 0 0 0 0 0 0 0 0 0:0.04099755 1:-0.010697395 2:1.7932044 3:0 4:0.30000001 5:1.8 6:-0.037086532 7:0.59324163 8:1.7976576 9:-0.025973678 10:0.73472202 11:1.7902085 12:-0.19741255 13:0.46222389 14:1.7640039 15:-0.23214152 16:0.20335102 17:1.7272044 18:-0.21244657 19:-0.0079599619 20:1.63318 21:-0.20224598 22:-0.083763152 23:1.5914875 24:0.1749897 25:0.52512139 26:1.843794 27:0.36949572 28:0.57187474 29:1.7223362 30:0.48445594 31:0.65554219 32:1.5394458 33:0.49570212 34:0.66025257 35:1.5301558 36:-0.036848113 37:-0.016116679 38:1.7356774 39:-0.035474494 40:-0.42894602 41:1.686442 42:-0.039260879 43:-0.77954167 44:1.687122 45:-0.0091946572 46:-0.81388134 47:1.513815 48:0.1201521 49:-0.0061739385 50:1.7789456 51:0.13605283 52:-0.40063536 53:1.7189504 54:0.13926955 55:-0.7517553 56:1.7160012 57:0.16535336 58:-0.7867673 59:1.5421597 60:-0.028312504 61:0.52219325 62:1.8001128 63:-0.19667265 64:-0.15393111 65:1.5569073 66:-0.17442861 67:-0.11836767 68:1.6015366 69:0.53093755 70:0.67031324 71:1.498643 72:0.46516541 73:0.6615929 74:1.5084172 
-0 -0 -0 10 0 0 0 0 0 0 0 0 0 0:0.020910449 1:-0.018851846 2:1.7840421 3:0 4:0.30000001 5:1.8 6:-0.013283394 7:0.60207945 8:1.8047273 9:-0.010717742 10:0.74852407 11:1.7995653 12:-0.19665816 13:0.47578704 14:1.794096 15:-0.2297616 16:0.21843249 17:1.7481189 18:-0.21101263 19:0.0081810057 20:1.6514554 21:-0.19501752 22:-0.061815172 23:1.611196 24:0.16138807 25:0.48408216 26:1.7703257 27:0.27902544 28:0.27700603 29:1.625329 30:0.346762 31:0.13859242 32:1.4487519 33:0.37952355 34:0.070635319 35:1.3662992 36:-0.060784839 37:-0.025269747 38:1.744709 39:-0.052605964 40:-0.42149231 41:1.6784554 42:-0.051158391 43:-0.77231216 44:1.675669 45:-0.027235739 46:-0.86852199 47:1.5831766 48:0.10578969 49:-0.015071452 50:1.7490695 51:0.12411276 52:-0.39602861 53:1.7029629 54:0.12591818 55:-0.74701405 56:1.7027726 57:0.1163324 58:-0.78239441 59:1.5267901 60:-0.010448813 61:0.52861094 62:1.8056645 63:-0.19059101 64:-0.1253919 65:1.5721352 66:-0.14974922 67:-0.045730025 68:1.6183417 69:0.40132672 70:0.010646462 71:1.3108387 72:0.38568577 73:0.092524052 74:1.3314915 
-0 -0 -0 10 0 0 0 0 0 0 0 0 0 0:0.019651547 1:-0.019067436 2:1.784142 3:0 4:0.30000001 5:1.8 6:-0.012083769 7:0.6024434 8:1.8042464 9:-0.0085252002 10:0.74880487 11:1.7989402 12:-0.1974709 13:0.47621328 14:1.7931328 15:-0.22935396 16:0.21848363 17:1.7486281 18:-0.21122122 19:0.0081808865 20:1.6519725 21:-0.19404572 22:-0.062743843 23:1.6112514 24:0.16180946 25:0.48276228 26:1.7686148 27:0.27563006 28:0.26604038 29:1.6328177 30:0.33692056 31:0.10854357 32:1.4708099 33:0.36843619 34:0.035702854 35:1.3864193 36:-0.062007368 37:-0.02531606 38:1.7451801 39:-0.054124415 40:-0.4192816 41:1.6791053 42:-0.051728263 43:-0.77014869 44:1.6757069 45:-0.031061083 46:-0.86753255 47:1.5843115 48:0.10457297 49:-0.015433401 50:1.7485514 51:0.12304565 52:-0.39587092 53:1.7029562 54:0.12472856 55:-0.7468493 56:1.7028456 57:0.11498372 58:-0.78228247 59:1.5268676 60:-0.0094920695 61:0.52890491 62:1.8053057 63:-0.18967965 64:-0.12591015 65:1.5754361 66:-0.15103397 67:-0.060902178 68:1.5939732 69:0.39354852 70:-0.037048936 71:1.3271756 72:0.37886801 73:0.053493321 74:1.3550336 
-10 -10 -0 10 10 1.78814290805543 0 10 0 10 10 10 8.903491853304001 0:0.018211596 1:-0.019232005 2:1.7843038 3:0 4:0.30000001 5:1.8 6:-0.010579139 7:0.60278237 8:1.8037337 9:-0.0060267448 10:0.74926674 11:1.7987121 12:-0.19317272 13:0.47900894 14:1.7958649 15:-0.22883525 16:0.21829531 17:1.7494251 18:-0.21176389 19:0.0080121458 20:1.6525389 21:-0.19326153 22:-0.063685328 23:1.6128565 24:0.16161606 25:0.48160341 26:1.7677432 27:0.27337906 28:0.24092439 29:1.636454 30:0.33041629 31:0.072879225 32:1.4841233 33:0.3580552 34:0.0068402588 35:1.4165279 36:-0.063358463 37:-0.025232077 38:1.7455627 39:-0.055619381 40:-0.41878587 41:1.6794027 42:-0.052903824 43:-0.7696588 44:1.6758658 45:-0.033575647 46:-0.86512387 47:1.5804974 48:0.10310695 49:-0.01586467 50:1.7481323 51:0.12188478 52:-0.39554897 53:1.7029582 54:0.12365972 55:-0.74651921 56:1.7029735 57:0.11259926 58:-0.78204823 59:1.5271055 60:-0.0083223209 61:0.52918124 62:1.8049177 63:-0.18906885 64:-0.12706736 65:1.5778137 66:-0.14915055 67:-0.065288812 68:1.5994445 69:0.37997428 70:-0.058948398 71:1.3727986 72:0.33717316 73:0.017448574 74:1.3818666 
-0 -0 -0 -10 0 0 0 0 0 0 3.366892405978565 2.893977791676941 8.102312077052922 0:0.013473906 1:-0.019207031 2:1.7897354 3:0 4:0.30000001 5:1.8 6:-0.0089100748 7:0.60331845 8:1.7985777 9:0.001037389 10:0.74853635 11:1.7925597 12:-0.18965341 13:0.47751522 14:1.7730266 15:-0.23526387 16:0.22197247 17:1.7381481 18:-0.22300564 19:0.010680735 20:1.6437522 21:-0.21338822 22:-0.061902374 23:1.5951048 24:0.15673751 25:0.48273671 26:1.7660452 27:0.26652905 28:0.23260689 29:1.6351978 30:0.31086227 31:0.052437395 32:1.4937381 33:0.33148137 34:-0.0120489 35:1.417935 36:-0.069308445 37:-0.02267766 38:1.7446095 39:-0.066934094 40:-0.40915847 41:1.6797956 42:-0.064772576 43:-0.7590757 44:1.6772124 45:-0.063662395 46:-0.79210019 47:1.5088969 48:0.10044496 49:-0.017193705 50:1.7591363 51:0.11054913 52:-0.38649458 53:1.7118992 54:0.11040708 55:-0.73677421 56:1.7063485 57:0.10760288 58:-0.77037722 59:1.537551 60:-0.0069596618 61:0.52965808 62:1.8009506 63:-0.20979775 64:-0.12995157 65:1.5520545 66:-0.23104702 67:-0.062881172 68:1.5536257 69:0.35498923 70:-0.081515417 71:1.3820778 72:0.36196363 73:-0.052329868 74:1.4055415 
-5.772649321118021 -0 -0 -10 0 0 0 0 0 0 0 0 0 0:0.012296155 1:-0.019570678 2:1.7894244 3:0 4:0.30000001 5:1.8 6:-0.0082951039 7:0.60362363 8:1.7988477 9:0.0024913996 10:0.74892068 11:1.7929523 12:-0.19141947 13:0.47771683 14:1.772784 15:-0.23599769 16:0.22240695 17:1.7378476 18:-0.22353028 19:0.010886848 20:1.6439734 21:-0.21381195 22:-0.06126076 23:1.5950861 24:0.15585808 25:0.48252252 26:1.7667258 27:0.26170415 28:0.21474913 29:1.6807439 30:0.30132806 31:0.042094916 32:1.5247412 33:0.32375723 34:-0.030112892 35:1.457006 36:-0.070461378 37:-0.022856921 38:1.7443659 39:-0.068681389 40:-0.40982142 41:1.6795876 42:-0.066595614 43:-0.75971961 44:1.6769876 45:-0.065107107 46:-0.79267621 47:1.5086544 48:0.099147514 49:-0.01754415 50:1.7587674 51:0.10922891 52:-0.38737655 53:1.7113359 54:0.10868877 55:-0.73762238 56:1.7061203 57:0.10626149 58:-0.77115357 59:1.5373063 60:-0.0064683482 61:0.52990389 62:1.8011529 63:-0.21133356 64:-0.12669349 65:1.5530651 66:-0.2324055 67:-0.058764637 68:1.5569746 69:0.3485682 70:-0.10502869 71:1.4215169 72:0.36166972 73:-0.093589902 74:1.4330096 
-0 -0 -0 -10 0 0 0 0 0 0 0 0 0 0:0.01125218 1:-0.019956976 2:1.7890466 3:0 4:0.30000001 5:1.8 6:-0.0073973984 7:0.60396004 8:1.7993301 9:0.003640905 10:0.74924219 11:1.7937137 12:-0.1880157 13:0.47868118 14:1.772781 15:-0.23599434 16:0.22290006 17:1.7376455 18:-0.22365364 19:0.011173666 20:1.6442496 21:-0.21219477 22:-0.061401367 23:1.5949534 24:0.16940787 25:0.47319636 26:1.7733516 27:0.26007426 28:0.21224597 29:1.6876129 30:0.29912117 31:0.023554295 32:1.542852 33:0.31682542 34:-0.049523979 35:1.4916798 36:-0.071575038 37:-0.02287969 38:1.7439491 39:-0.070061229 40:-0.40990841 41:1.6794792 42:-0.067865379 43:-0.75974262 44:1.6781803 45:-0.057205446 46:-0.85523212 47:1.5956312 48:0.098151363 49:-0.018265218 50:1.7584532 51:0.1082033 52:-0.38808569 53:1.7110921 54:0.10648365 55:-0.73831868 56:1.7058097 57:0.10709211 58:-0.77170479 59:1.5369426 60:-0.005789794 61:0.53016329 62:1.8014997 63:-0.20606518 64:-0.12506229 65:1.5476824 66:-0.22818676 67:-0.060287148 68:1.5548826 69:0.34121081 70:-0.12364593 71:1.4587799 72:0.30408758 73:-0.077889249 74:1.5109135 
-0.7193601249952283 -0 -0 -0 0 0 0 0 0 0 0 0 0 0:0.0098104104 1:-0.02142477 2:1.7874281 3:0 4:0.30000001 5:1.8 6:-0.0070566013 7:0.60479712 8:1.800791 9:0.0078852177 10:0.75039852 11:1.7966988 12:-0.18424734 13:0.47971365 14:1.7712483 15:-0.23597622 16:0.22288069 17:1.7355766 18:-0.2235412 19:0.011145353 20:1.6421106 21:-0.20906049 22:-0.058858424 23:1.5920124 24:0.17117372 25:0.4720163 26:1.7861509 27:0.2497012 28:0.19090006 29:1.7484744 30:0.2804426 31:-0.024002761 32:1.6523249 33:0.30139422 34:-0.092913941 35:1.6177027 36:-0.072614335 37:-0.023375362 38:1.7410409 39:-0.073522545 40:-0.41217899 41:1.6790445 42:-0.071518071 43:-0.76203978 44:1.6766698 45:-0.063566543 46:-0.85491276 47:1.5880764 48:0.096406572 49:-0.020311505 50:1.7578714 51:0.10486339 52:-0.39314067 53:1.7097757 54:0.10159532 55:-0.74326789 56:1.7055852 57:0.10771196 58:-0.77632868 59:1.5366013 60:-0.0055017099 61:0.5308243 62:1.8025753 63:-0.20872226 64:-0.12727138 65:1.5489171 66:-0.24340898 67:-0.074889123 68:1.5686324 69:0.32535309 70:-0.17727658 71:1.5907462 72:0.27743331 73:-0.10969225 74:1.5887482 
-10 -0 -0 -0 0 0 0 0 0 0 0 0 0 0:0.009788461 1:-0.021802604 2:1.786981 3:0 4:0.30000001 5:1.8 6:-0.007177785 7:0.60500002 8:1.8011519 9:0.0081176981 10:0.75068164 11:1.7972001 12:-0.1843473 13:0.47996709 14:1.7709786 15:-0.23634884 16:0.22294179 17:1.7351004 18:-0.22291011 19:0.011371344 20:1.6413151 21:-0.2080344 22:-0.057804734 23:1.5919987 24:0.17324188 25:0.47068992 26:1.7909337 27:0.24886844 28:0.19160691 29:1.765102 30:0.27486143 31:-0.023962915 32:1.6857063 33:0.29843229 34:-0.092693835 35:1.6494073 36:-0.072490744 37:-0.023530006 38:1.7402946 39:-0.074364193 40:-0.41255912 41:1.6788541 42:-0.072414257 43:-0.76242006 44:1.6763955 45:-0.066236936 46:-0.85579801 47:1.5887123 48:0.096218802 49:-0.02081117 50:1.7576948 51:0.1043806 52:-0.39464015 53:1.709231 54:0.10074423 55:-0.74473023 56:1.7054714 57:0.1087804 58:-0.77768302 59:1.5365733 60:-0.0055923313 61:0.53098321 62:1.8028446 63:-0.20620853 64:-0.12279204 65:1.5483657 66:-0.24343896 67:-0.075238049 68:1.5675761 69:0.3230468 70:-0.17283887 71:1.6181141 72:0.24467045 73:-0.080013469 74:1.6461636 
-10 -0 -0 -0 0 0 0 0 0 0 0 0 0 0:0.0096758008 1:-0.02213335 2:1.7866369 3:0 4:0.30000001 5:1.8 6:-0.0072056949 7:0.60520047 8:1.8014244 9:0.0083412752 10:0.75101489 11:1.7980741 12:-0.18447776 13:0.48008585 14:1.7707485 15:-0.23633705 16:0.2229526 17:1.7344276 18:-0.22248738 19:0.01139158 20:1.6406444 21:-0.20810296 22:-0.058307856 23:1.5915202 24:0.17421582 25:0.47012055 26:1.7939447 27:0.24761637 28:0.19291961 29:1.7795118 30:0.27352569 31:-0.02479291 32:1.7000073 33:0.29752472 34:-0.095833272 35:1.674539 36:-0.072510228 37:-0.023711264 38:1.7396253 39:-0.075108141 40:-0.41326323 41:1.6789116 42:-0.073216528 43:-0.76312 44:1.6764094 45:-0.066486821 46:-0.85178053 47:1.5800565 48:0.09599214 49:-0.021211505 50:1.7576288 51:0.10370979 52:-0.39504635 53:1.7090291 54:0.10006055 55:-0.74515605 56:1.7047175 57:0.10931052 58:-0.77807134 59:1.535796 60:-0.0056098104 61:0.53113973 62:1.8030514 63:-0.20734899 64:-0.1252591 65:1.5511392 66:-0.24571721 67:-0.078258738 68:1.5745891 69:0.32279965 70:-0.17500877 71:1.6418046 72:0.25770405 73:-0.099650562 74:1.6504287 
