svm_type c_svc
kernel_type rbf
gamma 0.5
nr_class 4
total_sv 88
rho -0.0167919 -0.00702274 0.0271284 0.0305994 0.0178973 0.0658379
label 1 2 3 4
nr_sv 17 25 26 20
SV
1 0 0 0:0.0059093311 1:-0.033334464 2:1.7374961 3:0 4:0.30000001 5:1.8 6:-0.0057044178 7:0.6177572 8:1.8483522 9:-0.038179595 10:0.77334356 11:1.8600063 12:-0.19239715 13:0.49211025 14:1.8639646 15:-0.23702577 16:0.21741176 17:1.8222327 18:-0.23221576 19:0.024324328 20:1.7283022 21:-0.22706765 22:-0.045914203 23:1.68928 24:0.16375887 25:0.49577123 26:1.8128631 27:0.28142893 28:0.23760813 29:1.7824059 30:0.35397375 31:0.060643852 32:1.6860158 33:0.39084879 34:-0.010441005 35:1.6380813 36:-0.07443206 37:-0.037657678 38:1.7044253 39:-0.088684134 40:-0.4663797 41:1.6072066 42:-0.093651026 43:-0.79444069 44:1.5786006 45:-0.13043034 46:-0.83899313 47:1.4879944 48:0.082787223 49:-0.028142512 50:1.6893585 51:0.11673855 52:-0.46794698 53:1.5833309 54:0.12880516 55:-0.79123956 56:1.5621576 57:0.15298143 58:-0.83660561 59:1.470206 60:-0.0042548105 61:0.5402686 62:1.8386922 63:-0.22769955 64:-0.13172185 65:1.6658595 66:-0.17362723 67:-0.060211673 68:1.6548741 69:0.41779903 70:-0.085232541 71:1.5734456 72:0.40537703 73:-0.07460314 74:1.6373742 
1 0 0 0:0.0058371723 1:-0.033359528 2:1.7375319 3:0 4:0.30000001 5:1.8 6:-0.0056888312 7:0.61778778 8:1.8483417 9:-0.038301695 10:0.77325636 11:1.8599827 12:-0.1923648 13:0.49210656 14:1.863879 15:-0.2369854 16:0.21742576 17:1.8222435 18:-0.23217191 19:0.024365127 20:1.72825 21:-0.22707987 22:-0.046429485 23:1.6870129 24:0.16378176 25:0.49570721 26:1.8129249 27:0.28824419 28:0.23732263 29:1.7839725 30:0.36350107 31:0.059300661 32:1.6847231 33:0.4099564 34:-0.0094907582 35:1.6399672 36:-0.074528739 37:-0.037686735 38:1.7044394 39:-0.088509791 40:-0.46655864 41:1.6072388 42:-0.093398303 43:-0.7946192 44:1.578578 45:-0.13026476 46:-0.83902085 47:1.4879737 48:0.082740292 49:-0.028156787 50:1.6894023 51:0.11678517 52:-0.46583429 53:1.5832546 54:0.12912843 55:-0.79050928 56:1.5624273 57:0.15313521 58:-0.83664209 59:1.470063 60:-0.0042412356 61:0.54029292 62:1.8386805 63:-0.2266521 64:-0.1340861 65:1.6674066 66:-0.17471422 67:-0.053652585 68:1.6634433 69:0.44028974 70:-0.084326684 71:1.5903759 72:0.41508192 73:-0.051177204 74:1.640976 
1 0 0 0:0.005838953 1:-0.033370346 2:1.7375498 3:0 4:0.30000001 5:1.8 6:-0.0057209656 7:0.61780596 8:1.8483422 9:-0.038692839 10:0.77318895 11:1.8599591 12:-0.19235876 13:0.4920412 14:1.8638091 15:-0.23714733 16:0.21731272 17:1.8221064 18:-0.2323274 19:0.02417019 20:1.728302 21:-0.22843745 22:-0.047055691 23:1.6871016 24:0.16389316 25:0.49569365 26:1.8130403 27:0.29405075 28:0.24016443 29:1.7857311 30:0.3742075 31:0.061686516 32:1.6850338 33:0.42693639 34:-0.0039222538 35:1.6401229 36:-0.074581407 37:-0.037684739 38:1.704473 39:-0.088289887 40:-0.4661907 41:1.6072097 42:-0.093320243 43:-0.79459953 44:1.5785809 45:-0.13014704 46:-0.83908653 47:1.4879789 48:0.082782872 49:-0.028172135 50:1.6893997 51:0.11688104 52:-0.46543777 53:1.5830457 54:0.12937868 55:-0.79037559 56:1.5625794 57:0.15256798 58:-0.83627522 59:1.4719071 60:-0.0042637512 61:0.54030836 62:1.8386772 63:-0.22740653 64:-0.13180435 65:1.6654348 66:-0.174494 67:-0.057168692 68:1.6613581 69:0.458031 70:-0.078583673 71:1.5881019 72:0.43598652 73:-0.052527845 74:1.6343458 
1 0.318693075741644 0 0:0.0058136359 1:-0.033353686 2:1.737612 3:0 4:0.30000001 5:1.8 6:-0.0057358667 7:0.61780739 8:1.8483083 9:-0.038797349 10:0.7731849 11:1.8599868 12:-0.19241996 13:0.49201241 14:1.8638201 15:-0.23726714 16:0.21745506 17:1.8222818 18:-0.23272127 19:0.024180055 20:1.7287695 21:-0.22926693 22:-0.046790689 23:1.687408 24:0.16386341 25:0.49606702 26:1.8136251 27:0.29907572 28:0.2431964 29:1.7884877 30:0.39425206 31:0.070790082 32:1.6884403 33:0.44568467 34:0.0047308803 35:1.6455457 36:-0.074656799 37:-0.037634254 38:1.7045376 39:-0.087949708 40:-0.46678826 41:1.6074507 42:-0.093179025 43:-0.79545748 44:1.578742 45:-0.12977289 46:-0.83927715 47:1.4883385 48:0.082805485 49:-0.028182685 50:1.6894481 51:0.11702284 52:-0.46558285 53:1.5830605 54:0.12942527 55:-0.7905972 56:1.5628498 57:0.15271245 58:-0.83644736 59:1.4719145 60:-0.0042732432 61:0.5403111 62:1.8386486 63:-0.22801296 64:-0.13177493 65:1.6683896 66:-0.17461494 67:-0.05620417 68:1.6619759 69:0.47971803 70:-0.069081143 71:1.5948045 72:0.43569368 73:-0.013438225 74:1.6644008 
1 1 0 0:0.0058400631 1:-0.033375531 2:1.7376239 3:0 4:0.30000001 5:1.8 6:-0.0057882294 7:0.61783546 8:1.8483155 9:-0.039129395 10:0.77319503 11:1.8598244 12:-0.19253117 13:0.49195999 14:1.8638709 15:-0.23728323 16:0.2174387 17:1.8223093 18:-0.2327134 19:0.024176061 20:1.7287683 21:-0.22874483 22:-0.046617448 23:1.6865416 24:0.16380805 25:0.49625647 26:1.8138471 27:0.30560827 28:0.24710399 29:1.7903862 30:0.41042751 31:0.078002334 32:1.6883111 33:0.46317837 34:0.015086532 35:1.6461525 36:-0.07466007 37:-0.037622631 38:1.704484 39:-0.087908104 40:-0.46717244 41:1.6074162 42:-0.092818595 43:-0.79577392 44:1.5787148 45:-0.12934987 46:-0.83938277 47:1.4885921 48:0.082847767 49:-0.028220624 50:1.6894975 51:0.11708612 52:-0.46548155 53:1.5830202 54:0.12942109 55:-0.79064286 56:1.562953 57:0.15285325 58:-0.83649153 59:1.4719598 60:-0.004310593 61:0.54033363 62:1.8386497 63:-0.22799218 64:-0.1318593 65:1.6631255 66:-0.17522874 67:-0.060908854 68:1.6651177 69:0.50046062 70:-0.058977962 71:1.597939 72:0.46259335 73:-0.0083841681 74:1.656898 
1 0 0 0:0.003926374 1:-0.034510881 2:1.7395849 3:0 4:0.30000001 5:1.8 6:-0.0043269992 7:0.61883754 8:1.8464985 9:-0.049269032 10:0.76903766 11:1.8708653 12:-0.18943936 13:0.4887591 14:1.866637 15:-0.23396009 16:0.21030217 17:1.8273828 18:-0.23087104 19:0.016023308 20:1.7361753 21:-0.22463402 22:-0.050334066 23:1.6967378 24:0.16497563 25:0.49273396 26:1.810091 27:0.2825776 28:0.2326656 29:1.7873421 30:0.34630772 31:0.054506987 32:1.6862471 33:0.38866413 34:-0.014761776 35:1.634624 36:-0.07768333 37:-0.03996855 38:1.7111387 39:-0.087942861 40:-0.4651486 41:1.6123948 42:-0.087448262 43:-0.79985845 44:1.587091 45:-0.12519103 46:-0.84386736 47:1.4972744 48:0.082408428 49:-0.02811113 50:1.6864405 51:0.11936876 52:-0.46915215 53:1.5867476 54:0.13311939 55:-0.79525161 56:1.5708547 57:0.15918827 58:-0.84052813 59:1.4804006 60:-0.0031780005 61:0.54113483 62:1.8372495 63:-0.21889487 64:-0.1367707 65:1.6779499 66:-0.174137 67:-0.059198409 68:1.6619055 69:0.41455603 70:-0.094254792 71:1.5942874 72:0.38898858 73:-0.026184171 74:1.5837045 
1 0 0 0:0.0040410236 1:-0.034466565 2:1.7396607 3:0 4:0.30000001 5:1.8 6:-0.0044452325 7:0.61877114 8:1.8464224 9:-0.049275242 10:0.76906943 11:1.8707056 12:-0.18939424 13:0.48876131 14:1.8666739 15:-0.23360051 16:0.21017855 17:1.8275023 18:-0.23056501 19:0.015920669 20:1.736243 21:-0.22291839 22:-0.051513374 23:1.6953855 24:0.16534877 25:0.49265969 26:1.8102152 27:0.28900194 28:0.23360306 29:1.7863474 30:0.36243606 31:0.059880942 32:1.6842794 33:0.40453362 34:-0.0094021559 35:1.6332355 36:-0.077610366 37:-0.039879531 38:1.7111397 39:-0.087568894 40:-0.46504423 41:1.6124973 42:-0.087197676 43:-0.79936683 44:1.5871444 45:-0.124787 46:-0.84390444 47:1.4974895 48:0.082559109 49:-0.02811116 50:1.6865804 51:0.11974542 52:-0.46883452 53:1.5868397 54:0.1334953 55:-0.79499757 56:1.5716882 57:0.15947403 58:-0.84048158 59:1.4810929 60:-0.0032674223 61:0.54108679 62:1.8371918 63:-0.216896 64:-0.13602629 65:1.6715486 66:-0.17281108 67:-0.055868804 68:1.6599917 69:0.43230236 70:-0.08778818 71:1.5869055 72:0.39999038 73:-0.013408422 74:1.5838294 
1 0 0 0:0.0042698383 1:-0.034470201 2:1.7397208 3:0 4:0.30000001 5:1.8 6:-0.004799515 7:0.61875725 8:1.8463237 9:-0.049683213 10:0.76914179 11:1.8705559 12:-0.1895861 13:0.48866588 14:1.8667762 15:-0.23323524 16:0.20997185 17:1.8275015 18:-0.23029502 19:0.015719831 20:1.7362266 21:-0.22213353 22:-0.051735729 23:1.6951509 24:0.16571154 25:0.49267662 26:1.810281 27:0.29453206 28:0.23623395 29:1.7866812 30:0.37371835 31:0.063892215 32:1.6824915 33:0.42062655 34:-0.0039188862 35:1.630034 36:-0.077408731 37:-0.039840937 38:1.7111998 39:-0.087182902 40:-0.4649922 41:1.6125288 42:-0.087276205 43:-0.79870617 44:1.5871954 45:-0.12435736 46:-0.8439312 47:1.49752 48:0.082814008 49:-0.028157324 50:1.686645 51:0.12012084 52:-0.46854806 53:1.5868921 54:0.13411644 55:-0.79459816 56:1.572021 57:0.15940718 58:-0.84056234 59:1.4818196 60:-0.0035239831 61:0.54107875 62:1.8371215 63:-0.21822633 64:-0.13513848 65:1.6721764 66:-0.17285228 67:-0.058274835 68:1.6585622 69:0.4511573 70:-0.084151268 71:1.5789557 72:0.41975263 73:-0.0093285441 74:1.579453 
1 0 0 0:0.0046616495 1:-0.034527898 2:1.7397149 3:0 4:0.30000001 5:1.8 6:-0.0053993315 7:0.61879277 8:1.84639 9:-0.04962045 10:0.76912814 11:1.8703814 12:-0.18967009 13:0.48861897 14:1.8668976 15:-0.23276991 16:0.20979637 17:1.8274484 18:-0.22989142 19:0.015518099 20:1.7362349 21:-0.22268334 22:-0.053838253 23:1.6955311 24:0.16603655 25:0.49272871 26:1.810256 27:0.30018437 28:0.23912138 29:1.7868834 30:0.39012629 31:0.066326559 32:1.6784046 33:0.43773019 34:-0.00011360645 35:1.6279795 36:-0.07702592 37:-0.039873123 38:1.7111521 39:-0.086720504 40:-0.46511298 41:1.6125648 42:-0.08681906 43:-0.79915047 44:1.5871603 45:-0.12378399 46:-0.84424973 47:1.4973028 48:0.083212666 49:-0.028240502 50:1.6866758 51:0.12061831 52:-0.46867442 53:1.5868988 54:0.13463184 55:-0.79472286 56:1.5720932 57:0.16019529 58:-0.84074086 59:1.4811046 60:-0.0039596483 61:0.5411067 62:1.8371637 63:-0.21572155 64:-0.13650556 65:1.6751735 66:-0.17129813 67:-0.048729867 68:1.661396 69:0.46846122 70:-0.077126086 71:1.5874269 72:0.43180907 73:-0.0062765479 74:1.5762012 
1 1 0 0:0.0049981028 1:-0.034502685 2:1.7398453 3:0 4:0.30000001 5:1.8 6:-0.0058772564 7:0.61868846 8:1.8461504 9:-0.04993102 10:0.76914167 11:1.8701637 12:-0.18960653 13:0.48858121 14:1.8669283 15:-0.23234105 16:0.20953158 17:1.8274629 18:-0.22951159 19:0.015111566 20:1.7365918 21:-0.21982357 22:-0.053970098 23:1.6965244 24:0.16627374 25:0.49287334 26:1.8106301 27:0.30668151 28:0.24278882 29:1.7875712 30:0.40191454 31:0.071412116 32:1.6764925 33:0.45202684 34:0.0083731115 35:1.6273615 36:-0.076704592 37:-0.039871484 38:1.7112937 39:-0.086263247 40:-0.46518478 41:1.6126797 42:-0.086371496 43:-0.7991786 44:1.5873253 45:-0.12331664 46:-0.8443284 47:1.4973977 48:0.083564885 49:-0.028197408 50:1.6867993 51:0.12113429 52:-0.46944129 53:1.5872195 54:0.13506019 55:-0.79501474 56:1.57219 57:0.16065401 58:-0.84077632 59:1.481221 60:-0.0043127388 61:0.54103482 62:1.8369918 63:-0.213505 64:-0.13890305 65:1.6752009 66:-0.17072494 67:-0.054598838 68:1.6636789 69:0.48277968 70:-0.073635846 71:1.5816061 72:0.47383058 73:-0.0013299286 74:1.576093 
1 1 0.6231218228208432 0:0.0053751171 1:-0.034500182 2:1.7399831 3:0 4:0.30000001 5:1.8 6:-0.0063202232 7:0.61863405 8:1.8459506 9:-0.050331131 10:0.76915449 11:1.870095 12:-0.18959957 13:0.48841643 14:1.866951 15:-0.23179179 16:0.20926189 17:1.8275077 18:-0.22894794 19:0.014844537 20:1.7366316 21:-0.21771848 22:-0.052348346 23:1.6956167 24:0.16624254 25:0.49404812 26:1.8109546 27:0.31159252 28:0.24689335 29:1.787641 30:0.41417134 31:0.079494327 32:1.6765466 33:0.46513382 34:0.017733395 35:1.6277456 36:-0.076313294 37:-0.039910257 38:1.7114615 39:-0.085582465 40:-0.46545842 41:1.6127276 42:-0.085603312 43:-0.7995469 44:1.5872273 45:-0.12273864 46:-0.84444624 47:1.497499 48:0.083932675 49:-0.028159589 50:1.686908 51:0.12170146 52:-0.46956614 53:1.5873525 54:0.13558355 55:-0.7951647 56:1.5723047 57:0.16111481 58:-0.84083194 59:1.4811187 60:-0.0046462417 61:0.54099768 62:1.8368449 63:-0.21380952 64:-0.13731381 65:1.6744976 66:-0.17019433 67:-0.052374482 68:1.6588926 69:0.49789676 70:-0.063891619 71:1.5761549 72:0.45949003 73:0.0091806054 74:1.5724254 
1 1 1 0:0.0055677146 1:-0.034509957 2:1.740067 3:0 4:0.30000001 5:1.8 6:-0.0065358579 7:0.61864251 8:1.8458064 9:-0.050945207 10:0.76886469 11:1.8698559 12:-0.18992642 13:0.48811251 14:1.8666673 15:-0.23155874 16:0.2092129 17:1.82757 18:-0.22868553 19:0.014747083 20:1.7368119 21:-0.21847877 22:-0.052453697 23:1.6964011 24:0.16628492 25:0.49421209 26:1.811166 27:0.31548253 28:0.24943572 29:1.7879448 30:0.42922133 31:0.083166927 32:1.6732767 33:0.48002559 34:0.023560494 35:1.6263239 36:-0.076120377 37:-0.039938569 38:1.7115226 39:-0.085284501 40:-0.46564102 41:1.6127131 42:-0.085209206 43:-0.79972738 44:1.5874655 45:-0.12224424 46:-0.84454542 47:1.4978194 48:0.084122963 49:-0.028148204 50:1.6870277 51:0.12214404 52:-0.46807414 53:1.5876665 54:0.13593212 55:-0.79531199 56:1.5726435 57:0.16140178 58:-0.84089077 59:1.481252 60:-0.0048112869 61:0.54100347 62:1.8367395 63:-0.21334302 64:-0.13716993 65:1.6717455 66:-0.17044067 67:-0.056116432 68:1.6591437 69:0.51470143 70:-0.053562403 71:1.5845191 72:0.49362111 73:0.042688906 74:1.5842471 
1 0 0 0:0.0054474026 1:-0.034948885 2:1.7433369 3:0 4:0.30000001 5:1.8 6:-0.0055775344 7:0.61912155 8:1.8429749 9:-0.049653515 10:0.77066368 11:1.8670526 12:-0.18994477 13:0.49057436 14:1.8635893 15:-0.2353368 16:0.2115795 17:1.8296669 18:-0.23354235 19:0.017500281 20:1.7378962 21:-0.22781521 22:-0.050823778 23:1.6991482 24:0.16355687 25:0.49244559 26:1.8090012 27:0.28191656 28:0.2367599 29:1.7877584 30:0.35899761 31:0.06503728 32:1.6849155 33:0.39678362 34:-0.0059662163 35:1.634258 36:-0.077264607 37:-0.040436417 38:1.7137465 39:-0.087098278 40:-0.46584901 41:1.6192651 42:-0.086807825 43:-0.80254 44:1.5949349 45:-0.12393187 46:-0.84548652 47:1.5054302 48:0.084971994 49:-0.028672725 50:1.6915073 51:0.11992185 52:-0.47301778 53:1.5928316 54:0.13392274 55:-0.79603928 56:1.5795655 57:0.16041246 58:-0.84282386 59:1.4866774 60:-0.0041056871 61:0.54134065 62:1.8345749 63:-0.22128595 64:-0.136168 65:1.6810172 66:-0.17465648 67:-0.055207282 68:1.6735787 69:0.42624965 70:-0.082644254 71:1.5918894 72:0.41595781 73:-0.07403183 74:1.6293149 
1 0 0 0:0.0057289004 1:-0.034910083 2:1.7433293 3:0 4:0.30000001 5:1.8 6:-0.0060548037 7:0.61901999 8:1.8429954 9:-0.049525727 10:0.77066028 11:1.8669329 12:-0.18979815 13:0.4905138 14:1.8636377 15:-0.23498164 16:0.21156788 17:1.8297303 18:-0.23317158 19:0.017522514 20:1.7378793 21:-0.22680457 22:-0.050888389 23:1.6980009 24:0.16392936 25:0.49281067 26:1.8093059 27:0.29411682 28:0.23714638 29:1.7881172 30:0.38365629 31:0.071388662 32:1.6790638 33:0.42718917 34:0.0014433861 35:1.6310105 36:-0.077025622 37:-0.040382594 38:1.7136781 39:-0.086658776 40:-0.4658986 41:1.6192493 42:-0.086682089 43:-0.80218434 44:1.5948296 45:-0.12374018 46:-0.84537286 47:1.5047526 48:0.08528091 49:-0.028642476 50:1.6915407 51:0.12028891 52:-0.47118229 53:1.5928392 54:0.13433364 55:-0.79602069 56:1.5794301 57:0.16077952 58:-0.84271228 59:1.4867625 60:-0.0044544935 61:0.54127306 62:1.83459 63:-0.22029039 64:-0.1367733 65:1.6791892 66:-0.17446643 67:-0.046007603 68:1.6791887 69:0.45869613 70:-0.075830951 71:1.5956516 72:0.44291204 73:-0.069292158 74:1.6201091 
1 1 0 0:0.0058597177 1:-0.034786999 2:1.7433615 3:0 4:0.30000001 5:1.8 6:-0.0062230602 7:0.61889994 8:1.8429656 9:-0.049521931 10:0.77049404 11:1.8666933 12:-0.19035278 13:0.49047738 14:1.8641779 15:-0.23474881 16:0.21150196 17:1.8297572 18:-0.23289114 19:0.017453134 20:1.737915 21:-0.22790134 22:-0.051997602 23:1.6989539 24:0.16369608 25:0.49361628 26:1.8097465 27:0.30549413 28:0.24423903 29:1.7891693 30:0.40757146 31:0.080387682 32:1.6806154 33:0.45601067 34:0.015316606 35:1.6339886 36:-0.076885104 37:-0.040253103 38:1.713635 39:-0.086199582 40:-0.46604204 41:1.6191401 42:-0.086231381 43:-0.80254173 44:1.5949142 45:-0.12328061 46:-0.84562403 47:1.5048008 48:0.085408978 49:-0.028531313 50:1.6916504 51:0.12080889 52:-0.47033 53:1.5929666 54:0.13494495 55:-0.79522336 56:1.5792215 57:0.16107813 58:-0.84257698 59:1.4867172 60:-0.0045841485 61:0.54118663 62:1.8345699 63:-0.2230269 64:-0.13574117 65:1.6812067 66:-0.17449704 67:-0.054896414 68:1.6752911 69:0.48638269 70:-0.066847578 71:1.5779338 72:0.48308179 73:-0.041893959 74:1.6293004 
1 1 1 0:0.0060002282 1:-0.034734756 2:1.7433319 3:0 4:0.30000001 5:1.8 6:-0.0064624995 7:0.61877775 8:1.8430214 9:-0.049741596 10:0.77040339 11:1.8665781 12:-0.190529 13:0.49043196 14:1.8641312 15:-0.23470019 16:0.21166062 17:1.8297989 18:-0.23296307 19:0.01761058 20:1.737957 21:-0.2288882 22:-0.051093966 23:1.6977978 24:0.16389513 25:0.49374807 26:1.8111639 27:0.31442392 28:0.24973762 29:1.7896283 30:0.43413663 31:0.088881433 32:1.6766798 33:0.48406148 34:0.028478742 35:1.6321554 36:-0.076796167 37:-0.04014644 38:1.7135112 39:-0.08603362 40:-0.46594107 41:1.6191146 42:-0.08602199 43:-0.80255824 44:1.5948696 45:-0.1231598 46:-0.84557992 47:1.504755 48:0.085553482 49:-0.028493553 50:1.6916938 51:0.12101223 52:-0.47030056 53:1.5929465 54:0.13512488 55:-0.79553497 56:1.5792284 57:0.16131893 58:-0.84276932 59:1.4868426 60:-0.0047608614 61:0.54110181 62:1.8346105 63:-0.22368191 64:-0.13326499 65:1.6779814 66:-0.17436978 67:-0.042683333 68:1.6806312 69:0.52170563 70:-0.051132441 71:1.5823712 72:0.51340109 73:-0.024817914 74:1.6309805 
1 1 1 0:0.0061825439 1:-0.034597933 2:1.7433491 3:0 4:0.30000001 5:1.8 6:-0.0067380518 7:0.61861408 8:1.8430061 9:-0.049753476 10:0.77023661 11:1.866565 12:-0.19068471 13:0.49034271 14:1.8642068 15:-0.23450512 16:0.21154383 17:1.8297536 18:-0.23284534 19:0.017479837 20:1.7379453 21:-0.22986314 22:-0.051497608 23:1.6989155 24:0.16419014 25:0.49402305 26:1.8120973 27:0.32516348 28:0.25700137 29:1.7912674 30:0.45680088 31:0.099566668 32:1.6748762 33:0.51223642 34:0.042007595 35:1.6311669 36:-0.076634824 37:-0.039957106 38:1.7133331 39:-0.085771538 40:-0.46574846 41:1.6192794 42:-0.085630283 43:-0.80207443 44:1.5947301 45:-0.123233 46:-0.84590888 47:1.5050578 48:0.085704692 49:-0.028355002 50:1.6920071 51:0.12138007 52:-0.46982691 53:1.5931215 54:0.13545272 55:-0.79580379 56:1.5792954 57:0.16108748 58:-0.84287381 59:1.4880838 60:-0.0049648657 61:0.54098618 62:1.8346021 63:-0.22266304 64:-0.1361509 65:1.686569 66:-0.17417818 67:-0.03488338 68:1.6808126 69:0.55274886 70:-0.028689831 71:1.590661 72:0.54071039 73:-0.0024341643 74:1.6363535 
-1 0 0 0:0.0059301928 1:-0.033377469 2:1.7377777 3:0 4:0.30000001 5:1.8 6:-0.0059594139 7:0.61780936 8:1.8480392 9:-0.039190598 10:0.7732777 11:1.8599715 12:-0.19257374 13:0.49197936 14:1.8639259 15:-0.23720768 16:0.21736819 17:1.8221521 18:-0.23275563 19:0.02402246 20:1.7287979 21:-0.22810948 22:-0.047596961 23:1.6875818 24:0.16367382 25:0.49646097 26:1.8136826 27:0.3124519 28:0.25152129 29:1.7917757 30:0.42685089 31:0.085101515 32:1.6889594 33:0.48276028 34:0.023944646 35:1.6467237 36:-0.074596472 37:-0.037616521 38:1.7045822 39:-0.08772479 40:-0.46725816 41:1.6075933 42:-0.092622802 43:-0.79564893 44:1.5788469 45:-0.12910149 46:-0.83932984 47:1.4888391 48:0.082949586 49:-0.028219312 50:1.6896839 51:0.11721262 52:-0.46507803 53:1.5830898 54:0.12956741 55:-0.7907058 56:1.563107 57:0.15330982 58:-0.83649999 59:1.4714742 60:-0.0044329092 61:0.54032028 62:1.8384478 63:-0.22845057 64:-0.13265343 65:1.6652782 66:-0.17381254 67:-0.055783629 68:1.6639676 69:0.52206206 70:-0.050846696 71:1.5933521 72:0.49474534 73:-0.0084541738 74:1.6456037 
-1 0 0 0:0.0060195178 1:-0.033401489 2:1.7378452 3:0 4:0.30000001 5:1.8 6:-0.0060984194 7:0.61783326 8:1.8479674 9:-0.039237771 10:0.7733227 11:1.8600984 12:-0.19259809 13:0.49198368 14:1.863904 15:-0.2372257 16:0.21720394 17:1.8221202 18:-0.23281872 19:0.023881346 20:1.7287104 21:-0.22760941 22:-0.047227651 23:1.6887085 24:0.16356827 25:0.496528 26:1.8135512 27:0.31805402 28:0.2552481 29:1.7935381 30:0.44612074 31:0.090671986 32:1.6892052 33:0.50424361 34:0.034434199 35:1.649586 36:-0.074544564 37:-0.037617564 38:1.7045605 39:-0.087596744 40:-0.46728045 41:1.6077197 42:-0.092430912 43:-0.79565132 44:1.5789049 45:-0.12904996 46:-0.83931482 47:1.4888859 48:0.083048686 49:-0.02824381 50:1.6898029 51:0.11733869 52:-0.46525761 53:1.5832798 54:0.12938668 55:-0.79109251 56:1.5633075 57:0.15340205 58:-0.83652103 59:1.4717524 60:-0.0045337453 61:0.54034042 62:1.8383908 63:-0.22760893 64:-0.13247512 65:1.6596105 66:-0.17507102 67:-0.059663445 68:1.6663523 69:0.54625636 70:-0.039279044 71:1.5989554 72:0.48064101 73:0.025877744 74:1.6615794 
-1 0 0 0:0.0061044097 1:-0.033423781 2:1.7379627 3:0 4:0.30000001 5:1.8 6:-0.006218195 7:0.61784804 8:1.8478732 9:-0.039360531 10:0.77335525 11:1.860316 12:-0.19288708 13:0.49181715 14:1.8634701 15:-0.23730393 16:0.21704015 17:1.8220587 18:-0.23279467 19:0.023652256 20:1.7288051 21:-0.22844957 22:-0.047646552 23:1.686388 24:0.16353707 25:0.49655542 26:1.8135862 27:0.32596868 28:0.26073071 29:1.7958267 30:0.46003333 31:0.10184723 32:1.6912191 33:0.52756584 34:0.043899655 35:1.648993 36:-0.074502409 37:-0.037565649 38:1.704443 39:-0.087483443 40:-0.4673138 41:1.6079359 42:-0.092276558 43:-0.79567158 44:1.5790029 45:-0.12910151 46:-0.83923852 47:1.4889257 48:0.083159223 49:-0.028311133 50:1.6900315 51:0.11746225 52:-0.46525136 53:1.5835185 54:0.12950225 55:-0.7911948 56:1.5635529 57:0.15352598 58:-0.83658743 59:1.4720156 60:-0.0046216622 61:0.54035425 62:1.8383143 63:-0.22703333 64:-0.13424638 65:1.6631384 66:-0.17396168 67:-0.055454731 68:1.6606367 69:0.56727672 70:-0.024353296 71:1.598577 72:0.53650558 73:0.019550472 74:1.6535389 
-1 0.1011369753256956 0 0:0.0061592162 1:-0.03331238 2:1.7380097 3:0 4:0.30000001 5:1.8 6:-0.0063325241 7:0.61777735 8:1.8478229 9:-0.039505139 10:0.77338982 11:1.860399 12:-0.19322783 13:0.49181482 14:1.8632329 15:-0.23738798 16:0.21705851 17:1.8220155 18:-0.23280621 19:0.023644328 20:1.7288249 21:-0.22922358 22:-0.048360348 23:1.686955 24:0.16374764 25:0.49735257 26:1.814744 27:0.3338173 28:0.26718101 29:1.7988007 30:0.4749487 31:0.11431459 32:1.6950333 33:0.54817659 34:0.05754739 35:1.6538641 36:-0.074465454 37:-0.03741464 38:1.7044313 39:-0.087429605 40:-0.46735761 41:1.6079793 42:-0.092287913 43:-0.79583824 44:1.5790679 45:-0.1290279 46:-0.83927453 47:1.4890175 48:0.083232768 49:-0.028223455 50:1.6901319 51:0.11739718 52:-0.46569598 53:1.5836322 54:0.12954742 55:-0.79125929 56:1.5637825 57:0.15349063 58:-0.83700538 59:1.4727898 60:-0.0046984106 61:0.54030657 62:1.8382778 63:-0.22784626 64:-0.1329757 65:1.6652484 66:-0.17516412 67:-0.043158025 68:1.673142 69:0.58852762 70:-0.010178596 71:1.6014235 72:0.55358022 73:0.036885589 74:1.6577928 
-1 1 0 0:0.0062045157 1:-0.033295035 2:1.7380309 3:0 4:0.30000001 5:1.8 6:-0.0063842386 7:0.61775196 8:1.8478253 9:-0.039693691 10:0.77344507 11:1.860486 12:-0.19342376 13:0.49185705 14:1.8630953 15:-0.23761401 16:0.2172364 17:1.8217745 18:-0.23292609 19:0.02365011 20:1.7289872 21:-0.2279796 22:-0.047971904 23:1.6872048 24:0.16366045 25:0.49742597 26:1.8146958 27:0.34120563 28:0.27319771 29:1.8004096 30:0.49125239 31:0.12471992 32:1.697072 33:0.56846952 34:0.073232949 35:1.6595507 36:-0.074441247 37:-0.037357062 38:1.7043695 39:-0.087334067 40:-0.46739161 41:1.6080897 42:-0.092154443 43:-0.79618084 44:1.5796056 45:-0.12903957 46:-0.8393352 47:1.4893522 48:0.08329919 49:-0.028236508 50:1.6902037 51:0.11739588 52:-0.46619931 53:1.5838819 54:0.12964647 55:-0.7913807 56:1.563951 57:0.15374155 58:-0.83704823 59:1.4716749 60:-0.0047371909 61:0.54028869 62:1.8382761 63:-0.228002 64:-0.13293032 65:1.665719 66:-0.17432803 67:-0.052837521 68:1.665513 69:0.61632276 70:0.011137366 71:1.621093 72:0.55605841 73:0.065420449 74:1.6697459 
-1 1 0 0:0.0062898248 1:-0.03325811 2:1.7380159 3:0 4:0.30000001 5:1.8 6:-0.0065227821 7:0.61771584 8:1.847882 9:-0.039833777 10:0.77343935 11:1.8604538 12:-0.19370031 13:0.49179727 14:1.8628657 15:-0.23767775 16:0.217318 17:1.8217018 18:-0.23318115 19:0.023777217 20:1.7287962 21:-0.22793576 22:-0.049073309 23:1.6844122 24:0.16391143 25:0.4979161 26:1.8157172 27:0.34976777 28:0.28079647 29:1.802439 30:0.50650805 31:0.1350705 32:1.7007413 33:0.58741331 34:0.092218548 35:1.6643953 36:-0.074403696 37:-0.037287414 38:1.7043002 39:-0.087191246 40:-0.46754643 41:1.608093 42:-0.091997087 43:-0.79630202 44:1.5796046 45:-0.12891141 46:-0.83948934 47:1.489073 48:0.083425887 49:-0.028227657 50:1.6902325 51:0.11749307 52:-0.46651801 53:1.5839198 54:0.12909827 55:-0.7915377 56:1.564172 57:0.15390578 58:-0.83718085 59:1.4716568 60:-0.0048352629 61:0.54026377 62:1.8383124 63:-0.22749031 64:-0.13276044 65:1.6614671 66:-0.17421314 67:-0.052684903 68:1.6647003 69:0.63941973 70:0.034356594 71:1.6218648 72:0.58693522 73:0.076419592 74:1.6716044 
-0 1 1 0:0.0064303279 1:-0.033168972 2:1.738137 3:0 4:0.30000001 5:1.8 6:-0.0067941397 7:0.61759257 8:1.8476837 9:-0.03989923 10:0.77334225 11:1.8605812 12:-0.19401218 13:0.49178895 14:1.8621817 15:-0.23785335 16:0.21766248 17:1.8212354 18:-0.23329446 19:0.023999989 20:1.728611 21:-0.22886658 22:-0.047775447 23:1.6841478 24:0.16482612 25:0.49932048 26:1.8174913 27:0.35722733 28:0.28815314 29:1.802886 30:0.51808029 31:0.16390374 32:1.7114303 33:0.60545379 34:0.11303204 35:1.6687298 36:-0.074296929 37:-0.037195116 38:1.704381 39:-0.087027907 40:-0.46762633 41:1.6081657 42:-0.092040546 43:-0.7968092 44:1.5793169 45:-0.12865186 46:-0.8396281 47:1.4890957 48:0.083603315 49:-0.028145909 50:1.6903944 51:0.11768205 52:-0.46677217 53:1.5841012 54:0.12916461 55:-0.79169381 56:1.5643568 57:0.15425611 58:-0.83750105 59:1.4719057 60:-0.0050278828 61:0.54018176 62:1.8381693 63:-0.22748134 64:-0.13451806 65:1.6624746 66:-0.1741709 67:-0.052862912 68:1.6661742 69:0.66079515 70:0.058688372 71:1.6349549 72:0.59423089 73:0.099002838 74:1.6903615 
-0 1 1 0:0.0065308288 1:-0.03309074 2:1.7382016 3:0 4:0.30000001 5:1.8 6:-0.0069148317 7:0.61751604 8:1.8476453 9:-0.03998182 10:0.77317882 11:1.8606017 12:-0.19427186 13:0.49184981 14:1.8615432 15:-0.23807392 16:0.21799025 17:1.8207359 18:-0.2333989 19:0.024205685 20:1.7283969 21:-0.22810373 22:-0.049499214 23:1.6844077 24:0.16528402 25:0.49949667 26:1.8183205 27:0.36772728 28:0.29828665 29:1.8034415 30:0.532336 31:0.17586672 32:1.7141514 33:0.63306797 34:0.13027623 35:1.6676292 36:-0.074303068 37:-0.037059307 38:1.7043486 39:-0.086745441 40:-0.46776071 41:1.6081944 42:-0.091691822 43:-0.79668689 44:1.5791597 45:-0.12888278 46:-0.84001493 47:1.4887605 48:0.083786845 49:-0.028108865 50:1.6905389 51:0.11799501 52:-0.46696931 53:1.5841649 54:0.1293505 55:-0.7918632 56:1.5643854 57:0.15446591 58:-0.83757162 59:1.4719162 60:-0.0051185265 61:0.54012597 62:1.8381371 63:-0.22648735 64:-0.13337702 65:1.6607976 66:-0.17371331 67:-0.054134369 68:1.6665425 69:0.68792266 70:0.082194895 71:1.6255467 72:0.62852311 73:0.10846448 74:1.6867023 
-1 0 0 0:0.0058150738 1:-0.034467131 2:1.740135 3:0 4:0.30000001 5:1.8 6:-0.0068114996 7:0.6185627 8:1.8457241 9:-0.051269807 10:0.76884294 11:1.8696964 12:-0.18993153 13:0.48810717 14:1.8666244 15:-0.23124412 16:0.2091299 17:1.8275919 18:-0.22830333 19:0.014644504 20:1.7368829 21:-0.21770383 22:-0.054226547 23:1.696147 24:0.16654441 25:0.4942694 26:1.811326 27:0.32002792 28:0.25224742 29:1.7881212 30:0.43942785 31:0.088666737 32:1.6720002 33:0.49338007 34:0.031428903 35:1.625433 36:-0.075898342 37:-0.039898872 38:1.7116144 39:-0.084926441 40:-0.46559387 41:1.6128228 42:-0.084860131 43:-0.79977739 44:1.5875156 45:-0.12173863 46:-0.84450078 47:1.4981639 48:0.084398732 49:-0.028113931 50:1.6870775 51:0.1226337 52:-0.46718395 53:1.5875719 54:0.13631627 55:-0.79531813 56:1.5727727 57:0.16171055 58:-0.84105265 59:1.4814427 60:-0.0050203055 61:0.54094648 62:1.8366785 63:-0.21206114 64:-0.13892344 65:1.6717575 66:-0.17029655 67:-0.060051441 68:1.6617963 69:0.53161341 70:-0.045472682 71:1.5778873 72:0.48363096 73:0.02496177 74:1.5754526 
-1 0 0 0:0.0059689954 1:-0.034426212 2:1.7401192 3:0 4:0.30000001 5:1.8 6:-0.0069837496 7:0.6184985 8:1.8458035 9:-0.051779881 10:0.76872206 11:1.8694839 12:-0.19008327 13:0.48797458 14:1.8664532 15:-0.23122625 16:0.208942 17:1.827544 18:-0.22800578 19:0.014402181 20:1.7369764 21:-0.21850422 22:-0.05259797 23:1.6963663 24:0.16668586 25:0.4943707 26:1.8115103 27:0.32443291 28:0.25519383 29:1.7885921 30:0.45182365 31:0.096395463 32:1.6707447 33:0.50854796 34:0.037185341 35:1.6230276 36:-0.075760134 37:-0.039865583 38:1.7115548 39:-0.084723443 40:-0.46563536 41:1.6128948 42:-0.084485427 43:-0.79987895 44:1.5874646 45:-0.12156661 46:-0.84451157 47:1.4982069 48:0.084566996 49:-0.028074175 50:1.6870971 51:0.12273067 52:-0.46791267 53:1.5876591 54:0.13655783 55:-0.79534513 56:1.5728681 57:0.16191149 58:-0.84106833 59:1.4814932 60:-0.0051493868 61:0.54089993 62:1.8367307 63:-0.21149762 64:-0.13951832 65:1.6775665 66:-0.17046528 67:-0.049842834 68:1.6582754 69:0.54673934 70:-0.032346904 71:1.57815 72:0.49792653 73:0.028721541 74:1.5683537 
-1 0 0 0:0.0061727092 1:-0.034378082 2:1.740222 3:0 4:0.30000001 5:1.8 6:-0.0071452856 7:0.61841959 8:1.8457303 9:-0.052054446 10:0.7685225 11:1.8694127 12:-0.19008216 13:0.48789167 14:1.866468 15:-0.231002 16:0.20878071 17:1.827668 18:-0.22758695 19:0.014277667 20:1.7370183 21:-0.21820152 22:-0.053354591 23:1.6969111 24:0.16684154 25:0.49451488 26:1.8116124 27:0.32990295 28:0.25903177 29:1.7897811 30:0.46044728 31:0.10421401 32:1.6703858 33:0.52140522 34:0.047116518 35:1.6223035 36:-0.075576857 37:-0.039832622 38:1.7116146 39:-0.084363587 40:-0.46570262 41:1.6130838 42:-0.08417201 43:-0.80019683 44:1.5875454 45:-0.12144856 46:-0.84464115 47:1.4981344 48:0.0847921 49:-0.028021902 50:1.687238 51:0.1230386 52:-0.46796811 53:1.5878634 54:0.13685596 55:-0.79541975 56:1.573107 57:0.16227326 58:-0.84101409 59:1.4816291 60:-0.0052766502 61:0.54084128 62:1.8366725 63:-0.21403089 64:-0.13669667 65:1.6733141 66:-0.17012787 67:-0.05533877 68:1.6605575 69:0.55939752 70:-0.021531135 71:1.5806651 72:0.52918661 73:0.070401341 74:1.5828464 
-1 0 0 0:0.0063128993 1:-0.034315646 2:1.7402828 3:0 4:0.30000001 5:1.8 6:-0.0072775744 7:0.61837804 8:1.8456938 9:-0.05233606 10:0.76847541 11:1.8693113 12:-0.19033733 13:0.4877477 14:1.8663795 15:-0.23096302 16:0.2087253 17:1.8277805 18:-0.22733605 19:0.014261782 20:1.7370424 21:-0.21975483 22:-0.053143024 23:1.6974483 24:0.16680565 25:0.49490198 26:1.8118148 27:0.3383126 28:0.26578435 29:1.7862713 30:0.46853077 31:0.11222684 32:1.6718535 33:0.5325197 34:0.058389038 35:1.6251156 36:-0.075426959 37:-0.039840907 38:1.7115946 39:-0.084140562 40:-0.46578386 41:1.613153 42:-0.083984248 43:-0.80066311 44:1.587429 45:-0.12174358 46:-0.84493613 47:1.4974062 48:0.084932446 49:-0.027874231 50:1.6874235 51:0.12320651 52:-0.46756223 53:1.588017 54:0.13712497 55:-0.79522061 56:1.5729666 57:0.16245103 58:-0.84104502 59:1.4814405 60:-0.0053771958 61:0.54080999 62:1.8366454 63:-0.21436483 64:-0.13724096 65:1.680337 66:-0.17049366 67:-0.061975211 68:1.6616845 69:0.57533658 70:-0.013001025 71:1.5843811 72:0.53571147 73:0.081271529 74:1.587781 
-1 1 0 0:0.0064760968 1:-0.03431657 2:1.7403147 3:0 4:0.30000001 5:1.8 6:-0.0074324161 7:0.61839557 8:1.8456807 9:-0.052653261 10:0.76856625 11:1.8692889 12:-0.19076759 13:0.4873957 14:1.8660653 15:-0.23103231 16:0.2089563 17:1.8280203 18:-0.22717276 19:0.014462441 20:1.7373612 21:-0.21923754 22:-0.05421105 23:1.6968098 24:0.16661972 25:0.49510705 26:1.8117623 27:0.34254482 28:0.26944476 29:1.7872334 30:0.47617909 31:0.1201559 32:1.671921 33:0.54383361 34:0.068445712 35:1.6226995 36:-0.075276963 37:-0.039860755 38:1.7115266 39:-0.083946221 40:-0.46554118 41:1.6132505 42:-0.083862543 43:-0.79959112 44:1.5874369 45:-0.121783 46:-0.84472948 47:1.4972889 48:0.085102506 49:-0.02787149 50:1.6875312 51:0.12334005 52:-0.46722704 53:1.588136 54:0.13722372 55:-0.79511917 56:1.5731759 57:0.16240484 58:-0.84102827 59:1.4818573 60:-0.0054944009 61:0.54082119 62:1.8366323 63:-0.21365172 64:-0.13778956 65:1.6753752 66:-0.16959265 67:-0.060171574 68:1.6595953 69:0.58960336 70:0.0035454631 71:1.5835397 72:0.5363065 73:0.062365711 74:1.5708923 
-1 1 0 0:0.006645523 1:-0.034382164 2:1.7403629 3:0 4:0.30000001 5:1.8 6:-0.0076458678 7:0.6184926 8:1.8456061 9:-0.052777231 10:0.76852173 11:1.8691747 12:-0.19097103 13:0.48733109 14:1.8661473 15:-0.23092279 16:0.20883763 17:1.8280847 18:-0.22704326 19:0.01432246 20:1.7374785 21:-0.22038186 22:-0.055131972 23:1.6968329 24:0.16680193 25:0.4950152 26:1.8118944 27:0.34933901 28:0.2749365 29:1.7847562 30:0.48657417 31:0.12840766 32:1.672364 33:0.55816323 34:0.079813719 35:1.6262424 36:-0.075128704 37:-0.039902598 38:1.7115281 39:-0.083716206 40:-0.46549428 41:1.6133955 42:-0.083774947 43:-0.80022472 44:1.5879257 45:-0.12147243 46:-0.84479684 47:1.4975243 48:0.085276514 49:-0.027938396 50:1.6876252 51:0.12328586 52:-0.46841368 53:1.5883386 54:0.13739651 55:-0.7947492 56:1.573559 57:0.1626597 58:-0.84121227 59:1.4819343 60:-0.0056545213 61:0.54089069 62:1.8365774 63:-0.21327528 64:-0.13982838 65:1.6787512 66:-0.16878489 67:-0.053695172 68:1.6585042 69:0.60537165 70:0.016699076 71:1.5906155 72:0.56428891 73:0.071172148 74:1.5692275 
-1 1 0 0:0.0067768246 1:-0.034397274 2:1.7403829 3:0 4:0.30000001 5:1.8 6:-0.0078429244 7:0.6185267 8:1.8455834 9:-0.053005561 10:0.76858294 11:1.8690522 12:-0.1910719 13:0.48732978 14:1.8661644 15:-0.2310873 16:0.20884573 17:1.8282807 18:-0.22699526 19:0.01435855 20:1.7376149 21:-0.22154504 22:-0.054807484 23:1.6974185 24:0.16684967 25:0.49529278 26:1.8119278 27:0.35595399 28:0.28110123 29:1.7830088 30:0.49385139 31:0.15283632 32:1.6819541 33:0.57121897 34:0.09273988 35:1.627892 36:-0.074996799 37:-0.039943516 38:1.7115099 39:-0.083557375 40:-0.4655664 41:1.6134031 42:-0.083767794 43:-0.80051845 44:1.5880139 45:-0.12128328 46:-0.84495419 47:1.4976015 48:0.085407101 49:-0.027908862 50:1.687731 51:0.12307764 52:-0.47145712 53:1.5885386 54:0.13719711 55:-0.7947287 56:1.5739334 57:0.16279739 58:-0.84141272 59:1.4820156 60:-0.0057997704 61:0.54091603 62:1.8365607 63:-0.21459609 64:-0.13838834 65:1.6752405 66:-0.16963232 67:-0.055886924 68:1.6634486 69:0.62237799 70:0.031517893 71:1.593869 72:0.57186371 73:0.088293225 74:1.5702901 
-1 1 0 0:0.0069627911 1:-0.034384221 2:1.740468 3:0 4:0.30000001 5:1.8 6:-0.0080015436 7:0.61850214 8:1.84549 9:-0.053319115 10:0.76859951 11:1.8689227 12:-0.19107132 13:0.48744085 14:1.8659477 15:-0.23113501 16:0.20895925 17:1.8285596 18:-0.22705159 19:0.014409721 20:1.738044 21:-0.22070536 22:-0.053955197 23:1.6980281 24:0.16694567 25:0.49542543 26:1.8119326 27:0.36281234 28:0.28763297 29:1.7826242 30:0.50399613 31:0.15809962 32:1.6799483 33:0.58299965 34:0.10721025 35:1.6270301 36:-0.074861728 37:-0.039910704 38:1.7115018 39:-0.083340138 40:-0.4655638 41:1.6134965 42:-0.083567336 43:-0.80062938 44:1.5880759 45:-0.12104134 46:-0.8449384 47:1.497654 48:0.085603498 49:-0.027904481 50:1.6878576 51:0.12322529 52:-0.47107342 53:1.5887904 54:0.13734213 55:-0.79481339 56:1.574106 57:0.16270533 58:-0.84137714 59:1.4827666 60:-0.005923897 61:0.54089725 62:1.8364899 63:-0.21455553 64:-0.14055416 65:1.6824439 66:-0.169631 67:-0.057100385 68:1.6623595 69:0.6361692 70:0.046763271 71:1.5907173 72:0.58209211 73:0.10275403 74:1.5705059 
-0 1 1 0:0.0070451498 1:-0.034377217 2:1.7404957 3:0 4:0.30000001 5:1.8 6:-0.007999789 7:0.61849046 8:1.8454919 9:-0.05352176 10:0.76858604 11:1.8688099 12:-0.19123366 13:0.48742518 14:1.8658993 15:-0.23130867 16:0.20915231 17:1.8287995 18:-0.22704771 19:0.014625341 20:1.7382348 21:-0.21986192 22:-0.05440563 23:1.6979373 24:0.16708949 25:0.49542716 26:1.8120389 27:0.3708061 28:0.29575548 29:1.7801507 30:0.51591992 31:0.16688225 32:1.6808288 33:0.60382253 34:0.11776534 35:1.6241977 36:-0.074848279 37:-0.039872944 38:1.7114215 39:-0.083185256 40:-0.46574029 41:1.6136429 42:-0.083228774 43:-0.80116439 44:1.5883729 45:-0.12092412 46:-0.84495187 47:1.4977226 48:0.085717559 49:-0.027914673 50:1.6879349 51:0.12323681 52:-0.47150341 53:1.5888026 54:0.137484 55:-0.79481852 56:1.5740302 57:0.16287862 58:-0.84148157 59:1.482619 60:-0.0059277713 61:0.54088783 62:1.8364897 63:-0.21476658 64:-0.14025061 65:1.6812212 66:-0.1694679 67:-0.061027825 68:1.6629262 69:0.65950412 70:0.063771635 71:1.5820696 72:0.59291619 73:0.11761054 74:1.5678546 
-0 1 1 0:0.0071663633 1:-0.034396648 2:1.7405746 3:0 4:0.30000001 5:1.8 6:-0.0080756694 7:0.61850643 8:1.8454022 9:-0.053582154 10:0.76852477 11:1.8687792 12:-0.1912467 13:0.48741224 14:1.86588 15:-0.23137483 16:0.20905653 17:1.8288553 18:-0.22701055 19:0.014488012 20:1.7383957 21:-0.22246152 22:-0.055890262 23:1.6957095 24:0.1674065 25:0.49551037 26:1.8119988 27:0.37602186 28:0.30090633 29:1.7843397 30:0.52570105 31:0.17862001 32:1.6807182 33:0.61933142 34:0.13192853 35:1.6239178 36:-0.074752852 37:-0.039880782 38:1.711426 39:-0.08294484 40:-0.46582767 41:1.613724 42:-0.08293131 43:-0.80118537 44:1.5881138 45:-0.12077109 46:-0.84508002 47:1.4978044 48:0.085853912 49:-0.027931541 50:1.6880963 51:0.12346249 52:-0.47162861 53:1.5888565 54:0.13741708 55:-0.79502654 56:1.5741336 57:0.16275513 58:-0.84113967 59:1.482908 60:-0.0059884489 61:0.54089975 62:1.8364232 63:-0.21221089 64:-0.14333171 65:1.6787121 66:-0.16941673 67:-0.0445804 68:1.6685801 69:0.67369866 70:0.077878982 71:1.5846391 72:0.61212724 73:0.13148293 74:1.5650599 
-1 0 0 0:0.0063119531 1:-0.034505129 2:1.7434204 3:0 4:0.30000001 5:1.8 6:-0.0069215298 7:0.61850405 8:1.8428907 9:-0.050130025 10:0.7700243 11:1.8664036 12:-0.19100592 13:0.49036679 14:1.8641706 15:-0.23438585 16:0.21158472 17:1.8297572 18:-0.23277184 19:0.017469436 20:1.7380698 21:-0.22859016 22:-0.049837917 23:1.698164 24:0.16461486 25:0.49440935 26:1.812479 27:0.34054652 28:0.26882085 29:1.7847826 30:0.47026902 31:0.12068006 32:1.6820214 33:0.53580934 34:0.056583047 35:1.6309905 36:-0.076504827 37:-0.039880514 38:1.7132857 39:-0.085474163 40:-0.46587315 41:1.6192751 42:-0.085566625 43:-0.80209422 44:1.5945678 45:-0.12300708 46:-0.84589386 47:1.5049026 48:0.085815497 49:-0.028225034 50:1.69224 51:0.12137275 52:-0.4696168 53:1.5931544 54:0.1356954 55:-0.79585135 56:1.5788755 57:0.1613225 58:-0.84304261 59:1.4883692 60:-0.0051028207 61:0.54090798 62:1.8345218 63:-0.22531027 64:-0.13276803 65:1.680223 66:-0.1736137 67:-0.044511855 68:1.6786983 69:0.57681745 70:-0.012349844 71:1.5878789 72:0.56410974 73:0.017585605 74:1.6332445 
-1 1 0 0:0.0065827444 1:-0.034442455 2:1.7434723 3:0 4:0.30000001 5:1.8 6:-0.0074072257 7:0.61839044 8:1.8427751 9:-0.050253294 10:0.76980078 11:1.8662539 12:-0.19108574 13:0.49029824 14:1.8643472 15:-0.23417698 16:0.21163097 17:1.8297822 18:-0.23259564 19:0.017495364 20:1.7381418 21:-0.22809337 22:-0.052363336 23:1.6973538 24:0.16453584 25:0.4952921 26:1.81253 27:0.34751058 28:0.27557889 29:1.7844412 30:0.48254538 31:0.13367644 32:1.6848521 33:0.55748594 34:0.074915707 35:1.6368101 36:-0.076230429 37:-0.039773911 38:1.7132056 39:-0.085086897 40:-0.46596482 41:1.6192048 42:-0.085331745 43:-0.80244529 44:1.5944219 45:-0.12279172 46:-0.84587193 47:1.5048296 48:0.086067542 49:-0.028162718 50:1.6924269 51:0.12168032 52:-0.46990591 53:1.5931332 54:0.13599445 55:-0.79586124 56:1.5788867 57:0.16164245 58:-0.84316266 59:1.488373 60:-0.0054559037 61:0.54083145 62:1.8344417 63:-0.22153936 64:-0.1377981 65:1.6770895 66:-0.17400222 67:-0.039547652 68:1.6856706 69:0.60842484 70:0.0090863407 71:1.6105459 72:0.59037381 73:0.038633019 74:1.6374316 
-1 1 0 0:0.0068080798 1:-0.034354448 2:1.7435107 3:0 4:0.30000001 5:1.8 6:-0.0076395124 7:0.61833274 8:1.8427558 9:-0.050694022 10:0.76956391 11:1.8660035 12:-0.19126287 13:0.49012044 14:1.8642642 15:-0.23403436 16:0.21152577 17:1.8296862 18:-0.23264357 19:0.017375976 20:1.7380781 21:-0.22793514 22:-0.052959383 23:1.698859 24:0.16465595 25:0.49575964 26:1.81282 27:0.35573515 28:0.28329667 29:1.7847519 30:0.50168812 31:0.14925435 32:1.6879411 33:0.58096045 34:0.092519671 35:1.6437154 36:-0.075977109 37:-0.039728194 38:1.7130845 39:-0.084604792 40:-0.46686578 41:1.61921 42:-0.084695965 43:-0.80337298 44:1.5939295 45:-0.12251945 46:-0.84622097 47:1.5044117 48:0.086285494 49:-0.028065473 50:1.6926563 51:0.12190489 52:-0.47059149 53:1.5931447 54:0.13612235 55:-0.79708958 56:1.5790529 57:0.16199282 58:-0.84331167 59:1.4881258 60:-0.0056335479 61:0.5407877 62:1.8344283 63:-0.22156212 64:-0.13751379 65:1.6814325 66:-0.17299451 67:-0.049708754 68:1.6776853 69:0.63237625 70:0.031759769 71:1.6128123 72:0.59777415 73:0.05642879 74:1.6603923 
-0 1 0.9475145154887816 0:0.0069021434 1:-0.034292579 2:1.7436056 3:0 4:0.30000001 5:1.8 6:-0.0076904558 7:0.61830145 8:1.8426645 9:-0.051100381 10:0.76933235 11:1.8659194 12:-0.19132622 13:0.49011445 14:1.8641379 15:-0.23391476 16:0.21129829 17:1.8296063 18:-0.23288381 19:0.0171538 20:1.7379854 21:-0.22545689 22:-0.052489042 23:1.6985123 24:0.16500795 25:0.4961248 26:1.8130186 27:0.36564544 28:0.29303604 29:1.7838924 30:0.51692075 31:0.15958965 32:1.68927 33:0.60007614 34:0.11069983 35:1.6441875 36:-0.075885206 37:-0.039658964 38:1.7130728 39:-0.084343381 40:-0.46700585 41:1.6191475 42:-0.08444117 43:-0.80349636 44:1.593888 45:-0.12227318 46:-0.84636748 47:1.5043004 48:0.086397417 49:-0.028029233 50:1.6928599 51:0.1220411 52:-0.47076663 53:1.5932856 54:0.1363582 55:-0.79728544 56:1.5790317 57:0.16227651 58:-0.84344488 59:1.4884217 60:-0.0056770891 61:0.5407626 62:1.8343604 63:-0.22109735 64:-0.13747957 65:1.6787851 66:-0.17178626 67:-0.054966867 68:1.6766455 69:0.65426093 70:0.052189857 71:1.5996163 72:0.61726046 73:0.07826367 74:1.6586545 
-0 1 1 0:0.0070851073 1:-0.034201413 2:1.7436407 3:0 4:0.30000001 5:1.8 6:-0.007867571 7:0.61823308 8:1.8426349 9:-0.051586293 10:0.76915026 11:1.8656135 12:-0.19144404 13:0.48999059 14:1.8639755 15:-0.23368813 16:0.21097338 17:1.8294921 18:-0.23284842 19:0.016827762 20:1.7378757 21:-0.22747567 22:-0.052411646 23:1.6979218 24:0.16542509 25:0.49691975 26:1.8133876 27:0.37226 28:0.30014515 29:1.7905185 30:0.5296129 31:0.17456788 32:1.6921523 33:0.62451839 34:0.12582514 35:1.6416388 36:-0.075706869 37:-0.039535105 38:1.7129459 39:-0.084009744 40:-0.46638826 41:1.619262 42:-0.084268242 43:-0.80321461 44:1.5941312 45:-0.12186117 46:-0.84621221 47:1.5043406 48:0.0865812 49:-0.02795738 50:1.693084 51:0.12217543 52:-0.47210139 53:1.5933013 54:0.13680002 55:-0.79761976 56:1.5784619 57:0.16272926 58:-0.84371781 59:1.486769 60:-0.0058134124 61:0.5407114 62:1.8343384 63:-0.22005168 64:-0.13806129 65:1.6795866 66:-0.17216307 67:-0.036415666 68:1.6790054 69:0.67972386 70:0.070124775 71:1.6011765 72:0.62918222 73:0.10587019 74:1.6783054 
-0 1 1 0:0.0072631463 1:-0.03402251 2:1.7436962 3:0 4:0.30000001 5:1.8 6:-0.0080654994 7:0.61806726 8:1.842592 9:-0.051649578 10:0.76901066 11:1.8654575 12:-0.19156286 13:0.48993289 14:1.8638036 15:-0.23355269 16:0.21096468 17:1.8292933 18:-0.23270316 19:0.016788274 20:1.7377489 21:-0.22718163 22:-0.052168697 23:1.6981659 24:0.16560572 25:0.49764991 26:1.8136466 27:0.37885386 28:0.30807376 29:1.792486 30:0.54048181 31:0.18986547 32:1.6924882 33:0.63946187 34:0.14566931 35:1.6410596 36:-0.075522423 37:-0.039369136 38:1.7128773 39:-0.08358226 40:-0.46657446 41:1.6192102 42:-0.083833411 43:-0.80348623 44:1.5942171 45:-0.12159634 46:-0.84637439 47:1.5043058 48:0.086773202 49:-0.027791381 50:1.6932578 51:0.12224323 52:-0.4729133 53:1.5931478 54:0.13698736 55:-0.79792887 56:1.5785656 57:0.16311415 58:-0.84386581 59:1.4867043 60:-0.0059624538 61:0.54058957 62:1.834307 63:-0.22150418 64:-0.13827568 65:1.6816945 66:-0.17407426 67:-0.05757466 68:1.6804833 69:0.69565505 70:0.093107194 71:1.599103 72:0.64994401 73:0.11670619 74:1.6612835 
-0 1 1 0:0.0073986948 1:-0.03393805 2:1.7437646 3:0 4:0.30000001 5:1.8 6:-0.0082303435 7:0.61799836 8:1.8425145 9:-0.052060537 10:0.76885319 11:1.8652632 12:-0.19179222 13:0.48990509 14:1.8638964 15:-0.23345354 16:0.21094796 17:1.8292439 18:-0.23271367 19:0.016717881 20:1.7378275 21:-0.22746369 22:-0.053512782 23:1.6968772 24:0.1660291 25:0.49795792 26:1.8141017 27:0.38385722 28:0.31388655 29:1.7915537 30:0.54913616 31:0.20845351 32:1.6957273 33:0.6508373 34:0.16671601 35:1.6424963 36:-0.075390249 37:-0.039281636 38:1.7128575 39:-0.083425432 40:-0.4665927 41:1.6194012 42:-0.08367686 43:-0.80371833 44:1.5939198 45:-0.12129639 46:-0.84646451 47:1.5042787 48:0.086922131 49:-0.027722031 50:1.6934211 51:0.12243552 52:-0.47372416 53:1.5933077 54:0.13722745 55:-0.79873252 56:1.5789602 57:0.16322309 58:-0.84399593 59:1.4868081 60:-0.0060856864 61:0.54053915 62:1.8342519 63:-0.21801877 64:-0.13973334 65:1.6747363 66:-0.17334074 67:-0.061181575 68:1.6665003 69:0.70359272 70:0.11387408 71:1.5936639 72:0.6654911 73:0.13791755 74:1.6578772 
-1 -1 0 0:0.0067654327 1:-0.033056498 2:1.7381608 3:0 4:0.30000001 5:1.8 6:-0.0073915869 7:0.61744392 8:1.8477929 9:-0.040080331 10:0.77306676 11:1.860503 12:-0.19467264 13:0.49134114 14:1.8609288 15:-0.23818836 16:0.21798214 17:1.8203719 18:-0.23331192 19:0.02416724 20:1.7281117 21:-0.23100647 22:-0.048211813 23:1.6825407 24:0.16552889 25:0.49961749 26:1.8186011 27:0.37255365 28:0.30339512 29:1.8067133 30:0.54851323 31:0.19287607 32:1.7166204 33:0.6500591 34:0.15423885 35:1.6710749 36:-0.07413204 37:-0.037020028 38:1.7042003 39:-0.086472601 40:-0.46763569 41:1.6081574 42:-0.091528304 43:-0.79657292 44:1.5788932 45:-0.12851757 46:-0.84008479 47:1.4888761 48:0.084069677 49:-0.028056085 50:1.690578 51:0.11830377 52:-0.46728456 53:1.5842085 54:0.12934965 55:-0.7917397 56:1.56445 57:0.1547561 58:-0.83766377 59:1.4719133 60:-0.0054544508 61:0.54008007 62:1.8382313 63:-0.22765365 64:-0.13375205 65:1.6614244 66:-0.17386913 67:-0.031320632 68:1.67098 69:0.70523947 70:0.11136594 71:1.625886 72:0.64354306 73:0.13168058 74:1.6930799 
-1 -1 0 0:0.00703758 1:-0.032988131 2:1.7380843 3:0 4:0.30000001 5:1.8 6:-0.0077976435 7:0.61733067 8:1.8479729 9:-0.040118624 10:0.77289379 11:1.860285 12:-0.19466996 13:0.49128306 14:1.8603251 15:-0.23817886 16:0.21786022 17:1.819855 18:-0.23308986 19:0.024008125 20:1.7276919 21:-0.22744088 22:-0.049251497 23:1.6840472 24:0.16606106 25:0.50020432 26:1.8195174 27:0.37810868 28:0.30973971 29:1.8099244 30:0.56151599 31:0.21028012 32:1.7184057 33:0.66586596 34:0.17813039 35:1.6726201 36:-0.073884673 37:-0.036991328 38:1.7041266 39:-0.08601255 40:-0.46778196 41:1.6079659 42:-0.091148242 43:-0.79670835 44:1.5787096 45:-0.12833449 46:-0.84039026 47:1.4886684 48:0.084382042 49:-0.02795881 50:1.6905098 51:0.11868906 52:-0.46742028 53:1.584013 54:0.129732 55:-0.79198045 56:1.5641775 57:0.15498647 58:-0.83787149 59:1.4714131 60:-0.0057517067 61:0.54000139 62:1.8383572 63:-0.22712338 64:-0.13377085 65:1.6593461 66:-0.17439052 67:-0.057525456 68:1.6733432 69:0.71979499 70:0.13309044 71:1.6231408 72:0.65375221 73:0.15831193 74:1.6977389 
-0.318693075741644 -1 1 0:0.007449761 1:-0.032922238 2:1.7380092 3:0 4:0.30000001 5:1.8 6:-0.0084311143 7:0.61726856 8:1.8481596 9:-0.040276941 10:0.7726177 11:1.8602278 12:-0.19475088 13:0.49083605 14:1.8597159 15:-0.23806149 16:0.21770307 17:1.8193619 18:-0.23274365 19:0.02383545 20:1.7272446 21:-0.22772697 22:-0.04888913 23:1.6828363 24:0.16645236 25:0.50076377 26:1.8204446 27:0.39114153 28:0.32596287 29:1.8101702 30:0.57233816 31:0.22818676 32:1.7200973 33:0.6790632 34:0.20245358 35:1.6755314 36:-0.073500939 37:-0.037012488 38:1.7040174 39:-0.085582316 40:-0.46785516 41:1.6078551 42:-0.090653211 43:-0.79703605 44:1.5785224 45:-0.12786007 46:-0.84070694 47:1.4884861 48:0.084846854 49:-0.027819127 50:1.6904855 51:0.11915392 52:-0.46778682 53:1.5838234 54:0.13017057 55:-0.79232275 56:1.5640392 57:0.15548508 58:-0.8382225 59:1.4718096 60:-0.0062113702 61:0.53996062 62:1.8384881 63:-0.22554329 64:-0.13477513 65:1.6604805 66:-0.17287768 67:-0.059245467 68:1.6621854 69:0.73400432 70:0.16483226 71:1.6318691 72:0.67323661 73:0.18311992 74:1.6936553 
-0 -1 1 0:0.0077113137 1:-0.032829553 2:1.7379954 3:0 4:0.30000001 5:1.8 6:-0.0087916404 7:0.6171881 8:1.8481948 9:-0.040674455 10:0.77244401 11:1.8603752 12:-0.19527954 13:0.49055955 14:1.8593252 15:-0.2382393 16:0.21768823 17:1.8190994 18:-0.23268563 19:0.023898542 20:1.7268076 21:-0.22687966 22:-0.048515111 23:1.6809273 24:0.16675675 25:0.5010922 26:1.8212061 27:0.39605147 28:0.33265761 29:1.8113844 30:0.58427256 31:0.25020602 32:1.7207932 33:0.69085097 34:0.22602168 35:1.6778173 36:-0.073278479 37:-0.036969453 38:1.7039528 39:-0.08524368 40:-0.46808156 41:1.607789 42:-0.090486936 43:-0.7975831 44:1.5786138 45:-0.12759566 46:-0.84089899 47:1.4884973 48:0.08516179 49:-0.027676642 50:1.6905367 51:0.11941293 52:-0.46823558 53:1.5839424 54:0.13048297 55:-0.79256892 56:1.5639939 57:0.15574598 58:-0.83842337 59:1.4719961 60:-0.0064776689 61:0.53990495 62:1.838511 63:-0.22610624 64:-0.13080856 65:1.6566803 66:-0.17307214 67:-0.054399252 68:1.6707764 69:0.74806839 70:0.19252482 71:1.6392269 72:0.68466032 73:0.20893082 74:1.6931376 
-0 -1 1 0:0.0079651326 1:-0.032805175 2:1.7379093 3:0 4:0.30000001 5:1.8 6:-0.0091899931 7:0.61714846 8:1.8483911 9:-0.041241087 10:0.77266079 11:1.8605154 12:-0.19548893 13:0.49038839 14:1.8589985 15:-0.23840809 16:0.21747679 17:1.8185544 18:-0.2326265 19:0.023674339 20:1.726305 21:-0.22660479 22:-0.049367994 23:1.6813371 24:0.16682036 25:0.50131172 26:1.8215623 27:0.4001396 28:0.3389886 29:1.8150938 30:0.59063923 31:0.26847464 32:1.7233171 33:0.70160794 34:0.24812466 35:1.6810298 36:-0.073060423 37:-0.036989123 38:1.7038302 39:-0.084987819 40:-0.46820411 41:1.6077175 42:-0.090211965 43:-0.79720443 44:1.5782213 45:-0.12717228 46:-0.84081823 47:1.4882803 48:0.085464984 49:-0.02759555 50:1.6904979 51:0.11968136 52:-0.46843654 53:1.583864 54:0.1307205 55:-0.7927025 56:1.5638938 57:0.15598144 58:-0.83817077 59:1.472333 60:-0.0067719594 61:0.5398792 62:1.8386471 63:-0.22618264 64:-0.13567281 65:1.6610219 66:-0.17255381 67:-0.050373733 68:1.6697154 69:0.76168883 70:0.21341223 71:1.6463799 72:0.69286984 73:0.23011297 74:1.7035241 
-0 -0 1 0:0.0082022697 1:-0.032763928 2:1.7378421 3:0 4:0.30000001 5:1.8 6:-0.0093849152 7:0.61707115 8:1.8484843 9:-0.041871332 10:0.7726115 11:1.8607306 12:-0.19559509 13:0.49035606 14:1.8586555 15:-0.23819706 16:0.21744379 17:1.8181229 18:-0.23263413 19:0.023697436 20:1.7257252 21:-0.2282204 22:-0.047824025 23:1.6810243 24:0.1670839 25:0.50191808 26:1.8227105 27:0.40431529 28:0.34578636 29:1.8179367 30:0.60027605 31:0.28499857 32:1.7259498 33:0.71322662 34:0.26868048 35:1.683254 36:-0.072822817 37:-0.037051827 38:1.7037146 39:-0.084391043 40:-0.468647 41:1.6076348 42:-0.090029418 43:-0.79647028 44:1.5780184 45:-0.12669352 46:-0.84094048 47:1.4882329 48:0.085718244 49:-0.027414083 50:1.6905141 51:0.11994009 52:-0.46891934 53:1.5838697 54:0.13107133 55:-0.79287493 56:1.5637813 57:0.15635929 58:-0.8382653 59:1.472158 60:-0.0069283694 61:0.53982162 62:1.8387167 63:-0.22509426 64:-0.13172409 65:1.6566894 66:-0.17223318 67:-0.048859388 68:1.6697812 69:0.77429557 70:0.23651323 71:1.6498952 72:0.69828647 73:0.25042716 74:1.7134326 
-0 -0 1 0:0.0085262358 1:-0.032508165 2:1.7379189 3:0 4:0.30000001 5:1.8 6:-0.0096302405 7:0.61693013 8:1.8484564 9:-0.04237834 10:0.7724489 11:1.8608394 12:-0.19579327 13:0.4900308 14:1.8584239 15:-0.23827711 16:0.21747079 17:1.8177419 18:-0.23241746 19:0.02366963 20:1.7254858 21:-0.22660199 22:-0.050941378 23:1.680949 24:0.16750354 25:0.5038749 26:1.8247812 27:0.40993303 28:0.35604152 29:1.8172348 30:0.60411614 31:0.30280289 32:1.7303624 33:0.71455497 34:0.29097161 35:1.6880431 36:-0.072517872 37:-0.036914885 38:1.7037759 39:-0.084063947 40:-0.4688122 41:1.6075826 42:-0.089533076 43:-0.79628432 44:1.5778406 45:-0.12638757 46:-0.84129703 47:1.4880178 48:0.086073525 49:-0.027089596 50:1.6906056 51:0.12032867 52:-0.46937805 53:1.5837781 54:0.13140616 55:-0.79328918 56:1.5636253 57:0.15627742 58:-0.83859861 59:1.4730792 60:-0.0071146712 61:0.53971148 62:1.8386953 63:-0.22669846 64:-0.1311411 65:1.6596799 66:-0.17296027 67:-0.068548515 68:1.6689517 69:0.77627796 70:0.26445851 71:1.65592 72:0.71684122 73:0.26402029 74:1.7007422 
-0 -0 1 0:0.0087559745 1:-0.032457709 2:1.7377865 3:0 4:0.30000001 5:1.8 6:-0.0098427758 7:0.61685908 8:1.8486493 9:-0.042921662 10:0.77214211 11:1.8607881 12:-0.19588687 13:0.4898231 14:1.8582094 15:-0.23812048 16:0.21731532 17:1.8174579 18:-0.23223202 19:0.023503482 20:1.7252276 21:-0.2260025 22:-0.050484329 23:1.6817303 24:0.16762693 25:0.50409371 26:1.825352 27:0.41431063 28:0.36386448 29:1.8182731 30:0.60983056 31:0.31722426 32:1.7339737 33:0.72107583 34:0.31085688 35:1.6929433 36:-0.07230074 37:-0.036939234 38:1.7035992 39:-0.083721504 40:-0.4689486 41:1.6074319 42:-0.089151978 43:-0.7963903 44:1.5777104 45:-0.12581801 46:-0.84147018 47:1.4883544 48:0.086330727 49:-0.026979417 50:1.690531 51:0.12063216 52:-0.46964023 53:1.5836093 54:0.13171703 55:-0.79337603 56:1.5634565 57:0.15658551 58:-0.83881468 59:1.4728634 60:-0.0072793961 61:0.53965914 62:1.8388357 63:-0.22544603 64:-0.13292655 65:1.6589661 66:-0.17190415 67:-0.067954481 68:1.6626303 69:0.78539997 70:0.28640872 71:1.6648021 72:0.7159726 73:0.28582937 74:1.7200699 
-0 -0 1 0:0.0089932829 1:-0.032229781 2:1.7377605 3:0 4:0.30000001 5:1.8 6:-0.010002263 7:0.61668777 8:1.8487039 9:-0.043364443 10:0.77186549 11:1.8609657 12:-0.19597703 13:0.48951897 14:1.8579271 15:-0.2379379 16:0.21703443 17:1.8171198 18:-0.23206329 19:0.023252577 20:1.7248173 21:-0.22570953 22:-0.050816715 23:1.6804342 24:0.16805533 25:0.50559556 26:1.8265603 27:0.41810748 28:0.3717964 29:1.8197682 30:0.61502248 31:0.33055392 32:1.7352586 33:0.73149675 34:0.32867447 35:1.6949074 36:-0.072036229 37:-0.036899418 38:1.7034991 39:-0.083415762 40:-0.46918288 41:1.6072586 42:-0.088713549 43:-0.79675841 44:1.5776718 45:-0.12533939 46:-0.84196985 47:1.4889205 48:0.086545505 49:-0.026578933 50:1.6905901 51:0.12082393 52:-0.47052392 53:1.5836892 54:0.13210797 55:-0.79367793 56:1.563168 57:0.15695444 58:-0.83921158 59:1.4723155 60:-0.007403776 61:0.53952742 62:1.8388753 63:-0.22520667 64:-0.13328895 65:1.6595616 66:-0.16974743 67:-0.052884072 68:1.6670907 69:0.79449493 70:0.30510643 71:1.6612451 72:0.71472579 73:0.30508247 74:1.7266319 
-1 -1 0 0:0.0072275773 1:-0.034309506 2:1.7406161 3:0 4:0.30000001 5:1.8 6:-0.0081209689 7:0.61843336 8:1.8453584 9:-0.05372458 10:0.76848102 11:1.868674 12:-0.19129714 13:0.48747137 14:1.8658683 15:-0.23146737 16:0.20896587 17:1.8287702 18:-0.22708136 19:0.01439476 20:1.7383177 21:-0.221127 22:-0.05515945 23:1.6951942 24:0.16762146 25:0.49572065 26:1.8121004 27:0.38048294 28:0.30598721 29:1.7835114 30:0.5348227 31:0.19242641 32:1.6817832 33:0.63024944 34:0.15080532 35:1.6252232 36:-0.074713446 37:-0.03977257 38:1.7113061 39:-0.082817756 40:-0.46576673 41:1.6137586 42:-0.082823277 43:-0.80124819 44:1.5882816 45:-0.12049022 46:-0.84490788 47:1.4985161 48:0.085922293 49:-0.027797133 50:1.6882923 51:0.12355959 52:-0.47167337 53:1.5889204 54:0.1375235 55:-0.7944783 56:1.5740333 57:0.16269225 58:-0.84120238 59:1.4834414 60:-0.0060226806 61:0.54084671 62:1.836391 63:-0.21358499 64:-0.1419872 65:1.681839 66:-0.16942656 67:-0.068867952 68:1.6571608 69:0.68796623 70:0.096673995 71:1.5865431 72:0.61324805 73:0.15268758 74:1.5717599 
-1 -1 0 0:0.0073291436 1:-0.034275204 2:1.7406712 3:0 4:0.30000001 5:1.8 6:-0.0081829205 7:0.61839378 8:1.8453197 9:-0.053691238 10:0.76843536 11:1.8686268 12:-0.1913884 13:0.48748401 14:1.8654885 15:-0.2314688 16:0.20889172 17:1.82881 18:-0.22709709 19:0.014327198 20:1.7383401 21:-0.22043291 22:-0.054100335 23:1.6965199 24:0.16776171 25:0.4959223 26:1.8121424 27:0.38421866 28:0.31044975 29:1.7836106 30:0.54312217 31:0.20839497 32:1.6841123 33:0.64246863 34:0.16843194 35:1.6260586 36:-0.074625805 37:-0.039741218 38:1.7113125 39:-0.082671799 40:-0.46509868 41:1.6138585 42:-0.082763739 43:-0.80138779 44:1.5884011 45:-0.12050748 46:-0.84501588 47:1.4984503 48:0.086043216 49:-0.027785063 50:1.6883957 51:0.12369012 52:-0.47017443 53:1.5891864 54:0.13743442 55:-0.79413772 56:1.5740588 57:0.16296729 58:-0.84133649 59:1.483305 60:-0.0060720183 61:0.54081714 62:1.8363605 63:-0.21307647 64:-0.1441457 65:1.6791236 66:-0.16979298 67:-0.063198298 68:1.665827 69:0.69543886 70:0.12162417 71:1.5795219 72:0.62560344 73:0.17020288 74:1.5738399 
-1 -1 0 0:0.00747668 1:-0.034154713 2:1.7407391 3:0 4:0.30000001 5:1.8 6:-0.0083491094 7:0.61828434 8:1.8452263 9:-0.053711645 10:0.7682848 11:1.8685846 12:-0.19168623 13:0.48780105 14:1.8657753 15:-0.23149696 16:0.20887956 17:1.8288002 18:-0.22710444 19:0.014345706 20:1.738255 21:-0.22055525 22:-0.052226096 23:1.6955812 24:0.16795346 25:0.49619123 26:1.8123224 27:0.38892066 28:0.31632981 29:1.783602 30:0.55321938 31:0.22036967 32:1.683923 33:0.6555382 34:0.18536589 35:1.6252282 36:-0.074475102 37:-0.039614052 38:1.7112882 39:-0.082450315 40:-0.46518591 41:1.6139686 42:-0.082559526 43:-0.80122721 44:1.5884755 45:-0.12035336 46:-0.84515595 47:1.4985464 48:0.086196601 49:-0.027685195 50:1.6885486 51:0.1239389 52:-0.47016215 53:1.5893352 54:0.13736404 55:-0.79457521 56:1.5742509 57:0.16326199 58:-0.8414588 59:1.4830549 60:-0.006193243 61:0.54073918 62:1.8362932 63:-0.21585786 64:-0.13811088 65:1.6731482 66:-0.16887879 67:-0.05960995 68:1.6617985 69:0.70786291 70:0.13641688 71:1.5759397 72:0.64872247 73:0.17844161 74:1.5646701 
-1 -1 0.9518763622194893 0:0.0075872168 1:-0.033985496 2:1.7407594 3:0 4:0.30000001 5:1.8 6:-0.0084155798 7:0.61820239 8:1.8452115 9:-0.053714331 10:0.76820165 11:1.8685241 12:-0.19193651 13:0.48789775 14:1.8659456 15:-0.23152408 16:0.2088027 17:1.8287642 18:-0.22724384 19:0.014290988 20:1.7381597 21:-0.22211051 22:-0.054877907 23:1.6955085 24:0.1678884 25:0.49734932 26:1.8124695 27:0.39300516 28:0.3228119 29:1.7855396 30:0.56388444 31:0.23467165 32:1.684375 33:0.66733289 34:0.20328867 35:1.6279879 36:-0.074350141 37:-0.039448112 38:1.7112808 39:-0.082383417 40:-0.46533078 41:1.6140404 42:-0.082476728 43:-0.801296 44:1.5885115 45:-0.12041147 46:-0.84522122 47:1.4984081 48:0.086300783 49:-0.027552247 50:1.6886036 51:0.12390923 52:-0.47179317 53:1.5896316 54:0.1370874 55:-0.79535723 56:1.5746458 57:0.16326314 58:-0.84173113 59:1.4826131 60:-0.0062415041 61:0.540676 62:1.8362827 63:-0.21429944 64:-0.14111516 65:1.6785467 66:-0.1684491 67:-0.060237974 68:1.6607633 69:0.72020233 70:0.16036618 71:1.5815547 72:0.65192962 73:0.20144659 74:1.5723734 
-0 -1 1 0:0.007692039 1:-0.033920556 2:1.7407703 3:0 4:0.30000001 5:1.8 6:-0.0084919967 7:0.61815846 8:1.8452086 9:-0.053749338 10:0.76814628 11:1.8684285 12:-0.19204611 13:0.487923 14:1.8659585 15:-0.23162402 16:0.20879188 17:1.8287225 18:-0.22730401 19:0.014321774 20:1.7380171 21:-0.22203003 22:-0.054647058 23:1.6928294 24:0.16807055 25:0.49746445 26:1.8125725 27:0.4002524 28:0.33270231 29:1.7894444 30:0.57117653 31:0.24666891 32:1.6850779 33:0.67662299 34:0.22131327 35:1.6296828 36:-0.074253559 37:-0.039387524 38:1.7112615 39:-0.082251392 40:-0.46545362 41:1.6140974 42:-0.082358107 43:-0.8015058 44:1.5886462 45:-0.12031826 46:-0.84535825 47:1.4984198 48:0.086419091 49:-0.027507603 50:1.6886501 51:0.12397821 52:-0.47191966 53:1.5896318 54:0.13712372 55:-0.79544735 56:1.5746453 57:0.16345946 58:-0.8418752 59:1.4822924 60:-0.0062996596 61:0.5406425 62:1.8362799 63:-0.21161126 64:-0.1427405 65:1.6743755 66:-0.16829936 67:-0.05736357 68:1.6624639 69:0.73366201 70:0.1805878 71:1.5897496 72:0.65377283 73:0.22261074 74:1.5783861 
-0 -1 1 0:0.007787995 1:-0.033777118 2:1.7408242 3:0 4:0.30000001 5:1.8 6:-0.0085559934 7:0.61805016 8:1.8451624 9:-0.053713068 10:0.76804715 11:1.8684249 12:-0.1921159 13:0.48802882 14:1.8660021 15:-0.23155662 16:0.208664 17:1.8287544 18:-0.22727497 19:0.014214694 20:1.7379966 21:-0.221809 22:-0.055175066 23:1.693924 24:0.16844308 25:0.49796885 26:1.812845 27:0.40467605 28:0.33930248 29:1.7905009 30:0.57949722 31:0.2607041 32:1.6860316 33:0.68881416 34:0.235825 35:1.6314738 36:-0.074159078 37:-0.039275587 38:1.7112501 39:-0.082081735 40:-0.46559358 41:1.6142097 42:-0.082213014 43:-0.80179471 44:1.5886528 45:-0.12011788 46:-0.84551126 47:1.4985728 48:0.086527303 49:-0.027354389 50:1.6887779 51:0.12411171 52:-0.47210243 53:1.5895882 54:0.13716018 55:-0.7957592 56:1.5747142 57:0.1637031 58:-0.84207636 59:1.4823954 60:-0.006348066 61:0.5405606 62:1.836246 63:-0.21081838 64:-0.14378306 65:1.6775708 66:-0.17076199 67:-0.062291414 68:1.6645269 69:0.74501592 70:0.19706887 71:1.5923696 72:0.67869961 73:0.2698794 74:1.5974314 
-0 -1 1 0:0.0079283714 1:-0.033584952 2:1.7408743 3:0 4:0.30000001 5:1.8 6:-0.0086922646 7:0.61794794 8:1.8451495 9:-0.053711709 10:0.76795214 11:1.8683388 12:-0.19220038 13:0.48782003 14:1.8657813 15:-0.23149878 16:0.20854974 17:1.8286753 18:-0.22721535 19:0.014098406 20:1.7379217 21:-0.22084588 22:-0.054278791 23:1.6954384 24:0.16878803 25:0.49939209 26:1.8136032 27:0.40632322 28:0.34699202 29:1.7930596 30:0.59145737 31:0.27617282 32:1.6863663 33:0.69866002 34:0.25199568 35:1.6351209 36:-0.074022494 37:-0.039247543 38:1.7113008 39:-0.082147829 40:-0.46476206 41:1.6145608 42:-0.081711896 43:-0.80099779 44:1.588562 45:-0.12002065 46:-0.84560406 47:1.4985347 48:0.086683109 49:-0.026980728 50:1.6888227 51:0.12423767 52:-0.47236666 53:1.5896468 54:0.13720466 55:-0.7971698 56:1.5750842 57:0.16377343 58:-0.84224057 59:1.4823365 60:-0.0064437911 61:0.54048479 62:1.8362355 63:-0.21146978 64:-0.14333665 65:1.6791272 66:-0.16922593 67:-0.053267747 68:1.6699452 69:0.75656903 70:0.21371698 71:1.5958121 72:0.69490731 73:0.25570285 74:1.5781755 
-0 -0 1 0:0.0080039054 1:-0.033537358 2:1.7408948 3:0 4:0.30000001 5:1.8 6:-0.0087053962 7:0.61789066 8:1.8451498 9:-0.053711377 10:0.7677815 11:1.8682334 12:-0.19232453 13:0.48781437 14:1.8659027 15:-0.23146982 16:0.20827472 17:1.8284171 18:-0.22709109 19:0.013762593 20:1.7378154 21:-0.22045615 22:-0.054879248 23:1.6941729 24:0.16933794 25:0.50016093 26:1.8141105 27:0.40791279 28:0.35384899 29:1.7940619 30:0.59642369 31:0.28611159 32:1.6883047 33:0.70764387 34:0.26675451 35:1.6359687 36:-0.07393229 37:-0.039214075 38:1.7113404 39:-0.08186546 40:-0.46531931 41:1.6144881 42:-0.08181034 43:-0.80167794 44:1.5886073 45:-0.11980601 46:-0.84577572 47:1.4986522 48:0.086758792 49:-0.026953042 50:1.6888294 51:0.12448506 52:-0.47235435 53:1.5896049 54:0.13741353 55:-0.797337 56:1.5751171 57:0.16372292 58:-0.84246445 59:1.4835739 60:-0.006457977 61:0.54044032 62:1.8362343 63:-0.20983203 64:-0.14408313 65:1.6766021 66:-0.16930863 67:-0.059638858 68:1.6645222 69:0.76731342 70:0.23004907 71:1.5978813 72:0.70485115 73:0.26999611 74:1.5729635 
-0 -0 1 0:0.0080940872 1:-0.033343792 2:1.7409358 3:0 4:0.30000001 5:1.8 6:-0.0087726153 7:0.6177901 8:1.8450983 9:-0.053830609 10:0.76774192 11:1.8681085 12:-0.19256239 13:0.48796162 14:1.8660808 15:-0.23147075 16:0.20824501 17:1.8283684 18:-0.22706239 19:0.013808578 20:1.7375832 21:-0.21889411 22:-0.05548951 23:1.6947398 24:0.16988848 25:0.50144041 26:1.8146672 27:0.40896076 28:0.35976151 29:1.794687 30:0.60350424 31:0.29970089 32:1.6884406 33:0.71315461 34:0.28177723 35:1.63836 36:-0.073823057 37:-0.039085925 38:1.7114296 39:-0.081787303 40:-0.46537834 41:1.6145535 42:-0.081788659 43:-0.80175865 44:1.5886493 45:-0.11962652 46:-0.84588087 47:1.498776 48:0.08683075 49:-0.02671355 50:1.6888192 51:0.124515 52:-0.47261888 53:1.5896859 54:0.13748856 55:-0.7973603 56:1.5748701 57:0.16380735 58:-0.84250677 59:1.4835868 60:-0.0065043382 61:0.54036641 62:1.8362002 63:-0.21072753 64:-0.14323817 65:1.6793747 66:-0.16863969 67:-0.059042543 68:1.6649678 69:0.7737574 70:0.24727127 71:1.5996113 72:0.7208429 73:0.2926617 74:1.5703449 
-0 -0 1 0:0.0081916079 1:-0.03336215 2:1.7409625 3:0 4:0.30000001 5:1.8 6:-0.0088836066 7:0.61780721 8:1.8450739 9:-0.053884346 10:0.76783407 11:1.868109 12:-0.19265205 13:0.48800784 14:1.8661985 15:-0.23148195 16:0.20823038 17:1.8281975 18:-0.22707124 19:0.013804615 20:1.7373848 21:-0.21953402 22:-0.053837776 23:1.6934981 24:0.16998401 25:0.50222164 26:1.8150229 27:0.41013432 28:0.36693823 29:1.7958658 30:0.60870385 31:0.30890715 32:1.6893816 33:0.71824414 34:0.29688871 35:1.6409156 36:-0.073712982 37:-0.039128333 38:1.7115009 39:-0.0816762 40:-0.46554548 41:1.6145589 42:-0.081692979 43:-0.80179745 44:1.5885451 45:-0.11951804 46:-0.84595078 47:1.4987845 48:0.086917803 49:-0.026693583 50:1.6887906 51:0.12455009 52:-0.47294563 53:1.5896757 54:0.13753703 55:-0.79744089 56:1.5748823 57:0.163836 58:-0.84280658 59:1.4839408 60:-0.0065879673 61:0.54037905 62:1.8361814 63:-0.21261264 64:-0.13975964 65:1.6712396 66:-0.1686841 67:-0.060266346 68:1.6645019 69:0.78069234 70:0.26773119 71:1.6044524 72:0.72495103 73:0.29638481 74:1.5773013 
-1 -1 0 0:0.007534869 1:-0.033742249 2:1.7439249 3:0 4:0.30000001 5:1.8 6:-0.0083315931 7:0.61788177 8:1.8424067 9:-0.052142531 10:0.76875865 11:1.8651614 12:-0.19198683 13:0.48970869 14:1.8638642 15:-0.23343903 16:0.21075466 17:1.8290031 18:-0.2326254 19:0.01651901 20:1.7376003 21:-0.22588581 22:-0.053434819 23:1.698015 24:0.16634971 25:0.49918118 26:1.8150165 27:0.38838601 28:0.32040659 29:1.7922261 30:0.5592674 31:0.22185358 32:1.6954577 33:0.66512954 34:0.18603423 35:1.6422799 36:-0.075232148 37:-0.039184839 38:1.7128701 39:-0.083084635 40:-0.46661896 41:1.6193016 42:-0.083408296 43:-0.80385864 44:1.5938332 45:-0.12100518 46:-0.84661007 47:1.5040638 48:0.087066896 49:-0.027463734 50:1.6937191 51:0.12269897 52:-0.47387829 53:1.5932705 54:0.13748616 55:-0.79878259 56:1.5786855 57:0.16350928 58:-0.8441689 59:1.4866302 60:-0.0061622113 61:0.54044855 62:1.8341696 63:-0.2210198 64:-0.13854349 65:1.6817269 66:-0.17340724 67:-0.054245383 68:1.6840179 69:0.71807319 70:0.13364765 71:1.5931652 72:0.67040837 73:0.16281798 74:1.6699388 
-0 -1 1 0:0.0076396167 1:-0.033485174 2:1.7440403 3:0 4:0.30000001 5:1.8 6:-0.0084564984 7:0.61771643 8:1.8423221 9:-0.052369379 10:0.76880878 11:1.8651252 12:-0.19233885 13:0.48958188 14:1.8639417 15:-0.23337555 16:0.21061689 17:1.8288276 18:-0.23250893 19:0.016332805 20:1.7375405 21:-0.22626612 22:-0.053432316 23:1.6975024 24:0.16668621 25:0.50072247 26:1.8163404 27:0.39176562 28:0.325975 29:1.7921712 30:0.57107174 31:0.23608738 32:1.6935418 33:0.67533082 34:0.20618683 35:1.6427736 36:-0.07512892 37:-0.039017141 38:1.7128932 39:-0.082844414 40:-0.46666524 41:1.6192951 42:-0.083070852 43:-0.80405617 44:1.5937212 45:-0.12063386 46:-0.8468079 47:1.5039847 48:0.087197147 49:-0.027146935 50:1.6939142 51:0.12296117 52:-0.47434127 53:1.5933316 54:0.13738611 55:-0.79905361 56:1.5789316 57:0.1633873 58:-0.84409952 59:1.4879785 60:-0.0062509663 61:0.54032648 62:1.8341079 63:-0.21984354 64:-0.13903406 65:1.6807301 66:-0.17455536 67:-0.071222782 68:1.6762266 69:0.73002261 70:0.1637342 71:1.5985365 72:0.68981618 73:0.17911816 74:1.658705 
-0 -1 1 0:0.0079142749 1:-0.033309758 2:1.7440352 3:0 4:0.30000001 5:1.8 6:-0.0087722205 7:0.61760873 8:1.8424048 9:-0.052786134 10:0.76868051 11:1.8650525 12:-0.19260564 13:0.4893347 14:1.8636532 15:-0.23341092 16:0.21073645 17:1.8287332 18:-0.23242132 19:0.016439557 20:1.737474 21:-0.22693112 22:-0.053926498 23:1.6978209 24:0.16694911 25:0.50160414 26:1.8168259 27:0.40241531 28:0.34168327 29:1.7948167 30:0.57585949 31:0.25385302 32:1.6949542 33:0.68602669 34:0.22386009 35:1.6439631 36:-0.074887104 37:-0.039012641 38:1.7127461 39:-0.082648821 40:-0.46676102 41:1.6190972 42:-0.082875639 43:-0.80404752 44:1.593658 45:-0.12039597 46:-0.84691828 47:1.5041955 48:0.08752352 49:-0.026795328 50:1.6940846 51:0.12305208 52:-0.47465798 53:1.5932767 54:0.13780367 55:-0.79963201 56:1.5791297 57:0.16346513 58:-0.84409082 59:1.488147 60:-0.006479159 61:0.5402472 62:1.8341639 63:-0.22027293 64:-0.13796592 65:1.6787574 66:-0.17184386 67:-0.072659135 68:1.675741 69:0.74252671 70:0.18452919 71:1.6033194 72:0.72491348 73:0.16818655 74:1.6189075 
-0 -1 1 0:0.0080063492 1:-0.033052653 2:1.7440436 3:0 4:0.30000001 5:1.8 6:-0.008879859 7:0.61744595 8:1.8424065 9:-0.053177454 10:0.76875043 11:1.8650825 12:-0.19284862 13:0.48916122 14:1.8635597 15:-0.23338832 16:0.21065411 17:1.8286643 18:-0.23245895 19:0.016383231 20:1.7373426 21:-0.22700433 22:-0.052680224 23:1.6955707 24:0.16718526 25:0.50268602 26:1.8173778 27:0.40391278 28:0.34473738 29:1.7941539 30:0.59402531 31:0.27043661 32:1.6907852 33:0.69525766 34:0.24268362 35:1.6435874 36:-0.074811153 37:-0.038823962 38:1.7127469 39:-0.082451552 40:-0.4669207 41:1.6191204 42:-0.082809739 43:-0.80408764 44:1.5937207 45:-0.11980282 46:-0.84699035 47:1.5047958 48:0.087643772 49:-0.026501328 50:1.6940768 51:0.12322983 52:-0.47511712 53:1.593442 54:0.13783295 55:-0.79968941 56:1.5792515 57:0.16358797 58:-0.84417319 59:1.4881341 60:-0.0065547265 61:0.5401305 62:1.8341639 63:-0.22091143 64:-0.13757575 65:1.6749206 66:-0.1719867 67:-0.053391844 68:1.676182 69:0.7541095 70:0.20060274 71:1.6062989 72:0.69806397 73:0.22285053 74:1.658586 
-0 -0.1011369753256956 1 0:0.0081086233 1:-0.033010691 2:1.743989 3:0 4:0.30000001 5:1.8 6:-0.0088909939 7:0.61737859 8:1.8424375 9:-0.05318176 10:0.76870739 11:1.8650391 12:-0.19300412 13:0.48905841 14:1.8633416 15:-0.23315923 16:0.21055302 17:1.8284836 18:-0.23227613 19:0.016282827 20:1.7371604 21:-0.22695956 22:-0.053131789 23:1.6949437 24:0.16757803 25:0.50227177 26:1.8175213 27:0.40947503 28:0.35288605 29:1.7902448 30:0.59612614 31:0.28219214 32:1.6946311 33:0.70584381 34:0.26023069 35:1.6449966 36:-0.07473965 37:-0.038768679 38:1.7126651 39:-0.082129933 40:-0.46696523 41:1.6190624 42:-0.082506776 43:-0.80421567 44:1.5935559 45:-0.11943333 46:-0.8471036 47:1.5045657 48:0.087788954 49:-0.026487023 50:1.6940265 51:0.12348098 52:-0.47522837 53:1.5932875 54:0.13806228 55:-0.79992783 56:1.5792503 57:0.16381697 58:-0.84440243 59:1.4875772 60:-0.006572593 61:0.54007721 62:1.8341885 63:-0.2198011 64:-0.13805214 65:1.6776559 66:-0.17226039 67:-0.061942637 68:1.6748509 69:0.76387405 70:0.22290227 71:1.6070852 72:0.72194237 73:0.23423496 74:1.6558542 
-0 -0 1 0:0.0082437843 1:-0.032938153 2:1.7440059 3:0 4:0.30000001 5:1.8 6:-0.0090160817 7:0.6172961 8:1.8424196 9:-0.053522751 10:0.76882362 11:1.8651848 12:-0.19320829 13:0.48896459 14:1.8633502 15:-0.23306312 16:0.21036336 17:1.8283837 18:-0.2322702 19:0.016139656 20:1.7369504 21:-0.22611828 22:-0.053136915 23:1.6954405 24:0.16772266 25:0.50303948 26:1.8176417 27:0.41284108 28:0.35922292 29:1.7906964 30:0.59965211 31:0.29833701 32:1.6973674 33:0.71122724 34:0.28024563 35:1.6474383 36:-0.074607842 37:-0.03874284 38:1.7127411 39:-0.081940524 40:-0.46699923 41:1.6189849 42:-0.082280129 43:-0.80420697 44:1.5933881 45:-0.1194298 46:-0.84733629 47:1.503855 48:0.087929875 49:-0.026374966 50:1.6939793 51:0.12378104 52:-0.47548357 53:1.5932376 54:0.13825335 55:-0.80007863 56:1.579246 57:0.16408876 58:-0.84451604 59:1.4873681 60:-0.0066698603 61:0.5400151 62:1.8341756 63:-0.21960603 64:-0.13664463 65:1.6755571 66:-0.17141628 67:-0.054520339 68:1.6810634 69:0.77074367 70:0.24724635 71:1.608815 72:0.72143489 73:0.25796965 74:1.6607239 
-0 -0 1 0:0.0083920062 1:-0.032933891 2:1.743957 3:0 4:0.30000001 5:1.8 6:-0.0091157779 7:0.61726439 8:1.8424554 9:-0.053613815 10:0.76885164 11:1.8652785 12:-0.19338381 13:0.48876458 14:1.8633192 15:-0.23295817 16:0.21035242 17:1.8282509 18:-0.23219819 19:0.016117424 20:1.7368438 21:-0.22843598 22:-0.053336948 23:1.6952989 24:0.1680727 25:0.50266391 26:1.8177099 27:0.41817319 28:0.37324953 29:1.7952704 30:0.6079523 31:0.30970007 32:1.696744 33:0.72056985 34:0.29691935 35:1.6486921 36:-0.074487083 37:-0.038721174 38:1.7127745 39:-0.081691615 40:-0.46711156 41:1.6188612 42:-0.082179412 43:-0.80485839 44:1.59322 45:-0.11943498 46:-0.84763253 47:1.5035694 48:0.088107497 49:-0.026398391 50:1.6938593 51:0.12389748 52:-0.47586364 53:1.5933414 54:0.13797434 55:-0.80011487 56:1.5795741 57:0.16424759 58:-0.84468526 59:1.4871852 60:-0.006751921 61:0.53998989 62:1.8342025 63:-0.21670565 64:-0.13975236 65:1.6755407 66:-0.17174304 67:-0.060954928 68:1.6779692 69:0.78117168 70:0.26472634 71:1.6111875 72:0.72531801 73:0.27656668 74:1.6647394 
-0.2381283661432707 -1 -1 0:0.0092323944 1:-0.032267302 2:1.7376521 3:0 4:0.30000001 5:1.8 6:-0.010350786 7:0.61669838 8:1.8488822 9:-0.043923888 10:0.77187526 11:1.8612995 12:-0.19602597 13:0.48927519 14:1.8576159 15:-0.23755449 16:0.21650931 17:1.815913 18:-0.23196073 19:0.022443801 20:1.7242672 21:-0.22459504 22:-0.052721232 23:1.6811469 24:0.16769439 25:0.5050118 26:1.8249083 27:0.42250746 28:0.38107666 29:1.8187428 30:0.62144172 31:0.34618422 32:1.7375777 33:0.711815 34:0.34888497 35:1.7042801 36:-0.071806744 37:-0.036960214 38:1.7033846 39:-0.083168708 40:-0.46922386 41:1.6070802 42:-0.088489711 43:-0.79695904 44:1.5777204 45:-0.12517829 46:-0.84210014 47:1.4888091 48:0.086799651 49:-0.026602715 50:1.6904881 51:0.1210451 52:-0.47068945 53:1.5835776 54:0.13196731 55:-0.79333198 56:1.5633276 57:0.15721373 58:-0.83929849 59:1.4718113 60:-0.007664226 61:0.53953576 62:1.8390055 63:-0.22238694 64:-0.13747232 65:1.6551476 66:-0.17084917 67:-0.049761415 68:1.6702173 69:0.77839303 70:0.33108446 71:1.6898468 72:0.70288718 73:0.32146332 74:1.7198195 
-0 -0 -1 0:0.0095321238 1:-0.032174826 2:1.7376168 3:0 4:0.30000001 5:1.8 6:-0.01062011 7:0.61665797 8:1.8489423 9:-0.044384368 10:0.7716915 11:1.8614681 12:-0.19605294 13:0.48887622 14:1.8574147 15:-0.2374955 16:0.21615148 17:1.8156393 18:-0.23191899 19:0.022081643 20:1.7240031 21:-0.22469603 22:-0.052872002 23:1.6806221 24:0.1682384 25:0.50661963 26:1.826823 27:0.41512659 28:0.39376563 29:1.8294704 30:0.6419363 31:0.35906392 32:1.7337623 33:0.73198915 34:0.36394346 35:1.7046196 36:-0.07152088 37:-0.036998034 38:1.7033114 39:-0.08291585 40:-0.46952677 41:1.6068997 42:-0.088306591 43:-0.79724252 44:1.5775912 45:-0.12492803 46:-0.84240156 47:1.4885938 48:0.087114379 49:-0.026400298 50:1.6904926 51:0.12124421 52:-0.47144449 53:1.583637 54:0.13215667 55:-0.79426652 56:1.5633759 57:0.15752888 58:-0.83982164 59:1.4716048 60:-0.0078668371 61:0.53950351 62:1.8390505 63:-0.22238292 64:-0.13691397 65:1.6556849 66:-0.17094325 67:-0.05758065 68:1.6679988 69:0.79546332 70:0.34516299 71:1.6830308 72:0.72099382 73:0.33624536 74:1.7321069 
-0 -0 -1 0:0.0097727254 1:-0.032011449 2:1.737601 3:0 4:0.30000001 5:1.8 6:-0.010815617 7:0.6165539 8:1.8489842 9:-0.044858806 10:0.77159268 11:1.8618412 12:-0.19638607 13:0.48860151 14:1.8574686 15:-0.23718873 16:0.21560436 17:1.8149116 18:-0.231805 19:0.021403134 20:1.7235799 21:-0.22564608 22:-0.053534746 23:1.678704 24:0.16821674 25:0.50703073 26:1.8273168 27:0.41400808 28:0.39735359 29:1.8299544 30:0.65266705 31:0.36765856 32:1.7337649 33:0.74150431 34:0.37891752 35:1.7049401 36:-0.071290165 37:-0.036909044 38:1.7032301 39:-0.082695097 40:-0.46966761 41:1.6067839 42:-0.087990135 43:-0.7976982 44:1.5774109 45:-0.12495098 46:-0.84260559 47:1.4883447 48:0.087366171 49:-0.026189685 50:1.6905544 51:0.12150773 52:-0.47171155 53:1.5834987 54:0.13237327 55:-0.79437399 56:1.5632696 57:0.15777466 58:-0.83993489 59:1.4716475 60:-0.0080137327 61:0.53942466 62:1.839081 63:-0.22391739 64:-0.13612399 65:1.6571906 66:-0.1704824 67:-0.063178301 68:1.6542428 69:0.80431598 70:0.36386895 71:1.6813073 72:0.71943724 73:0.35031599 74:1.7244816 
-0 -0 -1 0:0.0098933503 1:-0.031981796 2:1.737602 3:0 4:0.30000001 5:1.8 6:-0.010897603 7:0.61650521 8:1.8489635 9:-0.045247141 10:0.77156276 11:1.8619919 12:-0.19654217 13:0.48840684 14:1.8572695 15:-0.23712903 16:0.21558362 17:1.8149164 18:-0.23191836 19:0.021484971 20:1.7233291 21:-0.22479394 22:-0.052548319 23:1.6793234 24:0.16838056 25:0.50705999 26:1.8274281 27:0.41413879 28:0.4022063 29:1.8298206 30:0.65718943 31:0.37582564 32:1.7333765 33:0.74675184 34:0.3930313 35:1.7050197 36:-0.071187049 37:-0.036875993 38:1.7032275 39:-0.082459256 40:-0.46996751 41:1.6066914 42:-0.088005051 43:-0.79957837 44:1.5771422 45:-0.12507492 46:-0.84288359 47:1.4878821 48:0.087506227 49:-0.026177764 50:1.6905577 51:0.12157009 52:-0.47211045 53:1.5834332 54:0.13287938 55:-0.79502898 56:1.5627394 57:0.15768477 58:-0.84063518 59:1.471241 60:-0.0080809519 61:0.53938794 62:1.8390672 63:-0.22236478 64:-0.13660705 65:1.6536579 66:-0.17015189 67:-0.054690301 68:1.6679931 69:0.80821222 70:0.37827414 71:1.6789279 72:0.70905322 73:0.36323524 74:1.7286117 
-0 -0 -1 0:0.010036826 1:-0.031893134 2:1.7376318 3:0 4:0.30000001 5:1.8 6:-0.01100738 7:0.61645365 8:1.8489277 9:-0.045563169 10:0.77153665 11:1.8621435 12:-0.19660816 13:0.48822492 14:1.857106 15:-0.2370822 16:0.21559745 17:1.8148544 18:-0.23194917 19:0.021455705 20:1.7233641 21:-0.2253629 22:-0.053667724 23:1.6801753 24:0.16865095 25:0.50758648 26:1.8282814 27:0.41583589 28:0.40924817 29:1.8296733 30:0.66033727 31:0.38710421 32:1.7345128 33:0.74672681 34:0.40961415 35:1.7069712 36:-0.071053959 37:-0.036827087 38:1.7032213 39:-0.082315378 40:-0.47011504 41:1.6066566 42:-0.087803267 43:-0.79987311 44:1.5771661 45:-0.12494417 46:-0.84301066 47:1.4878769 48:0.087662309 49:-0.026065946 50:1.69063 51:0.12162593 52:-0.47212604 53:1.583374 54:0.13273862 55:-0.79522491 56:1.5630112 57:0.1578445 58:-0.8407864 59:1.4714069 60:-0.0081639588 61:0.53934824 62:1.8390424 63:-0.22248408 64:-0.13692783 65:1.6565609 66:-0.17048815 67:-0.069443434 68:1.6680059 69:0.81226838 70:0.39720696 71:1.6850324 72:0.72343528 73:0.37432653 74:1.7110338 
-1 -1 -1 0:0.008273311 1:-0.033187896 2:1.740917 3:0 4:0.30000001 5:1.8 6:-0.0089038275 7:0.61769414 8:1.8451195 9:-0.05387982 10:0.76771504 11:1.8679969 12:-0.19263136 13:0.48790914 14:1.8661911 15:-0.23143104 16:0.20808119 17:1.8280685 18:-0.22698081 19:0.013601571 20:1.7373869 21:-0.21940365 22:-0.056839287 23:1.692621 24:0.17006192 25:0.50256121 26:1.8150668 27:0.41099736 28:0.373707 29:1.7965767 30:0.61238706 31:0.31924814 32:1.6922419 33:0.72473389 34:0.31129366 35:1.6460607 36:-0.073610604 37:-0.039010882 38:1.7114007 39:-0.081456847 40:-0.46581993 41:1.6145563 42:-0.081588499 43:-0.80201411 44:1.5885665 45:-0.11936834 46:-0.84617037 47:1.4988258 48:0.086985849 49:-0.026491791 50:1.6888134 51:0.12466801 52:-0.47312352 53:1.5897017 54:0.13770416 55:-0.79746276 56:1.5749381 57:0.16425282 58:-0.84311157 59:1.4833195 60:-0.006604109 61:0.54028785 62:1.8362155 63:-0.20945653 64:-0.14470524 65:1.6771271 66:-0.16901889 67:-0.061053157 68:1.6622868 69:0.7861529 70:0.28245836 71:1.6051776 72:0.72943848 73:0.31067181 74:1.5790527 
-1 -1 -1 0:0.0083007365 1:-0.033082426 2:1.740876 3:0 4:0.30000001 5:1.8 6:-0.0089113079 7:0.61761397 8:1.8451612 9:-0.053812448 10:0.76769102 11:1.8680193 12:-0.19274837 13:0.48773825 14:1.8661695 15:-0.23142529 16:0.20794481 17:1.8279352 18:-0.22691688 19:0.013549268 20:1.7370529 21:-0.22021875 22:-0.055520236 23:1.6931727 24:0.17023429 25:0.5030275 26:1.8152077 27:0.41187808 28:0.37957072 29:1.7973306 30:0.6181196 31:0.33123946 32:1.6953893 33:0.73193902 34:0.32432413 35:1.6493094 36:-0.073535882 37:-0.039014012 38:1.7114339 39:-0.081303164 40:-0.4660081 41:1.6144953 42:-0.081440113 43:-0.80223399 44:1.5886314 45:-0.11925001 46:-0.8462863 47:1.4987826 48:0.086958669 49:-0.026243269 50:1.6886423 51:0.12485271 52:-0.47351751 53:1.5897648 54:0.13788617 55:-0.79744047 56:1.5748856 57:0.16438705 58:-0.84316838 59:1.4830625 60:-0.0066086762 61:0.54022634 62:1.8362458 63:-0.21113902 64:-0.14299308 65:1.6769707 66:-0.16941652 67:-0.056056529 68:1.6750996 69:0.79360223 70:0.29754943 71:1.610038 72:0.74197668 73:0.32404476 74:1.5807381 
-0 -1 -1 0:0.0083419755 1:-0.033051074 2:1.7408795 3:0 4:0.30000001 5:1.8 6:-0.0089330003 7:0.61758053 8:1.8451645 9:-0.053835716 10:0.76772797 11:1.8679934 12:-0.19289118 13:0.4874678 14:1.8657095 15:-0.23148602 16:0.20798585 17:1.8278174 18:-0.22694865 19:0.013554066 20:1.7370226 21:-0.21940058 22:-0.056886017 23:1.6928942 24:0.17021626 25:0.50350857 26:1.8153372 27:0.41268763 28:0.38554832 29:1.7985168 30:0.63434023 31:0.34102699 32:1.6947277 33:0.73776811 34:0.33782813 35:1.6533728 36:-0.073491067 37:-0.039013803 38:1.7114408 39:-0.081276909 40:-0.46552804 41:1.6145742 42:-0.08164566 43:-0.8014487 44:1.5887434 45:-0.11887001 46:-0.84595251 47:1.4989455 48:0.086998679 49:-0.026192844 50:1.6886532 51:0.12498144 52:-0.47355446 53:1.5898125 54:0.13756347 55:-0.79712117 56:1.5747647 57:0.16433847 58:-0.84312403 59:1.4830101 60:-0.0066265389 61:0.54020095 62:1.8362474 63:-0.21170083 64:-0.14273351 65:1.6749396 66:-0.16862619 67:-0.066705108 68:1.6631386 69:0.80280167 70:0.31214717 71:1.6183109 72:0.74661702 73:0.33805785 74:1.5880988 
-0 -0.9475145154887816 -1 0:0.0084535703 1:-0.032994926 2:1.7408497 3:0 4:0.30000001 5:1.8 6:-0.0090068318 7:0.61751306 8:1.8452263 9:-0.053728856 10:0.76774216 11:1.868048 12:-0.19271228 13:0.48724619 14:1.8655815 15:-0.23133233 16:0.20775995 17:1.8276856 18:-0.22681996 19:0.013310373 20:1.7369323 21:-0.22033194 22:-0.056815684 23:1.6949201 24:0.17030141 25:0.50347531 26:1.8152742 27:0.41494209 28:0.39216629 29:1.8003259 30:0.63933128 31:0.35165992 32:1.6977532 33:0.74520802 34:0.35028854 35:1.658392 36:-0.073394135 37:-0.039017737 38:1.7113864 39:-0.080969647 40:-0.46540746 41:1.6145742 42:-0.081104845 43:-0.80151093 44:1.5887549 45:-0.11851456 46:-0.84607887 47:1.4998264 48:0.087140836 49:-0.026108414 50:1.6886597 51:0.1252763 52:-0.47400671 53:1.5898643 54:0.13768676 55:-0.79735696 56:1.5747852 57:0.16454157 58:-0.8433733 59:1.4832735 60:-0.0066847429 61:0.54014885 62:1.8362906 63:-0.20999515 64:-0.14410019 65:1.677237 66:-0.1684728 67:-0.060902476 68:1.6666484 69:0.80978757 70:0.32567421 71:1.6218143 72:0.73471779 73:0.35179439 74:1.598412 
-0 -0 -1 0:0.0085656643 1:-0.032803297 2:1.7408843 3:0 4:0.30000001 5:1.8 6:-0.0090797171 7:0.61741757 8:1.8452046 9:-0.05369373 10:0.76767898 11:1.8680444 12:-0.19269389 13:0.48706695 14:1.8652647 15:-0.23129126 16:0.20771161 17:1.8276608 18:-0.22680414 19:0.013260156 20:1.7369099 21:-0.22285604 22:-0.050731808 23:1.6953754 24:0.17051056 25:0.50418901 26:1.8155336 27:0.41674098 28:0.3976942 29:1.8007424 30:0.64048541 31:0.36124912 32:1.700088 33:0.74791867 34:0.36308327 35:1.6602631 36:-0.073278308 37:-0.038818926 38:1.7114251 39:-0.080827445 40:-0.46540889 41:1.6146178 42:-0.080915615 43:-0.80237508 44:1.5888226 45:-0.11842774 46:-0.84623778 47:1.4998293 48:0.087251104 49:-0.025961936 50:1.6886997 51:0.1253728 52:-0.47418261 53:1.5898638 54:0.13774678 55:-0.797472 56:1.5747676 57:0.16460964 58:-0.84341908 59:1.4833064 60:-0.0067354813 61:0.54007483 62:1.8362761 63:-0.21595722 64:-0.13547313 65:1.6680751 66:-0.16853097 67:-0.060368896 68:1.6642551 69:0.81103224 70:0.34363249 71:1.6264181 72:0.74392146 73:0.3659918 74:1.5986485 
-0 -0 -1 0:0.008616142 1:-0.032704234 2:1.7408686 3:0 4:0.30000001 5:1.8 6:-0.0091154575 7:0.6173507 8:1.8452082 9:-0.053711817 10:0.76764512 11:1.8680048 12:-0.19265974 13:0.48703232 14:1.8650215 15:-0.23138325 16:0.20756587 17:1.8273277 18:-0.22679341 19:0.013017684 20:1.7368159 21:-0.2211795 22:-0.051844239 23:1.6951554 24:0.17059581 25:0.50464463 26:1.815532 27:0.41794312 28:0.40215406 29:1.8010039 30:0.65099448 31:0.36896273 32:1.7000504 33:0.75332218 34:0.37544909 35:1.6625221 36:-0.073228821 37:-0.038753897 38:1.711412 39:-0.080669641 40:-0.46553928 41:1.6146183 42:-0.080999218 43:-0.80241251 44:1.5888293 45:-0.11833128 46:-0.84630454 47:1.4998755 48:0.087305412 49:-0.025849104 50:1.6886926 51:0.12547532 52:-0.47440755 53:1.5899162 54:0.13788095 55:-0.79755676 56:1.5747347 57:0.16462313 58:-0.84350753 59:1.4830518 60:-0.0067604035 61:0.54002583 62:1.8362796 63:-0.21776949 64:-0.13350128 65:1.6700153 66:-0.16805357 67:-0.060961097 68:1.6656344 69:0.8167665 70:0.35732916 71:1.628885 72:0.7382735 73:0.38084397 74:1.6059861 
-0 -0 -1 0:0.0086637661 1:-0.032688916 2:1.7409222 3:0 4:0.30000001 5:1.8 6:-0.0091489516 7:0.61730552 8:1.845156 9:-0.053679764 10:0.76760715 11:1.8680921 12:-0.19259074 13:0.48680258 14:1.8645246 15:-0.2313568 16:0.20762867 17:1.8271482 18:-0.22689398 19:0.013052523 20:1.736696 21:-0.2214486 22:-0.050379723 23:1.6950819 24:0.17052147 25:0.50484747 26:1.8154647 27:0.41941077 28:0.40869218 29:1.8012969 30:0.65822923 31:0.37604392 32:1.7001173 33:0.74703932 34:0.38862783 35:1.6671598 36:-0.073183626 37:-0.038763911 38:1.7114956 39:-0.080500633 40:-0.46567461 41:1.6146369 42:-0.080944553 43:-0.80283612 44:1.588891 45:-0.11814143 46:-0.84627295 47:1.499948 48:0.08735913 49:-0.025816649 50:1.6887188 51:0.12556098 52:-0.4743633 53:1.5899475 54:0.13794014 55:-0.79766607 56:1.5748384 57:0.16479701 58:-0.84377289 59:1.4832733 60:-0.0067883916 61:0.53999287 62:1.8362396 63:-0.21660069 64:-0.13594499 65:1.6707599 66:-0.16933568 67:-0.036776483 68:1.6778314 69:0.81068432 70:0.37331206 71:1.638042 72:0.74114174 73:0.42237717 74:1.6459582 
-0 -0 -0.9518763622194893 0:0.0087157786 1:-0.032690793 2:1.7409186 3:0 4:0.30000001 5:1.8 6:-0.0091859922 7:0.61729234 8:1.8451726 9:-0.05366715 10:0.76754761 11:1.8680725 12:-0.19261198 13:0.48673242 14:1.8645704 15:-0.23128062 16:0.20748466 17:1.8270144 18:-0.22705433 19:0.01288715 20:1.736604 21:-0.22072308 22:-0.057730615 23:1.6929758 24:0.17039622 25:0.50481641 26:1.8153968 27:0.42032349 28:0.41356468 29:1.8016982 30:0.66097969 31:0.38299763 32:1.702009 33:0.74817276 34:0.40061015 35:1.6716092 36:-0.073120654 37:-0.038722783 38:1.7114799 39:-0.080348857 40:-0.46609575 41:1.6145031 42:-0.081085436 43:-0.80271345 44:1.5890892 45:-0.11831501 46:-0.84637499 47:1.4997365 48:0.087406993 49:-0.025860876 50:1.6887257 51:0.12549597 52:-0.47537857 53:1.5899851 54:0.1379804 55:-0.79778486 56:1.5749755 57:0.16553567 58:-0.84438682 59:1.4816411 60:-0.0068182163 61:0.53998274 62:1.836251 63:-0.21012983 64:-0.14509094 65:1.6770701 66:-0.16864109 67:-0.058890015 68:1.666373 69:0.81352603 70:0.38675439 71:1.6528056 72:0.75374293 73:0.40345144 74:1.6079795 
-1 -1 -1 0:0.0085113347 1:-0.032856971 2:1.7439158 3:0 4:0.30000001 5:1.8 6:-0.009331543 7:0.6171397 8:1.8425565 9:-0.053942036 10:0.7689122 11:1.8653009 12:-0.19349709 13:0.48871562 14:1.8632021 15:-0.23291817 16:0.21032646 17:1.82816 18:-0.23209657 19:0.016077369 20:1.7367866 21:-0.22696796 22:-0.053539097 23:1.6955488 24:0.16804411 25:0.50312114 26:1.8175881 27:0.42262644 28:0.37758699 29:1.7936699 30:0.61280924 31:0.32578674 32:1.6986766 33:0.72581458 34:0.31581804 35:1.6514406 36:-0.074366122 37:-0.038691193 38:1.7127526 39:-0.081345208 40:-0.46756774 41:1.6187913 42:-0.082103223 43:-0.80514944 44:1.5932176 45:-0.11920751 46:-0.84769344 47:1.50365 48:0.0882269 49:-0.026263982 50:1.6937752 51:0.12400892 52:-0.47595564 53:1.5932713 54:0.13804652 55:-0.80018139 56:1.5795786 57:0.16435796 58:-0.84474826 59:1.4873173 60:-0.0069084018 61:0.53990436 62:1.8342731 63:-0.21926938 64:-0.1372668 65:1.6747992 66:-0.1729176 67:-0.068862438 68:1.679435 69:0.7889877 70:0.28584978 71:1.6160493 72:0.74592066 73:0.28936389 74:1.6626713 
-0.3849934566775725 -1 -1 0:0.0086445585 1:-0.032809526 2:1.7438979 3:0 4:0.30000001 5:1.8 6:-0.009406697 7:0.61709476 8:1.8425663 9:-0.054245558 10:0.76872814 11:1.8652651 12:-0.19351979 13:0.48853198 14:1.8629436 15:-0.2329189 16:0.21029881 17:1.8280284 18:-0.23203313 19:0.016036719 20:1.7366848 21:-0.22498824 22:-0.054790407 23:1.6954825 24:0.16806571 25:0.50327682 26:1.8173318 27:0.42524379 28:0.38349149 29:1.7920945 30:0.61915219 31:0.33781752 32:1.7002177 33:0.73702043 34:0.3308095 35:1.6536334 36:-0.074233651 37:-0.03867051 38:1.7127016 39:-0.081161112 40:-0.46741351 41:1.6188407 42:-0.081952721 43:-0.80528975 44:1.5930028 45:-0.11871511 46:-0.84776676 47:1.5037417 48:0.088367537 49:-0.026219994 50:1.6937649 51:0.12404546 52:-0.47716829 53:1.5932927 54:0.13820308 55:-0.80034542 56:1.5794134 57:0.16459042 58:-0.8448143 59:1.4869001 60:-0.0069702715 61:0.53986752 62:1.83428 63:-0.21837802 64:-0.13898802 65:1.6782379 66:-0.17079057 67:-0.040755868 68:1.6885695 69:0.80102587 70:0.30270669 71:1.6192358 72:0.74448639 73:0.30877516 74:1.6668086 
-0 -1 -1 0:0.0088326931 1:-0.03278026 2:1.7438691 3:0 4:0.30000001 5:1.8 6:-0.0096045397 7:0.61709678 8:1.8426077 9:-0.054466899 10:0.76856267 11:1.8653138 12:-0.19357681 13:0.48832861 14:1.8627992 15:-0.23280728 16:0.21008894 17:1.8279388 18:-0.23195937 19:0.015845567 20:1.7365503 21:-0.22694308 22:-0.054222703 23:1.6947355 24:0.16815206 25:0.50356483 26:1.8172829 27:0.4274964 28:0.38888302 29:1.7906651 30:0.63469863 31:0.3528606 32:1.6979012 33:0.74316454 34:0.34646848 35:1.6561372 36:-0.074037433 37:-0.03872183 38:1.7127023 39:-0.080856517 40:-0.46790916 41:1.6187954 42:-0.081745178 43:-0.80568051 44:1.5929523 45:-0.11825928 46:-0.84814298 47:1.5040324 48:0.088547431 49:-0.026108742 50:1.6936831 51:0.12404605 52:-0.47649938 53:1.5933933 54:0.13836819 55:-0.80047143 56:1.5791736 57:0.16489962 58:-0.84509408 59:1.4863348 60:-0.0071178414 61:0.53986621 62:1.8343096 63:-0.21619776 64:-0.14120927 65:1.676249 66:-0.17177379 67:-0.05817163 68:1.682539 69:0.80480379 70:0.32123616 71:1.6171293 72:0.72719717 73:0.3191444 74:1.6847308 
-0 -0 -1 0:0.0089550614 1:-0.032766998 2:1.7438056 3:0 4:0.30000001 5:1.8 6:-0.0097598024 7:0.6170544 8:1.842705 9:-0.054554917 10:0.76851225 11:1.8652859 12:-0.19354759 13:0.48827374 14:1.8626747 15:-0.23272538 16:0.20999885 17:1.8277633 18:-0.23190466 19:0.015709043 20:1.7364867 21:-0.22485001 22:-0.055186749 23:1.6954029 24:0.16822913 25:0.50378513 26:1.8170717 27:0.43028778 28:0.39584881 29:1.7900696 30:0.63831091 31:0.36161339 32:1.6977172 33:0.7497099 34:0.36136746 35:1.6576698 36:-0.073899157 37:-0.03869617 38:1.7126496 39:-0.080713555 40:-0.46794012 41:1.6186943 42:-0.081462882 43:-0.80533713 44:1.5927453 45:-0.11807354 46:-0.84812301 47:1.5040126 48:0.088659704 49:-0.026115149 50:1.6936052 51:0.12421122 52:-0.47647122 53:1.5933118 54:0.13819773 55:-0.80029267 56:1.5788658 57:0.16489522 58:-0.84492177 59:1.4868968 60:-0.0072358511 61:0.53983516 62:1.8343801 63:-0.21607916 64:-0.14126575 65:1.6762481 66:-0.17076237 67:-0.051863521 68:1.6835256 69:0.81175119 70:0.33901155 71:1.6203792 72:0.7492643 73:0.33898246 74:1.6702688 
-0 -0 -1 0:0.0090898126 1:-0.032750487 2:1.743742 3:0 4:0.30000001 5:1.8 6:-0.0099335499 7:0.61700451 8:1.8427811 9:-0.05466488 10:0.768444 11:1.8652132 12:-0.19351396 13:0.48817247 14:1.8623984 15:-0.23267165 16:0.20992804 17:1.8276243 18:-0.2318671 19:0.015657663 20:1.7363017 21:-0.22622415 22:-0.055244476 23:1.6941686 24:0.16824582 25:0.50396216 26:1.8168688 27:0.43262437 28:0.40222818 29:1.7894921 30:0.64132726 31:0.37491405 32:1.69855 33:0.75169557 34:0.376854 35:1.6595507 36:-0.073779121 37:-0.038683146 38:1.7127094 39:-0.080454655 40:-0.46792066 41:1.6185198 42:-0.081214234 43:-0.80541694 44:1.5927427 45:-0.11790133 46:-0.84804487 47:1.5039802 48:0.08880154 49:-0.026088208 50:1.6934862 51:0.12446382 52:-0.47636637 53:1.5931654 54:0.13838854 55:-0.80033588 56:1.5787911 57:0.16507486 58:-0.84503561 59:1.4866858 60:-0.0073683187 61:0.5397976 62:1.8344374 63:-0.21772534 64:-0.13910046 65:1.6751652 66:-0.17072685 67:-0.054215938 68:1.6821814 69:0.81396645 70:0.3579188 71:1.625906 72:0.76018232 73:0.33432245 74:1.6354256 
-0 -0 -1 0:0.009205088 1:-0.032642394 2:1.7436974 3:0 4:0.30000001 5:1.8 6:-0.010027252 7:0.61690044 8:1.8428543 9:-0.054853823 10:0.76833415 11:1.8651648 12:-0.19360457 13:0.48818853 14:1.8623419 15:-0.23261023 16:0.20982578 17:1.8274748 18:-0.23181583 19:0.015591472 20:1.7360663 21:-0.22767083 22:-0.054915309 23:1.6939321 24:0.16825414 25:0.50450718 26:1.8166699 27:0.43485713 28:0.4091287 29:1.7895141 30:0.65425903 31:0.38292113 32:1.698281 33:0.75200623 34:0.39151588 35:1.6637821 36:-0.073648788 37:-0.038589418 38:1.7127471 39:-0.080094665 40:-0.46837795 41:1.6183307 42:-0.081188709 43:-0.80552065 44:1.5926714 45:-0.11743322 46:-0.84818447 47:1.5042813 48:0.088907033 49:-0.025974393 50:1.6933627 51:0.12466785 52:-0.47657183 53:1.5930784 54:0.13841151 55:-0.80028105 56:1.5786238 57:0.16521685 58:-0.8450278 59:1.4867258 60:-0.0074404031 61:0.53971994 62:1.8344896 63:-0.21841323 64:-0.13724869 65:1.6732669 66:-0.17124131 67:-0.064107448 68:1.6811571 69:0.81774026 70:0.3756471 71:1.6329474 72:0.7644552 73:0.35453597 74:1.638268 
-0 -0 -1 0:0.009357892 1:-0.032669514 2:1.7435782 3:0 4:0.30000001 5:1.8 6:-0.010188829 7:0.6169275 8:1.8430078 9:-0.054953776 10:0.76820278 11:1.8650422 12:-0.19355014 13:0.48809141 14:1.8621047 15:-0.23254877 16:0.20957297 17:1.827276 18:-0.23179382 19:0.015338629 20:1.7358689 21:-0.22528085 22:-0.054488897 23:1.6946833 24:0.16825849 25:0.5044899 26:1.8163798 27:0.43703192 28:0.41592437 29:1.7884712 30:0.65664738 31:0.38807368 32:1.6990356 33:0.76200712 34:0.40284848 35:1.6608932 36:-0.07349845 37:-0.038625509 38:1.7126195 39:-0.079892442 40:-0.46828857 41:1.6181698 42:-0.080987185 43:-0.80589116 44:1.5922825 45:-0.11736391 46:-0.84846765 47:1.5042746 48:0.089062668 49:-0.026012421 50:1.6932333 51:0.12489644 52:-0.47665659 53:1.5929248 54:0.13855931 55:-0.80041713 56:1.5783851 57:0.16532102 58:-0.84522641 59:1.4868097 60:-0.0075634569 61:0.53973752 62:1.8346019 63:-0.2187995 64:-0.13660789 65:1.6744027 66:-0.16998658 67:-0.040183067 68:1.6969151 69:0.8263672 70:0.38435328 71:1.6297476 72:0.79905117 73:0.35840309 74:1.631058 
