svm_type c_svc
kernel_type rbf
gamma 0.1
nr_class 8
total_sv 86
rho -1.00072 9.07681e-05 0.00936892 -0.00109503 -0.00210933 -0.00257452 -0.0035237 -0.0015754 0.00125659 0 0 0 0.00140121 0 -0.00105381 -2.61899e-05 0 -0.000596344 -0.0034185 0.00116885 0.00721071 0.00112192 -0.00679404 0.001635 -0.000886619 0.735347 0.00459701 -0.00335021
label 10 13 20 30 40 50 53 60
nr_sv 14 5 7 7 7 17 19 10
SV
6.569726227060611 0 0 0 0 0 0 0:0.0102807 1:-0.0316246 2:1.7313499 3:0 4:0.30000001 5:1.8 6:-0.00998851 7:0.61952299 8:1.85384 9:0.0042739701 10:0.76974201 11:1.85718 12:-0.19213399 13:0.49825001 14:1.82996 15:-0.236939 16:0.234973 17:1.81416 18:-0.221788 19:-0.018935399 20:1.67202 21:-0.209492 22:-0.062163699 23:1.64969 24:0.177653 25:0.477696 26:1.83927 27:0.222949 28:0.21402299 29:1.8193901 30:0.24966399 31:0.016454 32:1.71259 33:0.233689 34:-0.063066699 35:1.6635 36:-0.0753728 37:-0.0283952 38:1.68619 39:-0.083474003 40:-0.40920201 41:1.6315399 42:-0.076718897 43:-0.76529199 44:1.60422 45:-0.071198203 46:-0.76938999 47:1.4794199 48:0.094108596 49:-0.030250899 50:1.6942 51:0.087944701 52:-0.41984001 53:1.63678 54:0.076475903 55:-0.77690297 56:1.61435 57:0.079456203 58:-0.78090602 59:1.48964 60:-0.0075325998 61:0.54120803 62:1.84293 63:-0.20389199 64:-0.112894 65:1.63886 66:-0.165428 67:-0.040059999 68:1.62059 69:0.23599701 70:-0.148663 71:1.63753 72:0.278128 73:-0.068543002 74:1.66096 
10 0 6.384758129246527 8.421728692051591 0 0 0 0:0.0103676 1:-0.031563502 2:1.73128 3:0 4:0.30000001 5:1.8 6:-0.0100241 7:0.619407 8:1.85393 9:0.0042088302 10:0.76976001 11:1.85733 12:-0.192348 13:0.49834299 14:1.82955 15:-0.236843 16:0.235716 17:1.81458 18:-0.22269601 19:0.019491799 20:1.6903 21:-0.209178 22:-0.053575199 23:1.65244 24:0.177779 25:0.477467 26:1.83916 27:0.223058 28:0.213783 29:1.81938 30:0.249973 31:0.016088899 32:1.71275 33:0.233027 34:-0.062198699 35:1.66418 36:-0.075289898 37:-0.0284115 38:1.68622 39:-0.083544098 40:-0.40909201 41:1.63187 42:-0.076782301 43:-0.76585197 44:1.60408 45:-0.071179703 46:-0.76993102 47:1.47929 48:0.094228499 49:-0.0301659 50:1.69407 51:0.088344701 52:-0.41976801 53:1.63741 54:0.076171704 55:-0.77608198 56:1.61489 57:0.079237603 58:-0.78008902 59:1.49018 60:-0.0075600399 61:0.541125 62:1.8430001 63:-0.210186 64:-0.116976 65:1.63683 66:-0.16493601 67:-0.037898801 68:1.62358 69:0.23536099 70:-0.14764699 71:1.6345 72:0.27479401 73:-0.067956202 74:1.65058 
0.6516890273416798 0 0 0 0 0 0 0:0.0102908 1:-0.0315919 2:1.73133 3:0 4:0.30000001 5:1.8 6:-0.0099612903 7:0.61943299 8:1.85391 9:0.00422973 10:0.76975298 11:1.85724 12:-0.192541 13:0.498238 14:1.82953 15:-0.236929 16:0.23587599 17:1.81493 18:-0.22289699 19:0.0211372 20:1.69203 21:-0.20838 22:-0.054447901 23:1.6502399 24:0.178104 25:0.477368 26:1.83904 27:0.223097 28:0.21354 29:1.81938 30:0.249975 31:0.015740899 32:1.71289 33:0.23409601 34:-0.062650897 35:1.66238 36:-0.075368702 37:-0.0284467 38:1.68629 39:-0.083578303 40:-0.40904599 41:1.63195 42:-0.077054098 43:-0.766011 44:1.60401 45:-0.0714783 46:-0.770091 47:1.47922 48:0.094145201 49:-0.030189101 50:1.69412 51:0.0883018 52:-0.41970199 53:1.63743 54:0.076148503 55:-0.77410299 56:1.61529 57:0.079183102 58:-0.778144 59:1.4905699 60:-0.0075082099 61:0.54114598 62:1.84299 63:-0.210333 64:-0.139099 65:1.64928 66:-0.160477 67:-0.060799401 68:1.61554 69:0.236075 70:-0.14962199 71:1.63571 72:0.278427 73:-0.076535702 74:1.65734 
10 0 0 0 0 0 10 0:0.0103433 1:-0.0316002 2:1.73133 3:0 4:0.30000001 5:1.8 6:-0.0100088 7:0.61943698 8:1.85392 9:0.0041857599 10:0.76976198 11:1.857 12:-0.192586 13:0.498171 14:1.8295701 15:-0.236819 16:0.235347 17:1.8148 18:-0.22293501 19:0.021125101 20:1.6921999 21:-0.209396 22:-0.0532679 23:1.6524301 24:0.177986 25:0.47737601 26:1.83894 27:0.22331899 28:0.21373899 29:1.81924 30:0.24999 31:0.015752099 32:1.71304 33:0.233463 34:-0.063359901 35:1.66401 36:-0.075335898 37:-0.028463 38:1.68634 39:-0.083598897 40:-0.40903401 41:1.63203 42:-0.076916501 43:-0.765948 44:1.6040601 45:-0.0713754 46:-0.77002901 47:1.47927 48:0.094216302 49:-0.030184699 50:1.69406 51:0.088284001 52:-0.41965801 53:1.63743 54:0.075917602 55:-0.77339602 56:1.6156 57:0.078923598 58:-0.77745003 59:1.49087 60:-0.0075431499 61:0.54114997 62:1.84299 63:-0.211215 64:-0.117821 65:1.63903 66:-0.16406099 67:-0.032535199 68:1.62484 69:0.23836701 70:-0.155579 71:1.64105 72:0.27327299 73:-0.076094702 74:1.6503201 
10 0 0 0 0 0 1.422477875351911 0:0.0101923 1:-0.0315088 2:1.73141 3:0 4:0.30000001 5:1.8 6:-0.010005 7:0.61936599 8:1.85381 9:0.00422876 10:0.769822 11:1.85709 12:-0.19257601 13:0.498189 14:1.82956 15:-0.23681401 16:0.235572 17:1.81508 18:-0.221569 19:0.0131675 20:1.68815 21:-0.20864099 22:-0.055091798 23:1.6519099 24:0.17792401 25:0.47737899 26:1.83859 27:0.223417 28:0.214178 29:1.81924 30:0.250072 31:0.016401701 32:1.71254 33:0.233946 34:-0.063521199 35:1.6645499 36:-0.075530097 37:-0.028405899 38:1.68661 39:-0.083614103 40:-0.40911099 41:1.63212 42:-0.077100404 43:-0.76556897 44:1.6045001 45:-0.071630403 46:-0.76966399 47:1.4797 48:0.093987398 49:-0.030009501 50:1.69388 51:0.088475898 52:-0.420149 53:1.6375901 54:0.0765891 55:-0.77600998 56:1.615 57:0.079510003 58:-0.780029 59:1.49029 60:-0.0075418302 61:0.54109597 62:1.8429101 63:-0.213376 64:-0.112737 65:1.6339099 66:-0.16433699 67:-0.040397801 68:1.62214 69:0.23783299 70:-0.15516099 71:1.63603 72:0.27514401 73:-0.067198798 74:1.6533999 
10 0 0 0 0 0 0 0:0.0101516 1:-0.031466398 2:1.7315201 3:0 4:0.30000001 5:1.8 6:-0.0099685602 7:0.619317 8:1.85368 9:0.00416714 10:0.76992899 11:1.85718 12:-0.192669 13:0.498191 14:1.82954 15:-0.23690601 16:0.235678 17:1.81524 18:-0.222047 19:0.016506899 20:1.6900001 21:-0.20828199 22:-0.056200001 23:1.65105 24:0.17784999 25:0.47748199 26:1.83874 27:0.223528 28:0.213085 29:1.81873 30:0.25025401 31:0.0152143 32:1.71222 33:0.233954 34:-0.062912203 35:1.66487 36:-0.075578302 37:-0.028413 38:1.6867501 39:-0.083650701 40:-0.408912 41:1.63217 42:-0.077044502 43:-0.76549101 44:1.60447 45:-0.071548901 46:-0.76959199 47:1.4796799 48:0.093967102 49:-0.029933199 50:1.69397 51:0.088573597 52:-0.41966301 53:1.6375999 54:0.076382399 55:-0.77549303 56:1.6154 57:0.079333298 58:-0.77952802 59:1.49069 60:-0.0075112102 61:0.54106098 62:1.84281 63:-0.211243 64:-0.132346 65:1.64587 66:-0.163532 67:-0.043386199 68:1.62163 69:0.23647401 70:-0.15206601 71:1.63955 72:0.272322 73:-0.0812722 74:1.64983 
2.325096082601496 0 10 0 8.304413238547339 7.997941745469275 0 0:0.0101421 1:-0.031468101 2:1.7315201 3:0 4:0.30000001 5:1.8 6:-0.0099534402 7:0.61931801 8:1.85369 9:0.0041667302 10:0.769961 11:1.85718 12:-0.192692 13:0.49818799 14:1.82952 15:-0.23681401 16:0.235824 17:1.81525 18:-0.222206 19:0.018373201 20:1.6914001 21:-0.208462 22:-0.055438701 23:1.65317 24:0.17795999 25:0.47741899 26:1.8386101 27:0.22351 28:0.21301 29:1.81875 30:0.25055799 31:0.015018 32:1.71255 33:0.23370799 34:-0.064862497 35:1.6641901 36:-0.075580902 37:-0.028421201 38:1.68678 39:-0.083660699 40:-0.408896 41:1.63217 42:-0.077110499 43:-0.76564598 44:1.60429 45:-0.071636297 46:-0.76974398 47:1.4795001 48:0.093956597 49:-0.029933801 50:1.69396 51:0.088592403 52:-0.41961801 53:1.63761 54:0.076259598 55:-0.77521801 56:1.6155699 57:0.079190098 58:-0.779257 59:1.49085 60:-0.0074990299 61:0.54106098 62:1.84282 63:-0.208203 64:-0.124643 65:1.64636 66:-0.163581 67:-0.0433902 68:1.6217099 69:0.23493899 70:-0.150519 71:1.63402 72:0.25014299 73:-0.0519461 74:1.6232899 
0 0 0 0 0.9870018690761263 1.228865686600428 0 0:0.0094915302 1:-0.031389099 2:1.72961 3:0 4:0.30000001 5:1.8 6:-0.0098622702 7:0.61893398 8:1.85581 9:0.0019954401 10:0.77062601 11:1.86298 12:-0.19396999 13:0.49723601 14:1.8279099 15:-0.23660401 16:0.23415799 17:1.81291 18:-0.228672 19:-0.020754499 20:1.6648999 21:-0.21801101 22:-0.065396003 23:1.64966 24:0.179572 25:0.476834 26:1.83866 27:0.227045 28:0.218899 29:1.8077 30:0.25635099 31:-0.025324499 32:1.67062 33:0.250808 34:-0.068063401 35:1.63869 36:-0.075975299 37:-0.028692801 38:1.68583 39:-0.084170103 40:-0.40437099 41:1.63006 42:-0.077758901 43:-0.76745301 44:1.61062 45:-0.0720651 46:-0.77093297 47:1.48762 48:0.093022399 49:-0.029640401 50:1.69136 51:0.090354502 52:-0.41697401 53:1.6375099 54:0.074836597 55:-0.77664298 56:1.62209 57:0.106014 58:-0.82870501 59:1.58068 60:-0.0073752799 61:0.54079199 62:1.84443 63:-0.227385 64:-0.145299 65:1.64178 66:-0.206219 67:-0.042621899 68:1.59996 69:0.260728 70:-0.14890499 71:1.62062 72:0.26851499 73:-0.060437299 74:1.59876 
0 10 0 0 0 0 0 0:0.00954495 1:-0.031351 2:1.72963 3:0 4:0.30000001 5:1.8 6:-0.0098650297 7:0.61887598 8:1.8558199 9:0.00199989 10:0.77061498 11:1.86327 12:-0.19402599 13:0.49727699 14:1.82798 15:-0.23666 16:0.23413999 17:1.813 18:-0.229177 19:-0.0206379 20:1.6648999 21:-0.217538 22:-0.065041102 23:1.65081 24:0.179566 25:0.476787 26:1.83885 27:0.22676399 28:0.21880101 29:1.8078901 30:0.25725901 31:-0.0252969 32:1.67059 33:0.25204101 34:-0.067696698 35:1.63955 36:-0.075904697 37:-0.0286527 38:1.6857899 39:-0.084173299 40:-0.40429699 41:1.63004 42:-0.077944301 43:-0.767708 44:1.61035 45:-0.072216198 46:-0.77117997 47:1.48736 48:0.093037099 49:-0.029595699 50:1.69143 51:0.0900039 52:-0.41737601 53:1.63721 54:0.074547999 55:-0.77629101 56:1.6221 57:0.077742703 58:-0.77972198 59:1.49918 60:-0.0073779002 61:0.54075199 62:1.84443 63:-0.22640599 64:-0.128613 65:1.62948 66:-0.16978399 67:-0.055992302 68:1.62386 69:0.25972301 70:-0.149993 71:1.61822 72:0.287718 73:-0.060571101 74:1.63346 
0 0 0 0.9457294676235104 0 0 4.391220803367275 0:0.0095368 1:-0.031314898 2:1.7296799 3:0 4:0.30000001 5:1.8 6:-0.0098384898 7:0.61880702 8:1.8557 9:0.0019613099 10:0.77063203 11:1.86332 12:-0.194047 13:0.497307 14:1.82803 15:-0.236709 16:0.234065 17:1.81301 18:-0.229946 19:-0.018792599 20:1.66599 21:-0.21898299 22:-0.0620468 23:1.6500601 24:0.17945699 25:0.476841 26:1.83893 27:0.22672801 28:0.218834 29:1.80795 30:0.25585201 31:-0.030144701 32:1.66974 33:0.250806 34:-0.068281896 35:1.63876 36:-0.075899802 37:-0.028635001 38:1.68585 39:-0.084279403 40:-0.40415701 41:1.63015 42:-0.077960797 43:-0.76766998 44:1.6104 45:-0.072229601 46:-0.77114803 47:1.4874099 48:0.093031399 49:-0.0295412 50:1.69146 51:0.090022698 52:-0.417133 53:1.63709 54:0.074461699 55:-0.77605402 56:1.62216 57:0.077660702 58:-0.77949297 59:1.49924 60:-0.00735986 61:0.54070199 62:1.84435 63:-0.22087599 64:-0.133672 65:1.6372401 66:-0.21104801 67:-0.0367992 68:1.5988801 69:0.258472 70:-0.14909901 71:1.6182899 72:0.28893301 73:-0.079132199 74:1.62894 
0 7.155758484979689 0 0 0 0 0 0:0.0094972104 1:-0.0313471 2:1.72948 3:0 4:0.30000001 5:1.8 6:-0.0097376201 7:0.61884898 8:1.85595 9:0.0020965701 10:0.77072299 11:1.86305 12:-0.19405299 13:0.49731901 14:1.82804 15:-0.236569 16:0.23461799 17:1.81367 18:-0.22968499 19:-0.0201487 20:1.66532 21:-0.218309 22:-0.064422503 23:1.65143 24:0.179241 25:0.47644901 26:1.83877 27:0.226474 28:0.218816 29:1.80812 30:0.25535199 31:-0.023494 32:1.66848 33:0.25099599 34:-0.067672998 35:1.64177 36:-0.075928099 37:-0.028625499 38:1.6856101 39:-0.084303103 40:-0.40393001 41:1.63006 42:-0.077777401 43:-0.768682 44:1.61052 45:-0.072052099 46:-0.77213103 47:1.48754 48:0.092951298 49:-0.0295841 50:1.6913 51:0.090465799 52:-0.41765699 53:1.63731 54:0.0737435 55:-0.77629 56:1.6220599 57:0.076951601 58:-0.77970898 59:1.49913 60:-0.0072973901 61:0.54073203 62:1.84452 63:-0.22459599 64:-0.13474201 65:1.63327 66:-0.17059401 67:-0.060273301 68:1.62585 69:0.25914401 70:-0.150731 71:1.61964 72:0.284033 73:-0.056215499 74:1.6275899 
0 10 0 0 0 0 0 0:0.00950028 1:-0.0311842 2:1.72964 3:0 4:0.30000001 5:1.8 6:-0.0096313199 7:0.61879802 8:1.85598 9:0.0021472101 10:0.77074599 11:1.86321 12:-0.19424 13:0.49734399 14:1.82832 15:-0.236664 16:0.23380101 17:1.81308 18:-0.22902399 19:-0.017400101 20:1.6654201 21:-0.217786 22:-0.064693198 23:1.65142 24:0.17916 25:0.47660899 26:1.83902 27:0.226331 28:0.21844999 29:1.80808 30:0.257213 31:-0.028184099 32:1.6733 33:0.25263301 34:-0.0674522 35:1.63881 36:-0.075915001 37:-0.028537201 38:1.68569 39:-0.084559202 40:-0.403781 41:1.62998 42:-0.0786357 43:-0.76753801 44:1.61121 45:-0.072911501 46:-0.77101099 47:1.48822 48:0.092941903 49:-0.029283401 50:1.69142 51:0.089924999 52:-0.41706499 53:1.63695 54:0.074035399 55:-0.77541101 56:1.6221499 57:0.077223398 58:-0.77884799 59:1.49921 60:-0.00723253 61:0.54069 62:1.84451 63:-0.22672699 64:-0.135289 65:1.63499 66:-0.169872 67:-0.054175898 68:1.62266 69:0.26025999 70:-0.15121201 71:1.62103 72:0.28943601 73:-0.058116801 74:1.63711 
0 0.02627085995750855 0 0 0 0 0 0:0.0096392203 1:-0.031197401 2:1.7295099 3:0 4:0.30000001 5:1.8 6:-0.0098569999 7:0.61888802 8:1.8563499 9:0.0021268199 10:0.77074099 11:1.86313 12:-0.19426499 13:0.497419 14:1.8284 15:-0.23673201 16:0.233788 17:1.8129801 18:-0.229029 19:-0.017093301 20:1.66549 21:-0.217655 22:-0.0631648 23:1.65049 24:0.179149 25:0.47652 26:1.8389699 27:0.22628 28:0.218293 29:1.80793 30:0.25739899 31:-0.028191101 32:1.67282 33:0.25283301 34:-0.068216503 35:1.6393 36:-0.075773001 37:-0.028582999 38:1.68554 39:-0.084545903 40:-0.40382999 41:1.62986 42:-0.0785328 43:-0.76742101 44:1.6113 45:-0.072822303 46:-0.77087998 47:1.4883 48:0.093088903 49:-0.0292561 50:1.69133 51:0.089910299 52:-0.41713101 53:1.6368001 54:0.074073099 55:-0.77531397 56:1.62199 57:0.077248603 58:-0.778736 59:1.49905 60:-0.0073790099 61:0.54075301 62:1.8447599 63:-0.22956701 64:-0.14047199 65:1.64461 66:-0.16917799 67:-0.061683699 68:1.6208301 69:0.26128799 70:-0.15094601 71:1.62335 72:0.28676799 73:-0.064352803 74:1.62824 
0.4534886629962132 0 0 0 0 0 0 0:0.0096019898 1:-0.031185901 2:1.72952 3:0 4:0.30000001 5:1.8 6:-0.0098064104 7:0.61888099 8:1.85636 9:0.0020292399 10:0.77068597 11:1.86321 12:-0.194353 13:0.49740401 14:1.82857 15:-0.236664 16:0.23371001 17:1.81315 18:-0.22899801 19:-0.0170938 20:1.66557 21:-0.217344 22:-0.064480498 23:1.65093 24:0.17912699 25:0.47640601 26:1.8389601 27:0.226319 28:0.218309 29:1.808 30:0.25787699 31:-0.029903401 32:1.6725301 33:0.25282201 34:-0.068329804 35:1.63959 36:-0.075806603 37:-0.0285821 38:1.68557 39:-0.084555097 40:-0.403813 41:1.62983 42:-0.078477599 43:-0.76765901 44:1.6113501 45:-0.072798997 46:-0.77111602 47:1.48835 48:0.093041703 49:-0.0292299 50:1.6913199 51:0.090271004 52:-0.41632399 53:1.63701 54:0.074023902 55:-0.77523202 56:1.62208 57:0.077169299 58:-0.77865601 59:1.49913 60:-0.0073500602 61:0.54074901 62:1.84477 63:-0.227007 64:-0.14124399 65:1.63824 66:-0.16932601 67:-0.062163401 68:1.6213599 69:0.26080501 70:-0.150555 71:1.61984 72:0.28668499 73:-0.063170001 74:1.6276 
-10 6.380774421422778 0 0 0 0 0 0:0.0101645 1:-0.031516299 2:1.73153 3:0 4:0.30000001 5:1.8 6:-0.0099563897 7:0.61937499 8:1.8537101 9:0.0040949802 10:0.769943 11:1.85717 12:-0.192736 13:0.498171 14:1.8294899 15:-0.236992 16:0.235239 17:1.81504 18:-0.22223599 19:0.018673999 20:1.69169 21:-0.20915601 22:-0.054187801 23:1.65355 24:0.177902 25:0.477406 26:1.83851 27:0.223479 28:0.213027 29:1.81867 30:0.25059801 31:0.0148703 32:1.71279 33:0.23384599 34:-0.063619196 35:1.66471 36:-0.075538203 37:-0.028496601 38:1.68683 39:-0.083667703 40:-0.40885699 41:1.6321599 42:-0.077192098 43:-0.765661 44:1.60427 45:-0.071731299 46:-0.76976103 47:1.47948 48:0.0939698 49:-0.029963801 50:1.6939501 51:0.088536397 52:-0.41951299 53:1.63761 54:0.076212697 55:-0.77508599 56:1.61568 57:0.079129301 58:-0.77912903 59:1.49096 60:-0.0074999598 61:0.54110199 62:1.8428299 63:-0.21333 64:-0.113155 65:1.6368901 66:-0.164663 67:-0.042343799 68:1.62291 69:0.238644 70:-0.146203 71:1.63959 72:0.27838799 73:-0.073323697 74:1.65755 
-10 0 0 0 0 0 0 0:0.0101419 1:-0.031563301 2:1.7316099 3:0 4:0.30000001 5:1.8 6:-0.0099360896 7:0.61945301 8:1.8536 9:0.0040679201 10:0.76995701 11:1.85715 12:-0.192763 13:0.49806201 14:1.82946 15:-0.23708101 16:0.235231 17:1.81517 18:-0.22227199 19:0.0191331 20:1.69212 21:-0.20915 22:-0.053616501 23:1.65273 24:0.178013 25:0.47733599 26:1.83851 27:0.22370601 28:0.21245299 29:1.81838 30:0.25106999 31:0.0139774 32:1.71322 33:0.233302 34:-0.062479701 35:1.66386 36:-0.075557798 37:-0.02854 38:1.68694 39:-0.083219998 40:-0.40902099 41:1.63184 42:-0.077377997 43:-0.76585901 44:1.6045001 45:-0.071914703 46:-0.76996601 47:1.47972 48:0.093945801 49:-0.0300173 50:1.69401 51:0.088581704 52:-0.41947201 53:1.63766 54:0.076033697 55:-0.77459502 56:1.6160001 57:0.0789527 58:-0.77865702 59:1.49128 60:-0.0074820402 61:0.54115897 62:1.84275 63:-0.2122 64:-0.116052 65:1.6372 66:-0.163772 67:-0.0434158 68:1.62176 69:0.236293 70:-0.154137 71:1.63401 72:0.27043301 73:-0.077633202 74:1.6423301 
-10 10 0 9.39909007536766 0 0 10 0:0.010115 1:-0.0316009 2:1.7316 3:0 4:0.30000001 5:1.8 6:-0.0099121695 7:0.61947799 8:1.85361 9:0.0041574198 10:0.76995897 11:1.85706 12:-0.19287699 13:0.49801099 14:1.82937 15:-0.23701499 16:0.23527101 17:1.81514 18:-0.222251 19:0.019614801 20:1.69223 21:-0.209134 22:-0.053499501 23:1.651 24:0.17830899 25:0.47722501 26:1.83841 27:0.223619 28:0.212621 29:1.81838 30:0.25063199 31:0.0146895 32:1.71193 33:0.234378 34:-0.059869699 35:1.66368 36:-0.075584203 37:-0.028639801 38:1.68694 39:-0.083246998 40:-0.40902701 41:1.63191 42:-0.077386498 43:-0.76564401 44:1.60466 45:-0.071924299 46:-0.76975501 47:1.47987 48:0.093919598 49:-0.030014001 50:1.69398 51:0.088602901 52:-0.419471 53:1.63773 54:0.075876899 55:-0.77461398 56:1.6159101 57:0.078797199 58:-0.77867401 59:1.4912 60:-0.0074638398 61:0.54117799 62:1.84276 63:-0.211399 64:-0.115191 65:1.63296 66:-0.16426501 67:-0.041315299 68:1.6213599 69:0.238267 70:-0.148029 71:1.63764 72:0.278696 73:-0.072445199 74:1.65707 
-10 0 10 0 0 0 0 0:0.0100789 1:-0.0316028 2:1.73167 3:0 4:0.30000001 5:1.8 6:-0.0098851202 7:0.61947101 8:1.85358 9:0.0040934002 10:0.76993603 11:1.85721 12:-0.192918 13:0.49812701 14:1.82939 15:-0.237148 16:0.235294 17:1.81543 18:-0.221918 19:-0.0031171001 20:1.67861 21:-0.207831 22:-0.0525125 23:1.65029 24:0.178339 25:0.47726899 26:1.83849 27:0.223584 28:0.212694 29:1.8185 30:0.25064799 31:0.0148024 32:1.7119499 33:0.233263 34:-0.060605198 35:1.66268 36:-0.075624697 37:-0.028655199 38:1.68705 39:-0.083192103 40:-0.408903 41:1.6319799 42:-0.077356301 43:-0.76548201 44:1.60478 45:-0.071881503 46:-0.76959902 47:1.48 48:0.093883701 49:-0.029999901 50:1.69402 51:0.089759298 52:-0.41834399 53:1.6387399 54:0.075921103 55:-0.77487701 56:1.6159 57:0.0788536 58:-0.77893603 59:1.49119 60:-0.0074410802 61:0.54117399 62:1.84273 63:-0.210361 64:-0.11724 65:1.63605 66:-0.163908 67:-0.038307499 68:1.62256 69:0.236312 70:-0.145 71:1.63414 72:0.27271599 73:-0.074990898 74:1.64481 
-10 10 6.185005168523787 0 9.246569438489088 9.174379874698078 5.749769054530879 0:0.0100828 1:-0.031632401 2:1.73166 3:0 4:0.30000001 5:1.8 6:-0.00989429 7:0.61953199 8:1.8536201 9:0.0041121002 10:0.76991802 11:1.85719 12:-0.192937 13:0.49808899 14:1.82937 15:-0.237058 16:0.235269 17:1.8154401 18:-0.223388 19:0.0156956 20:1.6907901 21:-0.208499 22:-0.052347202 23:1.65386 24:0.17849199 25:0.477202 26:1.8385 27:0.223554 28:0.212706 29:1.81853 30:0.25081301 31:0.0148682 32:1.71189 33:0.233051 34:-0.060365699 35:1.66539 36:-0.075616203 37:-0.028697601 38:1.68705 39:-0.0831668 40:-0.40896699 41:1.63199 42:-0.0774111 43:-0.76551801 44:1.60482 45:-0.071929 46:-0.76963401 47:1.48004 48:0.093890399 49:-0.0300122 50:1.694 51:0.089746498 52:-0.418396 53:1.63872 54:0.075863197 55:-0.77486098 56:1.61599 57:0.078803301 58:-0.77892101 59:1.4912699 60:-0.0074455598 61:0.54121703 62:1.84276 63:-0.21457399 64:-0.113787 65:1.63837 66:-0.16435599 67:-0.039124101 68:1.6246001 69:0.239684 70:-0.142111 71:1.64086 72:0.27274701 73:-0.074026302 74:1.64815 
-0 -0 0 7.263545087272981 6.623647661381477 6.889189650867901 0 0:0.0131155 1:-0.033173699 2:1.72893 3:0 4:0.30000001 5:1.8 6:-0.0126347 7:0.62029099 8:1.85649 9:0.0087002898 10:0.77031797 11:1.85347 12:-0.186471 13:0.495601 14:1.81161 15:-0.241575 16:0.234887 17:1.79735 18:-0.23591501 19:0.0349967 20:1.68104 21:-0.213596 22:-0.041738499 23:1.63998 24:0.173565 25:0.47686699 26:1.8506401 27:0.21924201 28:0.204016 29:1.85436 30:0.459811 31:0.114261 32:1.69531 33:0.50540602 34:0.108442 35:1.6809 36:-0.071604103 37:-0.0290123 38:1.68102 39:-0.073192798 40:-0.403999 41:1.63581 42:-0.070005096 43:-0.78333998 44:1.62148 45:-0.0581064 46:-0.78612697 47:1.50029 48:0.096635401 49:-0.033087298 50:1.69443 51:0.101468 52:-0.42074099 53:1.64574 54:0.082006603 55:-0.76960498 56:1.63247 57:0.091306299 58:-0.77266902 59:1.5111901 60:-0.0095191495 61:0.54187202 62:1.8449 63:-0.219412 64:-0.103161 65:1.61001 66:-0.19351199 67:-0.0264169 68:1.59865 69:0.57988298 70:0.074168801 71:1.6304801 72:0.47893801 73:0.070574902 74:1.6744601 
-7.15575848497969 -2.333864361588561 0 0 0.1940598110334758 0 1.022772254509573 0:0.0131565 1:-0.033225801 2:1.7290601 3:0 4:0.30000001 5:1.8 6:-0.012687 7:0.62041003 8:1.85632 9:0.0087192897 10:0.77035099 11:1.85376 12:-0.186371 13:0.49547601 14:1.81139 15:-0.241807 16:0.23337699 17:1.7973599 18:-0.23627 19:0.033665001 20:1.68117 21:-0.21552201 22:-0.042946201 23:1.64053 24:0.173813 25:0.476803 26:1.8511 27:0.21912301 28:0.203659 29:1.85484 30:0.459665 31:0.114474 32:1.69539 33:0.505463 34:0.107487 35:1.68085 36:-0.071511202 37:-0.0290407 38:1.68118 39:-0.073540598 40:-0.40413201 41:1.6358 42:-0.070572697 43:-0.78313601 44:1.62218 45:-0.058536202 46:-0.78594297 47:1.501 48:0.096635401 49:-0.033161499 50:1.69454 51:0.101479 52:-0.42098701 53:1.64652 54:0.082705103 55:-0.77301401 56:1.63228 57:0.092121698 58:-0.77604002 59:1.51105 60:-0.0095444703 61:0.54195499 62:1.84478 63:-0.219612 64:-0.105802 65:1.61124 66:-0.19474 67:-0.023689499 68:1.59936 69:0.57633603 70:0.073008902 71:1.6343 72:0.48019099 73:0.069518298 74:1.67285 
-0.02627085995750855 -4.046910059834218 0 0 0 0 0 0:0.0132044 1:-0.033245899 2:1.72912 3:0 4:0.30000001 5:1.8 6:-0.0127286 7:0.62043601 8:1.85629 9:0.0086800205 10:0.77022702 11:1.85369 12:-0.186415 13:0.49541301 14:1.81134 15:-0.24174599 16:0.237096 17:1.79969 18:-0.236526 19:0.0341179 20:1.68147 21:-0.216107 22:-0.043335401 23:1.64213 24:0.17367201 25:0.47678599 26:1.8515 27:0.21908601 28:0.20388 29:1.85558 30:0.45995399 31:0.114221 32:1.6955 33:0.50520402 34:0.106425 35:1.68454 36:-0.071470499 37:-0.0290905 38:1.68116 39:-0.073624499 40:-0.404082 41:1.63607 42:-0.070611097 43:-0.78314501 44:1.62257 45:-0.058480602 46:-0.78595901 47:1.5014 48:0.096681498 49:-0.033150598 50:1.6947401 51:0.10179 52:-0.41847801 53:1.6467 54:0.082474403 55:-0.77258497 56:1.63248 57:0.091988601 58:-0.77562302 59:1.51125 60:-0.0095762797 61:0.54197299 62:1.8447599 63:-0.21861701 64:-0.105859 65:1.60964 66:-0.170564 67:-0.028734099 68:1.6384799 69:0.57606202 70:0.074724302 71:1.64115 72:0.479435 73:0.069375299 74:1.67413 
-10 -10 0 0 0 0 0 0:0.0132026 1:-0.033264901 2:1.72912 3:0 4:0.30000001 5:1.8 6:-0.0127295 7:0.62044799 8:1.8563 9:0.0087085003 10:0.77021199 11:1.85367 12:-0.18636499 13:0.49542901 14:1.81134 15:-0.241823 16:0.236275 17:1.7991199 18:-0.235384 19:0.028226901 20:1.6765701 21:-0.215955 22:-0.046162698 23:1.63835 24:0.17340299 25:0.476316 26:1.85113 27:0.219072 28:0.203916 29:1.85561 30:0.45999601 31:0.114212 32:1.69552 33:0.50497001 34:0.107713 35:1.6811 36:-0.071483202 37:-0.029097199 38:1.68116 39:-0.0735953 40:-0.40404201 41:1.63608 42:-0.071053103 43:-0.78334099 44:1.62244 45:-0.058952399 46:-0.78615099 47:1.50126 48:0.096692003 49:-0.033191301 50:1.6947401 51:0.101895 52:-0.42037001 53:1.64651 54:0.082460798 55:-0.77126598 56:1.63257 57:0.091937497 58:-0.77432501 59:1.51133 60:-0.0095772399 61:0.54198301 62:1.8447599 63:-0.221168 64:-0.105426 65:1.60783 66:-0.168979 67:-0.033609699 68:1.62959 69:0.57734299 70:0.0745994 71:1.63934 72:0.46443099 73:0.074079797 74:1.67384 
-10 -10 0 0 0 0 0 0:0.0132256 1:-0.0332991 2:1.72914 3:0 4:0.30000001 5:1.8 6:-0.0127459 7:0.62046897 8:1.85625 9:0.0086452197 10:0.77023298 11:1.85391 12:-0.186398 13:0.495529 14:1.81133 15:-0.241743 16:0.235801 17:1.7991199 18:-0.23597801 19:0.031601999 20:1.67788 21:-0.215 22:-0.044200599 23:1.6376899 24:0.173242 25:0.47627801 26:1.8509901 27:0.218824 28:0.203894 29:1.85552 30:0.46031499 31:0.114085 32:1.69563 33:0.50461698 34:0.107329 35:1.6817 36:-0.071432702 37:-0.029072599 38:1.68118 39:-0.073592097 40:-0.40409601 41:1.63614 42:-0.0720485 43:-0.78206098 44:1.6232899 45:-0.059949499 46:-0.78489602 47:1.5021 48:0.096717797 49:-0.033295602 50:1.69477 51:0.101906 52:-0.421399 53:1.64571 54:0.083256103 55:-0.77102 56:1.63192 57:0.092700198 58:-0.77407998 59:1.51068 60:-0.0095911603 61:0.54200101 62:1.84473 63:-0.221435 64:-0.107636 65:1.61067 66:-0.16853601 67:-0.037698101 68:1.62656 69:0.57480597 70:0.074050203 71:1.63376 72:0.47471601 73:0.071591698 74:1.67509 
-0 -0 0 10 0 0 10 0:0.0132338 1:-0.033304501 2:1.72913 3:0 4:0.30000001 5:1.8 6:-0.0127892 7:0.62045199 8:1.8563 9:0.0086560603 10:0.770239 11:1.8540699 12:-0.186353 13:0.49553099 14:1.81136 15:-0.241694 16:0.235071 17:1.7986701 18:-0.236526 19:0.0335523 20:1.6789 21:-0.215331 22:-0.043729 23:1.6419899 24:0.173206 25:0.47625801 26:1.85097 27:0.218814 28:0.20392101 29:1.85546 30:0.46040699 31:0.114007 32:1.69573 33:0.50494301 34:0.107098 35:1.6842099 36:-0.071434297 37:-0.029042199 38:1.6811301 39:-0.0734355 40:-0.40422499 41:1.6359 42:-0.070641801 43:-0.78406 44:1.62187 45:-0.058571499 46:-0.78685498 47:1.5007 48:0.096723497 49:-0.033312399 50:1.69486 51:0.102017 52:-0.42168301 53:1.64571 54:0.082650498 55:-0.77150899 56:1.6320699 57:0.092100203 58:-0.77455997 59:1.51083 60:-0.00962089 61:0.54199302 62:1.8447599 63:-0.221405 64:-0.101464 65:1.60886 66:-0.196693 67:-0.024103301 68:1.6008199 69:0.57650399 70:0.077465497 71:1.64262 72:0.47899899 73:0.068965897 74:1.6804 
-0 -0 9.283916404325758 0 0 0 0 0:0.0102833 1:-0.034679301 2:1.72804 3:0 4:0.30000001 5:1.8 6:-0.0102375 7:0.62180901 8:1.85772 9:0.0103566 10:0.77027202 11:1.85515 12:-0.18639 13:0.49371099 14:1.8098201 15:-0.236871 16:0.236389 17:1.79636 18:-0.227327 19:-0.0141704 20:1.66309 21:-0.215005 22:-0.065024696 23:1.64466 24:0.174099 25:0.47565699 26:1.84937 27:0.242779 28:0.22993501 29:1.84805 30:0.447198 31:0.128253 32:1.70553 33:0.499778 34:0.13034099 35:1.69497 36:-0.074409299 37:-0.0300886 38:1.67907 39:-0.074207 40:-0.40571001 41:1.63504 42:-0.072345197 43:-0.78728598 44:1.62102 45:-0.0604252 46:-0.78998703 47:1.4998699 48:0.093732797 49:-0.035051599 50:1.69463 51:0.101873 52:-0.407915 53:1.64484 54:0.079511598 55:-0.77366602 56:1.63325 57:0.088833503 58:-0.77665102 59:1.51202 60:-0.0076560699 61:0.54303402 62:1.84579 63:-0.219228 64:-0.131868 65:1.62621 66:-0.167924 67:-0.051877402 68:1.63001 69:0.57597899 70:0.1062 71:1.6541899 72:0.46020401 73:0.093523398 74:1.6766 
-0 -0 -0 2.092026307044325 0 0 7.628992615414852 0:0.00259403 1:-0.0324746 2:1.72479 3:0 4:0.30000001 5:1.8 6:-0.0026068101 7:0.61965603 8:1.86092 9:0.014875 10:0.77218503 11:1.86203 12:-0.181805 13:0.49457699 14:1.82748 15:-0.238925 16:0.227495 17:1.82675 18:-0.241575 19:0.021756999 20:1.72992 21:-0.219853 22:-0.0483566 23:1.6890399 24:0.182338 25:0.47558901 26:1.81082 27:0.27964199 28:0.258508 29:1.68314 30:0.102994 31:0.2245 32:1.53931 33:-0.0090825399 34:0.194711 35:1.4956 36:-0.081074797 37:-0.0285326 38:1.68548 39:-0.082387701 40:-0.40837401 41:1.63069 42:-0.072545297 43:-0.76845902 44:1.61013 45:-0.072581798 46:-0.77145803 47:1.48735 48:0.084685303 49:-0.0325143 50:1.68206 51:0.100221 52:-0.40994701 53:1.62659 54:0.080518097 55:-0.76668203 56:1.60704 57:0.077823497 58:-0.76970798 59:1.48429 60:-0.00194734 61:0.54136801 62:1.84822 63:-0.217361 64:-0.112132 65:1.65249 66:-0.18231601 67:0.00156406 68:1.6672601 69:-0.075107798 70:0.17605799 71:1.47829 72:-0.0057921 73:0.141554 74:1.56714 
-8.894804271638071 -7.088207564817463 -0 0 0 0 0 0:0.00260259 1:-0.0324849 2:1.72478 3:0 4:0.30000001 5:1.8 6:-0.0026193601 7:0.61966002 8:1.86092 9:0.014883 10:0.77216798 11:1.86198 12:-0.181784 13:0.494587 14:1.82771 15:-0.23878101 16:0.227523 17:1.82689 18:-0.241863 19:0.021229301 20:1.73142 21:-0.220182 22:-0.049869802 23:1.69103 24:0.182335 25:0.47556999 26:1.81078 27:0.27965301 28:0.25845101 29:1.6830699 30:0.102944 31:0.224424 32:1.53932 33:-0.0086292904 34:0.196338 35:1.4969 36:-0.081064999 37:-0.028519999 38:1.68545 39:-0.082353704 40:-0.408337 41:1.63074 42:-0.071386904 43:-0.768233 44:1.6103899 45:-0.071498103 46:-0.77124 47:1.48759 48:0.084693901 49:-0.032549199 50:1.68208 51:0.101067 52:-0.405027 53:1.62664 54:0.080583297 55:-0.76674902 56:1.60718 57:0.077833198 58:-0.76977801 59:1.48444 60:-0.001956 61:0.54137301 62:1.84822 63:-0.222968 64:-0.10933 65:1.66387 66:-0.17428701 67:-0.048446201 68:1.66426 69:-0.074004002 70:0.177522 71:1.47787 72:-0.0056586899 73:0.143216 74:1.5678101 
-0 -0 -0 0 10 10 0 0:0.0026183201 1:-0.032488301 2:1.72482 3:0 4:0.30000001 5:1.8 6:-0.00265938 7:0.61966199 8:1.86084 9:0.0149248 10:0.77216703 11:1.86207 12:-0.18182699 13:0.494645 14:1.8278199 15:-0.238695 16:0.227575 17:1.82687 18:-0.241832 19:0.021265799 20:1.7314399 21:-0.219586 22:-0.047305599 23:1.6883399 24:0.182166 25:0.475256 26:1.81072 27:0.277825 28:0.258104 29:1.68088 30:0.064825803 31:0.219607 32:1.51728 33:-0.00963456 34:0.195847 35:1.49314 36:-0.081046298 37:-0.028519699 38:1.68545 39:-0.082323 40:-0.408402 41:1.63089 42:-0.072080903 43:-0.76906002 44:1.61009 45:-0.072191998 46:-0.77205801 47:1.4873 48:0.084706403 49:-0.032562599 50:1.68213 51:0.099028498 52:-0.41416901 53:1.6267101 54:0.080733597 55:-0.76690799 56:1.60729 57:0.077969 58:-0.76994002 59:1.48454 60:-0.0019830901 61:0.54137599 62:1.84816 63:-0.21299 64:-0.109955 65:1.64759 66:-0.18203101 67:0.0086080702 68:1.66976 69:-0.073859803 70:0.177661 71:1.4770499 72:-0.0075773802 73:0.140838 74:1.56604 
-7.489953857608456 -4.866555237938484 -0 0 0 0 0 0:0.0026976599 1:-0.032389101 2:1.72491 3:0 4:0.30000001 5:1.8 6:-0.0027779799 7:0.619578 8:1.8608 9:0.0148526 10:0.77218598 11:1.86265 12:-0.181796 13:0.49457601 14:1.8281699 15:-0.23871399 16:0.227329 17:1.82678 18:-0.241308 19:0.021345099 20:1.73051 21:-0.220018 22:-0.049691498 23:1.68803 24:0.18246999 25:0.47589299 26:1.81078 27:0.27712101 28:0.258387 29:1.68199 30:0.102839 31:0.220176 32:1.5362099 33:-0.0101398 34:0.195052 35:1.49668 36:-0.080915898 37:-0.0284173 38:1.68546 39:-0.082309797 40:-0.408315 41:1.63088 42:-0.073637098 43:-0.76875401 44:1.6105 45:-0.073830001 46:-0.77177101 47:1.48769 48:0.084774703 49:-0.032416798 50:1.68231 51:0.10386 52:-0.39804101 53:1.6275001 54:0.080822296 55:-0.76772898 56:1.60711 57:0.077947803 58:-0.77075899 59:1.48435 60:-0.0020609801 61:0.54132497 62:1.84812 63:-0.218336 64:-0.111721 65:1.6562099 66:-0.181677 67:0.00043825799 68:1.66826 69:-0.075253598 70:0.177007 71:1.47816 72:-0.0060341102 73:0.13887601 74:1.56726 
-0 -4.230242365767841 -0 0 0 0 0 0:0.00267865 1:-0.0323736 2:1.72495 3:0 4:0.30000001 5:1.8 6:-0.0027419501 7:0.61954498 8:1.86072 9:0.0148322 10:0.77221799 11:1.8627 12:-0.181777 13:0.4946 14:1.8282 15:-0.23863199 16:0.226896 17:1.8267 18:-0.24133401 19:0.0209345 20:1.73039 21:-0.22028001 22:-0.048870102 23:1.6883301 24:0.18242501 25:0.47579801 26:1.81077 27:0.27711201 28:0.25838599 29:1.6821001 30:0.10283 31:0.22048201 32:1.53623 33:-0.0092786998 34:0.19548801 35:1.4955601 36:-0.080935404 37:-0.0284095 38:1.6855 39:-0.082339503 40:-0.408299 41:1.63094 42:-0.073195301 43:-0.76898402 44:1.61001 45:-0.073397599 46:-0.77199799 47:1.4872 48:0.084755898 49:-0.0323953 50:1.68233 51:0.101681 52:-0.40986401 53:1.62806 54:0.080869302 55:-0.767775 56:1.6069601 57:0.077992 58:-0.77080703 59:1.4842 60:-0.00203552 61:0.54130203 62:1.84806 63:-0.221178 64:-0.112028 65:1.65558 66:-0.182155 67:-0.00170502 68:1.6651 69:-0.075488001 70:0.177935 71:1.47807 72:-0.00552508 73:0.13873 74:1.5672801 
-0 -0 -0 0 9.198493669052104 9.213966215961108 0 0:0.0028290099 1:-0.0323883 2:1.7250201 3:0 4:0.30000001 5:1.8 6:-0.00283581 7:0.61949998 8:1.8607 9:0.0147493 10:0.77229899 11:1.86306 12:-0.18186501 13:0.49449801 14:1.8282 15:-0.23869801 16:0.226512 17:1.82669 18:-0.241961 19:0.0204919 20:1.73052 21:-0.22033 22:-0.049650099 23:1.6861 24:0.18234999 25:0.47578901 26:1.81067 27:0.27647701 28:0.25828099 29:1.6815 30:0.101245 31:0.222903 32:1.53617 33:-0.0102861 34:0.19589999 35:1.49778 36:-0.080790199 37:-0.028518399 38:1.68563 39:-0.082149804 40:-0.40903899 41:1.63076 42:-0.073670603 43:-0.77009898 44:1.60913 45:-0.073895603 46:-0.77309799 47:1.48632 48:0.084931001 49:-0.032306701 50:1.6823699 51:0.100935 52:-0.411044 53:1.62626 54:0.080781102 55:-0.76802099 56:1.60658 57:0.077873997 58:-0.77105403 59:1.4838099 60:-0.00210582 61:0.54127198 62:1.84805 63:-0.21614701 64:-0.108858 65:1.65345 66:-0.182686 67:-0.00098520506 68:1.66436 69:-0.075965598 70:0.179472 71:1.47896 72:-0.0073017101 73:0.13847999 74:1.5659699 
-0 -0 -9.283916404325758 4.00830304343553 0 0 0 0:0.0047544101 1:-0.033645801 2:1.7316099 3:0 4:0.30000001 5:1.8 6:-0.0051405202 7:0.62022698 8:1.85379 9:0.0168573 10:0.77225 11:1.8513 12:-0.181357 13:0.49099201 14:1.81599 15:-0.23728099 16:0.22790501 17:1.81212 18:-0.224289 19:0.0115378 20:1.71699 21:-0.212525 22:-0.059771199 23:1.69348 24:0.183661 25:0.47326201 26:1.8199 27:0.29144299 28:0.261446 29:1.70108 30:0.119398 31:0.25234401 32:1.54313 33:0.0162114 34:0.25346199 35:1.4883699 36:-0.078910202 37:-0.029244799 38:1.6895601 39:-0.074875697 40:-0.40514201 41:1.63911 42:-0.066057697 43:-0.78158897 44:1.6406699 45:-0.062042501 46:-0.78492498 47:1.5179 48:0.086762801 49:-0.034249801 50:1.6913199 51:0.107665 52:-0.39298299 53:1.6427799 54:0.083604798 55:-0.77436799 56:1.6401401 57:0.085013397 58:-0.77783 59:1.51737 60:-0.0038151401 61:0.54188102 62:1.84288 63:-0.21055301 64:-0.129636 65:1.67011 66:-0.164511 67:-0.031823799 68:1.66522 69:-0.048558701 70:0.23833901 71:1.47726 72:0.0113775 73:0.207802 74:1.58761 
-9.367458159675103 -9.39909007536766 -10 -6.100329350479854 0 0 0 0:0.0108371 1:-0.034668799 2:1.7235399 3:0 4:0.30000001 5:1.8 6:-0.0113096 7:0.62161201 8:1.86222 9:0.0113452 10:0.77205098 11:1.8610899 12:-0.175027 13:0.49815199 14:1.81803 15:-0.223802 16:0.22197901 17:1.7942801 18:-0.247246 19:0.27563801 20:1.56031 21:-0.27129599 22:0.30807301 23:1.48132 24:0.180814 25:0.47747701 26:1.8539 27:0.20684101 28:0.199431 29:1.86382 30:0.4364 31:0.157625 32:1.68892 33:0.49930599 34:0.15832099 35:1.6610301 36:-0.074459501 37:-0.028710499 38:1.67361 39:-0.062677898 40:-0.41644999 41:1.6263 42:-0.069014102 43:-0.77279001 44:1.59965 45:-0.0581026 46:-0.77530801 47:1.47744 48:0.093156099 49:-0.036850899 50:1.69126 51:0.086757198 52:-0.42490199 53:1.62725 54:0.063917898 55:-0.77129501 56:1.60118 57:0.0724786 58:-0.77386898 59:1.47902 60:-0.0084447404 61:0.54289502 62:1.84916 63:-0.29503801 64:0.30298701 65:1.37582 66:-0.274739 67:0.26597601 68:1.47039 69:0.576051 70:0.14635 71:1.62573 72:0.481819 73:0.206847 74:1.62596 
-0 -0 -7.263545087272981 -0 0 0 0 0:0.0110094 1:-0.034725402 2:1.72349 3:0 4:0.30000001 5:1.8 6:-0.011428 7:0.62151998 8:1.86221 9:0.0112976 10:0.77217901 11:1.86113 12:-0.174594 13:0.498059 14:1.81796 15:-0.224601 16:0.22347499 17:1.7930599 18:-0.25102901 19:0.27228901 20:1.55946 21:-0.273505 22:0.31013 23:1.48063 24:0.18099099 25:0.47783801 26:1.8541501 27:0.20676 28:0.19822399 29:1.86331 30:0.43663201 31:0.15799899 32:1.68837 33:0.50076503 34:0.15869699 35:1.664 36:-0.074286997 37:-0.028680701 38:1.67354 39:-0.062692903 40:-0.41571701 41:1.62638 42:-0.069561899 43:-0.77233702 44:1.59984 45:-0.058594499 46:-0.77485698 47:1.4776599 48:0.0933659 49:-0.036964901 50:1.6912 51:0.087209702 52:-0.425282 53:1.62773 54:0.063439198 55:-0.77138799 56:1.60103 57:0.072054401 58:-0.77395397 59:1.4788899 60:-0.0085376604 61:0.54284602 62:1.84917 63:-0.29764199 64:0.30591199 65:1.37631 66:-0.27545699 67:0.26599899 68:1.47286 69:0.57677799 70:0.145293 71:1.62793 72:0.48272601 73:0.206926 74:1.6266299 
-0 -0 -0 -0 0 0 10 0:0.0114075 1:-0.034787301 2:1.725 3:0 4:0.30000001 5:1.8 6:-0.0112234 7:0.62140799 8:1.8602901 9:0.0109445 10:0.77262002 11:1.85796 12:-0.175589 13:0.49712601 14:1.81563 15:-0.21779799 16:0.21965399 17:1.79035 18:-0.25081801 19:0.27715001 20:1.53716 21:-0.284998 22:0.31799901 23:1.47417 24:0.179956 25:0.47686699 26:1.8526 27:0.233613 28:0.234134 29:1.8535 30:0.42319801 31:0.157433 32:1.68672 33:0.483132 34:0.16087399 35:1.66321 36:-0.073961899 37:-0.0288254 38:1.6746401 39:-0.063723996 40:-0.414419 41:1.63342 42:-0.067266203 43:-0.77862602 44:1.61234 45:-0.056225799 46:-0.78112602 47:1.49043 48:0.093889102 49:-0.036827099 50:1.69271 51:0.085920699 52:-0.43529201 53:1.6333801 54:0.069729097 55:-0.77091902 56:1.61621 57:0.078344703 58:-0.77358699 59:1.49431 60:-0.0084153302 61:0.54277003 62:1.8477401 63:-0.32805601 64:0.33583599 65:1.37966 66:-0.27883199 67:0.36700201 68:1.45716 69:0.56345999 70:0.149234 71:1.6348799 72:0.466414 73:0.21072 74:1.62687 
-0 -0 -0 -0 0 0 10 0:0.0113375 1:-0.034823298 2:1.72501 3:0 4:0.30000001 5:1.8 6:-0.011188 7:0.62146598 8:1.86034 9:0.0110146 10:0.77297503 11:1.85763 12:-0.175428 13:0.49652201 14:1.81507 15:-0.218978 16:0.219552 17:1.78863 18:-0.25116101 19:0.276959 20:1.53775 21:-0.285965 22:0.31871799 23:1.4727 24:0.180206 25:0.47661701 26:1.85244 27:0.233824 28:0.23416901 29:1.85294 30:0.423199 31:0.157235 32:1.68654 33:0.48211899 34:0.160759 35:1.66392 36:-0.073976502 37:-0.028835 38:1.67462 39:-0.063602597 40:-0.41479999 41:1.63368 42:-0.068991899 43:-0.77672702 44:1.61432 45:-0.057864401 46:-0.77926898 47:1.4924001 48:0.093762398 49:-0.036897998 50:1.69279 51:0.086631201 52:-0.42844301 53:1.63368 54:0.068838298 55:-0.77091801 56:1.6167001 57:0.077525899 58:-0.77359003 59:1.4948 60:-0.0083857002 61:0.542813 62:1.84777 63:-0.328715 64:0.33596101 65:1.3821599 66:-0.28017199 67:0.36912301 68:1.45706 69:0.56047499 70:0.15218 71:1.631 72:0.46804699 73:0.209535 74:1.62906 
-0 -0 -0 -0 0.02426652067171124 0.4821774863697486 0 0:0.0113118 1:-0.034828302 2:1.7250299 3:0 4:0.30000001 5:1.8 6:-0.0111669 7:0.62146801 8:1.86034 9:0.0109902 10:0.77304399 11:1.85773 12:-0.1754 13:0.496409 14:1.81455 15:-0.218779 16:0.219245 17:1.7899801 18:-0.25121 19:0.27703699 20:1.53784 21:-0.28519601 22:0.318423 23:1.47449 24:0.180153 25:0.476648 26:1.85253 27:0.23375601 28:0.234156 29:1.85294 30:0.42315301 31:0.15725499 32:1.68663 33:0.48236099 34:0.16046099 35:1.66403 36:-0.07401 37:-0.0288497 38:1.67466 39:-0.063660398 40:-0.41467601 41:1.63358 42:-0.069120303 43:-0.77663201 44:1.61428 45:-0.057868499 46:-0.77917498 47:1.49237 48:0.093739502 49:-0.036891799 50:1.69282 51:0.086519301 52:-0.42899299 53:1.6336401 54:0.0687925 55:-0.77086699 56:1.61678 57:0.077602901 58:-0.77354002 59:1.49489 60:-0.0083694598 61:0.54281503 62:1.84777 63:-0.326965 64:0.33537 65:1.38529 66:-0.278705 67:0.367589 68:1.45858 69:0.56251901 70:0.153538 71:1.6343499 72:0.464517 73:0.21036901 74:1.62595 
-0 -0 -0 -0 10 10 0 0:0.0113335 1:-0.034788098 2:1.72523 3:0 4:0.30000001 5:1.8 6:-0.0112164 7:0.621387 8:1.86013 9:0.0109647 10:0.77318299 11:1.8579 12:-0.175484 13:0.49633399 14:1.8148299 15:-0.218494 16:0.218604 17:1.79162 18:-0.251313 19:0.27698201 20:1.53818 21:-0.28543201 22:0.31792501 23:1.47199 24:0.18010899 25:0.47657901 26:1.85268 27:0.233634 28:0.234355 29:1.85324 30:0.42319399 31:0.157277 32:1.68677 33:0.48142001 34:0.16097499 35:1.66293 36:-0.074004799 37:-0.0287915 38:1.67488 39:-0.063754201 40:-0.414722 41:1.63402 42:-0.068790503 43:-0.777022 44:1.61449 45:-0.0575784 46:-0.779571 47:1.4925801 48:0.093765996 49:-0.036881998 50:1.69303 51:0.086411104 52:-0.42959699 53:1.63375 54:0.068678901 55:-0.77080703 56:1.6170501 57:0.077457197 58:-0.77349299 59:1.49517 60:-0.0084040696 61:0.542759 62:1.84761 63:-0.33041701 64:0.33356699 65:1.3798701 66:-0.27768701 67:0.36569899 68:1.4561 69:0.56112802 70:0.15416101 71:1.63327 72:0.468117 73:0.209821 74:1.62895 
-0 -0 -0 -0 0 0 2.889645220693238 0:0.0112921 1:-0.034813602 2:1.72549 3:0 4:0.30000001 5:1.8 6:-0.0111373 7:0.62142497 8:1.85974 9:0.0111203 10:0.77330399 11:1.8579201 12:-0.175376 13:0.49634501 14:1.81513 15:-0.219383 16:0.220071 17:1.7867 18:-0.251385 19:0.27699301 20:1.5384901 21:-0.28588301 22:0.31777 23:1.47311 24:0.180242 25:0.47615999 26:1.85252 27:0.233687 28:0.234272 29:1.85347 30:0.42320901 31:0.157463 32:1.687 33:0.48276299 34:0.160888 35:1.66557 36:-0.074060299 37:-0.0288243 38:1.6751601 39:-0.063662902 40:-0.41470101 41:1.6342601 42:-0.068891302 43:-0.77673799 44:1.61479 45:-0.0577497 46:-0.77931499 47:1.49287 48:0.093745597 49:-0.036908802 50:1.69332 51:0.086351998 52:-0.431243 53:1.63399 54:0.0677239 55:-0.77003199 56:1.61703 57:0.076446101 58:-0.77275097 59:1.4951299 60:-0.0083473697 61:0.54278803 62:1.84733 63:-0.328464 64:0.33539799 65:1.38666 66:-0.27903199 67:0.36777401 68:1.45529 69:0.56301498 70:0.151022 71:1.63931 72:0.466279 73:0.210261 74:1.62594 
-0 -0 -0 -9.198493669052104 -0 10 0 0:0.00325552 1:-0.0314494 2:1.71928 3:0 4:0.30000001 5:1.8 6:-0.00370513 7:0.61723101 8:1.8666199 9:0.0149328 10:0.77139503 11:1.8690799 12:-0.172043 13:0.49373901 14:1.82816 15:-0.20146599 16:0.22383 17:1.79447 18:-0.251037 19:0.210849 20:1.56505 21:-0.282554 22:0.233474 23:1.48287 24:0.18215799 25:0.468541 26:1.83126 27:0.268475 28:0.22720399 29:1.7179199 30:0.101328 31:0.22436 32:1.51793 33:0.0279234 34:0.22213 35:1.48331 36:-0.080612697 37:-0.026145799 38:1.67161 39:-0.090359002 40:-0.39675301 41:1.61651 42:-0.091223098 43:-0.78205502 44:1.60008 45:-0.0867185 46:-0.78374898 47:1.4776599 48:0.083722301 49:-0.033861399 50:1.68459 51:0.110998 52:-0.405532 53:1.63815 54:0.075845301 55:-0.77638602 56:1.62857 57:0.100242 58:-0.838727 59:1.57017 60:-0.0027570501 61:0.53972 62:1.85243 63:-0.32028499 64:0.217401 65:1.38455 66:-0.27197301 67:0.282673 68:1.4581 69:-0.0367052 70:0.202306 71:1.45724 72:0.00104857 73:0.17372 74:1.55752 
-0 -0 -0 -0 -0 10 0 0:0.0032695199 1:-0.031442199 2:1.71928 3:0 4:0.30000001 5:1.8 6:-0.00371268 7:0.61722302 8:1.8666101 9:0.0148294 10:0.77144802 11:1.86912 12:-0.17205399 13:0.49371099 14:1.8282 15:-0.201544 16:0.22387099 17:1.79443 18:-0.251104 19:0.21129601 20:1.5651799 21:-0.282258 22:0.233455 23:1.48356 24:0.182073 25:0.46861401 26:1.83122 27:0.26840401 28:0.227302 29:1.71876 30:0.103092 31:0.22485401 32:1.51923 33:0.028662801 34:0.222408 35:1.48255 36:-0.080614999 37:-0.026164999 38:1.6716501 39:-0.090429597 40:-0.39783099 41:1.61694 42:-0.091441698 43:-0.782547 44:1.60058 45:-0.086957604 46:-0.78423703 47:1.47816 48:0.083779097 49:-0.0337727 50:1.6844701 51:0.110967 52:-0.40555701 53:1.6381299 54:0.075533301 55:-0.77624601 56:1.62852 57:0.100244 58:-0.83874899 59:1.57021 60:-0.00276137 61:0.53971398 62:1.85242 63:-0.32021701 64:0.22108699 65:1.38415 66:-0.27146801 67:0.28187001 68:1.45925 69:-0.0372978 70:0.203067 71:1.45599 72:-0.013159 73:0.177119 74:1.53764 
-0 -0 -0 -10 -0 10 0 0:0.0032436999 1:-0.0314284 2:1.71929 3:0 4:0.30000001 5:1.8 6:-0.0036865999 7:0.61721301 8:1.86659 9:0.014807 10:0.77143902 11:1.86915 12:-0.172078 13:0.49377 14:1.82823 15:-0.20157699 16:0.22384501 17:1.79447 18:-0.251403 19:0.212008 20:1.56516 21:-0.28314599 22:0.233431 23:1.4822 24:0.182091 25:0.46857399 26:1.83121 27:0.272883 28:0.227759 29:1.72373 30:0.093787402 31:0.21971001 32:1.52633 33:0.027039999 34:0.221476 35:1.48508 36:-0.080645502 37:-0.026123101 38:1.6716599 39:-0.090283804 40:-0.39753699 41:1.61684 42:-0.091224797 43:-0.78363001 44:1.60024 45:-0.086745903 46:-0.78530103 47:1.4778301 48:0.083763503 49:-0.033783302 50:1.68448 51:0.110998 52:-0.40561 53:1.63815 54:0.075401597 55:-0.77633601 56:1.6285501 57:0.100818 58:-0.840042 59:1.5710599 60:-0.0027414099 61:0.53970701 62:1.85241 63:-0.323008 64:0.219056 65:1.38436 66:-0.270749 67:0.28021601 68:1.4606301 69:-0.036292199 70:0.20382001 71:1.45811 72:-0.0056289099 73:0.17099001 74:1.56349 
-0 -0 -0 -0 -0 10 0 0:0.0032261501 1:-0.031446401 2:1.71924 3:0 4:0.30000001 5:1.8 6:-0.0036716999 7:0.61721897 8:1.8666 9:0.0148224 10:0.771492 11:1.86912 12:-0.172095 13:0.49372801 14:1.82814 15:-0.201527 16:0.223646 17:1.79421 18:-0.25144401 19:0.21211199 20:1.56514 21:-0.282695 22:0.233833 23:1.48373 24:0.182055 25:0.46846399 26:1.8311501 27:0.27497 28:0.22817101 29:1.72579 30:0.092822701 31:0.219385 32:1.52689 33:0.027279099 34:0.220884 35:1.48391 36:-0.080662198 37:-0.0261363 38:1.67156 39:-0.090177096 40:-0.39605501 41:1.61659 42:-0.091416098 43:-0.783346 44:1.60032 45:-0.086922102 46:-0.78501999 47:1.47791 48:0.083751701 49:-0.033802502 50:1.68446 51:0.110993 52:-0.405615 53:1.63815 54:0.075071901 55:-0.776254 56:1.62815 57:0.100523 58:-0.83945101 59:1.57016 60:-0.00273251 61:0.539711 62:1.85242 63:-0.32041699 64:0.22342899 65:1.38385 66:-0.270284 67:0.28149399 68:1.4585 69:-0.0364796 70:0.203126 71:1.4590501 72:-0.0070005199 73:0.168984 74:1.56137 
-0 -0 -0 -0 -0 10 0 0:0.0032143299 1:-0.031475902 2:1.7192301 3:0 4:0.30000001 5:1.8 6:-0.0036422201 7:0.61727399 8:1.8666199 9:0.0148257 10:0.771447 11:1.8691 12:-0.172077 13:0.493691 14:1.82814 15:-0.20148499 16:0.22325499 17:1.7951 18:-0.25150999 19:0.213109 20:1.56487 21:-0.28371501 22:0.23355199 23:1.4825 24:0.18206701 25:0.468371 26:1.8311 27:0.27393001 28:0.22777499 29:1.72495 30:0.090976402 31:0.21865401 32:1.52827 33:0.0273067 34:0.221342 35:1.48531 36:-0.0806683 37:-0.026167599 38:1.67158 39:-0.090415999 40:-0.39452001 41:1.61638 42:-0.090366699 43:-0.78078401 44:1.60006 45:-0.085897997 46:-0.782498 47:1.47763 48:0.083726801 49:-0.0338232 50:1.6844 51:0.110996 52:-0.40568101 53:1.63814 54:0.074878402 55:-0.77628601 56:1.62804 57:0.100533 58:-0.83942401 59:1.57005 60:-0.0027109201 61:0.53975099 62:1.85243 63:-0.32211101 64:0.222725 65:1.38548 66:-0.27052999 67:0.28121099 68:1.46006 69:-0.037877001 70:0.201644 71:1.45918 72:-0.0069658002 73:0.170801 74:1.55932 
-0 -0 -0 -0 -0 10 0 0:0.0031961601 1:-0.031496499 2:1.71924 3:0 4:0.30000001 5:1.8 6:-0.0035969999 7:0.61730599 8:1.86658 9:0.0147917 10:0.77147001 11:1.86911 12:-0.172203 13:0.493449 14:1.82802 15:-0.201619 16:0.223277 17:1.79541 18:-0.251526 19:0.21311 20:1.56479 21:-0.28312299 22:0.234418 23:1.48338 24:0.182033 25:0.468366 26:1.83111 27:0.273386 28:0.227329 29:1.72554 30:0.090383299 31:0.21814901 32:1.52889 33:0.0266994 34:0.221011 35:1.48562 36:-0.080687299 37:-0.0262205 38:1.67161 39:-0.0903752 40:-0.39434099 41:1.6163501 42:-0.090494096 43:-0.780931 44:1.60004 45:-0.086016797 46:-0.78264397 47:1.47761 48:0.0837209 49:-0.033824701 50:1.68441 51:0.11099 52:-0.405707 53:1.63816 54:0.074692801 55:-0.77632898 56:1.62805 57:0.100501 58:-0.839378 59:1.57004 60:-0.00267629 61:0.539774 62:1.8523999 63:-0.321053 64:0.22551399 65:1.3871 66:-0.27015799 67:0.28144699 68:1.45994 69:-0.033853199 70:0.202185 71:1.4587899 72:-0.0070213499 73:0.17112 74:1.55779 
-0 -0 -0 -0 -0 10 0 0:0.0031826701 1:-0.031499699 2:1.71926 3:0 4:0.30000001 5:1.8 6:-0.0035606199 7:0.617311 8:1.8665299 9:0.0147973 10:0.77147597 11:1.86912 12:-0.17209899 13:0.493568 14:1.82818 15:-0.201645 16:0.223197 17:1.79536 18:-0.251645 19:0.21273699 20:1.56489 21:-0.28359601 22:0.2342 23:1.48349 24:0.181862 25:0.46863601 26:1.83102 27:0.27303299 28:0.227401 29:1.72524 30:0.097921401 31:0.220636 32:1.5257 33:0.027090101 34:0.22132701 35:1.4843 36:-0.080699101 37:-0.0262341 38:1.67163 39:-0.0905542 40:-0.39621401 41:1.61673 42:-0.090510502 43:-0.77994001 44:1.60023 45:-0.0860954 46:-0.78167498 47:1.47779 48:0.083708301 49:-0.033810899 50:1.68442 51:0.111024 52:-0.40586999 53:1.63814 54:0.074209198 55:-0.77663302 56:1.62801 57:0.100104 58:-0.83937198 59:1.57005 60:-0.0026493401 61:0.53977901 62:1.85237 63:-0.321091 64:0.22521 65:1.38753 66:-0.271319 67:0.28218701 68:1.45978 69:-0.0367033 70:0.204044 71:1.45838 72:-0.0072656302 73:0.172012 74:1.55634 
-0 -0 -0 -0 -0 10 0 0:0.00317325 1:-0.0314967 2:1.71924 3:0 4:0.30000001 5:1.8 6:-0.00355653 7:0.61730999 8:1.86655 9:0.0148335 10:0.77148902 11:1.8691 12:-0.171948 13:0.49363399 14:1.82806 15:-0.201684 16:0.223111 17:1.79532 18:-0.251654 19:0.21309 20:1.5648201 21:-0.28374901 22:0.23346201 23:1.48254 24:0.181905 25:0.46862501 26:1.83099 27:0.27272999 28:0.227117 29:1.72234 30:0.099013403 31:0.222616 32:1.52361 33:0.028858401 34:0.221617 35:1.4841 36:-0.080695599 37:-0.026241601 38:1.67164 39:-0.090459898 40:-0.396725 41:1.6167001 42:-0.090727501 43:-0.78010702 44:1.60048 45:-0.086281203 46:-0.781838 47:1.47804 48:0.083687901 49:-0.033791799 50:1.68432 51:0.111018 52:-0.40585399 53:1.63814 54:0.074125603 55:-0.77674598 56:1.62799 57:0.100117 58:-0.83943897 59:1.57005 60:-0.0026447801 61:0.53977799 62:1.85238 63:-0.321199 64:0.224806 65:1.38495 66:-0.269999 67:0.28080401 68:1.46029 69:-0.036318 70:0.203568 71:1.45605 72:-0.0064921398 73:0.172189 74:1.5554301 
-0 -0 -0 -0 -0 10 0 0:0.0031935801 1:-0.031495798 2:1.7192301 3:0 4:0.30000001 5:1.8 6:-0.0035653301 7:0.61729801 8:1.86656 9:0.0148533 10:0.77150798 11:1.8691 12:-0.171847 13:0.49367499 14:1.82795 15:-0.201713 16:0.223115 17:1.79532 18:-0.25193 19:0.21334399 20:1.56489 21:-0.28390899 22:0.23382799 23:1.48406 24:0.181868 25:0.46861601 26:1.83096 27:0.27246299 28:0.22696 29:1.72256 30:0.098291397 31:0.22103401 32:1.52666 33:0.0279969 34:0.22176901 35:1.48411 36:-0.080667101 37:-0.0262408 38:1.67163 39:-0.090306498 40:-0.396525 41:1.61652 42:-0.090687603 43:-0.78014803 44:1.60043 45:-0.086222298 46:-0.78187698 47:1.47799 48:0.083705701 49:-0.033792499 50:1.68431 51:0.111043 52:-0.40566301 53:1.6381 54:0.074091099 55:-0.77671701 56:1.6279401 57:0.100165 58:-0.83954102 59:1.5700001 60:-0.0026499501 61:0.53977102 62:1.8523901 63:-0.32197401 64:0.223231 65:1.3853 66:-0.27044299 67:0.28147501 68:1.4604501 69:-0.0346599 70:0.201286 71:1.45953 72:-0.00665347 73:0.17191701 74:1.5572799 
-0 -0 -0 -0 -0 10 0 0:0.0031800501 1:-0.031505499 2:1.7192301 3:0 4:0.30000001 5:1.8 6:-0.00353726 7:0.61731702 8:1.86656 9:0.01494 10:0.77156699 11:1.86913 12:-0.171801 13:0.49369901 14:1.82795 15:-0.20173401 16:0.223124 17:1.79526 18:-0.25204301 19:0.21328101 20:1.56486 21:-0.28367499 22:0.233366 23:1.4842499 24:0.181942 25:0.46842799 26:1.83088 27:0.27214301 28:0.227075 29:1.72294 30:0.100357 31:0.221899 32:1.52514 33:0.028518099 34:0.221806 35:1.48405 36:-0.080681399 37:-0.026270499 38:1.67169 39:-0.090326302 40:-0.39743 41:1.6168801 42:-0.090718597 43:-0.78022498 44:1.60044 45:-0.0862533 46:-0.78195298 47:1.4780101 48:0.0836915 49:-0.033789799 50:1.6842999 51:0.111049 52:-0.40567699 53:1.63808 54:0.074042097 55:-0.77678198 56:1.62791 57:0.100378 58:-0.840038 59:1.5707999 60:-0.0026293399 61:0.53978503 62:1.8523901 63:-0.32338601 64:0.22084001 65:1.38709 66:-0.269844 67:0.28086001 68:1.45992 69:-0.035973899 70:0.203309 71:1.45873 72:-0.0072628902 73:0.172462 74:1.5556099 
-0 -0 -0 -0 -0 10 0 0:0.0031941901 1:-0.0315153 2:1.7192301 3:0 4:0.30000001 5:1.8 6:-0.0035462 7:0.61732203 8:1.86656 9:0.0149682 10:0.771523 11:1.86918 12:-0.171801 13:0.49370599 14:1.82793 15:-0.20175201 16:0.222973 17:1.79533 18:-0.25204301 19:0.21330699 20:1.56493 21:-0.28347099 22:0.234228 23:1.4833699 24:0.18192799 25:0.468431 26:1.8309 27:0.27180001 28:0.226676 29:1.72216 30:0.098301999 31:0.216778 32:1.5219001 33:0.027925899 34:0.22096699 35:1.48432 36:-0.080651402 37:-0.0263029 38:1.67169 39:-0.090271302 40:-0.39782101 41:1.6168801 42:-0.090899698 43:-0.78053403 44:1.60039 45:-0.086421497 46:-0.78225702 47:1.47796 48:0.083697498 49:-0.033779699 50:1.6842901 51:0.111063 52:-0.40574101 53:1.63807 54:0.0739915 55:-0.77684897 56:1.62791 57:0.100379 58:-0.840069 59:1.5708801 60:-0.00263475 61:0.53978902 62:1.8523901 63:-0.32150599 64:0.22330201 65:1.38539 66:-0.274308 67:0.28353301 68:1.45741 69:-0.0369206 70:0.201398 71:1.4584 72:-0.0030847399 73:0.171445 74:1.55847 
-0 -0 -0 -0 -0 10 4.053343126506616 0:0.0032073599 1:-0.031470999 2:1.71924 3:0 4:0.30000001 5:1.8 6:-0.00354858 7:0.61728603 8:1.86655 9:0.0150062 10:0.77144998 11:1.86912 12:-0.171928 13:0.49364001 14:1.82798 15:-0.201846 16:0.22287899 17:1.7955199 18:-0.252083 19:0.21401 20:1.56519 21:-0.28375599 22:0.233173 23:1.48313 24:0.186959 25:0.47008401 26:1.8312401 27:0.271981 28:0.226576 29:1.72173 30:0.097945303 31:0.216444 32:1.52495 33:0.0280124 34:0.22110599 35:1.48522 36:-0.080624297 37:-0.026237199 38:1.67168 39:-0.090147398 40:-0.397394 41:1.6168801 42:-0.091119699 43:-0.78075403 44:1.60057 45:-0.086738601 46:-0.78247702 47:1.47813 48:0.083701499 49:-0.033759899 50:1.68432 51:0.11093 52:-0.40581501 53:1.63806 54:0.073947497 55:-0.77697301 56:1.62784 57:0.10006 58:-0.840047 59:1.57068 60:-0.0026352301 61:0.53976297 62:1.85238 63:-0.322952 64:0.21886601 65:1.37948 66:-0.270401 67:0.28080201 68:1.46017 69:-0.0368746 70:0.204561 71:1.45935 72:-0.000101097 73:0.17002299 74:1.56375 
-9.291415107623465 -9.246569438489088 -6.817707472414953 -0 -10 10 10 0:0.0031870401 1:-0.031472798 2:1.7192301 3:0 4:0.30000001 5:1.8 6:-0.00347806 7:0.61728698 8:1.86657 9:0.015015 10:0.77146101 11:1.86912 12:-0.171933 13:0.49340901 14:1.82786 15:-0.201839 16:0.222847 17:1.79548 18:-0.25210601 19:0.214008 20:1.5651799 21:-0.28401199 22:0.234014 23:1.4829 24:0.186408 25:0.46974701 26:1.83085 27:0.27190101 28:0.226505 29:1.72183 30:0.100915 31:0.219143 32:1.5244401 33:0.0286892 34:0.221634 35:1.48448 36:-0.080645703 37:-0.026239 38:1.67168 39:-0.090190299 40:-0.39723399 41:1.61691 42:-0.091198601 43:-0.781093 44:1.60062 45:-0.086862303 46:-0.78281099 47:1.4781899 48:0.083686002 49:-0.033761699 50:1.68431 51:0.110963 52:-0.405761 53:1.6380399 54:0.073821597 55:-0.77752298 56:1.62771 57:0.100041 58:-0.84017003 59:1.57041 60:-0.00258488 61:0.53976399 62:1.8523901 63:-0.32191399 64:0.22406 65:1.38581 66:-0.271319 67:0.281885 68:1.46005 69:-0.034661699 70:0.200471 71:1.4576401 72:0.0112183 73:0.16795599 74:1.57008 
-0 -0 -0 -0 -0.02426652067171124 10 0 0:0.0032373599 1:-0.031436201 2:1.71916 3:0 4:0.30000001 5:1.8 6:-0.0034960301 7:0.61726999 8:1.86659 9:0.0150638 10:0.77141899 11:1.86896 12:-0.171895 13:0.49344701 14:1.82789 15:-0.201875 16:0.22267599 17:1.79492 18:-0.252139 19:0.214522 20:1.56524 21:-0.283712 22:0.233408 23:1.48273 24:0.186114 25:0.46965 26:1.8308001 27:0.27157 28:0.22701199 29:1.72018 30:0.102353 31:0.220209 32:1.52362 33:0.028198101 34:0.221532 35:1.48308 36:-0.080621101 37:-0.026233099 38:1.67167 39:-0.090319902 40:-0.39717099 41:1.61696 42:-0.0912802 43:-0.78129703 44:1.60074 45:-0.086947002 46:-0.78301001 47:1.47831 48:0.083772004 49:-0.0336877 50:1.68415 51:0.110943 52:-0.40579599 53:1.63805 54:0.073805697 55:-0.777574 56:1.62772 57:0.099918902 58:-0.84005898 59:1.57003 60:-0.0026000501 61:0.53974903 62:1.85241 63:-0.32215399 64:0.223428 65:1.38714 66:-0.27004701 67:0.28075099 68:1.46029 69:-0.036656801 70:0.202647 71:1.45895 72:-0.00078671402 73:0.17292701 74:1.55678 
-0 -0 -0 -0 -0 10 0 0:0.00330577 1:-0.031461101 2:1.71912 3:0 4:0.30000001 5:1.8 6:-0.00353782 7:0.61727703 8:1.86663 9:0.01506 10:0.77143502 11:1.86905 12:-0.171846 13:0.49335799 14:1.8277 15:-0.201902 16:0.22266699 17:1.79497 18:-0.25213501 19:0.215103 20:1.5656101 21:-0.283667 22:0.23397 23:1.48382 24:0.185765 25:0.46961099 26:1.83082 27:0.274391 28:0.226485 29:1.7238801 30:0.103029 31:0.221031 32:1.523 33:0.027569 34:0.221394 35:1.48298 36:-0.080537699 37:-0.0262744 38:1.67164 39:-0.089979999 40:-0.39635199 41:1.6167001 42:-0.091380499 43:-0.78146201 44:1.6009901 45:-0.087001197 46:-0.78316998 47:1.47856 48:0.083826698 49:-0.0337 50:1.68409 51:0.110945 52:-0.405821 53:1.63808 54:0.073855497 55:-0.77756202 56:1.62781 57:0.099876098 58:-0.84007901 59:1.5700901 60:-0.0026318899 61:0.53975499 62:1.85244 63:-0.32141101 64:0.22478101 65:1.38559 66:-0.270648 67:0.28124899 68:1.46058 69:-0.037872698 70:0.20202699 71:1.4600199 72:-0.0047931098 73:0.171229 74:1.5510499 
-0 -0 -0 -0 -0 10 0 0:0.00330303 1:-0.0314821 2:1.71913 3:0 4:0.30000001 5:1.8 6:-0.0035373501 7:0.61732 8:1.86659 9:0.0151046 10:0.77142203 11:1.86912 12:-0.171867 13:0.49333099 14:1.82774 15:-0.201906 16:0.222699 17:1.79493 18:-0.26194999 19:0.23048 20:1.5531 21:-0.283865 22:0.233484 23:1.4831001 24:0.18557 25:0.46948701 26:1.83079 27:0.27316999 28:0.227046 29:1.7226 30:0.103727 31:0.22147299 32:1.52266 33:0.0281006 34:0.22209001 35:1.4830199 36:-0.080526598 37:-0.026286401 38:1.6716599 39:-0.089845598 40:-0.39507499 41:1.61639 42:-0.091546603 43:-0.78175902 44:1.60112 45:-0.087170102 46:-0.78346598 47:1.47869 48:0.083819397 49:-0.033730801 50:1.68411 51:0.110847 52:-0.40596199 53:1.6380301 54:0.073832802 55:-0.77750701 56:1.62786 57:0.099645801 58:-0.83980697 59:1.56971 60:-0.00262957 61:0.53978598 62:1.85241 63:-0.32237899 64:0.22235 65:1.38696 66:-0.27109301 67:0.28098899 68:1.45899 69:-0.036546901 70:0.20125 71:1.46123 72:-0.0122288 73:0.174841 74:1.5459501 
-0 -0 -0 -0 -0 10 0 0:0.0033462299 1:-0.031503201 2:1.71917 3:0 4:0.30000001 5:1.8 6:-0.0035587801 7:0.61732799 8:1.86656 9:0.0151982 10:0.77144301 11:1.86915 12:-0.17182501 13:0.49322399 14:1.82767 15:-0.20196199 16:0.22269399 17:1.79504 18:-0.25228801 19:0.215737 20:1.56572 21:-0.28427401 22:0.233227 23:1.48383 24:0.18541799 25:0.46941099 26:1.83078 27:0.27456999 28:0.227364 29:1.72346 30:0.101871 31:0.2226 32:1.51711 33:0.027963299 34:0.22177701 35:1.48331 36:-0.080376498 37:-0.026432199 38:1.67186 39:-0.089937396 40:-0.39531001 41:1.61628 42:-0.0910841 43:-0.77960002 44:1.60141 45:-0.086709604 46:-0.78134501 47:1.4789701 48:0.083849899 49:-0.033690602 50:1.68406 51:0.110752 52:-0.406104 53:1.6380399 54:0.077015199 55:-0.77780598 56:1.62887 57:0.100401 58:-0.84062201 59:1.57112 60:-0.0026449701 61:0.53979301 62:1.8523901 63:-0.322101 64:0.223105 65:1.39047 66:-0.27100101 67:0.28112 68:1.45964 69:-0.038688101 70:0.202269 71:1.46008 72:-0.0057858801 73:0.173233 74:1.55247 
-0 -0 -0 -0 -0 -10 0 0:0.00334693 1:-0.031509802 2:1.71918 3:0 4:0.30000001 5:1.8 6:-0.0035596699 7:0.61733502 8:1.86655 9:0.0152909 10:0.77144402 11:1.86913 12:-0.171802 13:0.49325001 14:1.82771 15:-0.201903 16:0.222591 17:1.7948999 18:-0.25223801 19:0.214442 20:1.5652699 21:-0.28419501 22:0.23299401 23:1.48462 24:0.185222 25:0.46914199 26:1.83056 27:0.275343 28:0.227504 29:1.72374 30:0.10291 31:0.22321001 32:1.51803 33:0.0281519 34:0.221857 35:1.48299 36:-0.080380902 37:-0.0264345 38:1.67187 39:-0.089841999 40:-0.39416799 41:1.6159 42:-0.091331698 43:-0.780339 44:1.60168 45:-0.0869845 46:-0.78207499 47:1.47923 48:0.0838544 49:-0.0337 50:1.68407 51:0.110961 52:-0.406001 53:1.63805 54:0.0764293 55:-0.77775002 56:1.62887 57:0.100078 58:-0.84040803 59:1.57096 60:-0.0026447701 61:0.53979802 62:1.85238 63:-0.32352 64:0.221698 65:1.38826 66:-0.270576 67:0.28089201 68:1.46032 69:-0.0360789 70:0.20127399 71:1.4610699 72:0.0149637 73:0.27065301 74:1.4911799 
-0 -0 -0 -4.634137781409321 -0 -10 0 0:0.00333774 1:-0.0315095 2:1.71918 3:0 4:0.30000001 5:1.8 6:-0.0035456901 7:0.617329 8:1.86656 9:0.0153037 10:0.77144498 11:1.86913 12:-0.171698 13:0.49324 14:1.8276401 15:-0.201983 16:0.222643 17:1.79511 18:-0.25224 19:0.213347 20:1.56504 21:-0.28398901 22:0.233969 23:1.48431 24:0.18511701 25:0.46909299 26:1.8306299 27:0.27493799 28:0.22762001 29:1.72379 30:0.102373 31:0.223747 32:1.51687 33:0.028405 34:0.22198801 35:1.48437 36:-0.080391198 37:-0.026439 38:1.67187 39:-0.089802198 40:-0.39311901 41:1.61572 42:-0.091203697 43:-0.78162098 44:1.60162 45:-0.086824 46:-0.78333497 47:1.47919 48:0.083848201 49:-0.033688702 50:1.68407 51:0.110984 52:-0.40610799 53:1.6380301 54:0.076202698 55:-0.77798998 56:1.62894 57:0.099961199 58:-0.84042501 59:1.57096 60:-0.0026335199 61:0.53979403 62:1.8523901 63:-0.32358301 64:0.221572 65:1.38687 66:-0.27135 67:0.281331 68:1.46005 69:-0.035432398 70:0.2001 71:1.46113 72:-0.0132902 73:0.174998 74:1.54818 
-9.226807432069704 -9.174379874698078 -0 -10 -0 -10 6.732451668632749 0:0.0033245301 1:-0.031532802 2:1.71918 3:0 4:0.30000001 5:1.8 6:-0.0035300199 7:0.61735201 8:1.86655 9:0.0153526 10:0.77142 11:1.86909 12:-0.171712 13:0.493211 14:1.8277 15:-0.20197099 16:0.22266699 17:1.79512 18:-0.25195101 19:0.206801 20:1.56206 21:-0.28341401 22:0.233202 23:1.4837101 24:0.18498001 25:0.468952 26:1.8305 27:0.27239799 28:0.227359 29:1.7201 30:0.102875 31:0.22387999 32:1.51719 33:0.0274374 34:0.22159301 35:1.48171 36:-0.080404997 37:-0.0264483 38:1.6719 39:-0.089736 40:-0.395374 41:1.6163501 42:-0.091270603 43:-0.78167897 44:1.60166 45:-0.086922102 46:-0.78339398 47:1.47922 48:0.083833203 49:-0.0337434 50:1.68399 51:0.111077 52:-0.40607399 53:1.63801 54:0.078602701 55:-0.77771199 56:1.62982 57:0.0997428 58:-0.840276 59:1.57109 60:-0.0026209401 61:0.53981203 62:1.85238 63:-0.322871 64:0.221393 65:1.38507 66:-0.270385 67:0.279291 68:1.46158 69:-0.037021801 70:0.20181 71:1.45807 72:0.0039790198 73:0.17176101 74:1.5587699 
-0 -0 -0 -0 -0 -10 6.494766329911208 0:0.00328116 1:-0.0315415 2:1.7192 3:0 4:0.30000001 5:1.8 6:-0.00347093 7:0.61735499 8:1.8665299 9:0.0153132 10:0.77140099 11:1.86914 12:-0.171757 13:0.49318501 14:1.82775 15:-0.201985 16:0.2226 17:1.79531 18:-0.26856399 19:0.220202 20:1.5155801 21:-0.28400099 22:0.23297299 23:1.48393 24:0.184844 25:0.46893501 26:1.83042 27:0.27240399 28:0.227229 29:1.71998 30:0.103874 31:0.22438 32:1.51789 33:0.028790001 34:0.221861 35:1.4814399 36:-0.080459602 37:-0.0264646 38:1.67193 39:-0.089722298 40:-0.39609599 41:1.61666 42:-0.090988502 43:-0.78176999 44:1.60139 45:-0.086677 46:-0.78348398 47:1.47896 48:0.083804801 49:-0.033740502 50:1.68401 51:0.11102 52:-0.40608999 53:1.63802 54:0.077182703 55:-0.77827102 56:1.62915 57:0.099719003 58:-0.84023398 59:1.5711 60:-0.00257536 61:0.53981501 62:1.85237 63:-0.32198599 64:0.2225 65:1.3837399 66:-0.27087101 67:0.28070599 68:1.4598401 69:-0.035307799 70:0.201565 71:1.45963 72:-0.0075700702 73:0.173712 74:1.5518 
-0 -0 -0 -0 -0 -10 0 0:0.00327475 1:-0.031587299 2:1.71919 3:0 4:0.30000001 5:1.8 6:-0.00345359 7:0.61740398 8:1.86652 9:0.0153337 10:0.77140802 11:1.86918 12:-0.171317 13:0.49317101 14:1.82767 15:-0.201968 16:0.222625 17:1.7955199 18:-0.250965 19:0.21257 20:1.5639499 21:-0.28411499 22:0.23344 23:1.48374 24:0.18471099 25:0.46888199 26:1.83044 27:0.271983 28:0.227066 29:1.72016 30:0.104125 31:0.22431201 32:1.51797 33:0.0279283 34:0.22160099 35:1.48096 36:-0.080471501 37:-0.0265065 38:1.67195 39:-0.089774802 40:-0.396615 41:1.6166 42:-0.091101803 43:-0.78181201 44:1.60133 45:-0.086758398 46:-0.78352499 47:1.4789 48:0.083806299 49:-0.033790302 50:1.68396 51:0.110989 52:-0.40613699 53:1.63796 54:0.076847799 55:-0.77819097 56:1.6289901 57:0.099695601 58:-0.84016502 59:1.57084 60:-0.0025621699 61:0.53985 62:1.85236 63:-0.322081 64:0.224893 65:1.3859299 66:-0.27108601 67:0.28142899 68:1.4594899 69:-0.036072198 70:0.20193399 71:1.45755 72:-0.00851308 73:0.173592 74:1.54905 
-0 -0 -0 -0 -0 -10 0 0:0.0083497297 1:-0.034448002 2:1.72448 3:0 4:0.30000001 5:1.8 6:-0.0087318597 7:0.61995202 8:1.86169 9:0.0184962 10:0.77186 11:1.8634 12:-0.174218 13:0.49944499 14:1.81285 15:-0.218649 16:0.22223599 17:1.78965 18:-0.26148701 19:0.21099 20:1.5528001 21:-0.28444099 22:0.227375 23:1.46534 24:0.17324699 25:0.473331 26:1.8361599 27:0.26084301 28:0.27697599 29:1.7168601 30:0.115615 31:0.243111 32:1.5388401 33:0.041515801 34:0.25369099 35:1.49195 36:-0.076423302 37:-0.0291545 38:1.67419 39:-0.094412901 40:-0.41567099 41:1.63227 42:-0.10501 43:-0.78649098 44:1.62388 45:-0.096339203 46:-0.78853399 47:1.50183 48:0.088446602 49:-0.036830802 50:1.69296 51:0.084765598 52:-0.427001 53:1.6528701 54:0.054245502 55:-0.78024399 56:1.64013 57:0.059975401 58:-0.78253502 59:1.51809 60:-0.0064855502 61:0.541803 62:1.84869 63:-0.31315801 64:0.219869 65:1.36199 66:-0.27554399 67:0.283658 68:1.42539 69:-0.0268168 70:0.23073 71:1.4699 72:0.0111853 73:0.202149 74:1.5717 
-0 -0 -0 -0 -0 -10 0 0:0.0083608702 1:-0.0344215 2:1.72444 3:0 4:0.30000001 5:1.8 6:-0.0087319398 7:0.61994302 8:1.86169 9:0.018497899 10:0.77184999 11:1.86339 12:-0.174141 13:0.49935099 14:1.81286 15:-0.21862701 16:0.222286 17:1.78904 18:-0.261554 19:0.211271 20:1.5530601 21:-0.28411201 22:0.227088 23:1.4665 24:0.174312 25:0.47394699 26:1.83614 27:0.26073399 28:0.27684301 29:1.71655 30:0.115349 31:0.242936 32:1.5386699 33:0.0419867 34:0.25297201 35:1.492 36:-0.076413803 37:-0.029111501 38:1.67413 39:-0.095005304 40:-0.41291201 41:1.63158 42:-0.105025 43:-0.78635401 44:1.62357 45:-0.096430197 46:-0.788396 47:1.50151 48:0.088464297 49:-0.036810201 50:1.69291 51:0.086207204 52:-0.42240801 53:1.65186 54:0.054804102 55:-0.77958 56:1.63994 57:0.060446002 58:-0.78187901 59:1.51789 60:-0.0064862999 61:0.54179603 62:1.8487 63:-0.314944 64:0.214351 65:1.3588901 66:-0.27072001 67:0.276896 68:1.4323601 69:-0.029338401 70:0.23225001 71:1.46548 72:0.0147583 73:0.198388 74:1.57734 
-0 -0 -0 -0 -0 -10 0 0:0.0082490202 1:-0.034386698 2:1.72447 3:0 4:0.30000001 5:1.8 6:-0.0086537097 7:0.619923 8:1.86165 9:0.018596699 10:0.77191901 11:1.8636 12:-0.17406701 13:0.49929899 14:1.81284 15:-0.21850801 16:0.222497 17:1.7885799 18:-0.261522 19:0.211538 20:1.55353 21:-0.28435701 22:0.22574399 23:1.46867 24:0.173976 25:0.47359201 26:1.83623 27:0.26095399 28:0.27691001 29:1.71661 30:0.115396 31:0.24282899 32:1.5389 33:0.042571601 34:0.254343 35:1.49213 36:-0.076491803 37:-0.0291191 38:1.67415 39:-0.0952999 40:-0.41213101 41:1.63144 42:-0.104957 43:-0.78631598 44:1.62345 45:-0.0963085 46:-0.78836101 47:1.50139 48:0.088336498 49:-0.036731198 50:1.6928999 51:0.0868292 52:-0.42170301 53:1.65185 54:0.055427399 55:-0.77960902 56:1.64 57:0.061113499 58:-0.78191102 59:1.51796 60:-0.0064229099 61:0.54177999 62:1.84867 63:-0.31434101 64:0.21630099 65:1.36437 66:-0.26940101 67:0.276999 68:1.43253 69:-0.0237404 70:0.232886 71:1.4698 72:0.0115755 73:0.200757 74:1.5718499 
-0 -0 -0 -0 -0 -4.647586881166118 0.68037337562096 0:0.0082238596 1:-0.034366701 2:1.72442 3:0 4:0.30000001 5:1.8 6:-0.0086095398 7:0.61989701 8:1.8617001 9:0.0185536 10:0.77205497 11:1.86361 12:-0.174128 13:0.499374 14:1.81286 15:-0.218675 16:0.222405 17:1.78818 18:-0.27420899 19:0.213219 20:1.49397 21:-0.28381199 22:0.227745 23:1.46734 24:0.17349599 25:0.473196 26:1.83591 27:0.28285101 28:0.27408499 29:1.71781 30:0.115555 31:0.242925 32:1.53934 33:0.041963901 34:0.25380901 35:1.49262 36:-0.076512702 37:-0.029082799 38:1.67406 39:-0.095908403 40:-0.41304699 41:1.6316299 42:-0.104965 43:-0.78607798 44:1.62322 45:-0.096349403 46:-0.78811997 47:1.50116 48:0.088311598 49:-0.036732402 50:1.69287 51:0.087018497 52:-0.421004 53:1.65175 54:0.056384798 55:-0.78077799 56:1.6402 57:0.062020902 58:-0.783059 59:1.51816 60:-0.0063903099 61:0.54176003 62:1.8487 63:-0.31473699 64:0.21403199 65:1.35737 66:-0.275976 67:0.28542399 68:1.42331 69:-0.0294658 70:0.232722 71:1.4687999 72:0.016689301 73:0.199838 74:1.58095 
-0 -0 -0 -0 -0 -10 0 0:0.0082208803 1:-0.034368899 2:1.72442 3:0 4:0.30000001 5:1.8 6:-0.0085979803 7:0.61989403 8:1.86168 9:0.0185508 10:0.772102 11:1.86362 12:-0.17405599 13:0.499331 14:1.81294 15:-0.218685 16:0.222371 17:1.78813 18:-0.26121199 19:0.22147401 20:1.55887 21:-0.283914 22:0.227137 23:1.4676501 24:0.17310899 25:0.47298199 26:1.8358901 27:0.294723 28:0.27054399 29:1.7191499 30:0.11552 31:0.242924 32:1.53935 33:0.042031601 34:0.25503701 35:1.4913 36:-0.076511703 37:-0.029085601 38:1.67407 39:-0.095726602 40:-0.41413501 41:1.63169 42:-0.104898 43:-0.78474998 44:1.6226701 45:-0.096284397 46:-0.78680998 47:1.5006 48:0.088304304 49:-0.036729999 50:1.69286 51:0.087492503 52:-0.420129 53:1.65169 54:0.056559101 55:-0.78049898 56:1.64029 57:0.062191099 58:-0.78278601 59:1.51825 60:-0.0063827801 61:0.54175901 62:1.84869 63:-0.314825 64:0.21597899 65:1.36212 66:-0.27039301 67:0.27633199 68:1.43132 69:-0.024272099 70:0.236035 71:1.47044 72:0.0125991 73:0.20102701 74:1.57427 
-0 -0 -0 -0 -0 -10 0 0:0.0081822099 1:-0.034347702 2:1.72448 3:0 4:0.30000001 5:1.8 6:-0.00857177 7:0.61981201 8:1.86154 9:0.018599899 10:0.77218902 11:1.86382 12:-0.17391101 13:0.49931401 14:1.81304 15:-0.218604 16:0.222414 17:1.7878799 18:-0.25823599 19:0.21167 20:1.55694 21:-0.28356799 22:0.226362 23:1.4679101 24:0.17274199 25:0.47257099 26:1.83603 27:0.27265501 28:0.27568999 29:1.71445 30:0.116777 31:0.239609 32:1.5321701 33:0.044372398 34:0.255593 35:1.48975 36:-0.076547101 37:-0.0290554 38:1.67414 39:-0.094760597 40:-0.41647601 41:1.63185 42:-0.104867 43:-0.78463501 44:1.62281 45:-0.096207298 46:-0.78670198 47:1.5007401 48:0.088271402 49:-0.036712799 50:1.69288 51:0.085940696 52:-0.42486799 53:1.65236 54:0.053217299 55:-0.78023601 56:1.63993 57:0.058957402 58:-0.78252703 59:1.51789 60:-0.0063676899 61:0.54170603 62:1.84861 63:-0.31462601 64:0.216839 65:1.36831 66:-0.26709899 67:0.27265099 68:1.43575 69:-0.0255617 70:0.233107 71:1.46699 72:0.0120077 73:0.20387 74:1.57118 
-0 -0 -0 -0 -4.111080484514963 -0 0 0:0.0081576398 1:-0.034313101 2:1.72448 3:0 4:0.30000001 5:1.8 6:-0.0084885797 7:0.61970401 8:1.8615299 9:0.018577499 10:0.772219 11:1.86382 12:-0.173787 13:0.49936101 14:1.81313 15:-0.21861 16:0.22247 17:1.78783 18:-0.27462399 19:0.214416 20:1.49006 21:-0.283678 22:0.22645099 23:1.46689 24:0.17422999 25:0.47329599 26:1.8361599 27:0.26938099 28:0.27699101 29:1.71508 30:0.116419 31:0.24016 32:1.5328701 33:0.043942198 34:0.255281 35:1.4907 36:-0.076552399 37:-0.0289998 38:1.67413 39:-0.095220096 40:-0.41710499 41:1.63199 42:-0.104909 43:-0.78466702 44:1.62284 45:-0.096315503 46:-0.78673297 47:1.50077 48:0.088238999 49:-0.036687899 50:1.69288 51:0.084566601 52:-0.428848 53:1.65233 54:0.054019101 55:-0.77970302 56:1.64 57:0.0596768 58:-0.78200299 59:1.5179501 60:-0.0063095498 61:0.541632 62:1.8486 63:-0.31418201 64:0.215719 65:1.3595901 66:-0.270641 67:0.27745599 68:1.43117 69:-0.0244842 70:0.234752 71:1.4656399 72:0.017842799 73:0.20395 74:1.58075 
-0 -0 -0 -0 -0 -10 0 0:0.0081550796 1:-0.034368701 2:1.7244 3:0 4:0.30000001 5:1.8 6:-0.0084753903 7:0.61980301 8:1.86163 9:0.018668 10:0.77224803 11:1.8637 12:-0.17374 13:0.49932799 14:1.81319 15:-0.21855199 16:0.222334 17:1.7877001 18:-0.26062101 19:0.22067299 20:1.55856 21:-0.28384101 22:0.22714099 23:1.46829 24:0.173852 25:0.472803 26:1.83595 27:0.26846501 28:0.277466 29:1.7163399 30:0.115773 31:0.24065299 32:1.53363 33:0.0435961 34:0.25575301 35:1.49066 36:-0.076534398 37:-0.0290222 38:1.67399 39:-0.095605403 40:-0.415144 41:1.63184 42:-0.104968 43:-0.78403503 44:1.6229 45:-0.096390299 46:-0.78610897 47:1.50082 48:0.088221803 49:-0.036782 50:1.69285 51:0.085768498 52:-0.42493099 53:1.65161 54:0.054485802 55:-0.77952898 56:1.64018 57:0.0601191 58:-0.78183001 59:1.5181299 60:-0.00629983 61:0.54170102 62:1.84868 63:-0.31350699 64:0.21871699 65:1.36236 66:-0.270464 67:0.27769801 68:1.42843 69:-0.0234336 70:0.233936 71:1.4687001 72:0.0096594999 73:0.204447 74:1.5679801 
-0 -0 -0 -0 -0 -10 0 0:0.0081720697 1:-0.0344011 2:1.72431 3:0 4:0.30000001 5:1.8 6:-0.0084965201 7:0.619865 8:1.86181 9:0.0187563 10:0.77218699 11:1.86366 12:-0.173701 13:0.499331 14:1.81332 15:-0.218519 16:0.222279 17:1.7876199 18:-0.26064801 19:0.220422 20:1.55849 21:-0.284015 22:0.226447 23:1.4669501 24:0.173507 25:0.47261 26:1.83584 27:0.26751 28:0.277623 29:1.71659 30:0.115538 31:0.24094 32:1.53519 33:0.043609101 34:0.25560099 35:1.4916 36:-0.076511599 37:-0.0290478 38:1.67391 39:-0.095530003 40:-0.41591501 41:1.63199 42:-0.104956 43:-0.78400201 44:1.62269 45:-0.096406497 46:-0.78606898 47:1.50061 48:0.088230699 49:-0.036816798 50:1.69274 51:0.084251396 52:-0.42972299 53:1.65197 54:0.054843899 55:-0.77947199 56:1.64027 57:0.0604426 58:-0.78176802 59:1.5182101 60:-0.0063152299 61:0.54174501 62:1.8487999 63:-0.314143 64:0.21697401 65:1.36352 66:-0.269052 67:0.27523199 68:1.43275 69:-0.024796 70:0.23462 71:1.47016 72:-0.0055005299 73:0.227686 74:1.53715 
-0 -0 -0 -0 -6.371097001854786 -10 0 0:0.0081399297 1:-0.0343027 2:1.72421 3:0 4:0.30000001 5:1.8 6:-0.0083713597 7:0.61970001 8:1.8618701 9:0.018802799 10:0.77223301 11:1.86368 12:-0.173935 13:0.499531 14:1.81378 15:-0.21824899 16:0.222434 17:1.78601 18:-0.26153699 19:0.219695 20:1.55711 21:-0.28420201 22:0.226594 23:1.46717 24:0.17412101 25:0.47232401 26:1.8354501 27:0.265185 28:0.278227 29:1.7167799 30:0.121017 31:0.245814 32:1.53704 33:0.0440129 34:0.25666401 35:1.49055 36:-0.076487802 37:-0.028871199 38:1.6736799 39:-0.093909703 40:-0.41857299 41:1.63165 42:-0.105183 43:-0.78503799 44:1.62287 45:-0.096796602 46:-0.78708303 47:1.50078 48:0.088178597 49:-0.036782701 50:1.69271 51:0.087997101 52:-0.41821301 53:1.6504 54:0.053406499 55:-0.77877098 56:1.63994 57:0.058863498 58:-0.78106898 59:1.5178601 60:-0.0062250202 61:0.541632 62:1.84885 63:-0.314206 64:0.21236899 65:1.3544101 66:-0.270392 67:0.27705899 68:1.42908 69:-0.0235775 70:0.234212 71:1.4699399 72:0.0113858 73:0.205396 74:1.57383 
-0 -0 -0 -0 -0 -10 0 0:0.00810437 1:-0.0342963 2:1.7241499 3:0 4:0.30000001 5:1.8 6:-0.0083402097 7:0.61968601 8:1.8619699 9:0.018839199 10:0.77225 11:1.8636301 12:-0.17386299 13:0.499623 14:1.81385 15:-0.21826001 16:0.222606 17:1.78617 18:-0.26453799 19:0.228113 20:1.54023 21:-0.28361201 22:0.22638001 23:1.46751 24:0.173921 25:0.472119 26:1.83539 27:0.26522401 28:0.278117 29:1.71681 30:0.120058 31:0.24560399 32:1.53708 33:0.044148501 34:0.25706401 35:1.4903001 36:-0.076569296 37:-0.028824899 38:1.67354 39:-0.093726903 40:-0.419081 41:1.63158 42:-0.105161 43:-0.78499699 44:1.62283 45:-0.096775301 46:-0.78703803 47:1.5007401 48:0.088139199 49:-0.036816198 50:1.69271 51:0.088217601 52:-0.41801801 53:1.65031 54:0.054225199 55:-0.779432 56:1.64015 57:0.0596678 58:-0.78171599 59:1.51808 60:-0.0062041702 61:0.54162002 62:1.84892 63:-0.31323099 64:0.216525 65:1.3619699 66:-0.26995 67:0.276344 68:1.43119 69:-0.0249428 70:0.235471 71:1.46688 72:0.0072007799 73:0.208124 74:1.56969 
-0 -0 -6.889189650867901 -4.579828434551787 -0 -10 0 0:0.00807977 1:-0.0343206 2:1.72408 3:0 4:0.30000001 5:1.8 6:-0.0082954504 7:0.61972499 8:1.8620501 9:0.0188732 10:0.7723 11:1.86387 12:-0.173786 13:0.49952799 14:1.81387 15:-0.217952 16:0.221029 17:1.7868 18:-0.257851 19:0.191012 20:1.54794 21:-0.28375301 22:0.225879 23:1.46708 24:0.173584 25:0.47191101 26:1.8354 27:0.26497701 28:0.27809101 29:1.71662 30:0.120141 31:0.245487 32:1.53266 33:0.044721 34:0.25702301 35:1.49051 36:-0.076590098 37:-0.028842799 38:1.67344 39:-0.094121598 40:-0.41558799 41:1.63146 42:-0.104948 43:-0.784033 44:1.62283 45:-0.096550398 46:-0.78608501 47:1.50073 48:0.088101096 49:-0.036841702 50:1.69268 51:0.088412397 52:-0.41787499 53:1.65027 54:0.054279398 55:-0.779993 56:1.63978 57:0.059736799 58:-0.78226203 59:1.51771 60:-0.0061713401 61:0.54164702 62:1.8489799 63:-0.31458899 64:0.21664301 65:1.3633 66:-0.26912901 67:0.26958901 68:1.44537 69:-0.026088299 70:0.237258 71:1.4693 72:0.011462 73:0.206478 74:1.57427 
-0 -0 -0 -0 -0 -5.352413118833882 0 0:0.0080750901 1:-0.0342784 2:1.72395 3:0 4:0.30000001 5:1.8 6:-0.00830591 7:0.619627 8:1.86228 9:0.018888401 10:0.772291 11:1.86396 12:-0.17379799 13:0.49953401 14:1.81378 15:-0.217907 16:0.22110599 17:1.78689 18:-0.25968501 19:0.20421401 20:1.5495501 21:-0.28349701 22:0.22632299 23:1.4681 24:0.17445999 25:0.47352299 26:1.83535 27:0.264725 28:0.27859899 29:1.71685 30:0.119362 31:0.245428 32:1.53339 33:0.045015901 34:0.25789899 35:1.48918 36:-0.076589599 37:-0.0287975 38:1.67331 39:-0.094479598 40:-0.41387001 41:1.6309201 42:-0.104941 43:-0.783903 44:1.62263 45:-0.096663103 46:-0.78594398 47:1.50052 48:0.088090003 49:-0.0368062 50:1.69253 51:0.088438697 52:-0.41774499 53:1.65013 54:0.054811701 55:-0.78003901 56:1.63982 57:0.060140099 58:-0.782296 59:1.51773 60:-0.0061760698 61:0.54157901 62:1.8491499 63:-0.312334 64:0.218707 65:1.3629301 66:-0.27993301 67:0.285445 68:1.43273 69:-0.0223688 70:0.23918501 71:1.46845 72:0.00013117499 73:0.226714 74:1.54115 
-0 -0 -0 -0 -0 -10 0 0:0.0080351504 1:-0.034266401 2:1.72394 3:0 4:0.30000001 5:1.8 6:-0.0082590701 7:0.61962098 8:1.8622299 9:0.0188637 10:0.77235001 11:1.86403 12:-0.173687 13:0.49953499 14:1.81382 15:-0.217317 16:0.222223 17:1.78672 18:-0.260322 19:0.21039499 20:1.5528899 21:-0.283048 22:0.22655199 23:1.4664201 24:0.174035 25:0.47277299 26:1.83532 27:0.264723 28:0.27867201 29:1.7169 30:0.123154 31:0.247969 32:1.53459 33:0.044479799 34:0.257566 35:1.48943 36:-0.076623403 37:-0.0287985 38:1.6732301 39:-0.094333097 40:-0.41434699 41:1.63062 42:-0.105144 43:-0.783966 44:1.62245 45:-0.096814103 46:-0.78600502 47:1.50034 48:0.088043198 49:-0.036782 50:1.6925499 51:0.087095097 52:-0.42425501 53:1.65007 54:0.0529695 55:-0.78070098 56:1.63898 57:0.0583786 58:-0.78294098 59:1.5168999 60:-0.0061421301 61:0.54157299 62:1.84911 63:-0.31277701 64:0.21782 65:1.36274 66:-0.26977199 67:0.27436501 68:1.43191 69:-0.0271575 70:0.237647 71:1.46899 72:0.016551699 73:0.209408 74:1.57206 
-0.3311086673364567 -3.036482494180962 -0 -0 -0 -0 -0 0:0.0151191 1:-0.0354807 2:1.72522 3:0 4:0.30000001 5:1.8 6:-0.0147066 7:0.62187201 8:1.86018 9:0.00772306 10:0.77208501 11:1.86175 12:-0.18290199 13:0.49581599 14:1.80606 15:-0.225372 16:0.225806 17:1.7699701 18:-0.249327 19:0.236361 20:1.53002 21:-0.27069399 22:0.27331099 23:1.45028 24:0.179324 25:0.47074601 26:1.85716 27:0.221075 28:0.193646 29:1.8227 30:0.25110799 31:-0.051684801 32:1.68882 33:0.246565 34:-0.098765098 35:1.65859 36:-0.068390302 37:-0.028607201 38:1.6718 39:-0.086475499 40:-0.400576 41:1.62284 42:-0.080049403 43:-0.77999699 44:1.59419 45:-0.064810202 46:-0.78234398 47:1.47277 48:0.097449198 49:-0.038651899 50:1.69594 51:0.091744699 52:-0.43628201 53:1.63669 54:0.083297797 55:-0.78248101 56:1.62008 57:0.095614098 58:-0.78495902 59:1.49863 60:-0.0110853 61:0.54315102 62:1.8476599 63:-0.296321 64:0.270812 65:1.3442301 66:-0.26242799 67:0.31420401 68:1.424 69:0.25887001 70:-0.182348 71:1.63898 72:0.28183499 73:-0.092387997 74:1.6465 
-10 -10 -0 -0 -0 -0 -0 0:0.0151205 1:-0.035492498 2:1.72525 3:0 4:0.30000001 5:1.8 6:-0.014705 7:0.62187898 8:1.86016 9:0.0077674701 10:0.77205902 11:1.86173 12:-0.18290301 13:0.49575201 14:1.806 15:-0.224684 16:0.22657 17:1.773 18:-0.249406 19:0.236148 20:1.52986 21:-0.27074999 22:0.274185 23:1.4515899 24:0.179233 25:0.471104 26:1.85735 27:0.22107799 28:0.19357599 29:1.8227201 30:0.25114599 31:-0.0510846 32:1.68942 33:0.245131 34:-0.097881101 35:1.65931 36:-0.068379097 37:-0.0285937 38:1.6718 39:-0.0864494 40:-0.40085101 41:1.62291 42:-0.080137998 43:-0.77951002 44:1.59448 45:-0.064874701 46:-0.78186899 47:1.47306 48:0.097444601 49:-0.038681298 50:1.69599 51:0.091834299 52:-0.436663 53:1.6368999 54:0.083215497 55:-0.782444 56:1.62023 57:0.095555902 58:-0.784926 59:1.49878 60:-0.0110841 61:0.54315698 62:1.84763 63:-0.29741299 64:0.27363101 65:1.34991 66:-0.26332501 67:0.31461501 68:1.42504 69:0.257929 70:-0.18548299 71:1.63808 72:0.28233999 73:-0.106659 74:1.6461101 
-5.482590011382729 -2.713286560349917 -0 -0 -0 -0 -0 0:0.015177 1:-0.035491299 2:1.7252001 3:0 4:0.30000001 5:1.8 6:-0.0147527 7:0.62187201 8:1.86022 9:0.0077760299 10:0.77205497 11:1.86184 12:-0.182916 13:0.49558601 14:1.8057801 15:-0.22438399 16:0.22719 17:1.77449 18:-0.249559 19:0.235906 20:1.52974 21:-0.27059999 22:0.273523 23:1.4530801 24:0.17917 25:0.47135299 26:1.8575 27:0.221009 28:0.19327 29:1.8227 30:0.25110701 31:-0.049979098 32:1.68916 33:0.24745999 34:-0.097976699 35:1.65953 36:-0.068331599 37:-0.0285386 38:1.67161 39:-0.086481698 40:-0.40139899 41:1.62325 42:-0.079798602 43:-0.780846 44:1.59454 45:-0.064490199 46:-0.78318101 47:1.47313 48:0.097493596 49:-0.038734701 50:1.69608 51:0.091665998 52:-0.43699199 53:1.6370699 54:0.083132997 55:-0.78290701 56:1.62025 57:0.095526204 58:-0.78537798 59:1.4988101 60:-0.0111201 61:0.54315197 62:1.84768 63:-0.29717699 64:0.271467 65:1.34797 66:-0.263356 67:0.31587401 68:1.42355 69:0.26144901 70:-0.18634 71:1.64561 72:0.28374499 73:-0.110683 74:1.64381 
-0 -0 -0 -6.812036974628869 -0 -0 -0 0:0.0152164 1:-0.035498701 2:1.72521 3:0 4:0.30000001 5:1.8 6:-0.0147808 7:0.62187397 8:1.86023 9:0.0077848202 10:0.772048 11:1.86172 12:-0.182909 13:0.49551699 14:1.80576 15:-0.22394601 16:0.227708 17:1.77259 18:-0.249725 19:0.23576 20:1.52961 21:-0.270879 22:0.27418 23:1.45129 24:0.17919099 25:0.47176301 26:1.85771 27:0.220915 28:0.19284201 29:1.82244 30:0.25099701 31:-0.050372899 32:1.68934 33:0.245667 34:-0.097988501 35:1.65904 36:-0.068294004 37:-0.0285715 38:1.6716501 39:-0.086440101 40:-0.40163499 41:1.62326 42:-0.080481097 43:-0.77950001 44:1.5954 45:-0.065145299 46:-0.78186101 47:1.47399 48:0.097532302 49:-0.038720001 50:1.69609 51:0.091617003 52:-0.43722999 53:1.63729 54:0.083029099 55:-0.78298599 56:1.62035 57:0.095439397 58:-0.78545702 59:1.49891 60:-0.0111417 61:0.543154 62:1.84769 63:-0.29593 64:0.27630499 65:1.34534 66:-0.263181 67:0.31469601 68:1.42568 69:0.25981 70:-0.18238699 71:1.64671 72:0.280256 73:-0.078472197 74:1.65843 
-0 -0 -10 -0 -10 -0 -0 0:0.0154119 1:-0.0342694 2:1.72431 3:0 4:0.30000001 5:1.8 6:-0.0150834 7:0.62055099 8:1.86137 9:0.0071095899 10:0.77301598 11:1.86845 12:-0.179695 13:0.496813 14:1.80641 15:-0.207664 16:0.27215499 17:1.77051 18:-0.247702 19:0.25899401 20:1.48603 21:-0.26123601 22:0.27790299 23:1.46108 24:0.17766701 25:0.47290599 26:1.86041 27:0.22264101 28:0.196909 29:1.82092 30:0.26966599 31:0.000116989 32:1.69605 33:0.27624801 34:-0.075235099 35:1.65194 36:-0.067933597 37:-0.0275557 38:1.6710401 39:-0.080638297 40:-0.41276199 41:1.6247801 42:-0.0745527 43:-0.77652597 44:1.60324 45:-0.058614299 46:-0.778813 47:1.48191 48:0.097816303 49:-0.0373432 50:1.6950099 51:0.0966921 52:-0.43679899 53:1.64122 54:0.088187799 55:-0.782781 56:1.6275001 57:0.101212 58:-0.78513098 59:1.50616 60:-0.0113423 61:0.54217398 62:1.8485 63:-0.29538301 64:0.296507 65:1.36581 66:-0.24778 67:0.343674 68:1.44921 69:0.286551 70:-0.16496401 71:1.6332901 72:0.29945299 73:-0.064342298 74:1.62863 
-0 -0 -1.022772254509573 -0 -10 -0 -0 0:0.0154532 1:-0.034242701 2:1.7243 3:0 4:0.30000001 5:1.8 6:-0.0151365 7:0.62050498 8:1.86139 9:0.00714928 10:0.77301401 11:1.86842 12:-0.17973 13:0.49686101 14:1.80644 15:-0.207607 16:0.27218899 17:1.77055 18:-0.24809401 19:0.259397 20:1.48489 21:-0.260555 22:0.278216 23:1.46047 24:0.17770401 25:0.47290999 26:1.86046 27:0.222672 28:0.19684 29:1.82092 30:0.269454 31:-0.000103712 32:1.69592 33:0.27438501 34:-0.073732696 35:1.65174 36:-0.067881398 37:-0.027526701 38:1.67102 39:-0.080559902 40:-0.40685901 41:1.62488 42:-0.074376598 43:-0.77711099 44:1.6030999 45:-0.058432799 46:-0.77938598 47:1.48177 48:0.0978394 49:-0.037319802 50:1.6950099 51:0.096741199 52:-0.43676299 53:1.64122 54:0.088276498 55:-0.78272098 56:1.62747 57:0.101308 58:-0.78506899 59:1.50613 60:-0.0113835 61:0.54214102 62:1.84852 63:-0.29505801 64:0.29851899 65:1.36893 66:-0.24782 67:0.34378001 68:1.4492 69:0.285281 70:-0.166536 71:1.6305 72:0.299501 73:-0.064572699 74:1.63155 
-0 -0 -0 -0 -2.889645220693238 -0 -0 0:0.0154735 1:-0.034217998 2:1.7243 3:0 4:0.30000001 5:1.8 6:-0.0151719 7:0.62046599 8:1.86141 9:0.0071040299 10:0.77298099 11:1.8684601 12:-0.17973 13:0.49685401 14:1.80645 15:-0.207619 16:0.27218601 17:1.77054 18:-0.24810299 19:0.25948799 20:1.4847701 21:-0.260506 22:0.27744401 23:1.46041 24:0.177678 25:0.473005 26:1.86045 27:0.222655 28:0.197024 29:1.82111 30:0.26908001 31:0.00030906501 32:1.69654 33:0.27378401 34:-0.076263301 35:1.65114 36:-0.067858703 37:-0.0275109 38:1.67102 39:-0.079841301 40:-0.414767 41:1.62567 42:-0.0743521 43:-0.77710599 44:1.6030999 45:-0.0584208 46:-0.77937901 47:1.48177 48:0.097855397 49:-0.037283801 50:1.6950099 51:0.096825801 52:-0.43675101 53:1.64125 54:0.088339098 55:-0.78280997 56:1.62746 57:0.101357 58:-0.785155 59:1.50612 60:-0.0114094 61:0.54211402 62:1.8485301 63:-0.295643 64:0.29461801 65:1.3612601 66:-0.24744999 67:0.34368601 68:1.4479001 69:0.28596899 70:-0.16575301 71:1.6319 72:0.29974899 73:-0.064379796 74:1.6284699 
-0 -0 -0 -0.8169556407859826 -0 -10 -10 0:0.0154909 1:-0.034207299 2:1.7243201 3:0 4:0.30000001 5:1.8 6:-0.0151845 7:0.62046498 8:1.8614 9:0.0070305001 10:0.77301598 11:1.8684601 12:-0.179814 13:0.49683401 14:1.80627 15:-0.20818 16:0.272203 17:1.77068 18:-0.248347 19:0.25993499 20:1.48356 21:-0.260544 22:0.27757201 23:1.4604 24:0.177663 25:0.47305 26:1.86044 27:0.22241201 28:0.197273 29:1.82137 30:0.26842099 31:-0.000148162 32:1.69645 33:0.26924899 34:-0.073891699 35:1.65213 36:-0.067845799 37:-0.027515899 38:1.67103 39:-0.079893999 40:-0.41084501 41:1.62562 42:-0.074365303 43:-0.77687901 44:1.603 45:-0.058405101 46:-0.77915502 47:1.48167 48:0.097879 49:-0.037256401 50:1.69505 51:0.096824899 52:-0.43691 53:1.64118 54:0.088613696 55:-0.78341001 56:1.62734 57:0.101656 58:-0.78574598 59:1.5060101 60:-0.0114187 61:0.54211199 62:1.8485301 63:-0.295012 64:0.29767099 65:1.36667 66:-0.247208 67:0.34213999 68:1.44958 69:0.28318399 70:-0.164505 71:1.62894 72:0.29281101 73:-0.0591092 74:1.63299 
-0 -0 -0 -0 -0 -4.053343126506616 -3.377983098291595 0:0.0155638 1:-0.034214001 2:1.72436 3:0 4:0.30000001 5:1.8 6:-0.0152221 7:0.620489 8:1.86139 9:0.0069845398 10:0.77298301 11:1.86834 12:-0.179974 13:0.49694699 14:1.80651 15:-0.20865899 16:0.272358 17:1.7709399 18:-0.248382 19:0.25983101 20:1.48317 21:-0.26076201 22:0.27858499 23:1.45995 24:0.177536 25:0.473068 26:1.86045 27:0.222132 28:0.197497 29:1.82129 30:0.266844 31:-0.00183931 32:1.6967601 33:0.26493099 34:-0.075893402 35:1.65317 36:-0.067745 37:-0.027579401 38:1.67119 39:-0.080298699 40:-0.41143 41:1.62472 42:-0.074205004 43:-0.77717203 44:1.60282 45:-0.058290899 46:-0.77944398 47:1.48149 48:0.097928897 49:-0.037216701 50:1.6950001 51:0.096779101 52:-0.43688899 53:1.64101 54:0.0890342 55:-0.782287 56:1.62682 57:0.102025 58:-0.784639 59:1.5054801 60:-0.0114466 61:0.54213297 62:1.8485301 63:-0.29693899 64:0.29583299 65:1.36045 66:-0.248318 67:0.34757501 68:1.44524 69:0.27972201 70:-0.163525 71:1.6294 72:0.29622599 73:-0.065397702 74:1.62878 
-0 -0 -0 -0 -0 -0 -0.5296082758733233 0:0.015651099 1:-0.0343238 2:1.72447 3:0 4:0.30000001 5:1.8 6:-0.015257 7:0.62058997 8:1.86132 9:0.0069038998 10:0.77310401 11:1.86885 12:-0.179965 13:0.49706399 14:1.80609 15:-0.209656 16:0.27319399 17:1.7642699 18:-0.24897499 19:0.26068801 20:1.48164 21:-0.26070499 22:0.279154 23:1.46047 24:0.177488 25:0.47191399 26:1.85935 27:0.221448 28:0.19681799 29:1.8207901 30:0.264649 31:-0.018485701 32:1.68477 33:0.26563001 34:-0.079345003 35:1.64794 36:-0.067651004 37:-0.027718101 38:1.67127 39:-0.081609897 40:-0.40131599 41:1.62274 42:-0.073739499 43:-0.77935302 44:1.60198 45:-0.057886399 46:-0.78159302 47:1.4806499 48:0.098014802 49:-0.037355099 50:1.69524 51:0.0964038 52:-0.43679601 53:1.64095 54:0.088488303 55:-0.78473097 56:1.6269701 57:0.101437 58:-0.78705299 59:1.50563 60:-0.0114773 61:0.54219502 62:1.84847 63:-0.29645199 64:0.296341 65:1.3600399 66:-0.24718601 67:0.34421301 68:1.4457 69:0.27898201 70:-0.163958 71:1.63096 72:0.289058 73:-0.069759198 74:1.61825 
