svm_type c_svc
kernel_type rbf
gamma 0.1
nr_class 14
total_sv 446
rho 2.06992 0.0500365 -0.0153252 0 0.270961 -0.0212538 0 -0.102747 -0.0983704 0 -0.0455976 0 -0.0258765 -0.414136 -0.0321114 -0.0143256 -0.0622472 -0.121252 -0.110969 -0.272905 -0.132156 0.0247434 0.0846839 0.0677362 -0.461893 -0.343139 0.052174 -0.170707 -0.282404 -0.204405 -0.0238416 -0.102321 -0.241288 -0.0614047 0.00859473 -0.0844666 -0.0358367 0.075866 1.66533e-16 -0.106547 0.0898258 -0.0175783 -0.0053956 0 -0.0774868 -0.00137538 0.10161 0.0174709 0 0.0662592 0.107955 0.0458187 0.0330898 -0.000688817 0.0426348 0.30893 -0.192675 0.0234835 -0.0330693 -0.00233501 -0.296688 -0.131282 -0.272876 -0.0979682 0.00779778 0 0 0.0177679 0.0144821 0.242124 0 0 0 0.0730205 0.000949204 0.192131 0.135268 -0.0810423 -0.174695 -0.089106 -0.00480533 0.348947 -0.0120926 -0.0867302 0.0872693 0 0.00716768 0.165785 0.305128 -0.0177959 -0.0371292
label 10 30 21 22 23 31 32 33 41 42 43 52 53 51
nr_sv 21 73 40 36 14 28 39 26 29 31 27 29 25 28
SV
10 0 0 0 0 0 0 0 0 0 0 0 0 0:0.0065883701 1:-0.0123037 2:1.73923 3:0 4:0.30000001 5:1.8 6:-0.0066591599 7:0.602642 8:1.84679 9:-0.0164083 10:0.75860202 11:1.85498 12:-0.17848 13:0.467309 14:1.8516901 15:-0.19968 16:0.19697399 17:1.82318 18:-0.20658299 19:-0.0114818 20:1.71706 21:-0.19946501 22:-0.087848596 23:1.67328 24:0.13322 25:0.48430499 26:1.80233 27:0.196429 28:0.52625901 29:1.5700099 30:0.127344 31:0.55640203 32:1.33009 33:0.099376701 34:0.56903499 35:1.22904 36:-0.073969103 37:-0.0147863 38:1.71314 39:-0.088063903 40:-0.371997 41:1.64051 42:-0.080815002 43:-0.745498 44:1.65751 45:-0.082217097 46:-0.82234401 47:1.58303 48:0.085751697 49:-0.00098729902 50:1.69065 51:0.12865201 52:-0.35586199 53:1.64298 54:0.121767 55:-0.73180997 56:1.65562 57:0.12093 58:-0.80441302 59:1.5723799 60:-0.0049360702 61:0.528332 62:1.8374701 63:-0.189981 64:-0.163573 65:1.6503299 66:-0.15991201 67:-0.078106701 68:1.6325099 69:0.083149798 70:0.57651103 71:1.1457601 72:0.0616256 73:0.53157097 74:1.2054501 
10 10 1.188468432348294 0 10 0 0 10 0 0 0 0 0 0:0.0066665001 1:-0.0122452 2:1.7392 3:0 4:0.30000001 5:1.8 6:-0.0067428099 7:0.60251302 8:1.8468699 9:-0.0161395 10:0.75847697 11:1.85501 12:-0.178523 13:0.46721399 14:1.85185 15:-0.199696 16:0.196981 17:1.82321 18:-0.206387 19:-0.0115167 20:1.71716 21:-0.19906799 22:-0.086838096 23:1.67143 24:0.133103 25:0.48443401 26:1.80233 27:0.19279601 28:0.52610302 29:1.56896 30:0.126661 31:0.55639797 32:1.32605 33:0.100373 34:0.568555 35:1.2294199 36:-0.073867597 37:-0.0147635 38:1.71319 39:-0.0879291 40:-0.37259099 41:1.6408499 42:-0.080801398 43:-0.74543899 44:1.6575 45:-0.0822317 46:-0.82228702 47:1.58302 48:0.085860498 49:-0.00087318802 50:1.6905 51:0.128791 52:-0.355914 53:1.643 54:0.121831 55:-0.73221397 56:1.6555901 57:0.120925 58:-0.804802 59:1.57234 60:-0.00499237 61:0.52823198 62:1.83753 63:-0.19823501 64:-0.156868 65:1.65316 66:-0.15891001 67:-0.081200801 68:1.62958 69:0.089627303 70:0.57562602 71:1.14537 72:0.0618794 73:0.530572 74:1.20032 
10 10 0 0 0 0 0 10 0 0 0 0 10 0:0.0066090701 1:-0.0120807 2:1.7391 3:0 4:0.30000001 5:1.8 6:-0.0066329101 7:0.60216302 8:1.84715 9:-0.016185001 10:0.75853503 11:1.85493 12:-0.17865101 13:0.46743 14:1.85188 15:-0.199669 16:0.197119 17:1.8233401 18:-0.206512 19:-0.0113887 20:1.71732 21:-0.199386 22:-0.0862725 23:1.67416 24:0.132973 25:0.48458999 26:1.80223 27:0.191888 28:0.52603698 29:1.56862 30:0.12603199 31:0.55642599 32:1.3245 33:0.100515 34:0.56892401 35:1.22886 36:-0.073939003 37:-0.0146169 38:1.71308 39:-0.088004299 40:-0.37277099 41:1.6408 42:-0.080911703 43:-0.74555302 44:1.65776 45:-0.082354702 46:-0.82218999 47:1.58281 48:0.0858244 49:-0.00069332903 50:1.69042 51:0.128703 52:-0.35574999 53:1.64302 54:0.121684 55:-0.732095 56:1.65549 57:0.120867 58:-0.80469298 59:1.57226 60:-0.0049132099 61:0.52796501 62:1.8377301 63:-0.192983 64:-0.16234601 65:1.65323 66:-0.159555 67:-0.0786639 68:1.63169 69:0.083549902 70:0.57582998 71:1.14424 72:0.061682198 73:0.53282201 74:1.20285 
10 10 0 0 0 0 0 10 10 0 0 0 0 0:0.0066392901 1:-0.0120619 2:1.73906 3:0 4:0.30000001 5:1.8 6:-0.00666105 7:0.60220701 8:1.84723 9:-0.0160408 10:0.75854403 11:1.85484 12:-0.178642 13:0.46732199 14:1.8518699 15:-0.19952001 16:0.197207 17:1.82328 18:-0.206449 19:-0.0109309 20:1.71647 21:-0.19945399 22:-0.086604603 23:1.67251 24:0.132943 25:0.48451099 26:1.80211 27:0.19708601 28:0.52546698 29:1.56988 30:0.128341 31:0.55537301 32:1.33254 33:0.100993 34:0.56863201 35:1.22747 36:-0.073842898 37:-0.0145742 38:1.71331 39:-0.087939598 40:-0.37345901 41:1.64098 42:-0.080927402 43:-0.74565601 44:1.65769 45:-0.082349703 46:-0.82224703 47:1.5826401 48:0.085839197 49:-0.00066211302 50:1.69025 51:0.128701 52:-0.35585701 53:1.64291 54:0.121555 55:-0.73242098 56:1.6555099 57:0.120841 58:-0.80491298 59:1.5721 60:-0.0049365601 61:0.52798498 62:1.83779 63:-0.200544 64:-0.15608799 65:1.64705 66:-0.158328 67:-0.081142597 68:1.62754 69:0.086518496 70:0.57424301 71:1.14077 72:0.059982799 73:0.530146 74:1.19979 
10 0 0 0 0 0 0 0 0 0 0 0 0 0:0.0066228299 1:-0.0120404 2:1.73902 3:0 4:0.30000001 5:1.8 6:-0.0066150199 7:0.60223103 8:1.84728 9:-0.0159826 10:0.75833702 11:1.85473 12:-0.17879 13:0.46727899 14:1.85188 15:-0.19959 16:0.197043 17:1.82333 18:-0.206164 19:-0.0112654 20:1.71687 21:-0.199627 22:-0.087384701 23:1.67269 24:0.132879 25:0.48444399 26:1.80212 27:0.19242699 28:0.525298 29:1.56857 30:0.12899899 31:0.55496901 32:1.3349 33:0.100667 34:0.56830901 35:1.22957 36:-0.073862702 37:-0.0145676 38:1.71323 39:-0.088111699 40:-0.374064 41:1.64123 42:-0.081089802 43:-0.74571598 44:1.65774 45:-0.082507201 46:-0.82228702 47:1.5826499 48:0.085821599 49:-0.00063867902 50:1.69024 51:0.12871701 52:-0.35622001 53:1.64294 54:0.121583 55:-0.73259503 56:1.65549 57:0.120529 58:-0.805206 59:1.57228 60:-0.0049112202 61:0.52799302 62:1.8378299 63:-0.1998 64:-0.156883 65:1.65134 66:-0.158445 67:-0.087562896 68:1.62681 69:0.084543601 70:0.576855 71:1.14639 72:0.061596099 73:0.53063399 74:1.20302 
10 2.534495648198869 0 0 10 0 0 0 0 0 0 0 0 0:0.00659113 1:-0.0119227 2:1.73887 3:0 4:0.30000001 5:1.8 6:-0.00657715 7:0.60202801 8:1.84763 9:-0.0158186 10:0.75843 11:1.85446 12:-0.178324 13:0.467448 14:1.8515199 15:-0.19965699 16:0.197337 17:1.82338 18:-0.20650201 19:-0.0109086 20:1.71679 21:-0.19957 22:-0.085966296 23:1.6717401 24:0.132741 25:0.484501 26:1.802 27:0.19219901 28:0.52575898 29:1.56849 30:0.12651899 31:0.555291 32:1.32775 33:0.099760503 34:0.56825799 35:1.22824 36:-0.073906399 37:-0.0144557 38:1.71305 39:-0.088145897 40:-0.374322 41:1.64125 42:-0.081207298 43:-0.74561501 44:1.65757 45:-0.082600199 46:-0.82217002 47:1.58244 48:0.0858014 49:-0.000523336 50:1.69011 51:0.128759 52:-0.35619801 53:1.64279 54:0.121906 55:-0.73165601 56:1.65529 57:0.120523 58:-0.80457199 59:1.5726 60:-0.0048823399 61:0.52783298 62:1.83808 63:-0.198552 64:-0.154449 65:1.6493599 66:-0.16066501 67:-0.079233304 68:1.63112 69:0.084444702 70:0.57282603 71:1.13931 72:0.064149402 73:0.53942901 74:1.21831 
10 0 0 0 3.758290699477119 0 0 0 0 0 0 0 10 0:0.0066508101 1:-0.0118678 2:1.73884 3:0 4:0.30000001 5:1.8 6:-0.0066196499 7:0.60199898 8:1.84768 9:-0.0158021 10:0.75840998 11:1.8544 12:-0.17824399 13:0.467731 14:1.85167 15:-0.19963101 16:0.197467 17:1.8235 18:-0.20577 19:-0.0111455 20:1.71766 21:-0.20033599 22:-0.086744003 23:1.67352 24:0.132771 25:0.48436999 26:1.8019 27:0.19135 28:0.52571899 29:1.56818 30:0.12752301 31:0.55477101 32:1.3314 33:0.0997888 34:0.56880403 35:1.2283 36:-0.073835298 37:-0.0143951 38:1.71299 39:-0.088088997 40:-0.37462401 41:1.64135 42:-0.081216998 43:-0.74537998 44:1.65749 45:-0.082601704 46:-0.82205099 47:1.58261 48:0.0858512 49:-0.00048046 50:1.69011 51:0.128786 52:-0.35634899 53:1.6429 54:0.121814 55:-0.73174 56:1.65534 57:0.120467 58:-0.80452698 59:1.57242 60:-0.0049130102 61:0.527807 62:1.83813 63:-0.199972 64:-0.156846 65:1.6515599 66:-0.1591 67:-0.078943498 68:1.6301399 69:0.081206299 70:0.57505602 71:1.14394 72:0.0623184 73:0.53523201 74:1.21018 
10 0 0 0 0 0 0 10 0 0 0 0 0 0:0.00665987 1:-0.0118345 2:1.7388 3:0 4:0.30000001 5:1.8 6:-0.0066270302 7:0.60197699 8:1.8477401 9:-0.0156886 10:0.75836498 11:1.85434 12:-0.178239 13:0.46780699 14:1.85236 15:-0.199405 16:0.196932 17:1.82373 18:-0.20528901 19:-0.0114654 20:1.71741 21:-0.199642 22:-0.086933099 23:1.67304 24:0.132742 25:0.48435101 26:1.80186 27:0.18912999 28:0.525576 29:1.56754 30:0.128794 31:0.55482298 32:1.33564 33:0.098829098 34:0.56837398 35:1.22957 36:-0.073803701 37:-0.0143594 38:1.71289 39:-0.087994501 40:-0.374942 41:1.6414599 42:-0.081427298 43:-0.74636698 44:1.65795 45:-0.0826509 46:-0.82260501 47:1.58214 48:0.085870102 49:-0.00045111001 50:1.69013 51:0.12880599 52:-0.356361 53:1.64296 54:0.121531 55:-0.73263502 56:1.65497 57:0.120522 58:-0.80516601 59:1.57164 60:-0.0049186898 61:0.527785 62:1.8381701 63:-0.196886 64:-0.156956 65:1.65057 66:-0.160615 67:-0.081811003 68:1.62975 69:0.085409701 70:0.57853502 71:1.15253 72:0.059715599 73:0.52822399 74:1.19169 
10 0 0 0 0 0 0 0 0 0 0 0 0 0:0.0066562002 1:-0.0118061 2:1.73877 3:0 4:0.30000001 5:1.8 6:-0.0066162301 7:0.60198897 8:1.84778 9:-0.0156893 10:0.75828701 11:1.8543 12:-0.178151 13:0.46769899 14:1.85255 15:-0.19930001 16:0.197493 17:1.82391 18:-0.205208 19:-0.0108962 20:1.7175699 21:-0.200137 22:-0.087129503 23:1.6725 24:0.132763 25:0.484317 26:1.80181 27:0.188747 28:0.52548403 29:1.5673701 30:0.127046 31:0.55495203 32:1.33004 33:0.100196 34:0.56887299 35:1.23037 36:-0.073798001 37:-0.0143493 38:1.71284 39:-0.087861903 40:-0.375294 41:1.64153 42:-0.081502303 43:-0.74630898 44:1.65794 45:-0.082514197 46:-0.82252699 47:1.58208 48:0.085849702 49:-0.000416953 50:1.69011 51:0.128849 52:-0.355959 53:1.6429 54:0.121666 55:-0.73294801 56:1.65475 57:0.120411 58:-0.80555302 59:1.57155 60:-0.0049132798 61:0.52778798 62:1.8382 63:-0.198823 64:-0.156772 65:1.64947 66:-0.160478 67:-0.088395603 68:1.6255 69:0.083222099 70:0.57427198 71:1.14425 72:0.061127599 73:0.53159302 74:1.20072 
10 0 0 0 10 0 0 0 0 0 0 0 0 0:0.00689233 1:-0.0117325 2:1.73891 3:0 4:0.30000001 5:1.8 6:-0.00750408 7:0.60182202 8:1.84727 9:-0.0154533 10:0.75824201 11:1.85447 12:-0.17785899 13:0.46774599 14:1.85274 15:-0.19913501 16:0.197402 17:1.8240401 18:-0.205926 19:-0.010988 20:1.71777 21:-0.19806901 22:-0.086874403 23:1.67092 24:0.133037 25:0.48429501 26:1.8019 27:0.18699101 28:0.52520603 29:1.56691 30:0.125166 31:0.55564499 32:1.32133 33:0.100093 34:0.56934202 35:1.22725 36:-0.073562801 37:-0.0142771 38:1.71297 39:-0.087571301 40:-0.375195 41:1.6416399 42:-0.081214398 43:-0.74581301 44:1.65797 45:-0.082394302 46:-0.82200497 47:1.58205 48:0.086086303 49:-0.00034507201 50:1.6902601 51:0.129081 52:-0.35606 53:1.64317 54:0.122587 55:-0.73120701 56:1.65415 57:0.120594 58:-0.80443901 59:1.5720201 60:-0.0055264598 61:0.52765501 62:1.83786 63:-0.189852 64:-0.16086499 65:1.64486 66:-0.15908401 67:-0.082022302 68:1.62813 69:0.080977701 70:0.573798 71:1.14188 72:0.067941599 73:0.53887701 74:1.22407 
10 10 10 0 10 4.396419831977311 0 0 0 0 0 0 0 0:0.00702581 1:-0.0116147 2:1.73879 3:0 4:0.30000001 5:1.8 6:-0.0075460598 7:0.601677 8:1.8475699 9:-0.0154292 10:0.75827301 11:1.85461 12:-0.178004 13:0.467444 14:1.8527 15:-0.19923 16:0.19795699 17:1.82435 18:-0.206111 19:-0.0106687 20:1.71859 21:-0.19961201 22:-0.087562203 23:1.67406 24:0.133022 25:0.48436099 26:1.80181 27:0.187784 28:0.52547801 29:1.56706 30:0.124964 31:0.55572402 32:1.3207 33:0.100355 34:0.56910098 35:1.2294 36:-0.073425598 37:-0.0141599 38:1.71284 39:-0.087607503 40:-0.37523201 41:1.64158 42:-0.0812978 43:-0.74561399 44:1.6579 45:-0.082501598 46:-0.82179701 47:1.5819499 48:0.086197004 49:-0.000242226 50:1.69014 51:0.12901901 52:-0.35621399 53:1.64316 54:0.122264 55:-0.73216498 56:1.65386 57:0.120628 58:-0.80501002 59:1.57107 60:-0.0055589401 61:0.527547 62:1.83807 63:-0.187554 64:-0.16655 65:1.64303 66:-0.15782 67:-0.0716343 68:1.63346 69:0.088762797 70:0.57522202 71:1.1439199 72:0.066006601 73:0.54038501 74:1.22312 
10 10 0 0 10 0 0 10 0 0 0 0 10 0:0.0070970501 1:-0.01144 2:1.73856 3:0 4:0.30000001 5:1.8 6:-0.0076322001 7:0.60141701 8:1.84799 9:-0.0153174 10:0.75831801 11:1.85479 12:-0.17804401 13:0.46773201 14:1.8528399 15:-0.198843 16:0.19963001 17:1.8250099 18:-0.20613401 19:-0.0086898403 20:1.71861 21:-0.19958299 22:-0.085560702 23:1.67518 24:0.133127 25:0.484433 26:1.80155 27:0.188941 28:0.52583098 29:1.56712 30:0.12499 31:0.55586499 32:1.32038 33:0.101084 34:0.56999499 35:1.22955 36:-0.073387302 37:-0.0140192 38:1.71255 39:-0.087490797 40:-0.37575001 41:1.64161 42:-0.081248701 43:-0.74543899 44:1.65756 45:-0.082536504 46:-0.82168603 47:1.58175 48:0.086300798 49:-3.9542101e-05 50:1.68997 51:0.129049 52:-0.35566601 53:1.6427701 54:0.122252 55:-0.73224503 56:1.65355 57:0.12062 58:-0.80523002 59:1.57101 60:-0.00563101 61:0.52734798 62:1.83837 63:-0.19749001 64:-0.15605199 65:1.65279 66:-0.15968201 67:-0.082226098 68:1.63051 69:0.085256301 70:0.57211399 71:1.13843 72:0.0648214 73:0.53750902 74:1.21753 
10 10 0 0 10 0 0 10 0 0 0 0 10 0:0.0070789298 1:-0.0114304 2:1.73857 3:0 4:0.30000001 5:1.8 6:-0.0075175199 7:0.60149401 8:1.84795 9:-0.0154018 10:0.75826401 11:1.85475 12:-0.178095 13:0.46772301 14:1.85287 15:-0.19873001 16:0.19880401 17:1.8248301 18:-0.206275 19:-0.0102405 20:1.71766 21:-0.199836 22:-0.086516798 23:1.67345 24:0.13304 25:0.48434001 26:1.80156 27:0.188714 28:0.52573901 29:1.56709 30:0.124298 31:0.55594403 32:1.31822 33:0.0988857 34:0.56901401 35:1.22575 36:-0.073415004 37:-0.0140259 38:1.71254 39:-0.087602697 40:-0.375898 41:1.64158 42:-0.081366703 43:-0.74549598 44:1.65739 45:-0.082714997 46:-0.821769 47:1.58164 48:0.086281501 49:-2.68351e-05 50:1.6900001 51:0.128916 52:-0.35595101 53:1.6427701 54:0.122093 55:-0.73263001 56:1.6534899 57:0.120378 58:-0.80540502 59:1.57058 60:-0.0055621602 61:0.52739203 62:1.8383501 63:-0.199992 64:-0.153744 65:1.64934 66:-0.160019 67:-0.080237299 68:1.63027 69:0.085872501 70:0.57617199 71:1.14531 72:0.063386299 73:0.53435302 74:1.20793 
10 10 0 0 10 0 0 0 0 0 0 0 10 0:0.0070791398 1:-0.0113618 2:1.73862 3:0 4:0.30000001 5:1.8 6:-0.0074923402 7:0.60148001 8:1.84789 9:-0.0153691 10:0.75829899 11:1.85471 12:-0.17825399 13:0.46783599 14:1.85314 15:-0.198706 16:0.19919901 17:1.82491 18:-0.206496 19:-0.0097287605 20:1.71989 21:-0.199365 22:-0.086227201 23:1.6742899 24:0.13302299 25:0.48437399 26:1.80142 27:0.18915799 28:0.52601999 29:1.56712 30:0.12389 31:0.556086 32:1.31787 33:0.099326998 34:0.56951499 35:1.22997 36:-0.073412798 37:-0.0139425 38:1.71254 39:-0.087303899 40:-0.37649801 41:1.64215 42:-0.0813976 43:-0.74536699 44:1.65728 45:-0.0828605 46:-0.82168102 47:1.58162 48:0.086272702 49:1.6149101e-05 50:1.6900899 51:0.128874 52:-0.355937 53:1.64272 54:0.121933 55:-0.73292297 56:1.6536601 57:0.120456 58:-0.80560797 59:1.57061 60:-0.0055466401 61:0.52737498 62:1.83831 63:-0.19864599 64:-0.157364 65:1.65318 66:-0.160714 67:-0.085862897 68:1.6287301 69:0.088334203 70:0.57469499 71:1.14451 72:0.062756099 73:0.53750598 74:1.2155 
10 0 0 0 0 0 0 10 10 9.627526210383154 0 0 10 0:0.0069525498 1:-0.0111027 2:1.7384599 3:0 4:0.30000001 5:1.8 6:-0.00721663 7:0.60103899 8:1.84811 9:-0.015362 10:0.75836998 11:1.85483 12:-0.178076 13:0.468007 14:1.85334 15:-0.198581 16:0.199075 17:1.82493 18:-0.20623399 19:-0.0098359799 20:1.71987 21:-0.199782 22:-0.085497998 23:1.67492 24:0.13288701 25:0.48464 26:1.80129 27:0.18854301 28:0.52617002 29:1.5668401 30:0.127445 31:0.55520302 32:1.33218 33:0.098386198 34:0.56932801 35:1.23206 36:-0.073546603 37:-0.0136781 38:1.71237 39:-0.087414697 40:-0.37637499 41:1.6420799 42:-0.081585199 43:-0.74504602 44:1.65711 45:-0.083151899 46:-0.821428 47:1.5816 48:0.086149998 49:0.000264084 50:1.68993 51:0.12872399 52:-0.355683 53:1.64257 54:0.1218 55:-0.73286402 56:1.65337 57:0.120351 58:-0.80558002 59:1.57038 60:-0.00535816 61:0.52705002 62:1.83847 63:-0.199812 64:-0.15409601 65:1.6498801 66:-0.16052701 67:-0.0809431 68:1.63034 69:0.083673999 70:0.57357001 71:1.14215 72:0.061044499 73:0.53035998 74:1.20547 
10 5.485193841810552 0 3.988199815818237 10 0 0 0 0 0 0 0 0.8222323129742185 0:0.0068819299 1:-0.0111121 2:1.73838 3:0 4:0.30000001 5:1.8 6:-0.0070419102 7:0.60112602 8:1.84824 9:-0.015393 10:0.75825799 11:1.85479 12:-0.178112 13:0.46784601 14:1.85333 15:-0.198678 16:0.199155 17:1.82494 18:-0.206165 19:-0.0096910102 20:1.71972 21:-0.19948401 22:-0.0856236 23:1.67378 24:0.132698 25:0.484534 26:1.80123 27:0.190033 28:0.52691299 29:1.56738 30:0.127855 31:0.55496699 32:1.3353601 33:0.098398603 34:0.56907701 35:1.2314 36:-0.073623598 37:-0.0137139 38:1.71242 39:-0.087487698 40:-0.376443 41:1.6419801 42:-0.081658199 43:-0.74526501 44:1.65677 45:-0.083277702 46:-0.82177502 47:1.58156 48:0.086082399 49:0.00026320299 50:1.6898201 51:0.12864199 52:-0.355656 53:1.64252 54:0.121582 55:-0.73236102 56:1.65335 57:0.120292 58:-0.80522197 59:1.5706 60:-0.0052422099 61:0.52710301 62:1.83856 63:-0.197861 64:-0.15676001 65:1.65035 66:-0.160748 67:-0.079503402 68:1.63184 69:0.086342402 70:0.57581699 71:1.14415 72:0.062975198 73:0.53523099 74:1.21179 
10 0 0 0 10 0 0 0 0 0 0 0 10 0:0.0068888799 1:-0.0110433 2:1.73825 3:0 4:0.30000001 5:1.8 6:-0.00707536 7:0.60103297 8:1.8485301 9:-0.0153144 10:0.75819302 11:1.85491 12:-0.177958 13:0.46747801 14:1.85357 15:-0.198715 16:0.19967499 17:1.825 18:-0.205624 19:-0.0090894299 20:1.71954 21:-0.19975799 22:-0.085399598 23:1.67456 24:0.13269401 25:0.48449001 26:1.8011301 27:0.189271 28:0.52685302 29:1.56708 30:0.128039 31:0.55503303 32:1.33665 33:0.098474897 34:0.57001102 35:1.23254 36:-0.073563397 37:-0.0136649 38:1.71237 39:-0.0874504 40:-0.37655699 41:1.6419801 42:-0.0816871 43:-0.74529999 44:1.65686 45:-0.083202198 46:-0.82186002 47:1.58175 48:0.086082503 49:0.000348995 50:1.68962 51:0.128553 52:-0.35578901 53:1.64249 54:0.12158 55:-0.73641199 56:1.65397 57:0.12033 58:-0.80774099 59:1.5686899 60:-0.00526535 61:0.52702898 62:1.83877 63:-0.198889 64:-0.156646 65:1.65119 66:-0.16017801 67:-0.074602298 68:1.63281 69:0.0866495 70:0.577479 71:1.14731 72:0.0589099 73:0.53095198 74:1.20231 
10 0 0 0 0 0 0 0 0 0 10 0 10 0:0.0068894802 1:-0.0109423 2:1.7381999 3:0 4:0.30000001 5:1.8 6:-0.0070570898 7:0.600936 8:1.84855 9:-0.0152468 10:0.75827301 11:1.85483 12:-0.178243 13:0.467089 14:1.85412 15:-0.198763 16:0.19993301 17:1.825 18:-0.205267 19:-0.0088150902 20:1.71947 21:-0.20056 22:-0.085007899 23:1.67475 24:0.13273001 25:0.48457399 26:1.80108 27:0.19283 28:0.52781397 29:1.56813 30:0.126551 31:0.55589598 32:1.33242 33:0.098145097 34:0.570342 35:1.23317 36:-0.0735576 37:-0.0135831 38:1.71236 39:-0.087361597 40:-0.376598 41:1.64186 42:-0.081620298 43:-0.74523199 44:1.65692 45:-0.083393499 46:-0.82182401 47:1.58189 48:0.086079203 49:0.000456471 50:1.68953 51:0.12864 52:-0.355984 53:1.6423301 54:0.12158 55:-0.73629302 56:1.65385 57:0.120269 58:-0.807675 59:1.56866 60:-0.0052547799 61:0.52695101 62:1.8388 63:-0.19709399 64:-0.155829 65:1.64846 66:-0.159621 67:-0.074739099 68:1.6318901 69:0.077050403 70:0.57461703 71:1.1442699 72:0.0570083 73:0.53062803 74:1.20011 
10 0 0 0 0 0 0 0 0 0 10 0 10 0:0.0068748901 1:-0.0108717 2:1.73815 3:0 4:0.30000001 5:1.8 6:-0.0070428099 7:0.60095102 8:1.8485399 9:-0.0152099 10:0.758407 11:1.8548 12:-0.17824 13:0.46719801 14:1.854 15:-0.19886801 16:0.199765 17:1.8250099 18:-0.20526101 19:-0.0090592196 20:1.71964 21:-0.198898 22:-0.084838301 23:1.67365 24:0.13269 25:0.48473299 26:1.80108 27:0.191185 28:0.52762502 29:1.5676399 30:0.127606 31:0.55586499 32:1.33701 33:0.097603902 34:0.57073897 35:1.23355 36:-0.073577397 37:-0.0135069 38:1.71229 39:-0.087235302 40:-0.37685499 41:1.6421601 42:-0.081657797 43:-0.74519002 44:1.6567301 45:-0.083301 46:-0.82171297 47:1.58155 48:0.086063102 49:0.00052165799 50:1.6895 51:0.128594 52:-0.35583299 53:1.64219 54:0.121495 55:-0.736099 56:1.65372 57:0.120047 58:-0.80747801 59:1.5685199 60:-0.0052447999 61:0.52695602 62:1.8387901 63:-0.199663 64:-0.154438 65:1.65034 66:-0.16026001 67:-0.078923099 68:1.62999 69:0.0798719 70:0.57702398 71:1.14414 72:0.059865799 73:0.53296101 74:1.20467 
10 0 0 0 10 0 7.013827643581577 0 0 0 0 0 0 0:0.0071524498 1:-0.0108241 2:1.73827 3:0 4:0.30000001 5:1.8 6:-0.0078531299 7:0.60098898 8:1.84803 9:-0.0149329 10:0.75840402 11:1.855 12:-0.177939 13:0.46719599 14:1.85425 15:-0.19852699 16:0.19899499 17:1.82507 18:-0.204769 19:-0.0097578596 20:1.71954 21:-0.200285 22:-0.0865582 23:1.6747299 24:0.132946 25:0.48478001 26:1.80125 27:0.18886299 28:0.52706301 29:1.5670201 30:0.12779 31:0.55617201 32:1.33763 33:0.0982076 34:0.57071 35:1.2338901 36:-0.073298998 37:-0.0134614 38:1.71241 39:-0.086964399 40:-0.37674299 41:1.64226 42:-0.081381403 43:-0.74511403 44:1.65687 45:-0.0828318 46:-0.82157701 47:1.58154 48:0.086338103 49:0.00056957098 50:1.68963 51:0.128878 52:-0.35578999 53:1.64235 54:0.121648 55:-0.73579901 56:1.65399 57:0.120369 58:-0.80723602 59:1.56888 60:-0.00580842 61:0.52696699 62:1.83845 63:-0.187888 64:-0.160642 65:1.6468101 66:-0.15877099 67:-0.068054497 68:1.6349 69:0.084322304 70:0.578852 71:1.1458 72:0.0611117 73:0.53417802 74:1.20749 
10 0 0 0 10 10 0 0 0 0 0 9.130119810532182 10 0:0.0070055998 1:-0.010885 2:1.73836 3:0 4:0.30000001 5:1.8 6:-0.0074340501 7:0.60116899 8:1.84803 9:-0.0148808 10:0.75838798 11:1.85525 12:-0.17797901 13:0.46716499 14:1.85431 15:-0.19848999 16:0.19858 17:1.82499 18:-0.20479301 19:-0.0101476 20:1.71942 21:-0.199754 22:-0.087993197 23:1.67435 24:0.13289499 25:0.48482001 26:1.80126 27:0.191438 28:0.52784401 29:1.56786 30:0.126279 31:0.55678999 32:1.33289 33:0.0989158 34:0.57216197 35:1.23084 36:-0.073450603 37:-0.0134926 38:1.7124799 39:-0.087008603 40:-0.376755 41:1.64221 42:-0.081498802 43:-0.74465799 44:1.65672 45:-0.082731098 46:-0.82119399 47:1.58153 48:0.0861938 49:0.000471501 50:1.68972 51:0.128849 52:-0.35580701 53:1.64235 54:0.121602 55:-0.73576599 56:1.65394 57:0.120345 58:-0.80720901 59:1.56884 60:-0.0055581098 61:0.52707201 62:1.83846 63:-0.19597 64:-0.161285 65:1.65889 66:-0.159164 67:-0.077650897 68:1.63053 69:0.079964899 70:0.58125198 71:1.1471699 72:0.0611169 73:0.533889 74:1.20701 
-8.23262921341599 0 0 0 0 0 0 0 0 0 0 0 0 0:0.0063791401 1:-0.015905401 2:1.73315 3:0 4:0.30000001 5:1.8 6:-0.0057137101 7:0.60724998 8:1.85386 9:-0.0139224 10:0.77001703 11:1.86138 12:-0.17168701 13:0.46873099 14:1.86195 15:-0.192533 16:0.193822 17:1.84443 18:-0.20338599 19:-0.0202317 20:1.75429 21:-0.204502 22:-0.104216 23:1.71541 24:0.129711 25:0.46812999 26:1.75229 27:0.238453 28:0.538248 29:1.5472 30:0.12980101 31:0.47380501 32:1.34499 33:0.099744096 34:0.522605 35:1.1780601 36:-0.070044003 37:-0.0186985 38:1.71873 39:-0.079292499 40:-0.36422601 41:1.64141 42:-0.065123998 43:-0.71872401 44:1.63743 45:-0.064877003 46:-0.79171598 47:1.55362 48:0.080979899 49:-0.0034606 50:1.6729701 51:0.143058 52:-0.34413299 53:1.63378 54:0.15061601 55:-0.70943201 56:1.65236 57:0.15257201 58:-0.78219002 59:1.56801 60:-0.0043251999 61:0.531533 62:1.84281 63:-0.195647 64:-0.17561699 65:1.67946 66:-0.173995 67:-0.071896702 68:1.67019 69:0.089101799 70:0.53148001 71:1.10578 72:0.058927499 73:0.49450099 74:1.17404 
-0 0 0 0 0 0 0 0 0 0 0 0 10 0:-0.0044438401 1:-0.0166185 2:1.73511 3:0 4:0.30000001 5:1.8 6:0.0030531699 7:0.60901201 8:1.85022 9:-0.0139637 10:0.75986999 11:1.86351 12:-0.155357 13:0.46493 14:1.88257 15:-0.184576 16:0.18336201 17:1.8693399 18:-0.207656 19:-0.0219854 20:1.78613 21:-0.216021 22:-0.099814698 23:1.74681 24:0.121156 25:0.47276601 26:1.74998 27:0.18155999 28:0.49641201 29:1.50757 30:0.107131 31:0.522093 32:1.2709301 33:0.066399902 34:0.53237802 35:1.18068 36:-0.071242496 37:-0.021940099 38:1.72858 39:-0.081614502 40:-0.38078699 41:1.6533999 42:-0.062017102 43:-0.73304898 44:1.64799 45:-0.0607264 46:-0.79817098 47:1.57438 48:0.059425998 49:-0.00219267 50:1.6677901 51:0.120351 52:-0.35747099 53:1.6272 54:0.12842099 55:-0.72142798 56:1.65455 57:0.126132 58:-0.79394901 59:1.57406 60:0.00242497 61:0.53280699 62:1.84015 63:-0.219486 64:-0.16396099 65:1.72518 66:-0.246159 67:-0.116187 68:1.73678 69:0.0326088 70:0.53292799 71:1.11 72:0.0236028 73:0.49636501 74:1.17914 
-0 0 0 0 0 0 0 0 0 0 0 0 10 0:-0.0043483698 1:-0.0170257 2:1.73535 3:0 4:0.30000001 5:1.8 6:0.00314502 7:0.60929102 8:1.85025 9:-0.0140927 10:0.75952399 11:1.86368 12:-0.156727 13:0.46074399 14:1.88836 15:-0.184604 16:0.18364701 17:1.86929 18:-0.20917299 19:-0.0202967 20:1.78268 21:-0.216968 22:-0.098073602 23:1.74155 24:0.121035 25:0.47251901 26:1.75006 27:0.179013 28:0.49691099 29:1.5082999 30:0.107525 31:0.522587 32:1.26889 33:0.067178696 34:0.532655 35:1.1796 36:-0.070943698 37:-0.0223804 38:1.72878 39:-0.081608802 40:-0.381051 41:1.6533099 42:-0.062238101 43:-0.73343998 44:1.64801 45:-0.060609601 46:-0.79827499 47:1.57535 48:0.059384398 49:-0.0025659699 50:1.66799 51:0.120021 52:-0.35854599 53:1.62763 54:0.128341 55:-0.72187102 56:1.65485 57:0.12597901 58:-0.79398602 59:1.57447 60:0.00248653 61:0.53302199 62:1.84015 63:-0.217977 64:-0.164656 65:1.71483 66:-0.246454 67:-0.098310001 68:1.73892 69:0.034812901 70:0.53234202 71:1.1073999 72:0.0254 73:0.49710199 74:1.18042 
-0 0 0 0 0 0 0 0 0 0 0 0 1.732740380258999 0:-0.0044743698 1:-0.0169269 2:1.73559 3:0 4:0.30000001 5:1.8 6:0.00355658 7:0.60887998 8:1.84981 9:-0.0142639 10:0.759507 11:1.86388 12:-0.15542901 13:0.462989 14:1.88941 15:-0.184825 16:0.183149 17:1.86922 18:-0.20968799 19:-0.0206364 20:1.78233 21:-0.217656 22:-0.097811602 23:1.74263 24:0.120923 25:0.472478 26:1.75038 27:0.17689601 28:0.49690199 29:1.51256 30:0.106448 31:0.52218503 32:1.27131 33:0.069525599 34:0.53445703 35:1.17858 36:-0.071012802 37:-0.0222828 38:1.72903 39:-0.081918903 40:-0.38104701 41:1.6534899 42:-0.062394202 43:-0.73354 44:1.64828 45:-0.061067499 46:-0.79586399 47:1.5763201 48:0.059184901 49:-0.00236932 50:1.6682301 51:0.119859 52:-0.359074 53:1.62797 54:0.128233 55:-0.72183698 56:1.65499 57:0.12581199 58:-0.79421902 59:1.5746599 60:0.0027613901 61:0.53276002 62:1.8398401 63:-0.22068 64:-0.16316199 65:1.72096 66:-0.25179699 67:-0.102343 68:1.7424099 69:0.034204502 70:0.53535199 71:1.10971 72:0.0273253 73:0.49829 74:1.18032 
-10 0 0 0 0 0 0 0 0 0 0 0 0 0:0.00364397 1:-0.0186479 2:1.7437 3:0 4:0.30000001 5:1.8 6:-0.0030360401 7:0.609501 8:1.84241 9:-0.0099282702 10:0.77038199 11:1.85527 12:-0.168795 13:0.46893001 14:1.85957 15:-0.20004401 16:0.200505 17:1.82639 18:-0.22043601 19:-0.0026338401 20:1.7392401 21:-0.215304 22:-0.0767885 23:1.70283 24:0.129829 25:0.471616 26:1.77082 27:0.20400301 28:0.54317802 29:1.54875 30:0.126247 31:0.508012 32:1.25644 33:0.108192 34:0.51260298 35:1.15617 36:-0.065294303 37:-0.021480599 38:1.72417 39:-0.071397901 40:-0.39060399 41:1.65864 42:-0.043587901 43:-0.740224 44:1.65105 45:-0.037859298 46:-0.80135697 47:1.57784 48:0.073210597 49:-0.0066072601 50:1.68695 51:0.124996 52:-0.369874 53:1.6380301 54:0.120101 55:-0.72975898 56:1.63747 57:0.117858 58:-0.79433799 59:1.55865 60:-0.00237484 61:0.53336602 62:1.83421 63:-0.21511699 64:-0.13461401 65:1.6776201 66:-0.168155 67:-0.058077302 68:1.67251 69:0.077787302 70:0.506185 71:1.12974 72:0.061930198 73:0.48150301 74:1.15043 
-10 0 0 0 0 0 0 0 0 0 0 0 0 0:0.00360821 1:-0.0186901 2:1.74367 3:0 4:0.30000001 5:1.8 6:-0.00299738 7:0.60953099 8:1.84245 9:-0.00997537 10:0.77033299 11:1.85526 12:-0.168503 13:0.46927801 14:1.85932 15:-0.200133 16:0.200372 17:1.82631 18:-0.220513 19:-0.0027538401 20:1.73919 21:-0.21441101 22:-0.076430403 23:1.70082 24:0.12986401 25:0.47159201 26:1.77079 27:0.188281 28:0.491826 29:1.5439399 30:0.121679 31:0.50381398 32:1.24709 33:0.107592 34:0.51247799 35:1.1556 36:-0.065335199 37:-0.021508001 38:1.72414 39:-0.071500301 40:-0.39049199 41:1.65844 42:-0.043653201 43:-0.74058902 44:1.65134 45:-0.0372121 46:-0.80173701 47:1.5774699 48:0.073178999 49:-0.0066616698 50:1.68692 51:0.124971 52:-0.36993799 53:1.63797 54:0.120071 55:-0.729846 56:1.6374201 57:0.117694 58:-0.79452801 59:1.55883 60:-0.0023423401 61:0.533391 62:1.83424 63:-0.212161 64:-0.134756 65:1.67364 66:-0.16867 67:-0.055897899 68:1.6732399 69:0.074067101 70:0.50545299 71:1.12703 72:0.061934698 73:0.48166099 74:1.15239 
-8.594761123519286 0 0 0 0 0 0 0 0 0 0 0 0 0:0.0035931701 1:-0.0186706 2:1.74367 3:0 4:0.30000001 5:1.8 6:-0.0029799701 7:0.609505 8:1.84245 9:-0.0099382298 10:0.770316 11:1.85516 12:-0.168605 13:0.46949899 14:1.85948 15:-0.200141 16:0.200368 17:1.82629 18:-0.219209 19:-0.0028577901 20:1.73915 21:-0.213781 22:-0.074377097 23:1.70126 24:0.129862 25:0.47159499 26:1.77077 27:0.18420599 28:0.48990601 29:1.54214 30:0.12746499 31:0.504399 32:1.24338 33:0.10843 34:0.51312 35:1.1545399 36:-0.065337501 37:-0.0214974 38:1.72419 39:-0.071547598 40:-0.39016101 41:1.65826 42:-0.0435941 43:-0.740403 44:1.65113 45:-0.037258402 46:-0.80167103 47:1.5774601 48:0.073132299 49:-0.00658233 50:1.68679 51:0.124937 52:-0.36997199 53:1.63794 54:0.120044 55:-0.72970003 56:1.6375099 57:0.117683 58:-0.79452598 59:1.55885 60:-0.0023298501 61:0.53337401 62:1.83424 63:-0.211859 64:-0.133608 65:1.6742899 66:-0.16697299 67:-0.053567499 68:1.67234 69:0.076370597 70:0.50836301 71:1.12748 72:0.063752398 73:0.481457 74:1.14712 
-10 0 0 0 0 0 0 0 0 0 0 0 0 0:0.0023869399 1:-0.0117135 2:1.73643 3:0 4:0.30000001 5:1.8 6:-0.0027129101 7:0.60261899 8:1.85016 9:-0.0056603402 10:0.76597601 11:1.85865 12:-0.17253999 13:0.47297099 14:1.85906 15:-0.19877701 16:0.206967 17:1.8289599 18:-0.21648601 19:0.00202512 20:1.7363 21:-0.21715 22:-0.080853701 23:1.69951 24:0.136262 25:0.479029 26:1.7743599 27:0.192351 28:0.50884497 29:1.55509 30:0.12675799 31:0.51957399 32:1.29067 33:0.098053202 34:0.52819002 35:1.18757 36:-0.073736399 37:-0.0132882 38:1.71592 39:-0.0984018 40:-0.37098101 41:1.63273 42:-0.101842 43:-0.729343 44:1.62614 45:-0.104889 46:-0.79399198 47:1.54818 48:0.076341502 49:-0.00070849399 50:1.6806901 51:0.135205 52:-0.35211101 53:1.63534 54:0.148063 55:-0.72170699 56:1.66378 57:0.14938299 58:-0.78939903 59:1.58359 60:-0.0019767701 61:0.52806401 62:1.84007 63:-0.219304 64:-0.150712 65:1.67031 66:-0.17712 67:-0.072578497 68:1.65363 69:0.069986001 70:0.51759499 71:1.1351399 72:0.0701515 73:0.48351499 74:1.1977299 
-10 0 0 0 0 0 0 0 0 0 0 0 0 0:0.0024124801 1:-0.0116742 2:1.73646 3:0 4:0.30000001 5:1.8 6:-0.0027355 7:0.60262102 8:1.85004 9:-0.0057610199 10:0.76597297 11:1.85867 12:-0.172712 13:0.47266701 14:1.8603899 15:-0.198769 16:0.206487 17:1.8287899 18:-0.21656901 19:0.00168438 20:1.73668 21:-0.21744099 22:-0.080438398 23:1.6986901 24:0.136296 25:0.479013 26:1.7744 27:0.19219001 28:0.50888097 29:1.55373 30:0.12675001 31:0.51955301 32:1.29071 33:0.096944503 34:0.52832699 35:1.18979 36:-0.073672503 37:-0.0132699 38:1.71602 39:-0.098558202 40:-0.37070999 41:1.6325901 42:-0.101886 43:-0.72945303 44:1.62621 45:-0.10479 46:-0.79476702 47:1.54786 48:0.076340802 49:-0.00059395097 50:1.68062 51:0.135161 52:-0.35194799 53:1.63533 54:0.148038 55:-0.72168601 56:1.66382 57:0.149514 58:-0.78940201 59:1.58341 60:-0.0019917099 61:0.52806699 62:1.84 63:-0.21805701 64:-0.150499 65:1.66661 66:-0.176826 67:-0.074327901 68:1.64653 69:0.0711888 70:0.51724797 71:1.13456 72:0.070232198 73:0.48759601 74:1.2060601 
-9.561183944489219 0 0 0 0 0 0 0 0 0 0 0 0 0:0.0024484801 1:-0.0116714 2:1.73643 3:0 4:0.30000001 5:1.8 6:-0.0027795399 7:0.60263401 8:1.85007 9:-0.0058911699 10:0.76568103 11:1.8586 12:-0.172793 13:0.47215 14:1.86069 15:-0.19870999 16:0.206512 17:1.82871 18:-0.216453 19:0.00190742 20:1.7366199 21:-0.217647 22:-0.079380803 23:1.69831 24:0.13636699 25:0.479105 26:1.77452 27:0.19543301 28:0.51075101 29:1.5496 30:0.127013 31:0.51977998 32:1.2907 33:0.0967426 34:0.53049898 35:1.19181 36:-0.073662803 37:-0.0132724 38:1.71594 39:-0.098508097 40:-0.370395 41:1.63254 42:-0.101614 43:-0.72911501 44:1.62622 45:-0.104757 46:-0.79517001 47:1.5477999 48:0.076387197 49:-0.000581461 50:1.68059 51:0.135142 52:-0.35179901 53:1.6353199 54:0.148048 55:-0.72174102 56:1.66374 57:0.149552 58:-0.78939098 59:1.58359 60:-0.00202158 61:0.52807802 62:1.84001 63:-0.21729 64:-0.15015 65:1.67064 66:-0.18025801 67:-0.068673901 68:1.6571 69:0.0758624 70:0.51999301 71:1.13614 72:0.069980897 73:0.486123 74:1.20506 
-10 0 0 0 0 0 0 0 0 0 0 0 0 0:0.0024673301 1:-0.0116417 2:1.73641 3:0 4:0.30000001 5:1.8 6:-0.0027981 7:0.60260999 8:1.85006 9:-0.00589043 10:0.76556301 11:1.85858 12:-0.172665 13:0.47193101 14:1.86095 15:-0.19860201 16:0.20648301 17:1.8286901 18:-0.215455 19:-0.0131677 20:1.72809 21:-0.216637 22:-0.088958897 23:1.69266 24:0.13652401 25:0.47909701 26:1.77442 27:0.196236 28:0.51104802 29:1.54916 30:0.127149 31:0.52001202 32:1.29091 33:0.095169701 34:0.53038597 35:1.189 36:-0.073628701 37:-0.0132794 38:1.71608 39:-0.098459899 40:-0.37037 41:1.6325999 42:-0.101797 43:-0.73157197 44:1.6253901 45:-0.104834 46:-0.795479 47:1.54882 48:0.076418601 49:-0.00049520098 50:1.68048 51:0.13515 52:-0.35185501 53:1.6353101 54:0.148276 55:-0.72103298 56:1.66406 57:0.149555 58:-0.78938699 59:1.58359 60:-0.00203568 61:0.52806097 62:1.84001 63:-0.21283101 64:-0.16073 65:1.65819 66:-0.17993701 67:-0.078959003 68:1.65263 69:0.071555004 70:0.51998001 71:1.13586 72:0.072711699 73:0.493889 74:1.21473 
-10 0 0 0 0 0 0 0 0 0 0 0 0 0:0.0025267701 1:-0.0115276 2:1.73647 3:0 4:0.30000001 5:1.8 6:-0.0028474 7:0.60250401 8:1.8500299 9:-0.0059537902 10:0.76561701 11:1.8587 12:-0.172434 13:0.47176999 14:1.8616199 15:-0.198605 16:0.2066 17:1.82868 18:-0.21447 19:-0.00679891 20:1.73093 21:-0.215527 22:-0.0861485 23:1.69568 24:0.136529 25:0.47916701 26:1.77431 27:0.19690201 28:0.51131499 29:1.55012 30:0.127416 31:0.52047497 32:1.29171 33:0.092594698 34:0.52993703 35:1.18915 36:-0.073587596 37:-0.0131721 38:1.71622 39:-0.098377898 40:-0.37027299 41:1.6325901 42:-0.101842 43:-0.73142201 44:1.62552 45:-0.104806 46:-0.79547298 47:1.54873 48:0.076494597 49:-0.00038086099 50:1.6805 51:0.135184 52:-0.35184699 53:1.6352299 54:0.148314 55:-0.72070497 56:1.6643 57:0.149554 58:-0.78932703 59:1.58349 60:-0.00207043 61:0.527991 62:1.83998 63:-0.21688101 64:-0.15718 65:1.67003 66:-0.17701299 67:-0.078383103 68:1.65122 69:0.072047502 70:0.52026802 71:1.13556 72:0.067647897 73:0.48762301 74:1.20535 
-10 0 0 0 0 0 0 0 0 0 0 0 0 0:0.00254235 1:-0.0115158 2:1.73647 3:0 4:0.30000001 5:1.8 6:-0.00285748 7:0.602512 8:1.8500201 9:-0.0060000899 10:0.76562798 11:1.8587101 12:-0.17240299 13:0.47176301 14:1.86167 15:-0.198627 16:0.206439 17:1.82868 18:-0.214807 19:-0.0047297599 20:1.732 21:-0.21596199 22:-0.085217297 23:1.69502 24:0.13659801 25:0.47923699 26:1.77431 27:0.196481 28:0.51138198 29:1.55107 30:0.127546 31:0.520657 32:1.2920001 33:0.093503803 34:0.53007603 35:1.19262 36:-0.073575199 37:-0.0131712 38:1.7162 39:-0.098399296 40:-0.370314 41:1.6325901 42:-0.101749 43:-0.73088199 44:1.62544 45:-0.104966 46:-0.79516399 47:1.54807 48:0.076517597 49:-0.00035499199 50:1.68051 51:0.135198 52:-0.35195801 53:1.63529 54:0.148305 55:-0.72094899 56:1.66441 57:0.14975201 58:-0.78956401 59:1.58375 60:-0.0020774601 61:0.527996 62:1.83998 63:-0.215249 64:-0.156205 65:1.66224 66:-0.17471001 67:-0.0484837 68:1.65677 69:0.067809299 70:0.51919198 71:1.13762 72:0.066509001 73:0.48693401 74:1.19996 
-10 0 0 0 0 0 0 0 0 0 0 0 0 0:0.0025888099 1:-0.011525 2:1.73649 3:0 4:0.30000001 5:1.8 6:-0.0028790799 7:0.60256302 8:1.84998 9:-0.0061962199 10:0.765526 11:1.85877 12:-0.17224 13:0.47198999 14:1.86177 15:-0.19863001 16:0.206433 17:1.82868 18:-0.214862 19:-0.00177081 20:1.73151 21:-0.216438 22:-0.0851188 23:1.6948299 24:0.13660599 25:0.47929701 26:1.7743 27:0.196878 28:0.51187903 29:1.5499099 30:0.127051 31:0.52067602 32:1.2913899 33:0.093163602 34:0.53034103 35:1.19227 36:-0.073474497 37:-0.0131924 38:1.71624 39:-0.098417602 40:-0.37037101 41:1.63265 42:-0.101773 43:-0.730959 44:1.62547 45:-0.105055 46:-0.79547101 47:1.5481499 48:0.076526798 49:-0.00036205299 50:1.68051 51:0.135214 52:-0.35190001 53:1.63524 54:0.14827199 55:-0.72098303 56:1.66439 57:0.149738 58:-0.789639 59:1.58376 60:-0.0020929801 61:0.52802902 62:1.83995 63:-0.21702801 64:-0.156753 65:1.66436 66:-0.18008 67:-0.0867882 68:1.65144 69:0.065519497 70:0.51821202 71:1.13473 72:0.067089103 73:0.48753899 74:1.2051001 
-10 0 0 0 0 0 0 0 0 0 0 0 0 0:0.0027308799 1:-0.0114521 2:1.73643 3:0 4:0.30000001 5:1.8 6:-0.00296761 7:0.60257101 8:1.84997 9:-0.00621433 10:0.76542902 11:1.8588001 12:-0.172196 13:0.47196901 14:1.86177 15:-0.19862901 16:0.206388 17:1.8286999 18:-0.21521799 19:-0.0014492701 20:1.73157 21:-0.216766 22:-0.085344702 23:1.6955 24:0.136637 25:0.479361 26:1.7742701 27:0.196879 28:0.51219302 29:1.54888 30:0.126811 31:0.52092499 32:1.2909499 33:0.092897497 34:0.529782 35:1.1923701 36:-0.073335201 37:-0.0131342 38:1.71615 39:-0.098399498 40:-0.370251 41:1.63253 42:-0.101782 43:-0.73126 44:1.62526 45:-0.105106 46:-0.79552501 47:1.548 48:0.076667398 49:-0.000282808 50:1.68049 51:0.135259 52:-0.35195401 53:1.6352299 54:0.148259 55:-0.72094101 56:1.66439 57:0.149755 58:-0.78969401 59:1.58356 60:-0.0021492101 61:0.52803302 62:1.83995 63:-0.217314 64:-0.15552901 65:1.66939 66:-0.176029 67:-0.062918402 68:1.65374 69:0.068739802 70:0.52097303 71:1.13805 72:0.068014897 73:0.490872 74:1.21533 
-10 10 10 1.869903963017515 10 0 0 0 0 0 0 0 0 0:0.0032706601 1:-0.010712 2:1.73648 3:0 4:0.30000001 5:1.8 6:-0.0032653101 7:0.60209602 8:1.84987 9:-0.0085958503 10:0.765526 11:1.85895 12:-0.173784 13:0.47134 14:1.86428 15:-0.200441 16:0.203602 17:1.82846 18:-0.21646 19:0.0022015299 20:1.73616 21:-0.216985 22:-0.080049403 23:1.6978101 24:0.141188 25:0.49112201 26:1.77619 27:0.240601 28:0.55142599 29:1.58268 30:0.251986 31:0.551265 32:1.2866 33:0.251019 34:0.55903602 35:1.189 36:-0.072686501 37:-0.0125459 38:1.71577 39:-0.098874196 40:-0.371544 41:1.6322401 42:-0.10194 43:-0.73201901 44:1.62463 45:-0.105484 46:-0.79617202 47:1.5470901 48:0.0772212 49:0.00064838497 50:1.68108 51:0.134837 52:-0.35322601 53:1.63541 54:0.14722399 55:-0.724033 56:1.66413 57:0.149198 58:-0.789949 59:1.58369 60:-0.00238263 61:0.52768701 62:1.83988 63:-0.21921501 64:-0.149849 65:1.6675 66:-0.174143 67:-0.071430899 68:1.64806 69:0.239493 70:0.56033802 71:1.13703 72:0.21817 73:0.52144599 74:1.19644 
-0 10 0 0 0 0 0 0 0 0 0 0 0 0:0.00243031 1:-0.0181883 2:1.73536 3:0 4:0.30000001 5:1.8 6:-0.0025973299 7:0.60969299 8:1.85069 9:-0.0128477 10:0.77044201 11:1.85533 12:-0.16708 13:0.477608 14:1.8688 15:-0.19457901 16:0.209629 17:1.84843 18:-0.218244 19:0.0108916 20:1.76147 21:-0.22237501 22:-0.071572199 23:1.71841 24:0.122404 25:0.497134 26:1.77064 27:0.14636301 28:0.49776801 29:1.50345 30:0.136004 31:0.461804 32:1.2817301 33:0.18355601 34:0.50705302 35:1.17558 36:-0.074424803 37:-0.0202989 38:1.7180099 39:-0.11178 40:-0.355768 41:1.6503 42:-0.12560301 43:-0.708606 44:1.65057 45:-0.128373 46:-0.78579599 47:1.56927 48:0.077406697 49:-0.0058299499 50:1.67662 51:0.14713401 52:-0.333152 53:1.63686 54:0.202172 55:-0.70008099 56:1.67751 57:0.21010301 58:-0.78133202 59:1.6059099 60:-0.00188713 61:0.533391 62:1.84049 63:-0.22566 64:-0.140202 65:1.68822 66:-0.188217 67:-0.058733799 68:1.67454 69:0.179712 70:0.49797899 71:1.13643 72:0.153102 73:0.46798301 74:1.18014 
-0 10 0 0 0 0 0 0 0 0 0 0 0 0:0.00244541 1:-0.018126501 2:1.7354 3:0 4:0.30000001 5:1.8 6:-0.00260176 7:0.609658 8:1.85067 9:-0.0128185 10:0.77040303 11:1.8554699 12:-0.166953 13:0.477487 14:1.8688999 15:-0.194396 16:0.210555 17:1.84865 18:-0.218352 19:0.0117452 20:1.76197 21:-0.223215 22:-0.0715703 23:1.72054 24:0.123251 25:0.497383 26:1.7708 27:0.15026399 28:0.498319 29:1.50392 30:0.13928901 31:0.46210101 32:1.28228 33:0.190698 34:0.50527602 35:1.17953 36:-0.074415803 37:-0.020233501 38:1.71803 39:-0.111812 40:-0.35537401 41:1.65025 42:-0.125679 43:-0.70595402 44:1.65093 45:-0.128405 46:-0.785779 47:1.5692199 48:0.077429198 49:-0.0057842801 50:1.67667 51:0.147531 52:-0.33471 53:1.63708 54:0.202032 55:-0.69904 56:1.6772 57:0.21007 58:-0.78133601 59:1.60587 60:-0.00189299 61:0.533364 62:1.84048 63:-0.22474299 64:-0.141294 65:1.6894 66:-0.18774401 67:-0.066351898 68:1.67231 69:0.18516199 70:0.498813 71:1.13806 72:0.158942 73:0.47006699 74:1.17783 
-0 10 0 0 0 0 0 0 0 0 0 0 0 0:0.00238799 1:-0.0180867 2:1.7355 3:0 4:0.30000001 5:1.8 6:-0.00249524 7:0.60964102 8:1.8505501 9:-0.0129772 10:0.77025199 11:1.85544 12:-0.166437 13:0.47764301 14:1.86799 15:-0.19447701 16:0.21154 17:1.84886 18:-0.21839 19:0.012772 20:1.76202 21:-0.22391801 22:-0.072554603 23:1.71872 24:0.124129 25:0.49772999 26:1.77098 27:0.14654399 28:0.36624801 29:1.58503 30:0.136694 31:0.43604299 32:1.33131 33:0.201906 34:0.50419098 35:1.17758 36:-0.074500903 37:-0.020128001 38:1.71812 39:-0.111951 40:-0.35524201 41:1.65022 42:-0.126002 43:-0.70630902 44:1.65101 45:-0.128547 46:-0.785815 47:1.56919 48:0.077402197 49:-0.0058119101 50:1.67679 51:0.148537 52:-0.33859399 53:1.63852 54:0.201813 55:-0.699278 56:1.67732 57:0.20956901 58:-0.77964097 59:1.60623 60:-0.0018228299 61:0.53334898 62:1.84039 63:-0.224819 64:-0.14048301 65:1.69095 66:-0.18798099 67:-0.046907101 68:1.67689 69:0.200317 70:0.502352 71:1.13986 72:0.169911 73:0.480297 74:1.14881 
-0 10 0 0 0 0 0 0 0 0 0 0 0 0:0.0023938599 1:-0.0180644 2:1.73552 3:0 4:0.30000001 5:1.8 6:-0.0025011899 7:0.60962701 8:1.85053 9:-0.0130263 10:0.77022499 11:1.85548 12:-0.166504 13:0.47720399 14:1.86805 15:-0.19441199 16:0.21151701 17:1.8488899 18:-0.21830399 19:0.0127785 20:1.76199 21:-0.223784 22:-0.072334602 23:1.72048 24:0.12513199 25:0.49801901 26:1.77096 27:0.153125 28:0.37314999 29:1.58103 30:0.19191501 31:0.46450901 32:1.30425 33:0.21155 34:0.50149602 35:1.1830699 36:-0.074501202 37:-0.020117501 38:1.7181 39:-0.111886 40:-0.355335 41:1.65029 42:-0.12575901 43:-0.70603502 44:1.65109 45:-0.128526 46:-0.78601003 47:1.56926 48:0.077416897 49:-0.0057854899 50:1.6769 51:0.14856499 52:-0.33863601 53:1.6385601 54:0.201804 55:-0.69928199 56:1.6773 57:0.20928501 58:-0.77930301 59:1.60691 60:-0.00182784 61:0.533337 62:1.84038 63:-0.224968 64:-0.140789 65:1.69054 66:-0.186358 67:-0.0383633 68:1.6765 69:0.212051 70:0.497408 71:1.1376801 72:0.18243501 73:0.45652199 74:1.19586 
-0 10 0 0 0 0 0 0 0 0 0 0 0 0:0.0048262398 1:-0.014082 2:1.7266001 3:0 4:0.30000001 5:1.8 6:-0.0048380899 7:0.60542798 8:1.85896 9:-0.0103724 10:0.768722 11:1.86211 12:-0.174996 13:0.467765 14:1.86349 15:-0.196845 16:0.20562001 17:1.82968 18:-0.213117 19:0.00516304 20:1.7449501 21:-0.21478701 22:-0.0761213 23:1.7036099 24:0.125146 25:0.48161501 26:1.77144 27:0.239554 28:0.50729102 29:1.57508 30:0.170844 31:0.518426 32:1.28333 33:0.163844 34:0.532713 35:1.1952699 36:-0.071127601 37:-0.017469199 38:1.70939 39:-0.093956299 40:-0.353488 41:1.64083 42:-0.098205902 43:-0.71965301 44:1.64824 45:-0.104898 46:-0.78760999 47:1.57144 48:0.079783298 49:-0.00085553498 50:1.66776 51:0.148101 52:-0.34233201 53:1.6224101 54:0.177935 55:-0.71011603 56:1.6463701 57:0.18340801 58:-0.778027 59:1.5671999 60:-0.00357681 61:0.53014499 62:1.84674 63:-0.217428 64:-0.14431 65:1.67083 66:-0.249091 67:-0.085722797 68:1.70864 69:0.155706 70:0.550816 71:1.091 72:0.116627 73:0.50559998 74:1.17214 
-0 10 0 0 0 0 0 0 0 0 0 0 0 0:0.0048412099 1:-0.0140555 2:1.72671 3:0 4:0.30000001 5:1.8 6:-0.0048605599 7:0.60541099 8:1.85882 9:-0.0103736 10:0.76864302 11:1.86194 12:-0.174969 13:0.467785 14:1.86348 15:-0.19685601 16:0.20556299 17:1.82979 18:-0.213075 19:0.0050945799 20:1.74508 21:-0.214541 22:-0.075570397 23:1.7029001 24:0.125478 25:0.482582 26:1.77147 27:0.240899 28:0.52174902 29:1.57823 30:0.172011 31:0.51860201 32:1.28631 33:0.175449 34:0.535411 35:1.19699 36:-0.071100399 37:-0.017469199 38:1.70952 39:-0.093735598 40:-0.35392401 41:1.64074 42:-0.098224901 43:-0.71979702 44:1.64838 45:-0.104823 46:-0.78777099 47:1.57165 48:0.079775199 49:-0.00078356598 50:1.66783 51:0.148118 52:-0.34242901 53:1.6224999 54:0.177838 55:-0.71070898 56:1.64651 57:0.183412 58:-0.77830601 59:1.56733 60:-0.0035956199 61:0.53013599 62:1.84664 63:-0.217702 64:-0.14507701 65:1.67213 66:-0.24579699 67:-0.10295 68:1.69183 69:0.176579 70:0.55192101 71:1.10388 72:0.13072 73:0.50834697 74:1.17703 
-0 10 0 0 0 0 0 0 0 0 0 0 0 0:0.0048682699 1:-0.0140006 2:1.7268 3:0 4:0.30000001 5:1.8 6:-0.0048871599 7:0.60536402 8:1.85878 9:-0.0102992 10:0.76852 11:1.86133 12:-0.17445099 13:0.46876201 14:1.86303 15:-0.196922 16:0.205273 17:1.83005 18:-0.213176 19:0.0048700501 20:1.74516 21:-0.214808 22:-0.077065602 23:1.69889 24:0.12602399 25:0.48378399 26:1.77185 27:0.240135 28:0.53793401 29:1.58176 30:0.17362 31:0.51988798 32:1.2898099 33:0.188587 34:0.53533798 35:1.1978199 36:-0.071103401 37:-0.0174884 38:1.70974 39:-0.093849897 40:-0.35459 41:1.64088 42:-0.098111197 43:-0.72016698 44:1.64858 45:-0.104827 46:-0.78727698 47:1.5715801 48:0.079827502 49:-0.000623625 50:1.66776 51:0.14811 52:-0.34295499 53:1.62255 54:0.177885 55:-0.71123201 56:1.6468101 57:0.183459 58:-0.77877003 59:1.5676301 60:-0.0036197901 61:0.53010499 62:1.8466001 63:-0.21462999 64:-0.144164 65:1.66971 66:-0.245654 67:-0.088673398 68:1.69898 69:0.18703599 70:0.55199403 71:1.10334 72:0.14206 73:0.50148797 74:1.16669 
-0 10 0 0 0 0 0 0 0 0 0 0 0 0:0.000193745 1:-0.0134126 2:1.73545 3:0 4:0.30000001 5:1.8 6:-0.00095651299 7:0.60466498 8:1.85113 9:-0.00560001 10:0.76617903 11:1.85581 12:-0.171744 13:0.46792901 14:1.86264 15:-0.19786599 16:0.201795 17:1.83293 18:-0.214858 19:0.00539832 20:1.73835 21:-0.216648 22:-0.076412298 23:1.69944 24:0.13221399 25:0.49449801 26:1.7761101 27:0.209877 28:0.48762599 29:1.55992 30:0.199224 31:0.50597799 32:1.27019 33:0.17180701 34:0.50261301 35:1.16284 36:-0.076099701 37:-0.016817801 38:1.7163 39:-0.094494604 40:-0.373447 41:1.65034 42:-0.088788599 43:-0.73238301 44:1.66449 45:-0.095168702 46:-0.79695702 47:1.5893101 48:0.074475497 49:-0.00044949001 50:1.67857 51:0.125613 52:-0.34193701 53:1.63077 54:0.124115 55:-0.71435398 56:1.65115 57:0.123021 58:-0.7877 59:1.5690399 60:-0.00062569999 61:0.52960598 62:1.8408099 63:-0.21860801 64:-0.14565501 65:1.66352 66:-0.25977299 67:-0.10022 68:1.70152 69:0.16488101 70:0.49531701 71:1.11357 72:0.138853 73:0.46222201 74:1.18169 
-0 10 0 0 0 0 0 10 0 0 0 0 0 0:0.00034108799 1:-0.0132775 2:1.73534 3:0 4:0.30000001 5:1.8 6:-0.00091162301 7:0.60441798 8:1.85104 9:-0.0055436599 10:0.76627201 11:1.85587 12:-0.172368 13:0.467895 14:1.86243 15:-0.198137 16:0.201382 17:1.83248 18:-0.214884 19:0.0048796302 20:1.7381001 21:-0.216543 22:-0.075872801 23:1.69699 24:0.132112 25:0.49465799 26:1.77631 27:0.249818 28:0.543791 29:1.58752 30:0.228431 31:0.54692 32:1.29009 33:0.171267 34:0.50326002 35:1.16008 36:-0.075979501 37:-0.0166959 38:1.71608 39:-0.094318099 40:-0.37354201 41:1.65017 42:-0.089046903 43:-0.73219103 44:1.66435 45:-0.0952181 46:-0.79724199 47:1.5894901 48:0.074638702 49:-0.00028957799 50:1.67853 51:0.125499 52:-0.341818 53:1.63044 54:0.124328 55:-0.71633798 56:1.65018 57:0.123072 58:-0.78769398 59:1.56916 60:-0.00060278899 61:0.52943403 62:1.84076 63:-0.220139 64:-0.145965 65:1.66374 66:-0.25554401 67:-0.080702499 68:1.6992 69:0.15972701 70:0.48927501 71:1.1045901 72:0.14038099 73:0.46373799 74:1.1835901 
-10 0 0 0 10 0 0 0 0 0 0 0 0 0:-0.00034236201 1:-0.0129007 2:1.73526 3:0 4:0.30000001 5:1.8 6:0.000214912 7:0.60427201 8:1.85074 9:-0.0054995101 10:0.765818 11:1.85657 12:-0.171918 13:0.46875301 14:1.8625 15:-0.198515 16:0.201288 17:1.83162 18:-0.21461201 19:0.0052280598 20:1.73587 21:-0.21794599 22:-0.076819703 23:1.6946 24:0.132117 25:0.49441701 26:1.77674 27:0.192505 28:0.55080998 29:1.54757 30:0.18147101 31:0.59762597 32:1.32829 33:0.15846901 34:0.62026203 35:1.21337 36:-0.0768198 37:-0.016386099 38:1.7163399 39:-0.094788097 40:-0.37201101 41:1.64994 42:-0.089918301 43:-0.731655 44:1.66483 45:-0.094832398 46:-0.79629898 47:1.59026 48:0.074007697 49:0.00041102199 50:1.67774 51:0.124772 52:-0.340718 53:1.62992 54:0.123632 55:-0.71362197 56:1.65122 57:0.123591 58:-0.78710502 59:1.57013 60:0.00021117899 61:0.52930701 62:1.8405401 63:-0.218805 64:-0.144207 65:1.6620899 66:-0.255254 67:-0.093819298 68:1.6912301 69:0.137218 70:0.628218 71:1.12571 72:0.121811 73:0.58940297 74:1.18736 
-10 0 0 0 10 0 0 0 0 0 0 0 0 0:-0.000271119 1:-0.0128531 2:1.7351201 3:0 4:0.30000001 5:1.8 6:-6.1839801e-06 7:0.60430098 8:1.8510799 9:-0.00544598 10:0.765746 11:1.85682 12:-0.17180499 13:0.46870199 14:1.86253 15:-0.19824301 16:0.20157699 17:1.83181 18:-0.21450999 19:0.00515687 20:1.73579 21:-0.216976 22:-0.075335599 23:1.69565 24:0.132304 25:0.49452099 26:1.77669 27:0.19271 28:0.56070203 29:1.55885 30:0.174835 31:0.62892598 32:1.34604 33:0.15745801 34:0.65144902 35:1.21097 36:-0.076759197 37:-0.016424401 38:1.71627 39:-0.094232202 40:-0.37014899 41:1.64943 42:-0.089808203 43:-0.73162901 44:1.66493 45:-0.094733901 46:-0.79663599 47:1.5903 48:0.0740989 49:0.00055464398 50:1.67752 51:0.123925 52:-0.338927 53:1.6303 54:0.123927 55:-0.71185702 56:1.6516401 57:0.123591 58:-0.78696799 59:1.5699199 60:6.4663604e-05 61:0.52933103 62:1.84077 63:-0.220783 64:-0.145615 65:1.66348 66:-0.25781101 67:-0.097469203 68:1.69217 69:0.141574 70:0.66401201 71:1.1312799 72:0.119345 73:0.61722398 74:1.19805 
-10 0 0 0 10 8.466986000099642 0 0 0 0 0 0 0 0:-0.00022919499 1:-0.0127872 2:1.7351 3:0 4:0.30000001 5:1.8 6:-7.3902302e-05 7:0.60425597 8:1.85109 9:-0.0052876798 10:0.765652 11:1.85703 12:-0.171602 13:0.468505 14:1.86265 15:-0.197487 16:0.203196 17:1.8322999 18:-0.214726 19:0.0043612001 20:1.73524 21:-0.217841 22:-0.0751573 23:1.69504 24:0.132649 25:0.49462801 26:1.77668 27:0.186749 28:0.58144403 29:1.54953 30:0.167704 31:0.65577602 32:1.3042001 33:0.15713499 34:0.68044001 35:1.2206 36:-0.076699696 37:-0.016358901 38:1.71626 39:-0.094466098 40:-0.36747399 41:1.64856 42:-0.0895897 43:-0.73203099 44:1.6649899 45:-0.094396502 46:-0.79708201 47:1.59012 48:0.074134797 49:0.00058793102 50:1.6775 51:0.123954 52:-0.338943 53:1.63046 54:0.1238 55:-0.71412098 56:1.65168 57:0.123781 58:-0.78720802 59:1.56988 60:1.53482e-05 61:0.52929598 62:1.84078 63:-0.220543 64:-0.146126 65:1.66769 66:-0.254749 67:-0.086591303 68:1.6907001 69:0.140709 70:0.69535601 71:1.13721 72:0.119635 73:0.63992298 74:1.184 
-10 1.211234430599802 0 0 10 10 6.29942644454681 0 0 0 0 0 3.0238028962377 0:-0.000257559 1:-0.0125936 2:1.73505 3:0 4:0.30000001 5:1.8 6:-6.5751403e-05 7:0.60417998 8:1.85112 9:-0.0054437499 10:0.765459 11:1.85744 12:-0.172124 13:0.46828899 14:1.86213 15:-0.197036 16:0.204364 17:1.83257 18:-0.215069 19:0.00444907 20:1.73522 21:-0.217545 22:-0.076295301 23:1.69533 24:0.13286801 25:0.49501401 26:1.77668 27:0.184494 28:0.60163897 29:1.54643 30:0.168845 31:0.67121202 32:1.30198 33:0.15535501 34:0.71048701 35:1.2268 36:-0.076762997 37:-0.016224699 38:1.71624 39:-0.094254598 40:-0.367385 41:1.64846 42:-0.089510098 43:-0.73215199 44:1.66497 45:-0.094458498 46:-0.79762399 47:1.59006 48:0.074147202 49:0.00082126301 50:1.67746 51:0.123896 52:-0.339019 53:1.6305 54:0.12376 55:-0.71403998 56:1.65165 57:0.123798 58:-0.78748202 59:1.5697401 60:2.26796e-05 61:0.52923399 62:1.84079 63:-0.217546 64:-0.14451 65:1.6645499 66:-0.256933 67:-0.0865338 68:1.69741 69:0.136255 70:0.72779602 71:1.13699 72:0.116806 73:0.66710299 74:1.18768 
-0 7.53760146285232 0 0 0 0 0 0 0 0 0 0 0 0:0.0056943102 1:-0.0088718804 2:1.73835 3:0 4:0.30000001 5:1.8 6:-0.0055421302 7:0.60052401 8:1.8479 9:-0.00763783 10:0.76007003 11:1.8430901 12:-0.18201201 13:0.46432501 14:1.84903 15:-0.226014 16:0.20283701 17:1.8197 18:-0.25793701 19:-0.00437656 20:1.72788 21:-0.27688101 22:-0.081259497 23:1.68788 24:0.13478801 25:0.50054199 26:1.78934 27:0.17533199 28:0.502675 29:1.5240901 30:0.13303199 31:0.40917999 32:1.2993799 33:0.209079 34:0.507056 35:1.19075 36:-0.073756702 37:-0.0096806604 38:1.70986 39:-0.090732403 40:-0.33751199 41:1.62508 42:-0.060064498 43:-0.728975 44:1.64658 45:-0.0507362 46:-0.79893601 47:1.5735199 48:0.086266197 49:0.0014346 50:1.6903 51:0.16249099 52:-0.332515 53:1.59251 54:0.20266201 55:-0.71740502 56:1.62036 57:0.21240801 58:-0.783831 59:1.5415 60:-0.0042020902 61:0.52647102 62:1.83839 63:-0.27612799 64:-0.13835301 65:1.66048 66:-0.244605 67:-0.074422099 68:1.66364 69:0.228071 70:0.50851703 71:1.1344399 72:0.173786 73:0.47398499 74:1.19556 
-0 0.03104404934470275 0 0 2.151025927278242 0 0 0 0 0 0 0 0 0:0.0104297 1:-0.00703301 2:1.72797 3:0 4:0.30000001 5:1.8 6:-0.0097899605 7:0.59903699 8:1.85519 9:-0.0111971 10:0.75752699 11:1.85227 12:-0.183053 13:0.46528101 14:1.85154 15:-0.22772799 16:0.206884 17:1.81875 18:-0.25549799 19:-0.00126065 20:1.7206399 21:-0.25355601 22:-0.0814953 23:1.67714 24:0.133067 25:0.500588 26:1.7943799 27:0.17468201 28:0.50872499 29:1.5294501 30:0.14295299 31:0.43706399 32:1.31434 33:0.213479 34:0.53169501 35:1.20376 36:-0.067942798 37:-0.0091847302 38:1.6982 39:-0.085736997 40:-0.33851001 41:1.61812 42:-0.055422202 43:-0.73011202 44:1.65459 45:-0.0455014 46:-0.79763103 47:1.58937 48:0.090149999 49:0.00476541 50:1.68134 51:0.148499 52:-0.338597 53:1.59905 54:0.16671599 55:-0.71759403 56:1.62825 57:0.168488 58:-0.77996498 59:1.55215 60:-0.0074649001 61:0.52529597 62:1.84435 63:-0.25390601 64:-0.14243899 65:1.65196 66:-0.223331 67:-0.067477196 68:1.6428 69:0.230804 70:0.54066902 71:1.14799 72:0.183165 73:0.50179899 74:1.20409 
-0 10 0 0 10 0 0 0 0 0 0 0 0 0:0.0107289 1:-0.0069712601 2:1.72707 3:0 4:0.30000001 5:1.8 6:-0.0101747 7:0.59890503 8:1.85622 9:-0.0115933 10:0.75724 11:1.8533 12:-0.18272001 13:0.46382201 14:1.85114 15:-0.222914 16:0.204082 17:1.81749 18:-0.24824101 19:-0.0026998401 20:1.7187999 21:-0.241915 22:-0.082172103 23:1.67599 24:0.13286699 25:0.50043601 26:1.79447 27:0.174669 28:0.514211 29:1.52983 30:0.141772 31:0.44298801 32:1.31451 33:0.21527401 34:0.54268998 35:1.21758 36:-0.067519903 37:-0.0094675301 38:1.69757 39:-0.085224599 40:-0.33982399 41:1.61844 42:-0.055916801 43:-0.73065001 44:1.65532 45:-0.046199299 46:-0.79812098 47:1.59049 48:0.090284303 49:0.0051680901 50:1.68019 51:0.14797901 52:-0.337708 53:1.59978 54:0.16543899 55:-0.71770102 56:1.62949 57:0.167317 58:-0.78006601 59:1.5531501 60:-0.0077672699 61:0.52519703 62:1.84513 63:-0.24122401 64:-0.14262401 65:1.65036 66:-0.21104699 67:-0.066649601 68:1.6452399 69:0.236664 70:0.54980803 71:1.14358 72:0.182127 73:0.51013899 74:1.20086 
-10 10 0 0 10 0 0 0 0 0 0 0 0 0:0.0100002 1:-0.00685912 2:1.72726 3:0 4:0.30000001 5:1.8 6:-0.0093021402 7:0.598665 8:1.85666 9:-0.0121776 10:0.75700802 11:1.85456 12:-0.18208501 13:0.46301699 14:1.85139 15:-0.21827599 16:0.20246799 17:1.8170201 18:-0.233834 19:-0.00796133 20:1.71267 21:-0.227742 22:-0.082199797 23:1.6729 24:0.132346 25:0.50076002 26:1.79498 27:0.173482 28:0.52178401 29:1.53076 30:0.21650501 31:0.54448497 32:1.3006999 33:0.21386801 34:0.56033301 35:1.2270499 36:-0.068221301 37:-0.00951597 38:1.6982 39:-0.083982103 40:-0.34149599 41:1.6186399 42:-0.0565385 43:-0.73160899 44:1.6558501 45:-0.047176 46:-0.79860198 47:1.59126 48:0.089511201 49:0.00550577 50:1.67974 51:0.14716201 52:-0.33603901 53:1.60112 54:0.16380399 55:-0.717641 56:1.63059 57:0.16596401 58:-0.77985603 59:1.55401 60:-0.0071071102 61:0.52503401 62:1.84534 63:-0.22793099 64:-0.141408 65:1.64451 66:-0.17487 67:-0.064308599 68:1.6626101 69:0.219872 70:0.56962001 71:1.14547 72:0.18159699 73:0.53090698 74:1.20374 
-10 5.239916821229585 2.987334961819419 3.048901986198596 10 0 0 0 0 0 0 0 0 0:0.0092324596 1:-0.0069305198 2:1.72717 3:0 4:0.30000001 5:1.8 6:-0.0082341405 7:0.59868801 8:1.85735 9:-0.0122012 10:0.75683498 11:1.85595 12:-0.180227 13:0.46253699 14:1.85146 15:-0.214838 16:0.203692 17:1.81644 18:-0.229261 19:-0.0085707204 20:1.71263 21:-0.21752401 22:-0.081512399 23:1.67329 24:0.132311 25:0.500732 26:1.7954299 27:0.14205 28:0.31675801 29:1.6648999 30:0.203154 31:0.486058 32:1.4268 33:0.214074 34:0.584907 35:1.23225 36:-0.068879999 37:-0.00964435 38:1.6985101 39:-0.083722398 40:-0.34174901 41:1.61884 42:-0.057719901 43:-0.73212302 44:1.65625 45:-0.048684798 46:-0.79870999 47:1.5917 48:0.088727102 49:0.0055121901 50:1.67916 51:0.14663801 52:-0.33580199 53:1.6023099 54:0.16227899 55:-0.71779603 56:1.63146 57:0.164158 58:-0.78031301 59:1.55476 60:-0.0063368599 61:0.52506101 62:1.84575 63:-0.221471 64:-0.14064801 65:1.64325 66:-0.17867699 67:-0.084117897 68:1.64238 69:0.22440501 70:0.598665 71:1.16144 72:0.179684 73:0.55165398 74:1.20109 
-0 0 0.5209363901423294 0 0 0 0 0 0 0 0 0 0 0:0.0056980499 1:-0.0108022 2:1.73991 3:0 4:0.30000001 5:1.8 6:-0.0051048999 7:0.60240602 8:1.84569 9:-0.0091710901 10:0.76251501 11:1.84202 12:-0.17670301 13:0.468835 14:1.8516001 15:-0.20499501 16:0.20306399 17:1.8261499 18:-0.219228 19:0.0046593798 20:1.73549 21:-0.215987 22:-0.074666999 23:1.69786 24:0.13234299 25:0.51301903 26:1.78699 27:0.14683899 28:0.35556 29:1.6039 30:0.174109 31:0.33117899 32:1.382 33:0.20124 34:0.47612101 35:1.19391 36:-0.070541397 37:-0.0141579 38:1.7151901 39:-0.088810802 40:-0.36223799 41:1.65666 42:-0.079570599 43:-0.730416 44:1.67354 45:-0.077486701 46:-0.79841202 47:1.59919 48:0.082486503 49:0.00198182 50:1.68822 51:0.13480701 52:-0.33803499 53:1.63344 54:0.13591801 55:-0.71683002 56:1.64114 57:0.134647 58:-0.78644598 59:1.5569201 60:-0.00387165 61:0.52789199 62:1.83679 63:-0.213966 64:-0.13965601 65:1.67151 66:-0.17281701 67:-0.064619698 68:1.6665699 69:0.23040099 70:0.468312 71:1.1294399 72:0.24060801 73:0.501728 74:1.1891 
-0 10 0 0 0 0 0 0 0 0 0 0 0 0:0.0056641898 1:-0.0107633 2:1.73988 3:0 4:0.30000001 5:1.8 6:-0.00510658 7:0.602364 8:1.84576 9:-0.0092160404 10:0.76238501 11:1.84174 12:-0.17666399 13:0.46880701 14:1.85153 15:-0.20500401 16:0.202728 17:1.82619 18:-0.21991999 19:0.0043045599 20:1.7357399 21:-0.216167 22:-0.074635401 23:1.69646 24:0.132247 25:0.513107 26:1.78704 27:0.163983 28:0.49551299 29:1.52104 30:0.188118 31:0.34587601 32:1.35734 33:0.202672 34:0.472415 35:1.19292 36:-0.070614003 37:-0.0141674 38:1.71516 39:-0.088950999 40:-0.36227 41:1.6567 42:-0.079545297 43:-0.73108798 44:1.67353 45:-0.077649802 46:-0.79847401 47:1.59938 48:0.082493201 49:0.0021278299 50:1.68806 51:0.134754 52:-0.33799201 53:1.63346 54:0.135772 55:-0.71689302 56:1.6411901 57:0.13430201 58:-0.78644902 59:1.55715 60:-0.0038737101 61:0.52785897 62:1.83684 63:-0.21196599 64:-0.140451 65:1.66917 66:-0.17271399 67:-0.0551272 68:1.66866 69:0.227249 70:0.46099499 71:1.11777 72:0.239006 73:0.50117201 74:1.19034 
-0 0 0 0 0 0 0 10 0 0 0 0 0 0:0.0056948001 1:-0.0108027 2:1.73997 3:0 4:0.30000001 5:1.8 6:-0.00516519 7:0.60240501 8:1.8457 9:-0.0093839196 10:0.76251602 11:1.84181 12:-0.17635299 13:0.46864101 14:1.85098 15:-0.205107 16:0.202803 17:1.82645 18:-0.219926 19:0.0044422201 20:1.7358299 21:-0.216876 22:-0.074156001 23:1.6974 24:0.13212299 25:0.51321 26:1.78725 27:0.163982 28:0.49553901 29:1.5212801 30:0.188692 31:0.34608099 32:1.3574899 33:0.204072 34:0.47392899 35:1.19373 36:-0.070598103 37:-0.0142227 38:1.71517 39:-0.089087598 40:-0.362266 41:1.6568 42:-0.079685897 43:-0.73130602 44:1.67365 45:-0.077761702 46:-0.79839897 47:1.59945 48:0.082533799 49:0.00209648 50:1.6882401 51:0.13462199 52:-0.33790299 53:1.63357 54:0.13568 55:-0.71681201 56:1.64131 57:0.13417099 58:-0.78640401 59:1.55712 60:-0.0039167898 61:0.52789003 62:1.83678 63:-0.21566901 64:-0.138254 65:1.67094 66:-0.174538 67:-0.056914698 68:1.6694 69:0.21096399 70:0.45857701 71:1.12084 72:0.242135 73:0.49677601 74:1.1841201 
-0 10 5.578554374533345 0 0 0 0 0 0 0 0 0 0 0:0.0057322001 1:-0.0107671 2:1.73989 3:0 4:0.30000001 5:1.8 6:-0.0052777701 7:0.60229802 8:1.84587 9:-0.0092161596 10:0.762591 11:1.84162 12:-0.176006 13:0.46873701 14:1.8507 15:-0.20502301 16:0.202813 17:1.82637 18:-0.219999 19:0.0044567701 20:1.73578 21:-0.217032 22:-0.073781602 23:1.6980799 24:0.13234 25:0.51317197 26:1.78607 27:0.164205 28:0.49547499 29:1.5201 30:0.18934201 31:0.345736 32:1.35666 33:0.20480099 34:0.475169 35:1.19347 36:-0.070559099 37:-0.0141492 38:1.7151099 39:-0.088967003 40:-0.362064 41:1.65676 42:-0.079587497 43:-0.730955 44:1.6736701 45:-0.077756099 46:-0.79823899 47:1.59964 48:0.082570702 49:0.0020846501 50:1.68817 51:0.13474201 52:-0.33770901 53:1.63353 54:0.135647 55:-0.71683103 56:1.6412801 57:0.13372 58:-0.78755999 59:1.55836 60:-0.00399329 61:0.527816 62:1.8369 63:-0.214743 64:-0.13697401 65:1.6712101 66:-0.174539 67:-0.0578207 68:1.66953 69:0.219587 70:0.463824 71:1.13569 72:0.238961 73:0.49982801 74:1.18531 
-0 10 0 0 0 0 0 10 0 0 0 0 0 0:0.0057358001 1:-0.0107094 2:1.74 3:0 4:0.30000001 5:1.8 6:-0.0053113201 7:0.60222399 8:1.84576 9:-0.0091655003 10:0.76264697 11:1.84157 12:-0.176016 13:0.468788 14:1.85086 15:-0.205092 16:0.202847 17:1.82652 18:-0.220495 19:0.0044850502 20:1.73604 21:-0.216718 22:-0.074058503 23:1.69921 24:0.13236199 25:0.51330501 26:1.78627 27:0.164213 28:0.495527 29:1.5203 30:0.18931 31:0.34578401 32:1.3568701 33:0.203484 34:0.473263 35:1.19153 36:-0.070565 37:-0.0141143 38:1.71522 39:-0.088927001 40:-0.361781 41:1.65681 42:-0.079521097 43:-0.73139298 44:1.67415 45:-0.077742197 46:-0.79808998 47:1.59979 48:0.082577303 49:0.00216405 50:1.6883 51:0.134675 52:-0.33752 53:1.63371 54:0.135618 55:-0.71675199 56:1.64138 57:0.133809 58:-0.78771901 59:1.5580699 60:-0.0040170802 61:0.52776301 62:1.83682 63:-0.212184 64:-0.14037099 65:1.67092 66:-0.17310899 67:-0.069586203 68:1.66479 69:0.22152901 70:0.461523 71:1.1303999 72:0.239748 73:0.49946901 74:1.18542 
-0 7.623664755548359 0 0 0 0 0 9.759696997210741 0 0 0 0 0 0:0.0057414002 1:-0.0107352 2:1.74002 3:0 4:0.30000001 5:1.8 6:-0.0053289998 7:0.60228097 8:1.8457299 9:-0.0091845999 10:0.76262999 11:1.8415 12:-0.175983 13:0.46877101 14:1.85088 15:-0.205102 16:0.20287 17:1.82652 18:-0.220551 19:0.0044791098 20:1.73613 21:-0.216888 22:-0.073798701 23:1.69918 24:0.132498 25:0.513327 26:1.78644 27:0.164426 28:0.49544001 29:1.5204999 30:0.191121 31:0.34523201 32:1.3578 33:0.20459799 34:0.47326699 35:1.19476 36:-0.070568599 37:-0.0141354 38:1.71526 39:-0.088913903 40:-0.36187401 41:1.65684 42:-0.079480603 43:-0.73142302 44:1.67413 45:-0.077724896 46:-0.79809898 47:1.5998501 48:0.082580604 49:0.0021266299 50:1.68829 51:0.134739 52:-0.33760801 53:1.6338201 54:0.135015 55:-0.72039402 56:1.6403199 57:0.13375901 58:-0.787871 59:1.55822 60:-0.0040301802 61:0.52780199 62:1.83679 63:-0.215362 64:-0.137182 65:1.6707799 66:-0.173489 67:-0.053672601 68:1.67003 69:0.21336 70:0.46432 71:1.13106 72:0.23997501 73:0.50014901 74:1.18844 
-0 0 0 0 0 0 0 9.924430193706375 0 0 0 0 0 0:0.0021593401 1:-0.0149786 2:1.7364399 3:0 4:0.30000001 5:1.8 6:-0.0021593201 7:0.60622698 8:1.84987 9:-0.0113647 10:0.76879901 11:1.8511 12:-0.161641 13:0.47132301 14:1.86685 15:-0.186702 16:0.202407 17:1.8628401 18:-0.20122799 19:0.00090203201 20:1.78017 21:-0.21047699 22:-0.077899203 23:1.74494 24:0.12999301 25:0.478093 26:1.76544 27:0.25946799 28:0.47088 29:1.53408 30:0.17623 31:0.49610299 32:1.30628 33:0.13643201 34:0.510827 35:1.2095701 36:-0.073388197 37:-0.0170561 38:1.71931 39:-0.0876517 40:-0.355102 41:1.65359 42:-0.085805602 43:-0.72966599 44:1.66906 45:-0.084519498 46:-0.78896397 47:1.597 48:0.077161796 49:-0.0032327999 50:1.67786 51:0.13509101 52:-0.33365399 53:1.62889 54:0.14499401 55:-0.71518499 56:1.65748 57:0.141873 58:-0.77921402 59:1.58297 60:-0.00160151 61:0.53080398 62:1.83988 63:-0.20701 64:-0.14365999 65:1.71495 66:-0.18129399 67:-0.065517098 68:1.69612 69:0.104462 70:0.50781399 71:1.14852 72:0.177311 73:0.52102298 74:1.1744601 
-0 0 0 0 0 0 0 10 0 0 0 0 0 0:0.0021049499 1:-0.0148044 2:1.73645 3:0 4:0.30000001 5:1.8 6:-0.00209367 7:0.60593402 8:1.84966 9:-0.0118642 10:0.76784998 11:1.85176 12:-0.162562 13:0.468779 14:1.8693 15:-0.186892 16:0.20191801 17:1.86252 18:-0.201739 19:0.00057751802 20:1.77953 21:-0.210113 22:-0.077605799 23:1.7446899 24:0.129651 25:0.47856 26:1.76579 27:0.242686 28:0.466737 29:1.55603 30:0.190484 31:0.49631301 32:1.29541 33:0.13682701 34:0.50313503 35:1.20381 36:-0.073488697 37:-0.0167243 38:1.7190599 39:-0.087608702 40:-0.35595599 41:1.65316 42:-0.085631996 43:-0.72951698 44:1.66831 45:-0.085838102 46:-0.78560698 47:1.5978301 48:0.076991104 49:-0.0031975701 50:1.67808 51:0.13509101 52:-0.33386001 53:1.62866 54:0.145328 55:-0.71597499 56:1.65716 57:0.14101399 58:-0.77374601 59:1.58495 60:-0.00155881 61:0.53059602 62:1.83974 63:-0.207165 64:-0.14382599 65:1.71562 66:-0.181704 67:-0.063552901 68:1.6947 69:0.111995 70:0.50127399 71:1.14856 72:0.17573801 73:0.519449 74:1.17357 
-0 0 0 0 0 0 0 3.956748939037111 0 0 0 0 0 0:0.0032182101 1:-0.0107555 2:1.73507 3:0 4:0.30000001 5:1.8 6:-0.0030358101 7:0.60225701 8:1.8504699 9:-0.0127209 10:0.762842 11:1.85337 12:-0.169655 13:0.46480599 14:1.87238 15:-0.19337501 16:0.193685 17:1.84974 18:-0.21461301 19:-0.0055676699 20:1.76309 21:-0.215942 22:-0.081972703 23:1.7259901 24:0.141066 25:0.49093401 26:1.76595 27:0.13766199 28:0.35076699 29:1.5851099 30:0.124318 31:0.42494801 32:1.295 33:0.142968 34:0.476372 35:1.16545 36:-0.071252897 37:-0.0142797 38:1.7172101 39:-0.088518299 40:-0.360441 41:1.64619 42:-0.086029097 43:-0.73080099 44:1.65721 45:-0.085572399 46:-0.79215598 47:1.58453 48:0.076654397 49:0.00225225 50:1.6766599 51:0.134848 52:-0.33761299 53:1.6242 54:0.144501 55:-0.71909702 56:1.64631 57:0.14162301 58:-0.78218699 59:1.57212 60:-0.0022760399 61:0.52780199 62:1.84036 63:-0.216057 64:-0.141386 65:1.69871 66:-0.181004 67:-0.065883003 68:1.68299 69:0.1295 70:0.46825701 71:1.13034 72:0.107648 73:0.43822199 74:1.17823 
-0 0 0 0 0 0 0 10 0 0 0 0 0 0:0.0031304799 1:-0.0107222 2:1.73513 3:0 4:0.30000001 5:1.8 6:-0.0028321799 7:0.602139 8:1.85033 9:-0.0129368 10:0.76290703 11:1.85334 12:-0.16963699 13:0.464784 14:1.8724 15:-0.193295 16:0.194123 17:1.84991 18:-0.214407 19:-0.0052226 20:1.76346 21:-0.21506099 22:-0.080834597 23:1.72456 24:0.1402 25:0.49232 26:1.76538 27:0.13778 28:0.347491 29:1.58781 30:0.124431 31:0.417712 32:1.29669 33:0.140545 34:0.455962 35:1.16786 36:-0.071301498 37:-0.0142838 38:1.71735 39:-0.088383101 40:-0.36080599 41:1.64591 42:-0.086058401 43:-0.730636 44:1.65713 45:-0.085471198 46:-0.79256701 47:1.58445 48:0.076449499 49:0.0023055801 50:1.67661 51:0.134835 52:-0.33769399 53:1.62433 54:0.144545 55:-0.719383 56:1.64626 57:0.141812 58:-0.78279901 59:1.57154 60:-0.0021382701 61:0.52771902 62:1.84026 63:-0.210885 64:-0.145505 65:1.69617 66:-0.181077 67:-0.064997599 68:1.68196 69:0.13477901 70:0.44809899 71:1.13211 72:0.107023 73:0.415683 74:1.18942 
-0 0 0 0 0 0 0 10 0 0 0 0 0 0:0.00305322 1:-0.0106376 2:1.73522 3:0 4:0.30000001 5:1.8 6:-0.0027894899 7:0.60211802 8:1.85024 9:-0.013162 10:0.762905 11:1.85332 12:-0.170541 13:0.46504101 14:1.87216 15:-0.193111 16:0.19387101 17:1.85 18:-0.21421701 19:-0.0055182101 20:1.76367 21:-0.21535 22:-0.0813841 23:1.72672 24:0.13980301 25:0.496788 26:1.76424 27:0.137658 28:0.337385 29:1.58605 30:0.12426 31:0.40529999 32:1.2943701 33:0.141642 34:0.432648 35:1.17422 36:-0.071304001 37:-0.0142393 38:1.7174799 39:-0.088469803 40:-0.36104 41:1.64599 42:-0.086062998 43:-0.73080802 44:1.6569999 45:-0.085377701 46:-0.79344702 47:1.58402 48:0.076267898 49:0.0024628199 50:1.67668 51:0.13483 52:-0.33765799 53:1.62439 54:0.144557 55:-0.719423 56:1.6462899 57:0.14051799 58:-0.77455401 59:1.57383 60:-0.0021100901 61:0.52770603 62:1.8401999 63:-0.213559 64:-0.145869 65:1.70072 66:-0.18259899 67:-0.067481399 68:1.68364 69:0.133371 70:0.42077601 71:1.13587 72:0.107003 73:0.39252901 74:1.18634 
-0 0 0 0 0 0 0 10 7.486503534937171 0 0 0 0 0:0.00300253 1:-0.010601 2:1.73531 3:0 4:0.30000001 5:1.8 6:-0.00277724 7:0.60210401 8:1.85022 9:-0.0133504 10:0.76292503 11:1.85321 12:-0.170572 13:0.46471399 14:1.87275 15:-0.192965 16:0.19366699 17:1.85005 18:-0.21303 19:-0.0058583999 20:1.76379 21:-0.214049 22:-0.080997199 23:1.72622 24:0.140507 25:0.498649 26:1.76368 27:0.143592 28:0.45748299 29:1.49839 30:0.121186 31:0.40971199 32:1.21536 33:0.141536 34:0.40171999 35:1.1738 36:-0.071237102 37:-0.0142445 38:1.71813 39:-0.088470697 40:-0.361251 41:1.64619 42:-0.0858346 43:-0.73143202 44:1.6567301 45:-0.085728601 46:-0.79267502 47:1.5865099 48:0.076075099 49:0.00260513 50:1.67653 51:0.13486201 52:-0.337695 53:1.62435 54:0.1446 55:-0.71944398 56:1.64642 57:0.141231 58:-0.77731299 59:1.57283 60:-0.00209905 61:0.52769399 62:1.84018 63:-0.21030501 64:-0.147245 65:1.69739 66:-0.18134201 67:-0.066199899 68:1.68232 69:0.140891 70:0.37106201 71:1.09596 72:0.105761 73:0.36583501 74:1.1828901 
-0 0 0 0 0 0 0 10 10 0 0 0 0 0:0.00290754 1:-0.0105151 2:1.73553 3:0 4:0.30000001 5:1.8 6:-0.0026013399 7:0.60211599 8:1.84987 9:-0.0135092 10:0.76285797 11:1.85317 12:-0.170546 13:0.46434799 14:1.8737 15:-0.192711 16:0.19372 17:1.8506 18:-0.212263 19:-0.00596694 20:1.76463 21:-0.214009 22:-0.082859702 23:1.72809 24:0.14146 25:0.49942601 26:1.76368 27:0.14432999 28:0.44363001 29:1.50114 30:0.156965 31:0.40052599 32:1.2644399 33:0.144474 34:0.369719 35:1.17689 36:-0.071226299 37:-0.0141312 38:1.7185301 39:-0.088616699 40:-0.360724 41:1.6463 42:-0.085876197 43:-0.73171699 44:1.65676 45:-0.085231498 46:-0.79390401 47:1.5859801 48:0.075923502 49:0.0026676001 50:1.67663 51:0.13489901 52:-0.337733 53:1.62435 54:0.144538 55:-0.719468 56:1.64658 57:0.141598 58:-0.77978498 59:1.5721 60:-0.0019817899 61:0.52770799 62:1.83996 63:-0.213764 64:-0.147677 65:1.70426 66:-0.181163 67:-0.069324501 68:1.68196 69:0.13822199 70:0.33340201 71:1.08599 72:0.105032 73:0.331801 74:1.18927 
-0 0 0 0 0 0 0 10 10 10 0 0 0 0:0.0028008199 1:-0.0103503 2:1.73571 3:0 4:0.30000001 5:1.8 6:-0.00252611 7:0.60201198 8:1.84962 9:-0.014226 10:0.76275998 11:1.8528 12:-0.171829 13:0.46470201 14:1.8733701 15:-0.19238 16:0.193652 17:1.85084 18:-0.211879 19:-0.0060818298 20:1.76498 21:-0.214554 22:-0.082351401 23:1.72937 24:0.14078 25:0.50150001 26:1.76463 27:0.226408 28:0.44190601 29:1.5601701 30:0.182184 31:0.38685799 32:1.31979 33:0.146162 34:0.336748 35:1.19052 36:-0.071304798 37:-0.0139427 38:1.71883 39:-0.088813201 40:-0.36017999 41:1.64641 42:-0.085849702 43:-0.73178101 44:1.6568 45:-0.085353501 46:-0.79418403 47:1.58577 48:0.075814098 49:0.00279533 50:1.67671 51:0.13482399 52:-0.337859 53:1.6243401 54:0.14444 55:-0.71993899 56:1.64666 57:0.141194 58:-0.77669001 59:1.57297 60:-0.00193238 61:0.52764702 62:1.83979 63:-0.21420801 64:-0.146881 65:1.7065001 66:-0.18134101 67:-0.069204897 68:1.68209 69:0.13852599 70:0.29851601 71:1.12128 72:0.108082 73:0.29666901 74:1.19305 
-0 0 0 0 0 0 0 10 10 10 0 0 0 0:0.00273135 1:-0.0103391 2:1.73577 3:0 4:0.30000001 5:1.8 6:-0.0024385101 7:0.60202003 8:1.84956 9:-0.0145554 10:0.762761 11:1.85258 12:-0.171848 13:0.46424299 14:1.87384 15:-0.192351 16:0.1936 17:1.85097 18:-0.21165401 19:-0.0062520099 20:1.76538 21:-0.213952 22:-0.081389397 23:1.7279 24:0.142298 25:0.50163299 26:1.76448 27:0.233279 28:0.43932599 29:1.56339 30:0.182862 31:0.36630899 32:1.33779 33:0.149665 34:0.30084199 35:1.20383 36:-0.071354501 37:-0.0138849 38:1.71891 39:-0.0888687 40:-0.36003199 41:1.64634 42:-0.085868903 43:-0.73188102 44:1.65683 45:-0.085151903 46:-0.794873 47:1.5852 48:0.075742401 49:0.00276355 50:1.6767401 51:0.134877 52:-0.33831 53:1.6243 54:0.144398 55:-0.72000998 56:1.64669 57:0.141286 58:-0.779203 59:1.57174 60:-0.00186751 61:0.52765298 62:1.8397501 63:-0.21121 64:-0.14645 65:1.70046 66:-0.18084399 67:-0.063576899 68:1.68392 69:0.14523 70:0.26198 71:1.14905 72:0.111674 73:0.29192001 74:1.1827 
-0 0 0 0 10 0 0 0 0 0 0 0 0 0:0.00351798 1:-0.0093597099 2:1.73441 3:0 4:0.30000001 5:1.8 6:-0.00336442 7:0.60087901 8:1.85141 9:-0.0166157 10:0.76011097 11:1.85414 12:-0.171987 13:0.46479699 14:1.87185 15:-0.190377 16:0.19618499 17:1.84752 18:-0.21698099 19:-0.0024695301 20:1.76098 21:-0.21801899 22:-0.078639001 23:1.71703 24:0.144517 25:0.488695 26:1.76582 27:0.235697 28:0.49423301 29:1.55519 30:0.201701 31:0.51776898 32:1.33417 33:0.14355101 34:0.53384799 35:1.20129 36:-0.071304701 37:-0.0138596 38:1.7178 39:-0.088631101 40:-0.361673 41:1.64797 42:-0.086812697 43:-0.734312 44:1.65801 45:-0.086770602 46:-0.79643601 47:1.58678 48:0.077311501 49:0.0045039998 50:1.67468 51:0.13317101 52:-0.33553699 53:1.6197 54:0.142671 55:-0.71848798 56:1.64748 57:0.139255 58:-0.78365999 59:1.5742 60:-0.00250067 61:0.526752 62:1.84105 63:-0.21576899 64:-0.140071 65:1.69532 66:-0.181851 67:-0.067501597 68:1.68085 69:0.115211 70:0.53247499 71:1.13464 72:0.175441 73:0.55006802 74:1.1611 
-0 0 0 0 10 0 0 0 0 0 0 0 0 0:0.00352293 1:-0.0093651004 2:1.7344199 3:0 4:0.30000001 5:1.8 6:-0.0033742499 7:0.60088098 8:1.85141 9:-0.0165281 10:0.76016003 11:1.85413 12:-0.171699 13:0.46445301 14:1.8718899 15:-0.190503 16:0.196238 17:1.84742 18:-0.216995 19:-0.00237723 20:1.7607599 21:-0.218833 22:-0.078554101 23:1.71734 24:0.144532 25:0.48869699 26:1.7658401 27:0.225466 28:0.49803901 29:1.5417399 30:0.182578 31:0.52061802 32:1.3109699 33:0.14399099 34:0.534069 35:1.19594 36:-0.071289398 37:-0.0138445 38:1.7177401 39:-0.088617101 40:-0.361644 41:1.64798 42:-0.086833 43:-0.73423803 44:1.658 45:-0.0862699 46:-0.79707801 47:1.58666 48:0.077311598 49:0.0044283099 50:1.67475 51:0.133176 52:-0.33546901 53:1.61974 54:0.142612 55:-0.719055 56:1.6475 57:0.13934299 58:-0.78466302 59:1.57418 60:-0.0025081499 61:0.52675402 62:1.84105 63:-0.212016 64:-0.13989399 65:1.68958 66:-0.181867 67:-0.065748602 68:1.68145 69:0.121117 70:0.53436702 71:1.1351 72:0.17856801 73:0.54999799 74:1.1584899 
-0 5.29426594336036 0 0 10 0 0 0 0 0 0 0 0 0:0.0034604 1:-0.0094117103 2:1.73438 3:0 4:0.30000001 5:1.8 6:-0.00333618 7:0.60093898 8:1.85142 9:-0.0161791 10:0.76025498 11:1.8541501 12:-0.172232 13:0.464535 14:1.87154 15:-0.191495 16:0.19563501 17:1.8465101 18:-0.217345 19:-0.00275816 20:1.75903 21:-0.21733899 22:-0.076987997 23:1.71583 24:0.144528 25:0.48896101 26:1.7659301 27:0.240725 28:0.497237 29:1.55782 30:0.199457 31:0.52415597 32:1.33848 33:0.14765801 34:0.53432399 35:1.19121 36:-0.071332403 37:-0.0138315 38:1.71745 39:-0.088682801 40:-0.36166099 41:1.64809 42:-0.087120801 43:-0.73316598 44:1.65856 45:-0.086546697 46:-0.79598302 47:1.58667 48:0.077258199 49:0.0043508802 50:1.67487 51:0.133123 52:-0.335426 53:1.61985 54:0.142636 55:-0.72146302 56:1.6475101 57:0.138643 58:-0.78522497 59:1.57371 60:-0.00248431 61:0.52679503 62:1.84106 63:-0.212798 64:-0.140771 65:1.6921 66:-0.179361 67:-0.053649399 68:1.68294 69:0.132432 70:0.536668 71:1.13111 72:0.184494 73:0.55029899 74:1.15364 
-0 0 0 0 6.514972470642021 0 0 0 0 0 0 0 0 0:0.00339797 1:-0.0094082104 2:1.73437 3:0 4:0.30000001 5:1.8 6:-0.0032571901 7:0.600968 8:1.85147 9:-0.0161357 10:0.76009297 11:1.85421 12:-0.17243899 13:0.46509099 14:1.87149 15:-0.19190601 16:0.195214 17:1.84641 18:-0.217374 19:-0.0030998299 20:1.7586 21:-0.21879099 22:-0.078353398 23:1.7167701 24:0.14446101 25:0.48907101 26:1.76587 27:0.23788901 28:0.49581999 29:1.55635 30:0.20013601 31:0.524728 32:1.33663 33:0.14692099 34:0.53520101 35:1.18408 36:-0.071378797 37:-0.0138207 38:1.71742 39:-0.088689998 40:-0.36169699 41:1.64806 42:-0.087112397 43:-0.73318499 44:1.65856 45:-0.086916402 46:-0.79499 47:1.5874799 48:0.077164598 49:0.0043483102 50:1.6749099 51:0.133118 52:-0.33563799 53:1.6198601 54:0.142648 55:-0.72187799 56:1.6475101 57:0.138331 58:-0.78014499 59:1.5765001 60:-0.00243326 61:0.52681601 62:1.84109 63:-0.215431 64:-0.140707 65:1.69552 66:-0.18179201 67:-0.062534399 68:1.68261 69:0.12639 70:0.53305399 71:1.12305 72:0.18335301 73:0.55008101 74:1.15271 
-0 0 0 0 10 0 0 0 0 0 0 0 0 0:0.0033525301 1:-0.0094058802 2:1.73438 3:0 4:0.30000001 5:1.8 6:-0.0032202699 7:0.60095203 8:1.85145 9:-0.0160679 10:0.759978 11:1.85435 12:-0.172856 13:0.46515399 14:1.87156 15:-0.192131 16:0.195568 17:1.84653 18:-0.217288 19:-0.00270831 20:1.75852 21:-0.218018 22:-0.077443697 23:1.7176501 24:0.144458 25:0.48912799 26:1.76588 27:0.237177 28:0.49824601 29:1.5561301 30:0.200348 31:0.52291203 32:1.33571 33:0.147577 34:0.535074 35:1.18795 36:-0.071419999 37:-0.0138198 38:1.71741 39:-0.088724002 40:-0.361801 41:1.64814 42:-0.087100103 43:-0.733778 44:1.6591901 45:-0.086760603 46:-0.79613501 47:1.58753 48:0.077108502 49:0.00435194 50:1.67495 51:0.13311601 52:-0.33564001 53:1.6198699 54:0.14260501 55:-0.72188401 56:1.64723 57:0.139017 58:-0.782848 59:1.5749 60:-0.0024111499 61:0.526806 62:1.84108 63:-0.215157 64:-0.13967 65:1.69231 66:-0.17900699 67:-0.058180101 68:1.68183 69:0.127644 70:0.53507203 71:1.12799 72:0.18753 73:0.54755902 74:1.1473 
-0 0 0 0 10 0 0 0 0 0 0 0 0 0:0.0033851401 1:-0.0093492903 2:1.73426 3:0 4:0.30000001 5:1.8 6:-0.00326124 7:0.60086799 8:1.85151 9:-0.015941599 10:0.76005203 11:1.85453 12:-0.17281 13:0.46515501 14:1.8717999 15:-0.192527 16:0.195609 17:1.84632 18:-0.217319 19:-0.0028764301 20:1.7587301 21:-0.217537 22:-0.079150103 23:1.71852 24:0.14474601 25:0.48922399 26:1.7658401 27:0.237699 28:0.498519 29:1.55621 30:0.201976 31:0.52123499 32:1.33538 33:0.147294 34:0.53509498 35:1.19031 36:-0.071396701 37:-0.0137608 38:1.71725 39:-0.088781796 40:-0.36158901 41:1.64809 42:-0.087025203 43:-0.734519 44:1.65923 45:-0.087552503 46:-0.79414803 47:1.58816 48:0.077156603 49:0.0044141999 50:1.67489 51:0.13299701 52:-0.33546901 53:1.61985 54:0.14261299 55:-0.72182399 56:1.64735 57:0.13931499 58:-0.78498 59:1.57423 60:-0.0024369699 61:0.52675402 62:1.84113 63:-0.213155 64:-0.14159501 65:1.69709 66:-0.181408 67:-0.063530602 68:1.68107 69:0.125405 70:0.532695 71:1.12844 72:0.18394899 73:0.54905701 74:1.15131 
-0 0 0 0 0 0 0 10 0 0 0 0 0 0:0.0023142199 1:-0.0101289 2:1.7348599 3:0 4:0.30000001 5:1.8 6:-0.00248141 7:0.60099399 8:1.85097 9:-0.0156154 10:0.76063198 11:1.85479 12:-0.17231201 13:0.46507499 14:1.87265 15:-0.192883 16:0.19205201 17:1.84743 18:-0.218192 19:-0.0062841298 20:1.75967 21:-0.21855 22:-0.079755597 23:1.7231899 24:0.136108 25:0.49585399 26:1.76623 27:0.142949 28:0.35335901 29:1.5875 30:0.14036199 31:0.35602701 32:1.36256 33:0.163415 34:0.46168199 35:1.1724499 36:-0.072188497 37:-0.0142068 38:1.71778 39:-0.089516297 40:-0.36235699 41:1.64849 42:-0.086991698 43:-0.73533201 44:1.65922 45:-0.087895803 46:-0.79409498 47:1.58845 48:0.075728998 49:0.00315674 50:1.67582 51:0.132526 52:-0.33772099 53:1.6207 54:0.142382 55:-0.719598 56:1.64809 57:0.13924199 58:-0.78245699 59:1.57541 60:-0.0019033001 61:0.52684802 62:1.84076 63:-0.214215 64:-0.141738 65:1.69812 66:-0.181844 67:-0.064403303 68:1.68243 69:0.154745 70:0.45574999 71:1.1353 72:0.201056 73:0.48451701 74:1.17688 
-0 0 0 0 0 0 0 10 0 0 0 0 0 0:0.0022423901 1:-0.0100958 2:1.73487 3:0 4:0.30000001 5:1.8 6:-0.00239433 7:0.60099697 8:1.85102 9:-0.015625 10:0.76062399 11:1.85474 12:-0.172812 13:0.465233 14:1.87278 15:-0.19281501 16:0.19209699 17:1.84752 18:-0.21815901 19:-0.0062169801 20:1.75971 21:-0.216686 22:-0.0781257 23:1.72247 24:0.13808 25:0.49786201 26:1.76552 27:0.144834 28:0.353138 29:1.58871 30:0.142092 31:0.352772 32:1.36376 33:0.165043 34:0.44392401 35:1.17422 36:-0.0722133 37:-0.0141803 38:1.71785 39:-0.089604899 40:-0.36216801 41:1.6483999 42:-0.087088101 43:-0.73534501 44:1.65891 45:-0.087576203 46:-0.79494101 47:1.58807 48:0.075592197 49:0.0032187901 50:1.67579 51:0.132524 52:-0.337735 53:1.62064 54:0.141984 55:-0.71827197 56:1.64835 57:0.139442 58:-0.78328598 59:1.57495 60:-0.00184331 61:0.52684999 62:1.84079 63:-0.213091 64:-0.141169 65:1.69682 66:-0.180639 67:-0.061958399 68:1.6834199 69:0.162642 70:0.43832299 71:1.13342 72:0.20565499 73:0.459057 74:1.17932 
-0 0 0 0 0 0 0 10 0 0 0 0 0 0:0.0021685101 1:-0.0100904 2:1.73493 3:0 4:0.30000001 5:1.8 6:-0.00222628 7:0.60102397 8:1.85093 9:-0.015724599 10:0.760665 11:1.85462 12:-0.172567 13:0.46474099 14:1.87359 15:-0.192736 16:0.192201 17:1.8477401 18:-0.21804 19:-0.0061469702 20:1.76001 21:-0.216757 22:-0.079488903 23:1.72203 24:0.139101 25:0.49853799 26:1.7652299 27:0.15218399 28:0.468389 29:1.49879 30:0.141789 31:0.31325999 32:1.33898 33:0.165555 34:0.42251599 35:1.17365 36:-0.0722472 37:-0.0141813 38:1.71793 39:-0.089735404 40:-0.361994 41:1.64842 42:-0.087089904 43:-0.73409498 44:1.65909 45:-0.087571703 46:-0.794276 47:1.58788 48:0.075492799 49:0.0032353399 50:1.67579 51:0.132447 52:-0.337551 53:1.6205601 54:0.14191601 55:-0.71831697 56:1.64847 57:0.13945299 58:-0.78363901 59:1.57449 60:-0.00171679 61:0.526869 62:1.8407201 63:-0.20880599 64:-0.146138 65:1.6992 66:-0.183587 67:-0.077863097 68:1.6776201 69:0.164103 70:0.39265901 71:1.1108299 72:0.202126 73:0.445416 74:1.1806999 
-0 0 0 0 0 0 0 10 10 0.1982099773885314 0 0 0 0:0.00222605 1:-0.0100105 2:1.7349401 3:0 4:0.30000001 5:1.8 6:-0.0022602801 7:0.60098398 8:1.85096 9:-0.0159187 10:0.76058 11:1.8545099 12:-0.17228401 13:0.46449 14:1.8740799 15:-0.192697 16:0.19221 17:1.84803 18:-0.21800099 19:-0.0061524902 20:1.76034 21:-0.21724699 22:-0.080237404 23:1.72333 24:0.140815 25:0.499405 26:1.76502 27:0.152211 28:0.35363901 29:1.5894099 30:0.148954 31:0.352817 32:1.36447 33:0.17082 34:0.40055999 35:1.17646 36:-0.072090797 37:-0.0140709 38:1.71806 39:-0.089807197 40:-0.36195901 41:1.64835 42:-0.087181799 43:-0.73403299 44:1.6594501 45:-0.087413102 46:-0.795268 47:1.58757 48:0.075502902 49:0.0033027099 50:1.67574 51:0.13246199 52:-0.337446 53:1.6203901 54:0.14198001 55:-0.71868497 56:1.64836 57:0.139496 58:-0.78446001 59:1.57386 60:-0.00173819 61:0.526842 62:1.84074 63:-0.211685 64:-0.141304 65:1.69549 66:-0.18233199 67:-0.0687766 68:1.68095 69:0.174558 70:0.36961699 71:1.09777 72:0.208602 73:0.42408299 74:1.1850899 
-0 0 0 0 0 0 0 0 0 0 0 0 10 0:0.00306577 1:-0.01225 2:1.72993 3:0 4:0.30000001 5:1.8 6:-0.0039442698 7:0.60254699 8:1.85662 9:-0.0091418196 10:0.766204 11:1.86307 12:-0.17668401 13:0.46086699 14:1.8711801 15:-0.208166 16:0.19754501 17:1.8389 18:-0.23834699 19:-0.0131158 20:1.7494 21:-0.24488699 22:-0.086017698 23:1.7179101 24:0.123242 25:0.478533 26:1.77529 27:0.088512599 28:0.478681 29:1.50883 30:0.0644022 31:0.44854701 32:1.2543 33:0.051005799 34:0.48515701 35:1.22079 36:-0.072666302 37:-0.0174639 38:1.71293 39:-0.093399704 40:-0.35271999 41:1.63486 42:-0.077408001 43:-0.72294599 44:1.6561199 45:-0.077460602 46:-0.79050499 47:1.5889 48:0.076498501 49:0.00255888 50:1.6713099 51:0.118349 52:-0.318928 53:1.635 54:0.113866 55:-0.71068901 56:1.65774 57:0.106924 58:-0.78398001 59:1.5791399 60:-0.0028377499 61:0.52806097 62:1.84487 63:-0.246344 64:-0.14093199 65:1.69262 66:-0.20747299 67:-0.085273102 68:1.67742 69:0.037083302 70:0.49175701 71:1.15599 72:0.00502891 73:0.45213199 74:1.21208 
-0 0 0 0 0 0 0 0 0 0 0 0 10 0:0.0024054099 1:-0.0150279 2:1.7301199 3:0 4:0.30000001 5:1.8 6:-0.0032596099 7:0.604433 8:1.85631 9:-0.00777337 10:0.76789802 11:1.86285 12:-0.175244 13:0.46269199 14:1.87034 15:-0.20710599 16:0.199257 17:1.83968 18:-0.23706999 19:-0.0107559 20:1.75106 21:-0.24231499 22:-0.085273802 23:1.7230099 24:0.123176 25:0.47654 26:1.77326 27:0.096326903 28:0.34458399 29:1.58784 30:0.064475 31:0.428543 32:1.30168 33:0.034702901 34:0.492259 35:1.2359 36:-0.074539199 37:-0.021474401 38:1.71655 39:-0.091825403 40:-0.351172 41:1.63555 42:-0.075443998 43:-0.72097802 44:1.6554199 45:-0.076313801 46:-0.78667998 47:1.58848 48:0.076532498 49:0.00025258999 50:1.66891 51:0.119999 52:-0.31630999 53:1.63438 54:0.115098 55:-0.70979398 56:1.65741 57:0.108841 58:-0.78186101 59:1.57822 60:-0.00228979 61:0.52958202 62:1.84463 63:-0.242423 64:-0.13943 65:1.69683 66:-0.20768601 67:-0.078165703 68:1.69152 69:0.0126076 70:0.50158602 71:1.16685 72:-0.0175255 73:0.45601699 74:1.22208 
-0 0 0 0 0 0 0 0 0 0 0 0 10 0:0.00272402 1:-0.017207799 2:1.73027 3:0 4:0.30000001 5:1.8 6:-0.0045146402 7:0.60721302 8:1.85659 9:-0.0058355499 10:0.76834601 11:1.86211 12:-0.173623 13:0.463653 14:1.86947 15:-0.20523401 16:0.20002 17:1.8401 18:-0.234284 19:-0.0093798302 20:1.75307 21:-0.23769 22:-0.0859695 23:1.7248501 24:0.123404 25:0.47784501 26:1.77104 27:0.072611198 28:0.485493 29:1.50737 30:0.0401209 31:0.49022701 32:1.3371201 33:0.013344 34:0.49834001 35:1.25021 36:-0.074400999 37:-0.023707001 38:1.71876 39:-0.089595497 40:-0.35085201 41:1.63598 42:-0.073136501 43:-0.72047901 44:1.6551501 45:-0.074413396 46:-0.78493297 47:1.58793 48:0.077113099 49:-0.0017128499 50:1.66723 51:0.12107 52:-0.32001099 53:1.6365499 54:0.117359 55:-0.70945501 56:1.65642 57:0.111215 58:-0.78129399 59:1.577 60:-0.0031141399 61:0.53144199 62:1.84481 63:-0.240831 64:-0.13985699 65:1.69959 66:-0.19483501 67:-0.082870997 68:1.68551 69:-0.018534901 70:0.50218397 71:1.17774 72:-0.036901001 73:0.46269 74:1.2444201 
-0 0 0 0 0 0 0 0 0 0 0 0 10 0:0.0019898801 1:-0.020173401 2:1.73088 3:0 4:0.30000001 5:1.8 6:-0.0050738798 7:0.611552 8:1.85535 9:-0.0057075 10:0.76817203 11:1.86234 12:-0.17393 13:0.46353599 14:1.86958 15:-0.20483901 16:0.199894 17:1.84039 18:-0.232079 19:-0.0104087 20:1.75302 21:-0.233017 22:-0.084764197 23:1.72247 24:0.11696 25:0.47359899 26:1.7692 27:0.14865801 28:0.48704299 29:1.49377 30:0.024721401 31:0.500081 32:1.30752 33:-0.00875971 34:0.50473797 35:1.26246 36:-0.074771002 37:-0.0257516 38:1.71939 39:-0.089214101 40:-0.35182801 41:1.63735 42:-0.072884999 43:-0.72033501 44:1.65537 45:-0.073817901 46:-0.78527403 47:1.5871201 48:0.076314703 49:-0.0050931899 50:1.6673501 51:0.121193 52:-0.32194301 53:1.6375999 54:0.117046 55:-0.71019101 56:1.65687 57:0.111605 58:-0.78141302 59:1.5772099 60:-0.0036001501 61:0.53404599 62:1.8441 63:-0.23673099 64:-0.139153 65:1.69727 66:-0.194353 67:-0.0787239 68:1.68698 69:-0.051434301 70:0.50609499 71:1.18437 72:-0.046338301 73:0.47450301 74:1.26501 
-0 0 0 0 0 0 0 0 0 0 8.116665187187042 0 10 0:0.0014517501 1:-0.022651101 2:1.7321301 3:0 4:0.30000001 5:1.8 6:-0.0024043799 7:0.61983401 8:1.8508101 9:-0.0057765599 10:0.767573 11:1.86299 12:-0.173821 13:0.46242699 14:1.87084 15:-0.204583 16:0.201259 17:1.84234 18:-0.228907 19:-0.0166882 20:1.75287 21:-0.228765 22:-0.086920701 23:1.72497 24:0.116685 25:0.47300801 26:1.76984 27:0.188657 28:0.489849 29:1.53803 30:0.026688701 31:0.499688 32:1.3427401 33:-0.035505101 34:0.50924897 35:1.28212 36:-0.075211897 37:-0.027450601 38:1.71972 39:-0.089699499 40:-0.354164 41:1.63949 42:-0.072920099 43:-0.72134501 44:1.65613 45:-0.074723303 46:-0.78457999 47:1.58828 48:0.075829402 49:-0.0083899396 50:1.66979 51:0.120294 52:-0.32522801 53:1.63998 54:0.116826 55:-0.71081299 56:1.65763 57:0.11148 58:-0.78193003 59:1.5776 60:-0.00195235 61:0.53983003 62:1.84104 63:-0.233643 64:-0.14268699 65:1.70234 66:-0.187629 67:-0.073196203 68:1.6774 69:-0.081544399 70:0.51042199 71:1.2053 72:-0.067967899 73:0.47929001 74:1.29269 
-0 0 0 0 0 0 0 0 0 0 10 0 10 0:0.0014121199 1:-0.022816099 2:1.73234 3:0 4:0.30000001 5:1.8 6:-0.00234369 7:0.618738 8:1.8513 9:-0.00571445 10:0.76778901 11:1.86287 12:-0.173462 13:0.46254501 14:1.87079 15:-0.20398299 16:0.201501 17:1.8429 18:-0.227303 19:-0.0178326 20:1.7531199 21:-0.228383 22:-0.086891003 23:1.7288001 24:0.125517 25:0.482252 26:1.7742 27:0.18613601 28:0.49111301 29:1.54074 30:-0.030993801 31:0.49949101 32:1.35454 33:-0.061751898 34:0.51181102 35:1.30662 36:-0.075330198 37:-0.0273562 38:1.71933 39:-0.0893353 40:-0.352301 41:1.63977 42:-0.073446199 43:-0.72017401 44:1.65689 45:-0.074789703 46:-0.78405201 47:1.58824 48:0.076032802 49:-0.0092192497 50:1.67147 51:0.120305 52:-0.32538199 53:1.63998 54:0.116698 55:-0.71084303 56:1.65762 57:0.111618 58:-0.78150702 59:1.57732 60:-0.00189279 61:0.53939402 62:1.8412499 63:-0.232785 64:-0.14274999 65:1.70367 66:-0.191606 67:-0.076542601 68:1.68911 69:-0.114009 70:0.51440603 71:1.23081 72:-0.094102003 73:0.48129901 74:1.31485 
-10 0 0 0 0 0 0 0 0 0 10 1.49826930130203 10 0:0.00115234 1:-0.024436301 2:1.73334 3:0 4:0.30000001 5:1.8 6:-0.00126705 7:0.62035102 8:1.85037 9:-0.00576586 10:0.76769203 11:1.86301 12:-0.173351 13:0.45961699 14:1.87094 15:-0.20294701 16:0.204438 17:1.84479 18:-0.22571599 19:-0.0199716 20:1.7535501 21:-0.225641 22:-0.087758601 23:1.72677 24:0.12616999 25:0.48142299 26:1.77476 27:0.18192001 28:0.49067801 29:1.54338 30:-0.027166501 31:0.50173199 32:1.3702199 33:-0.0856001 34:0.51604497 35:1.32829 36:-0.075875998 37:-0.0283792 38:1.71942 39:-0.089602403 40:-0.352963 41:1.64062 42:-0.073700599 43:-0.720882 44:1.65701 45:-0.075991303 46:-0.78082699 47:1.5897599 48:0.076315098 49:-0.0112528 50:1.67331 51:0.120105 52:-0.325856 53:1.64039 54:0.116401 55:-0.710594 56:1.65785 57:0.111089 58:-0.78168201 59:1.57761 60:-0.00106928 61:0.54069901 62:1.8405401 63:-0.22531 64:-0.14366899 65:1.70227 66:-0.187291 67:-0.074487902 68:1.68176 69:-0.15019099 70:0.51507199 71:1.25336 72:-0.116397 73:0.48237199 74:1.34422 
-3.611425718575505 0 0 0 0 0 0 0 0 0 10 10 10 0:0.00129485 1:-0.0248635 2:1.73385 3:0 4:0.30000001 5:1.8 6:-0.00129815 7:0.62051803 8:1.84983 9:-0.0055135302 10:0.76737797 11:1.86348 12:-0.17291901 13:0.457977 14:1.8704 15:-0.202949 16:0.20442501 17:1.84585 18:-0.22060201 19:-0.0005357 20:1.76835 21:-0.22487999 22:-0.081658199 23:1.7344 24:0.128581 25:0.48292699 26:1.77609 27:0.174169 28:0.489048 29:1.54793 30:-0.039629102 31:0.50305802 32:1.39345 33:-0.110007 34:0.51654899 35:1.35507 36:-0.0759653 37:-0.028538801 38:1.7194901 39:-0.089662097 40:-0.353266 41:1.64127 42:-0.0739021 43:-0.72093099 44:1.65729 45:-0.075921401 46:-0.78109401 47:1.59001 48:0.076991796 49:-0.0121033 50:1.6747 51:0.12006 52:-0.32632899 53:1.64114 54:0.115879 55:-0.71199501 56:1.65897 57:0.111013 58:-0.78181797 59:1.57785 60:-0.00105479 61:0.540923 62:1.84009 63:-0.222363 64:-0.142381 65:1.7056 66:-0.18823899 67:-0.067703903 68:1.68863 69:-0.17568301 70:0.515333 71:1.28004 72:-0.14296199 73:0.48306799 74:1.37195 
-10 0 0 0 0 1.533013999900358 2.510439779547069 0 0 0 10 10 10 0:0.00159459 1:-0.0244908 2:1.73379 3:0 4:0.30000001 5:1.8 6:-0.0022132101 7:0.61814499 8:1.85085 9:-0.0045783399 10:0.76789302 11:1.86281 12:-0.171956 13:0.456873 14:1.8688101 15:-0.20270599 16:0.205841 17:1.84578 18:-0.21964701 19:0.0019552901 20:1.7690901 21:-0.223294 22:-0.078492597 23:1.73331 24:0.13034099 25:0.485791 26:1.77544 27:0.16395301 28:0.49480799 29:1.54715 30:-0.0738241 31:0.50330299 32:1.41617 33:-0.140866 34:0.51494402 35:1.3842 36:-0.075822003 37:-0.0279769 38:1.71908 39:-0.089319304 40:-0.35251701 41:1.6411099 42:-0.073642001 43:-0.720204 44:1.6567301 45:-0.075470597 46:-0.780617 47:1.58981 48:0.077477999 49:-0.0116995 50:1.67465 51:0.120177 52:-0.32427499 53:1.6410201 54:0.116662 55:-0.709158 56:1.65813 57:0.111088 58:-0.78114599 59:1.57716 60:-0.00160448 61:0.53954798 62:1.8407 63:-0.219814 64:-0.140494 65:1.70353 66:-0.18498001 67:-0.0542146 68:1.68265 69:-0.21193799 70:0.51576197 71:1.3194799 72:-0.175594 73:0.48137701 74:1.39256 
-0 0 0 0 0 0 0 0 0 0 0 0 10 0:0.00100136 1:-0.0110871 2:1.73804 3:0 4:0.30000001 5:1.8 6:-0.00194953 7:0.60298902 8:1.84767 9:-0.000173569 10:0.76772398 11:1.85041 12:-0.17549001 13:0.47523499 14:1.8674999 15:-0.19708 16:0.20265301 17:1.8412499 18:-0.218438 19:0.00177962 20:1.75508 21:-0.21961799 22:-0.071838103 23:1.71462 24:0.134146 25:0.47235999 26:1.7678 27:0.22696 28:0.49332601 29:1.5039901 30:0.14504699 31:0.51472002 32:1.29559 33:0.106295 34:0.52603197 35:1.21413 36:-0.075474203 37:-0.0134753 38:1.71971 39:-0.097318001 40:-0.345366 41:1.58657 42:-0.087029099 43:-0.714926 44:1.6303101 45:-0.080873199 46:-0.78126103 47:1.56892 48:0.074945003 49:0.0014737 50:1.68001 51:0.105296 52:-0.31228301 53:1.63574 54:0.053883299 55:-0.70151699 56:1.6279401 57:0.033002101 58:-0.766343 59:1.5514899 60:-0.00134289 61:0.52825499 62:1.8382699 63:-0.219273 64:-0.13046899 65:1.68548 66:-0.184176 67:-0.062821597 68:1.68296 69:0.067397296 70:0.51085198 71:1.17228 72:0.070968002 73:0.48315999 74:1.22175 
-0 0 0 0 0 0 0 0 0 0 0 0 7.650374491469417 0:0.00097882003 1:-0.0111505 2:1.73812 3:0 4:0.30000001 5:1.8 6:-0.00186779 7:0.60306799 8:1.84759 9:-0.000226334 10:0.76771301 11:1.85049 12:-0.175889 13:0.47501999 14:1.86817 15:-0.197244 16:0.202599 17:1.84145 18:-0.21848699 19:0.00162057 20:1.7548701 21:-0.221376 22:-0.073725902 23:1.7166899 24:0.13418201 25:0.47216499 26:1.768 27:0.227065 28:0.49335301 29:1.50475 30:0.14528701 31:0.51452899 32:1.29628 33:0.107967 34:0.52613199 35:1.21735 36:-0.075471699 37:-0.0135686 38:1.7198 39:-0.097255602 40:-0.34543699 41:1.58676 42:-0.087191597 43:-0.71406198 44:1.6301399 45:-0.080859303 46:-0.78116697 47:1.56903 48:0.074899301 49:0.00143768 50:1.68012 51:0.105768 52:-0.30817601 53:1.6353199 54:0.053973299 55:-0.70105302 56:1.62834 57:0.031986099 58:-0.76584798 59:1.55344 60:-0.0012881299 61:0.52831501 62:1.83821 63:-0.22127201 64:-0.132127 65:1.69399 66:-0.183814 67:-0.062781401 68:1.6815701 69:0.072641402 70:0.515172 71:1.1774499 72:0.071352698 73:0.48299599 74:1.22164 
-0 0 0 0 0 0 0 0 0 0 0 0 10 0:0.00095852499 1:-0.0115103 2:1.73779 3:0 4:0.30000001 5:1.8 6:-0.00165437 7:0.60359401 8:1.84798 9:-0.000843324 10:0.76791501 11:1.85025 12:-0.175028 13:0.47399199 14:1.8678 15:-0.199715 16:0.20064101 17:1.8409801 18:-0.220283 19:-0.0039816499 20:1.75594 21:-0.223721 22:-0.077186897 23:1.71859 24:0.134993 25:0.47203299 26:1.7691801 27:0.191053 28:0.46264899 29:1.51691 30:0.110689 31:0.505494 32:1.25819 33:0.103227 34:0.53022403 35:1.2181 36:-0.075377896 37:-0.0139682 38:1.71921 39:-0.096797802 40:-0.346322 41:1.58667 42:-0.086102799 43:-0.71522897 44:1.63109 45:-0.080784298 46:-0.78142899 47:1.56892 48:0.0748972 49:0.00114065 50:1.67996 51:0.105469 52:-0.31079599 53:1.63506 54:0.053792499 55:-0.70362097 56:1.62907 57:0.0329272 58:-0.76586801 59:1.55794 60:-0.00114247 61:0.52870202 62:1.83848 63:-0.22103301 64:-0.132883 65:1.69216 66:-0.184434 67:-0.063734703 68:1.6831501 69:0.072452098 70:0.52309197 71:1.17751 72:0.064187303 73:0.488336 74:1.2194999 
-0 0 0 0 0 0 0 0 0 0 0 0 10 0:0.00107696 1:-0.0115463 2:1.7378 3:0 4:0.30000001 5:1.8 6:-0.0017974901 7:0.60361302 8:1.84799 9:-0.00113308 10:0.767712 11:1.85023 12:-0.17490099 13:0.47385001 14:1.86779 15:-0.20003299 16:0.201204 17:1.84156 18:-0.220597 19:-0.00453295 20:1.75595 21:-0.223612 22:-0.079287402 23:1.72003 24:0.13508999 25:0.472206 26:1.76914 27:0.224208 28:0.500063 29:1.48543 30:0.12794501 31:0.52181399 32:1.28348 33:0.0963303 34:0.53293502 35:1.21966 36:-0.075286403 37:-0.0140011 38:1.71931 39:-0.096635602 40:-0.346423 41:1.58665 42:-0.086278297 43:-0.71491998 44:1.63112 45:-0.080356702 46:-0.78177202 47:1.56914 48:0.075022697 49:0.00112985 50:1.6799099 51:0.104764 52:-0.31509501 53:1.6356601 54:0.053972799 55:-0.70376301 56:1.62901 57:0.033486102 58:-0.76658398 59:1.55652 60:-0.00125063 61:0.52872097 62:1.83849 63:-0.224572 64:-0.13406 65:1.6978101 66:-0.18501601 67:-0.066325903 68:1.68341 69:0.065587498 70:0.52319199 71:1.17957 72:0.069317997 73:0.49533999 74:1.22221 
-0 0 0 0 0 0 0 0 0 0 0 0 10 0:0.00127632 1:-0.0117276 2:1.7381099 3:0 4:0.30000001 5:1.8 6:-0.00199237 7:0.60380697 8:1.8475699 9:-0.0011778401 10:0.76735699 11:1.85067 12:-0.174518 13:0.473598 14:1.86822 15:-0.19965699 16:0.200854 17:1.84205 18:-0.22030701 19:-0.0047976701 20:1.75652 21:-0.22461 22:-0.076642901 23:1.7201 24:0.13528 25:0.47230801 26:1.7694499 27:0.222305 28:0.49944699 29:1.48842 30:0.12525199 31:0.52263802 32:1.28703 33:0.087351799 34:0.53412402 35:1.22166 36:-0.075100698 37:-0.0142603 38:1.71992 39:-0.096350797 40:-0.34680599 41:1.58696 42:-0.085474297 43:-0.715204 44:1.6314 45:-0.080119297 46:-0.78216398 47:1.56846 48:0.075115196 49:0.00123142 50:1.6796 51:0.105166 52:-0.31693399 53:1.6360199 54:0.054341301 55:-0.70410502 56:1.6294 57:0.033780999 58:-0.76699299 59:1.55718 60:-0.00139996 61:0.52886897 62:1.8381799 63:-0.222628 64:-0.134239 65:1.6971101 66:-0.184526 67:-0.065481402 68:1.6823699 69:0.052710999 70:0.524997 71:1.1818 72:0.047614101 73:0.49286699 74:1.22065 
-10 -10 0 0 10 2.223798099367674 0 0 0 0 0 0 0 0:0.00325967 1:-0.0102757 2:1.7367899 3:0 4:0.30000001 5:1.8 6:-0.0032921799 7:0.60187298 8:1.84972 9:-0.0104067 10:0.76523 11:1.8589799 12:-0.17434099 13:0.47079501 14:1.8646899 15:-0.20075101 16:0.20292901 17:1.82854 18:-0.21654999 19:0.0019553101 20:1.73611 21:-0.217182 22:-0.0811226 23:1.69735 24:0.146906 25:0.50161302 26:1.77437 27:0.2483 28:0.55352801 29:1.57937 30:0.27254099 31:0.55333799 32:1.28411 33:0.29047599 34:0.56325501 35:1.1906 36:-0.072509304 37:-0.0122428 38:1.71627 39:-0.098932199 40:-0.37203401 41:1.63226 42:-0.102005 43:-0.73234898 44:1.62459 45:-0.105619 46:-0.79652703 47:1.54688 48:0.077001899 49:0.00124375 50:1.6812299 51:0.134626 52:-0.35366401 53:1.6352201 54:0.147129 55:-0.72434998 56:1.66401 57:0.149148 58:-0.79041201 59:1.58374 60:-0.00240705 61:0.52749801 62:1.8397501 63:-0.218789 64:-0.15157101 65:1.66681 66:-0.17795201 67:-0.055647101 68:1.65725 69:0.295513 70:0.55886102 71:1.13459 72:0.26593399 73:0.55803198 74:1.13776 
-0 -10 0 0 10 0 0 0 0 0 0 0 0 0:0.00310644 1:-0.0099576199 2:1.73722 3:0 4:0.30000001 5:1.8 6:-0.0032156601 7:0.60169297 8:1.84949 9:-0.0122019 10:0.76519001 11:1.85832 12:-0.174679 13:0.47024599 14:1.86534 15:-0.200436 16:0.203035 17:1.8291 18:-0.21647701 19:0.0017260601 20:1.73619 21:-0.21671499 22:-0.081063397 23:1.69897 24:0.149709 25:0.50506699 26:1.7736501 27:0.264321 28:0.55100501 29:1.58509 30:0.32179901 31:0.55495501 32:1.2947 33:0.331624 34:0.565247 35:1.20181 36:-0.072468303 37:-0.0120679 38:1.7166899 39:-0.099038802 40:-0.37308499 41:1.6325901 42:-0.101503 43:-0.73187202 44:1.62492 45:-0.105378 46:-0.79676503 47:1.54678 48:0.076604702 49:0.00168624 50:1.6816601 51:0.1348 52:-0.353686 53:1.63494 54:0.14735501 55:-0.72460097 56:1.66369 57:0.149452 58:-0.79074901 59:1.58356 60:-0.0023398199 61:0.52734798 62:1.83956 63:-0.21953499 64:-0.152445 65:1.67545 66:-0.17773201 67:-0.074714497 68:1.65511 69:0.34106901 70:0.56036198 71:1.14026 72:0.297831 73:0.52647901 74:1.19112 
-0 -0 0 0 5.523297016810595 0 0 0 0 0 0 0 0 0:0.0030908899 1:-0.00935762 2:1.7376601 3:0 4:0.30000001 5:1.8 6:-0.0032456401 7:0.60148197 8:1.84908 9:-0.0146007 10:0.76440698 11:1.85751 12:-0.17488199 13:0.469971 14:1.86593 15:-0.200207 16:0.20302799 17:1.82974 18:-0.216636 19:0.00139121 20:1.73648 21:-0.217916 22:-0.081757702 23:1.70128 24:0.15163299 25:0.50815099 26:1.77335 27:0.27369699 28:0.54986203 29:1.58886 30:0.355073 31:0.55958003 32:1.30598 33:0.37737599 34:0.567913 35:1.21698 36:-0.072355904 37:-0.0116545 38:1.71715 39:-0.099168897 40:-0.37334999 41:1.6332099 42:-0.101123 43:-0.73204201 44:1.62529 45:-0.105254 46:-0.79693401 47:1.5471801 48:0.076431498 49:0.00242649 50:1.68208 51:0.134739 52:-0.35402301 53:1.63493 54:0.14739899 55:-0.72495502 56:1.66373 57:0.149308 58:-0.79110497 59:1.58363 60:-0.0023567399 61:0.52717799 62:1.8393101 63:-0.21980301 64:-0.152006 65:1.67029 66:-0.17844 67:-0.061173201 68:1.66052 69:0.400291 70:0.55638802 71:1.14879 72:0.34125701 73:0.52812099 74:1.20138 
-0 -0 10 0 0 0 0 0 0 0 0 0 0 0:0.0031530999 1:-0.0085750297 2:1.7394 3:0 4:0.30000001 5:1.8 6:-0.0040253298 7:0.600995 8:1.84708 9:-0.018941499 10:0.76352102 11:1.85508 12:-0.174292 13:0.468566 14:1.86648 15:-0.19879401 16:0.202904 17:1.83427 18:-0.21747699 19:-0.0051243398 20:1.74579 21:-0.21906599 22:-0.086382002 23:1.71418 24:0.158159 25:0.51409 26:1.77255 27:0.335639 28:0.54035598 29:1.62648 30:0.477321 31:0.55291897 32:1.43283 33:0.539388 34:0.56012601 35:1.32647 36:-0.072095104 37:-0.0108655 38:1.72074 39:-0.099030003 40:-0.37532899 41:1.6352 42:-0.100592 43:-0.73571801 44:1.6257401 45:-0.103857 46:-0.79821199 47:1.5473 48:0.076254599 49:0.00328868 50:1.68248 51:0.135139 52:-0.35473201 53:1.63425 54:0.148599 55:-0.72712201 56:1.66359 57:0.150455 58:-0.79193997 59:1.58375 60:-0.0028872499 61:0.52682 62:1.83792 63:-0.220946 64:-0.157111 65:1.68695 66:-0.18008301 67:-0.084111601 68:1.65852 69:0.58425599 70:0.55413097 71:1.26059 72:0.51589501 73:0.52028799 74:1.28809 
-0 -0 10 0 0 0 0 0 0 0 0 0 0 0:0.0032905899 1:-0.0084408401 2:1.73974 3:0 4:0.30000001 5:1.8 6:-0.00416657 7:0.60081297 8:1.84653 9:-0.0197377 10:0.76324898 11:1.85375 12:-0.174372 13:0.46836799 14:1.86599 15:-0.198633 16:0.201921 17:1.8350101 18:-0.21778999 19:-0.0031613901 20:1.75121 21:-0.219918 22:-0.086525999 23:1.7171299 24:0.15987501 25:0.51570803 26:1.7737499 27:0.36173001 28:0.54089302 29:1.62084 30:0.52855098 31:0.54806399 32:1.43121 33:0.57068098 34:0.55221701 35:1.36411 36:-0.071957901 37:-0.0109095 38:1.72113 39:-0.099313997 40:-0.375945 41:1.6361099 42:-0.100317 43:-0.736561 44:1.62609 45:-0.103326 46:-0.79875898 47:1.54758 48:0.076411597 49:0.0035415101 50:1.68268 51:0.13527299 52:-0.35493299 53:1.6343499 54:0.14884301 55:-0.72808301 56:1.66369 57:0.149134 58:-0.786937 59:1.5855 60:-0.0030006201 61:0.52669698 62:1.83751 63:-0.225765 64:-0.15821099 65:1.69257 66:-0.18102799 67:-0.068135701 68:1.66951 69:0.61961502 70:0.545834 71:1.28452 72:0.56573099 73:0.50735801 74:1.33074 
