svm_type c_svc
kernel_type rbf
gamma 0.1
nr_class 5
total_sv 90
rho 1.34816 -0.0658768 1.24778 -1.58728e-05 0.00368863 1.4389 0.000150238 -0.112542 -0.076677 -1.35249
label 10 20 21 22 23
nr_sv 18 23 10 27 12
SV
10 0 10 0 0:0.013346925 1:-0.013003789 2:1.7312602 3:0 4:0.30000001 5:1.8 6:-0.013417557 7:0.60066485 8:1.8546427 9:-0.037450932 10:0.77100027 11:1.8593141 12:-0.18141992 13:0.47067305 14:1.893803 15:-0.21412405 16:0.20273304 17:1.8487409 18:-0.2357903 19:-0.0090401694 20:1.7494243 21:-0.23453405 22:-0.074361794 23:1.71286 24:0.1522909 25:0.48557559 26:1.822822 27:0.23132606 28:0.2302407 29:1.7757405 30:0.24875365 31:0.0023604259 32:1.651338 33:0.23788033 34:-0.058431767 35:1.624771 36:-0.063003331 37:-0.018083729 38:1.706901 39:-0.05648116 40:-0.39637902 41:1.6595212 42:-0.025940821 43:-0.74184996 44:1.6863321 45:-0.014273658 46:-0.81654745 47:1.6209425 48:0.083251745 49:0.00076215714 50:1.6814696 51:0.11524813 52:-0.37625697 53:1.6191744 54:0.11218531 55:-0.74233228 56:1.6578132 57:0.095260575 58:-0.81659275 59:1.5911783 60:-0.0099867284 61:0.52706188 62:1.8433365 63:-0.23128049 64:-0.1363745 65:1.6820511 66:-0.27720022 67:-0.094484948 68:1.7207004 69:0.23512803 70:-0.12374356 71:1.5875608 72:0.17966859 73:-0.037370972 74:1.6024379 
10 0 0 0 0:0.013297066 1:-0.012990959 2:1.731257 3:0 4:0.30000001 5:1.8 6:-0.013392299 7:0.60065216 8:1.8546453 9:-0.037351333 10:0.77102768 11:1.8595068 12:-0.1812553 13:0.47056878 14:1.894057 15:-0.21422169 16:0.20274231 17:1.8487446 18:-0.23583081 19:-0.00901746 20:1.7494333 21:-0.23383409 22:-0.07328365 23:1.7119799 24:0.15228997 25:0.48545569 26:1.8228042 27:0.23138653 28:0.23031217 29:1.7757831 30:0.24865453 31:0.0024070069 32:1.65131 33:0.23781021 34:-0.058647551 35:1.6240931 36:-0.063054174 37:-0.018058248 38:1.7069182 39:-0.056564391 40:-0.39635843 41:1.659452 42:-0.025531217 43:-0.74326581 44:1.6856289 45:-0.014074072 46:-0.8179813 47:1.6202846 48:0.083200172 49:0.00076197833 50:1.6814508 51:0.11531393 52:-0.37597305 53:1.619122 54:0.11208223 55:-0.74227804 56:1.657712 57:0.09528853 58:-0.81661242 59:1.5912256 60:-0.0099654794 61:0.52705228 62:1.8433387 63:-0.22993514 64:-0.13520378 65:1.6786032 66:-0.27660352 67:-0.094591685 68:1.719667 69:0.23468246 70:-0.12344883 71:1.5860586 72:0.17991529 73:-0.034875996 74:1.6028051 
10 0 0 2.701739062099422 0:0.01320447 1:-0.013030805 2:1.7311243 3:0 4:0.30000001 5:1.8 6:-0.013322473 7:0.60071629 8:1.8548168 9:-0.03734237 10:0.7710548 11:1.8595361 12:-0.18117589 13:0.47033811 14:1.8936299 15:-0.21451119 16:0.20284539 17:1.8486081 18:-0.23599802 19:-0.0089366958 20:1.7493736 21:-0.23408732 22:-0.074183442 23:1.7130104 24:0.1520282 25:0.48550522 26:1.8225321 27:0.23121575 28:0.23053294 29:1.7757038 30:0.24842626 31:0.0025240108 32:1.6510938 33:0.23774129 34:-0.059269078 35:1.6251858 36:-0.063143127 37:-0.01808054 38:1.7068497 39:-0.056930557 40:-0.39691842 41:1.6594442 42:-0.025570124 43:-0.74327761 44:1.6853069 45:-0.014522135 46:-0.81805873 47:1.6199816 48:0.083093047 49:0.00070602447 50:1.6812671 51:0.11506897 52:-0.3758533 53:1.6188887 54:0.11175182 55:-0.74232626 56:1.6573008 57:0.095260769 58:-0.81659412 59:1.5905412 60:-0.0099108219 61:0.527098 62:1.8434643 63:-0.22969913 64:-0.13603535 65:1.6790525 66:-0.27448362 67:-0.10114584 68:1.7119461 69:0.23498288 70:-0.12372235 71:1.5881747 72:0.17891797 73:-0.035977356 74:1.6022779 
10 0 0 0 0:0.013082385 1:-0.013018802 2:1.7310506 3:0 4:0.30000001 5:1.8 6:-0.013194427 7:0.6007154 8:1.8549048 9:-0.037253842 10:0.7711634 11:1.8597041 12:-0.18112513 13:0.4702847 14:1.8937021 15:-0.21456634 16:0.20282374 17:1.8484741 18:-0.23609413 19:-0.0089634359 20:1.749317 21:-0.23358412 22:-0.072702244 23:1.7125958 24:0.15196066 25:0.48554885 26:1.8224064 27:0.23119496 28:0.23071949 29:1.7756399 30:0.248419 31:0.0026200265 32:1.650957 33:0.23734112 34:-0.058876678 35:1.6243776 36:-0.063230626 37:-0.018087074 38:1.7068719 39:-0.057038665 40:-0.39626795 41:1.6592005 42:-0.025602296 43:-0.74346626 44:1.6850327 45:-0.014550447 46:-0.81823868 47:1.6197008 48:0.082937837 49:0.00073514879 50:1.6811301 51:0.1148646 52:-0.37567544 53:1.618728 54:0.11148573 55:-0.74241579 56:1.6570724 57:0.095038816 58:-0.81670898 59:1.5903736 60:-0.0098143816 61:0.52709627 62:1.8435301 63:-0.22913104 64:-0.13512881 65:1.6778394 66:-0.27640185 67:-0.10548629 68:1.7116045 69:0.23339908 70:-0.1237423 71:1.5849427 72:0.17897458 73:-0.035149381 74:1.6024162 
10 0 0 0 0:0.01291877 1:-0.013053939 2:1.7310407 3:0 4:0.30000001 5:1.8 6:-0.01301679 7:0.60077083 8:1.8549018 9:-0.03717187 10:0.77115017 11:1.8598514 12:-0.18098639 13:0.47011548 14:1.8937006 15:-0.21436524 16:0.20261261 17:1.8487008 18:-0.23609614 19:-0.0090823174 20:1.7494302 21:-0.23451319 22:-0.07293573 23:1.7121031 24:0.15182962 25:0.48547351 26:1.822396 27:0.23107465 28:0.23088646 29:1.7756178 30:0.24824281 31:0.0026378036 32:1.6509244 33:0.23711498 34:-0.059011936 35:1.623939 36:-0.063391499 37:-0.018132806 38:1.7068844 39:-0.057145156 40:-0.39613503 41:1.6592376 42:-0.025808915 43:-0.74354643 44:1.6849208 45:-0.014827952 46:-0.81833684 47:1.6196146 48:0.082761332 49:0.0007083714 50:1.6811004 51:0.11467804 52:-0.37563092 53:1.6186392 54:0.11123352 55:-0.74240768 56:1.6571207 57:0.094674245 58:-0.81666124 59:1.5903518 60:-0.0096813142 61:0.52713645 62:1.843529 63:-0.2286889 64:-0.13498732 65:1.6772428 66:-0.27790636 67:-0.090764821 68:1.7328377 69:0.2337756 70:-0.1235944 71:1.5843387 72:0.17854111 73:-0.035452619 74:1.6020458 
10 0 0 0 0:0.01277557 1:-0.013028622 2:1.7310396 3:0 4:0.30000001 5:1.8 6:-0.012866095 7:0.60074127 8:1.8548871 9:-0.037212826 10:0.77121967 11:1.8599809 12:-0.18107043 13:0.47015363 14:1.8936681 15:-0.21445917 16:0.20247415 17:1.8486634 18:-0.23613894 19:-0.0091345012 20:1.7492307 21:-0.23424011 22:-0.072547197 23:1.7132992 24:0.15243274 25:0.48546076 26:1.8227147 27:0.23094589 28:0.23090255 29:1.7755789 30:0.24805793 31:0.0028021634 32:1.650839 33:0.23692471 34:-0.058544666 35:1.6234642 36:-0.063537419 37:-0.018104956 38:1.7069012 39:-0.05733332 40:-0.39566106 41:1.659114 42:-0.025940701 43:-0.74316061 44:1.6849414 45:-0.015112326 46:-0.81792885 47:1.6194962 48:0.082611486 49:0.00073166192 50:1.6810819 51:0.11451912 52:-0.37555277 53:1.618646 54:0.1109432 55:-0.74253505 56:1.6569353 57:0.094568223 58:-0.81678003 59:1.5900923 60:-0.0095679909 61:0.52711469 62:1.84352 63:-0.22906114 64:-0.13543913 65:1.6799313 66:-0.27395633 67:-0.088016719 68:1.7282687 69:0.23395512 70:-0.12338218 71:1.5867115 72:0.17845076 73:-0.03418836 74:1.6020607 
10 0 0 0 0:0.012804493 1:-0.013043582 2:1.7310399 3:0 4:0.30000001 5:1.8 6:-0.012931049 7:0.60076064 8:1.8548802 9:-0.036997437 10:0.77112913 11:1.8602489 12:-0.18091436 13:0.46997041 14:1.8936194 15:-0.2143549 16:0.20235786 17:1.8487834 18:-0.23602498 19:-0.0091379583 20:1.7491368 21:-0.23365758 22:-0.0735026 23:1.7125016 24:0.15232463 25:0.48548967 26:1.8226362 27:0.23086588 28:0.23097119 29:1.7755035 30:0.24802764 31:0.0027126074 32:1.6507088 33:0.23730464 34:-0.059130967 35:1.6238006 36:-0.063536957 37:-0.018109173 38:1.7068578 39:-0.057592966 40:-0.395123 41:1.6588618 42:-0.026133209 43:-0.74318552 44:1.685773 45:-0.015267 46:-0.81759155 47:1.6193422 48:0.082653746 49:0.00070741773 50:1.6811329 51:0.11450009 52:-0.37584752 53:1.6185809 54:0.11065336 55:-0.74221748 56:1.6568528 57:0.094454631 58:-0.8165108 59:1.5900673 60:-0.0096152872 61:0.52712911 62:1.8435155 63:-0.22864085 64:-0.13635176 65:1.6790696 66:-0.27554393 67:-0.090202749 68:1.7260629 69:0.23429804 70:-0.12281904 71:1.5849763 72:0.17832954 73:-0.034537137 74:1.6021847 
10 0 0 0 0:0.012706578 1:-0.013040043 2:1.7310079 3:0 4:0.30000001 5:1.8 6:-0.012850985 7:0.60075545 8:1.8549093 9:-0.03687413 10:0.77108264 11:1.8604203 12:-0.18081044 13:0.47004518 14:1.893922 15:-0.21423405 16:0.20210379 17:1.8490652 18:-0.2358432 19:-0.0092710778 20:1.7491721 21:-0.23360239 22:-0.074116938 23:1.7131914 24:0.15239373 25:0.48545769 26:1.8226668 27:0.23088607 28:0.2309007 29:1.7755264 30:0.24795803 31:0.0025372878 32:1.6505789 33:0.23696291 34:-0.058530532 35:1.6241723 36:-0.063609749 37:-0.018076666 38:1.7068647 39:-0.05781918 40:-0.39522818 41:1.6587089 42:-0.026303515 43:-0.74274111 44:1.6856924 45:-0.015457794 46:-0.81711161 47:1.6191381 48:0.082524866 49:0.00068616122 50:1.6810671 51:0.11432463 52:-0.37581918 53:1.6184191 54:0.11004966 55:-0.74332458 56:1.6567153 57:0.094147623 58:-0.81753945 59:1.5896775 60:-0.0095531493 61:0.52712542 62:1.8435382 63:-0.23100263 64:-0.13527739 65:1.68057 66:-0.27594557 67:-0.092727445 68:1.7227322 69:0.23324791 70:-0.12434884 71:1.5860909 72:0.17814076 73:-0.033738472 74:1.6021491 
10 0 0 0 0:0.012625232 1:-0.013022669 2:1.7309678 3:0 4:0.30000001 5:1.8 6:-0.012786433 7:0.60074228 8:1.8549519 9:-0.03666997 10:0.77100682 11:1.8605535 12:-0.18049489 13:0.46981084 14:1.8937931 15:-0.21391481 16:0.20208904 17:1.8493497 18:-0.23542483 19:-0.0091730282 20:1.7492201 21:-0.23315194 22:-0.073924951 23:1.7123802 24:0.15242243 25:0.48552722 26:1.822618 27:0.23090354 28:0.23103121 29:1.7754786 30:0.24787632 31:0.0025606528 32:1.6504261 33:0.23666841 34:-0.059133761 35:1.6241 36:-0.063709147 37:-0.018022873 38:1.7068222 39:-0.057935953 40:-0.39559174 41:1.6587174 42:-0.026412219 43:-0.74293709 44:1.6856256 45:-0.015630707 46:-0.81728238 47:1.6189907 48:0.082456529 49:0.00066121668 50:1.6810303 51:0.11424577 52:-0.37535924 53:1.6182373 54:0.10994792 55:-0.74281096 56:1.6563146 57:0.093992412 58:-0.8170864 59:1.5894387 60:-0.009502992 61:0.52711511 62:1.8435702 63:-0.22834957 64:-0.13464904 65:1.6769285 66:-0.27622339 67:-0.094128542 68:1.7216756 69:0.23670444 70:-0.12234261 71:1.5877998 72:0.17817932 73:-0.033848368 74:1.6009815 
10 0 0 0 0:0.012520358 1:-0.012980059 2:1.7309037 3:0 4:0.30000001 5:1.8 6:-0.012697667 7:0.60068387 8:1.8550254 9:-0.036566749 10:0.77104318 11:1.860819 12:-0.18033089 13:0.46989852 14:1.8940173 15:-0.2137689 16:0.20207052 17:1.8494669 18:-0.23546326 19:-0.0091606081 20:1.74936 21:-0.23279709 22:-0.074249312 23:1.713159 24:0.15255007 25:0.48562688 26:1.8226057 27:0.23111752 28:0.2309552 29:1.7753826 30:0.24768469 31:0.0025509596 32:1.6502904 33:0.2369161 34:-0.059207216 35:1.6243769 36:-0.063763589 37:-0.017980918 38:1.7068483 39:-0.058203399 40:-0.3959806 41:1.6587201 42:-0.026643991 43:-0.74294215 44:1.6853672 45:-0.016044021 46:-0.81730115 47:1.6187021 48:0.0822974 49:0.00069983304 50:1.6808952 51:0.11398411 52:-0.37533993 53:1.6180311 54:0.10967451 55:-0.74348116 56:1.656396 57:0.093638539 58:-0.81751132 59:1.5889341 60:-0.0094348192 61:0.52707249 62:1.8436247 63:-0.22984326 64:-0.13505851 65:1.6812836 66:-0.27683228 67:-0.095062807 68:1.7241691 69:0.23339656 70:-0.12320615 71:1.5837885 72:0.17773399 73:-0.033317551 74:1.601683 
10 0 10 0.01087800480038684 0:0.01236102 1:-0.012967311 2:1.7308129 3:0 4:0.30000001 5:1.8 6:-0.012512505 7:0.60066998 8:1.8551527 9:-0.036415786 10:0.77091646 11:1.8609113 12:-0.18032707 13:0.46991196 14:1.8941866 15:-0.21381579 16:0.20215738 17:1.8495485 18:-0.23521337 19:-0.0091090575 20:1.7495021 21:-0.23269407 22:-0.073663704 23:1.7127985 24:0.15257122 25:0.48558393 26:1.8225328 27:0.23106237 28:0.23088619 29:1.7753104 30:0.24753724 31:0.0026947781 32:1.6502389 33:0.2367114 34:-0.058315508 35:1.624113 36:-0.063915581 37:-0.017961212 38:1.7067732 39:-0.058406182 40:-0.39618763 41:1.6586529 42:-0.027000442 43:-0.74265128 44:1.6852154 45:-0.016341403 46:-0.81701565 47:1.618575 48:0.082123116 49:0.00070676953 50:1.6807886 51:0.11388059 52:-0.37549409 53:1.617915 54:0.10954554 55:-0.74234116 56:1.6564392 57:0.09354274 58:-0.81651652 59:1.5892886 60:-0.0092972964 61:0.52706206 62:1.8437172 63:-0.22892475 64:-0.13636723 65:1.6821254 66:-0.27141297 67:-0.07724189 68:1.7294697 69:0.23294406 70:-0.12331732 71:1.5867881 72:0.17884232 73:-0.026644371 74:1.6010658 
10 0 0 0 0:0.012330219 1:-0.012955405 2:1.7307719 3:0 4:0.30000001 5:1.8 6:-0.012514129 7:0.60065943 8:1.8551902 9:-0.036264077 10:0.77091122 11:1.8610724 12:-0.18021855 13:0.46995524 14:1.8941461 15:-0.21359375 16:0.2021786 17:1.8496722 18:-0.23508227 19:-0.0091345087 20:1.7498082 21:-0.23335257 22:-0.07361389 23:1.7137023 24:0.15257615 25:0.48547241 26:1.822389 27:0.23118064 28:0.23090896 29:1.7751745 30:0.24744603 31:0.002773799 32:1.650124 33:0.23678383 34:-0.058687814 35:1.623161 36:-0.063944384 37:-0.017938577 38:1.7067415 39:-0.0585647 40:-0.39568403 41:1.6585258 42:-0.027272016 43:-0.74239433 44:1.6850721 45:-0.016641185 46:-0.81681979 47:1.6185735 48:0.08207801 49:0.00070855767 50:1.6807357 51:0.11374083 52:-0.37539914 53:1.6177551 54:0.10923216 55:-0.74273521 56:1.6563033 57:0.093315244 58:-0.81685746 59:1.5890063 60:-0.0092962831 61:0.52705395 62:1.8437458 63:-0.22897127 64:-0.13593486 65:1.6817299 66:-0.27560496 67:-0.091347791 68:1.7260121 69:0.23229581 70:-0.12396867 71:1.5866498 72:0.17767149 73:-0.031485237 74:1.6011738 
0 0 10 0 0:0.012141645 1:-0.013016596 2:1.7306589 3:0 4:0.30000001 5:1.8 6:-0.012277305 7:0.60075814 8:1.8553332 9:-0.036262974 10:0.77080613 11:1.8612925 12:-0.18018585 13:0.46981537 14:1.8945037 15:-0.2134759 16:0.20197406 17:1.8499438 18:-0.235098 19:-0.0092252344 20:1.7498952 21:-0.23361525 22:-0.074518502 23:1.7142049 24:0.1526252 25:0.48534638 26:1.8223256 27:0.23106089 28:0.230755 29:1.7750129 30:0.24739841 31:0.002640143 32:1.650004 33:0.23634478 34:-0.058710575 35:1.6229678 36:-0.064070731 37:-0.018027052 38:1.7067465 39:-0.05883573 40:-0.39594376 41:1.6583668 42:-0.027557299 43:-0.7424525 44:1.6848465 45:-0.017031595 46:-0.81666982 47:1.6177584 48:0.081838578 49:0.00065845251 50:1.6805474 51:0.11353099 52:-0.37531328 53:1.6174382 54:0.10893065 55:-0.7428565 56:1.6560799 57:0.093144953 58:-0.816993 59:1.5887805 60:-0.0091216117 61:0.52712482 62:1.843851 63:-0.23039529 64:-0.13687363 65:1.684455 66:-0.27583766 67:-0.092919677 68:1.7297989 69:0.23522595 70:-0.12329307 71:1.5873805 72:0.17750823 73:-0.030871361 74:1.600927 
9.789359549424663 0 7.958832274264963 0 0:0.012091413 1:-0.013039649 2:1.7307092 3:0 4:0.30000001 5:1.8 6:-0.01225543 7:0.60078061 8:1.8552738 9:-0.036287583 10:0.77075529 11:1.8615345 12:-0.18002921 13:0.4696455 14:1.8947042 15:-0.21362755 16:0.20205612 17:1.849887 18:-0.23494031 19:-0.0092457533 20:1.7500535 21:-0.2338163 22:-0.07397227 23:1.7139269 24:0.15257996 25:0.48528373 26:1.8223933 27:0.23094743 28:0.23065151 29:1.7749568 30:0.24716163 31:0.0026507378 32:1.6499344 33:0.23634395 34:-0.058301911 35:1.6228343 36:-0.064091891 37:-0.018051699 38:1.7068912 39:-0.058927521 40:-0.39548784 41:1.6582199 42:-0.02775009 43:-0.74251199 44:1.6847883 45:-0.017840117 46:-0.81698769 47:1.6181613 48:0.081756204 49:0.00063699484 50:1.6805226 51:0.11332983 52:-0.3753866 53:1.6173645 54:0.10876256 55:-0.74251539 56:1.6562048 57:0.092681795 58:-0.81666189 59:1.5890073 60:-0.0091033578 61:0.52714187 62:1.8438076 63:-0.23076224 64:-0.13549192 65:1.6802574 66:-0.27201819 67:-0.076121762 68:1.7315718 69:0.23084736 70:-0.12376751 71:1.5838553 72:0.17774639 73:-0.027164295 74:1.6020676 
10 0 0 0 0:0.01199466 1:-0.013081521 2:1.7306852 3:0 4:0.30000001 5:1.8 6:-0.012185097 7:0.60083318 8:1.8552985 9:-0.036346093 10:0.77076185 11:1.8616865 12:-0.18001765 13:0.46960405 14:1.8946748 15:-0.21361604 16:0.20212671 17:1.8499925 18:-0.2349782 19:-0.0091764629 20:1.7502232 21:-0.23396979 22:-0.074543357 23:1.7132096 24:0.1527196 25:0.48528466 26:1.8224902 27:0.23070891 28:0.23059341 29:1.7748582 30:0.24686287 31:0.00265944 32:1.6498735 33:0.23545717 34:-0.05890733 35:1.6215677 36:-0.06421157 37:-0.01808387 38:1.7068677 39:-0.059203275 40:-0.39555475 41:1.6581295 42:-0.027930975 43:-0.74237585 44:1.6846704 45:-0.018022463 46:-0.81686425 47:1.6180735 48:0.081665292 49:0.00058811903 50:1.6804924 51:0.11306985 52:-0.37519434 53:1.6172228 54:0.1085027 55:-0.74124932 56:1.6562936 57:0.092647687 58:-0.81540167 59:1.5889812 60:-0.0090482086 61:0.52718079 62:1.8438263 63:-0.22993383 64:-0.13627872 65:1.6810884 66:-0.27404171 67:-0.082158506 68:1.7286255 69:0.23212461 70:-0.12342468 71:1.5839543 72:0.1773033 73:-0.025751799 74:1.6018744 
0 0.0598426128949811 10 0 0:0.011960834 1:-0.013096534 2:1.7306705 3:0 4:0.30000001 5:1.8 6:-0.012162954 7:0.60085279 8:1.8553152 9:-0.036208697 10:0.77066952 11:1.8617656 12:-0.17978996 13:0.46955621 14:1.894675 15:-0.21347262 16:0.20191649 17:1.8501122 18:-0.23494595 19:-0.0093080625 20:1.7502351 21:-0.2344318 22:-0.073832937 23:1.7135062 24:0.15323547 25:0.48530197 26:1.8226242 27:0.23071343 28:0.23053753 29:1.7747331 30:0.24686882 31:0.0025513545 32:1.6496844 33:0.23534462 34:-0.057646401 35:1.6208315 36:-0.064236522 37:-0.018102594 38:1.7069149 39:-0.059304401 40:-0.39562666 41:1.6580734 42:-0.02819176 43:-0.73827147 44:1.6841087 45:-0.018198937 46:-0.81311661 47:1.6183369 48:0.081650823 49:0.00056766719 50:1.6804218 51:0.11303183 52:-0.37451273 53:1.61693 54:0.10843405 55:-0.74126232 56:1.6561718 57:0.092600256 58:-0.81519479 59:1.5882928 60:-0.0090304762 61:0.52719527 62:1.8438387 63:-0.23080114 64:-0.13704547 65:1.6819592 66:-0.27414888 67:-0.075075723 68:1.7410259 69:0.23343658 70:-0.1219613 71:1.5855455 72:0.17706484 73:-0.027832218 74:1.6010549 
10 0 0 0 0:0.011746496 1:-0.013097301 2:1.730655 3:0 4:0.30000001 5:1.8 6:-0.011964217 7:0.60083884 8:1.8553238 9:-0.036233626 10:0.77062535 11:1.8625629 12:-0.1798135 13:0.46934468 14:1.8955534 15:-0.213588 16:0.20199107 17:1.8507602 18:-0.23538899 19:-0.0090751797 20:1.7506878 21:-0.23422921 22:-0.074910149 23:1.7142589 24:0.15305023 25:0.48538548 26:1.8227942 27:0.23031636 28:0.23056783 29:1.7746174 30:0.24641015 31:0.0025404245 32:1.6494248 33:0.23532538 34:-0.058685049 35:1.6215436 36:-0.06439162 37:-0.018104807 38:1.7071407 39:-0.059679553 40:-0.39540231 41:1.6578097 42:-0.028802454 43:-0.74006265 44:1.685024 45:-0.018559635 46:-0.81446576 47:1.618206 48:0.0813604 49:0.00056697428 50:1.6802199 51:0.11260723 52:-0.37485409 53:1.6168444 54:0.10787417 55:-0.7411474 56:1.6560228 57:0.092072353 58:-0.81511974 59:1.588228 60:-0.008880198 61:0.52718621 62:1.8438463 63:-0.2308241 64:-0.1368462 65:1.68384 66:-0.27487114 67:-0.091767028 68:1.7254179 69:0.23367809 70:-0.12335812 71:1.5855474 72:0.17671375 73:-0.035975471 74:1.5987589 
0 10 0 0 0:0.011639699 1:-0.013051204 2:1.7305284 3:0 4:0.30000001 5:1.8 6:-0.011900842 7:0.60077912 8:1.8554728 9:-0.036262915 10:0.77057225 11:1.8628876 12:-0.17981914 13:0.46921325 14:1.8960719 15:-0.21367297 16:0.20186415 17:1.8511558 18:-0.2355729 19:-0.0091426596 20:1.7510688 21:-0.23463643 22:-0.075034134 23:1.7147205 24:0.15334214 25:0.4852373 26:1.8229871 27:0.23018821 28:0.23048681 29:1.7743285 30:0.24619485 31:0.0026209429 32:1.6491075 33:0.23510925 34:-0.058741055 35:1.6218596 36:-0.06445124 37:-0.018090226 38:1.7070956 39:-0.060006127 40:-0.39517927 41:1.6574612 42:-0.029165655 43:-0.74060577 44:1.6844759 45:-0.018413171 46:-0.81484246 47:1.6174421 48:0.081186444 49:0.00063855201 50:1.6800113 51:0.11231129 52:-0.3753165 53:1.6167147 54:0.10705088 55:-0.74282706 56:1.6558805 57:0.091270432 58:-0.81651652 59:1.5874414 60:-0.0088292062 61:0.52714223 62:1.8439562 63:-0.23076603 64:-0.13693911 65:1.6826568 66:-0.27545148 67:-0.092853151 68:1.7269237 69:0.22837247 70:-0.12368845 71:1.5792027 72:0.17635177 73:-0.025162019 74:1.6014876 
-10 0 0 0 0:0.015541382 1:-0.019667432 2:1.7638848 3:0 4:0.30000001 5:1.8 6:-0.015491817 7:0.6076991 8:1.8226578 9:-0.018872455 10:0.77480018 11:1.8125165 12:-0.18312606 13:0.48211676 14:1.826761 15:-0.22345307 16:0.21342634 17:1.786968 18:-0.22390711 19:-0.016223162 20:1.6903882 21:-0.21225303 22:-0.078894675 23:1.6639299 24:0.15540344 25:0.48845738 26:1.8303154 27:0.22089204 28:0.21622883 29:1.8189831 30:0.24682415 31:-0.0096700639 32:1.7199459 33:0.2381475 34:-0.062976643 35:1.6966569 36:-0.063793994 37:-0.020360306 38:1.7267599 39:-0.11243537 40:-0.38806665 41:1.6696773 42:-0.131841 43:-0.77090847 44:1.6932616 45:-0.14252672 46:-0.84388292 47:1.6206057 48:0.092003904 49:-0.013705775 50:1.7270849 51:0.13729164 52:-0.37202895 53:1.6764877 54:0.15046799 55:-0.76157087 56:1.7088621 57:0.15782115 58:-0.83044541 59:1.6316521 60:-0.011617463 61:0.532359 62:1.8192782 63:-0.2104525 64:-0.15151297 65:1.6389947 66:-0.26535782 67:-0.075426146 68:1.6811192 69:0.24215874 70:-0.14231037 71:1.6651561 72:0.1857473 73:-0.084558576 74:1.6593111 
-10 0 0 0 0:0.015713997 1:-0.019671306 2:1.7637169 3:0 4:0.30000001 5:1.8 6:-0.015588269 7:0.60769379 8:1.8227878 9:-0.018593468 10:0.77478004 11:1.8123195 12:-0.18254885 13:0.48190606 14:1.8255746 15:-0.22326061 16:0.21330605 17:1.7866497 18:-0.22382823 19:-0.016168281 20:1.6901817 21:-0.21252012 22:-0.078775242 23:1.6649404 24:0.15567786 25:0.48842812 26:1.8304117 27:0.2210187 28:0.21629848 29:1.8190973 30:0.24700934 31:-0.0094204247 32:1.7203827 33:0.23857683 34:-0.063145116 35:1.6980491 36:-0.063661531 37:-0.0203619 38:1.7266059 39:-0.11249796 40:-0.38829148 41:1.6696939 42:-0.13193503 43:-0.77088583 44:1.6936173 45:-0.14266938 46:-0.84392774 47:1.6208744 48:0.092201792 49:-0.013717979 50:1.7269335 51:0.13724604 52:-0.37207055 53:1.6767268 54:0.15038666 55:-0.76162517 56:1.7091656 57:0.15778843 58:-0.83067119 59:1.6320722 60:-0.01169537 61:0.53235519 62:1.8193805 63:-0.20614952 64:-0.15584998 65:1.6415811 66:-0.26707804 67:-0.11164233 68:1.6681089 69:0.24322501 70:-0.14295579 71:1.6664476 72:0.18517739 73:-0.075557709 74:1.6635756 
-10 0 0 0 0:0.015655264 1:-0.019668698 2:1.7637775 3:0 4:0.30000001 5:1.8 6:-0.015522704 7:0.60768461 8:1.8227339 9:-0.018494077 10:0.77484798 11:1.8122134 12:-0.18251157 13:0.48205662 14:1.8252158 15:-0.22317097 16:0.21298318 17:1.7862761 18:-0.22379354 19:-0.015729636 20:1.6899643 21:-0.21214843 22:-0.078390881 23:1.6661735 24:0.15568829 25:0.48839712 26:1.830574 27:0.22098047 28:0.21644868 29:1.8192482 30:0.24722975 31:-0.0092047155 32:1.7206886 33:0.23941219 34:-0.064040899 35:1.69962 36:-0.063722543 37:-0.020347148 38:1.7266593 39:-0.112588 40:-0.38867676 41:1.6697564 42:-0.13188854 43:-0.77061582 44:1.6937296 45:-0.14258687 46:-0.84444362 47:1.6208534 48:0.092137806 49:-0.013731137 50:1.7270114 51:0.13711834 52:-0.37217134 53:1.6769128 54:0.15020671 55:-0.76168543 56:1.7093756 57:0.15774494 58:-0.83169538 59:1.6320653 60:-0.01164626 61:0.53234875 62:1.8193393 63:-0.20622814 64:-0.15595095 65:1.6463909 66:-0.26626983 67:-0.09407042 68:1.6767509 69:0.24558178 70:-0.14232324 71:1.6712921 72:0.18460196 73:-0.059449464 74:1.6661234 
-10 0 0 0 0:0.015603289 1:-0.019707292 2:1.7636905 3:0 4:0.30000001 5:1.8 6:-0.015467685 7:0.60771942 8:1.8228159 9:-0.018062834 10:0.77459151 11:1.8113463 12:-0.18225163 13:0.48194951 14:1.8246391 15:-0.2229231 16:0.21313681 17:1.785187 18:-0.22390571 19:-0.016090572 20:1.6895063 21:-0.21254778 22:-0.077624694 23:1.6645162 24:0.15608487 25:0.48848641 26:1.8303628 27:0.22111392 28:0.21635927 29:1.8193495 30:0.24735305 31:-0.0091293007 32:1.7209928 33:0.23961949 34:-0.063063875 35:1.698571 36:-0.063785695 37:-0.020359233 38:1.7265842 39:-0.11265691 40:-0.38851345 41:1.6696386 42:-0.13196136 43:-0.77042764 44:1.6938851 45:-0.14289531 46:-0.84499854 47:1.6218107 48:0.09209127 49:-0.013802886 50:1.7269323 51:0.13701105 52:-0.37237072 53:1.6771696 54:0.15007031 55:-0.76150519 56:1.7096095 57:0.15734479 58:-0.83192587 59:1.6318023 60:-0.011605874 61:0.53237438 62:1.8194013 63:-0.20299104 64:-0.16302235 65:1.6440568 66:-0.265935 67:-0.10776155 68:1.663923 69:0.24293125 70:-0.14250474 71:1.6659029 72:0.18519142 73:-0.073782876 74:1.6628597 
-10 0 0 0 0:0.015487768 1:-0.019707933 2:1.7639601 3:0 4:0.30000001 5:1.8 6:-0.01530477 7:0.60770178 8:1.8224807 9:-0.017698012 10:0.77451169 11:1.810874 12:-0.18231709 13:0.48194301 14:1.824872 15:-0.22283383 16:0.21283232 17:1.7847228 18:-0.22395226 19:-0.016081437 20:1.6896172 21:-0.21156222 22:-0.078281641 23:1.6650698 24:0.15633552 25:0.48852974 26:1.8301542 27:0.22112511 28:0.21633981 29:1.8197019 30:0.24787317 31:-0.0082888156 32:1.721518 33:0.24037875 34:-0.063276038 35:1.6979206 36:-0.063930422 37:-0.020368755 38:1.7268567 39:-0.11275083 40:-0.38843715 41:1.6698327 42:-0.13216886 43:-0.77053028 44:1.6943574 45:-0.14309499 46:-0.84515291 47:1.6223884 48:0.092003033 49:-0.013798565 50:1.7272108 51:0.13695289 52:-0.37223071 53:1.67747 54:0.14998153 55:-0.7617504 56:1.7101903 57:0.15719087 58:-0.83197159 59:1.6322412 60:-0.011486992 61:0.532363 62:1.819155 63:-0.20849043 64:-0.15125246 65:1.6346288 66:-0.26635271 67:-0.11202823 68:1.6704144 69:0.24448086 70:-0.14347769 71:1.6693106 72:0.18471177 73:-0.058141902 74:1.6659744 
-10 0 0 0 0:0.015384242 1:-0.019794002 2:1.7641907 3:0 4:0.30000001 5:1.8 6:-0.015197236 7:0.60781825 8:1.8222053 9:-0.017486207 10:0.77472115 11:1.8104117 12:-0.18249768 13:0.48194355 14:1.8250415 15:-0.22297055 16:0.21280764 17:1.7848103 18:-0.22395189 19:-0.016008958 20:1.6894822 21:-0.21189968 22:-0.078343093 23:1.6654863 24:0.15640129 25:0.4883464 26:1.8296092 27:0.22131379 28:0.21615495 29:1.8199239 30:0.24849059 31:-0.0076218098 32:1.722105 33:0.24162339 34:-0.063740581 35:1.6995742 36:-0.064038143 37:-0.020434111 38:1.7269621 39:-0.11286111 40:-0.38845444 41:1.6699677 42:-0.13200217 43:-0.76761907 44:1.6946726 45:-0.14337802 46:-0.84528059 47:1.6230443 48:0.091900691 49:-0.013901547 50:1.7275343 51:0.13680221 52:-0.37251008 53:1.6778536 54:0.14972518 55:-0.76187336 56:1.7106287 57:0.15701962 58:-0.83209896 59:1.6328995 60:-0.011405669 61:0.53244823 62:1.8189511 63:-0.21054301 64:-0.15075518 65:1.6366339 66:-0.26381367 67:-0.090131834 68:1.6782312 69:0.2461818 70:-0.14368089 71:1.6681776 72:0.18483903 73:-0.069163337 74:1.6646869 
-10 0 0 0 0:0.015269458 1:-0.0198728 2:1.7646732 3:0 4:0.30000001 5:1.8 6:-0.015098531 7:0.60789782 8:1.8216708 9:-0.017273135 10:0.77478927 11:1.809684 12:-0.18236861 13:0.48159629 14:1.8244469 15:-0.22301319 16:0.21260466 17:1.7847071 18:-0.2237931 19:-0.016047955 20:1.6898046 21:-0.21171881 22:-0.078471571 23:1.6637154 24:0.15634362 25:0.48821235 26:1.8299072 27:0.2213518 28:0.21602295 29:1.820226 30:0.24872822 31:-0.0075355917 32:1.7229018 33:0.24263316 34:-0.063321874 35:1.6985655 36:-0.064253226 37:-0.020557448 38:1.727653 39:-0.11289668 40:-0.38882816 41:1.6699538 42:-0.13210812 43:-0.76953846 44:1.695065 45:-0.14473355 46:-0.84645075 47:1.6244636 48:0.091888994 49:-0.013934761 50:1.7277904 51:0.13657488 52:-0.37264532 53:1.6786249 54:0.14929904 55:-0.76207525 56:1.7115133 57:0.15681709 58:-0.83233315 59:1.6334629 60:-0.01132923 61:0.53250885 62:1.8185532 63:-0.20959522 64:-0.15063058 65:1.6364019 66:-0.26552927 67:-0.11543232 68:1.6697342 69:0.2477527 70:-0.14480291 71:1.6700516 72:0.18439892 73:-0.067723632 74:1.666378 
-5.205647434748503 0 0 0 0:0.015057988 1:-0.019857511 2:1.7652829 3:0 4:0.30000001 5:1.8 6:-0.014781371 7:0.60788524 8:1.8208017 9:-0.017067924 10:0.77492595 11:1.8092155 12:-0.18238834 13:0.48158637 14:1.8246918 15:-0.22311407 16:0.2125316 17:1.7851331 18:-0.22390625 19:-0.016080782 20:1.6903429 21:-0.21163791 22:-0.077058569 23:1.665837 24:0.15671083 25:0.48839608 26:1.829617 27:0.22170371 28:0.21598193 29:1.8204069 30:0.24924183 31:-0.0076497793 32:1.7235167 33:0.2443451 34:-0.063789323 35:1.698848 36:-0.06448862 37:-0.020518675 38:1.7282665 39:-0.11332907 40:-0.38826677 41:1.6699555 42:-0.13209632 43:-0.77186382 44:1.6953032 45:-0.14450552 46:-0.84601343 47:1.6242032 48:0.091697507 49:-0.013943851 50:1.7284114 51:0.13666207 52:-0.37311524 53:1.6794488 54:0.14906949 55:-0.76218748 56:1.7123137 57:0.15653554 58:-0.83220816 59:1.6341796 60:-0.011098947 61:0.53250015 62:1.8179214 63:-0.20981568 64:-0.15015206 65:1.638027 66:-0.26430058 67:-0.091271222 68:1.6804523 69:0.25009319 70:-0.14487916 71:1.6702778 72:0.18476668 73:-0.068265378 74:1.6676126 
-3.299642673628457 0 0 0 0:-0.0059646964 1:-0.024982736 2:1.777823 3:0 4:0.30000001 5:1.8 6:0.0019544326 7:0.61011237 8:1.8080027 9:-0.013938673 10:0.7759673 11:1.7951386 12:-0.16725028 13:0.48890328 14:1.8605421 15:-0.2097569 16:0.22138055 17:1.8543766 18:-0.23934472 19:0.0065338612 20:1.7687504 21:-0.23297092 22:-0.058832571 23:1.7300408 24:0.15185374 25:0.48027718 26:1.7599149 27:0.21247734 28:0.23643695 29:1.6737885 30:0.23396342 31:0.044947341 32:1.5289288 33:0.24330671 34:-0.051245406 35:1.469909 36:-0.081080206 37:-0.024240792 38:1.7541752 39:-0.13158511 40:-0.38011837 41:1.6618342 42:-0.1314217 43:-0.77622896 44:1.6953111 45:-0.14217575 46:-0.83729404 47:1.6329722 48:0.065915316 49:-0.020514458 50:1.7271335 51:0.13099948 52:-0.36679792 53:1.6496229 54:0.15098521 55:-0.76075548 56:1.7122078 57:0.16086914 58:-0.82429272 59:1.6424375 60:0.001333911 61:0.53444409 62:1.8086336 63:-0.2165653 64:-0.15200801 65:1.6994183 66:-0.28559577 67:-0.083735421 68:1.734519 69:0.2381347 70:-0.11871128 71:1.4207745 72:0.2294545 73:-0.043944374 74:1.5449371 
-0 1.419959595861725 10 0 0:-0.014610201 1:-0.027919888 2:1.7797821 3:0 4:0.30000001 5:1.8 6:0.0082228556 7:0.61277229 8:1.8070288 9:-0.011695974 10:0.77796179 11:1.7945988 12:-0.15802425 13:0.48936731 14:1.8709898 15:-0.20325339 16:0.21621665 17:1.874743 18:-0.23901877 19:0.0050813705 20:1.7819262 21:-0.23799342 22:-0.05617708 23:1.7582059 24:0.14770491 25:0.47913522 26:1.7440908 27:0.20958032 28:0.28615856 29:1.606246 30:0.22388317 31:0.094538689 32:1.4289069 33:0.23376529 34:0.017326221 35:1.3510399 36:-0.087192468 37:-0.026719272 38:1.7610185 39:-0.13630657 40:-0.37535369 41:1.6629996 42:-0.12992623 43:-0.77029264 44:1.6940026 45:-0.13859802 46:-0.83072001 47:1.6329265 48:0.055369772 49:-0.023622841 50:1.7243686 51:0.12972023 52:-0.35997438 53:1.6400609 54:0.15440539 55:-0.75645477 56:1.7101586 57:0.16440535 58:-0.81764585 59:1.6423562 60:0.0062838644 61:0.53672403 62:1.8078229 63:-0.22046036 64:-0.14247242 65:1.7100189 66:-0.28504968 67:-0.092917278 68:1.7554324 69:0.23094077 70:-0.041774914 71:1.2889028 72:0.21423148 73:0.0047515035 74:1.3869491 
-0 10 10 0 0:-0.016665105 1:-0.028181523 2:1.7799926 3:0 4:0.30000001 5:1.8 6:0.010706358 7:0.61354792 8:1.8068213 9:-0.010827091 10:0.77866256 11:1.7946227 12:-0.15415433 13:0.48788261 14:1.8749616 15:-0.20143609 16:0.21475662 17:1.8850949 18:-0.2397173 19:0.0012430549 20:1.8000159 21:-0.24110356 22:-0.058688864 23:1.7764962 24:0.14647642 25:0.47968709 26:1.7376668 27:0.20472015 28:0.29330474 29:1.5434294 30:0.2196794 31:0.13024373 32:1.3707752 33:0.22614886 34:0.066930518 35:1.2873006 36:-0.088617265 37:-0.027065471 38:1.7629905 39:-0.14139105 40:-0.37460524 41:1.6645141 42:-0.12913421 43:-0.76775807 44:1.69348 45:-0.13719591 46:-0.82951045 47:1.6346145 48:0.052862361 49:-0.023755535 50:1.7230318 51:0.12947325 52:-0.35743171 53:1.6360269 54:0.15556855 55:-0.75528753 56:1.7075381 57:0.16567567 58:-0.81485492 59:1.6413524 60:0.0081854835 61:0.53733873 62:1.8075891 63:-0.2461064 64:-0.13717143 65:1.7470324 66:-0.28485793 67:-0.075204745 68:1.7793729 69:0.21985023 70:0.014947966 71:1.2324405 72:0.20498334 73:0.051423267 74:1.3282065 
-8.256740430854681 0 10 0 0:0.013313267 1:-0.01694414 2:1.7662122 3:0 4:0.30000001 5:1.8 6:-0.01338898 7:0.60507858 8:1.8201544 9:-0.018118221 10:0.76983416 11:1.8064942 12:-0.18083115 13:0.48373601 14:1.8301845 15:-0.22167321 16:0.21228889 17:1.799396 18:-0.22413085 19:-0.015748426 20:1.7043915 21:-0.21538948 22:-0.07598196 23:1.6784911 24:0.15647022 25:0.49248192 26:1.8285921 27:0.22807743 28:0.22145531 29:1.8216288 30:0.26246944 31:-0.00041863322 32:1.7250173 33:0.2547062 34:-0.059259638 35:1.7037177 36:-0.065647051 37:-0.017450273 38:1.7301557 39:-0.11246894 40:-0.38886836 41:1.671164 42:-0.1239589 43:-0.77553821 44:1.6953101 45:-0.13502111 46:-0.84553993 47:1.6239686 48:0.089765236 49:-0.011262953 50:1.7281029 51:0.14053014 52:-0.37128723 53:1.6749887 54:0.15668806 55:-0.76952076 56:1.7097318 57:0.16591728 58:-0.83627999 59:1.6310534 60:-0.010020204 61:0.5303874 62:1.8174086 63:-0.21375769 64:-0.15464684 65:1.6551251 66:-0.26533717 67:-0.069851682 68:1.699512 69:0.25775322 70:-0.13632113 71:1.672817 72:0.28059071 73:-0.069850951 74:1.6609211 
-10 0 10 0 0:0.013370488 1:-0.016965866 2:1.7662258 3:0 4:0.30000001 5:1.8 6:-0.013423268 7:0.60509413 8:1.8201547 9:-0.018171925 10:0.76982993 11:1.8065341 12:-0.18089585 13:0.48371935 14:1.8302753 15:-0.22167958 16:0.21224619 17:1.7994018 18:-0.22404708 19:-0.015960127 20:1.7041156 21:-0.21480095 22:-0.076348856 23:1.6785529 24:0.1564361 25:0.4924463 26:1.8285823 27:0.22804105 28:0.22147025 29:1.8216894 30:0.2626754 31:-0.00038705766 32:1.7250817 33:0.25515419 34:-0.059062868 35:1.704819 36:-0.065598086 37:-0.017489865 38:1.7301645 39:-0.11243609 40:-0.38959688 41:1.6711695 42:-0.12402777 43:-0.77193314 44:1.695591 45:-0.13506822 46:-0.84558433 47:1.6242368 48:0.089820206 49:-0.011273801 50:1.7281392 51:0.14047761 52:-0.37131077 53:1.6750805 54:0.15648387 55:-0.76963979 56:1.7098639 57:0.16578077 58:-0.83619553 59:1.6311789 60:-0.010047749 61:0.53039914 62:1.8174086 63:-0.21396396 64:-0.15404411 65:1.6564972 66:-0.26604772 67:-0.073356137 68:1.6988077 69:0.25853363 70:-0.13641332 71:1.67363 72:0.27903444 73:-0.06837219 74:1.6605108 
-10 0 10 0 0:0.013495896 1:-0.016902 2:1.7662208 3:0 4:0.30000001 5:1.8 6:-0.013489123 7:0.60498011 8:1.82025 9:-0.018197451 10:0.76986003 11:1.8065917 12:-0.18099658 13:0.48378938 14:1.8304687 15:-0.22167356 16:0.21216063 17:1.7993684 18:-0.22409014 19:-0.015850067 20:1.7042 21:-0.21527602 22:-0.076784655 23:1.6794519 24:0.15643145 25:0.49259859 26:1.8288603 27:0.22804368 28:0.22158416 29:1.8218408 30:0.26299366 31:-0.00022010505 32:1.7253609 33:0.25480792 34:-0.059397697 35:1.7046077 36:-0.065418236 37:-0.017447472 38:1.7300048 39:-0.11244375 40:-0.38948786 41:1.6710331 42:-0.12409608 43:-0.77189344 44:1.6958895 45:-0.13545142 46:-0.84610611 47:1.6246498 48:0.08988598 49:-0.011199236 50:1.7282836 51:0.1403981 52:-0.37112486 53:1.675221 54:0.15633789 55:-0.769719 56:1.7101676 57:0.16547784 58:-0.83574986 59:1.6316941 60:-0.010100231 61:0.53032154 62:1.8174696 63:-0.21434692 64:-0.15487839 65:1.6582508 66:-0.26911208 67:-0.089860514 68:1.696861 69:0.25680906 70:-0.13675301 71:1.6734948 72:0.29669282 73:-0.065619111 74:1.6835525 
-0 0 2.440796966575445 0 0:0.0135215 1:-0.016881391 2:1.7662184 3:0 4:0.30000001 5:1.8 6:-0.013507176 7:0.60496271 8:1.8202662 9:-0.018114924 10:0.76983601 11:1.8063815 12:-0.18101835 13:0.48380494 14:1.8304982 15:-0.22163919 16:0.21235347 17:1.7993665 18:-0.22415751 19:-0.015803471 20:1.7041726 21:-0.21488728 22:-0.07721062 23:1.6783514 24:0.15634941 25:0.49266171 26:1.828953 27:0.22796233 28:0.22160074 29:1.8219213 30:0.26302695 31:-0.00020092726 32:1.7254922 33:0.25451225 34:-0.058343545 35:1.7042747 36:-0.065362945 37:-0.017448366 38:1.7300055 39:-0.11242306 40:-0.39006805 41:1.6704502 42:-0.12419052 43:-0.77184552 44:1.6959674 45:-0.13553756 46:-0.84610403 47:1.6247411 48:0.089874983 49:-0.011168271 50:1.7282991 51:0.14037967 52:-0.37123635 53:1.6753378 54:0.15610959 55:-0.76961428 56:1.7104518 57:0.16540799 58:-0.83584243 59:1.631861 60:-0.010115232 61:0.53030777 62:1.817482 63:-0.20817457 64:-0.15847617 65:1.6575916 66:-0.26592889 67:-0.089434445 68:1.6857474 69:0.25965583 70:-0.1368202 71:1.6770632 72:0.2942726 73:-0.069497481 74:1.6779363 
-0 0 0 3.042086376959385 0:0.013596445 1:-0.016910896 2:1.7662146 3:0 4:0.30000001 5:1.8 6:-0.01354738 7:0.60497999 8:1.8202751 9:-0.018139783 10:0.76983804 11:1.806397 12:-0.18106872 13:0.48384136 14:1.8305702 15:-0.22159855 16:0.21249066 17:1.7993546 18:-0.22403064 19:-0.033094198 20:1.6962383 21:-0.21529213 22:-0.082968444 23:1.6768966 24:0.15638572 25:0.49226785 26:1.828578 27:0.22799696 28:0.22151963 29:1.8219507 30:0.2631647 31:-0.00043679774 32:1.7255273 33:0.25491714 34:-0.059634656 35:1.7050338 36:-0.065287188 37:-0.017506838 38:1.730046 39:-0.11230231 40:-0.39054871 41:1.6697969 42:-0.12429363 43:-0.77678156 44:1.6942465 45:-0.1356293 46:-0.84600449 47:1.6245801 48:0.089951932 49:-0.011174291 50:1.72826 51:0.14036398 52:-0.37125897 53:1.6754124 54:0.15602982 55:-0.76959831 56:1.710465 57:0.16536196 58:-0.83581054 59:1.6319122 60:-0.010147862 61:0.53032124 62:1.8174896 63:-0.19868682 64:-0.19466601 65:1.6648915 66:-0.26840839 67:-0.1048523 68:1.6861985 69:0.25829107 70:-0.13688718 71:1.6747372 72:0.29816723 73:-0.068146825 74:1.6860023 
-2.549121037520516 0 0 0 0:-0.0046375878 1:-0.021790057 2:1.7668495 3:0 4:0.30000001 5:1.8 6:0.0006525293 7:0.60546333 8:1.8186626 9:-0.0073542073 10:0.77178764 11:1.8051391 12:-0.16925988 13:0.48777646 14:1.8518198 15:-0.21822473 16:0.22274423 17:1.8321965 18:-0.2408008 19:-0.023615018 20:1.7191439 21:-0.23416907 22:-0.07409054 23:1.6959221 24:0.1630477 25:0.48320276 26:1.8006499 27:0.22821072 28:0.20722765 29:1.7610049 30:0.25785902 31:-0.039847404 32:1.6451914 33:0.26198477 34:-0.11738473 35:1.6160223 36:-0.081796132 37:-0.019749403 38:1.7383246 39:-0.13343495 40:-0.37226444 41:1.6347473 42:-0.1264689 43:-0.77415597 44:1.6856685 45:-0.13582855 46:-0.8368448 47:1.6265616 48:0.070242234 49:-0.018567339 50:1.7208714 51:0.13395321 52:-0.36510086 53:1.6370561 54:0.15679476 55:-0.76239491 56:1.7072494 57:0.16638228 58:-0.82309693 59:1.636544 60:0.00015365332 61:0.53107435 62:1.8164282 63:-0.21776921 64:-0.16756853 65:1.6607592 66:-0.28207466 67:-0.088217914 68:1.6961682 69:0.26265681 70:-0.18639228 71:1.5999537 72:0.23675394 73:-0.10745054 74:1.5583971 
-10 0 0 0 0:-0.018886257 1:-0.02422069 2:1.769325 3:0 4:0.30000001 5:1.8 6:0.014603078 7:0.60709572 8:1.8159089 9:0.00099035352 10:0.77276784 11:1.8037465 12:-0.15354334 13:0.49009776 14:1.8701751 15:-0.20789298 16:0.22299871 17:1.8644414 18:-0.24737751 19:-0.019733325 20:1.7435386 21:-0.24507284 22:-0.065464228 23:1.7229307 24:0.16077378 25:0.47664297 26:1.7684128 27:0.21747464 28:0.22609794 29:1.6930263 30:0.22655904 31:0.010373816 32:1.5557604 33:0.23717785 34:-0.082352683 35:1.5022898 36:-0.092788607 37:-0.020963296 38:1.7464945 39:-0.14791459 40:-0.36669326 41:1.6437643 42:-0.12718545 43:-0.76466209 44:1.6876972 45:-0.1352371 46:-0.8261435 47:1.6285429 48:0.053036235 49:-0.021771163 50:1.7176263 51:0.12109328 52:-0.36275446 53:1.6255186 54:0.15917644 55:-0.75397164 56:1.7046101 57:0.16930321 58:-0.81370384 59:1.6366537 60:0.010393754 61:0.5322789 62:1.8145096 63:-0.23590851 64:-0.16262844 65:1.6855772 66:-0.29575557 67:-0.081270963 68:1.73787 69:0.23548892 70:-0.15809917 71:1.4657805 72:0.21979415 73:-0.057950005 74:1.4396985 
-10 0 3.243836742702132 0 0:-0.022654399 1:-0.025254264 2:1.7705107 3:0 4:0.30000001 5:1.8 6:0.018001795 7:0.60783136 8:1.8151259 9:0.0029998906 10:0.77278841 11:1.802856 12:-0.14796409 13:0.49091357 14:1.8751695 15:-0.20461622 16:0.21798275 17:1.876698 18:-0.24224542 19:0.0068688989 20:1.7839532 21:-0.24606404 22:-0.040565118 23:1.7511811 24:0.15840486 25:0.47374529 26:1.7573042 27:0.21298711 28:0.23798041 29:1.6554487 30:0.21356772 31:0.045572355 32:1.5190647 33:0.22592373 34:-0.051725551 35:1.4600418 36:-0.095421448 37:-0.021947145 38:1.7494366 39:-0.15695211 40:-0.36570555 41:1.6534595 42:-0.12763089 43:-0.76244783 44:1.6879032 45:-0.13444117 46:-0.82386929 47:1.6289127 48:0.048120409 49:-0.022850379 50:1.7172332 51:0.11686593 52:-0.36256731 53:1.6231999 54:0.15933977 55:-0.75070888 56:1.7024941 57:0.16917254 58:-0.81115305 59:1.637079 60:0.012872308 61:0.53282487 62:1.8139362 63:-0.23601037 64:-0.13174261 65:1.7048533 66:-0.29473847 67:-0.062634587 68:1.7428479 69:0.22905062 70:-0.12505378 71:1.4088342 72:0.21134473 73:-0.031871572 74:1.3942022 
-10 0 10 0 0:-0.026038364 1:-0.026190206 2:1.7716818 3:0 4:0.30000001 5:1.8 6:0.020909127 7:0.60895145 8:1.8141959 9:0.005600214 10:0.77306747 11:1.8020699 12:-0.1425387 13:0.4909097 14:1.8778343 15:-0.20102571 16:0.21925411 17:1.8845873 18:-0.24095581 19:0.0098149329 20:1.7887599 21:-0.24799359 22:-0.040361375 23:1.7628613 24:0.15678506 25:0.47035569 26:1.7445009 27:0.2073902 28:0.25063375 29:1.6250949 30:0.20393057 31:0.066336393 32:1.4771688 33:0.21272285 34:-0.024531946 35:1.4094312 36:-0.097492039 37:-0.022257492 38:1.751914 39:-0.16070192 40:-0.36399996 41:1.659745 42:-0.12745439 43:-0.76034945 44:1.6889493 45:-0.13336794 46:-0.82070893 47:1.6295598 48:0.043625798 49:-0.024244949 50:1.7170198 51:0.11355075 52:-0.36010724 53:1.6220925 54:0.15972032 55:-0.75038797 56:1.7002418 57:0.16995485 58:-0.80923444 59:1.6377034 60:0.015119944 61:0.53368104 62:1.8132794 63:-0.23651183 64:-0.1263569 65:1.7087131 66:-0.30181107 67:-0.063385233 68:1.7643869 69:0.21739809 70:-0.091336787 71:1.3305573 72:0.20407073 73:0.010529608 74:1.3451555 
-10 10 10 0 0:-0.029683858 1:-0.027054355 2:1.7729087 3:0 4:0.30000001 5:1.8 6:0.024080899 7:0.60957181 8:1.8131764 9:0.0076092891 10:0.7734611 11:1.8006396 12:-0.13784949 13:0.49022079 14:1.877558 15:-0.19768475 16:0.22083776 17:1.8939197 18:-0.2403598 19:0.011644527 20:1.7988684 21:-0.24982429 22:-0.040403828 23:1.7790987 24:0.15615353 25:0.46886814 26:1.7345288 27:0.2001735 28:0.26566184 29:1.5870953 30:0.19294086 31:0.087454244 32:1.4314647 33:0.19846913 34:0.001365155 35:1.346976 36:-0.10031719 37:-0.023071572 38:1.754458 39:-0.1642545 40:-0.3641448 41:1.6657104 42:-0.12762418 43:-0.75866508 44:1.6893866 45:-0.1327932 46:-0.81914687 47:1.6299381 48:0.0394825 49:-0.024968773 50:1.7171137 51:0.1107693 52:-0.3568753 53:1.6211987 54:0.1602215 55:-0.74822122 56:1.6991429 57:0.17058608 58:-0.80745506 59:1.6379738 60:0.017396357 61:0.5341385 62:1.8125663 63:-0.24149096 64:-0.13173409 65:1.7198324 66:-0.29687017 67:-0.074762136 68:1.7745619 69:0.19625492 70:-0.060865134 71:1.2675073 72:0.18980448 73:0.045627832 74:1.2822952 
-0.4782079726725103 10 10 0 0:-0.032945219 1:-0.02728188 2:1.774039 3:0 4:0.30000001 5:1.8 6:0.026873559 7:0.60987651 8:1.8119686 9:0.0088972114 10:0.77363771 11:1.7999573 12:-0.13371047 13:0.49062896 14:1.880254 15:-0.19447304 16:0.22418202 17:1.9057431 18:-0.23888487 19:0.014645725 20:1.8124645 21:-0.25038281 22:-0.041023642 23:1.794801 24:0.15484977 25:0.47004914 26:1.7252371 27:0.19631992 28:0.29003829 29:1.5692072 30:0.18333057 31:0.12408577 32:1.3887076 33:0.1851218 34:0.043559119 35:1.2898004 36:-0.1020902 37:-0.023384109 38:1.7566953 39:-0.1673637 40:-0.36534315 41:1.6709142 42:-0.12823522 43:-0.75769132 44:1.6897349 45:-0.13251212 46:-0.8182767 47:1.6300733 48:0.034301028 49:-0.025002405 50:1.7170384 51:0.10977377 52:-0.35713065 53:1.6209888 54:0.16033144 55:-0.74767005 56:1.6987801 57:0.16997789 58:-0.80596894 59:1.638036 60:0.019253276 61:0.53426415 62:1.8117685 63:-0.24253646 64:-0.12679802 65:1.7333691 66:-0.2908918 67:-0.057866931 68:1.7874875 69:0.17704642 70:-0.011182457 71:1.2280107 72:0.1777965 73:0.089947477 74:1.2292969 
-0 10 10 0 0:-0.035729833 1:-0.027341932 2:1.7755611 3:0 4:0.30000001 5:1.8 6:0.028765302 7:0.61030835 8:1.8110912 9:0.0097533427 10:0.77389199 11:1.7993832 12:-0.13081233 13:0.49091411 14:1.8821807 15:-0.19258191 16:0.22536957 17:1.9136109 18:-0.2419844 19:-0.011991873 20:1.8240697 21:-0.25444299 22:-0.056003898 23:1.806309 24:0.15512769 25:0.4704687 26:1.7246029 27:0.18468541 28:0.30654263 29:1.526413 30:0.17289604 31:0.15438193 32:1.3261642 33:0.17285433 34:0.1024486 35:1.2445641 36:-0.10453373 37:-0.02386333 38:1.7602839 39:-0.16763979 40:-0.36478031 41:1.6748278 42:-0.12850158 43:-0.75714296 44:1.6900678 45:-0.1657611 46:-0.77125448 47:1.5781302 48:0.031322699 49:-0.024664789 50:1.7171514 51:0.10930465 52:-0.35726452 53:1.6211183 54:0.16066983 55:-0.74729395 56:1.6985936 57:0.17034356 58:-0.80555505 59:1.6380064 60:0.020549942 61:0.53450805 62:1.8111851 63:-0.24741086 64:-0.1534023 65:1.7268877 66:-0.27653974 67:-0.09777233 68:1.8097456 69:0.16338696 70:0.048603848 71:1.1727576 72:0.17220251 73:0.15148258 74:1.1999907 
-10 -10 10 1.274366093831834 0:-0.017836399 1:-0.028022617 2:1.7798946 3:0 4:0.30000001 5:1.8 6:0.012575839 7:0.61377078 8:1.8068879 9:-0.01054075 10:0.77877611 11:1.7949913 12:-0.1511841 13:0.48759449 14:1.8772416 15:-0.19855623 16:0.21402135 17:1.8927343 18:-0.24153717 19:-0.024320379 20:1.8147743 21:-0.24705151 22:-0.073384583 23:1.7895415 24:0.14368875 25:0.4817549 26:1.7346852 27:0.18539605 28:0.34170491 29:1.5104942 30:0.21260628 31:0.16657877 32:1.2891631 33:0.2152853 34:0.1368978 35:1.2312758 36:-0.089299634 37:-0.027203321 38:1.7642386 39:-0.1444423 40:-0.37343478 41:1.6646695 42:-0.12925757 43:-0.76423752 44:1.6923256 45:-0.16322482 46:-0.77918714 47:1.5793371 48:0.051221836 49:-0.02334103 50:1.7217536 51:0.12850051 52:-0.35550255 53:1.6336095 54:0.15659377 55:-0.75335026 56:1.7063775 57:0.16657105 58:-0.81298292 59:1.6405828 60:0.0095711835 61:0.53747416 62:1.8075778 63:-0.25693488 64:-0.13646963 65:1.7654998 66:-0.28076965 67:-0.068793401 68:1.8014135 69:0.21945986 70:0.097155273 71:1.1210816 72:0.19259547 73:0.075302631 74:1.2055993 
-0 -10 10 0 0:-0.018436976 1:-0.028096676 2:1.7794428 3:0 4:0.30000001 5:1.8 6:0.013638224 7:0.61414444 8:1.8071895 9:-0.010687228 10:0.7780143 11:1.7961822 12:-0.14921661 13:0.48601007 14:1.881377 15:-0.19623259 16:0.21211222 17:1.8993804 18:-0.24023245 19:-0.025556356 20:1.8206627 21:-0.24795225 22:-0.076286584 23:1.8073394 24:0.14369558 25:0.48319149 26:1.7346818 27:0.17198782 28:0.37606788 29:1.4991677 30:0.18498157 31:0.24450225 32:1.3015168 33:0.20307258 34:0.21764696 35:1.1916456 36:-0.089603633 37:-0.027490675 38:1.7646346 39:-0.14562553 40:-0.37213057 41:1.6647606 42:-0.12930743 43:-0.76268369 44:1.6920965 45:-0.16442482 46:-0.77765405 47:1.5796316 48:0.050395634 49:-0.023159921 50:1.7203207 51:0.1269685 52:-0.35509163 53:1.6318266 54:0.15692346 55:-0.75242168 56:1.7057729 57:0.16651972 58:-0.8112613 59:1.6399832 60:0.010384168 61:0.53771675 62:1.8077838 63:-0.2574586 64:-0.14062718 65:1.7865238 66:-0.27782688 67:-0.066044331 68:1.814198 69:0.21247649 70:0.18053848 71:1.0723548 72:0.18596274 73:0.157911 74:1.2010195 
-0 -1.419959595861725 10 0 0:-0.01933457 1:-0.027940139 2:1.7789919 3:0 4:0.30000001 5:1.8 6:0.014658038 7:0.61410499 8:1.8075752 9:-0.010566525 10:0.77766371 11:1.79725 12:-0.14786141 13:0.48635352 14:1.8855824 15:-0.19445162 16:0.20960441 17:1.9065664 18:-0.23402983 19:-0.011107251 20:1.8483462 21:-0.24650358 22:-0.067336455 23:1.8314407 24:0.1433661 25:0.48428726 26:1.7347851 27:0.15766744 28:0.41396886 29:1.5014501 30:0.17044745 31:0.30625057 32:1.2820687 33:0.18707339 34:0.30356979 35:1.1699772 36:-0.090229183 37:-0.027530551 38:1.7651591 39:-0.14593504 40:-0.37172985 41:1.6645355 42:-0.12907371 43:-0.76206201 44:1.6917076 45:-0.16522115 46:-0.77702779 47:1.5797226 48:0.049061816 49:-0.022691846 50:1.7186244 51:0.12631254 52:-0.35440129 53:1.6308589 54:0.15736511 55:-0.75212115 56:1.7049699 57:0.1671546 58:-0.81079102 59:1.639782 60:0.011128847 61:0.53768158 62:1.8080163 63:-0.25747052 64:-0.14226523 65:1.8033264 66:-0.2747072 67:-0.074906081 68:1.8256323 69:0.19816987 70:0.27442825 71:1.0740747 72:0.16625091 73:0.25602791 74:1.1831889 
-0 -0 10 0 0:-0.019401424 1:-0.027872935 2:1.7786736 3:0 4:0.30000001 5:1.8 6:0.015220258 7:0.61415851 8:1.8086193 9:-0.011085108 10:0.77733296 11:1.7984087 12:-0.14581858 13:0.48611176 14:1.8898456 15:-0.19205016 16:0.20838253 17:1.9125688 18:-0.23298532 19:-0.023791045 20:1.8542986 21:-0.24614136 22:-0.078552589 23:1.8449616 24:0.14179792 25:0.48501873 26:1.7349451 27:0.15757941 28:0.41423881 29:1.5018544 30:0.17636001 31:0.33750999 32:1.2770681 33:0.17226762 34:0.3826645 35:1.1450458 36:-0.090143785 37:-0.02757363 38:1.7651026 39:-0.14618227 40:-0.37190008 41:1.6644459 42:-0.12939306 43:-0.7617746 44:1.6915517 45:-0.16677526 46:-0.77676529 47:1.5801711 48:0.048663247 49:-0.022169098 50:1.7174938 51:0.12601121 52:-0.35442507 53:1.6304321 54:0.1573782 55:-0.75211436 56:1.7043924 57:0.1669073 58:-0.81042886 59:1.6395948 60:0.011456762 61:0.53764439 62:1.8086641 63:-0.25507334 64:-0.14911656 65:1.8189225 66:-0.2718834 67:-0.056545362 68:1.8566875 69:0.171717 70:0.3564043 71:1.0692801 72:0.1584935 73:0.33694321 74:1.0763371 
-0 -0 0 0.8141753184920126 0:-0.019397147 1:-0.021216333 2:1.7820005 3:0 4:0.30000001 5:1.8 6:0.018528812 7:0.61067384 8:1.8057387 9:-0.014912937 10:0.75931412 11:1.7980459 12:-0.12331016 13:0.50094521 14:1.90323 15:-0.1739388 16:0.20170449 17:1.9424405 18:-0.21901309 19:-0.062508672 20:1.8787496 21:-0.22785732 22:-0.1049249 23:1.8808157 24:0.12439809 25:0.47080272 26:1.7157779 27:0.13521108 28:0.54149681 29:1.412487 30:0.11883204 31:0.67206806 32:1.1489487 33:0.11614849 34:0.7150991 35:1.0764246 36:-0.086350247 37:-0.023445308 38:1.7791395 39:-0.13830549 40:-0.3853603 41:1.6889029 42:-0.13151415 43:-0.78232497 44:1.690084 45:-0.17877898 46:-0.79839468 47:1.5847516 48:0.046312921 49:-0.013033941 50:1.7116275 51:0.11484932 52:-0.3796584 53:1.6474161 54:0.15609077 55:-0.77859676 56:1.7005372 57:0.16565794 58:-0.83653241 59:1.6344934 60:0.013969444 61:0.53450274 62:1.806505 63:-0.23886335 64:-0.16661729 65:1.8715284 66:-0.23561504 67:-0.084363356 68:1.8827024 69:0.11499628 70:0.75357968 71:1.0253501 72:0.076864533 73:0.7303431 74:1.039783 
-0 -0 10 0 0:-0.02307716 1:-0.021759242 2:1.7992463 3:0 4:0.30000001 5:1.8 6:0.021863673 7:0.60978937 8:1.7879918 9:0.0032237098 10:0.76799572 11:1.768182 12:-0.13550058 13:0.50783992 14:1.8745575 15:-0.19161156 16:0.22305028 17:1.9127994 18:-0.2369642 19:0.0041478574 20:1.8513274 21:-0.2462582 22:-0.050374597 23:1.8349359 24:0.13618588 25:0.48006916 26:1.7192247 27:0.18465191 28:0.4151203 29:1.4713285 30:0.17898068 31:0.43656337 32:1.2340953 33:0.17704697 34:0.47875786 35:1.0850239 36:-0.093990967 37:-0.016469032 38:1.7881005 39:-0.15290944 40:-0.35956776 41:1.6816359 42:-0.13261044 43:-0.76092982 44:1.6795578 45:-0.1710947 46:-0.77763438 47:1.5693469 48:0.047200378 49:-0.021492079 50:1.7377028 51:0.12327552 52:-0.35393173 53:1.6383638 54:0.15609877 55:-0.75510222 56:1.6858802 57:0.16526544 58:-0.81299138 59:1.6194541 60:0.016535956 61:0.53400189 62:1.7933323 63:-0.25712875 64:-0.13598566 65:1.8071938 66:-0.27282333 67:-0.055779204 68:1.8545837 69:0.17850427 70:0.48512936 71:0.97667098 72:0.1577812 73:0.4395563 74:1.048306 
-0.0598426128949811 -10 10 0 0:-0.037911437 1:-0.027506828 2:1.7768526 3:0 4:0.30000001 5:1.8 6:0.030872405 7:0.61093879 8:1.8098907 9:0.010426246 10:0.77410764 11:1.7988665 12:-0.12902001 13:0.49096984 14:1.882906 15:-0.19030891 16:0.22736266 17:1.920295 18:-0.24140641 19:-0.014887214 20:1.8303401 21:-0.25687781 22:-0.057133794 23:1.8294754 24:0.15427621 25:0.47090554 26:1.7240076 27:0.18603307 28:0.32806697 29:1.5110338 30:0.15722193 31:0.17598456 32:1.2548809 33:0.15963422 34:0.16850126 35:1.2162826 36:-0.10676159 37:-0.024457574 38:1.7634695 39:-0.16733052 40:-0.3649742 41:1.6781847 42:-0.12866098 43:-0.75780511 44:1.6902802 45:-0.16648354 46:-0.77195889 47:1.5786471 48:0.029366262 49:-0.024460882 50:1.7171378 51:0.10810006 52:-0.35782892 53:1.6220846 54:0.16067794 55:-0.74719054 56:1.6985033 57:0.17058378 58:-0.80540061 59:1.638056 60:0.021982446 61:0.53483486 62:1.8103755 63:-0.27313903 64:-0.11310601 65:1.8194747 66:-0.27968568 67:-0.039372578 68:1.8411129 69:0.15941529 70:0.11826149 71:1.1246245 72:0.16313866 73:0.2080577 74:1.170646 
-0 -10 10 0 0:-0.038229167 1:-0.027505279 2:1.7772551 3:0 4:0.30000001 5:1.8 6:0.032445401 7:0.61170292 8:1.8083141 9:0.010976575 10:0.77438158 11:1.7974892 12:-0.12684667 13:0.49081975 14:1.8826575 15:-0.18892765 16:0.22800562 17:1.9251587 18:-0.23972735 19:-0.01696986 20:1.8408313 21:-0.25704795 22:-0.062315777 23:1.8459384 24:0.15225627 25:0.47158355 26:1.7233961 27:0.18446214 28:0.3784315 29:1.5000575 30:0.14172031 31:0.27243206 32:1.2907932 33:0.14925794 34:0.22668141 35:1.1684256 36:-0.10704247 37:-0.024543509 38:1.7643466 39:-0.16696 40:-0.36487663 41:1.6806905 42:-0.12883157 43:-0.75802016 44:1.6907868 45:-0.16722785 46:-0.77224994 47:1.5794742 48:0.029002756 49:-0.024371937 50:1.7171011 51:0.1071755 52:-0.35717952 53:1.6232111 54:0.16064881 55:-0.74707526 56:1.6987717 57:0.17074816 58:-0.80517006 59:1.6381631 60:0.023275964 61:0.53531432 62:1.8091066 63:-0.26261687 64:-0.12563759 65:1.8239653 66:-0.27989733 67:-0.093048215 68:1.8450122 69:0.14172329 70:0.17931548 71:1.070637 72:0.1559926 73:0.2698026 74:1.1339364 
-0 -0 10 0 0:-0.039667293 1:-0.027301803 2:1.7787046 3:0 4:0.30000001 5:1.8 6:0.033690274 7:0.61250705 8:1.807075 9:0.011497553 10:0.77463377 11:1.7959185 12:-0.1254518 13:0.49186087 14:1.884321 15:-0.18644023 16:0.22937177 17:1.9308994 18:-0.23718572 19:-0.019731581 20:1.8493614 21:-0.25331742 22:-0.061389148 23:1.8614404 24:0.14887422 25:0.47286832 26:1.7230763 27:0.15498322 28:0.41927451 29:1.4667342 30:0.11283124 31:0.29899186 32:1.2653086 33:0.13934743 34:0.28942031 35:1.1299994 36:-0.1084086 37:-0.024274588 38:1.767379 39:-0.16561693 40:-0.36519432 41:1.68344 42:-0.12868625 43:-0.7582826 44:1.6910536 45:-0.1680361 46:-0.772623 47:1.5802734 48:0.027807288 49:-0.024156749 50:1.7173865 51:0.10684488 52:-0.35708135 53:1.6241167 54:0.16085809 55:-0.74711937 56:1.6987045 57:0.17122734 58:-0.80533278 59:1.6379864 60:0.024212994 61:0.53584433 62:1.8082347 63:-0.25540796 64:-0.12731148 65:1.8320103 66:-0.26929662 67:-0.060066715 68:1.8579547 69:0.11498807 70:0.23345317 71:1.015259 72:0.1479184 73:0.33483577 74:1.1098635 
-0 -0 10 0 0:-0.030047704 1:-0.021065444 2:1.7979698 3:0 4:0.30000001 5:1.8 6:0.027142152 7:0.60784435 8:1.7900276 9:0.00656927 10:0.7695902 11:1.7688403 12:-0.1383788 13:0.50370067 14:1.8718569 15:-0.20010379 16:0.22527264 17:1.9156349 18:-0.23007368 19:-0.00036770105 20:1.8756104 21:-0.25006714 22:-0.032721743 23:1.8703172 24:0.12921709 25:0.47092491 26:1.7188277 27:0.15357225 28:0.3894906 29:1.4897783 30:0.12427719 31:0.42930621 32:1.2384837 33:0.15234379 34:0.3737241 35:1.1091809 36:-0.10088843 37:-0.016309217 38:1.790087 39:-0.16316716 40:-0.35400999 41:1.6805019 42:-0.12568343 43:-0.75885248 44:1.6829598 45:-0.16398084 46:-0.77504224 47:1.5722897 48:0.040170357 49:-0.02177012 50:1.7348013 51:0.11450058 52:-0.35155982 53:1.6384392 54:0.16372058 55:-0.75089687 56:1.6880019 57:0.17380789 58:-0.80789781 59:1.6239731 60:0.020663559 61:0.53252417 62:1.794749 63:-0.26230854 64:-0.12549745 65:1.8634143 66:-0.26626539 67:-0.051435888 68:1.8847067 69:0.15272415 70:0.36246747 71:1.0615697 72:0.1409543 73:0.42334872 74:1.1016972 
-0 -0 -10 2.949502932033495 0:-0.023310483 1:-0.02106379 2:1.799762 3:0 4:0.30000001 5:1.8 6:0.022134107 7:0.60923159 8:1.7872479 9:0.006391611 10:0.76789987 11:1.7651086 12:-0.1414891 13:0.50504512 14:1.8677115 15:-0.19797866 16:0.22640319 17:1.9061201 18:-0.24185394 19:-0.019348413 20:1.8366368 21:-0.25509754 22:-0.068878084 23:1.8252487 24:0.13958114 25:0.48356456 26:1.7216942 27:0.18410723 28:0.40720809 29:1.4382131 30:0.19137791 31:0.42098689 32:1.200449 33:0.19444902 34:0.42904967 35:1.1048768 36:-0.094831645 37:-0.014901549 38:1.786979 39:-0.15785743 40:-0.35770029 41:1.6755452 42:-0.13329431 43:-0.75777227 44:1.6774266 45:-0.16897899 46:-0.77437615 47:1.5658057 48:0.047803748 49:-0.021586642 50:1.740231 51:0.12548146 52:-0.35166997 53:1.6364081 54:0.15566805 55:-0.75178438 56:1.6837647 57:0.1647967 58:-0.8096894 59:1.6174631 60:0.016744535 61:0.53355867 62:1.7927678 63:-0.26391497 64:-0.13864551 65:1.8054435 66:-0.28949627 67:-0.079634637 68:1.8470123 69:0.19879316 70:0.4308787 71:0.99678588 72:0.18168429 73:0.38603133 74:1.0597038 
-0 -0 -10 0 0:-0.023211531 1:-0.019593135 2:1.7993491 3:0 4:0.30000001 5:1.8 6:0.022004854 7:0.60758114 8:1.7874818 9:0.0093750693 10:0.76796466 11:1.7628238 12:-0.14535235 13:0.50599557 14:1.8622811 15:-0.20490777 16:0.22699465 17:1.8983684 18:-0.24788404 19:-0.016034842 20:1.8356102 21:-0.26061344 22:-0.067621559 23:1.8182709 24:0.14978136 25:0.4852308 26:1.7398694 27:0.19423917 28:0.40696305 29:1.5132911 30:0.21109831 31:0.374291 32:1.2458401 33:0.21736228 34:0.37809998 35:1.1334739 36:-0.095448017 37:-0.012746468 38:1.7849233 39:-0.1603629 40:-0.35267872 41:1.6704071 42:-0.13367397 43:-0.75364769 44:1.6754358 45:-0.16282521 46:-0.76996011 47:1.5609508 48:0.049296226 49:-0.021268517 50:1.7429199 51:0.12769102 52:-0.35031796 53:1.6346242 54:0.15567912 55:-0.74876815 56:1.6816053 57:0.1648683 58:-0.80683362 59:1.6151953 60:0.016656961 61:0.53231758 62:1.7929416 63:-0.26759952 64:-0.13693731 65:1.7994063 66:-0.29484811 67:-0.073612466 68:1.8359408 69:0.22720435 70:0.37687361 71:1.0292192 72:0.21188256 73:0.32929122 74:1.075294 
-0 -0 -10 0 0:-0.022876393 1:-0.018759117 2:1.799299 3:0 4:0.30000001 5:1.8 6:0.021556109 7:0.60675848 8:1.7874086 9:0.011841841 10:0.76791638 11:1.7620342 12:-0.14916542 13:0.50607574 14:1.8587155 15:-0.21090935 16:0.22719404 17:1.8898709 18:-0.25343361 19:-0.014562085 20:1.8328118 21:-0.26639175 22:-0.067920551 23:1.8141775 24:0.15012218 25:0.48714596 26:1.7388449 27:0.20718871 28:0.3781969 29:1.5175142 30:0.24427469 31:0.29930189 32:1.2143021 33:0.24704103 34:0.31658727 35:1.1782482 36:-0.095705718 37:-0.011839554 38:1.783381 39:-0.16239426 40:-0.34922522 41:1.6664257 42:-0.13451815 43:-0.75079584 44:1.6738861 45:-0.16275932 46:-0.76709288 47:1.5590596 48:0.05036521 49:-0.020914748 50:1.744875 51:0.12893368 52:-0.34932601 53:1.6343615 54:0.15572892 55:-0.7465753 56:1.6806936 57:0.16548356 58:-0.80580002 59:1.6124043 60:0.016332641 61:0.53168482 62:1.7928886 63:-0.27469742 64:-0.13715687 65:1.7952182 66:-0.30153865 67:-0.063937277 68:1.8351476 69:0.25788206 70:0.31307256 71:1.0868583 72:0.23697017 73:0.26695687 74:1.1341157 
-0 -0 -10 0 0:-0.022127051 1:-0.017886698 2:1.7988188 3:0 4:0.30000001 5:1.8 6:0.020378452 7:0.60575205 8:1.788008 9:0.014578085 10:0.76785529 11:1.7606611 12:-0.15320043 13:0.50587565 14:1.8533888 15:-0.21923958 16:0.22566657 17:1.8786089 18:-0.26090872 19:-0.016188964 20:1.8254511 21:-0.27177125 22:-0.071170986 23:1.8062537 24:0.16063303 25:0.48535365 26:1.759829 27:0.2161842 28:0.33094341 29:1.5816596 30:0.27907899 31:0.29579431 32:1.3548751 33:0.28291178 34:0.25488704 35:1.2183304 36:-0.096081078 37:-0.011088207 38:1.7805359 39:-0.16290283 40:-0.34508538 41:1.6603489 42:-0.13382539 43:-0.7481916 44:1.6724491 45:-0.15480109 46:-0.76427615 47:1.5552721 48:0.052390981 49:-0.020981833 50:1.7478065 51:0.13075045 52:-0.34864694 53:1.6341066 54:0.15650712 55:-0.74515343 56:1.6792932 57:0.16617265 58:-0.80398697 59:1.6113997 60:0.015488449 61:0.53092945 62:1.7933192 63:-0.27945346 64:-0.13870217 65:1.7886317 66:-0.30912659 67:-0.074910596 68:1.8240266 69:0.2927289 70:0.24280269 71:1.1363683 72:0.27821285 73:0.20496355 74:1.1776409 
-0 -0 -10 0 0:-0.02133223 1:-0.017511532 2:1.7986984 3:0 4:0.30000001 5:1.8 6:0.019247316 7:0.60499245 8:1.7882473 9:0.016851023 10:0.76699591 11:1.7603338 12:-0.15730226 13:0.50500256 14:1.8459744 15:-0.22549731 16:0.22387438 17:1.8692982 18:-0.26884398 19:-0.016440332 20:1.8221118 21:-0.27617401 22:-0.070835888 23:1.7989457 24:0.16510776 25:0.48465699 26:1.7695274 27:0.24376819 28:0.32783121 29:1.5758741 30:0.31082937 31:0.22745259 32:1.3713863 33:0.32276475 34:0.19280158 35:1.2667406 36:-0.096061394 37:-0.011032507 38:1.7771709 39:-0.16294283 40:-0.34247828 41:1.6564674 42:-0.13364823 43:-0.74742526 44:1.6715443 45:-0.15002632 46:-0.76342797 47:1.5532606 48:0.054869935 49:-0.02079612 50:1.7502844 51:0.13282552 52:-0.35009694 53:1.6352108 54:0.15685093 55:-0.74459523 56:1.6788452 57:0.16634381 58:-0.80291921 59:1.6111286 60:0.014698915 61:0.53037274 62:1.7934873 63:-0.28113952 64:-0.13928385 65:1.7844884 66:-0.31398711 67:-0.064872086 68:1.8169053 69:0.33215138 70:0.16789727 71:1.1909502 72:0.31657147 73:0.13105722 74:1.229933 
-0 -1.375456515171271 -0 0 0:-0.020343296 1:-0.017115191 2:1.7982922 3:0 4:0.30000001 5:1.8 6:0.017800365 7:0.60439682 8:1.7889812 9:0.018493388 10:0.76725125 11:1.760072 12:-0.16043176 13:0.50406021 14:1.8379216 15:-0.23123494 16:0.22313431 17:1.8577938 18:-0.27589563 19:-0.017977804 20:1.8140152 21:-0.28073397 22:-0.073849574 23:1.7882428 24:0.16922878 25:0.48518676 26:1.7818789 27:0.26264566 28:0.30758446 29:1.6188314 30:0.34154204 31:0.1904504 32:1.428586 33:0.36555472 34:0.13466233 35:1.3371212 36:-0.095776364 37:-0.010723948 38:1.7735112 39:-0.16224246 40:-0.33922881 41:1.6508691 42:-0.13343544 43:-0.74638832 44:1.6706674 45:-0.13734373 46:-0.81577498 47:1.6056695 48:0.057116639 49:-0.020863608 50:1.7530117 51:0.13444148 52:-0.34964144 53:1.6365039 54:0.15737097 55:-0.74370497 56:1.6782141 57:0.16675404 58:-0.8016907 59:1.6106999 60:0.013663549 61:0.52991271 62:1.7940092 63:-0.28523311 64:-0.1397939 65:1.7723534 66:-0.32118812 67:-0.065188363 68:1.8144109 69:0.37734669 70:0.09649685 71:1.2614772 72:0.36445162 73:0.081255376 74:1.3316109 
-0 -0 -0 0.1365338831030471 0:0.010419544 1:-0.012033269 2:1.8048925 3:0 4:0.30000001 5:1.8 6:-0.0088787004 7:0.60299224 8:1.782409 9:0.021588068 10:0.76127851 11:1.759346 12:-0.15787379 13:0.48785478 14:1.7375979 15:-0.22140621 16:0.21408866 17:1.6846833 18:-0.21383215 19:-0.0052378625 20:1.5938058 21:-0.19628821 22:-0.072023436 23:1.5611887 24:0.15433198 25:0.53086871 26:1.9180303 27:0.2925908 28:0.47184318 29:2.1033802 30:0.44576365 31:0.45015794 32:2.2561512 33:0.51446474 34:0.43372416 35:2.3318901 36:-0.057817023 37:-0.0029104203 38:1.7456696 39:-0.12067026 40:-0.3455354 41:1.6115642 42:-0.12816563 43:-0.76312709 44:1.6641226 45:-0.13646826 46:-0.82573926 47:1.5974886 48:0.077776685 49:-0.015426472 50:1.7901094 51:0.14756709 52:-0.38445187 53:1.6868117 54:0.15860447 55:-0.75943017 56:1.681066 57:0.1686817 58:-0.81359023 59:1.6130342 60:-0.0065779239 61:0.52855712 62:1.7891586 63:-0.18839997 64:-0.13600589 65:1.5355716 66:-0.23301341 67:-0.080785587 68:1.5423112 69:0.56179321 70:0.40994483 71:2.3984861 72:0.49625754 73:0.41135263 74:2.3614187 
-0 -0 -0 10 0:0.013190676 1:-0.011951283 2:1.8047433 3:0 4:0.30000001 5:1.8 6:-0.011035673 7:0.60246408 8:1.7823658 9:0.020049717 10:0.76011837 11:1.7595859 12:-0.15787934 13:0.48630133 14:1.7340207 15:-0.21814537 16:0.21220794 17:1.6773109 18:-0.20349847 19:-0.00692074 20:1.5818026 21:-0.18594509 22:-0.069032297 23:1.5511999 24:0.1491169 25:0.53417885 26:1.9221802 27:0.28659686 28:0.48726979 29:2.1143389 30:0.43408895 31:0.48815468 32:2.2733126 33:0.50073236 34:0.48010007 35:2.3514495 36:-0.054310806 37:-0.0033412725 38:1.7443097 39:-0.11959827 40:-0.34884083 41:1.6125388 42:-0.1293454 43:-0.7659781 44:1.6647432 45:-0.13814403 46:-0.82765484 47:1.6001787 48:0.079262257 49:-0.015003711 50:1.7911406 51:0.14518239 52:-0.38869503 53:1.6904986 54:0.15707645 55:-0.76164591 56:1.6815968 57:0.16663359 58:-0.81582367 59:1.613368 60:-0.0082919449 61:0.52814484 62:1.7891021 63:-0.17773613 64:-0.13374418 65:1.5234468 66:-0.22043017 67:-0.081527486 68:1.5287089 69:0.53844601 70:0.45981255 71:2.4257479 72:0.48924059 73:0.4566659 74:2.3911142 
-0 -0 -0 10 0:0.016509395 1:-0.011244863 2:1.8049238 3:0 4:0.30000001 5:1.8 6:-0.013534233 7:0.60132462 8:1.7820978 9:0.018017661 10:0.75937539 11:1.7599909 12:-0.15926775 13:0.48426795 14:1.731102 15:-0.21460213 16:0.21298535 17:1.671454 18:-0.19576076 19:-0.0074986219 20:1.5746408 21:-0.15644494 22:-0.068197832 23:1.5591183 24:0.14361225 25:0.53894097 26:1.9306989 27:0.28418764 28:0.50777471 29:2.1335835 30:0.42513099 31:0.51878226 32:2.2975345 33:0.48433998 34:0.5227049 35:2.3557215 36:-0.049778666 37:-0.0031232685 38:1.7430289 39:-0.11837496 40:-0.35224932 41:1.6137679 42:-0.13106312 43:-0.76919091 44:1.6649046 45:-0.14050683 46:-0.83034617 47:1.5993509 48:0.081033751 49:-0.013913929 50:1.7927489 51:0.14236112 52:-0.39307219 53:1.6939993 54:0.15491581 55:-0.76448947 56:1.6824679 57:0.16401789 58:-0.81839746 59:1.6135395 60:-0.01032706 61:0.52727723 62:1.7888787 63:-0.15948468 64:-0.12988256 65:1.5193467 66:-0.21030028 67:-0.084604979 68:1.5170712 69:0.53300852 70:0.50781691 71:2.4446511 72:0.48072264 73:0.49682081 74:2.4238715 
-0 -0 -0 10 0:0.019755334 1:-0.010554478 2:1.8047314 3:0 4:0.30000001 5:1.8 6:-0.016081035 7:0.60031545 8:1.7820897 9:0.015673324 10:0.75785172 11:1.7601304 12:-0.16023909 13:0.48289546 14:1.7284653 15:-0.21143392 16:0.21313459 17:1.6658602 18:-0.1868327 19:-0.0055265129 20:1.5672185 21:-0.14712699 22:-0.066318437 23:1.5532191 24:0.13883471 25:0.54089546 26:1.9354074 27:0.27943903 28:0.51866448 29:2.1447618 30:0.41917005 31:0.53916943 32:2.3089769 33:0.47206655 34:0.55674422 35:2.360121 36:-0.045602076 37:-0.0029142946 38:1.7412214 39:-0.11816069 40:-0.35488212 41:1.6154432 42:-0.13341928 43:-0.77177846 44:1.6647441 45:-0.14249247 46:-0.83256352 47:1.5991824 48:0.083051912 49:-0.012835577 50:1.7941263 51:0.1382983 52:-0.39535084 53:1.6982391 54:0.15247476 55:-0.76735771 56:1.6826398 57:0.16129407 58:-0.8211689 59:1.6134369 60:-0.012382757 61:0.52650952 62:1.788871 63:-0.14177045 64:-0.1296235 65:1.5163159 66:-0.19621047 67:-0.092179134 68:1.505523 69:0.52381271 70:0.54513955 71:2.4613941 72:0.46912566 73:0.53555 74:2.4242532 
-0 -0 -0 10 0:0.022196703 1:-0.010739475 2:1.8047326 3:0 4:0.30000001 5:1.8 6:-0.018628806 7:0.6007508 8:1.7821035 9:0.014088154 10:0.75686276 11:1.7602737 12:-0.16091883 13:0.4815959 14:1.7266238 15:-0.2076368 16:0.21394747 17:1.6613722 18:-0.17774829 19:-0.0030743331 20:1.5633521 21:-0.13681425 22:-0.063467681 23:1.5502875 24:0.13569117 25:0.54184103 26:1.9384425 27:0.26903364 28:0.5275923 29:2.1423848 30:0.41935158 31:0.5676899 32:2.3283846 33:0.46841621 34:0.58667624 35:2.3569424 36:-0.042844243 37:-0.0038071424 38:1.7403994 39:-0.11639899 40:-0.35670894 41:1.6173117 42:-0.13493954 43:-0.7742691 44:1.6657479 45:-0.14377943 46:-0.83536649 47:1.5996325 48:0.084814645 49:-0.012390494 50:1.7950687 51:0.13559058 52:-0.39815834 53:1.7020411 54:0.15091646 55:-0.77042854 56:1.6828444 57:0.15953863 58:-0.82405555 59:1.6132333 60:-0.014213964 61:0.52678442 62:1.7888672 63:-0.13030814 64:-0.12827504 65:1.5102298 66:-0.1827461 67:-0.032890201 68:1.5175726 69:0.5028246 70:0.57622433 71:2.4534566 72:0.46288627 73:0.5677948 74:2.4003661 
-0 -10 -10 0 0:-0.028845562 1:-0.019193992 2:1.7967298 3:0 4:0.30000001 5:1.8 6:0.025961813 7:0.60642767 8:1.7911577 9:0.0098490529 10:0.76998407 11:1.7672801 12:-0.14258938 13:0.50751847 14:1.8686361 15:-0.20391579 16:0.22836018 17:1.9055912 18:-0.23866798 19:0.0029712915 20:1.8694055 21:-0.25417954 22:-0.029348388 23:1.8577952 24:0.13372727 25:0.47576708 26:1.7198942 27:0.17120743 28:0.36846364 29:1.5040519 30:0.15790981 31:0.37159079 32:1.2025278 33:0.18084307 34:0.31665364 35:1.1453204 36:-0.10022269 37:-0.014645875 38:1.786155 39:-0.16419564 40:-0.35159945 41:1.6729867 42:-0.12456349 43:-0.75580758 44:1.6811588 45:-0.160999 46:-0.77183175 47:1.5695074 48:0.041962709 49:-0.020717651 50:1.7365842 51:0.11971921 52:-0.34983945 53:1.6359527 54:0.16510168 55:-0.74671328 56:1.6858094 57:0.17494385 58:-0.80456847 59:1.6222944 60:0.019746263 61:0.53141886 62:1.795614 63:-0.26567262 64:-0.12243888 65:1.8509691 66:-0.27211463 67:-0.046609789 68:1.8743715 69:0.18132466 70:0.28758299 71:1.0782709 72:0.16302228 73:0.35347778 74:1.111872 
-2.286036916825399 -10 -10 0 0:-0.0280228 1:-0.018050343 2:1.7963166 3:0 4:0.30000001 5:1.8 6:0.025102992 7:0.60545862 8:1.7912765 9:0.012699731 10:0.76996171 11:1.7665503 12:-0.14826486 13:0.50661254 14:1.8602958 15:-0.21046434 16:0.22881231 17:1.8946507 18:-0.24643214 19:0.0035599768 20:1.8590453 21:-0.26308522 22:-0.067880109 23:1.8416584 24:0.15433751 25:0.48619363 26:1.7422953 27:0.19088268 28:0.35720882 29:1.5389404 30:0.18960609 31:0.24284437 32:1.3298883 33:0.20785992 34:0.23317358 35:1.2113218 36:-0.10014023 37:-0.013466418 38:1.7831657 39:-0.1655575 40:-0.34847787 41:1.6657548 42:-0.12411889 43:-0.75371444 44:1.6798234 45:-0.15158308 46:-0.76939583 47:1.5643511 48:0.04429869 49:-0.020357296 50:1.7394421 51:0.12456223 52:-0.35090819 53:1.6351104 54:0.16569479 55:-0.7445389 56:1.6849656 57:0.17669609 58:-0.8042388 59:1.6205487 60:0.019093599 61:0.53068078 62:1.7957249 63:-0.27001736 64:-0.1345554 65:1.8382761 66:-0.28287607 67:-0.065425351 68:1.8558884 69:0.21096008 70:0.2043035 71:1.1377327 72:0.19231743 73:0.26964632 74:1.1572881 
-0 -10 -10 0 0:-0.027916446 1:-0.017383948 2:1.7967658 3:0 4:0.30000001 5:1.8 6:0.025511127 7:0.60531783 8:1.7904708 9:0.01739604 10:0.7692194 11:1.7653804 12:-0.15057604 13:0.50729227 14:1.852217 15:-0.21655104 16:0.22848687 17:1.8817074 18:-0.25514427 19:0.003350988 20:1.8495419 21:-0.26497003 22:-0.033957466 23:1.8303618 24:0.16283882 25:0.4864969 26:1.7486198 27:0.19759968 28:0.32597566 29:1.5571434 30:0.22657448 31:0.1734179 32:1.3550627 33:0.23907256 34:0.1539841 35:1.2641735 36:-0.10096137 37:-0.011707008 38:1.7805939 39:-0.16465405 40:-0.34576514 41:1.6598451 42:-0.12294707 43:-0.75147974 44:1.6782351 45:-0.14625271 46:-0.76712024 47:1.5614154 48:0.045000676 49:-0.020957977 50:1.7448845 51:0.12835336 52:-0.35060045 53:1.6349399 54:0.16712996 55:-0.74172878 56:1.6839561 57:0.17803149 58:-0.80219626 59:1.6197283 60:0.019384015 61:0.53056538 62:1.7951198 63:-0.27539149 64:-0.12702826 65:1.8205051 66:-0.29240221 67:-0.025173381 68:1.85496 69:0.24694601 70:0.12938839 71:1.1965992 72:0.22493246 73:0.20234105 74:1.2255561 
-0 -10 -10 0 0:-0.027669167 1:-0.016719386 2:1.7969153 3:0 4:0.30000001 5:1.8 6:0.025538169 7:0.60483754 8:1.7900531 9:0.021710381 10:0.76809621 11:1.7641115 12:-0.15371962 13:0.50701421 14:1.8423998 15:-0.22287847 16:0.22779843 17:1.869283 18:-0.26391882 19:0.0039790124 20:1.8291411 21:-0.26905888 22:-0.050744921 23:1.8072 24:0.17129447 25:0.484833 26:1.7586126 27:0.20861895 28:0.29783601 29:1.5849712 30:0.25490934 31:0.13663951 32:1.4176881 33:0.26981038 34:0.078350604 35:1.3280838 36:-0.10164037 37:-0.01042293 38:1.7784357 39:-0.16443807 40:-0.34295231 41:1.6535575 42:-0.12225378 43:-0.75020897 44:1.6767015 45:-0.14013825 46:-0.76579118 47:1.5584664 48:0.046059102 49:-0.020808101 50:1.747493 51:0.13174444 52:-0.35046357 53:1.636096 54:0.16799062 55:-0.73972082 56:1.6830704 57:0.17988153 58:-0.80192441 59:1.6176159 60:0.019384935 61:0.53019941 62:1.7948217 63:-0.27490404 64:-0.13860363 65:1.7978141 66:-0.30085129 67:-0.043645561 68:1.833015 69:0.27361232 70:0.037152201 71:1.2729225 72:0.25885236 73:0.1275087 74:1.2640712 
-10 -10 -0 0 0:-0.02728023 1:-0.016345933 2:1.7973149 3:0 4:0.30000001 5:1.8 6:0.025343247 7:0.60461068 8:1.7895095 9:0.026326038 10:0.76757354 11:1.7629452 12:-0.15587667 13:0.5063448 14:1.8335555 15:-0.22909135 16:0.23005415 17:1.853307 18:-0.27607563 19:-0.0070212334 20:1.8006849 21:-0.27454191 22:-0.060979947 23:1.7899344 24:0.17727697 25:0.48277152 26:1.7739704 27:0.23306623 28:0.25612611 29:1.6398361 30:0.29274824 31:0.065008119 32:1.4694045 33:0.304849 34:0.0073919296 35:1.4100389 36:-0.10225558 37:-0.0092844665 38:1.7757523 39:-0.16369474 40:-0.33977962 41:1.6481111 42:-0.12147659 43:-0.74849075 44:1.6753609 45:-0.12466472 46:-0.81350827 47:1.6147165 48:0.047487438 49:-0.021494672 50:1.7519844 51:0.13552311 52:-0.35259408 53:1.6387603 54:0.16905674 55:-0.73725337 56:1.6821434 57:0.1810894 58:-0.80531543 59:1.6215284 60:0.019226044 61:0.53002381 62:1.7944236 63:-0.27896893 64:-0.14215474 65:1.7862022 66:-0.30936652 67:-0.049256995 68:1.8162124 69:0.31078714 70:-0.043564558 71:1.3576968 72:0.29920653 73:0.058891967 74:1.3338144 
-10 -10 -0 0 0:-0.026793374 1:-0.016397029 2:1.7978718 3:0 4:0.30000001 5:1.8 6:0.024905927 7:0.60440874 8:1.7889466 9:0.029930219 10:0.76627821 11:1.761477 12:-0.15635267 13:0.50613338 14:1.8211563 15:-0.2340695 16:0.22937107 17:1.8380463 18:-0.277096 19:-0.0092298687 20:1.7872672 21:-0.27854583 22:-0.061034158 23:1.7686908 24:0.18019074 25:0.4814505 26:1.7832553 27:0.23882231 28:0.23143435 29:1.6865759 30:0.32286915 31:0.0088399798 32:1.5463142 33:0.34035015 34:-0.054507881 35:1.5020161 36:-0.10263927 37:-0.0089937598 38:1.7730067 39:-0.16256014 40:-0.33740288 41:1.6436365 42:-0.12141704 43:-0.74766803 44:1.6748221 45:-0.12470303 46:-0.81280321 47:1.6143465 48:0.049671769 49:-0.022132397 50:1.7562158 51:0.13714364 52:-0.35385299 53:1.6415696 54:0.16953337 55:-0.73436326 56:1.6819253 57:0.18151039 58:-0.80403066 59:1.6205757 60:0.018916201 61:0.52989334 62:1.7940333 63:-0.28157783 64:-0.14178029 65:1.7654257 66:-0.32233748 67:-0.068619519 68:1.7914817 69:0.35347846 70:-0.10991409 71:1.4585838 72:0.33586803 73:-0.00019277632 74:1.4288483 
-4.490012887273663 -10 -0 0 0:-0.02600134 1:-0.016423956 2:1.7984653 3:0 4:0.30000001 5:1.8 6:0.023956772 7:0.60408551 8:1.7883132 9:0.03342082 10:0.76548105 11:1.7602513 12:-0.15680678 13:0.50622916 14:1.8110104 15:-0.23849264 16:0.22964029 17:1.8260975 18:-0.28142968 19:0.0091103166 20:1.7684097 21:-0.27865887 22:-0.051622882 23:1.7485008 24:0.18040273 25:0.48236775 26:1.7830329 27:0.25492373 28:0.21396853 29:1.7322416 30:0.3516252 31:-0.036170065 32:1.6339178 33:0.37297264 34:-0.096817091 35:1.6080968 36:-0.10250908 37:-0.0086570084 38:1.7705545 39:-0.15937749 40:-0.33256572 41:1.6383071 42:-0.12121858 43:-0.74672437 44:1.6733744 45:-0.12482716 46:-0.81147587 47:1.6118948 48:0.051674042 49:-0.022454441 50:1.7600031 51:0.13880144 52:-0.35548562 53:1.6457224 54:0.16987754 55:-0.73343539 56:1.6817336 57:0.18243599 58:-0.80419385 59:1.6202064 60:0.018254489 61:0.52966601 62:1.7935994 63:-0.27743846 64:-0.14049117 65:1.7420268 66:-0.32305989 67:-0.05007036 68:1.7715936 69:0.39108911 70:-0.15880884 71:1.5675955 72:0.37230071 73:-0.043173671 74:1.5321589 
-10 -10 -0 0 0:-0.024359522 1:-0.017033353 2:1.7995603 3:0 4:0.30000001 5:1.8 6:0.022928074 7:0.60403287 8:1.7875018 9:0.036236562 10:0.76524305 11:1.7590363 12:-0.15737842 13:0.5053665 14:1.7991779 15:-0.24547245 16:0.22948958 17:1.8098137 18:-0.28255758 19:0.0087345839 20:1.7481437 21:-0.27906409 22:-0.055046618 23:1.7259817 24:0.18278463 25:0.47619748 26:1.8141654 27:0.26540121 28:0.20982744 29:1.7848251 30:0.37578046 31:-0.058235005 32:1.7274938 33:0.40053779 34:-0.11754401 35:1.7145917 36:-0.10136349 37:-0.0088723451 38:1.7670662 39:-0.15820491 40:-0.33128977 41:1.6343658 42:-0.12080067 43:-0.746768 44:1.6724474 45:-0.12454089 46:-0.81086236 47:1.6110566 48:0.054818131 49:-0.023318231 50:1.7656944 51:0.1392747 52:-0.35585868 53:1.6497908 54:0.16991228 55:-0.73175091 56:1.682044 57:0.18189846 58:-0.80165678 59:1.6193652 60:0.01753556 61:0.52966911 62:1.79304 63:-0.27881116 64:-0.13664486 65:1.7146025 66:-0.32678953 67:-0.049156696 68:1.7496679 69:0.42257786 70:-0.18142162 71:1.6874392 72:0.40524703 73:-0.072935879 74:1.6403582 
-10 -10 -0 0 0:-0.02257837 1:-0.017552882 2:1.8006909 3:0 4:0.30000001 5:1.8 6:0.020911526 7:0.60368723 8:1.7859089 9:0.039836518 10:0.764736 11:1.7580059 12:-0.1554682 13:0.50391054 14:1.7873824 15:-0.2491388 16:0.23153211 17:1.7930224 18:-0.28142577 19:0.012483165 20:1.7214046 21:-0.27768904 22:-0.053079769 23:1.7021396 24:0.18278444 25:0.47588682 26:1.820519 27:0.27249458 28:0.21243028 29:1.8331387 30:0.38432223 31:-0.036764875 32:1.8214004 33:0.42137399 34:-0.11133973 35:1.8209958 36:-0.09973532 37:-0.0090622008 38:1.7642224 39:-0.1549581 40:-0.32961291 41:1.6308854 42:-0.1200988 43:-0.7461428 44:1.6712112 45:-0.12554365 46:-0.81090277 47:1.6117392 48:0.057002477 49:-0.023745477 50:1.769922 51:0.13949689 52:-0.35629714 53:1.6544287 54:0.17010328 55:-0.73073757 56:1.682518 57:0.18226796 58:-0.80057591 59:1.6191788 60:0.016196832 61:0.52939379 62:1.7919981 63:-0.27917135 64:-0.13233228 65:1.6909165 66:-0.32869446 67:-0.052156299 68:1.7196507 69:0.44690067 70:-0.17709641 71:1.8038161 72:0.43204206 73:-0.084175915 74:1.7493281 
-0 -4.309177194106304 -0 0 0:-0.02107298 1:-0.018019959 2:1.8021133 3:0 4:0.30000001 5:1.8 6:0.019953303 7:0.60372412 8:1.784919 9:0.042612739 10:0.76448572 11:1.7571769 12:-0.15644017 13:0.50428462 14:1.7776291 15:-0.25322047 16:0.23277164 17:1.7773697 18:-0.28075171 19:0.01040864 20:1.7006845 21:-0.27566272 22:-0.050642386 23:1.6808655 24:0.18269478 25:0.47413883 26:1.8330846 27:0.28185064 28:0.21464714 29:1.8844252 30:0.40653718 31:-0.028761148 32:1.9150517 33:0.43954277 34:-0.092418104 35:1.9321506 36:-0.098516479 37:-0.0089695305 38:1.7622993 39:-0.15207388 40:-0.33009696 41:1.6282468 42:-0.11942799 43:-0.74530995 44:1.6700881 45:-0.12549374 46:-0.8107152 47:1.6087549 48:0.058642864 49:-0.024239078 50:1.7753179 51:0.13980293 52:-0.35650083 53:1.6602185 54:0.17014523 55:-0.73069823 56:1.6830289 57:0.18226987 58:-0.7996006 59:1.6189158 60:0.015520606 61:0.52942312 62:1.7913206 63:-0.27832896 64:-0.12861887 65:1.6672475 66:-0.32810777 67:-0.05805774 68:1.6904938 69:0.47304007 70:-0.16064808 71:1.9374249 72:0.45520326 73:-0.079939723 74:1.8517048 
-0 -0 -0 10 0:0.0056796558 1:-0.01604332 2:1.8132842 3:0 4:0.30000001 5:1.8 6:-0.0018143915 7:0.60593402 8:1.7740552 9:0.046992745 10:0.75693452 11:1.7553971 12:-0.14012897 13:0.49512547 14:1.708204 15:-0.21438202 16:0.23254919 17:1.635916 18:-0.18599167 19:0.0078858733 20:1.5414615 21:-0.15108131 22:-0.056187809 23:1.5373855 24:0.14108357 25:0.52744544 26:1.9255204 27:0.23516385 28:0.4544915 29:2.1272054 30:0.36085367 31:0.48348612 32:2.300755 33:0.4475427 34:0.48761427 35:2.3950734 36:-0.057450026 37:-0.006718412 38:1.7446074 39:-0.13088566 40:-0.34587929 41:1.6123047 42:-0.13000965 43:-0.76442087 44:1.6662207 45:-0.13719921 46:-0.82905012 47:1.6055329 48:0.067876413 49:-0.019492477 50:1.8078048 51:0.12747654 52:-0.39416844 53:1.7150955 54:0.15509513 55:-0.75807381 56:1.6895323 57:0.16772883 58:-0.81760365 59:1.6171951 60:-0.0013835132 61:0.53059888 62:1.782937 63:-0.14337507 64:-0.12833384 65:1.5162253 66:-0.19410348 67:-0.054986909 68:1.4869211 69:0.48641899 70:0.47405303 71:2.4541593 72:0.48593965 73:0.491925 74:2.3587308 
-0 -0 -0 10 0:0.0075697675 1:-0.016503736 2:1.8133912 3:0 4:0.30000001 5:1.8 6:-0.0038450286 7:0.60636348 8:1.7738404 9:0.045882329 10:0.75686258 11:1.755686 12:-0.13777283 13:0.49456626 14:1.7044816 15:-0.20569241 16:0.23410189 17:1.6305957 18:-0.16937745 19:0.01157935 20:1.5366848 21:-0.13540706 22:-0.051625088 23:1.5315673 24:0.13950273 25:0.52567059 26:1.9252784 27:0.23489693 28:0.47803706 29:2.1407235 30:0.41487566 31:0.52139521 32:2.3724697 33:0.44838774 34:0.53344184 35:2.4094522 36:-0.055598225 37:-0.0075398833 38:1.743567 39:-0.12685579 40:-0.34635702 41:1.6145842 42:-0.13091798 43:-0.76586366 44:1.6680019 45:-0.13833268 46:-0.82971817 47:1.6057298 48:0.069450825 49:-0.019636378 50:1.8091958 51:0.12526844 52:-0.39571464 53:1.719059 54:0.15373591 55:-0.75969481 56:1.6905775 57:0.16717841 58:-0.81863463 59:1.6190252 60:-0.0029031597 61:0.53091496 62:1.7827556 63:-0.12192596 64:-0.12468117 65:1.5097182 66:-0.16670612 67:-0.052696124 68:1.4828656 69:0.49415457 70:0.525271 71:2.4682767 72:0.47457457 73:0.53930062 74:2.3558013 
-0 -0 -0 10 0:0.0093692429 1:-0.016861618 2:1.8132684 3:0 4:0.30000001 5:1.8 6:-0.0061031878 7:0.60663915 8:1.7738349 9:0.044464801 10:0.75646329 11:1.7553611 12:-0.13706221 13:0.49329412 14:1.7021632 15:-0.20011356 16:0.23479764 17:1.6275396 18:-0.15615164 19:0.012503251 20:1.5357919 21:-0.12077041 22:-0.050362945 23:1.526526 24:0.13192035 25:0.53374958 26:1.9235106 27:0.23114944 28:0.4933939 29:2.1441383 30:0.40603316 31:0.54662216 32:2.3775468 33:0.45251131 34:0.57360983 35:2.4276004 36:-0.053300682 37:-0.0085416138 38:1.7427154 39:-0.12505496 40:-0.34858274 41:1.6159868 42:-0.13206272 43:-0.76777226 44:1.6682978 45:-0.13839775 46:-0.83047467 47:1.6053092 48:0.07038486 49:-0.01949437 50:1.8098252 51:0.12323996 52:-0.39857054 53:1.7215867 54:0.15223728 55:-0.7622177 56:1.6910369 57:0.20216483 58:-0.78089744 59:1.5901823 60:-0.0045994706 61:0.53116703 62:1.7827232 63:-0.10340074 64:-0.124377 65:1.5091243 66:-0.14513136 67:-0.058411479 68:1.4774754 69:0.47666299 70:0.56301248 71:2.4926171 72:0.46393442 73:0.58119971 74:2.3683553 
-0 -0 -0 10 0:0.010504872 1:-0.016303718 2:1.8136716 3:0 4:0.30000001 5:1.8 6:-0.0076043941 7:0.60585779 8:1.7735376 9:0.043110974 10:0.75653762 11:1.7555337 12:-0.13609019 13:0.49245387 14:1.7000849 15:-0.19421385 16:0.23589458 17:1.6256919 18:-0.14630434 19:0.018985584 20:1.5361071 21:-0.10753132 22:-0.052897051 23:1.525079 24:0.12678257 25:0.54579037 26:1.9263918 27:0.23326829 28:0.51673537 29:2.1584213 30:0.36394238 31:0.5855453 32:2.3171394 33:0.4261055 34:0.6066708 35:2.4000823 36:-0.051591653 37:-0.008553654 38:1.7422273 39:-0.12124365 40:-0.34974939 41:1.6187665 42:-0.13282305 43:-0.7689988 44:1.6693051 45:-0.13957429 46:-0.83194917 47:1.6055648 48:0.070781872 49:-0.018354341 50:1.8111441 51:0.12200966 52:-0.40256274 53:1.7246127 54:0.15120016 55:-0.76592422 56:1.6911385 57:0.20241031 58:-0.78457111 59:1.5913217 60:-0.0057807267 61:0.53063107 62:1.7824709 63:-0.082630768 64:-0.12495025 65:1.5081668 66:-0.083660394 67:-0.061803818 68:1.4724171 69:0.47189048 70:0.59895265 71:2.4850996 72:0.45352611 73:0.612629 74:2.3671577 
-1.1827824701659 -0 -0 10 0:0.011615783 1:-0.01638554 2:1.8140483 3:0 4:0.30000001 5:1.8 6:-0.0092013963 7:0.60557288 8:1.7730632 9:0.04135222 10:0.75602424 11:1.7553508 12:-0.13696016 13:0.49015749 14:1.6987507 15:-0.18898535 16:0.23546655 17:1.6249568 18:-0.13530071 19:0.019294441 20:1.5386312 21:-0.097864091 22:-0.057587877 23:1.5328023 24:0.12359044 25:0.54765642 26:1.9260781 27:0.23439169 28:0.53570884 29:2.1701748 30:0.34998983 31:0.6259048 32:2.3296072 33:0.41319722 34:0.63589942 35:2.3995535 36:-0.050385114 37:-0.0093327612 38:1.7420995 39:-0.11820844 40:-0.35343087 41:1.6227143 42:-0.1336138 43:-0.7720542 44:1.6711295 45:-0.14076181 46:-0.83324897 47:1.6058118 48:0.071430922 49:-0.01785706 50:1.8121052 51:0.12010686 52:-0.40652782 53:1.7298706 54:0.15017606 55:-0.76777327 56:1.6914809 57:0.20174703 58:-0.78638554 59:1.5919347 60:-0.0069992021 61:0.53049922 62:1.7820992 63:-0.068379045 64:-0.12718089 65:1.5138943 66:-0.069871761 67:-0.060750157 68:1.4795358 69:0.46530676 70:0.63385725 71:2.5014532 72:0.44386476 73:0.64456874 74:2.3697345 
-0 -0 -0 10 0:0.011975452 1:-0.016865641 2:1.8142009 3:0 4:0.30000001 5:1.8 6:-0.010027826 7:0.60624307 8:1.7727549 9:0.040454812 10:0.75675493 11:1.7556396 12:-0.13578779 13:0.48919934 14:1.6969817 15:-0.18347517 16:0.23505466 17:1.6238158 18:-0.12716919 19:0.019608751 20:1.5396948 21:-0.089718603 22:-0.058282509 23:1.5377371 24:0.12147219 25:0.55018157 26:1.9243214 27:0.22867545 28:0.54534853 29:2.1615064 30:0.39604482 31:0.64452595 32:2.3853986 33:0.43293363 34:0.67159581 35:2.4155662 36:-0.049697582 37:-0.0099662393 38:1.7419906 39:-0.11273408 40:-0.3555795 41:1.6276257 42:-0.13333964 43:-0.77143478 44:1.6714089 45:-0.14136541 46:-0.83435655 47:1.6058559 48:0.071436033 49:-0.018244863 50:1.8124859 51:0.12108046 52:-0.41642714 53:1.733999 54:0.14982687 55:-0.76948035 56:1.6916938 57:0.20175132 58:-0.78808004 59:1.5924437 60:-0.0075679757 61:0.53102475 62:1.7818773 63:-0.054216504 64:-0.12770174 65:1.5164721 66:-0.05930433 67:-0.053317413 68:1.4859164 69:0.45082563 70:0.65702999 71:2.4990647 72:0.44756597 73:0.671776 74:2.382715 
-0 -0 -0 -10 0:0.024722889 1:-0.010619581 2:1.8047369 3:0 4:0.30000001 5:1.8 6:-0.02068606 7:0.60046458 8:1.7820749 9:0.012637578 10:0.75633812 11:1.7605567 12:-0.16189151 13:0.48051387 14:1.7247267 15:-0.20504765 16:0.21428394 17:1.6580002 18:-0.16842428 19:0.001350075 20:1.5598443 21:-0.12623715 22:-0.059327245 23:1.5488656 24:0.13312861 25:0.54320449 26:1.9408467 27:0.25639009 28:0.53626353 29:2.1367929 30:0.4174332 31:0.58542985 32:2.3314469 33:0.45662528 34:0.61025435 35:2.3674953 36:-0.040080868 37:-0.0043117851 38:1.7389705 39:-0.11595511 40:-0.35806039 41:1.6198165 42:-0.13613424 43:-0.77483743 44:1.6664054 45:-0.14528435 46:-0.83619094 47:1.5994308 48:0.087073803 49:-0.011571586 50:1.796638 51:0.13325456 52:-0.4000181 53:1.7052677 54:0.14935322 55:-0.77226114 56:1.6830461 57:0.15769289 58:-0.82576871 59:1.613117 60:-0.015810881 61:0.52654839 62:1.7888384 63:-0.11746307 64:-0.12639877 65:1.505708 66:-0.16440687 67:-0.053374901 68:1.5026431 69:0.48106337 70:0.59736139 71:2.4414499 72:0.43238938 73:0.58342618 74:2.4159443 
-0 -0 -0 -10 0:0.024943419 1:-0.010682017 2:1.8050759 3:0 4:0.30000001 5:1.8 6:-0.021447364 7:0.6002726 8:1.7817638 9:0.011877768 10:0.75645518 11:1.7606275 12:-0.16174206 13:0.48005354 14:1.7231219 15:-0.20187315 16:0.2146353 17:1.6553595 18:-0.1595014 19:0.0027328432 20:1.5574152 21:-0.11787407 22:-0.057606563 23:1.5471437 24:0.13219263 25:0.54570353 26:1.943176 27:0.25250107 28:0.54354906 29:2.1365306 30:0.39884371 31:0.59866816 32:2.2982185 33:0.43573862 34:0.63269711 35:2.3444774 36:-0.039766204 37:-0.0046422482 38:1.7388067 39:-0.11432254 40:-0.35886472 41:1.6224635 42:-0.13550791 43:-0.77268547 44:1.6673028 45:-0.145686 46:-0.83755571 47:1.5990286 48:0.087049037 49:-0.01131475 50:1.7976551 51:0.13220648 52:-0.40120536 53:1.7078245 54:0.14893064 55:-0.77293539 56:1.683902 57:0.15711741 58:-0.82659543 59:1.6132588 60:-0.016360864 61:0.52645636 62:1.7885981 63:-0.10429549 64:-0.12530969 65:1.5072489 66:-0.1685999 67:-0.13679539 68:1.5960686 69:0.48558259 70:0.6297121 71:2.4551313 72:0.4476701 73:0.61093235 74:2.4282687 
-0 -0 -0 -10 0:0.025243804 1:-0.011328429 2:1.8054614 3:0 4:0.30000001 5:1.8 6:-0.0227722 7:0.60151744 8:1.7809792 9:0.011633702 10:0.75631654 11:1.7604437 12:-0.16078636 13:0.47953916 14:1.7211213 15:-0.19824961 16:0.21561505 17:1.6533139 18:-0.15254794 19:0.0040002018 20:1.5566642 21:-0.11043116 22:-0.055276901 23:1.5463083 24:0.13148764 25:0.54728085 26:1.9431174 27:0.25110433 28:0.54906523 29:2.1356862 30:0.37856787 31:0.64022863 32:2.2854502 33:0.43808004 34:0.65516645 35:2.3387544 36:-0.039439842 37:-0.0056046844 38:1.7388809 39:-0.11238415 40:-0.36125648 41:1.6270182 42:-0.13500983 43:-0.77276254 44:1.6682668 45:-0.1457321 46:-0.83925658 47:1.5991905 48:0.087139316 49:-0.011570215 50:1.7985253 51:0.13218886 52:-0.40254134 53:1.7101121 54:0.14941001 55:-0.77381182 56:1.6853814 57:0.15731433 58:-0.82745051 59:1.6138978 60:-0.017211154 61:0.52740115 62:1.78807 63:-0.093771093 64:-0.12228714 65:1.5049469 66:-0.16350599 67:-0.12547626 68:1.5990231 69:0.47784075 70:0.64551634 71:2.3813879 72:0.42621651 73:0.63257492 74:2.3371899 
-0 -0 -0 -3.086036815136542 0:0.02510003 1:-0.011403978 2:1.8058887 3:0 4:0.30000001 5:1.8 6:-0.02295522 7:0.60130692 8:1.7806265 9:0.010919712 10:0.7565732 11:1.7600079 12:-0.1603592 13:0.47939929 14:1.7194471 15:-0.19587356 16:0.21608859 17:1.6523535 18:-0.14783221 19:0.0064953864 20:1.5573337 21:-0.10651637 22:-0.056813717 23:1.5496349 24:0.13024962 25:0.54950011 26:1.9428017 27:0.24900109 28:0.55431008 29:2.1334436 30:0.42091733 31:0.65481281 32:2.3288777 33:0.45094973 34:0.67291212 35:2.3427017 36:-0.039398458 37:-0.0060510784 38:1.7389572 39:-0.11128108 40:-0.36231148 41:1.631242 42:-0.13524923 43:-0.77470195 44:1.6696038 45:-0.1457372 46:-0.84020221 47:1.6001151 48:0.086608224 49:-0.011301935 50:1.7993698 51:0.13168338 52:-0.40482256 53:1.7135515 54:0.14915755 55:-0.77508104 56:1.6856077 57:0.15727347 58:-0.82845032 59:1.6140974 60:-0.017333955 61:0.5273068 62:1.787791 63:-0.085041061 64:-0.12219927 65:1.5053585 66:-0.15860778 67:-0.11644493 68:1.5987809 69:0.48915362 70:0.67501271 71:2.3489535 72:0.49305421 73:0.66640234 74:2.3332217 
-0 -0 -2.088541412323846 -0 0:0.027200215 1:-0.011636943 2:1.8102031 3:0 4:0.30000001 5:1.8 6:-0.025696672 7:0.60176182 8:1.7763009 9:0.0037604943 10:0.75705743 11:1.7552073 12:-0.16190603 13:0.47693947 14:1.7133009 15:-0.18962881 16:0.20322087 17:1.6574566 18:-0.15413651 19:-0.015759453 20:1.5866261 21:-0.14589727 22:-0.080560416 23:1.5808725 24:0.1296155 25:0.54970706 26:1.9348693 27:0.26758224 28:0.57407629 29:2.1223016 30:0.41962934 31:0.64043689 32:2.2627554 33:0.47320938 34:0.66155267 35:2.2956176 36:-0.036967792 37:-0.0073833615 38:1.7416162 39:-0.10917852 40:-0.36782408 41:1.6431637 42:-0.13511655 43:-0.77736211 44:1.6749721 45:-0.14557406 46:-0.8418268 47:1.6016262 48:0.088006809 49:-0.010948986 50:1.8051071 51:0.13071105 52:-0.41486242 53:1.7256508 54:0.14949463 55:-0.77945602 56:1.6898568 57:0.15697978 58:-0.83388686 59:1.6170845 60:-0.019320566 61:0.52774668 62:1.7846961 63:-0.13123238 64:-0.16020632 65:1.552897 66:-0.18253437 67:-0.096528828 68:1.5496011 69:0.53169477 70:0.66832697 71:2.3142099 72:0.46641678 73:0.64000392 74:2.294745 
-2.712617066899809 -3.033797902673008 -0 -10 0:0.027421184 1:-0.011956051 2:1.8098242 3:0 4:0.30000001 5:1.8 6:-0.026186582 7:0.60186136 8:1.7769227 9:0.0029205754 10:0.75691319 11:1.7556546 12:-0.16256723 13:0.47618842 14:1.7136741 15:-0.19328919 16:0.19874068 17:1.6597712 18:-0.17011774 19:-0.023088247 20:1.5908141 21:-0.16072674 22:-0.085860133 23:1.5826161 24:0.13001972 25:0.5491479 26:1.9350388 27:0.26617596 28:0.5696975 29:2.1193211 30:0.41765553 31:0.63530105 32:2.2606776 33:0.47263658 34:0.65381855 35:2.2974117 36:-0.036927681 37:-0.0074430257 38:1.7415257 39:-0.10950007 40:-0.36866975 41:1.6440177 42:-0.13583882 43:-0.77917343 44:1.6761642 45:-0.14616415 46:-0.84174204 47:1.6022146 48:0.088381566 49:-0.011491269 50:1.8043466 51:0.13073456 52:-0.41714889 53:1.7258601 54:0.14917275 55:-0.78043634 56:1.6903419 57:0.15653831 58:-0.83456951 59:1.6173451 60:-0.019680116 61:0.52784228 62:1.7850864 63:-0.15182088 64:-0.16419415 65:1.5595005 66:-0.20125049 67:-0.098196849 68:1.5511401 69:0.49249113 70:0.63535529 71:2.3885386 72:0.43968612 73:0.61936462 74:2.2905171 
-0 -0 -0 -10 0:0.02715832 1:-0.011954412 2:1.80971 3:0 4:0.30000001 5:1.8 6:-0.026061442 7:0.60178775 8:1.7769639 9:0.0029412583 10:0.75683784 11:1.7559681 12:-0.16257693 13:0.47612816 14:1.7139866 15:-0.19384411 16:0.19864969 17:1.6602197 18:-0.17433852 19:-0.025732085 20:1.5906186 21:-0.16386752 22:-0.08763434 23:1.5814755 24:0.13025525 25:0.54910004 26:1.9351017 27:0.26608241 28:0.56862825 29:2.1186259 30:0.41739938 31:0.63429296 32:2.2601168 33:0.47515598 34:0.65142739 35:2.2987435 36:-0.03719449 37:-0.0073363334 38:1.7416637 39:-0.10947881 40:-0.36876786 41:1.6443431 42:-0.13516645 43:-0.77747649 44:1.6761475 45:-0.14608502 46:-0.84188461 47:1.6025109 48:0.088099666 49:-0.011663541 50:1.8037949 51:0.13082913 52:-0.4176805 53:1.7258806 54:0.14916256 55:-0.78051609 56:1.6904299 57:0.15656003 58:-0.83464396 59:1.6174719 60:-0.01958359 61:0.52779478 62:1.7851062 63:-0.15740135 64:-0.16385706 65:1.5572097 66:-0.20715097 67:-0.097261816 68:1.5550947 69:0.5176459 70:0.64166665 71:2.4038374 72:0.52783233 73:0.6567477 74:2.2954113 
-0 -0 -0 -10 0:0.026708007 1:-0.011878684 2:1.8096263 3:0 4:0.30000001 5:1.8 6:-0.025792107 7:0.60164583 8:1.7768738 9:0.0029843226 10:0.75676477 11:1.7562046 12:-0.16260555 13:0.47618935 14:1.7142737 15:-0.19627011 16:0.19830826 17:1.6617062 18:-0.17876676 19:-0.029050142 20:1.589977 21:-0.17068698 22:-0.090358466 23:1.5809879 24:0.13052374 25:0.54924357 26:1.9352248 27:0.26691571 28:0.56818986 29:2.1191208 30:0.41918716 31:0.63199055 32:2.2604735 33:0.47695985 34:0.64930832 35:2.298527 36:-0.037736848 37:-0.0069977045 38:1.7416375 39:-0.10948046 40:-0.36894247 41:1.6445858 42:-0.13529816 43:-0.77920866 44:1.676518 45:-0.14620468 46:-0.84234107 47:1.6026495 48:0.087698273 49:-0.011819303 50:1.8036542 51:0.1312677 52:-0.4186075 53:1.7257242 54:0.14927706 55:-0.78024864 56:1.6906898 57:0.1565372 58:-0.83426178 59:1.6177056 60:-0.019392986 61:0.52770174 62:1.7850389 63:-0.16471644 64:-0.16488865 65:1.5591779 66:-0.2137084 67:-0.10035868 68:1.5586331 69:0.53579587 70:0.64498234 71:2.4030492 72:0.5364325 73:0.64889228 74:2.2997863 
-0 -0 -0 -10 0:0.026451863 1:-0.011879846 2:1.8095686 3:0 4:0.30000001 5:1.8 6:-0.025723271 7:0.60162026 8:1.7768912 9:0.0030663237 10:0.75681394 11:1.7562761 12:-0.16257271 13:0.47639793 14:1.7144792 15:-0.19756037 16:0.19746906 17:1.6625891 18:-0.18006426 19:-0.029587865 20:1.5902696 21:-0.1717293 22:-0.090877503 23:1.582056 24:0.13066614 25:0.54928261 26:1.9351859 27:0.26726785 28:0.56780308 29:2.1193767 30:0.42038861 31:0.63077986 32:2.2602353 33:0.47553983 34:0.64613533 35:2.2977262 36:-0.038027946 37:-0.0069006383 38:1.7417078 39:-0.10943858 40:-0.36913723 41:1.6447263 42:-0.13546315 43:-0.77995837 44:1.676682 45:-0.14619616 46:-0.84244007 47:1.6025763 48:0.087436058 49:-0.011924729 50:1.8034739 51:0.13132793 52:-0.41861516 53:1.7257202 54:0.14922869 55:-0.7809127 56:1.6906605 57:0.15667918 58:-0.834373 59:1.6177554 60:-0.019331362 61:0.5276798 62:1.7850504 63:-0.16418296 64:-0.16320962 65:1.5579453 66:-0.20947269 67:-0.10530981 68:1.5561962 69:0.52046639 70:0.63701421 71:2.3995719 72:0.53901291 73:0.64461929 74:2.2911744 
-0 -0.008288474286376723 -0 -10 0:0.02627378 1:-0.011951432 2:1.809417 3:0 4:0.30000001 5:1.8 6:-0.025681935 7:0.60162723 8:1.7769411 9:0.0030955672 10:0.75681835 11:1.75633 12:-0.162543 13:0.47637606 14:1.7145126 15:-0.19868693 16:0.19735833 17:1.6634099 18:-0.18080637 19:-0.030029684 20:1.590354 21:-0.17060289 22:-0.09115614 23:1.5821567 24:0.13075963 25:0.54923046 26:1.9350467 27:0.26791897 28:0.56717718 29:2.1194439 30:0.42144448 31:0.62968826 32:2.2600923 33:0.47349131 34:0.64401948 35:2.2988725 36:-0.038189575 37:-0.0069033802 38:1.7416666 39:-0.10941128 40:-0.36923355 41:1.6447954 42:-0.13508222 43:-0.77839977 44:1.676403 45:-0.14601588 46:-0.84225452 47:1.6024101 48:0.087246545 49:-0.012105227 50:1.8031735 51:0.13146934 52:-0.41906112 53:1.7256277 54:0.14928547 55:-0.78115422 56:1.6905267 57:0.19565767 58:-0.79781598 59:1.5864084 60:-0.019298486 61:0.52768075 62:1.7850845 63:-0.16246022 64:-0.16405247 65:1.5596623 66:-0.21104309 67:-0.10199043 68:1.5580661 69:0.52633429 70:0.64417803 71:2.3376479 72:0.533319 73:0.6518361 74:2.2944918 
-0 -0 -0 -10 0:0.012905233 1:-0.016908765 2:1.8147488 3:0 4:0.30000001 5:1.8 6:-0.011081088 7:0.60633713 8:1.7722871 9:0.039020889 10:0.75673389 11:1.7556531 12:-0.13495669 13:0.48751152 14:1.6956556 15:-0.17858225 16:0.23417474 17:1.6238573 18:-0.11952294 19:0.021214068 20:1.5432336 21:-0.083253063 22:-0.061144382 23:1.5451813 24:0.11990435 25:0.55544335 26:1.9265716 27:0.2358776 28:0.5792281 29:2.1759164 30:0.34527704 31:0.66492677 32:2.3415258 33:0.39995334 34:0.68998432 35:2.3833969 36:-0.047885478 37:-0.01021795 38:1.7425311 39:-0.10955013 40:-0.35749733 41:1.6308365 42:-0.13388485 43:-0.77300638 44:1.6715546 45:-0.14153546 46:-0.83534372 47:1.6056509 48:0.071516775 49:-0.018145666 50:1.8130953 51:0.12077258 52:-0.42009038 53:1.7357302 54:0.14978573 55:-0.7707656 56:1.692066 57:0.20240024 58:-0.78937793 59:1.5934026 60:-0.0083512366 61:0.53111207 62:1.7815187 63:-0.043518558 64:-0.13042669 65:1.5206964 66:-0.054003451 67:-0.0447779 68:1.4948037 69:0.44419587 70:0.7021845 71:2.4078419 72:0.43784016 73:0.68380696 74:2.3848736 
-0 -0 -0 -10 0:0.013629138 1:-0.017190129 2:1.8150747 3:0 4:0.30000001 5:1.8 6:-0.01197825 7:0.60661197 8:1.7719519 9:0.037757903 10:0.75636399 11:1.7551918 12:-0.13468653 13:0.48592517 14:1.6945689 15:-0.17433721 16:0.23274511 17:1.624779 18:-0.11261161 19:0.020785302 20:1.5465915 21:-0.077886179 22:-0.064882874 23:1.5516086 24:0.11914359 25:0.55722356 26:1.9279063 27:0.2202356 28:0.57686234 29:2.1535776 30:0.35417998 31:0.69732583 32:2.3538725 33:0.39866263 34:0.70581555 35:2.3834636 36:-0.046452399 37:-0.010620847 38:1.7428739 39:-0.10924676 40:-0.36085296 41:1.6317594 42:-0.1345526 43:-0.77447462 44:1.6712554 45:-0.14214934 46:-0.83677709 47:1.6052301 48:0.071522295 49:-0.018413976 50:1.8134027 51:0.12152389 52:-0.42416754 53:1.7371936 54:0.14956044 55:-0.77260506 56:1.6923826 57:0.20257555 58:-0.79120028 59:1.5940621 60:-0.0090138987 61:0.53133714 62:1.7812645 63:-0.034906633 64:-0.13312399 65:1.5256712 66:-0.035754807 67:-0.063939095 68:1.4979293 69:0.44264054 70:0.70306122 71:2.4905169 72:0.4422254 73:0.70995593 74:2.3817885 
