svm_type c_svc
kernel_type rbf
gamma 0.1
nr_class 17
total_sv 425
rho -0.119735 -0.0841048 -1.13902e-05 -2.71377e-05 -0.177635 -0.255002 -0.0559738 0 0.0787181 -9.8303e-05 0.116546 0.227888 -0.161491 0.10647 0.00100253 -0.00121504 -1.96349 0.235595 0.338762 0.0819987 0.00284046 -3.60822e-16 0 0.0769781 -0.0241048 0.0489472 0.147016 0.0364825 0.0674328 -0.00711003 -0.00102013 0.0557482 0.110111 0.0805643 0 0 0 0.0863709 0 0.104694 0.206346 0.131447 0.0979172 0 2.22045e-16 0.278665 0.000472723 0 0 0 0.135741 0.0128438 0.109452 0.201288 0.138385 0.0890843 0 8.63696e-05 0.000453117 0 0 0 0.150816 0.0155546 0.110237 0.192688 0.140532 0.0810418 0.00237691 0 1.03129 -0.0860023 0.039089 -0.202387 -0.0265171 0.102675 0.211757 -0.214829 0.0749988 -0.113084 -0.208684 0.651825 0.206011 0.0223349 -0.0322341 0.0774864 0.182247 -0.0586346 0.048908 -0.117349 -0.179568 0.261952 0.0319153 0 0.1144 0.212955 0.0479257 0.0905959 0 0 0 0 0.115572 0.200886 0.0409261 0.0713383 0 0 0.478538 0.630542 0.891407 0.379365 0.717493 0.0199662 -0.179242 1.55072 0.338143 0.311172 -1.16149 -0.0103181 0.0268701 3.01499 -0.380151 -1.02464 -0.243688 -0.132508 -0.633941 -0.867438 -0.473973 -0.252569 0.0938782 -0.172787 -0.238569 -0.0212122 0.00861991 -0.0304476
label 10 20 21 22 23 30 31 32 33 40 41 42 43 50 51 52 53
nr_sv 20 27 17 18 16 24 23 24 19 29 39 42 38 18 33 21 17
SV
0 0 0 0 0 0 0 0 3.631642057534386 5.337286592407325 1.12064639403788 0.4746063082115658 0 1.427602350110873 0 0 0:0.0094865402 1:-0.028927701 2:1.75964 3:0 4:0.30000001 5:1.8 6:-0.0107687 7:0.61655301 8:1.82705 9:-0.0356244 10:0.78206003 11:1.8286901 12:-0.18291301 13:0.477011 14:1.87511 15:-0.19833601 16:0.212883 17:1.83944 18:-0.225714 19:0.0044573699 20:1.74788 21:-0.225703 22:-0.069439299 23:1.7106301 24:0.157386 25:0.49540001 26:1.80209 27:0.21835899 28:0.23321301 29:1.77492 30:0.233096 31:0.041967999 32:1.6711299 33:0.219613 34:-0.0206945 35:1.63796 36:-0.060316902 37:-0.032759201 38:1.73286 39:-0.024774401 40:-0.51621199 41:1.68146 42:-0.0119636 43:-0.81312299 44:1.6257 45:-0.040396199 46:-0.85067499 47:1.5221601 48:0.0744415 49:-0.020216299 50:1.70763 51:0.076993003 52:-0.52212101 53:1.66372 54:0.083654404 55:-0.82136703 56:1.63028 57:0.0618506 58:-0.85122597 59:1.5081199 60:-0.0079591898 61:0.53905302 62:1.82269 63:-0.229257 64:-0.12137 65:1.6914901 66:-0.27286699 67:-0.094609 68:1.7060601 69:0.227396 70:-0.071689397 71:1.60818 72:0.17286301 73:-0.0140549 74:1.62491 
5.728544167716954 0 0 0 0 0 0 0 0 0 0 0 0 0 0 0 0:0.0096924799 1:-0.0289998 2:1.75954 3:0 4:0.30000001 5:1.8 6:-0.0110122 7:0.61666399 8:1.82718 9:-0.0357765 10:0.78195399 11:1.82851 12:-0.18302 13:0.476668 14:1.87523 15:-0.19846299 16:0.21261001 17:1.83956 18:-0.22565299 19:0.0041873199 20:1.74751 21:-0.22493599 22:-0.0678626 23:1.70698 24:0.157506 25:0.49556401 26:1.80223 27:0.21860699 28:0.23314901 29:1.77487 30:0.234346 31:0.031681601 32:1.66389 33:0.219539 34:-0.021732099 35:1.63579 36:-0.060121998 37:-0.0328108 38:1.73276 39:-0.0244918 40:-0.516038 41:1.6815701 42:-0.0117497 43:-0.81295598 44:1.6258301 45:-0.040103 46:-0.85088497 47:1.52246 48:0.074660897 49:-0.020311199 50:1.70751 51:0.077195503 52:-0.52275598 53:1.6637 54:0.083852701 55:-0.822007 56:1.63042 57:0.061396301 58:-0.85125202 59:1.50775 60:-0.0081418799 61:0.53913403 62:1.82278 63:-0.230924 64:-0.121103 65:1.68896 66:-0.26958299 67:-0.090036802 68:1.69767 69:0.22875901 70:-0.071669698 71:1.60488 72:0.175732 73:-0.043617699 74:1.6052099 
0 0 0 0 0 0 0 0 0 0 0 0 0.936656508744366 0 0 0 0:0.0098017203 1:-0.029023301 2:1.75945 3:0 4:0.30000001 5:1.8 6:-0.0111096 7:0.61673999 8:1.8272099 9:-0.036108799 10:0.78198099 11:1.82823 12:-0.182998 13:0.47666201 14:1.87537 15:-0.198806 16:0.212291 17:1.83903 18:-0.225797 19:0.0045954101 20:1.74714 21:-0.22622301 22:-0.067837797 23:1.70867 24:0.157653 25:0.49543601 26:1.80233 27:0.218732 28:0.23303901 29:1.77477 30:0.233908 31:0.033422198 32:1.6649899 33:0.219694 34:-0.0198649 35:1.63713 36:-0.059994198 37:-0.032894202 38:1.73277 39:-0.024501299 40:-0.51767099 41:1.68102 42:-0.0114887 43:-0.81467903 44:1.62612 45:-0.040564898 46:-0.85108602 47:1.5229 48:0.0747668 49:-0.0202736 50:1.7072901 51:0.077802703 52:-0.52043003 53:1.66353 54:0.083922498 55:-0.81973398 56:1.6306 57:0.061455701 58:-0.85139501 59:1.50798 60:-0.0082159601 61:0.53918701 62:1.8228101 63:-0.23182499 64:-0.120525 65:1.68944 66:-0.267663 67:-0.0797996 68:1.7033 69:0.223318 70:-0.072969802 71:1.60589 72:0.17445 73:-0.034398999 74:1.61455 
0 0 0 0 10 0 0 0 0 0 0 0 10 0 0 0 0:0.0099352999 1:-0.029041 2:1.75931 3:0 4:0.30000001 5:1.8 6:-0.0112633 7:0.61677498 8:1.82733 9:-0.036111701 10:0.78190702 11:1.82812 12:-0.18307699 13:0.47645101 14:1.87517 15:-0.199286 16:0.212358 17:1.83838 18:-0.225988 19:0.0043768901 20:1.74587 21:-0.226393 22:-0.067941003 23:1.70566 24:0.15779901 25:0.49552199 26:1.80251 27:0.21868099 28:0.23347101 29:1.77457 30:0.23359799 31:0.035189599 32:1.66587 33:0.21917599 34:-0.020233899 35:1.63506 36:-0.059881601 37:-0.032902099 38:1.73261 39:-0.025175899 40:-0.51720297 41:1.68089 42:-0.0110292 43:-0.81413502 44:1.62578 45:-0.039604399 46:-0.851403 47:1.5224299 48:0.074919298 49:-0.020292301 50:1.70717 51:0.077671804 52:-0.52208602 53:1.66364 54:0.084074102 55:-0.82136297 56:1.6305799 57:0.061799299 58:-0.85162097 59:1.5077699 60:-0.00833131 61:0.539213 62:1.82289 63:-0.228985 64:-0.121615 65:1.68583 66:-0.265248 67:-0.0803857 68:1.68454 69:0.226859 70:-0.071283199 71:1.60422 72:0.17369799 73:-0.042466201 74:1.60832 
0 0 0 0 0 0 0 0 10 0.07331478279434925 0 0 10 0 0 0 0:0.0099419197 1:-0.029029701 2:1.75914 3:0 4:0.30000001 5:1.8 6:-0.0112452 7:0.61677903 8:1.8274 9:-0.0361345 10:0.78188699 11:1.82812 12:-0.183036 13:0.47639301 14:1.87515 15:-0.19948401 16:0.212402 17:1.8383501 18:-0.226033 19:0.0041241902 20:1.74529 21:-0.225566 22:-0.067010202 23:1.70592 24:0.157847 25:0.49555701 26:1.8024499 27:0.21861 28:0.233496 29:1.77447 30:0.233557 31:0.036378201 32:1.66623 33:0.219348 34:-0.020293901 35:1.63528 36:-0.059878901 37:-0.032907002 38:1.73248 39:-0.0250721 40:-0.51787299 41:1.68062 42:-0.0109292 43:-0.81483299 44:1.6257499 45:-0.039522599 46:-0.85148799 47:1.52245 48:0.074939303 49:-0.0202727 50:1.70698 51:0.077738598 52:-0.52218503 53:1.66364 54:0.084244303 55:-0.82146603 56:1.6307 57:0.061994798 58:-0.85173601 59:1.50818 60:-0.0083166696 61:0.53921402 62:1.82295 63:-0.231107 64:-0.120957 65:1.68905 66:-0.26456001 67:-0.063676096 68:1.70309 69:0.226034 70:-0.0713199 71:1.6034499 72:0.169943 73:-0.0120827 74:1.62161 
0 0 0 0 10 0 0 0 0 0 0 0 0 0 0 0 0:0.00988393 1:-0.028975699 2:1.75904 3:0 4:0.30000001 5:1.8 6:-0.011178 7:0.61675 8:1.82745 9:-0.0361384 10:0.78184903 11:1.82816 12:-0.18298399 13:0.47637901 14:1.87517 15:-0.199468 16:0.212468 17:1.83823 18:-0.22607601 19:0.00394186 20:1.7448699 21:-0.225952 22:-0.067771897 23:1.7041399 24:0.157839 25:0.49550101 26:1.80244 27:0.218591 28:0.233472 29:1.77423 30:0.23350801 31:0.036558598 32:1.66614 33:0.219751 34:-0.0206853 35:1.63648 36:-0.059891999 37:-0.032907799 38:1.7324899 39:-0.0246254 40:-0.51828903 41:1.6804301 42:-0.0108523 43:-0.81528598 44:1.62573 45:-0.039720502 46:-0.85141802 47:1.52247 48:0.074839696 49:-0.0201435 50:1.70676 51:0.078047499 52:-0.52164102 53:1.6635799 54:0.084329396 55:-0.82094198 56:1.63081 57:0.062036499 58:-0.85173899 59:1.50832 60:-0.0082612596 61:0.53918898 62:1.8229899 63:-0.229965 64:-0.119904 65:1.68467 66:-0.263313 67:-0.0786203 68:1.68212 69:0.22920001 70:-0.069835797 71:1.60413 72:0.172875 73:-0.026733899 74:1.6169 
0 0 0 0 0 0 0 0 10 0 0 0 0 0 0 0 0:0.0100303 1:-0.0289963 2:1.75901 3:0 4:0.30000001 5:1.8 6:-0.0113124 7:0.616768 8:1.8274601 9:-0.0361128 10:0.78177899 11:1.82797 12:-0.182726 13:0.47642699 14:1.87502 15:-0.199451 16:0.212184 17:1.83811 18:-0.225926 19:0.0038327 20:1.7446001 21:-0.225284 22:-0.067752004 23:1.70478 24:0.15799101 25:0.49559399 26:1.80257 27:0.218775 28:0.23347101 29:1.77428 30:0.23359901 31:0.036826398 32:1.6664 33:0.220165 34:-0.0208744 35:1.63664 36:-0.059761699 37:-0.032948099 38:1.73246 39:-0.0256021 40:-0.52025598 41:1.6805 42:-0.0106079 43:-0.817141 44:1.62552 45:-0.0397324 46:-0.85146898 47:1.52238 48:0.075006403 49:-0.020147599 50:1.70673 51:0.078170002 52:-0.51979601 53:1.6631 54:0.084471703 55:-0.81914997 56:1.63105 57:0.062678002 58:-0.85181701 59:1.50872 60:-0.0083640805 61:0.53920299 62:1.823 63:-0.229957 64:-0.120988 65:1.68867 66:-0.26394999 67:-0.064709798 68:1.6974699 69:0.228214 70:-0.070942298 71:1.6057 72:0.17291801 73:-0.0119251 74:1.62217 
0 0 0 0 0 0 0 0 4.318714034755818 0 0 0 10 0 0 0 0:0.0101281 1:-0.029056899 2:1.75898 3:0 4:0.30000001 5:1.8 6:-0.0113731 7:0.61682898 8:1.82741 9:-0.036213901 10:0.78172898 11:1.82788 12:-0.18281899 13:0.47635201 14:1.87494 15:-0.19969 16:0.21208 17:1.83781 18:-0.226064 19:0.0039818701 20:1.74404 21:-0.227194 22:-0.067425497 23:1.70421 24:0.15777799 25:0.49546301 26:1.80207 27:0.218803 28:0.23347799 29:1.77439 30:0.233596 31:0.037117001 32:1.66655 33:0.218707 34:-0.019863199 35:1.63471 36:-0.059649199 37:-0.0330454 38:1.73244 39:-0.0253266 40:-0.52028799 41:1.6805201 42:-0.0105524 43:-0.81719798 44:1.62564 45:-0.039672699 46:-0.85147703 47:1.52254 48:0.075089499 49:-0.0201745 50:1.70673 51:0.078248203 52:-0.51977599 53:1.66326 54:0.084411398 55:-0.81912702 56:1.63107 57:0.062648401 58:-0.85176599 59:1.5087301 60:-0.0084107704 61:0.53924698 62:1.82296 63:-0.23071299 64:-0.12081 65:1.68618 66:-0.265057 67:-0.0748441 68:1.69148 69:0.227035 70:-0.070205897 71:1.60278 72:0.174605 73:-0.036261499 74:1.61322 
10 0.3151880418361027 6.241126773557188 4.490004469339528 10 0 0 0 8.348652434062428 0 0 0 0 0 0 0 0:0.0112588 1:-0.027375299 2:1.75661 3:0 4:0.30000001 5:1.8 6:-0.0119523 7:0.61496198 8:1.8291301 9:-0.038937598 10:0.77727598 11:1.82381 12:-0.18450201 13:0.47755101 14:1.87077 15:-0.204353 16:0.21927799 17:1.8347501 18:-0.231773 19:0.0149299 20:1.73602 21:-0.23352601 22:-0.062054701 23:1.7011499 24:0.15883 25:0.49668601 26:1.8056 27:0.221535 28:0.23919 29:1.78 30:0.241328 31:0.046737298 32:1.67408 33:0.229678 34:-0.0211947 35:1.63886 36:-0.059225298 37:-0.031436499 38:1.7293299 39:-0.0242346 40:-0.51899302 41:1.67249 42:-0.00772883 43:-0.81581497 44:1.6176701 45:-0.0378986 46:-0.84963697 47:1.51614 48:0.076912798 49:-0.018406199 50:1.7049299 51:0.0813355 52:-0.513982 53:1.6538301 54:0.0862744 55:-0.81348097 56:1.6233701 57:0.069280997 58:-0.84890902 59:1.50037 60:-0.0088792201 61:0.53783703 62:1.8243099 63:-0.22977699 64:-0.116139 65:1.67967 66:-0.19110601 67:-0.066640198 68:1.68562 69:0.23746599 70:-0.068764001 71:1.60566 72:0.18294901 73:-0.023439201 74:1.62997 
0 0 0 0 10 10 0 0 0 0 0 0 0 0 0 0 0:0.0111609 1:-0.027397599 2:1.75664 3:0 4:0.30000001 5:1.8 6:-0.0118878 7:0.61497802 8:1.82912 9:-0.038877402 10:0.77732497 11:1.82384 12:-0.184432 13:0.47753701 14:1.87082 15:-0.204289 16:0.219321 17:1.83478 18:-0.231683 19:0.015065 20:1.7361701 21:-0.232749 22:-0.060558699 23:1.70022 24:0.158942 25:0.49671999 26:1.80566 27:0.221554 28:0.23919 29:1.77994 30:0.241376 31:0.040257901 32:1.67003 33:0.229968 34:-0.0219594 35:1.6381201 36:-0.059271701 37:-0.0314514 38:1.72935 39:-0.024072699 40:-0.51938599 41:1.67228 42:-0.0076935198 43:-0.81619698 44:1.61734 45:-0.037864599 46:-0.84940499 47:1.51597 48:0.076770701 49:-0.018432001 50:1.70497 51:0.081385501 52:-0.51395798 53:1.65387 54:0.086223602 55:-0.81344801 56:1.62322 57:0.068777896 58:-0.84877503 59:1.50033 60:-0.0088275699 61:0.53785199 62:1.8243001 63:-0.227062 64:-0.118542 65:1.6799999 66:-0.185252 67:-0.053357501 68:1.68627 69:0.23947699 70:-0.070249803 71:1.60912 72:0.184673 73:-0.0384943 74:1.61586 
5.741687428346355 10 0.1010711319879578 0.06449030363836583 10 10 0 0 0 0 0 0 0 0 0 0 0:0.0111051 1:-0.027409701 2:1.75659 3:0 4:0.30000001 5:1.8 6:-0.0117477 7:0.615035 8:1.82925 9:-0.038902599 10:0.777215 11:1.82375 12:-0.184422 13:0.47744101 14:1.87087 15:-0.20420299 16:0.218998 17:1.83488 18:-0.231741 19:0.014984 20:1.7367899 21:-0.233799 22:-0.061487202 23:1.7035 24:0.158967 25:0.49664 26:1.80573 27:0.221549 28:0.23909201 29:1.77978 30:0.24119601 31:0.040379699 32:1.67005 33:0.22979601 34:-0.0221802 35:1.63819 36:-0.059335001 37:-0.0314583 38:1.72934 39:-0.0240907 40:-0.51948297 41:1.67226 42:-0.0076758899 43:-0.81630498 44:1.61742 45:-0.0384911 46:-0.849446 47:1.5165401 48:0.076724201 49:-0.018445199 50:1.70489 51:0.081488803 52:-0.513668 53:1.65402 54:0.0861817 55:-0.81315303 56:1.62315 57:0.069529399 58:-0.84884602 59:1.50043 60:-0.0087339096 61:0.53789097 62:1.8243901 63:-0.22860301 64:-0.117524 65:1.68211 66:-0.197733 67:-0.061658099 68:1.6716599 69:0.234722 70:-0.071378604 71:1.60717 72:0.182353 73:-0.0159723 74:1.6321599 
10 0 0 0 10 0 0 0 0 0 0 0 0 0 6.340740506331767 10 0:0.0111512 1:-0.0273693 2:1.75655 3:0 4:0.30000001 5:1.8 6:-0.0117548 7:0.61502498 8:1.82927 9:-0.038911201 10:0.77722198 11:1.82375 12:-0.18440001 13:0.47743499 14:1.87099 15:-0.204197 16:0.219034 17:1.83523 18:-0.23183601 19:0.0150431 20:1.73735 21:-0.23356999 22:-0.061716601 23:1.70286 24:0.158961 25:0.49662501 26:1.80574 27:0.221534 28:0.239086 29:1.77979 30:0.24246199 31:0.047723599 32:1.67469 33:0.229968 34:-0.023114 35:1.6395 36:-0.059313301 37:-0.031422101 38:1.7293 39:-0.0241176 40:-0.519364 41:1.67225 42:-0.0076288101 43:-0.81618798 44:1.61744 45:-0.037971102 46:-0.84931397 47:1.51626 48:0.0768051 49:-0.018400701 50:1.70486 51:0.081364997 52:-0.51473802 53:1.65405 54:0.0863465 55:-0.81420797 56:1.62317 57:0.069426902 58:-0.84882402 59:1.50045 60:-0.0087411702 61:0.537884 62:1.8243999 63:-0.23025499 64:-0.115769 65:1.68015 66:-0.198405 67:-0.065005302 68:1.67409 69:0.23701701 70:-0.070144303 71:1.60887 72:0.184184 73:-0.022908799 74:1.6299599 
10 0 0 0 0 0 0 0 0 0 0 0 0 0 0 0 0:0.0112087 1:-0.0272546 2:1.75652 3:0 4:0.30000001 5:1.8 6:-0.0118191 7:0.61494601 8:1.82929 9:-0.0388656 10:0.77724898 11:1.82389 12:-0.184367 13:0.477487 14:1.87111 15:-0.20420501 16:0.218793 17:1.83558 18:-0.231976 19:0.0151332 20:1.73782 21:-0.233445 22:-0.0621012 23:1.70364 24:0.158957 25:0.49663901 26:1.8058701 27:0.22151799 28:0.23907401 29:1.7798001 30:0.24244 31:0.048610799 32:1.67504 33:0.22947501 34:-0.022386201 35:1.64034 36:-0.0592773 37:-0.031329501 38:1.72927 39:-0.0237845 40:-0.51807803 41:1.6725399 42:-0.0079114996 43:-0.81498498 44:1.61803 45:-0.037782099 46:-0.849226 47:1.5165 48:0.076891899 49:-0.018264901 50:1.70485 51:0.081237301 52:-0.51475799 53:1.6541899 54:0.086410902 55:-0.814228 56:1.62339 57:0.069400802 58:-0.84884202 59:1.50055 60:-0.0087795202 61:0.53784001 62:1.82441 63:-0.227284 64:-0.118831 65:1.68283 66:-0.196565 67:-0.0613393 68:1.67667 69:0.23537 70:-0.071880803 71:1.61246 72:0.184562 73:-0.019841401 74:1.63271 
0 0 0 0 10 0 0 0 0 0 0 0 0 0 0 0 0:0.0112109 1:-0.027243299 2:1.75659 3:0 4:0.30000001 5:1.8 6:-0.011801 7:0.61488599 8:1.8292201 9:-0.0388669 10:0.77726603 11:1.82394 12:-0.18433601 13:0.47742701 14:1.87111 15:-0.20418601 16:0.21878301 17:1.8356301 18:-0.23202799 19:0.0152084 20:1.7379301 21:-0.23318 22:-0.0623248 23:1.7024601 24:0.158949 25:0.496658 26:1.80588 27:0.221507 28:0.23898099 29:1.77969 30:0.242043 31:0.0477967 32:1.6748101 33:0.229131 34:-0.0210927 35:1.63895 36:-0.059275899 37:-0.031314202 38:1.72928 39:-0.023776401 40:-0.51806003 41:1.6725301 42:-0.0080587603 43:-0.81497401 44:1.61801 45:-0.037498299 46:-0.84926999 47:1.51649 48:0.076896399 49:-0.018255601 50:1.70502 51:0.081298299 52:-0.514521 53:1.6541899 54:0.086314499 55:-0.81400001 56:1.62345 57:0.069257803 58:-0.84875798 59:1.50091 60:-0.0087683797 61:0.53780001 62:1.82437 63:-0.22682101 64:-0.118191 65:1.68176 66:-0.168386 67:-0.0357312 68:1.69389 69:0.234658 70:-0.070378803 71:1.60838 72:0.184147 73:-0.0204053 74:1.63208 
0 0 0 0 10 10 0 0 0 0 0 0 0 0 0 0 0:0.0110932 1:-0.027306899 2:1.75657 3:0 4:0.30000001 5:1.8 6:-0.0117206 7:0.61491102 8:1.82925 9:-0.038792301 10:0.77731597 11:1.8238699 12:-0.18434601 13:0.47730801 14:1.87112 15:-0.204136 16:0.218817 17:1.83569 18:-0.231987 19:0.0153228 20:1.7379301 21:-0.233891 22:-0.061181199 23:1.70122 24:0.158969 25:0.49672499 26:1.80581 27:0.221421 28:0.238461 29:1.7795 30:0.241586 31:0.046687301 32:1.67423 33:0.229398 34:-0.0224154 35:1.63954 36:-0.0593559 37:-0.031385601 38:1.72931 39:-0.0236183 40:-0.51852202 41:1.67246 42:-0.0079983799 43:-0.81544399 44:1.618 45:-0.038027801 46:-0.849087 47:1.51636 48:0.076739103 49:-0.018316699 50:1.70494 51:0.081155799 52:-0.51505399 53:1.65396 54:0.086408898 55:-0.81453001 56:1.6233701 57:0.069189802 58:-0.84866202 59:1.50094 60:-0.0087077497 61:0.53782398 62:1.8243901 63:-0.227075 64:-0.118276 65:1.6802 66:-0.167043 67:-0.0224999 68:1.69356 69:0.23830201 70:-0.070413001 71:1.61044 72:0.184626 73:-0.033061601 74:1.62407 
0 0 0 0 0 0 0 0 0 0 1.512778875164003 1.964934642549339 0 1.570715852441373 1.598555229639379 3.604045182762734 0:0.0111151 1:-0.0272751 2:1.75664 3:0 4:0.30000001 5:1.8 6:-0.0117127 7:0.61488903 8:1.8292201 9:-0.038793501 10:0.77739602 11:1.8239599 12:-0.18436 13:0.47737399 14:1.87141 15:-0.204165 16:0.21873701 17:1.83588 18:-0.232058 19:0.0156735 20:1.7383 21:-0.23393799 22:-0.062116198 23:1.70163 24:0.159035 25:0.49675399 26:1.80616 27:0.221358 28:0.23847 29:1.77957 30:0.242284 31:0.051402699 32:1.67714 33:0.22997101 34:-0.0206096 35:1.64107 36:-0.059326399 37:-0.0313293 38:1.72937 39:-0.023540201 40:-0.51916897 41:1.6723599 42:-0.0079181502 43:-0.816082 44:1.61786 45:-0.037197001 46:-0.849343 47:1.51573 48:0.076759398 49:-0.018313499 50:1.70504 51:0.081148103 52:-0.51599503 53:1.65422 54:0.086372003 55:-0.81544697 56:1.62328 57:0.0688814 58:-0.84874398 59:1.50095 60:-0.0087035997 61:0.53780699 62:1.82436 63:-0.227172 64:-0.118362 65:1.68115 66:-0.166287 67:-0.0146406 68:1.69566 69:0.235883 70:-0.068998396 71:1.60937 72:0.183011 73:-0.0159976 74:1.6356 
0 0 0 0 10 0 0 0 0 0 0 0 0 0 0 0 0:0.0111633 1:-0.0272492 2:1.75658 3:0 4:0.30000001 5:1.8 6:-0.011722 7:0.61483097 8:1.82935 9:-0.0387429 10:0.77731901 11:1.8239599 12:-0.184283 13:0.47737199 14:1.87128 15:-0.204128 16:0.218821 17:1.83592 18:-0.232017 19:0.0155221 20:1.73818 21:-0.23210099 22:-0.060991999 23:1.70008 24:0.15895399 25:0.49672601 26:1.80612 27:0.221238 28:0.23835599 29:1.7798001 30:0.24127001 31:0.048382301 32:1.67617 33:0.22913501 34:-0.022565201 35:1.64044 36:-0.059296299 37:-0.0313108 38:1.7293 39:-0.023460999 40:-0.51838601 41:1.6726 42:-0.0078717796 43:-0.81529599 44:1.61803 45:-0.037220601 46:-0.84921902 47:1.51556 48:0.076839499 49:-0.018278001 50:1.70498 51:0.081273399 52:-0.516765 53:1.6541899 54:0.0863773 55:-0.81621301 56:1.62324 57:0.068493403 58:-0.84880501 59:1.50079 60:-0.00870986 61:0.53776699 62:1.82445 63:-0.22860999 64:-0.117384 65:1.68116 66:-0.16808601 67:-0.0311448 68:1.6962 69:0.233968 70:-0.0714956 71:1.60878 72:0.18598901 73:-0.043929599 74:1.61801 
0 0 0 0 10 0.03877858175405997 0 0 0 0 0 0 0 0 0 0 0:0.0110728 1:-0.027300199 2:1.75657 3:0 4:0.30000001 5:1.8 6:-0.0116033 7:0.614905 8:1.82944 9:-0.0387263 10:0.77731198 11:1.82391 12:-0.18423399 13:0.47735 14:1.87122 15:-0.204166 16:0.218785 17:1.83583 18:-0.23201001 19:0.0155281 20:1.73812 21:-0.23388 22:-0.060731299 23:1.70067 24:0.15895 25:0.496658 26:1.80607 27:0.22123399 28:0.238335 29:1.77975 30:0.241697 31:0.0497986 32:1.67703 33:0.229891 34:-0.021275001 35:1.64025 36:-0.059377801 37:-0.0313504 38:1.7294 39:-0.0241977 40:-0.51811999 41:1.6727099 42:-0.0078277197 43:-0.81495798 44:1.61791 45:-0.036961298 46:-0.84911001 47:1.51522 48:0.076708801 49:-0.018358801 50:1.7049 51:0.081259102 52:-0.51760697 53:1.65413 54:0.086444601 55:-0.817047 56:1.62317 57:0.068901502 58:-0.84881902 59:1.50072 60:-0.0086351903 61:0.53781301 62:1.82451 63:-0.22623 64:-0.117713 65:1.6767499 66:-0.166245 67:-0.0145373 68:1.69441 69:0.237175 70:-0.070994198 71:1.6101201 72:0.18315201 73:-0.0175857 74:1.63291 
0 0 0 0 0 10 10 4.750888390815502 0 0 0 0 0 0 0 0 0:0.0085638901 1:-0.027184701 2:1.75699 3:0 4:0.30000001 5:1.8 6:-0.0093882196 7:0.61479998 8:1.82895 9:-0.0368931 10:0.77889699 11:1.824 12:-0.184641 13:0.477135 14:1.87581 15:-0.20388 16:0.21722101 17:1.83623 18:-0.22810601 19:0.0067225802 20:1.7340699 21:-0.22965001 22:-0.066421002 23:1.69875 24:0.15879101 25:0.49702001 26:1.80538 27:0.219699 28:0.235071 29:1.77745 30:0.236403 31:0.044680499 32:1.6753401 33:0.222084 34:-0.0246762 35:1.6384799 36:-0.061367501 37:-0.031368598 38:1.732 39:-0.0290283 40:-0.51239598 41:1.66875 42:-0.0153549 43:-0.80958402 44:1.61529 45:-0.043908499 46:-0.84714103 47:1.51052 48:0.073514402 49:-0.0181143 50:1.7032 51:0.0767079 52:-0.52100003 53:1.65312 54:0.081043199 55:-0.82022703 56:1.6187299 57:0.0625045 58:-0.84778398 59:1.49667 60:-0.0069253901 61:0.53773099 62:1.82416 63:-0.23160499 64:-0.122911 65:1.67906 66:-0.266617 67:-0.072857402 68:1.68964 69:0.230919 70:-0.072879396 71:1.6094 72:0.178463 73:-0.0458025 74:1.61202 
0 0 0 0 6.489299494051375 10 1.122027367810787 0 0 0 0 0 0 0 0 0 0:0.0084965797 1:-0.027280901 2:1.75705 3:0 4:0.30000001 5:1.8 6:-0.0093195997 7:0.61491197 8:1.82881 9:-0.037042499 10:0.77888399 11:1.82406 12:-0.18467399 13:0.477018 14:1.87587 15:-0.203878 16:0.21706399 17:1.8362499 18:-0.22819699 19:0.0070132199 20:1.73432 21:-0.23029301 22:-0.068237104 23:1.6979899 24:0.158564 25:0.496923 26:1.80538 27:0.21956199 28:0.235236 29:1.7774301 30:0.236026 31:0.044050999 32:1.67443 33:0.22269399 34:-0.0244011 35:1.6368001 36:-0.061376501 37:-0.031496301 38:1.732 39:-0.028930901 40:-0.51238 41:1.6688499 42:-0.015002 43:-0.80948299 44:1.61484 45:-0.0438735 46:-0.84706801 47:1.51063 48:0.073376603 49:-0.0181881 50:1.70331 51:0.076939501 52:-0.520643 53:1.65292 54:0.081104301 55:-0.81989998 56:1.61891 57:0.061415799 58:-0.847673 59:1.49608 60:-0.0068790298 61:0.53780699 62:1.82407 63:-0.22856399 64:-0.122898 65:1.6782 66:-0.26771101 67:-0.074957103 68:1.68998 69:0.227348 70:-0.075917698 71:1.60967 72:0.174353 73:-0.0187773 74:1.62321 
-10 0 0 0 10 10 9.113747909275453 4.159496295128292 10 4.051639832373299 1.636408253713277 1.674937146913067 10 1.368631827918674 3.811060628830822 10 0:0.041744199 1:-0.0078450898 2:1.78062 3:0 4:0.30000001 5:1.8 6:-0.044241101 7:0.59546602 8:1.80205 9:-0.082514197 10:0.75519502 11:1.7868 12:-0.20566 13:0.44362801 14:1.83386 15:-0.210126 16:0.193858 17:1.8128901 18:-0.211381 19:-0.033161599 20:1.72025 21:-0.212631 22:-0.101819 23:1.68817 24:0.131372 25:0.49053499 26:1.79962 27:0.205053 28:0.25193399 29:1.77361 30:0.251046 31:0.0476222 32:1.67221 33:0.24722099 34:-0.00926778 35:1.63247 36:-0.020604899 37:-0.0142312 38:1.74968 39:-0.023561999 40:-0.50125301 41:1.66605 42:0.0236225 43:-0.82688898 44:1.63648 45:0.0070744702 46:-0.86993402 47:1.52248 48:0.101871 49:0.00202197 50:1.73218 51:0.22150899 52:-0.50421202 53:1.68119 54:0.25467399 55:-0.82208902 56:1.64019 57:0.28163001 58:-0.857557 59:1.52254 60:-0.033250101 61:0.523229 62:1.80414 63:-0.200413 64:-0.153191 65:1.66425 66:-0.24664 67:-0.11039 68:1.67503 69:0.25325099 70:-0.0674247 71:1.60596 72:0.26512799 73:-0.0140094 74:1.59056 
-10 0 0 0 10 10 0 0 10 0 0 0 10 0 0 0 0:0.046721701 1:-0.0072407601 2:1.78225 3:0 4:0.30000001 5:1.8 6:-0.050332699 7:0.59373301 8:1.80051 9:-0.0856639 10:0.75411201 11:1.78488 12:-0.20573699 13:0.44233301 14:1.83295 15:-0.20826501 16:0.19251201 17:1.81477 18:-0.21031199 19:-0.0354589 20:1.7214 21:-0.209126 22:-0.104335 23:1.6888601 24:0.12820201 25:0.48995301 26:1.79869 27:0.204218 28:0.252058 29:1.77309 30:0.23875999 31:0.0317403 32:1.65666 33:0.247136 34:-0.022923199 35:1.61979 36:-0.0155071 37:-0.014272 38:1.75166 39:-0.0194133 40:-0.493736 41:1.6665699 42:0.0284521 43:-0.82432997 44:1.63876 45:0.0133905 46:-0.87049401 47:1.52429 48:0.106703 49:0.00347847 50:1.73331 51:0.24261101 52:-0.49828199 53:1.68371 54:0.31907699 55:-0.82451302 56:1.6391 57:0.34201801 58:-0.85056502 59:1.5275 60:-0.037733 61:0.522012 62:1.80296 63:-0.19780201 64:-0.15370899 65:1.66416 66:-0.230074 67:-0.12282 68:1.65859 69:0.251165 70:-0.0678434 71:1.6056 72:0.283416 73:-0.031815499 74:1.61171 
-1.470231596063307 0 0 0 2.571298954914719 0 0 0 0 0 0 0 0 0 0 0 0:0.050529301 1:-0.0061750598 2:1.7837501 3:0 4:0.30000001 5:1.8 6:-0.053988401 7:0.59283 8:1.79953 9:-0.090744302 10:0.752285 11:1.78228 12:-0.210329 13:0.43916199 14:1.83055 15:-0.21093801 16:0.189301 17:1.81407 18:-0.212088 19:-0.039005902 20:1.72305 21:-0.210347 22:-0.107639 23:1.6896501 24:0.125714 25:0.48892501 26:1.80011 27:0.20196301 28:0.25115001 29:1.77247 30:0.23817401 31:0.0319231 32:1.65434 33:0.247381 34:-0.0096373297 35:1.62878 36:-0.0111281 37:-0.0150399 38:1.75289 39:-0.0161137 40:-0.49199101 41:1.66728 42:0.031487901 43:-0.823255 44:1.64109 45:0.0177134 46:-0.872675 47:1.52582 48:0.109851 49:0.0066929501 50:1.73516 51:0.28776699 52:-0.46186501 53:1.69169 54:0.37127 55:-0.79351401 56:1.6558599 57:0.408153 58:-0.82467997 59:1.53943 60:-0.040520601 61:0.52134699 62:1.8022 63:-0.19578201 64:-0.156435 65:1.66664 66:-0.24288701 67:-0.110442 68:1.68327 69:0.25115499 70:-0.063695297 71:1.60112 72:0.27798301 73:-0.019614 74:1.6126 
-0 5.738133210552513 0 0 0 0 0 0 0 0 0 0 0 0 0 0 0:0.058029801 1:-0.0040431302 2:1.78614 3:0 4:0.30000001 5:1.8 6:-0.062285401 7:0.59057599 8:1.7975399 9:-0.100414 10:0.749915 11:1.78017 12:-0.216738 13:0.43420199 14:1.82433 15:-0.216484 16:0.18443 17:1.81312 18:-0.212938 19:-0.0438038 20:1.72579 21:-0.209949 22:-0.114613 23:1.69358 24:0.116329 25:0.48841801 26:1.7985899 27:0.197809 28:0.25233001 29:1.7713799 30:0.241908 31:0.035621502 32:1.65113 33:0.24599101 34:-0.0046182601 35:1.6202101 36:-0.0024956099 37:-0.0154343 38:1.75553 39:-0.00943744 40:-0.490089 41:1.6689301 42:0.037180901 43:-0.819978 44:1.64458 45:0.0244259 46:-0.87532902 47:1.52917 48:0.115922 49:0.0112632 50:1.737 51:0.332735 52:-0.37790701 53:1.7016701 54:0.48752201 55:-0.70549798 56:1.6658 57:0.52843499 58:-0.745978 59:1.56771 60:-0.046751302 61:0.519701 62:1.80068 63:-0.192424 64:-0.166023 65:1.6721801 66:-0.23532 67:-0.129292 68:1.6777101 69:0.246803 70:-0.056368899 71:1.5928299 72:0.27183801 73:-0.0104433 74:1.59043 
-0 10 0 0 0 0 0 0 0 0 0 0 0 0 0 0 0:0.062093299 1:-0.00364518 2:1.78755 3:0 4:0.30000001 5:1.8 6:-0.067767397 7:0.58994901 8:1.7953399 9:-0.105975 10:0.74994302 11:1.77902 12:-0.211346 13:0.43319899 14:1.82542 15:-0.218288 16:0.183571 17:1.81399 18:-0.213025 19:-0.047359999 20:1.72478 21:-0.209759 22:-0.116139 23:1.69452 24:0.112843 25:0.489151 26:1.7994601 27:0.195719 28:0.253436 29:1.7749799 30:0.234367 31:0.038375899 32:1.64951 33:0.24487101 34:0.00182508 35:1.61858 36:0.00171515 37:-0.0155262 38:1.75688 39:-0.00517475 40:-0.49100101 41:1.6695499 42:0.040709201 43:-0.81956702 44:1.64534 45:0.0284515 46:-0.87622899 47:1.52981 48:0.119924 49:0.0119305 50:1.7384599 51:0.35620299 52:-0.35514301 53:1.70407 54:0.55581301 55:-0.68060303 56:1.6689301 57:0.59578198 58:-0.72258401 59:1.5792 60:-0.050836001 61:0.51922399 62:1.79909 63:-0.19383401 64:-0.16673499 65:1.67363 66:-0.229724 67:-0.141302 68:1.66006 69:0.248091 70:-0.0485937 71:1.59045 72:0.27210599 73:-0.0073301299 74:1.5851901 
-10 0 0 0 10 6.684614552474802 0 0 8.755726246588621 0 0 0 7.445917686559965 0 0 0 0:0.062892601 1:-0.00146323 2:1.7845 3:0 4:0.30000001 5:1.8 6:-0.067205504 7:0.588099 8:1.79661 9:-0.12119 10:0.74361998 11:1.78417 12:-0.211208 13:0.42255199 14:1.8373899 15:-0.20395499 16:0.181794 17:1.82424 18:-0.19866 19:-0.044388801 20:1.7315 21:-0.202163 22:-0.114447 23:1.69954 24:0.108404 25:0.49228001 26:1.78347 27:0.209573 28:0.26393399 29:1.7618999 30:0.25804099 31:0.038330302 32:1.6636 33:0.26750201 34:0.00028914199 35:1.63588 36:0.00083540299 37:-0.0130975 38:1.76158 39:-0.0038762901 40:-0.489573 41:1.65975 42:0.036299501 43:-0.82896101 44:1.65214 45:0.0161022 46:-0.867378 47:1.53517 48:0.121718 49:0.0146682 50:1.72884 51:0.24819601 52:-0.461752 53:1.7018501 54:0.296817 55:-0.79771298 56:1.68215 57:0.32734501 58:-0.83455002 59:1.5798301 60:-0.0505527 61:0.51776803 62:1.80015 63:-0.19260401 64:-0.160708 65:1.66941 66:-0.215339 67:-0.15120199 68:1.65298 69:0.27482101 70:-0.052861702 71:1.6172 72:0.23327 73:-0.0114988 74:1.61018 
-0 3.000766965213079 0 0 0 0 0 0 0 0 0 0 0 0 0 0 0:0.082828 1:0.003574 2:1.79817 3:0 4:0.30000001 5:1.8 6:-0.081850603 7:0.584337 8:1.78511 9:-0.138926 10:0.73656797 11:1.77209 12:-0.217172 13:0.41995201 14:1.82821 15:-0.20299099 16:0.170876 17:1.82239 18:-0.192046 19:-0.049823102 20:1.74064 21:-0.188693 22:-0.122543 23:1.70798 24:0.091544703 25:0.49290201 26:1.77379 27:0.215918 28:0.27627099 29:1.7579499 30:0.276972 31:0.058256801 32:1.64885 33:0.276795 34:0.0084301699 35:1.61625 36:0.0220947 37:-0.0136628 38:1.77706 39:0.031155599 40:-0.49020201 41:1.66289 42:0.070699297 43:-0.82439101 44:1.64861 45:0.051356699 46:-0.8696 47:1.53818 48:0.14187799 49:0.0244765 50:1.73987 51:0.26292801 52:-0.39314401 53:1.7003 54:0.52804798 55:-0.667831 56:1.71179 57:0.59495401 58:-0.72142601 59:1.6214 60:-0.061733902 61:0.51483798 62:1.79142 63:-0.175879 64:-0.168804 65:1.6774499 66:-0.213736 67:-0.123145 68:1.7012399 69:0.28196201 70:-0.036377098 71:1.59983 72:0.24332701 73:-0.0034489899 74:1.59861 
-0 10 0 0 0 0 0 0 0 0 0 0 0 0 0 0 0:0.087117396 1:0.00417744 2:1.80084 3:0 4:0.30000001 5:1.8 6:-0.087466702 7:0.583911 8:1.78139 9:-0.145625 10:0.73588997 11:1.76928 12:-0.21818 13:0.41847199 14:1.82705 15:-0.20694301 16:0.16921 17:1.81981 18:-0.194589 19:-0.042174902 20:1.74544 21:-0.18998501 22:-0.11542 23:1.7135299 24:0.086447202 25:0.494142 26:1.77112 27:0.21573099 28:0.28041601 29:1.7571 30:0.266987 31:0.056999099 32:1.65455 33:0.27204499 34:0.042641301 35:1.63083 36:0.0265246 37:-0.0133755 38:1.77941 39:0.039527699 40:-0.49189001 41:1.66491 42:0.077664502 43:-0.82285398 44:1.64882 45:0.058126401 46:-0.86855602 47:1.5378799 48:0.14613999 49:0.0252796 50:1.74281 51:0.40918499 52:-0.28656599 53:1.72534 54:0.59791398 55:-0.61937398 56:1.7201999 57:0.66213202 58:-0.69253701 59:1.63406 60:-0.065860704 61:0.51449299 62:1.78873 63:-0.177847 64:-0.161641 65:1.68152 66:-0.204092 67:-0.15585899 68:1.67442 69:0.28593099 70:-0.00095441903 71:1.58455 72:0.229902 73:0.017473601 74:1.6443599 
-10 0 0 0 7.180711914162199 0 0 0 0 0 0 0 0 0.4255062014907084 4.583509903641527 3.66179287210444 0:0.066777498 1:-0.00338012 2:1.79742 3:0 4:0.30000001 5:1.8 6:-0.077095397 7:0.58872998 8:1.77988 9:-0.133573 10:0.743101 11:1.76887 12:-0.20735499 13:0.42412999 14:1.8231601 15:-0.207388 16:0.181945 17:1.82511 18:-0.202509 19:-0.0380022 20:1.74334 21:-0.20307501 22:-0.111527 23:1.7086 24:0.101018 25:0.49782401 26:1.77604 27:0.213513 28:0.27518499 29:1.76878 30:0.26412001 31:0.050551999 32:1.66921 33:0.28078401 34:0.021433201 35:1.63907 36:0.0043447101 37:-0.0152051 38:1.77302 39:0.0093126101 40:-0.49320701 41:1.66588 42:0.035106599 43:-0.82839501 44:1.64196 45:0.025029 46:-0.86539102 47:1.52178 48:0.127386 49:0.0143105 50:1.74228 51:0.26928499 52:-0.44861701 53:1.72622 54:0.29967901 55:-0.787332 56:1.69787 57:0.33383 58:-0.82082897 59:1.59562 60:-0.057892401 61:0.51841003 62:1.78758 63:-0.18987601 64:-0.160016 65:1.67769 66:-0.210887 67:-0.14804301 68:1.65943 69:0.29238701 70:-0.026568601 71:1.61684 72:0.245046 73:0.0050140298 74:1.61316 
-0 10 0 0 0 0 0 0 0 0 0 0 0 0 0 0 0:0.098408803 1:0.0072700102 2:1.81539 3:0 4:0.30000001 5:1.8 6:-0.098593801 7:0.57976401 8:1.765 9:-0.16405401 10:0.73146403 11:1.75299 12:-0.22667199 13:0.42117801 14:1.80935 15:-0.214232 16:0.181017 17:1.81858 18:-0.19558901 19:-0.034280799 20:1.74831 21:-0.19316299 22:-0.104172 23:1.71611 24:0.077070199 25:0.498887 26:1.76507 27:0.21789999 28:0.29311001 29:1.76009 30:0.28587201 31:0.0793956 32:1.64622 33:0.29175699 34:0.040585201 35:1.61614 36:0.037252299 37:-0.0101422 38:1.79067 39:0.0472355 40:-0.49634001 41:1.67883 42:0.071278602 43:-0.81942397 44:1.65123 45:0.057529699 46:-0.86220002 47:1.52838 48:0.15738501 49:0.0289682 50:1.76037 51:0.42725199 52:-0.27558601 53:1.75884 54:0.63491499 55:-0.596937 56:1.74143 57:0.61159903 58:-0.63108498 59:1.60975 60:-0.074417301 61:0.51140398 62:1.77631 63:-0.169496 64:-0.150043 65:1.67902 66:-0.212447 67:-0.119537 68:1.69707 69:0.29490501 70:-0.000829592 71:1.59359 72:0.25013599 73:0.021781901 74:1.61349 
-0 10 5.737245951553103 0 0 0 0 0 0 0 0 0 0 0 0 0 0:0.101971 1:0.0086557399 2:1.81768 3:0 4:0.30000001 5:1.8 6:-0.101281 7:0.57836401 8:1.76336 9:-0.16904999 10:0.72894597 11:1.75036 12:-0.223581 13:0.42205501 14:1.81031 15:-0.21494199 16:0.182199 17:1.81896 18:-0.194313 19:-0.034178399 20:1.74885 21:-0.19423699 22:-0.102593 23:1.71623 24:0.081757098 25:0.499547 26:1.76659 27:0.21959899 28:0.29149899 29:1.75791 30:0.286856 31:0.078303501 32:1.6425101 33:0.29112899 34:0.0560515 35:1.6128401 36:0.040510699 37:-0.0094800098 38:1.7933199 39:0.055853698 40:-0.49057901 41:1.67871 42:0.077828601 43:-0.81638098 44:1.65265 45:0.063549101 46:-0.86061502 47:1.52684 48:0.161079 49:0.03081 50:1.7624201 51:0.445779 52:-0.25191101 53:1.7639101 54:0.67972302 55:-0.55380398 56:1.77001 57:0.75950301 58:-0.61224002 59:1.68659 60:-0.076425001 61:0.51035601 62:1.77507 63:-0.170296 64:-0.14802501 65:1.67758 66:-0.211757 67:-0.124169 68:1.69559 69:0.299281 70:0.018715 71:1.57811 72:0.24906699 73:0.022297001 74:1.59059 
-0 0 0 0 0 0 0 0 0 1.190632794016808 0.6041477490921773 0.200752612423178 0 1.062819112413433 0 0 0:0.086075403 1:0.0046299798 2:1.79988 3:0 4:0.30000001 5:1.8 6:-0.086687997 7:0.582515 8:1.78205 9:-0.142699 10:0.7367 11:1.76941 12:-0.213578 13:0.42114899 14:1.80764 15:-0.21660499 16:0.172966 17:1.8157099 18:-0.213452 19:-0.0541449 20:1.73549 21:-0.21483999 22:-0.123667 23:1.7036901 24:0.077470601 25:0.49432299 26:1.77482 27:0.20793501 28:0.281997 29:1.77031 30:0.25342801 31:0.114767 32:1.6747 33:0.251333 34:0.0394358 35:1.64107 36:0.024307899 37:-0.0110141 38:1.7768 39:0.0137338 40:-0.48767501 41:1.66505 42:0.0386062 43:-0.81834 44:1.64507 45:0.023588 46:-0.862243 47:1.53128 48:0.144605 49:0.024091899 50:1.7437201 51:0.36539 52:-0.38299501 53:1.73075 54:0.51072401 55:-0.70468003 56:1.70619 57:0.55710799 58:-0.75055403 59:1.5964 60:-0.065354399 61:0.51346201 62:1.78914 63:-0.19984099 64:-0.174878 65:1.67247 66:-0.243067 67:-0.121299 68:1.69461 69:0.26410401 70:-0.0062130801 71:1.59049 72:0.211622 73:0.035251599 74:1.6756901 
-0 6.177651580028811 0 0 0 0 0 0 0 0 0 0 0 0 0 0 0:0.0917641 1:0.0055972799 2:1.80424 3:0 4:0.30000001 5:1.8 6:-0.091163501 7:0.58250302 8:1.7786601 9:-0.15152299 10:0.73573101 11:1.76572 12:-0.216677 13:0.42043301 14:1.80891 15:-0.22423799 16:0.17179801 17:1.8108701 18:-0.213871 19:-0.0554219 20:1.73125 21:-0.211945 22:-0.12181 23:1.69823 24:0.082536303 25:0.49460801 26:1.7743 27:0.21191899 28:0.28148001 29:1.76842 30:0.249699 31:0.064538501 32:1.64609 33:0.25315201 34:0.0156748 35:1.60947 36:0.0312084 37:-0.0112463 38:1.78025 39:0.026066801 40:-0.49267101 41:1.66581 42:0.050806802 43:-0.81629699 44:1.64416 45:0.034086201 46:-0.86199898 47:1.52999 48:0.149517 49:0.0261479 50:1.74884 51:0.40662199 52:-0.29718599 53:1.73976 54:0.60469502 55:-0.62243402 56:1.71735 57:0.66975302 58:-0.690355 59:1.62534 60:-0.068740897 61:0.513412 62:1.78658 63:-0.190993 64:-0.17396501 65:1.66812 66:-0.236083 67:-0.13448399 68:1.66997 69:0.24983899 70:-0.0240626 71:1.59101 72:0.21662199 73:0.0031067301 74:1.58648 
-0 10 0 0 0 0 0 0 0 0 0 0 0 0 0 0 0:0.087122999 1:0.0057504 2:1.80555 3:0 4:0.30000001 5:1.8 6:-0.0893896 7:0.58262998 8:1.77846 9:-0.15875401 10:0.73446703 11:1.76333 12:-0.218282 13:0.418951 14:1.80814 15:-0.230738 16:0.171764 17:1.81089 18:-0.218959 19:-0.061764099 20:1.72558 21:-0.214727 22:-0.12870599 23:1.6947 24:0.079448402 25:0.494432 26:1.77329 27:0.208415 28:0.281005 29:1.76713 30:0.24952701 31:0.064870298 32:1.6444499 33:0.24917001 34:0.018217901 35:1.60587 36:0.026040399 37:-0.0114839 38:1.78105 39:0.0284419 40:-0.49411899 41:1.66588 42:0.052563999 43:-0.81588697 44:1.64367 45:0.0356986 46:-0.86198598 47:1.5296299 48:0.14571799 49:0.0264984 50:1.75053 51:0.42978999 52:-0.27061301 53:1.74484 54:0.64362198 55:-0.58580899 56:1.7296799 57:0.71338397 58:-0.65249997 59:1.64245 60:-0.067108601 61:0.51354599 62:1.78635 63:-0.196133 64:-0.17975301 65:1.66483 66:-0.24016599 67:-0.130227 68:1.68133 69:0.24406999 70:-0.017070699 71:1.59102 72:0.23155101 73:0.0179883 74:1.5702699 
-0 10 0 0 0 0 0 0 0 0 0 0 0 0 0 0 0:0.093208604 1:0.0066925599 2:1.80814 3:0 4:0.30000001 5:1.8 6:-0.091999903 7:0.58172399 8:1.77579 9:-0.154948 10:0.733567 11:1.76152 12:-0.222132 13:0.41922301 14:1.80857 15:-0.22323599 16:0.17029101 17:1.80874 18:-0.21013901 19:-0.064443298 20:1.72421 21:-0.20635501 22:-0.130292 23:1.68989 24:0.079376101 25:0.49350399 26:1.77066 27:0.212238 28:0.282509 29:1.7653199 30:0.25824001 31:0.066852301 32:1.64362 33:0.257516 34:0.022267399 35:1.60487 36:0.031904899 37:-0.0115402 38:1.78338 39:0.0437667 40:-0.49713099 41:1.66698 42:0.064938597 43:-0.815503 44:1.6435601 45:0.050049301 46:-0.86102998 47:1.52099 48:0.152248 49:0.0282951 50:1.75335 51:0.45460001 52:-0.248491 53:1.7490799 54:0.69013602 55:-0.54782802 56:1.7342401 57:0.76543301 58:-0.60618901 59:1.6441 60:-0.069416001 61:0.51283699 62:1.78435 63:-0.191208 64:-0.18397 65:1.65873 66:-0.231362 67:-0.140047 68:1.6759599 69:0.252731 70:-0.0129735 71:1.5908999 72:0.219826 73:0.0094415201 74:1.58043 
-0 10 10 0 0 0 0 0 0 0 0 0 0 0 0 0 0:0.093642697 1:0.0067282501 2:1.8098201 3:0 4:0.30000001 5:1.8 6:-0.091385603 7:0.58195901 8:1.77482 9:-0.15895601 10:0.73257798 11:1.75892 12:-0.216288 13:0.41824099 14:1.80784 15:-0.22521099 16:0.170275 17:1.80513 18:-0.208722 19:-0.064511098 20:1.72095 21:-0.202876 22:-0.13168 23:1.68792 24:0.083875097 25:0.493806 26:1.7706701 27:0.21375699 28:0.28083 29:1.76384 30:0.261399 31:0.066477001 32:1.64034 33:0.258499 34:0.0214883 35:1.60106 36:0.032034501 37:-0.0125429 38:1.78468 39:0.0516496 40:-0.50002599 41:1.6680599 42:0.070633002 43:-0.81485301 44:1.6437 45:0.056083798 46:-0.86057401 47:1.52235 48:0.153088 49:0.0292609 50:1.7553999 51:0.46552199 52:-0.198028 53:1.75126 54:0.71262997 55:-0.48817199 56:1.7385 57:0.689179 58:-0.52253503 59:1.6059099 60:-0.068966404 61:0.513004 62:1.7836 63:-0.18465699 64:-0.183919 65:1.65766 66:-0.233143 67:-0.146548 68:1.6765 69:0.25132599 70:-0.0129636 71:1.58874 72:0.22053599 73:0.017183101 74:1.5907 
-0 10 10 0 0 0 0 0 0 0 0 0 0 0 0 0 0:0.092723802 1:0.0072808601 2:1.8121099 3:0 4:0.30000001 5:1.8 6:-0.090534098 7:0.58161902 8:1.77326 9:-0.162645 10:0.73084599 11:1.75668 12:-0.21236099 13:0.41929001 14:1.80776 15:-0.22436599 16:0.17070299 17:1.80287 18:-0.207921 19:-0.062893897 20:1.71495 21:-0.196678 22:-0.152236 23:1.67406 24:0.086820699 25:0.49412 26:1.77012 27:0.213892 28:0.279342 29:1.76208 30:0.26018101 31:0.066259801 32:1.6356601 33:0.25833401 34:0.020064101 35:1.59993 36:0.0310068 37:-0.0129997 38:1.78733 39:0.059698999 40:-0.50438601 41:1.66956 42:0.075646602 43:-0.81436902 44:1.64272 45:0.062182602 46:-0.860259 47:1.52171 48:0.152549 49:0.0307544 50:1.75734 51:0.48374999 52:-0.184581 53:1.75343 54:0.75056601 55:-0.45651999 56:1.74528 57:0.726601 58:-0.49169901 59:1.61282 60:-0.068295002 61:0.51274401 62:1.78242 63:-0.179233 64:-0.20385601 65:1.6548899 66:-0.21921401 67:-0.167585 68:1.6511 69:0.24996801 70:-0.014813 71:1.5871 72:0.219749 73:0.017531 74:1.5833 
-0 0 10 0 0 0 0 0 0 0 0 0 0 0 0 0 0:0.097540997 1:0.0089967996 2:1.81494 3:0 4:0.30000001 5:1.8 6:-0.097150303 7:0.57902199 8:1.76849 9:-0.15908 10:0.731215 11:1.75577 12:-0.212294 13:0.414002 14:1.80089 15:-0.221285 16:0.17643701 17:1.80178 18:-0.200352 19:-0.057526201 20:1.71596 21:-0.18979099 22:-0.150186 23:1.67389 24:0.065908298 25:0.492558 26:1.76463 27:0.212227 28:0.29068699 29:1.76008 30:0.26311299 31:0.076564699 32:1.63747 33:0.253279 34:0.039519802 35:1.62167 36:0.035828698 37:-0.0123887 38:1.79009 39:0.0718996 40:-0.50523001 41:1.67066 42:0.085279197 43:-0.81220198 44:1.64327 45:0.072733402 46:-0.85769898 47:1.52187 48:0.15746699 49:0.0335618 50:1.76027 51:0.498032 52:-0.149175 53:1.75721 54:0.77592403 55:-0.409641 56:1.75582 57:0.86537099 58:-0.45420399 59:1.6743701 60:-0.0731332 61:0.51087397 62:1.77906 63:-0.172124 64:-0.201252 65:1.65286 66:-0.218201 67:-0.158287 68:1.6610301 69:0.24360301 70:-0.0128525 71:1.58901 72:0.207433 73:0.0516329 74:1.6858799 
-0 5.083448244205596 10 9.630632304405278 0 0 0 0 0 0 0 0 0 0 0 0 0:0.094185397 1:0.0091636898 2:1.81621 3:0 4:0.30000001 5:1.8 6:-0.094948597 7:0.57919502 8:1.76832 9:-0.16515499 10:0.72896498 11:1.75212 12:-0.209776 13:0.414581 14:1.80091 15:-0.22391599 16:0.179673 17:1.79986 18:-0.20098101 19:-0.0545034 20:1.71522 21:-0.19046199 22:-0.150526 23:1.67126 24:0.072187603 25:0.49298 26:1.76534 27:0.213434 28:0.28735301 29:1.75871 30:0.26307499 31:0.074204303 32:1.63375 33:0.254051 34:0.038964801 35:1.60778 36:0.032495901 37:-0.0124201 38:1.79126 39:0.0748135 40:-0.50519001 41:1.67033 42:0.087854803 43:-0.81184101 44:1.64272 45:0.074979097 46:-0.85741401 47:1.52264 48:0.15447301 49:0.0339384 50:1.76157 51:0.50574797 52:-0.12700801 53:1.75998 54:0.79953599 55:-0.369385 56:1.75939 57:0.77535599 58:-0.40666401 59:1.62708 60:-0.071220003 61:0.511006 62:1.77888 63:-0.171197 64:-0.200275 65:1.64724 66:-0.21552999 67:-0.17483699 68:1.6535701 69:0.244809 70:-0.0114109 71:1.58487 72:0.229975 73:0.0487221 74:1.62176 
-0 10 10 10 0 0 0 0 0 0 0 0 0 0 0 0 0:0.098493204 1:0.0111619 2:1.81858 3:0 4:0.30000001 5:1.8 6:-0.097499497 7:0.57701898 8:1.76537 9:-0.16368701 10:0.728414 11:1.75001 12:-0.213174 13:0.41494 14:1.79931 15:-0.220777 16:0.18367399 17:1.80033 18:-0.194361 19:-0.0503213 20:1.71618 21:-0.183467 22:-0.14973 23:1.67202 24:0.071292698 25:0.493404 26:1.76425 27:0.216736 28:0.29077101 29:1.7583801 30:0.268291 31:0.077950798 32:1.63363 33:0.25890899 34:0.040410101 35:1.6095099 36:0.037324298 37:-0.010713 38:1.79295 39:0.084600002 40:-0.50148201 41:1.67142 42:0.098849297 43:-0.80953401 44:1.64189 45:0.083774202 46:-0.85510498 47:1.52336 48:0.158365 49:0.036291301 50:1.7647099 51:0.52122903 52:-0.096864402 53:1.76316 54:0.82200199 55:-0.33063799 56:1.76237 57:0.79811603 58:-0.368918 59:1.6301399 60:-0.073532403 61:0.50930202 62:1.77661 63:-0.166262 64:-0.199412 65:1.64689 66:-0.212861 67:-0.155864 68:1.66231 69:0.25179699 70:-0.0083659301 71:1.58968 72:0.23409601 73:0.038672801 74:1.6111701 
-0 0 10 10 0 0 0 0 0 0 0 0 0 0 0 0 0:0.101037 1:0.0123857 2:1.82017 3:0 4:0.30000001 5:1.8 6:-0.099422999 7:0.57581401 8:1.76353 9:-0.16682599 10:0.72713798 11:1.74812 12:-0.21365599 13:0.41467199 14:1.7968 15:-0.221533 16:0.18795601 17:1.8005199 18:-0.19158 19:-0.046025202 20:1.71758 21:-0.17827 22:-0.157712 23:1.66673 24:0.067159899 25:0.49327999 26:1.76354 27:0.21551199 28:0.292918 29:1.75989 30:0.269041 31:0.081093498 32:1.63421 33:0.26113901 34:0.043040201 35:1.60783 36:0.0399202 37:-0.0098354202 38:1.79445 39:0.0893277 40:-0.50005299 41:1.67246 42:0.10432 43:-0.80874997 44:1.6427799 45:0.088258997 46:-0.853513 47:1.52441 48:0.160919 49:0.037859298 50:1.7663701 51:0.52761102 52:-0.084637403 53:1.76458 54:0.83912402 55:-0.30366799 56:1.76653 57:0.81563401 58:-0.34259 59:1.63432 60:-0.075029999 61:0.50839001 62:1.7752301 63:-0.160614 64:-0.207552 65:1.64674 66:-0.206073 67:-0.16704901 68:1.6566 69:0.253436 70:-0.0063539399 71:1.587 72:0.24256 73:0.066288501 74:1.63626 
-0 10 10 10 0 0 0 0 0 0 0 0 0 0 0 0 0:0.099968702 1:0.0123651 2:1.8206 3:0 4:0.30000001 5:1.8 6:-0.0980478 7:0.57612902 8:1.76407 9:-0.17411 10:0.72370398 11:1.74538 12:-0.21670499 13:0.41417301 14:1.79486 15:-0.22473399 16:0.188684 17:1.79936 18:-0.19231699 19:-0.045281999 20:1.7173899 21:-0.18727601 22:-0.117781 23:1.68162 24:0.068285704 25:0.49342301 26:1.7636499 27:0.21313301 28:0.290454 29:1.75971 30:0.267416 31:0.080948703 32:1.63025 33:0.260833 34:0.042901799 35:1.60535 36:0.039001402 37:-0.0100266 38:1.79448 39:0.089979902 40:-0.499652 41:1.67217 42:0.106828 43:-0.80895102 44:1.6423399 45:0.088229202 46:-0.85357797 47:1.52433 48:0.159683 49:0.038062099 50:1.7673301 51:0.530487 52:-0.070986502 53:1.76683 54:0.85164899 55:-0.275832 56:1.7661901 57:0.82869899 58:-0.315047 59:1.6338201 60:-0.074257798 61:0.50856698 62:1.77554 63:-0.164354 64:-0.16204 65:1.64183 66:-0.208947 67:-0.132377 68:1.66897 69:0.25081301 70:-0.0053113699 71:1.58399 72:0.231067 73:0.044239499 74:1.6154701 
-0 10 10 10 0 0 0 0 0 0 0 0 0 0 0 0 0:0.099847898 1:0.0125461 2:1.821 3:0 4:0.30000001 5:1.8 6:-0.097264297 7:0.57623798 8:1.76401 9:-0.17639001 10:0.72199899 11:1.74331 12:-0.217218 13:0.41423899 14:1.79379 15:-0.22715899 16:0.19385099 17:1.79846 18:-0.19175699 19:-0.040242299 20:1.71821 21:-0.186739 22:-0.113642 23:1.68543 24:0.070611 25:0.49394801 26:1.76377 27:0.213384 28:0.289451 29:1.75929 30:0.26986399 31:0.084537499 32:1.62312 33:0.266844 34:0.036084998 35:1.5974 36:0.038667198 37:-0.0102154 38:1.7943701 39:0.092544302 40:-0.49905401 41:1.67238 42:0.111283 43:-0.80935103 44:1.6418101 45:0.090511397 46:-0.85302401 47:1.5244 48:0.15979899 49:0.038567901 50:1.76816 51:0.53310698 52:-0.061136398 53:1.76905 54:0.85859102 55:-0.25893199 56:1.77011 57:0.836043 58:-0.29837099 59:1.63764 60:-0.073586397 61:0.50865901 62:1.77549 63:-0.16785499 64:-0.15731101 65:1.6447999 66:-0.205355 67:-0.13007 68:1.66984 69:0.262867 70:-0.0048401202 71:1.58705 72:0.22450501 73:0.0135935 74:1.58433 
-0 10 10 10 0 0 0 0 0 0 0 0 0 0 0 0 0:0.100367 1:0.0132919 2:1.82184 3:0 4:0.30000001 5:1.8 6:-0.098365702 7:0.57540101 8:1.76332 9:-0.181389 10:0.71797901 11:1.74132 12:-0.218648 13:0.41336599 14:1.79263 15:-0.22797801 16:0.195196 17:1.79688 18:-0.19139899 19:-0.039007001 20:1.7175699 21:-0.185592 22:-0.111565 23:1.6891 24:0.068259902 25:0.49309501 26:1.7628 27:0.21274801 28:0.28982899 29:1.7586 30:0.270713 31:0.084999897 32:1.62296 33:0.265937 34:0.030232901 35:1.59416 36:0.0391168 37:-0.0095358901 38:1.79492 39:0.094537802 40:-0.49322101 41:1.6711 42:0.112943 43:-0.80957103 44:1.64149 45:0.091694102 46:-0.852889 47:1.52415 48:0.160478 49:0.039355502 50:1.76929 51:0.53536701 52:-0.053602401 53:1.77153 54:0.86560702 55:-0.243359 56:1.77255 57:0.84307802 58:-0.283176 59:1.64011 60:-0.074300602 61:0.50809503 62:1.77502 63:-0.16548599 64:-0.15796 65:1.64964 66:-0.194222 67:-0.15250599 68:1.64841 69:0.256401 70:-0.0030040301 71:1.58621 72:0.22765701 73:0.0190934 74:1.58359 
-0 10 10 10 0 0 0 0 0 0 0 0 0 0 0 0 0:0.10665 1:0.0168315 2:1.82371 3:0 4:0.30000001 5:1.8 6:-0.114053 7:0.56858301 8:1.75904 9:-0.182239 10:0.71856999 11:1.74053 12:-0.222192 13:0.40980899 14:1.78904 15:-0.22301801 16:0.19899601 17:1.7976 18:-0.18517999 19:-0.0352217 20:1.719 21:-0.177818 22:-0.107378 23:1.69156 24:0.049215399 25:0.48471299 26:1.75872 27:0.21277501 28:0.297039 29:1.75914 30:0.27562201 31:0.091819301 32:1.6265 33:0.27329701 34:0.0387915 35:1.5958 36:0.0455027 37:-0.0062651001 38:1.7967 39:0.100982 40:-0.48940799 41:1.67284 42:0.119508 43:-0.80583602 44:1.64292 45:0.097882301 46:-0.848988 47:1.52578 48:0.16671 49:0.043075498 50:1.7711999 51:0.543365 52:-0.041680101 53:1.77484 54:0.87537301 55:-0.227413 56:1.7838 57:0.85253799 58:-0.268222 59:1.65174 60:-0.085246697 61:0.503218 62:1.7719899 63:-0.157625 64:-0.154603 65:1.65295 66:-0.170096 67:-0.14793999 68:1.6369801 69:0.26977199 70:0.00659189 71:1.5862499 72:0.236058 73:0.028223701 74:1.5831701 
-0 10 10 10 0 0 0 0 0 0 0 0 0 0 0 0 0:0.106772 1:0.0167762 2:1.8237799 3:0 4:0.30000001 5:1.8 6:-0.112822 7:0.569215 8:1.7594399 9:-0.18905701 10:0.715756 11:1.73815 12:-0.22233699 13:0.40975001 14:1.7889 15:-0.223996 16:0.198744 17:1.79564 18:-0.184692 19:-0.0356929 20:1.7186199 21:-0.175171 22:-0.106741 23:1.6940399 24:0.0504191 25:0.48523101 26:1.75886 27:0.212486 28:0.29622301 29:1.75902 30:0.276043 31:0.0917686 32:1.62549 33:0.27396399 34:0.0435348 35:1.59641 36:0.0456343 37:-0.0062902402 38:1.7966599 39:0.10093 40:-0.490105 41:1.67281 42:0.11963 43:-0.80583102 44:1.64279 45:0.098867998 46:-0.84871501 47:1.52355 48:0.16682599 49:0.0429755 50:1.77145 51:0.54376298 52:-0.0400334 53:1.77588 54:0.87951702 55:-0.219896 56:1.77643 57:0.85669601 58:-0.26074901 59:1.6443501 60:-0.084780701 61:0.50347298 62:1.77213 63:-0.154809 64:-0.156636 65:1.65711 66:-0.19091401 67:-0.128466 68:1.6773 69:0.26637 70:0.00990598 71:1.5837801 72:0.236578 73:0.028200701 74:1.58562 
-0 10 10 10 0 0 0 0 0 0 0.4403567916817875 0.6376225331976151 0 0.20713841564127 0 0 0:0.113444 1:0.020017499 2:1.82496 3:0 4:0.30000001 5:1.8 6:-0.117444 7:0.56814599 8:1.75912 9:-0.18799201 10:0.71673602 11:1.73805 12:-0.22755501 13:0.40339801 14:1.78835 15:-0.21853501 16:0.20157599 17:1.79528 18:-0.177479 19:-0.032768399 20:1.71898 21:-0.164722 22:-0.1024 23:1.69564 24:0.047460299 25:0.48436299 26:1.75721 27:0.215767 28:0.30120799 29:1.75978 30:0.28228801 31:0.097185701 32:1.6271 33:0.28356299 34:0.051435702 35:1.59813 36:0.0525214 37:-0.0034962301 38:1.79757 39:0.107304 40:-0.48693699 41:1.6740201 42:0.126249 43:-0.80215698 44:1.6436 45:0.105968 46:-0.844859 47:1.52447 48:0.173371 49:0.046539102 50:1.7727799 51:0.55059803 52:-0.034039501 53:1.77891 54:0.88573003 55:-0.215175 56:1.7783999 57:0.86283201 58:-0.25629801 59:1.64644 60:-0.088547602 61:0.50252402 62:1.7718199 63:-0.14357001 64:-0.151961 65:1.6588399 66:-0.181484 67:-0.111784 68:1.6849101 69:0.27630699 70:0.016927199 71:1.58736 72:0.24667799 73:0.036964599 74:1.58261 
-10 -10 0 0 10 9.836184521795925 5.212432876460377 3.140012000654309 10 4.221894077798412 2.330153554383406 1.906126294056543 10 2.748592621563707 5.943607135354283 8.017587794631705 0:0.066434301 1:-0.00263776 2:1.78874 3:0 4:0.30000001 5:1.8 6:-0.069543302 7:0.58879602 8:1.7947201 9:-0.108916 10:0.74811101 11:1.77724 12:-0.22199 13:0.42551801 14:1.82056 15:-0.22105999 16:0.18161701 17:1.81332 18:-0.210798 19:-0.0501117 20:1.72434 21:-0.208002 22:-0.118556 23:1.69318 24:0.108683 25:0.49065599 26:1.79782 27:0.196872 28:0.25682399 29:1.77511 30:0.237902 31:0.042295899 32:1.64943 33:0.246986 34:0.0053972602 35:1.61525 36:0.0061725099 37:-0.0147419 38:1.75846 39:0.00187293 40:-0.493092 41:1.66959 42:0.046685699 43:-0.82094097 44:1.6453201 45:0.032947201 46:-0.87789398 47:1.52781 48:0.124414 49:0.0128143 50:1.7392499 51:0.39856401 52:-0.31800801 53:1.71051 54:0.602099 55:-0.62823498 56:1.6823601 57:0.66596901 58:-0.67890698 59:1.5783499 60:-0.052358799 61:0.51831299 62:1.7985801 63:-0.193482 64:-0.167611 65:1.6699899 66:-0.234027 67:-0.126904 68:1.6772701 69:0.249944 70:-0.043034501 71:1.5839601 72:0.27681199 73:0.0116806 74:1.59478 
-0.3151880418361027 -10 0 0 0.8629348816216962 0 0 0 1.38044456870941 0 0 0 1.491207660197082 0 0 0 0:0.070943497 1:-0.0016196501 2:1.79062 3:0 4:0.30000001 5:1.8 6:-0.070670702 7:0.58818001 8:1.79356 9:-0.109887 10:0.74637401 11:1.77588 12:-0.220686 13:0.42588401 14:1.8195601 15:-0.21663 16:0.18007 17:1.81471 18:-0.205659 19:-0.052964401 20:1.72385 21:-0.202676 22:-0.122636 23:1.69225 24:0.110142 25:0.490244 26:1.79737 27:0.20182 28:0.257745 29:1.77519 30:0.24391501 31:0.045479499 32:1.64578 33:0.247308 34:0.0037078999 35:1.6092401 36:0.010438 37:-0.014213 38:1.76092 39:0.0127363 40:-0.49369001 41:1.67067 42:0.055937599 43:-0.821944 44:1.6461101 45:0.0420711 46:-0.87885302 47:1.52856 48:0.129474 49:0.0140798 50:1.74061 51:0.41692501 52:-0.270042 53:1.71565 54:0.64524502 55:-0.57695401 56:1.69549 57:0.71909302 58:-0.632985 59:1.59882 60:-0.053317402 61:0.51778901 62:1.79767 63:-0.18361899 64:-0.174344 65:1.67399 66:-0.231501 67:-0.13334399 68:1.67943 69:0.245643 70:-0.0404309 71:1.57883 72:0.27650899 73:0.0081128599 74:1.5862401 
-0 -10 0 0 0 0 0 0 0 0 0 0 0 0 0 0 0:0.073561303 1:-0.00074771 2:1.79178 3:0 4:0.30000001 5:1.8 6:-0.074329801 7:0.587309 8:1.79216 9:-0.11492 10:0.74545097 11:1.77461 12:-0.222536 13:0.42520499 14:1.81752 15:-0.22058199 16:0.178038 17:1.8113199 18:-0.205827 19:-0.054931302 20:1.72322 21:-0.20284601 22:-0.124231 23:1.69189 24:0.106615 25:0.490675 26:1.79687 27:0.201765 28:0.25957599 29:1.77429 30:0.24642099 31:0.047583599 32:1.6453201 33:0.243255 34:0.00765733 35:1.60829 36:0.0130151 37:-0.014096 38:1.76248 39:0.019379601 40:-0.49421099 41:1.67105 42:0.060391501 43:-0.823008 44:1.64528 45:0.046259802 46:-0.87910599 47:1.52474 48:0.132137 49:0.015885999 50:1.74138 51:0.43118501 52:-0.236533 53:1.71948 54:0.68104303 55:-0.52626503 56:1.69662 57:0.66204602 58:-0.55731702 59:1.56174 60:-0.055957999 61:0.51716 62:1.79667 63:-0.18552899 64:-0.175257 65:1.6675 66:-0.22865801 67:-0.138348 68:1.67547 69:0.238309 70:-0.038769599 71:1.57768 72:0.27154401 73:0.021805599 74:1.57336 
-0 -10 10 0 0 0 0 0 0 0 0 0 0 0 0 0 0:0.076735497 1:0.00015978501 2:1.79307 3:0 4:0.30000001 5:1.8 6:-0.076265797 7:0.58658201 8:1.79117 9:-0.118895 10:0.74506801 11:1.77362 12:-0.22293501 13:0.42418 14:1.8152699 15:-0.218034 16:0.17749 17:1.81081 18:-0.205825 19:-0.051325701 20:1.72391 21:-0.20355099 22:-0.118703 23:1.69015 24:0.102669 25:0.49024501 26:1.7954 27:0.203823 28:0.26171401 29:1.7733001 30:0.25109699 31:0.0498043 32:1.64518 33:0.246645 34:0.0120983 35:1.6038899 36:0.0161476 37:-0.0139778 38:1.76397 39:0.0295856 40:-0.49507099 41:1.67191 42:0.066462502 43:-0.82335198 44:1.64571 45:0.052328099 46:-0.87903702 47:1.52543 48:0.135418 49:0.0175102 50:1.74248 51:0.45056 52:-0.22201 53:1.722 54:0.72589898 55:-0.48748299 56:1.69626 57:0.81434101 58:-0.53252703 59:1.61235 60:-0.0575126 61:0.51658201 62:1.79589 63:-0.191155 64:-0.168466 65:1.66169 66:-0.220303 67:-0.140562 68:1.65846 69:0.24242499 70:-0.032238401 71:1.57366 72:0.27249199 73:0.0243173 74:1.5667 
-0 -10 10 0 0 0 0 0 0 0 0 0 0 0 0 0 0:0.071824297 1:0.00079262297 2:1.79308 3:0 4:0.30000001 5:1.8 6:-0.074598297 7:0.58651501 8:1.79137 9:-0.12820999 10:0.74419498 11:1.77215 12:-0.225557 13:0.423354 14:1.81388 15:-0.224507 16:0.17571101 17:1.80935 18:-0.208818 19:-0.054099001 20:1.72199 21:-0.20444401 22:-0.123885 23:1.68779 24:0.095221601 25:0.488857 26:1.79079 27:0.20082501 28:0.262337 29:1.76986 30:0.24880201 31:0.0935288 32:1.6572599 33:0.25077 34:0.0249069 35:1.6155699 36:0.0114219 37:-0.0136104 38:1.76455 39:0.033051901 40:-0.49715599 41:1.67194 42:0.067945398 43:-0.82364398 44:1.64439 45:0.053095698 46:-0.87895799 47:1.52549 48:0.130668 49:0.0182391 50:1.74194 51:0.46514601 52:-0.197423 53:1.72425 54:0.754677 55:-0.447465 56:1.70189 57:0.73371601 58:-0.480037 59:1.56716 60:-0.056508798 61:0.51658601 62:1.79599 63:-0.18878099 64:-0.173674 65:1.66181 66:-0.21751601 67:-0.172719 68:1.65579 69:0.255983 70:-0.0190943 71:1.56512 72:0.310469 73:0.0118424 74:1.64259 
-0 -10 0 0 0 0 0 0 0 0 0 0 0 0 0 0 0:0.089774102 1:0.0046713799 2:1.8047 3:0 4:0.30000001 5:1.8 6:-0.088319898 7:0.58380002 8:1.77853 9:-0.148894 10:0.73597401 11:1.7671 12:-0.21654201 13:0.419581 14:1.8243999 15:-0.20791399 16:0.170656 17:1.82408 18:-0.18791699 19:-0.0407691 20:1.74752 21:-0.184302 22:-0.116356 23:1.71752 24:0.0852613 25:0.494183 26:1.76956 27:0.21626499 28:0.28147599 29:1.7559299 30:0.268635 31:0.065745197 32:1.63714 33:0.274618 34:0.023165001 35:1.61233 36:0.028971599 37:-0.0131109 38:1.7834899 39:0.0503533 40:-0.49390101 41:1.66682 42:0.087192699 43:-0.82146102 44:1.64933 45:0.068335399 46:-0.86697298 47:1.53486 48:0.14931101 49:0.0258507 50:1.74637 51:0.433137 52:-0.25748399 53:1.72798 54:0.64826697 55:-0.57337099 56:1.73317 57:0.72218901 58:-0.640239 59:1.6519099 60:-0.066655003 61:0.51438898 62:1.7865 63:-0.16922601 64:-0.161066 65:1.68523 66:-0.18950599 67:-0.15056799 68:1.66904 69:0.27347699 70:-0.028405899 71:1.5935301 72:0.238271 73:0.0129028 74:1.59419 
-0 -10 0 0 0 0 0 0 0 0 0 0 0 0 0 0 0:0.091046602 1:0.0056102602 2:1.80721 3:0 4:0.30000001 5:1.8 6:-0.088734701 7:0.58297402 8:1.77683 9:-0.15329801 10:0.733329 11:1.76398 12:-0.220705 13:0.419752 14:1.82375 15:-0.20480099 16:0.17097101 17:1.82137 18:-0.187636 19:-0.048243001 20:1.74611 21:-0.181716 22:-0.122069 23:1.71682 24:0.0814934 25:0.49366701 26:1.76715 27:0.21635699 28:0.28338301 29:1.75428 30:0.26940599 31:0.067569397 32:1.63595 33:0.27391201 34:0.0268266 35:1.60701 36:0.0295355 37:-0.0129058 38:1.78579 39:0.059017301 40:-0.49691299 41:1.66786 42:0.094774701 43:-0.821033 44:1.6500601 45:0.075849399 46:-0.86677098 47:1.53633 48:0.151419 49:0.027353801 50:1.74905 51:0.45618001 52:-0.213443 53:1.73132 54:0.69077998 55:-0.51523697 56:1.73782 57:0.66227102 58:-0.549658 59:1.6062 60:-0.066997297 61:0.513771 62:1.78518 63:-0.166301 64:-0.16681699 65:1.68274 66:-0.195122 67:-0.158283 68:1.67422 69:0.27351299 70:-0.023057399 71:1.58613 72:0.236494 73:0.015951401 74:1.59209 
-0 -10 8.756587244913353 0 0 0 0 0 0 0 0 0 0 0 0 0 0:0.085479103 1:0.0056522498 2:1.8085099 3:0 4:0.30000001 5:1.8 6:-0.087232701 7:0.58300602 8:1.77674 9:-0.16406301 10:0.73125702 11:1.7598701 12:-0.22743499 13:0.41820899 14:1.81961 15:-0.211953 16:0.169551 17:1.81927 18:-0.19059999 19:-0.058252499 20:1.74468 21:-0.18483301 22:-0.132452 23:1.7148499 24:0.0783448 25:0.492733 26:1.76591 27:0.210465 28:0.28063199 29:1.75169 30:0.26688099 31:0.066422001 32:1.63191 33:0.267508 34:0.027785501 35:1.6023999 36:0.023744799 37:-0.0136051 38:1.78686 39:0.060865998 40:-0.50252098 41:1.66773 42:0.095214397 43:-0.82014298 44:1.64887 45:0.0769822 46:-0.86655301 47:1.53572 48:0.146301 49:0.028068099 50:1.75055 51:0.473315 52:-0.19991501 53:1.73489 54:0.73366398 55:-0.479581 56:1.7426 57:0.70548898 58:-0.51448101 59:1.61076 60:-0.065967701 61:0.513785 62:1.78502 63:-0.172195 64:-0.178247 65:1.68326 66:-0.190119 67:-0.16564199 68:1.6638499 69:0.26321301 70:-0.0166611 71:1.5766799 72:0.24068999 73:0.022546001 74:1.56971 
-0 -10 10 7.751873716995829 0 0 0 0 0 0 0 0 0 0 0 0 0:0.087711401 1:0.0064031901 2:1.80957 3:0 4:0.30000001 5:1.8 6:-0.087118797 7:0.58235699 8:1.77562 9:-0.170439 10:0.728064 11:1.75571 12:-0.223353 13:0.41863301 14:1.8192 15:-0.213827 16:0.169661 17:1.81788 18:-0.19497 19:-0.042713199 20:1.74935 21:-0.188815 22:-0.114373 23:1.72163 24:0.078494303 25:0.492621 26:1.76478 27:0.21098 28:0.28070101 29:1.749 30:0.265331 31:0.069186501 32:1.6231 33:0.26533499 34:0.033666201 35:1.59408 36:0.0258906 37:-0.0132313 38:1.7876199 39:0.065296903 40:-0.50736898 41:1.66672 42:0.098739803 43:-0.82081002 44:1.6476001 45:0.082925104 46:-0.86553001 47:1.53231 48:0.148683 49:0.029184701 50:1.75193 51:0.49373201 52:-0.148432 53:1.74024 54:0.76729703 55:-0.41536501 56:1.7484 57:0.73834503 58:-0.451543 59:1.6166199 60:-0.065816097 61:0.513309 62:1.7841901 63:-0.173328 64:-0.159609 65:1.68267 66:-0.18415201 67:-0.15710101 68:1.66768 69:0.26173499 70:-0.0105195 71:1.5692101 72:0.249485 73:0.026999 74:1.5487 
-0 -10 10 10 0 0 0 0 0 0 0 0 0 0 0 0 0:0.086223401 1:0.00689328 2:1.81177 3:0 4:0.30000001 5:1.8 6:-0.084403098 7:0.58219999 8:1.77426 9:-0.17408 10:0.72668099 11:1.75363 12:-0.226173 13:0.41691899 14:1.80968 15:-0.212418 16:0.169809 17:1.81609 18:-0.188302 19:-0.041455999 20:1.74965 21:-0.184632 22:-0.112441 23:1.72025 24:0.081950203 25:0.493054 26:1.76416 27:0.21309599 28:0.28025499 29:1.74722 30:0.27129099 31:0.072569199 32:1.6164 33:0.262676 34:0.024186701 35:1.58094 36:0.024347199 37:-0.0133018 38:1.7893 39:0.073683202 40:-0.50606698 41:1.66706 42:0.105112 43:-0.82103401 44:1.64703 45:0.091269098 46:-0.86417401 47:1.53063 48:0.14765 49:0.0302394 50:1.7546 51:0.50897998 52:-0.112726 53:1.73992 54:0.79843402 55:-0.3617 56:1.75475 57:0.77201802 58:-0.398536 59:1.62231 60:-0.063677996 61:0.513183 62:1.78312 63:-0.168184 64:-0.158957 65:1.68295 66:-0.186004 67:-0.153901 68:1.66881 69:0.25577399 70:-0.0093510998 71:1.56986 72:0.22521099 73:0.0088660903 74:1.56771 
-0 -10 10 10 0 0 0 0 0 0 0 0 0 0 0 0 0:0.100431 1:0.0110587 2:1.81603 3:0 4:0.30000001 5:1.8 6:-0.10824 7:0.57377398 8:1.76333 9:-0.16620199 10:0.72766399 11:1.75299 12:-0.21706501 13:0.415719 14:1.80611 15:-0.19822399 16:0.174732 17:1.81609 18:-0.174288 19:-0.037271801 20:1.7508399 21:-0.170157 22:-0.108402 23:1.7219501 24:0.065510102 25:0.49127799 26:1.7569 27:0.217674 28:0.29318801 29:1.74693 30:0.284118 31:0.086305298 32:1.61896 33:0.27712601 34:0.039062802 35:1.58375 36:0.038766898 37:-0.0095662298 38:1.79339 39:0.092581697 40:-0.50218099 41:1.66905 42:0.123055 43:-0.81704599 44:1.64933 45:0.109345 46:-0.85969597 47:1.5335 48:0.16179501 49:0.0348555 50:1.75905 51:0.52846199 52:-0.094392098 53:1.74344 54:0.84195799 55:-0.312388 56:1.75746 57:0.813797 58:-0.35187599 59:1.62613 60:-0.0808056 61:0.507231 62:1.7755899 63:-0.15015 64:-0.157295 65:1.6842999 66:-0.186526 67:-0.126886 68:1.7055 69:0.27499399 70:-0.00173442 71:1.56548 72:0.23695099 73:0.018508701 74:1.56705 
-0 -10 0 0 0 0 0 0 0 0 0.113953328002009 0.4067975751553544 0 0 0 0 0:0.10602 1:0.0100105 2:1.8202 3:0 4:0.30000001 5:1.8 6:-0.104233 7:0.57745701 8:1.76182 9:-0.170904 10:0.72687799 11:1.74984 12:-0.221426 13:0.41945001 14:1.8068399 15:-0.216253 16:0.181954 17:1.81688 18:-0.196078 19:-0.030889699 20:1.74986 21:-0.194731 22:-0.098311797 23:1.71954 24:0.061779499 25:0.49602899 26:1.7586401 27:0.213227 28:0.29794499 29:1.75407 30:0.28356999 31:0.087793 32:1.63458 33:0.28951001 34:0.0441963 35:1.6059 36:0.0441944 37:-0.0090597998 38:1.7959599 39:0.065566704 40:-0.491936 41:1.67866 42:0.087916002 43:-0.81147301 44:1.64882 45:0.070182301 46:-0.85894001 47:1.52873 48:0.16542 49:0.032785799 50:1.76483 51:0.47452599 52:-0.20812701 53:1.77332 54:0.72729701 55:-0.49525201 56:1.7677701 57:0.70111197 58:-0.53219998 59:1.63673 60:-0.078658901 61:0.50964898 62:1.77389 63:-0.180687 64:-0.145312 65:1.68238 66:-0.18487 67:-0.143622 68:1.66127 69:0.292871 70:0.00322209 71:1.5891401 72:0.26736099 73:0.037884999 74:1.56736 
-0 -10 10 0 0 0 0 0 0 0 0 0 0 0 0 0 0:0.107637 1:0.0110437 2:1.82223 3:0 4:0.30000001 5:1.8 6:-0.104066 7:0.57724601 8:1.76138 9:-0.173095 10:0.72508103 11:1.74698 12:-0.221073 13:0.41757199 14:1.8055 15:-0.212944 16:0.182588 17:1.81726 18:-0.194879 19:-0.028960301 20:1.74997 21:-0.192085 22:-0.097632401 23:1.71954 24:0.063107803 25:0.49569401 26:1.75739 27:0.209447 28:0.29328099 29:1.74484 30:0.29017699 31:0.083907403 32:1.63125 33:0.291136 34:0.0506276 35:1.59958 36:0.0463125 37:-0.0089318901 38:1.79742 39:0.076904699 40:-0.49544001 41:1.67749 42:0.094836101 43:-0.81061 44:1.6506701 45:0.078015998 46:-0.85719401 47:1.52949 48:0.166887 49:0.034591801 50:1.76746 51:0.48961201 52:-0.181467 53:1.77582 54:0.76329798 55:-0.448118 56:1.78096 57:0.856139 58:-0.488451 59:1.7021 60:-0.078590401 61:0.50945997 62:1.77352 63:-0.176829 64:-0.14477099 65:1.68355 66:-0.200899 67:-0.142583 68:1.67968 69:0.29671201 70:0.00742106 71:1.58129 72:0.25675201 73:0.034485701 74:1.58248 
-0 -10 10 10 0 0 0 0 0 0 0 0 0 0 0 0 0:0.104809 1:0.0105456 2:1.82181 3:0 4:0.30000001 5:1.8 6:-0.102291 7:0.57783598 8:1.76217 9:-0.179886 10:0.72352898 11:1.74316 12:-0.219099 13:0.418475 14:1.80624 15:-0.217693 16:0.183134 17:1.81416 18:-0.196686 19:-0.026813099 20:1.74954 21:-0.19461399 22:-0.096561298 23:1.72014 24:0.066486701 25:0.496335 26:1.75863 27:0.210591 28:0.29227099 29:1.74476 30:0.28724599 31:0.083112597 32:1.62767 33:0.28306201 34:0.044304401 35:1.5939 36:0.043294199 37:-0.0109921 38:1.7966599 39:0.080598801 40:-0.49731901 41:1.6763901 42:0.098448798 43:-0.80924499 44:1.649 45:0.080581501 46:-0.85593897 47:1.53022 48:0.164351 49:0.0353643 50:1.76726 51:0.50816202 52:-0.13794 53:1.77614 54:0.793607 55:-0.391379 56:1.78846 57:0.76687503 58:-0.43001899 59:1.65724 60:-0.077116199 61:0.50993299 62:1.77416 63:-0.177452 64:-0.14516599 65:1.6825 66:-0.203536 67:-0.14076699 68:1.68165 69:0.27812099 70:0.0031854501 71:1.57706 72:0.26225099 73:0.035921302 74:1.55555 
-0 -10 10 10 0 0 0 0 0 0 0 0 0 0 0 0 0:0.107071 1:0.0114908 2:1.82578 3:0 4:0.30000001 5:1.8 6:-0.103603 7:0.577434 8:1.7585599 9:-0.174016 10:0.72521102 11:1.7443399 12:-0.216572 13:0.418037 14:1.80519 15:-0.210581 16:0.189154 17:1.81618 18:-0.187869 19:-0.024495101 20:1.75045 21:-0.186877 22:-0.094223499 23:1.71997 24:0.064602204 25:0.49642199 26:1.7535501 27:0.21752501 28:0.29911 29:1.7452 30:0.28913501 31:0.089555196 32:1.62532 33:0.28701901 34:0.051155999 35:1.59272 36:0.046746101 37:-0.010059 38:1.80064 39:0.094105802 40:-0.49272099 41:1.68037 42:0.111451 43:-0.80603898 44:1.65184 45:0.093717404 46:-0.85215098 47:1.53414 48:0.166155 49:0.0364631 50:1.77125 51:0.52111 52:-0.114294 53:1.77746 54:0.825059 55:-0.34514299 56:1.79081 57:0.796992 58:-0.38535601 59:1.66017 60:-0.078238398 61:0.50958502 62:1.77144 63:-0.169632 64:-0.143355 65:1.68258 66:-0.20523199 67:-0.115294 68:1.7049201 69:0.28678399 70:0.0120411 71:1.57461 72:0.245821 73:0.0283128 74:1.5723 
-0 -10 10 10 0 0 0 0 0 0 0 0 0 0 0 0 0:0.10375 1:0.0112619 2:1.82546 3:0 4:0.30000001 5:1.8 6:-0.102684 7:0.57754499 8:1.7588 9:-0.179397 10:0.72290802 11:1.7407399 12:-0.215766 13:0.41826901 14:1.80519 15:-0.21646699 16:0.18976 17:1.81328 18:-0.19170401 19:-0.0267688 20:1.74824 21:-0.18992101 22:-0.096985698 23:1.71872 24:0.065240398 25:0.49643701 26:1.75375 27:0.215799 28:0.29734701 29:1.7464499 30:0.285137 31:0.090445198 32:1.62026 33:0.27928799 34:0.051335599 35:1.58786 36:0.0438684 37:-0.0103102 38:1.8004301 39:0.0965624 40:-0.49604201 41:1.6799999 42:0.112032 43:-0.80664802 44:1.65126 45:0.094194703 46:-0.85218698 47:1.53421 48:0.162561 49:0.036248099 50:1.77083 51:0.52620602 52:-0.091870204 53:1.77853 54:0.84265399 55:-0.30425 56:1.79861 57:0.81432199 58:-0.345034 59:1.66787 60:-0.077672698 61:0.50963801 62:1.77156 63:-0.173016 64:-0.146051 65:1.68025 66:-0.195298 67:-0.137852 68:1.67551 69:0.27620399 70:0.0091539798 71:1.57082 72:0.238078 73:0.033183601 74:1.5724699 
-0 -10 10 10 0 0 0 0 0 0 0 0 0 0 0 0 0:0.107901 1:0.012663 2:1.82789 3:0 4:0.30000001 5:1.8 6:-0.107062 7:0.57507497 8:1.75596 9:-0.178371 10:0.72263801 11:1.73996 12:-0.219787 13:0.41407499 14:1.7977 15:-0.21633901 16:0.19311 17:1.81304 18:-0.19086599 19:-0.038174599 20:1.7460999 21:-0.187011 22:-0.105315 23:1.7159801 24:0.060661402 25:0.494827 26:1.7517 27:0.21686099 28:0.30032301 29:1.74711 30:0.28296599 31:0.095167801 32:1.61601 33:0.275989 34:0.0545072 35:1.5837899 36:0.048198398 37:-0.0091581903 38:1.80295 39:0.103323 40:-0.496923 41:1.68182 42:0.118219 43:-0.80649298 44:1.65388 45:0.099758901 46:-0.85099798 47:1.53741 48:0.16656099 49:0.037921801 50:1.77317 51:0.540851 52:-0.075752601 53:1.78302 54:0.870619 55:-0.26823601 56:1.79419 57:0.84382302 58:-0.309782 59:1.66329 60:-0.080766097 61:0.50790602 62:1.76954 63:-0.170285 64:-0.15006199 65:1.67785 66:-0.20359901 67:-0.13034301 68:1.69637 69:0.27546501 70:0.0143097 71:1.56742 72:0.23579399 73:0.0393002 74:1.57432 
-6.342197905545146 -10 -10 0 6.592368793824622 5.800462108710676 3.792582304554657 2.603530557376795 7.262572059072435 3.487778116101516 2.27408849641767 2.182866682515276 7.025959581056058 2.506097208207098 4.586026316897255 5.527240393581394 0:0.068730898 1:0.00111932 2:1.7933 3:0 4:0.30000001 5:1.8 6:-0.072822899 7:0.58662301 8:1.7915601 9:-0.13459601 10:0.74369901 11:1.77204 12:-0.22669899 13:0.42280999 14:1.8121001 15:-0.2299 16:0.17324901 17:1.80442 18:-0.210972 19:-0.055573501 20:1.71973 21:-0.20686699 22:-0.124545 23:1.68682 24:0.090378299 25:0.48852399 26:1.78881 27:0.19875801 28:0.263322 29:1.7673 30:0.25024199 31:0.094178498 32:1.65797 33:0.253452 34:0.0279305 35:1.61102 36:0.0081529496 37:-0.0141477 38:1.76568 39:0.0399554 40:-0.51436102 41:1.67088 42:0.0713664 43:-0.82455897 44:1.64196 45:0.055114299 46:-0.87899297 47:1.52437 48:0.127699 49:0.019321401 50:1.7412699 51:0.472635 52:-0.15975 53:1.73078 54:0.77392602 55:-0.395652 56:1.7074701 57:0.75248498 58:-0.42907399 59:1.57265 60:-0.054920401 61:0.51672602 62:1.7962101 63:-0.192425 64:-0.17495801 65:1.65941 66:-0.23304 67:-0.12918501 68:1.67924 69:0.25342399 70:-0.017398 71:1.56365 72:0.31429401 73:0.0057886401 74:1.6355799 
-0 -10 -10 0 0 0 0 0 0 0 0 0 0 0 0 0 0:0.071060903 1:0.00163385 2:1.79432 3:0 4:0.30000001 5:1.8 6:-0.071667202 7:0.58627701 8:1.79088 9:-0.136786 10:0.74291098 11:1.77151 12:-0.22368599 13:0.42214501 14:1.81126 15:-0.226872 16:0.172525 17:1.80215 18:-0.209006 19:-0.061514001 20:1.71644 21:-0.20297299 22:-0.13008501 23:1.68545 24:0.088235199 25:0.48969799 26:1.78777 27:0.199829 28:0.26606399 29:1.7658499 30:0.254798 31:0.094752103 32:1.6586 33:0.25882 34:0.0308538 35:1.61054 36:0.0105543 37:-0.0142828 38:1.7669801 39:0.045267899 40:-0.51403898 41:1.67193 42:0.078138597 43:-0.82508302 44:1.64011 45:0.060119499 46:-0.87929899 47:1.52499 48:0.130077 49:0.020446301 50:1.74201 51:0.48485601 52:-0.138841 53:1.72978 54:0.79681098 55:-0.36057001 56:1.71006 57:0.77487999 58:-0.39470199 59:1.57529 60:-0.054071601 61:0.516397 62:1.79565 63:-0.18846899 64:-0.180638 65:1.6586699 66:-0.22798701 67:-0.146717 68:1.66865 69:0.25762799 70:-0.0143579 71:1.56244 72:0.31428999 73:0.027623201 74:1.64485 
-0 -10 -10 2.692135603401495 0 0 0 0 0 0 0 0 0 0 0 0 0:0.078848198 1:0.00267909 2:1.7972701 3:0 4:0.30000001 5:1.8 6:-0.0800943 7:0.58442098 8:1.7866 9:-0.13318001 10:0.74173701 11:1.77255 12:-0.219373 13:0.419388 14:1.80925 15:-0.21678799 16:0.16993999 17:1.8046401 18:-0.199395 19:-0.063889503 20:1.71751 21:-0.192627 22:-0.132642 23:1.68393 24:0.093584202 25:0.49040401 26:1.7887599 27:0.20792601 28:0.26815501 29:1.76665 30:0.253986 31:0.066231102 32:1.62173 33:0.264552 34:0.0200905 35:1.58242 36:0.018716101 37:-0.013992 38:1.7702399 39:0.057928801 40:-0.51422203 41:1.67556 42:0.090422601 43:-0.82482898 44:1.64053 45:0.070893899 46:-0.87897402 47:1.52719 48:0.13760699 49:0.022305001 50:1.7446001 51:0.499515 52:-0.119855 53:1.73418 54:0.81760901 55:-0.33267099 56:1.71085 57:0.796619 58:-0.36765 59:1.57613 60:-0.0602604 61:0.515001 62:1.79255 63:-0.177177 64:-0.183654 65:1.65736 66:-0.223601 67:-0.147653 68:1.6808 69:0.26050001 70:-0.0133497 71:1.55667 72:0.294898 73:0.0309304 74:1.55934 
-0 -10 -10 10 0 0 0 0 0 0 0 0 0 0 0 0 0:0.081069201 1:0.0038544999 2:1.79809 3:0 4:0.30000001 5:1.8 6:-0.080506302 7:0.58344603 8:1.78628 9:-0.134608 10:0.73952901 11:1.7714601 12:-0.218455 13:0.419918 14:1.80747 15:-0.213862 16:0.17049401 17:1.8032399 18:-0.195437 19:-0.063604198 20:1.71696 21:-0.188999 22:-0.133862 23:1.6834199 24:0.0924538 25:0.49071899 26:1.78707 27:0.210181 28:0.27023301 29:1.7654001 30:0.26652399 31:0.067287497 32:1.62604 33:0.27247199 34:0.025856899 35:1.58438 36:0.0210646 37:-0.0133727 38:1.77151 39:0.067000002 40:-0.51276499 41:1.6778001 42:0.096592598 43:-0.82464302 44:1.6391799 45:0.0761474 46:-0.87918401 47:1.52627 48:0.13986699 49:0.023948001 50:1.74497 51:0.50511801 52:-0.114184 53:1.73611 54:0.84073299 55:-0.29759601 56:1.70465 57:0.81943297 58:-0.333222 59:1.56998 60:-0.060712099 61:0.51422101 62:1.7922601 63:-0.17526101 64:-0.183584 65:1.65662 66:-0.21320701 67:-0.140269 68:1.67764 69:0.270073 70:-0.0113124 71:1.55654 72:0.308768 73:0.0239274 74:1.56998 
-0 -10 -10 10 0 0 0 0 0 0 0 0 0 0 0 0 0:0.083115503 1:0.00438353 2:1.79872 3:0 4:0.30000001 5:1.8 6:-0.082833201 7:0.582892 8:1.78535 9:-0.138666 10:0.73856699 11:1.77019 12:-0.21803699 13:0.41700599 14:1.80317 15:-0.217774 16:0.169236 17:1.80188 18:-0.193766 19:-0.0644577 20:1.71583 21:-0.186511 22:-0.131506 23:1.68233 24:0.090562999 25:0.49148399 26:1.7860399 27:0.210235 28:0.272039 29:1.76445 30:0.258053 31:0.070795201 32:1.6191 33:0.273761 34:0.0418033 35:1.58872 36:0.0231761 37:-0.0131156 38:1.77236 39:0.071352698 40:-0.513623 41:1.67847 42:0.100407 43:-0.82549399 44:1.63731 45:0.078037597 46:-0.879637 47:1.52595 48:0.141784 49:0.0247376 50:1.74546 51:0.51088202 52:-0.096482404 53:1.7393399 54:0.84648597 55:-0.27982801 56:1.7059799 57:0.82602298 58:-0.31575701 59:1.57121 60:-0.0624578 61:0.51378798 62:1.7915601 63:-0.171746 64:-0.18361799 65:1.65012 66:-0.21133 67:-0.14727201 68:1.67061 69:0.27236599 70:0.00105791 71:1.55279 72:0.31541601 73:0.031545602 74:1.57701 
-0 -10 -10 10 0 0 0 0 0 0 0 0 0 0 0 0 0:0.085043199 1:0.00472704 2:1.79951 3:0 4:0.30000001 5:1.8 6:-0.084819801 7:0.58270198 8:1.78425 9:-0.140304 10:0.737872 11:1.7694401 12:-0.21553899 13:0.41727999 14:1.8037 15:-0.218623 16:0.172502 17:1.80081 18:-0.192114 19:-0.061137401 20:1.71534 21:-0.185049 22:-0.12569 23:1.68392 24:0.093018301 25:0.49165201 26:1.7863899 27:0.211881 28:0.27177301 29:1.76399 30:0.270033 31:0.072837196 32:1.6193399 33:0.27498499 34:0.0304524 35:1.58471 36:0.025370499 37:-0.0130472 38:1.77312 39:0.079961397 40:-0.51051199 41:1.68151 42:0.103997 43:-0.82534498 44:1.6375 45:0.080753997 46:-0.87903798 47:1.52578 48:0.14336599 49:0.025447899 50:1.74632 51:0.51421601 52:-0.0906239 53:1.73959 54:0.85736001 55:-0.25938901 56:1.70584 57:0.83678102 58:-0.29578799 59:1.57113 60:-0.0639631 61:0.513623 62:1.79074 63:-0.173086 64:-0.17797901 65:1.64994 66:-0.208895 67:-0.140376 68:1.67581 69:0.27035499 70:-0.0082763601 71:1.56098 72:0.314955 73:0.028000399 74:1.5703 
-0 -10 -10 10 0 0 0 0 0 0 0 0 0 0 0 0 0:0.104344 1:0.0124233 2:1.8184201 3:0 4:0.30000001 5:1.8 6:-0.104667 7:0.57548201 8:1.76368 9:-0.168936 10:0.72522098 11:1.75107 12:-0.21684299 13:0.413232 14:1.8022799 15:-0.198494 16:0.17996199 17:1.8138 18:-0.171294 19:-0.035417002 20:1.7496001 21:-0.166208 22:-0.10607 23:1.72066 24:0.067065798 25:0.49178299 26:1.75653 27:0.220176 28:0.29447401 29:1.74786 30:0.28742701 31:0.0907396 32:1.61499 33:0.28167799 34:0.045874801 35:1.57724 36:0.042782798 37:-0.0088236602 38:1.79512 39:0.099746197 40:-0.49835899 41:1.66983 42:0.130337 43:-0.81437999 44:1.64718 45:0.115392 46:-0.85756803 47:1.5382 48:0.16554999 49:0.036795001 50:1.76215 51:0.54039901 52:-0.066531003 53:1.74738 54:0.867176 55:-0.26434299 56:1.7599601 57:0.83990699 58:-0.30451801 59:1.62839 60:-0.078639597 61:0.50831598 62:1.77552 63:-0.146479 64:-0.155623 65:1.68398 66:-0.175209 67:-0.150509 68:1.68545 69:0.28011101 70:0.00605339 71:1.56011 72:0.241524 73:0.027189599 74:1.55775 
-0 -10 -10 10 0 0 0 0 0 0 0 0 0 0 0 0 0:0.107886 1:0.0139377 2:1.81988 3:0 4:0.30000001 5:1.8 6:-0.107424 7:0.57420999 8:1.76237 9:-0.174495 10:0.72361898 11:1.74915 12:-0.21634001 13:0.41135699 14:1.80005 15:-0.19982401 16:0.183029 17:1.81109 18:-0.169909 19:-0.032206502 20:1.74843 21:-0.164142 22:-0.101051 23:1.72007 24:0.070092902 25:0.49339601 26:1.75688 27:0.223105 28:0.29597199 29:1.74765 30:0.28838301 31:0.0926589 32:1.61303 33:0.28454301 34:0.041034099 35:1.57426 36:0.046341602 37:-0.0076561701 38:1.7963001 39:0.104415 40:-0.49555299 41:1.67031 42:0.134721 43:-0.812518 44:1.648 45:0.120023 46:-0.85541397 47:1.53897 48:0.169066 49:0.038655002 50:1.76393 51:0.54750502 52:-0.050612699 53:1.7498699 54:0.88559002 55:-0.228273 56:1.76324 57:0.85917002 58:-0.269124 59:1.63155 60:-0.081023298 61:0.50721699 62:1.77441 63:-0.14666 64:-0.15305901 65:1.68381 66:-0.17186099 67:-0.148893 68:1.68388 69:0.278797 70:0.010114 71:1.5578901 72:0.25882801 73:0.046699401 74:1.54923 
-0 -10 -8.756587244913353 10 0 0 0 0 0 0 0 0 0 0 0 0 0:0.111049 1:0.0159276 2:1.82133 3:0 4:0.30000001 5:1.8 6:-0.112442 7:0.57156301 8:1.76028 9:-0.181468 10:0.72080898 11:1.74634 12:-0.228912 13:0.39571801 14:1.79728 15:-0.202347 16:0.186244 17:1.80853 18:-0.169238 19:-0.0298391 20:1.74555 21:-0.16210499 22:-0.095626198 23:1.7188801 24:0.057153199 25:0.48559001 26:1.7497 27:0.221706 28:0.29812199 29:1.74586 30:0.28849101 31:0.095753796 32:1.61049 33:0.28672901 34:0.0473148 35:1.57143 36:0.0496994 37:-0.0061742398 38:1.7975399 39:0.107619 40:-0.49342501 41:1.67115 42:0.13847201 43:-0.80950397 44:1.64698 45:0.123738 46:-0.85179198 47:1.53822 48:0.172113 49:0.0409461 50:1.76564 51:0.55603898 52:-0.0202873 53:1.75302 54:0.90309501 55:-0.179573 56:1.76745 57:0.87547302 58:-0.22180501 59:1.63618 60:-0.084715702 61:0.50522798 62:1.77284 63:-0.147195 64:-0.14835601 65:1.68601 66:-0.150674 67:-0.143057 68:1.6611201 69:0.283797 70:0.0166605 71:1.55601 72:0.248707 73:0.028925801 74:1.56081 
-0 -5.737245951553101 -0 10 0 0 0 0 0 0 0 0 0 0 0 0 0:0.11442 1:0.017146099 2:1.82234 3:0 4:0.30000001 5:1.8 6:-0.116682 7:0.57048702 8:1.75919 9:-0.186039 10:0.71840298 11:1.74465 12:-0.23216701 13:0.393361 14:1.79707 15:-0.201346 16:0.185275 17:1.80593 18:-0.167367 19:-0.027636601 20:1.74282 21:-0.15782399 22:-0.0936625 23:1.7121 24:0.053237401 25:0.48648801 26:1.74914 27:0.221165 28:0.302003 29:1.74501 30:0.290218 31:0.0996437 32:1.61085 33:0.29111499 34:0.050098501 35:1.57318 36:0.053198099 37:-0.0051836101 38:1.79811 39:0.111139 40:-0.49208799 41:1.67147 42:0.14195301 43:-0.80878299 44:1.64837 45:0.127129 46:-0.85024798 47:1.53874 48:0.17529701 49:0.042487301 50:1.76762 51:0.56156099 52:-0.0017933 53:1.75543 54:0.91218698 55:-0.152114 56:1.77434 57:0.884583 58:-0.195057 59:1.64317 60:-0.087944299 61:0.50436902 62:1.77198 63:-0.13848899 64:-0.144962 65:1.6740299 66:-0.168725 67:-0.13752 68:1.686 69:0.288057 70:0.0196978 71:1.56012 72:0.253252 73:0.029615801 74:1.56129 
-0 -0 -0 10 0 0 0 0 0 0 0 0 0 0 0 0 0:0.117783 1:0.0181669 2:1.82346 3:0 4:0.30000001 5:1.8 6:-0.12126 7:0.56847203 8:1.7586 9:-0.190937 10:0.717673 11:1.74456 12:-0.232446 13:0.38988599 14:1.79418 15:-0.20263299 16:0.181253 17:1.80272 18:-0.16806699 19:-0.026023 20:1.73884 21:-0.155361 22:-0.0903586 23:1.7088799 24:0.042903502 25:0.48069799 26:1.74647 27:0.21929701 28:0.30453199 29:1.74419 30:0.29182699 31:0.102985 32:1.61068 33:0.29374301 34:0.052994501 35:1.57472 36:0.0570914 37:-0.00521348 38:1.79863 39:0.112975 40:-0.49009299 41:1.67179 42:0.14409401 43:-0.80677599 44:1.64925 45:0.129206 46:-0.84791201 47:1.53825 48:0.178463 49:0.044292498 50:1.76922 51:0.59723097 52:0.0079748798 53:1.7623399 54:0.95059597 55:-0.138394 56:1.76414 57:0.92214602 58:-0.181863 59:1.63337 60:-0.091259897 61:0.50285703 62:1.77151 63:-0.137429 64:-0.142555 65:1.67088 66:-0.169212 67:-0.056975801 68:1.68607 69:0.293915 70:0.022634201 71:1.56217 72:0.25864899 73:0.040201399 74:1.55902 
-0 -0 -0 10 0 0 0 0 0 0 0 0 0 0 0 0 0:0.121026 1:0.0198579 2:1.8246 3:0 4:0.30000001 5:1.8 6:-0.125366 7:0.56649202 8:1.75722 9:-0.19745401 10:0.71509397 11:1.74326 12:-0.22952101 13:0.39252201 14:1.79522 15:-0.202122 16:0.177067 17:1.80068 18:-0.16597401 19:-0.0253851 20:1.7342 21:-0.15224899 22:-0.090404101 23:1.70266 24:0.041250799 25:0.48001999 26:1.7460999 27:0.220102 28:0.306382 29:1.7439899 30:0.30239299 31:0.126095 32:1.61563 33:0.301171 34:0.067711197 35:1.57924 36:0.060478602 37:-0.00375049 38:1.79923 39:0.115899 40:-0.488047 41:1.6729 42:0.146433 43:-0.80417001 44:1.65008 45:0.13279399 46:-0.84691501 47:1.5427999 48:0.181751 49:0.046274699 50:1.77125 51:0.59966701 52:0.0141896 53:1.76311 54:0.95773798 55:-0.119327 56:1.77054 57:1.05906 58:-0.120976 59:1.69143 60:-0.094431199 61:0.50134403 62:1.77046 63:-0.132957 64:-0.142125 65:1.66438 66:-0.162164 67:-0.065811202 68:1.67722 69:0.29629999 70:0.0270986 71:1.56203 72:0.263877 73:0.0515345 74:1.56042 
-0 -10 -10 10 0 0 0 0 0 0 0 0 0 0 0 0 0:0.111367 1:0.0143334 2:1.83033 3:0 4:0.30000001 5:1.8 6:-0.109409 7:0.57324499 8:1.75358 9:-0.17928401 10:0.72171402 11:1.73752 12:-0.21715701 13:0.414038 14:1.79706 15:-0.217513 16:0.19678301 17:1.81304 18:-0.186518 19:-0.039366499 20:1.7479399 21:-0.183688 22:-0.104488 23:1.7165101 24:0.067231901 25:0.496409 26:1.7551301 27:0.220549 28:0.2994 29:1.74761 30:0.28351799 31:0.095755003 32:1.61236 33:0.27386001 34:0.0573573 35:1.58035 36:0.0513294 37:-0.0073764599 38:1.80493 39:0.109815 40:-0.48159999 41:1.68182 42:0.124603 43:-0.80485201 44:1.65687 45:0.105285 46:-0.848912 47:1.54102 48:0.170386 49:0.039480601 50:1.77599 51:0.55191302 52:-0.0602278 53:1.78663 54:0.88873398 55:-0.238346 56:1.80715 57:0.863442 58:-0.28054601 59:1.67608 60:-0.082603 61:0.50651503 62:1.76773 63:-0.156883 64:-0.153585 65:1.6777 66:-0.20361599 67:-0.116869 68:1.70622 69:0.271081 70:0.0161872 71:1.56328 72:0.23493201 73:0.039532501 74:1.56688 
-0 -10 -10 10 0 0 0 0 0 0 0 0 0 0 0 0 0:0.113581 1:0.0156079 2:1.83182 3:0 4:0.30000001 5:1.8 6:-0.111072 7:0.57222801 8:1.75237 9:-0.18107501 10:0.72092998 11:1.7363 12:-0.221121 13:0.41221601 14:1.79214 15:-0.21917699 16:0.19752 17:1.81269 18:-0.18463901 19:-0.0366656 20:1.74967 21:-0.184195 22:-0.101303 23:1.71912 24:0.0602246 25:0.49393901 26:1.75111 27:0.219228 28:0.30172601 29:1.74682 30:0.27949801 31:0.097541504 32:1.6110801 33:0.270125 34:0.058362599 35:1.5792 36:0.053509898 37:-0.00616385 38:1.8062299 39:0.112829 40:-0.475701 41:1.68284 42:0.128759 43:-0.80347198 44:1.65898 45:0.10856 46:-0.84746897 47:1.54298 48:0.172674 49:0.040803298 50:1.77765 51:0.55382502 52:-0.018683299 53:1.78579 54:0.89511102 55:-0.187962 56:1.80822 57:0.87001902 58:-0.23117501 59:1.67716 60:-0.083877802 61:0.50572097 62:1.7668 63:-0.157169 64:-0.151319 65:1.68169 66:-0.2058 67:-0.109648 68:1.71275 69:0.26888701 70:0.019901199 71:1.56205 72:0.228351 73:0.041405998 74:1.56868 
-0 -10 -0 10 0 0 0 0 0 0 0 0 0 0 0 0 0:0.115846 1:0.0170833 2:1.83315 3:0 4:0.30000001 5:1.8 6:-0.113628 7:0.57062203 8:1.7513601 9:-0.18289299 10:0.71954799 11:1.73467 12:-0.224088 13:0.408429 14:1.79055 15:-0.220513 16:0.197955 17:1.8102 18:-0.182513 19:-0.041367002 20:1.75326 21:-0.183599 22:-0.100119 23:1.7195801 24:0.051173601 25:0.48615301 26:1.74614 27:0.21895701 28:0.30210501 29:1.7467099 30:0.27362299 31:0.0989476 32:1.6067899 33:0.26767501 34:0.061449401 35:1.57429 36:0.055597801 37:-0.00471179 38:1.80739 39:0.116251 40:-0.47129601 41:1.6831599 42:0.131795 43:-0.80177897 44:1.66073 45:0.111218 46:-0.84581602 47:1.54509 48:0.175118 49:0.0423075 50:1.77914 51:0.55784601 52:-0.0061646798 53:1.7874399 54:0.90466797 55:-0.16353001 56:1.81092 57:1.00941 58:-0.174372 59:1.74324 60:-0.085763499 61:0.50452101 62:1.7660201 63:-0.147158 64:-0.153979 65:1.6834 66:-0.20028099 67:-0.115584 68:1.7029901 69:0.26451501 70:0.0234218 71:1.55832 72:0.224572 73:0.042720001 74:1.56189 
-0 -0 -0 10 0 0 0 0 0 0 0 0 0 0 0 0 0:0.117505 1:0.0183999 2:1.83445 3:0 4:0.30000001 5:1.8 6:-0.115988 7:0.56916499 8:1.74998 9:-0.185697 10:0.71811599 11:1.73306 12:-0.22250099 13:0.409767 14:1.7919 15:-0.221522 16:0.198001 17:1.8080601 18:-0.181565 19:-0.041894201 20:1.75608 21:-0.184935 22:-0.096997 23:1.72338 24:0.053607401 25:0.48758301 26:1.7481 27:0.219826 28:0.30199 29:1.7475801 30:0.27188501 31:0.099032298 32:1.60629 33:0.265273 34:0.062934399 35:1.57178 36:0.057161901 37:-0.0031951701 38:1.8080699 39:0.118457 40:-0.46840799 41:1.68349 42:0.133507 43:-0.80026799 44:1.66219 45:0.113311 46:-0.84428698 47:1.5456001 48:0.17684001 49:0.043406799 50:1.78071 51:0.59458101 52:0.00076283503 53:1.79418 54:0.94002199 55:-0.161157 56:1.8083301 57:1.0444 58:-0.161888 59:1.73815 60:-0.087501302 61:0.50342298 62:1.76499 63:-0.145677 64:-0.158025 65:1.6866 66:-0.203252 67:-0.108633 68:1.70608 69:0.26041299 70:0.0254004 71:1.55357 72:0.22393 73:0.0473038 74:1.55925 
-0 -0 -0 10 0 0 0 0 0 0 0 0 0 0 0 0 0:0.119631 1:0.0197563 2:1.8356301 3:0 4:0.30000001 5:1.8 6:-0.119466 7:0.56714797 8:1.74805 9:-0.189357 10:0.71673799 11:1.73195 12:-0.221876 13:0.41107401 14:1.7927099 15:-0.224453 16:0.199094 17:1.80718 18:-0.181362 19:-0.040599499 20:1.75717 21:-0.18516199 22:-0.093622103 23:1.72199 24:0.052231099 25:0.48748401 26:1.74865 27:0.219944 28:0.303229 29:1.74787 30:0.27074099 31:0.100375 32:1.60593 33:0.264422 34:0.065211698 35:1.56982 36:0.0592748 37:-0.00182562 38:1.80896 39:0.120158 40:-0.46799701 41:1.68363 42:0.134509 43:-0.79822898 44:1.66386 45:0.115626 46:-0.84258902 47:1.5449899 48:0.17901599 49:0.044734601 50:1.78222 51:0.59853297 52:0.00592901 53:1.79527 54:0.95055902 55:-0.141781 56:1.80554 57:1.0537 58:-0.12726 59:1.73297 60:-0.089972898 61:0.50192398 62:1.76359 63:-0.147338 64:-0.155772 65:1.69137 66:-0.200545 67:-0.103244 68:1.6975 69:0.25995299 70:0.027946699 71:1.55217 72:0.220869 73:0.043178398 74:1.5589499 
-0 -0 -0 10 0 0 0 0 0 0 0 0 0 0 0 0 0:0.121813 1:0.020752 2:1.83637 3:0 4:0.30000001 5:1.8 6:-0.120727 7:0.567366 8:1.74819 9:-0.192573 10:0.71510297 11:1.73043 12:-0.227936 13:0.404127 14:1.78619 15:-0.22785699 16:0.203096 17:1.80389 18:-0.184591 19:-0.0339223 20:1.7502 21:-0.18265399 22:-0.0955863 23:1.71989 24:0.0408452 25:0.479498 26:1.7445 27:0.21855 28:0.30559 29:1.74875 30:0.27065 31:0.103749 32:1.60578 33:0.26679 34:0.067974001 35:1.57015 36:0.061498899 37:-0.00125152 38:1.80865 39:0.122926 40:-0.46620199 41:1.68401 42:0.136225 43:-0.79530901 44:1.6650701 45:0.117322 46:-0.83974898 47:1.54712 48:0.18116499 49:0.046092998 50:1.78379 51:0.60204798 52:0.0169893 53:1.795 54:0.95562899 55:-0.1268 56:1.80616 57:1.05927 58:-0.116229 59:1.73453 60:-0.091029599 61:0.50201398 62:1.76364 63:-0.154182 64:-0.15165401 65:1.68348 66:-0.19648699 67:-0.104772 68:1.69564 69:0.260178 70:0.029681601 71:1.5520101 72:0.22472601 73:0.051782701 74:1.55821 
-4.554494772977894 -10 -10 -10 4.715662421582135 4.263137686876733 3.063881760559728 2.274611811315807 5.190279162695495 2.98444231497984 2.109757606733394 2.054677276623733 5.01618582176462 2.28422453248055 3.733459731248657 4.256940624346637 0:0.086635903 1:0.0053698402 2:1.80024 3:0 4:0.30000001 5:1.8 6:-0.086472601 7:0.58187598 8:1.7832201 9:-0.142028 10:0.737701 11:1.7689 12:-0.213614 13:0.417869 14:1.80417 15:-0.21864 16:0.17449901 17:1.80009 18:-0.190661 19:-0.059388101 20:1.71589 21:-0.18355399 22:-0.123082 23:1.68417 24:0.0945099 25:0.491745 26:1.78646 27:0.21351799 28:0.27197301 29:1.7628599 30:0.27214801 31:0.072555304 32:1.61912 33:0.276573 34:0.031441499 35:1.58383 36:0.027086301 37:-0.0126619 38:1.77402 39:0.085769802 40:-0.508717 41:1.68268 42:0.108816 43:-0.82379699 44:1.63772 45:0.082645997 46:-0.87838602 47:1.52615 48:0.14479101 49:0.026343901 50:1.74696 51:0.54707402 52:-0.085095599 53:1.73965 54:0.88484502 55:-0.263771 56:1.70383 57:0.86384201 58:-0.30023199 59:1.56934 60:-0.065219797 61:0.51300502 62:1.78997 63:-0.168681 64:-0.17658401 65:1.64789 66:-0.20865899 67:-0.148785 68:1.66693 69:0.27420601 70:-0.0063352999 71:1.55907 72:0.31366399 73:0.017418999 74:1.57543 
-0 -10 -10 -10 0 0 0 0 0 0 0 0 0 0 0 0 0:0.088089198 1:0.0059564998 2:1.80075 3:0 4:0.30000001 5:1.8 6:-0.088387802 7:0.58090198 8:1.78256 9:-0.145528 10:0.73591399 11:1.76775 12:-0.215129 13:0.41482699 14:1.79994 15:-0.21874399 16:0.176109 17:1.79965 18:-0.19237199 19:-0.056577001 20:1.71531 21:-0.18252601 22:-0.124419 23:1.68229 24:0.082949899 25:0.48974699 26:1.78119 27:0.211769 28:0.27554899 29:1.76215 30:0.27285299 31:0.075272404 32:1.62079 33:0.2766 34:0.02307 35:1.57932 36:0.028577 37:-0.0122631 38:1.77468 39:0.089165002 40:-0.50641602 41:1.68303 42:0.111252 43:-0.82388502 44:1.63799 45:0.084123097 46:-0.877621 47:1.5258 48:0.146194 49:0.0271663 50:1.74739 51:0.55606401 52:-0.082866497 53:1.73999 54:0.90225601 55:-0.24157999 56:1.68767 57:0.88038898 58:-0.27852601 59:1.55336 60:-0.0666475 61:0.51228797 62:1.78947 63:-0.167896 64:-0.175767 65:1.64864 66:-0.188538 67:-0.16611899 68:1.63491 69:0.27177101 70:-0.0077712401 71:1.5661401 72:0.309872 73:0.036352199 74:1.56173 
-0 -10 -10 -10 0 0 0 0 0 0 0 0 0 0 0 0 0:0.089304604 1:0.0063162702 2:1.8013 3:0 4:0.30000001 5:1.8 6:-0.089934498 7:0.58081001 8:1.78181 9:-0.147379 10:0.73523003 11:1.76735 12:-0.214469 13:0.41044801 14:1.79763 15:-0.218972 16:0.17698701 17:1.7994699 18:-0.19249301 19:-0.053526599 20:1.71637 21:-0.183368 22:-0.119131 23:1.68686 24:0.085364103 25:0.489764 26:1.78204 27:0.212745 28:0.27470899 29:1.76212 30:0.27422699 31:0.074603602 32:1.62069 33:0.277358 34:0.022637101 35:1.58096 36:0.029808201 37:-0.0121812 38:1.77539 39:0.091745503 40:-0.50544399 41:1.6830601 42:0.11393 43:-0.82336998 44:1.6386 45:0.085394599 46:-0.87695402 47:1.52592 48:0.14742801 49:0.0276378 50:1.74787 51:0.561782 52:-0.079799898 53:1.74098 54:0.90653002 55:-0.241337 56:1.6876 57:0.88558197 58:-0.27825701 59:1.55322 60:-0.0678095 61:0.51218599 62:1.7889 63:-0.16733401 64:-0.17050099 65:1.65142 66:-0.19727001 67:-0.162513 68:1.6494 69:0.26881301 70:-0.0105065 71:1.56771 72:0.30965501 73:0.0345008 74:1.55841 
-0 -10 -10 -10 0 0 0 0 0 0 0 0 0 0 0 0 0:0.090801097 1:0.0069276998 2:1.8020999 3:0 4:0.30000001 5:1.8 6:-0.091288902 7:0.58047301 8:1.78106 9:-0.14884201 10:0.734662 11:1.76638 12:-0.212534 13:0.407507 14:1.79483 15:-0.218327 16:0.17804199 17:1.7989399 18:-0.191284 19:-0.051530998 20:1.7164201 21:-0.181438 22:-0.117041 23:1.6845 24:0.087641403 25:0.49047899 26:1.78239 27:0.21374699 28:0.274681 29:1.76117 30:0.27605501 31:0.074619502 32:1.62007 33:0.27724001 34:0.024022499 35:1.5803 36:0.031324401 37:-0.0123588 38:1.7764601 39:0.094492704 40:-0.50305802 41:1.6815799 42:0.116012 43:-0.82251197 44:1.63773 45:0.086964302 46:-0.87576598 47:1.52608 48:0.14897101 49:0.0287049 50:1.74843 51:0.56548101 52:-0.076622099 53:1.74001 54:0.90959698 55:-0.23952299 56:1.68678 57:0.88957298 58:-0.27644199 59:1.55235 60:-0.068842001 61:0.51190501 62:1.78834 63:-0.166798 64:-0.16845401 65:1.6478601 66:-0.19939999 67:-0.130097 68:1.66941 69:0.27266601 70:-0.0083178002 71:1.56547 72:0.31364799 73:0.031833101 74:1.56551 
-0 -10 -10 -10 0 0 0 0 0 0 0 0 0 0 0 0 0:0.0919673 1:0.0075453501 2:1.8024 3:0 4:0.30000001 5:1.8 6:-0.092344001 7:0.57970399 8:1.78088 9:-0.149662 10:0.73366803 11:1.76566 12:-0.211209 13:0.41034901 14:1.7975 15:-0.217862 16:0.17774899 17:1.79863 18:-0.190807 19:-0.049736999 20:1.7167799 21:-0.18260799 22:-0.115071 23:1.6878 24:0.08907 25:0.49078399 26:1.78247 27:0.214046 28:0.27432999 29:1.76061 30:0.26541999 31:0.070860498 32:1.61994 33:0.272834 34:0.032926399 35:1.59006 36:0.032526601 37:-0.0118215 38:1.77674 39:0.096422002 40:-0.50152701 41:1.68001 42:0.117604 43:-0.82197201 44:1.63699 45:0.088261798 46:-0.87497199 47:1.52555 48:0.15014599 49:0.0294201 50:1.7487299 51:0.56825203 52:-0.074798703 53:1.7393 54:0.91203499 55:-0.238196 56:1.68521 57:0.89128602 58:-0.275251 59:1.55089 60:-0.069652401 61:0.511338 62:1.78819 63:-0.167017 64:-0.167078 65:1.64698 66:-0.19221801 67:-0.16451401 68:1.64589 69:0.273175 70:-0.0095715998 71:1.5656 72:0.303442 73:0.038407698 74:1.5576299 
-0 -0 -0 -10 0 0 0 0 0 0 0 0 0 0 0 0 0:0.124305 1:0.0209931 2:1.82534 3:0 4:0.30000001 5:1.8 6:-0.12952299 7:0.56526399 8:1.75692 9:-0.20275401 10:0.711752 11:1.74157 12:-0.229443 13:0.39266101 14:1.79493 15:-0.19344901 16:0.145724 17:1.78719 18:-0.14735 19:-0.084122799 20:1.69991 21:-0.13198 22:-0.14692201 23:1.66792 24:0.040516999 25:0.47945499 26:1.74536 27:0.22080299 28:0.30731601 29:1.7433 30:0.30494401 31:0.104591 32:1.6195 33:0.302701 34:0.070136502 35:1.58092 36:0.063941397 37:-0.00299938 38:1.79952 39:0.116588 40:-0.46898699 41:1.67413 42:0.14875899 43:-0.80309701 44:1.6532201 45:0.13437 46:-0.85307699 47:1.55627 48:0.18492199 49:0.047898199 50:1.77246 51:0.60480201 52:0.024300501 53:1.76244 54:0.96050602 55:-0.11545 56:1.76987 57:1.06213 58:-0.109648 59:1.6913 60:-0.0975646 61:0.50040603 62:1.77021 63:-0.11154 64:-0.199596 65:1.6313699 66:-0.152529 67:-0.154268 68:1.65576 69:0.296922 70:0.028575599 71:1.56405 72:0.26610199 73:0.042084798 74:1.56098 
-0 -10 -0 -10 0 0 0 0 0 0 0 0 0 0 0 0 0:0.128373 1:0.0222292 2:1.82675 3:0 4:0.30000001 5:1.8 6:-0.133908 7:0.56349802 8:1.75515 9:-0.208799 10:0.70936102 11:1.74117 12:-0.22925299 13:0.392461 14:1.79495 15:-0.201511 16:0.156325 17:1.78898 18:-0.16416299 19:-0.021593601 20:1.71742 21:-0.146192 22:-0.087643899 23:1.69324 24:0.038993798 25:0.47868699 26:1.74512 27:0.220642 28:0.30797601 29:1.7429301 30:0.30577499 31:0.107221 32:1.61642 33:0.305087 34:0.071115002 35:1.5809 36:0.068615802 37:-0.0026346301 38:1.7998 39:0.117523 40:-0.463599 41:1.67501 42:0.14991 43:-0.79986203 44:1.65332 45:0.13782901 46:-0.84557199 47:1.55065 48:0.18867999 49:0.050163198 50:1.7749 51:0.59272301 52:0.049579199 53:1.7594399 54:0.95489502 55:-0.074784897 56:1.75327 57:0.92593002 58:-0.120319 59:1.62306 60:-0.100754 61:0.49912101 62:1.76893 63:-0.126885 64:-0.14145701 65:1.65204 66:-0.157432 67:-0.111601 68:1.66921 69:0.30037799 70:0.028930601 71:1.5664001 72:0.26730999 73:0.044345099 74:1.56279 
-0 -5.11427237050125 -0 -10 0 0 0 0 0 0 0 0 0 0 0 0 0:0.131576 1:0.023219099 2:1.8279901 3:0 4:0.30000001 5:1.8 6:-0.136654 7:0.56284499 8:1.75411 9:-0.212807 10:0.70847499 11:1.74058 12:-0.23025 13:0.39173201 14:1.79528 15:-0.202278 16:0.161566 17:1.78991 18:-0.161645 19:-0.024524899 20:1.7183 21:-0.143612 22:-0.089018002 23:1.69121 24:0.038687099 25:0.478369 26:1.74436 27:0.22126301 28:0.30871499 29:1.74279 30:0.30796501 31:0.109012 32:1.61563 33:0.30797899 34:0.072514802 35:1.58306 36:0.072249196 37:-0.0022772099 38:1.80041 39:0.121062 40:-0.449411 41:1.67564 42:0.153337 43:-0.79731899 44:1.6544501 45:0.140258 46:-0.843777 47:1.55003 48:0.191502 49:0.051792499 50:1.77683 51:0.59461701 52:0.055484898 53:1.75878 54:0.95620698 55:-0.070510998 56:1.75375 57:0.927154 58:-0.116435 59:1.6237299 60:-0.102949 61:0.498564 62:1.76814 63:-0.122928 64:-0.137867 65:1.64806 66:-0.154658 67:-0.115506 68:1.66982 69:0.30319601 70:0.032046199 71:1.5668499 72:0.26936099 73:0.045767501 74:1.56345 
-0 -0 -0 -10 0 0 0 0 0 0 0 0 0 0 0 0 0:0.134453 1:0.024382699 2:1.82899 3:0 4:0.30000001 5:1.8 6:-0.13896 7:0.56222898 8:1.75328 9:-0.216426 10:0.70759201 11:1.7414 12:-0.229765 13:0.39214799 14:1.7962101 15:-0.20086101 16:0.163725 17:1.79022 18:-0.159225 19:-0.0230767 20:1.71887 21:-0.14021499 22:-0.0866763 23:1.69169 24:0.038706198 25:0.47850499 26:1.74453 27:0.22151799 28:0.309064 29:1.7426701 30:0.31029901 31:0.110216 32:1.61563 33:0.309526 34:0.074381799 35:1.5836999 36:0.075489499 37:-0.0014940799 38:1.80075 39:0.122082 40:-0.45272201 41:1.67764 42:0.15617999 43:-0.794294 44:1.65424 45:0.14347699 46:-0.84181303 47:1.54886 48:0.194231 49:0.053276502 50:1.7785701 51:0.599168 52:0.061586801 53:1.75878 54:0.96221298 55:-0.060271401 56:1.752 57:0.93299198 58:-0.106634 59:1.62216 60:-0.104788 61:0.49806899 62:1.76748 63:-0.120715 64:-0.136114 65:1.6479 66:-0.150759 67:-0.11612 68:1.6686 69:0.30716801 70:0.034446001 71:1.5708899 72:0.27349901 73:0.047331601 74:1.56761 
-0 -0 -0 -8.429928436588137 0 0 0 0 0 0 0 0 0 0 0 0 0:0.136529 1:0.0248232 2:1.82962 3:0 4:0.30000001 5:1.8 6:-0.14010599 7:0.56211102 8:1.75313 9:-0.22170199 10:0.705401 11:1.74159 12:-0.230003 13:0.39213899 14:1.79615 15:-0.200214 16:0.16469499 17:1.7903399 18:-0.15816499 19:-0.022327101 20:1.71896 21:-0.137686 22:-0.085534804 23:1.69204 24:0.038324598 25:0.478192 26:1.74432 27:0.221634 28:0.309277 29:1.74233 30:0.31158301 31:0.110865 32:1.61545 33:0.31218201 34:0.076174699 35:1.58468 36:0.077561103 37:-0.00134978 38:1.80091 39:0.123402 40:-0.451612 41:1.67837 42:0.161452 43:-0.79963499 44:1.66406 45:0.14479201 46:-0.84121799 47:1.54904 48:0.19613101 49:0.054064199 50:1.77957 51:0.60280901 52:0.066485099 53:1.75843 54:0.96727502 55:-0.0510098 56:1.7515301 57:0.93800098 58:-0.097640201 59:1.62177 60:-0.105686 61:0.49796501 62:1.76736 63:-0.118298 64:-0.137694 65:1.64689 66:-0.14247499 67:-0.082245298 68:1.65684 69:0.30873501 70:0.035707202 71:1.56844 72:0.27546901 73:0.0504 74:1.5702699 
-0 -4.516359933904027 -0 -10 0 0 0 0 0 0 0 0 0 0 0 0 0:0.124662 1:0.0226546 2:1.83715 3:0 4:0.30000001 5:1.8 6:-0.124089 7:0.565386 8:1.74782 9:-0.194309 10:0.71582299 11:1.7308 12:-0.228659 13:0.40457499 14:1.7827801 15:-0.22900499 16:0.20595001 17:1.80111 18:-0.182579 19:-0.031470999 20:1.75249 21:-0.18182901 22:-0.089934997 23:1.72175 24:0.038757 25:0.47932699 26:1.74454 27:0.21808 28:0.30731499 29:1.75028 30:0.27282 31:0.106472 32:1.6068701 33:0.26954699 34:0.071094602 35:1.57152 36:0.064351 37:0.000254035 38:1.80869 39:0.123703 40:-0.42726499 41:1.67802 42:0.138833 43:-0.79103702 44:1.66642 45:0.119583 46:-0.83599001 47:1.5493799 48:0.18395901 49:0.0484499 50:1.78529 51:0.60691702 52:0.028520999 53:1.79503 54:0.96175897 55:-0.112362 56:1.80497 57:1.0656 58:-0.100392 59:1.73466 60:-0.093523398 61:0.50053197 62:1.76332 63:-0.15724801 64:-0.14820001 65:1.6866 66:-0.196881 67:-0.10175 68:1.70371 69:0.26725101 70:0.035305399 71:1.5530601 72:0.235705 73:0.057821602 74:1.54846 
-0 -10 -10 -10 0 0 0 0 0 0 0 0 0 0 0 0 0:0.126476 1:0.023560099 2:1.83759 3:0 4:0.30000001 5:1.8 6:-0.126188 7:0.56468499 8:1.74748 9:-0.19596501 10:0.71503502 11:1.73077 12:-0.231627 13:0.39936 14:1.77961 15:-0.229821 16:0.205356 17:1.79843 18:-0.181245 19:-0.030512 20:1.75314 21:-0.181411 22:-0.086682901 23:1.7225 24:0.036108699 25:0.47865501 26:1.74468 27:0.216307 28:0.30766201 29:1.75114 30:0.27391499 31:0.108052 32:1.60711 33:0.27325401 34:0.071886599 35:1.57459 36:0.066330202 37:0.00109713 38:1.80872 39:0.125459 40:-0.42552999 41:1.67882 42:0.140323 43:-0.78932202 44:1.66716 45:0.120905 46:-0.83488703 47:1.5509501 48:0.185665 49:0.0493926 50:1.78611 51:0.61113101 52:0.036959399 53:1.79465 54:0.97575498 55:-0.077947803 56:1.79475 57:0.95148402 58:-0.123643 59:1.6641901 60:-0.095116198 61:0.49996999 62:1.76306 63:-0.152109 64:-0.14704201 65:1.6921901 66:-0.201352 67:-0.095237799 68:1.712 69:0.271644 70:0.034671001 71:1.5592 72:0.230259 73:0.044213898 74:1.56129 
-0 -10 -7.751873716995829 -10 0 0 0 0 0 0 0 0 0 0 0 0 0:0.12824599 1:0.024477299 2:1.83764 3:0 4:0.30000001 5:1.8 6:-0.12806299 7:0.56354302 8:1.7478 9:-0.19819701 10:0.712735 11:1.7309 12:-0.232024 13:0.397075 14:1.77885 15:-0.229784 16:0.204537 17:1.7972701 18:-0.180154 19:-0.0287224 20:1.75248 21:-0.180094 22:-0.085439302 23:1.7197599 24:0.038632199 25:0.48042601 26:1.74654 27:0.216124 28:0.30627701 29:1.75087 30:0.27606201 31:0.107371 32:1.60684 33:0.27634799 34:0.071243502 35:1.57812 36:0.067981899 37:0.0018743 38:1.8081 39:0.12750401 40:-0.42463201 41:1.67992 42:0.142221 43:-0.78755897 44:1.66789 45:0.123114 46:-0.83307201 47:1.55304 48:0.187452 49:0.050409298 50:1.78676 51:0.61398703 52:0.043227501 53:1.79445 54:0.97858697 55:-0.071937397 56:1.79335 57:0.95527703 58:-0.117488 59:1.66258 60:-0.096533 61:0.499136 62:1.76326 63:-0.15576699 64:-0.14530601 65:1.68622 66:-0.195694 67:-0.107089 68:1.69753 69:0.273516 70:0.0338508 71:1.5617501 72:0.235296 73:0.048461601 74:1.56365 
-0 -0 -0 -10 0 0 0 0 0 0 0 0 0 0 0 0 0:0.130308 1:0.0253595 2:1.8374701 3:0 4:0.30000001 5:1.8 6:-0.13019 7:0.56229901 8:1.74782 9:-0.20033 10:0.71141702 11:1.7314399 12:-0.23297 13:0.393525 14:1.77816 15:-0.23193499 16:0.203715 17:1.79375 18:-0.18002 19:-0.026749801 20:1.7523201 21:-0.17895401 22:-0.091769598 23:1.7148 24:0.032944199 25:0.47799501 26:1.74524 27:0.21463799 28:0.30853599 29:1.75142 30:0.2771 31:0.109653 32:1.6085 33:0.27946699 34:0.072978102 35:1.58086 36:0.0703253 37:0.0021655599 38:1.8070101 39:0.128214 40:-0.414294 41:1.68041 42:0.143346 43:-0.78610498 44:1.669 45:0.124116 46:-0.83187199 47:1.55435 48:0.18922301 49:0.051713701 50:1.78736 51:0.61607999 52:0.049943902 53:1.79336 54:0.98562998 55:-0.049233899 56:1.78158 57:0.96187299 58:-0.095227897 59:1.65093 60:-0.098098896 61:0.49822199 62:1.76325 63:-0.162187 64:-0.144034 65:1.68311 66:-0.191734 67:-0.113251 68:1.69271 69:0.275635 70:0.033372801 71:1.56322 72:0.238343 73:0.052582201 74:1.56398 
-0 -0 -0 -10 0 0 0 0 0 0 0 0 0 0 0 0 0:0.1328 1:0.0258903 2:1.83691 3:0 4:0.30000001 5:1.8 6:-0.133377 7:0.56130499 8:1.74826 9:-0.203973 10:0.70995301 11:1.73226 12:-0.233538 13:0.39284101 14:1.77755 15:-0.234881 16:0.202536 17:1.7926 18:-0.179561 19:-0.024559099 20:1.7519701 21:-0.178876 22:-0.088693097 23:1.71481 24:0.0288637 25:0.47534001 26:1.7438999 27:0.21386801 28:0.30978999 29:1.75167 30:0.27849701 31:0.110799 32:1.60996 33:0.283719 34:0.073629797 35:1.58529 36:0.072675198 37:0.00241955 38:1.80639 39:0.12944899 40:-0.41366401 41:1.6805201 42:0.14463 43:-0.78444898 44:1.66943 45:0.125404 46:-0.830814 47:1.5577101 48:0.19177 49:0.052610699 50:1.78708 51:0.62973702 52:0.055192601 53:1.7918 54:0.99781901 55:-0.048935998 56:1.78157 57:0.97350299 58:-0.094999701 59:1.65106 60:-0.100382 61:0.497473 62:1.76353 63:-0.160863 64:-0.14246701 65:1.68325 66:-0.187645 67:-0.12993599 68:1.68919 69:0.282177 70:0.037304301 71:1.56797 72:0.242764 73:0.046386801 74:1.57144 
